404 128
0 -0.15081684 -0.21747914 -0.0126898885 0.09908867 0.036325697 -0.007196347 0.14487636 -0.0069645173 0.04299117 0.022355337 0.071241505 0.034557123 0.06392044 -0.082685485 0.10028064 0.06400122 -0.050928768 -0.16067012 -0.0705469 0.116259664 -0.0718259 0.3495914 -0.20029461 -0.19677326 -0.16484472 0.1025544 0.0002297408 0.12428893 -0.041957542 -0.15189134 -0.083862014 -0.11538011 -0.05619005 0.09563537 -0.14174818 -0.1539995 0.33069146 -0.073609054 0.049170144 -0.11250531 -0.06040046 -0.0858214 -0.005907238 0.07560986 -0.0042757113 0.13251548 -0.078563735 -0.021292489 0.025042566 -0.10401638 -0.007489191 0.07400625 0.058218732 -0.10924076 0.077852845 0.010375458 0.22132102 -0.015244323 0.08727674 0.0042398935 0.0350505 -0.08507474 0.080314875 0.021011366 0.04750222 -0.0124626085 0.0022741314 -0.021084927 0.039090198 0.0076519027 0.09089972 -0.058227982 -0.3515506 0.026915766 0.054441735 -0.025179561 -0.008967337 -0.012740916 0.024917478 0.041929036 0.040452644 -0.31882742 0.16084966 0.11638077 0.05491984 0.08742272 -0.06708454 0.019452598 0.034107998 0.042086955 0.14849254 -0.049483377 -0.065971605 0.05371509 0.19550397 -0.012323211 -0.04743689 -0.007575602 -0.107818395 0.032893457 -0.016632333 0.03274185 -0.18814887 0.129678 -0.047726523 -0.21453941 0.22110961 0.15422292 0.09579028 -0.120248586 0.2196573 0.11848688 -0.092194 0.10023625 -0.2480998 -0.10536482 -0.081288755 0.041498777 -0.041419487 0.048482023 -0.11014533 -0.012753345 0.10393245 0.094500415 -0.08867609 -0.19210422 0.07906815 -0.005188024
1 -0.0051030726 -0.12266708 -0.057576314 0.14160018 0.10763051 -0.082123876 0.12492773 0.034652315 0.030763932 -0.05781979 0.0864054 -0.122477725 -0.07222535 -0.009289284 0.16696554 0.27710277 -0.096197724 -0.29409412 0.10024511 0.11621857 0.067004055 0.14188182 -0.07236848 -0.1271542 -0.25097868 0.24394582 -0.19360508 0.005109815 0.0984252 -0.1579469 0.008747472 -0.19156529 -0.089011885 0.099276625 -0.077532314 -0.0018787162 0.23684496 0.007156753 0.09057176 -0.21720645 -0.04246016 -0.010303706 0.04248728 0.17413624 0.11965724 -0.0028452552 -0.011464233 -0.077572614 -0.25040832 -0.05561641 0.02219303 0.0072591477 -0.006177496 0.08986437 0.10584073 -0.03398477 0.39911586 -0.14496648 0.0053515886 0.22287333 -0.0739931 -0.07466426 0.091678955 -0.12757407 -0.08060875 -0.17089847 0.042581715 -0.10550028 0.02423295 -0.004466006 0.083936766 0.13388407 -0.21664679 0.120035216 0.05809499 0.070633195 -0.070310004 -0.013105929 0.11418274 -0.014595093 0.14642227 -0.16294573 0.064098105 -0.020685896 0.28237346 0.2551144 -0.17258188 0.08471421 0.17732069 0.07600812 0.071382985 0.13162686 -0.1374345 -0.0045552757 0.18493101 0.09908623 -0.079662114 -0.011613458 -0.108641334 0.10071597 0.103606656 0.09786021 -0.25922942 -0.07092721 0.0717106 -0.12995146 0.20432988 0.280188 0.22113076 -0.12183639 0.29741478 -0.050987482 -0.08876167 0.19724059 -0.22011943 -0.00597538 -0.031069487 0.127197 -0.2183578 -0.009501284 -0.25718895 0.07574504 0.011997251 0.09397788 0.004595258 -0.13279109 0.11774458 0.14496098
3 0.027107175 -0.011022937 -0.094117284 0.039617274 0.06317236 0.15821561 -0.03663024 0.063057 -0.06054195 0.15664724 0.053489372 -0.11228434 -0.066159114 -0.15551546 0.029453823 0.04301626 -0.28442028 0.103007235 0.000554478 0.16023648 -0.06771538 0.055614643 -0.09717399 -0.2341504 -0.05924511 0.118260615 -0.041484237 0.06516562 0.13031434 -0.2529345 -0.1549095 -0.0061768894 -0.1707359 0.06641838 -0.051100932 0.023804696 0.022962565 -0.067801155 0.07118336 0.14859353 0.118623324 0.052792527 0.0174441 0.033883553 -0.0666189 0.118594564 -0.08844003 -0.010177613 0.0062679704 -0.039852656 0.07829261 0.0013837739 0.085367665 0.24951977 0.12117159 0.00085580925 0.1280593 -0.054740626 0.048108514 -0.045771457 0.020923562 -0.031197716 0.09495903 0.1816576 0.1252476 -0.081728786 0.15161 0.1589006 0.12624265 -0.11337142 -0.0009799205 0.056885898 -0.3206083 0.031130224 -0.005353388 -0.21629305 -0.081821546 -0.06550907 0.08146622 0.12362412 0.0022598165 -0.27559504 0.18874864 0.18024793 0.19190091 0.15438734 0.058759786 -0.09775303 0.076271206 0.015101665 0.04801308 -0.12498569 0.12391587 -0.0019734749 0.25052464 0.18968554 -0.039164126 0.086766794 -0.11423641 -0.007832136 -0.091084465 0.0319734 -0.033788938 -0.04769165 -0.13540524 -0.0326772 0.008141919 0.090829305 0.08024389 -0.22504048 0.19702294 -0.056472328 -0.0012757359 -0.074992456 -0.17803249 -0.019044818 0.16798031 0.08378494 0.061215587 0.029047882 -0.066462405 -0.08331638 -0.09162955 0.03432218 -0.045567088 -0.03542659 -0.015291713 -0.0013607844
11 0.09738899 -0.23050256 0.05064996 0.14372182 0.018991852 -0.06648059 -0.13730726 0.04699965 -0.06450031 0.013841058 0.19224069 -0.03769791 -0.22886206 -0.031902853 0.18782008 0.0028920413 -0.2307009 -0.096894294 -0.23208126 0.12802497 0.059035804 0.13709083 -0.16214506 -0.09161411 -0.0051893736 0.04586883 -0.08366774 0.108915426 -0.042415544 -0.12283062 -0.13144891 -0.12468671 0.032215606 0.045056622 -0.057246562 -0.18275476 0.17696457 0.013306479 0.002122122 -0.025726369 0.06986024 0.033171456 0.009272146 0.031740636 -0.0031707524 0.06666238 -0.081497826 0.030706625 -0.009071043 0.056830198 -0.14091544 -0.023930747 0.10932409 0.040967956 0.19232057 0.023019653 0.18274257 -0.052291453 -0.031428132 0.0940435 -0.013944125 -0.014373424 0.11005264 0.016582236 0.03628605 -0.10114736 0.061738465 0.060483847 0.004369805 0.0037480725 0.100402445 0.003472447 -0.08912639 -0.13801314 -0.043702982 -0.13890909 -0.20949504 0.047554307 0.12178692 0.13556422 -0.008331765 -0.17453681 0.08862805 0.07992511 -0.0074925125 0.25035524 0.040340815 -0.10100583 0.10434963 0.06490361 0.046277583 0.03212625 -0.07202758 0.12027819 0.13581459 0.11401714 -0.060589217 -0.13804376 -0.10721523 -0.09465979 0.0805766 0.051785022 -0.13083722 0.18041366 -0.055401 -0.12474804 0.031542916 0.14115745 0.017438632 -0.20822892 0.026667308 -0.11216054 -0.0057300916 -0.05107273 -0.120650224 -0.054409478 -0.06627075 0.12894152 0.00489528 0.08599002 -0.09105347 0.024094608 0.059011865 0.048248813 0.09533463 0.00691632 0.056926277 0.00077876303
14 0.12490602 -0.13971528 0.078045666 0.07141456 0.14052594 0.01001566 -0.13294674 0.071503974 -0.0023334739 0.07666277 0.08428445 -0.038800832 0.009941169 0.016899915 0.17998779 0.11454075 -0.2067311 -0.075437546 -0.16652402 0.16730309 0.0016692196 0.19009654 -0.14773744 -0.21688378 0.07977687 -0.008927339 0.018644553 -0.013609042 -0.027060378 -0.07694849 0.048800074 0.038161248 0.048384234 0.055326704 -0.10936498 -0.04720408 0.15485896 0.0026425174 -0.036557954 -0.03673768 -0.1030288 -0.030937862 0.02261382 0.052450262 0.09724089 0.08992976 -0.086139984 -0.003942751 -0.09137181 0.1002915 -0.025403019 0.05013973 0.0586901 0.03037444 0.16469903 0.1329374 0.24931498 -0.098040186 -0.066024035 0.06692702 -0.031019177 0.071991116 0.12238865 0.00948435 0.011483604 0.0046486408 0.026411027 0.18757544 0.048468906 -0.05075225 0.1334682 -0.0016703889 -0.15568572 -0.030764565 -0.004814899 -0.113532275 0.0070922812 -0.05843023 -0.0743657 0.015970884 -0.0571287 -0.2831095 0.09497683 0.14494444 0.06136276 0.19017118 0.07519437 -0.0043520345 0.0666148 -0.021027612 -0.10636203 -0.040809225 -0.018679813 -0.035648875 0.048358515 0.11823219 -0.033093754 -0.19009316 -0.13815235 0.020896498 -0.032950673 -0.11300169 -0.22482455 0.065899655 0.006955701 0.04697035 0.14548261 0.10564253 0.007534867 0.057574283 0.06141051 0.010591429 9.8546254e-05 0.027817523 -0.16706948 0.014447279 0.027687168 -0.03849754 0.06665755 0.03949622 -0.010949567 -0.026158895 -0.026832798 0.06486875 -0.075093836 -0.0059399907 0.037716154 -0.019591585
17 0.08857731 -0.25994042 -0.08024763 0.111209735 0.055861134 -0.0649572 0.005841108 -0.03488621 0.08170162 -0.031719625 0.018412642 0.07986762 -0.03557743 -0.04994808 0.16428098 0.20311669 -0.14336637 -0.14804892 -0.10246581 0.14786707 0.07075985 0.25497624 -0.09413312 -0.14623158 -0.15237954 0.19271639 -0.048312575 0.013099222 0.06122982 -0.051999252 -0.08857326 -0.0100070145 0.074916445 0.10964805 -0.1212163 -0.11040181 0.07974362 -0.0057703382 -0.034613375 -0.14481543 -0.29895777 -0.03362364 0.05046781 -0.077693105 0.10516153 0.02610045 -0.045335975 0.036288362 0.010184869 0.00013732379 -0.07862474 0.026355822 0.0042322744 0.12158859 0.13543297 0.15190417 0.25349048 0.002136429 -0.004261127 -0.08247384 -0.08079346 -0.008355686 0.11767371 0.009458128 0.053335816 0.031134494 -0.0024441828 0.05885954 0.024138382 -0.00467857 0.10251156 0.061201688 -0.30369514 0.08207202 -0.012493173 -0.018551731 0.030443622 0.09244712 0.033510484 0.03784303 0.108237505 -0.21900344 0.0991959 0.18923092 -0.018421331 0.15878911 0.060221344 0.1875847 0.06261681 -0.044368956 0.04644151 -0.000477678 0.049040765 -0.033140283 0.16547704 -0.010583002 -0.13267763 -0.07174452 0.03785019 0.04635076 0.0045331838 -0.045451496 -0.07002168 0.18165967 -0.04613457 -0.09386964 0.06733523 0.21633646 0.08357645 -0.046924572 0.27537492 0.13666078 -0.081757635 0.021997692 -0.16903512 -0.060972046 -0.06600308 -0.035543073 0.012756037 -0.026174413 -0.1155451 -0.040672913 0.06697535 0.115348645 -0.07551994 -0.17904799 0.124695696 -0.1028421
21 0.051979154 -0.21875724 0.18582086 0.13794485 0.005804842 -0.017114567 -0.078635685 0.124411784 0.008713621 -0.0121328505 0.19758867 0.06755444 -0.047726717 0.09841701 0.13729851 0.07121319 -0.07027091 -0.04382075 -0.06943695 0.047719963 0.020213835 0.14105004 -0.0391437 -0.16405259 -0.044215664 0.14185558 -0.09843037 0.08191962 0.073851466 -0.15775074 0.03598015 -0.06122238 0.026715029 0.04444218 -0.13773976 0.06722917 0.106129326 -0.045199666 -0.08442578 -0.10431546 -0.14075264 0.060312726 0.03198145 -0.027224518 0.22438782 0.047910094 -0.07619959 0.112603605 -0.064909644 0.0973762 0.03235589 0.10016692 0.039689038 0.08518993 0.122322984 0.013301447 0.1415449 0.029836701 -0.022663454 0.16953653 -0.11070826 0.017320734 0.07731764 0.05614364 0.036231972 -0.0035512066 -0.004183994 0.18412903 0.13868505 0.044798754 0.05995753 -0.07937406 -0.22028913 -0.077144235 0.09814429 -0.22391507 -0.028147897 -0.034707334 0.0061703613 0.12372647 -0.10567015 -0.06687077 0.10878604 0.18077186 0.05656555 0.07614905 0.1017747 0.019401647 -0.03245416 0.111300826 0.11394028 0.004546534 0.14479628 -0.019932892 0.22357282 0.2094884 0.03471443 -0.089149 0.017534606 -0.1425004 -0.021938551 0.02294437 0.11299953 -0.08173743 0.057804707 -0.016185584 0.057488337 0.084178716 0.15569705 -0.10285477 0.07228839 0.048287183 -0.051762126 0.03251858 -0.13881552 -0.0657325 -0.054102015 0.111001074 -0.02313002 0.05491521 0.03173433 0.0020030562 0.047990244 0.10257839 -0.10071601 -0.11321286 -0.16519986 0.011878282
25 0.12794676 -0.08595036 -0.13760962 0.12928963 -0.00023404253 0.005489868 0.054432735 0.03276198 -0.07977557 0.088797554 0.16790733 -0.075600736 -0.034543972 0.112735935 0.13133264 0.1233545 -0.005490333 -0.058361974 -0.13686466 0.1097121 0.056798913 0.20897731 0.011014583 -0.15543467 -0.10704169 7.697588e-05 0.034569554 0.10399274 -0.091129884 -0.13746516 -0.07396151 -0.07336738 0.023458488 0.008047574 -0.023459576 -0.034584083 0.16680028 -0.08164953 0.14175534 -0.031587623 -0.026011676 0.08181723 -0.07586541 0.078727365 0.023458924 -0.05526047 -0.05195728 -0.0010339055 0.0073427907 0.056296337 0.08337679 0.069232866 0.07435249 0.041232858 0.098552525 0.12709796 0.23677124 -0.03738402 -0.073137626 0.01099695 -0.11104323 -0.06979813 0.1253574 -0.061987113 0.010059686 0.025333388 0.06367412 0.049019508 0.0042699077 -0.12330929 0.058833413 0.066465534 -0.2439693 -0.030128576 0.101161525 -0.24769562 -0.015381432 -0.017779795 -0.08750753 0.12548408 -0.009990352 -0.10232563 0.12292421 0.1770011 0.044219404 0.057839476 0.060352318 -0.00873223 0.075865395 0.03607737 0.015679225 -0.0739337 -0.046657335 -0.0070130425 0.1568588 0.075292 0.000762624 -0.048308175 -0.10862377 -0.08060763 -0.0039244737 -0.06111615 0.0039563645 0.050361387 0.0067071584 -0.15531187 0.053727977 0.029440163 0.05146394 -0.08692392 -0.048561245 -0.0048641376 0.0058916607 0.029461415 -0.08648706 -0.08961843 -0.03160445 0.0783664 0.0053788885 -0.043827813 -0.102303654 -0.085753374 -0.12712832 -0.043890044 -0.044263348 -0.09221097 0.036548223 -0.020523455
30 0.10848729 -0.22649518 0.004641277 0.12813334 -0.01887959 0.02685406 0.08760355 0.05771765 0.014203017 0.0029102538 -0.054844864 0.015974864 -0.02938067 -0.055334207 0.19266087 0.07853953 -0.077924214 -0.2024966 -0.24154039 0.16868578 0.0958283 0.32144067 0.0055233813 -0.16885716 -0.09168694 0.0795445 0.06584559 0.121931516 -0.0031599354 -0.09886987 -0.03327301 -0.0641256 0.07268192 0.06160424 -0.15047306 -0.054401156 0.23960656 -0.03034051 -0.0194474 -0.15158881 -0.12906131 -0.06518732 0.083153 0.06953752 -0.07705592 0.0016885984 -0.10478453 -0.005614405 -0.12631999 0.0061356775 0.046190828 -0.03882538 -0.0024862187 0.0009930864 0.10796457 0.036894657 0.19881085 0.028848806 0.032771744 -0.006509206 0.06910278 -0.07346495 0.25053287 -0.00043624887 -0.07870652 -0.060218565 0.056664366 0.0730169 0.018886361 -0.003575 0.057485923 0.012362839 -0.41916043 0.13055305 -0.08974512 0.038364112 -0.06156742 0.062924005 -0.014466203 0.019992864 0.11220802 -0.31189963 0.06110091 -0.0075219935 0.15727158 0.14873831 -0.03453173 0.046773013 0.11721728 0.0542221 0.005928325 0.056846302 0.018383002 0.018561792 0.1418433 -0.04598405 -0.007859151 -0.13202913 -0.059442904 0.025623914 0.03129952 0.05772618 -0.1903849 0.2283149 -0.030131558 -0.21855608 0.1337093 0.27704504 0.040481653 -0.0326283 0.14710663 0.07798389 -0.10174378 0.01829325 -0.14164011 0.004777219 -0.104088396 0.01797758 0.010677326 0.087690465 -0.1976612 -0.003061841 0.19051282 0.05325818 -0.04639498 -0.18831182 0.07147188 0.009827298
51 0.09049445 -0.049912963 -0.14852703 0.1323323 0.10403509 0.010364991 -0.030729653 0.022072054 -0.03557737 0.008855264 0.14324151 -0.06409691 -0.106906846 -0.0074747866 0.23273735 0.24847129 -0.015735775 0.02308682 -0.14711691 0.13237719 -0.0773284 0.056710936 0.085879765 -0.08783815 -0.08371387 0.0359477 -0.04427277 -0.025333378 -0.10967145 -0.080355465 0.067826495 -0.16131765 0.020394048 -0.0099042915 -0.049076807 0.052093443 0.21044499 -0.110861704 0.15834048 0.010377916 -0.026865464 -0.044910654 0.13931055 -0.076843224 -0.033569872 -0.010466935 -0.06527428 -0.033263568 -0.13409595 0.16446495 0.022566827 0.0962321 0.14144644 0.10727066 0.028784016 0.073189326 0.16958241 -0.00022096404 -0.12932047 0.027039574 -0.12921089 -0.0038215353 0.07814037 0.11985735 0.042539436 -0.018594056 0.13701901 0.086587355 0.042025182 -0.112861365 0.18705887 0.06335932 -0.26861528 0.06104547 0.073510975 -0.15441711 -0.14087865 0.016934609 -0.014574953 0.09199935 -0.015203922 -0.076601565 0.22704895 0.097650275 0.024090478 0.053852312 0.24260733 0.07086723 0.027025916 0.0794115 0.08350417 -0.019499086 0.0998617 0.06538804 0.0852424 -0.047660667 -0.12710723 0.0013728007 -0.03520361 -0.091570586 -0.08504373 -0.03290618 -0.08663367 -0.059566114 -0.0014705758 -0.09920569 0.06169973 0.106085785 0.0979218 -0.15244636 0.0477762 -0.0046141157 0.019268563 0.22058071 -0.054998603 -0.07786634 0.04048968 0.114155285 0.04363231 0.0323272 -0.13129732 -0.17147346 -0.043381415 -0.05861152 0.0022861403 -0.08738568 0.002930724 0.0669747
57 0.13259363 -0.15049538 0.036767535 0.1637515 0.01767647 0.04420355 -0.11900902 -0.036062494 -0.034272153 0.08067308 0.12665224 -0.021950968 -0.12395332 0.021339606 0.051353056 0.02478575 -0.119898416 -0.04522077 -0.07695285 0.16610712 -0.023498116 0.22447228 -0.036346875 -0.15280516 -0.17261 0.056868076 -0.0070155268 0.13960072 0.027553707 -0.17015299 0.0012918836 -0.019944606 -0.11350418 0.02697529 -0.03859284 0.00372768 0.25945094 0.08028637 0.11418646 -0.010898274 -0.017549144 -0.0072792848 0.014602311 0.050550997 0.089734055 0.08726562 0.107518345 0.04323768 0.082719415 -0.09836984 -0.016486786 -0.08375666 0.04519147 -0.024083568 0.15582892 0.11428771 0.17516246 -0.047853287 -0.06491498 0.039337274 0.03915969 -0.0090156915 0.05970308 0.07223894 0.15231471 -0.12793437 0.017473103 0.0698407 0.07909168 -0.16713773 0.030248897 0.015974196 -0.120443754 -0.10114384 0.033554066 -0.18833256 0.009463053 -0.023026897 0.007185293 0.07007368 0.0722053 -0.23700206 0.0955984 0.16683659 0.06909265 0.14962326 0.049354587 0.0045359745 0.09419223 0.031144956 -0.0761385 -0.07275112 0.05198257 0.02178735 0.2828512 0.20906985 -0.075980455 -0.07319918 -0.088136464 -0.15697211 -0.018716518 -0.032377936 -0.0856356 0.044988483 -0.019180171 -0.024924971 0.088062525 0.104964964 0.036157385 -0.024058986 -0.08429588 -0.1194213 0.07186287 -0.013046214 -0.114072785 -0.14050223 0.07031076 -0.071923986 -0.047333322 -0.0043649958 0.051007695 -0.011662675 -0.044847187 0.08062736 0.011733033 -0.011471626 0.09661128 -0.019892078
59 0.107450455 -0.019663226 0.011542907 0.1543025 0.07492352 0.0016739557 0.00076025695 -0.0102273235 -0.038355682 0.077323124 0.026717223 -0.00039352846 -0.11743197 -0.008052721 0.12917021 0.0148125235 -0.22913994 -0.08080742 -0.08320976 0.15742518 0.070206024 -0.061084617 0.0008569709 -0.15344864 -0.056909002 0.008589512 -0.117080614 0.026709728 0.021046855 -0.06303914 0.00664397 -0.0689989 0.05769408 0.09345447 -0.0063121463 0.06892662 0.22674575 -0.03485192 0.054210033 0.13445202 -0.018989006 0.02873221 0.0037263385 -0.004065244 0.05857945 0.007889616 0.022577379 0.042256597 -0.032595832 0.08378747 -0.035412323 0.03444782 0.08182799 0.03038518 0.09824306 -0.152437 0.1485194 -0.10015118 0.09118241 -0.022079278 0.0659679 -0.053068705 0.08392744 0.039115015 0.1184564 -0.058258694 -0.004456285 0.12142361 -0.029132586 -0.052482147 0.018192919 -0.09814618 -0.23772277 -0.19271359 -0.03199912 -0.19685408 -0.15980522 -0.033219773 0.0059211287 0.044224624 -0.030515337 -0.08400032 0.08520092 0.19062892 0.08566514 0.24498937 0.1886576 -0.034606792 0.04096331 0.045630746 0.052488353 0.03607798 0.041625574 0.004191487 0.0665389 0.16017845 -0.01678415 -0.09185283 -0.14174531 -0.033959042 -0.034965493 -0.008890595 -0.20189992 0.12611821 -0.08987591 -0.10782785 0.021069003 0.166321 0.068505295 -0.19497615 -0.03621262 -0.016843628 0.03171784 0.107969925 -0.1583786 -0.18222782 -0.0014967718 0.093141235 0.044086587 -0.07354912 -0.016617188 -0.06234871 -0.011049794 -0.0013484948 -0.10196161 -0.008506939 0.0043649757 -0.007118255
60 0.045962464 -0.108458176 0.107112736 0.045825996 0.08128147 0.004229996 0.14816138 -0.045846373 0.06695273 0.077954076 -0.036986012 0.048653957 -0.12607253 0.083104275 0.12389787 0.08581957 -0.1279922 -0.08217704 -0.2481305 0.1415914 0.120539986 0.1625547 -0.039543945 -0.18156494 0.0034454644 0.09365929 -0.037247214 0.15092267 -0.059623215 -0.04703116 -0.046526898 0.01188297 0.12583843 -0.0625079 -0.17490113 -0.07261536 0.16262268 -0.07414459 0.058493726 -0.21364857 0.020457078 -0.009243097 -0.07112882 0.043162536 0.10767099 0.03102417 -0.014446527 -0.013271614 -0.016712248 0.056111224 0.10096615 0.1714805 0.025964294 0.12560402 0.1997816 0.06429155 0.17638095 0.017737543 -0.062057838 0.13262096 -0.065369695 0.0019358854 0.13241927 0.14363267 -0.010135898 -0.019242791 0.00025088456 0.3003611 -0.074287735 -0.032231193 0.08574313 -0.14027697 -0.10429731 -0.10007654 0.051609587 -0.06125298 -0.045855984 -0.18772675 -0.010508897 0.03795734 -0.04957648 -0.1148406 0.1445862 0.151043 0.12264024 0.13269831 0.17997108 0.04883633 0.12064965 -0.044698503 -0.19109865 -0.027537335 0.24902841 -0.1939509 0.2137036 0.07722628 0.0079928655 -0.038321737 -0.11629197 -0.1332786 0.021664506 -0.0627212 0.02632265 0.09899323 -0.034926023 0.077181935 0.033785217 -0.021825815 0.076864816 -0.15446077 0.09668546 0.042571567 0.036815632 -0.10881102 -0.10361552 -0.2228828 -0.14918351 -0.057640217 -0.07909157 -0.024676261 0.011859109 -0.13512266 0.08270497 -0.040159397 -0.0568254 0.039939396 0.03637451 0.068075635
66 -0.019297145 -0.10385188 0.034103047 0.09506809 0.123030044 -0.018356554 0.114192955 0.1196271 -0.063445546 0.037788793 0.28982094 0.1344801 -0.004209115 -0.04100811 0.07377147 0.112574354 -0.10640305 -0.052026656 -0.13334621 -0.017056178 -0.0018090381 0.064132676 -0.058851853 -0.021847798 -0.020076351 0.19613855 -0.1302101 0.015236128 0.077028364 -0.07809233 -0.03248521 0.08166464 0.16657804 0.022847302 -0.06270103 0.17059469 0.26078168 0.027218465 0.08547396 -0.04271895 -0.03624199 -0.010341675 0.0939561 0.17331967 -0.0063572763 0.019009871 -0.07698505 -0.008694007 -0.07092949 -0.035496913 0.11445969 0.005211706 0.033301964 0.11943987 0.041804012 0.11059145 0.12962607 -0.05479802 -0.0947078 0.14206466 -0.08839449 0.10517336 0.044140927 -0.04779626 0.12580529 -0.08383744 0.07175882 0.14760947 0.13714342 -0.0002526318 0.17648683 0.10089803 -0.25132456 0.082382195 -0.009188862 -0.1565121 -0.016296213 0.014719921 0.05427103 0.11108454 -0.16908243 0.003103817 -0.088221304 0.12763931 -0.10523647 0.23490842 0.24760988 -0.0873994 0.11643122 -0.070721954 0.08349105 -0.0115436 0.062956914 -0.02815416 0.1406456 0.020008212 -0.12665674 0.043508913 0.006809276 -0.058221895 -0.068313144 0.026231993 -0.0019504507 0.2881544 -0.2961164 -0.09048894 0.023932379 0.09504595 0.108862996 -0.10079048 0.111378215 0.021827746 0.020415714 0.04727803 -0.17862259 -0.24334279 0.027693167 0.06165629 0.0731848 -0.08964776 -0.1763504 -0.1279651 -0.0012003116 -0.0008022459 -0.13040487 0.0031524494 -0.09682884 0.081157275
72 0.21206754 -0.076844014 -0.03625053 0.012647122 0.088697866 0.117550485 0.20933777 0.047717493 0.033829845 0.08241783 0.095746815 0.01174819 -0.072820574 -0.03975175 0.03960486 -0.047940187 -0.07582243 -0.31740305 -0.19558859 0.13860527 0.055879742 0.2103763 0.06759044 -0.1804025 -0.21792763 0.10873033 -0.05198774 0.17391661 0.08511131 -0.1642038 0.09232409 0.12283921 0.041998614 0.059525806 -0.17728157 -0.02372551 0.26928952 0.10023191 0.09782532 0.010605457 0.000934042 0.014226433 0.066488475 0.0319213 -0.02039482 -0.037349135 0.06792768 0.09428829 0.055790406 -0.08623595 0.013866498 -0.07831203 -0.040321175 0.013051902 0.032533716 0.122786745 0.18675405 -0.15728794 -0.10415643 0.047001697 0.05641678 -0.15154688 0.0110202655 0.069202855 0.10071485 -0.062517345 0.107203305 0.14708523 0.06551087 -0.114787534 0.193074 0.044474084 0.07067189 -0.004253998 0.17531343 -0.13951088 -0.07031164 -0.08626855 -0.0028739802 0.038346954 -0.010990867 -0.13257395 0.17669119 0.17118286 -0.1164594 0.2229926 0.12313417 -0.042677477 0.21827888 0.025057754 -0.11803443 -0.06652172 0.009451603 0.0017266074 0.29943436 -0.037139792 -0.04851087 0.03970612 -0.21827091 0.013549385 0.027344324 -0.08119932 -0.12666263 -0.025261497 0.105654575 0.027725497 0.095033266 0.23821178 0.2838648 -0.015330564 -0.011313116 0.05427293 0.02173346 -0.10822501 -0.1783398 -0.13129845 -0.075960696 0.061396923 -0.016221488 -0.11358695 -0.021298278 -0.054068778 0.005350498 0.026340084 -0.013462698 0.03848664 -0.19134596 0.056976456
80 0.17979234 0.113260865 0.034908343 0.20785454 0.2229949 -0.13680762 -0.06426442 -0.15433104 -0.07557167 0.10025267 0.1475787 -0.08282601 0.10745158 0.029200697 0.21411693 0.2585524 0.14358285 -0.10098139 0.13024284 0.0058438517 -0.28629148 0.08764062 0.1015009 -0.24961561 -0.2300558 0.075508125 -0.15345658 0.18338096 -0.25228202 -0.17707202 0.09425658 -0.35946664 -0.08044683 -0.048668545 -0.09663048 0.114416204 0.25128576 -0.04698205 0.2518922 0.12376342 -0.043813627 -0.14773016 0.15739992 0.060999885 0.13386011 -0.04348506 -0.035557676 -0.17819762 0.22430748 0.0370979 0.023506911 0.051791213 0.35571626 -0.06490225 -0.020604914 0.043333847 0.075017415 -0.019212602 -0.08999511 0.2145584 0.018245295 -0.06825367 -0.14806879 0.09365639 0.09295366 -0.015446912 0.043670062 -0.1654551 0.035349138 0.032092985 0.2719077 -0.12813915 -0.18500696 0.12247365 0.20578206 -0.20701005 -0.061718818 -0.08287371 -0.18341056 0.05139599 -0.1657711 -0.104126014 0.12251231 0.04564767 0.0049640713 0.15741843 0.053434692 0.15366466 0.04569485 0.04919953 0.15508658 -0.17882061 -0.05141367 -0.121782705 0.29300535 0.2629598 -0.13318191 -0.046141446 -0.07259458 -0.024553632 0.09616505 0.1116313 0.056755148 0.05327931 -0.16352007 -0.2928317 0.10545312 -0.04162613 0.034759134 -0.32806244 0.18153128 0.23708244 -0.20358214 0.0633769 -0.16626173 -0.14790685 -0.21061337 0.15624641 -0.06870921 -0.14701982 -0.2694955 -0.008119326 -0.0053038844 -0.15744199 -0.070361465 -0.31159 -0.067176305 -0.061540738
83 0.08635217 -0.056341395 0.006931208 0.0401483 0.19958122 0.07645237 -0.082939796 0.07207934 -0.020243019 0.05971206 0.058313526 0.10519471 -0.011813055 -0.021875711 0.09807231 -0.026872344 -0.06670618 -0.04348435 0.018788662 0.088916324 0.07643716 0.20122433 -0.045098443 -0.13104697 -0.17410985 0.06949628 -0.16153899 0.0030668671 -0.037502795 -0.13599585 0.03497607 0.08172792 0.03684396 0.14736986 -0.05326141 0.22714195 0.24093421 -0.12447387 -0.051540338 0.05720444 -0.15761226 0.056397997 0.03060516 0.102833465 0.0874022 -0.11663916 -0.063362256 0.10009777 -0.09300246 0.11043372 -0.055575866 -0.018450096 -0.0048041386 0.080578536 0.19384964 0.0764642 0.14962868 0.1803107 -0.1183332 0.036057163 0.036441255 -0.018296123 0.08708552 -0.03438217 -0.044794716 -0.104316495 0.10750144 0.1477243 -0.007884736 -0.025188295 0.22170064 -0.100416094 -0.13441677 -0.11380632 -0.07853184 0.039707515 -0.00018276626 -0.065518245 -0.0011745585 -0.00419123 -0.08323535 -0.102922104 0.03256463 0.14892894 -0.008561357 0.07101646 0.19289917 0.019919395 0.19095455 -0.008167509 0.07166129 -0.06345663 0.18227968 0.0025292088 0.2723991 0.012913631 0.024272744 -0.16842824 -0.1733768 -0.18241507 -0.013559166 -0.019165378 -0.06800834 0.070848525 0.018150339 -0.017123628 -0.07727546 0.050431747 0.09271497 -0.063937984 0.0121464925 0.03505744 -0.119948216 0.06420175 -0.07064537 -0.0590271 -0.0938793 0.14747141 0.03893208 -0.06378874 -0.0067151515 -0.09434566 -0.04544293 -0.04324072 -0.18900792 -0.0037906154 -0.04336805 0.06937341
91 0.0072866003 -0.22745608 0.16432305 0.02611074 0.055304635 0.1505561 -0.015595124 0.010405991 -0.11810048 0.12838577 0.17187747 -0.005481086 -0.006517206 0.20281729 0.059487376 0.064074494 -0.060799196 -0.022227053 -0.18792596 0.12527029 0.022000972 0.16863164 0.024381036 -0.004486801 -0.05285027 0.009076073 0.014395056 -0.031393196 -0.001278538 -0.08194297 -0.0890279 0.14251398 -0.063617125 0.1900544 -0.1518606 0.048368935 0.23273113 -0.17081016 0.017620463 -0.066648625 -0.10157531 0.08492491 0.1745627 -0.016419455 0.0035253628 -0.054805703 -0.17627689 0.20636472 -0.1029036 0.029745558 0.027047532 0.04849799 -0.0026694147 0.035705402 -0.003358919 0.08948979 0.14377214 0.033086643 0.09428055 0.11521823 0.035182446 -0.09139038 0.029853106 -0.2015986 0.28401333 -0.04589262 0.04047925 0.0612159 -0.017617213 -0.048335 0.13853444 0.039568994 -0.1253013 -0.0581957 0.11941872 -0.17787428 -0.122721694 0.027344912 -0.0786819 0.18834881 -0.08479876 -0.0381388 0.07355173 0.12830989 0.15082525 0.055357456 0.11925328 -0.0018340225 -0.07439965 0.0013486253 0.021901658 0.06492135 0.08946283 0.028047638 0.24326983 0.12839814 -0.17284153 -0.097374186 -0.09447748 0.01206434 -0.19996142 0.06094093 -0.10574072 0.17035267 -0.03727777 -0.06598942 0.024565017 0.08772869 0.14636995 -0.19938175 -0.06496715 0.0677404 -0.004296427 -0.0752792 -0.06292575 -0.28150368 0.0331624 0.030100958 0.086018994 -0.037918136 0.0325208 -0.04854793 -0.14968838 -0.079047844 0.04342778 0.021142395 0.0604505 0.10274511
93 0.041194193 -0.1304659 0.13517329 0.031071 0.012530853 -0.12932682 -0.11752571 -0.0529478 -0.017369464 0.09032984 0.106399626 -0.01768606 0.05558108 -0.05669448 0.09569957 0.094750315 -0.1265804 -0.0747431 -0.13072538 0.15676379 0.121827595 0.12895069 -0.06593486 -0.34743625 -0.111743055 0.068503365 -0.092092544 0.06606969 0.0021797153 -0.02002992 -0.059472356 -0.11572119 0.10834989 0.06597638 -0.09199436 -0.05367607 0.12028029 -0.20712951 -0.04170342 -0.04922549 -0.1517917 -0.03727808 0.07132872 -0.12575106 0.107892424 0.017906545 -0.17158543 -0.00030480995 -0.08375103 0.021857213 0.13852409 0.033755623 -0.03989322 0.036292534 0.018612325 0.0417048 0.23641008 0.0054138238 0.056964792 0.12738566 0.007816817 0.16482317 0.035030898 0.2025753 0.024015406 -0.072835974 -0.09544807 0.07764365 -0.07280952 0.00015188553 0.1547587 -0.08678418 -0.26270095 -0.0770513 0.07921279 -0.13584608 -0.18090694 -0.089000225 -0.15134509 -0.035345323 0.040283628 -0.19786595 0.12997092 0.18130457 -0.004424585 0.24854115 0.15241814 -0.14174479 0.044894982 -0.000341305 -0.037444633 -0.0010440202 -0.040865056 -0.22810385 0.15215355 -0.03700563 0.041967265 -0.1353231 -0.22375922 -0.04021049 -0.056167327 0.03294574 -0.102283746 -0.09791321 -0.014983497 0.029113729 0.15337908 0.14656998 0.10670065 -0.13299845 0.16316627 0.014944797 0.007281829 0.055085603 -0.15262893 0.06994227 -0.13451718 -0.09275513 0.08240802 0.04564091 0.0108353505 0.0058933496 0.005050535 -0.035035104 -0.012572138 -0.05684937 0.033422653 -0.04196389
99 -0.030703234 -0.011605453 -0.09065681 0.054454822 0.09602107 0.12571262 0.018193522 -0.0042372076 -0.19472831 0.2763543 0.20068118 0.024900127 -0.04903432 -0.09919604 0.17711912 0.055735808 -0.13065809 0.024624515 -0.118183255 0.19050838 -0.0800067 0.18052936 -0.123999394 -0.09657729 -0.026600061 0.044048876 0.007374259 0.04296797 -0.036650244 -0.03011126 -0.108065225 0.052989975 0.09872842 0.16397023 -0.11326686 -0.011293886 0.15134212 -0.020954488 -0.0074985344 -0.029272014 -0.107018806 0.13310957 -0.069871806 0.03986777 0.005830863 -0.0045781513 -0.058905225 0.10381247 -0.0006320029 0.12871806 -0.037425425 0.08536677 0.14129154 0.14844416 0.042258956 0.0020498524 0.18608661 0.11548 0.042512808 0.13862652 -0.08699961 -0.052886043 0.1857127 0.0633251 0.07097078 -0.058986872 -0.066233255 0.072110094 0.03797614 0.008817195 0.08819355 -0.041969325 0.07161863 -0.092732534 -0.08729763 -0.13611244 -0.14961864 0.019174494 -0.063026965 0.056430757 -0.039366033 -0.11882089 -0.043451678 0.2529712 0.106068976 0.16315009 0.13665035 -0.03303338 0.030555096 0.083302304 -0.14882828 0.06808671 0.027951661 0.0066026347 0.25474447 0.10804563 -0.119513616 -0.056931365 -0.20091091 -0.1268713 -0.0600011 0.018645259 -0.033502147 0.0015850024 -0.020567663 -0.016754001 -0.040498164 0.085970655 0.036106646 -0.121718936 0.1542269 -0.06436938 0.021548115 -0.00882233 -0.081016995 -0.16267517 -0.21017861 -0.03797498 0.068897545 0.02787702 -0.14691108 -0.16326782 -0.020132802 0.05108833 -0.12919554 -0.06499823 -0.038189083 0.094873205
105 0.0111698555 -0.06935614 0.091075234 -0.036392055 0.077299215 0.09932488 0.13283733 -0.024930712 -0.10490454 -0.056427587 0.24029715 -0.0104206335 -0.19749027 -0.005553083 0.24967906 -0.05269393 -0.16505952 -0.03736507 -0.065373145 0.04784935 -0.031061033 0.084663056 -0.14448862 -0.17602123 -0.33673158 0.029614765 -0.09409826 0.18992493 -0.07080521 -0.042875048 0.1215056 0.030666512 0.137839 0.14520136 -0.23514873 -0.04476789 0.2704734 -0.09900123 -0.05003191 0.06491095 -0.10637827 0.007722508 0.09437968 0.031415965 0.0799025 0.061365724 -0.0929642 0.0198238 -0.013029919 0.16742703 -0.06043338 0.013500089 0.043895986 0.016950533 0.20247917 0.21607003 0.25170872 0.08370137 -0.22615199 -0.016766125 -0.04755823 -0.05494158 -0.011437094 0.011837458 0.13371453 -0.103154 0.056705832 0.0005709115 -0.061693642 -0.0014165723 0.11959786 0.1323112 -0.056605984 0.023835165 -0.06853854 -0.12936616 -0.046047967 0.056610662 0.01453557 0.17325334 0.12553778 -0.10592387 0.019946838 0.19872122 -0.03645874 0.21359648 0.067101315 -0.08354108 0.08930863 -0.05170135 0.03373328 0.036388617 0.010682465 0.114585824 -0.0015830833 -0.10434038 -0.24345964 -0.2336728 -0.22543803 0.054954603 -0.05736607 0.0037224083 -0.08671665 0.08420693 -0.06038741 -0.09084931 0.0080625685 0.046957955 0.105762966 -0.18000044 0.1519445 0.0062223203 0.024816372 -0.0130071575 -0.050111927 -0.08628127 -0.056836624 0.060645513 -0.009135027 0.012435792 -0.064871065 0.024412388 -0.02220127 0.08147603 -0.13363607 -0.0010677393 -0.0035355287 0.072548
106 0.1361613 -0.109005764 -0.010701658 0.065865375 0.0813227 0.06735114 0.044872344 0.013783507 -0.11480138 0.10696428 0.13809147 0.013561227 -0.11415497 -0.0011779527 0.1460461 0.032670096 0.03488283 -0.033150904 -0.094307214 0.17833588 0.047124527 0.12097956 -0.100873925 -0.16292684 -0.25817975 -0.046320748 -0.10262014 0.017846545 0.023983896 0.016733859 0.06917144 0.08072499 0.026486417 0.06361746 -0.15568289 0.096785784 0.18606415 -0.016642738 -0.033528417 -0.030101296 -0.08256063 0.025535239 0.0345052 -0.048512444 0.048337318 -0.005052012 -0.1744593 0.11705503 -0.061665352 0.1332553 0.04714033 0.057882324 0.10813594 0.008925911 0.15001376 0.098807864 0.10023671 -0.023196157 -0.009254047 0.005284989 0.0061912914 0.0376003 0.085541934 0.0053578285 0.064696364 -0.09025403 -0.011997142 0.15230428 0.030582817 -0.06259758 0.02286958 0.05080286 -0.12669446 -0.04763379 0.064651184 -0.07538394 0.05976215 -0.019330122 -0.054712333 0.18441235 -0.03378315 -0.076634936 0.018543683 0.05124789 0.04941889 0.09008649 0.17195795 0.028094353 0.115745515 0.0010663839 0.012393347 -0.011621714 0.08900403 -0.049630336 0.2172747 0.011001511 -0.08842028 -0.14344491 -0.15797564 0.00838144 -0.036505207 -0.09139616 -0.08951149 0.05860367 -0.057820756 0.00069386035 0.14174147 0.08883409 0.1799358 -0.16974916 0.10985237 0.010028053 -0.047531243 0.03585731 -0.16191229 -0.10282347 -0.015571856 0.06994323 0.07637143 -0.0011076264 -0.013653095 -0.11602228 -0.13980511 -0.08568026 -0.13542555 -0.008353101 -0.038874183 0.044300467
108 -0.024046786 -0.04046322 0.0010227769 0.10919081 0.09158195 0.018847683 0.038331613 0.041917462 -0.12196042 -0.03255045 0.13895933 -0.0016712149 -0.044607524 0.011839746 0.12348986 -0.0122230295 0.03340685 -0.05942619 -0.10567893 0.08248151 -0.08437842 0.2467701 -0.07110296 -0.07058823 -0.11936713 0.008140366 -0.0890435 0.20442824 0.051184572 -0.115947984 -0.09197689 0.03280901 0.06975531 0.07954878 -0.06164738 0.014663922 0.25110966 0.014131264 0.112620525 -0.109514 -0.061339006 0.11659639 0.08458039 0.061978042 0.015688183 0.07504239 -0.1205237 0.15487994 -0.04759545 0.09580158 0.14807159 0.024146546 0.1251483 0.09715403 0.102808386 -0.02218406 0.28211015 -0.018792199 0.06845002 0.100475155 -0.07720697 -0.1214826 0.028997079 -0.026355566 0.0457288 -0.093326956 0.0135588795 0.08378601 0.0058770715 0.05098404 0.18295383 0.13643219 -0.14206721 -0.13222618 0.045011383 -0.19963785 0.03499373 -0.07432315 -0.04258271 0.15893514 -0.036621284 -0.08536828 0.091645725 0.24959292 0.034526613 0.14845201 0.082388006 0.038036548 0.043211382 0.068931274 0.022221789 -0.04973822 -0.03158017 -0.03386928 0.09019387 0.11301232 0.025161272 -0.07385612 0.017843362 -0.09342247 0.019131085 -0.0903657 -0.02742905 0.045483906 0.04326273 0.008976595 0.013547047 0.074638896 -0.04580486 -0.1399978 0.051623236 0.10204141 -0.02487829 0.11085925 -0.03399139 -0.05735039 0.048556946 0.12741216 0.016542802 -0.115567535 -0.09002006 -0.13934627 0.00095418433 0.033573557 -0.08046782 0.00017849219 -0.047593594 -0.05771217
109 0.07822296 0.043335173 -0.03966553 0.2537283 0.041228626 0.023962172 0.034283686 -0.03853905 0.15558136 0.14815104 0.14930566 0.055991553 0.031151319 0.08390512 0.0393014 0.095386535 -0.052372176 -0.095184855 -0.18478093 0.19256794 -0.062263325 0.3078467 0.038403314 -0.25126612 -0.1447922 0.11626863 0.026089039 0.05247353 -0.00083372515 -0.18918589 -0.12720597 -0.13974655 -0.020745035 0.1511417 -0.184852 0.048748266 0.1768851 -0.19129188 -0.04282008 -0.03946067 -0.039202873 -0.07490384 -0.109826215 0.063400045 -0.19334665 -0.051430352 -0.029636065 0.062215913 -0.08817324 0.091168605 -0.04590325 -0.07555914 -0.02093742 -0.068431854 0.19985177 0.14437202 0.15022479 -0.19033487 -0.17428443 0.12994486 -0.015367853 -0.07864649 -0.06097952 0.08663989 0.057517402 -0.14430064 0.058350626 -0.15534286 0.04715254 0.0687262 0.014575717 -0.017369997 -0.48980314 -0.102034524 0.01428226 -0.087763906 0.03574821 -0.080612 0.06700003 0.16130774 0.0919696 -0.0056421417 0.117824495 -0.026784014 0.042764373 0.16052884 -0.09906386 -0.12176337 0.015246196 0.14889356 0.01802347 -0.052726507 0.14392306 0.06015961 0.2889206 -0.03068232 -0.053145055 0.009234881 -0.26826596 0.10358459 -0.13908169 -0.06486668 -0.03294237 -0.12884246 0.09005696 -0.030749163 0.13409755 0.11642553 -0.048119847 0.048215672 0.032804687 -0.04459136 0.12088587 0.02138802 -0.18663414 0.024406672 -0.0041488227 0.22574039 -0.016985968 -0.19756578 -0.090183705 -0.30989432 -0.005190694 0.16069934 -0.28577426 -0.18944886 0.11639828 0.2654431
111 0.08238314 -0.19123574 -0.010251416 0.10943044 0.13463098 0.023068499 0.01527155 0.15646118 -0.19695672 0.11283345 0.05387807 -0.015335909 -0.14511164 0.03172972 0.10145011 0.05736614 -0.20677996 0.05171058 -0.19640908 0.08981498 0.14310262 0.10134396 -0.013704936 -0.08711666 -0.10885384 0.12885374 -0.049544044 -0.011685589 -0.038671356 -0.19470558 0.045026977 0.044749677 0.11576091 0.0026077104 -0.026812643 0.033940554 0.23033985 -0.09973875 0.0399453 -0.016812885 -0.07002989 0.041475385 0.029714817 -0.047887713 0.0055032885 0.027396917 -0.10022467 0.009655588 -0.052073006 0.031748667 -0.034189094 0.09283867 0.055317096 0.12480465 0.009687629 0.09478609 0.12973721 -0.0025640528 0.056430172 0.0139563475 0.007653167 0.04705582 0.06941336 -0.05233319 0.0076218606 0.01681175 -0.0155576235 0.14083731 0.054412078 0.017959481 0.01792873 -0.0974473 -0.16648504 -0.059620794 0.06215934 -0.080345206 -0.08608135 -0.015557298 -0.056411754 0.11764012 -0.07290958 -0.16876769 0.13503715 0.123555444 0.15584826 0.14510664 0.17240533 -0.02354076 -0.0059015355 0.0027831504 -0.07457019 -0.061087493 0.004728912 -0.019884178 0.24032287 0.16360787 -0.1070682 -0.0401973 -0.09485797 0.0014006272 -0.14212444 -0.051865906 -0.19168167 0.09255194 -0.017178334 -0.088738 0.03744988 0.058551967 0.032452088 -0.07712004 0.020552803 -0.05643875 0.007813307 0.006308755 -0.14827384 -0.11469039 0.023013186 -0.09580292 0.012222003 0.063257374 -0.0306957 -0.03546166 -0.0165984 0.0896341 -0.10726291 -0.004184334 -0.114232264 0.088658504
115 0.13031316 -0.15338197 0.05362064 0.06368162 0.083026156 -0.003006064 -0.03217346 0.057596426 -0.025307357 0.09686936 0.14541093 0.027124029 -0.03660892 -0.038410824 0.16888256 0.014006704 -0.1176281 -0.03492529 -0.1175301 0.12085804 0.014564745 0.11147625 0.047504045 -0.11420326 -0.11079662 0.05463904 -0.08305035 0.13167286 0.002189353 -0.025335584 0.048043557 0.072232604 0.011429648 0.065405466 -0.08625679 -0.061260395 0.15418056 -0.022611758 0.013451788 -0.024921559 -0.09530799 0.14586182 -0.039486703 -0.0029804073 0.085230276 0.0019234186 0.015117624 0.0973265 -0.039839804 0.08736801 -0.022839153 0.01831223 -0.0027552661 0.11830179 0.105519384 0.044991907 0.15260702 0.0211637 0.029259847 0.14751199 -0.040666174 0.00090280006 0.13548674 0.045143805 0.08658726 -0.030429995 0.04136133 0.07563011 0.13336667 0.06556192 0.03842106 0.061058495 -0.107806996 -0.08663246 -0.04858704 -0.13648643 -0.056327164 0.018280013 0.045743864 0.115699895 -0.07530654 -0.21902302 0.025619127 0.21021712 0.0757067 0.07780507 0.0817239 0.057131734 0.011600219 0.0065165316 0.03857885 -0.06856692 0.093867294 0.0082523255 0.23225419 0.16368462 -0.0010142107 -0.112808585 -0.08528947 -0.053991377 -0.07930351 0.021436298 -0.034806967 0.07011433 -0.053407278 -0.08755754 0.06154025 0.11696693 -0.006143001 -0.114927076 0.051421996 0.02553995 0.044815183 0.051907454 -0.0759323 -0.05614968 -0.041221056 0.04883113 0.004020077 -0.0102019785 -0.051715635 -0.12267896 -0.006333865 0.007681792 -0.097108744 0.025104037 -0.024080703 0.059750922
127 0.20595588 -0.39559063 0.05921661 0.31702733 0.18733466 0.070420615 -0.04012233 -0.16953269 0.088140614 0.18974061 -0.041037444 -0.09760385 -0.037723046 -0.004535235 0.089582205 0.10413684 -0.167784 0.039763182 -0.24926752 0.06750557 0.023349475 0.15287463 0.072184876 -0.17764418 0.12941243 0.10999065 -0.17168203 0.06505296 -0.030486789 -0.026161801 0.16381253 0.0062180883 0.02054674 0.14294149 -0.147337 -0.099401504 0.2761758 0.019061094 0.12439248 -0.15307276 -0.30321413 -0.14209053 -0.06121805 -0.13543528 0.07733574 0.06562102 0.09703071 -0.0288641 -0.1365618 -0.2592523 0.051969003 0.072475724 0.008583315 -0.032926336 0.116794474 0.2410992 0.30017588 -0.030362159 0.033100594 -0.01712895 -0.013061232 -0.106211565 0.20382316 0.1763176 -0.03506644 -0.008564087 -0.08657602 -0.007590869 -0.07527925 -0.010918809 0.07464532 -0.10503685 -0.10781266 0.23521455 -0.20027593 0.0291944 -0.011295768 -0.13014136 -0.1161849 0.020586828 -0.0027927211 -0.16999093 0.10632365 0.2510404 -0.12735645 0.2172718 0.10582509 0.026922744 0.1411815 -0.19325133 0.09875667 0.051844813 0.09857751 -0.06652348 0.34308952 -0.04652423 -0.22385707 -0.17241599 -0.12607817 -0.086361594 -0.16576996 0.0028576916 -0.21350154 0.16214538 -0.20061372 0.072543465 0.157529 0.019136189 0.0008701058 -0.07266421 0.03204267 0.23034453 0.078056 0.17457777 -0.10784877 0.020878825 0.008722259 -0.0029156976 -0.11423301 -0.041739497 0.085920386 0.04798088 0.07066447 0.07684084 -0.15240334 -0.12460162 -0.041248355 -0.14248379
129 0.14511187 -0.068325184 0.06343953 -0.029593173 0.13919309 0.044621974 -0.05092535 0.16176048 0.039895426 0.06338799 0.18106648 0.04754781 0.010325001 0.0022343525 -0.00010370839 -0.0908496 -0.17054841 -0.16873801 -0.09256895 0.2567696 0.015766297 0.15022618 -0.034993164 -0.22885372 -0.18049571 0.12843245 0.03258022 0.09595685 0.22297215 -0.0024298055 -0.07654913 0.016561069 -0.07175445 0.025498802 -0.12890212 0.00022530014 0.3125498 0.026412401 0.00058186793 0.082734875 -0.104603305 0.088993676 0.13997088 0.14544247 0.03144724 -0.031147934 -0.04367734 -0.12585664 0.008717418 0.013428442 -0.018199567 0.115485035 0.11578421 0.06897997 0.15284306 0.034026347 0.25132594 -0.08203259 0.07750752 0.12413508 -0.010136283 0.043882582 -0.054465827 0.120418414 0.12806597 -0.07305776 0.011428922 0.02611826 0.1521429 0.1926947 0.25876087 -0.05787841 -0.13283104 -0.0011829622 0.115096904 -0.036029387 0.052393693 0.0022969733 0.09789483 0.13982587 0.07776455 -0.23968126 0.057519216 0.20879228 0.04078 0.19647975 0.08410344 0.035695784 0.15060635 0.064630136 0.053038467 -0.0010116122 -0.0600695 -0.046254363 0.29407334 0.0395678 -0.16273044 -0.011793025 -0.20215502 -0.004820481 0.0036063415 0.04380252 -0.03862063 -0.01585192 -0.068049885 -0.15563218 0.110156514 -0.00041192982 0.13803603 0.0290613 0.15245354 -0.041589662 0.04489937 0.042283323 -0.100228794 -0.0321432 0.01971374 0.0030837425 -0.12272307 -0.084613204 -0.016233597 0.010559677 0.014021754 -0.05626853 -0.037159447 -0.031427763 0.013945841 0.02563135
132 0.010746951 -0.09823513 -0.047615636 0.031066908 0.06720315 0.00052017136 0.015982442 0.025251148 0.11156021 0.014594775 -0.014091545 -0.082085565 0.029972868 -0.051330447 0.044979647 0.0097125 -0.0085220095 -0.13590802 -0.025407521 0.08191471 -0.010185299 0.13772283 -0.08146498 -0.14059171 -0.10596938 0.083587185 -0.013462072 0.16068585 -0.0237189 0.0022216472 -0.06681926 0.009298717 0.046542946 0.040890537 -0.13427268 -0.08026928 0.17217876 -0.015297803 0.06836266 -0.1209786 -0.07198433 0.06267785 0.00093107275 0.08549284 0.15733315 0.048573144 -0.077470794 0.078177795 -0.028950742 0.057631474 0.06329207 -0.04641939 0.0538543 0.13903205 0.043972924 0.04047005 0.27381662 0.012693676 0.038338773 0.10413348 -0.032384183 -0.14128906 0.121332906 -0.022348488 0.117299326 -0.09316689 -0.0010142017 0.2273944 -0.0067820074 0.16924025 0.1351311 0.007350039 -0.1332259 -0.04024743 0.027355049 -0.21165577 -0.047439568 -0.09168358 -0.02874875 0.060352433 0.061299086 -0.15398808 0.037673637 0.2229947 0.15491612 0.15564682 0.16782029 0.091410436 0.11931214 0.017484054 -0.021203294 -0.0015835427 -0.018971452 -0.1067123 0.18179515 0.044838063 -0.07458447 -0.21431649 -0.13292068 -0.042582538 0.046854224 -0.049107652 0.010408657 0.041237574 -0.013616986 -0.12361544 0.09757637 0.12277444 0.083984226 -0.1457167 0.07092595 -0.020741912 -0.005847493 0.07622167 -0.09851947 -0.10214875 -0.022494456 0.06988203 -0.07520565 -0.014421433 -0.048822373 -0.032586627 -0.0017809202 0.021942848 0.009376596 -0.10228057 -0.004911081 -0.00666821
134 0.016235322 -0.09042548 0.16257119 0.04270446 0.06634999 0.06856249 0.017607136 0.059869744 -0.11420393 0.031074414 0.22643203 -0.130728 -0.03114699 0.01851421 0.07555259 0.12179432 -0.09827654 -0.015519347 -0.16335519 -0.0336475 0.0045509795 0.14864965 -0.019463014 -0.20128548 -0.063652456 0.07666059 0.0012841707 0.10147625 -0.009018492 -0.18486144 -0.08206419 -0.042095058 0.037878662 0.060278717 -0.015611793 0.089711115 0.15950768 0.028239306 -0.008403771 -0.045571405 -0.040806733 0.13597256 0.09907326 0.06448926 0.20149888 0.01879672 -0.0019585015 0.09524593 -0.0019717163 0.075494125 -0.02248286 -0.011887362 0.07166226 0.2173413 0.049648356 -0.012528393 0.13069654 -0.031157428 0.04041887 0.052352812 0.0099207405 -0.05818203 0.16652349 -0.051092613 0.04854281 0.09549179 0.07028626 0.050678253 0.07382106 -0.0438498 0.14306992 -0.007437386 -0.12663056 -0.0670102 -0.06432703 -0.17464042 0.019705737 -0.094694674 -0.085843235 0.14131804 -0.09884221 -0.13818413 0.0951349 0.16531545 0.07037205 0.023551822 0.17171726 -0.04690364 0.0026125312 0.108175345 -0.009192876 0.016573317 0.035866395 -0.02999763 0.20959166 0.038848422 0.0022514805 -0.09429591 -0.08198395 -0.071293786 -0.022990774 -0.04622281 -0.078562565 0.06955932 -0.10161933 -0.21328686 -0.03987664 0.15456147 0.023325847 -0.15619168 0.1485702 0.07268167 -0.0030538621 0.07788434 -0.11146794 -0.1709081 -0.0015958231 0.12057608 -0.017716344 0.031903535 -0.044498075 -0.0053080698 -0.06051295 0.022737566 -0.04197537 -0.113701425 -0.036362816 -0.022001257
141 0.21812567 0.017698588 -0.18761818 0.12060675 0.15387279 -0.11855241 0.07677451 -0.013223404 -0.051959425 0.07127394 0.14480774 0.09791198 0.045569442 0.12188004 0.19025837 0.09541288 0.082502455 0.0034089945 -0.1355845 0.087088645 -0.1007871 0.26707596 0.033898808 -0.15307216 -0.065411285 0.07049494 -0.17625329 0.109911844 -0.10011551 -0.17372087 0.041274283 -0.30184492 0.03486139 -0.10406409 0.010025806 -0.0038258093 0.25941125 -0.059771508 0.1792777 -0.010570743 -0.0026343642 0.016913611 0.016621146 0.07890537 -0.06516918 -0.005170172 -0.07201671 0.021538664 0.14139895 0.069598936 -0.043028917 0.07629225 0.19430803 -0.09532133 0.0868595 0.061129943 0.14040747 0.03776578 -0.033206273 0.2599392 -0.11035397 -0.12272945 -0.05366261 0.0662454 0.05647063 0.09420833 0.122573316 0.021646518 0.04131199 -0.115733035 0.1250177 -0.064365625 -0.100785166 -0.114431135 -0.015813852 -0.22530086 -0.07766598 -0.02018701 -0.039997015 0.12396872 -0.040268514 -0.2052905 0.018813793 0.09675575 -0.012728294 0.06902882 0.20259637 0.021672826 0.13659228 0.17718333 0.092094995 0.024427205 0.01052986 0.055923592 0.057949126 0.043696154 -0.0323096 -0.10297977 -0.06470057 0.024160475 0.010467284 -0.09070813 0.0694932 0.0053389664 -0.04684237 -0.19983144 0.0926027 0.0044170474 0.064677164 -0.15584722 -0.065819696 0.18316919 -0.023348197 0.06312675 -0.18171151 -0.12924412 -0.10786885 0.0992863 -0.02325039 -0.07190307 -0.1404336 -0.10365771 -0.013050834 -0.10164235 0.020789513 -0.09896802 0.050731115 0.06688039
144 0.07288622 -0.07474562 0.034782276 0.2747181 0.017267222 0.108453915 0.015517101 -0.024829399 -0.047942087 0.17516439 0.21147008 -0.013552348 -0.17080346 0.059564345 0.19571756 0.08089187 -0.030937977 -0.04635628 -0.08991839 0.09930628 0.09653329 0.17078614 -0.051072765 -0.3034108 -0.11847435 0.13441521 -0.04955084 0.06232397 0.018660765 -0.0823815 -0.12242091 -0.0014226828 -0.1171773 0.08323678 0.06129016 0.10443027 0.16563259 -0.18652996 -0.018993035 0.053357992 -0.033941917 0.09891078 -0.022815851 0.18215138 0.0731422 -0.05335816 -0.065441966 0.05026119 -0.043691613 -0.056625642 0.09477565 0.05323334 -0.010665826 0.18561603 0.120860204 0.013493731 0.13127069 -0.09173554 -0.12120285 -0.028709957 0.001055145 -0.109720856 0.17036656 0.0935721 0.09145296 -0.09573141 0.04251267 0.22664711 0.017070957 -0.010143095 0.1036385 -0.07192624 -0.19325478 0.0135361245 0.112878084 -0.15827517 -0.031349987 -0.12874411 0.020458823 0.005841412 0.008929931 -0.059466466 0.2131867 0.15874045 0.15862194 0.046260703 -0.008016313 -0.1211866 0.050206233 0.10091127 0.013424869 -0.07350759 0.15043825 -0.10537688 0.090288885 0.09127878 -0.012674447 -0.01320171 -0.081438996 -0.04804328 -0.05237696 0.0058780103 0.05848791 0.030481342 -0.07800926 0.0074812775 0.11223954 -0.034741707 -0.020859389 -0.12086882 -0.06150911 -0.13416885 0.0010461019 -0.061519418 -0.189293 0.007541109 0.22531839 0.051743347 -0.068305746 -0.19241351 -0.05102913 0.012891374 0.011576439 0.055082336 -0.085339785 -0.21524127 0.0004777881 0.028130433
147 0.08604422 -0.20350593 0.058257125 0.17596355 0.118563846 0.03748387 -0.03587516 -0.019122291 -0.15878367 -0.0064406353 0.15604389 0.037547138 -0.035268594 -0.084795974 0.10675183 -0.11953476 -0.07063073 -0.117532074 -0.22329271 -0.044593822 0.018501809 0.25469697 -0.087316066 -0.16718286 -0.20648162 0.048615288 -0.050023828 0.1673994 -0.12118783 -0.13240202 -0.054604344 0.08354962 0.053782146 0.041500963 -0.030884258 0.023003614 0.029600695 -0.04767833 -0.08863286 0.08081666 -0.081381336 -0.04235841 0.021850752 0.017387852 0.07871602 -0.050303306 -0.055742078 -0.05120127 -0.06727778 0.13385302 0.06741924 0.121353075 -0.055549465 0.14444566 0.17725287 0.0030655551 0.18742053 -0.08763078 0.09149848 0.08321388 0.016117856 0.06745364 0.06213509 -0.019940183 0.13077977 0.007460018 0.14588317 0.27332622 0.1188363 0.106887214 0.04032962 0.04274725 -0.21014147 -0.19666807 -0.013895914 -0.26128146 0.033941157 -0.114159346 0.08828728 0.11982772 -0.04724327 -0.19878985 0.0048715277 0.1697809 -0.0046839984 0.10245797 0.014409527 -0.012850485 -0.039499722 -0.08307694 0.05794792 0.16349941 0.025176747 -0.07550831 0.088149875 0.117576376 -0.03368998 -0.11966171 -0.09360848 0.003916708 -0.030587742 0.01850579 -0.12151959 0.12527514 -0.14197393 -0.15204552 0.047361083 0.06296821 -0.033135142 -0.04529363 0.027711058 0.009040834 0.010629084 0.05586755 -0.0039367606 -0.022451913 0.006832873 -0.010420999 0.08255594 -0.047157843 0.019864926 -0.0124943275 -0.025621712 -0.052316107 -0.10396506 0.04781245 -0.0457519 0.016022524
149 0.17769329 -0.056131344 -0.03028639 0.05295803 0.13095446 0.0051944875 -0.09976041 0.021367636 0.011776726 0.14996527 -0.055303734 0.115991674 -0.013381349 0.0506959 0.13130997 -0.038028542 -0.08555315 -0.011095059 -0.05082755 -0.0040590614 0.075993136 0.18565491 -0.012099151 -0.181134 -0.18612018 0.0855476 -0.098870866 0.08810323 -0.10017437 -0.09496567 -0.059836883 0.09874622 0.10723496 0.12688033 -0.085220926 0.040582843 0.21377799 -0.041665804 -0.05656072 -0.0021206883 -0.15975724 0.049774386 -0.039805897 0.10424477 0.06794304 -0.06319887 -0.046194397 0.03446105 0.005943512 0.14939888 -0.0067247623 0.0040155677 0.12793776 0.13085103 0.22418384 0.1282367 0.15969431 0.09655654 -0.078602225 0.09757326 -0.042440668 -0.019396024 0.045013107 0.0736212 0.013555477 -0.17088073 0.103333145 0.13220064 0.034502584 0.009678964 0.116983086 0.00214759 -0.045832172 -0.07874485 -0.0195804 -0.06611971 -0.111473136 -0.04621117 0.008535579 -0.036431044 -0.04587542 0.018498214 0.043553818 0.1252695 0.0582471 0.16768417 0.19046566 -0.05869093 0.07728784 -0.07221794 0.05797734 -0.020271264 0.0944468 -0.023089541 0.28497192 0.14593312 0.051377833 -0.16938019 -0.12342194 -0.10997277 0.034934536 -0.04559127 -0.105588555 0.050288547 0.045386843 -0.026131406 0.014540276 0.10471325 0.0698782 -0.11536146 0.025036328 0.037376594 -0.1994792 0.06619397 -0.13517363 0.041704804 -0.052224714 0.11761554 0.06326233 0.026939107 -0.0039933594 -0.055369932 0.018644078 0.013384672 -0.12312764 0.054859303 -0.113502346 0.13840505
150 0.11883891 -0.1388686 0.13665654 0.06878074 0.016259108 0.14886822 0.13372093 0.17840807 -0.108760506 0.009423618 0.08053804 -0.006184426 -0.14529073 0.09852046 0.058331583 -0.035251398 -0.1810653 -0.1194701 -0.12824921 0.10061505 0.09293312 0.06924974 -0.02852672 -0.20122166 -0.123059206 0.065352105 -0.10532404 0.12367775 0.09181918 -0.25707573 0.01092906 0.10138144 0.047673136 0.07344429 -0.028962707 0.15249315 0.22679973 0.10833738 -0.023591572 0.104853995 -0.015553549 -0.026711483 0.10185448 0.113549106 0.18630409 -0.018180676 0.018226478 0.051529408 0.09779081 0.012426244 0.020613512 0.087133214 0.031376515 0.032553714 0.07235964 0.116876684 0.21705969 -0.09679692 -0.07760765 -0.07337485 -0.043545753 -0.07980394 0.095757134 0.0376461 0.04791031 0.0066720475 0.21341343 -0.06593543 0.02339621 -0.06502379 -0.0035663063 -0.04524973 -0.16835107 -0.20632596 0.14936076 -0.1852961 -0.020921934 0.009407187 0.08806527 0.042166565 0.02300021 -0.22947969 0.06564871 0.06346467 0.05496138 0.14732288 0.057550646 -0.047398794 0.112675056 0.11100604 -0.07213401 -0.039005063 -0.07758565 -0.007804563 0.3480349 0.11624851 -0.0023864242 0.0059013707 -0.13508427 -0.055464115 0.034105644 0.018202381 -0.16667567 0.11440713 -0.082567215 -0.21158499 0.077686034 0.13053723 0.052834228 -0.08013923 0.044891857 -0.048247598 0.042029716 -0.07299134 -0.10305758 -0.18762687 -0.03372408 0.10614569 -0.14547458 -0.02646503 0.13207597 0.0016281791 -0.058879763 -0.080071434 0.035006072 -0.025293227 -0.07784271 0.023554785
156 0.055686656 -0.13721173 0.016462829 0.07524939 -0.019873446 0.01690797 0.14989032 -0.13710772 0.13865048 0.16542941 0.3338248 0.0065199556 0.17445056 0.18477696 0.11808122 0.13358589 -0.06924498 -0.07439942 -0.030038068 -0.04875898 -0.019126404 0.35462815 0.11345175 -0.21916191 -0.00605109 0.08728915 -0.18738107 -0.15540309 -0.053603347 -0.06733258 0.06072591 -0.24476555 0.06998257 0.14894912 -0.13260092 -0.1385839 0.0126583865 0.16621836 0.055210385 -0.19324413 0.05784486 -0.1443822 -0.029379463 -0.06392494 0.03134966 0.12815619 -0.24989569 -0.0065010963 -0.19960111 -0.03287722 -0.12878539 0.004788617 0.12382721 -0.062022693 0.32555646 0.30185547 0.29660845 -0.18147284 0.10148648 0.11890989 -0.03649964 0.04286672 0.09514975 0.49407634 -0.1375662 -0.047996286 -0.13796912 0.059162 -0.023862664 -0.1958991 0.11699462 0.13050102 -0.36207545 -0.018997353 0.08810917 -0.14628075 -0.13648337 -0.039279558 -0.097013004 0.19167848 0.013699614 -0.080930896 -0.07287529 0.32933345 -0.030910179 0.34432957 0.26928496 -0.1058973 0.14941706 0.1006315 -0.22352457 -0.2165881 -0.049871933 0.0005634587 0.18949994 -0.17380492 0.08454082 0.04329968 0.028890427 0.11980625 -0.11451053 -0.07675984 -0.1553463 -0.06195937 -0.0723062 0.1821593 0.11979007 0.12563463 0.040439695 -0.05176258 0.06895286 0.2457041 -0.11059627 -0.07158454 -0.26010686 -0.08180395 -0.08065321 -0.094810866 -0.0057020783 -0.0917242 -0.16268474 -0.00084594334 0.101562105 0.05419696 -0.06877671 0.019956298 -0.18173839 -0.13978632
159 0.0785325 -0.1585198 -0.03158903 0.09305038 0.08089088 0.01616525 -0.038043976 0.044014763 0.06050289 0.09755426 0.18626277 -0.04068869 -0.1631329 -0.048117843 0.14811128 0.08389606 -0.2546296 0.08767254 -0.11028384 0.10593154 -0.031436216 0.06662734 0.04418627 -0.33080998 -0.07778459 0.13383988 -0.083096 0.037562754 0.07800615 -0.028010434 -0.14491785 -0.07966034 -0.122205704 0.045469016 -0.12463771 -0.14424957 0.06824428 0.027148379 0.0776819 -0.11354386 0.097321965 -0.08023282 -0.08315077 0.07270629 0.10803105 0.14838198 -0.08619866 0.05276857 -0.035674613 -0.043733824 0.02008536 0.10958164 -0.021348182 0.106695324 0.0659156 0.15110727 0.11356618 -0.025484828 0.043559678 0.08298106 0.015938705 0.015912497 0.26125106 0.040319785 -0.006044059 -0.08854164 -0.00676035 0.17532144 0.016557936 -0.03778511 0.024079889 -0.0274684 -0.225695 -0.07432111 0.02113187 -0.11700264 0.01224723 -0.14960697 -0.0886903 0.11959086 0.00057230843 -0.23120667 0.0607644 0.14080761 0.12562199 0.11015527 -0.020322016 -0.09768457 0.099408664 -0.015881285 -0.06954871 -0.021348327 0.03017483 -0.19398975 0.2856728 0.18862449 -0.022222243 -0.0385149 0.020859694 -0.08091872 -0.02585016 0.17659855 -0.072058864 0.16816095 0.027071271 -0.067449115 0.007256095 -0.048866313 0.11851394 -0.20021416 0.033723235 0.100901686 0.048421547 0.025494149 -0.16901152 -0.038771868 -0.051107608 -0.12708423 0.09437299 -0.13205978 -0.09205021 -0.050917268 0.15312837 -0.031621233 -0.046157647 -0.15857999 0.015470623 -0.03299791
168 -0.07652386 -0.079686865 0.03701947 -0.025981292 0.042866252 0.06309941 -0.0040797167 0.110799626 0.069820866 -0.0034035363 0.16380571 -0.024809543 -0.08124913 0.07441199 0.030754942 -0.04311989 -0.06485776 -0.083795175 -0.22244403 0.07250724 -0.028989112 0.16592325 -0.060165588 -0.28988424 -0.28536558 0.05611021 -0.027997892 0.1338211 -0.027867407 -0.14151326 0.05380316 0.04566492 0.05924739 0.038580783 -0.20402062 -0.021127602 0.22352403 -0.08593153 0.07369503 0.07556191 -0.042603083 0.044922996 0.00020677618 0.109689906 -0.100618884 0.15969409 -0.017241605 0.03760301 0.021319885 0.052551 0.012315666 0.10153832 -0.014647365 0.08949838 0.17893629 0.12314726 0.13641381 -0.06163332 -0.01769325 0.15622427 0.022024497 -0.02787895 0.068523675 -0.018256642 0.04447059 0.006356957 0.053640332 0.07105506 0.11527065 -0.06090093 0.1951635 -0.04102043 -0.3063947 -0.15317853 -0.021363847 -0.13914925 0.08639243 -0.14825101 -0.03897409 0.06559426 0.05831146 -0.19788587 0.11369188 0.16382894 0.08573986 0.22824489 0.030047297 -0.014441531 -0.06703749 0.07678525 -0.07813843 -0.03190192 0.03276952 -0.020996252 0.13373175 0.110004745 -0.026141707 -0.069995016 -0.068394385 -0.023093821 0.026916537 -0.010179174 -0.04831226 -0.0024176454 0.15792805 -0.12352105 0.122073784 -0.014582585 0.044359405 0.078911155 0.017191628 0.093258135 -0.034519713 0.12456149 -0.25083667 0.023136802 -0.07088352 0.025591118 -0.053213846 0.009429262 0.033908766 -0.07353542 0.108842485 0.15446094 -0.107980214 -0.009025976 0.063048735 -0.058704745
170 0.11683603 -0.01990827 0.11807893 0.1820706 0.16128497 0.043494977 -0.02419727 -0.09779227 -0.11472767 0.007024127 0.14624439 -0.014038479 0.1340423 0.13651328 0.045904033 0.13250917 -0.034538347 -0.08976784 -0.027186092 0.07607532 -0.09503925 0.10010123 -0.04305187 -0.20736568 -0.09004641 0.036653984 -0.1330198 0.21356867 -0.054132808 -0.012035019 0.044773795 0.074325725 0.11927977 0.16765755 -0.15811186 0.050688617 0.18266553 -0.093666345 -0.093306296 -0.028214596 -0.16380598 0.099913396 0.014665627 0.044870794 0.037350677 0.03185807 -0.13973708 0.1840226 -0.12036303 0.04626039 0.23181443 0.14399457 0.090409294 0.024804957 0.07902715 0.10073899 0.31749684 0.072625875 -0.057929058 0.07035536 -0.17334945 -0.060041342 0.22801253 0.2092353 -0.0606866 -0.082490996 -0.09639081 -0.015090482 -0.09846461 -0.048999924 0.05727791 -0.09290552 -0.3747155 0.0058574723 -0.12272772 -0.14561363 -0.02615646 0.07010144 -0.28203696 0.0817974 -0.1811367 -0.101475984 0.05599451 0.13289039 -0.014031257 0.227965 0.1834509 -0.14766033 0.03667857 -0.10741279 0.058225878 -0.031893313 -0.02975884 -0.10093238 0.13765879 -0.039769303 -0.03101815 -0.1025284 -0.045167092 -0.081587285 -0.060994525 0.0058125323 -0.17817312 0.09694516 -0.070462026 0.043492515 0.16294926 0.1620304 0.014532935 -0.049354218 0.067614034 0.09954497 0.014295448 0.023233274 -0.13879435 0.054166652 -0.13767731 -0.054793507 0.0017621522 0.0049013793 0.05696876 0.0114264265 0.043360285 0.016264634 -0.109351434 0.011081069 -0.0013559777 -0.12789625
174 -0.07204662 -0.0736994 -0.12667724 -0.062483117 0.04456384 -0.0033186437 0.05356617 0.14551157 0.18785086 0.09055963 0.0799556 0.23874119 -0.0054631154 -0.07663742 0.022008948 0.12950544 -0.060515206 -0.28340694 -0.13973737 0.24266265 0.09164957 0.2531025 -0.02589926 -0.29973873 -0.24384138 0.31617078 -0.028637113 0.115041 0.09504277 -0.042056177 -0.12547323 -0.05273981 0.21865723 0.15043393 -0.1615365 -0.025447972 0.2024076 -0.09862373 -0.029868113 0.012142035 -0.17594695 0.10485219 0.14252566 -0.06877768 0.01829732 -0.063972354 -0.1903247 -0.021665497 -0.14852719 -0.012600339 0.10269493 0.116188824 -0.014063658 -0.034554843 0.21141575 -0.023193825 0.32868427 -0.016711755 0.033294596 0.11204771 -0.14606169 0.13412352 -0.03494417 -0.05871951 -0.04591293 0.06555387 0.09727153 0.05702103 0.04458293 -0.037050236 0.1253814 0.017069636 -0.3133341 0.07266738 0.022396201 0.078837484 -0.03161022 -0.11800579 -0.05818581 0.14788665 0.13911799 -0.14889094 0.025090372 0.063413754 0.037645753 0.10433024 -0.009971881 0.09121399 0.055767726 -0.02901329 -0.02184507 0.08899019 -0.02630808 0.09709055 0.12179882 -0.029538758 0.0020878664 0.039058615 -0.02385813 -0.065781705 -0.13467225 0.18681481 -0.24045244 0.2791319 0.11281129 -0.25942755 0.03703974 0.16417141 0.20870313 0.016483368 0.12688018 0.1112138 -0.03923859 -0.012991998 -0.14623205 0.011912695 -0.03974655 0.09596984 0.06367898 -0.060784433 -0.14507842 -0.047741536 0.08694484 0.05054213 -0.053295944 -0.1439575 0.2046943 0.005816074
176 0.29680803 -0.1106446 -0.1156378 0.16064422 0.07322591 -0.11442179 -0.19087985 0.074400455 -0.1101929 0.057286445 0.17962404 0.18568794 0.13999194 -0.14396185 -0.0075777434 -0.19092257 -0.0033747398 -0.27219927 0.21636502 0.06323114 0.1015581 0.06926312 -0.050712466 -0.1012255 -0.29161307 0.22550254 -0.039159257 0.02115893 -0.050391305 -0.10233547 0.18159387 0.12881528 0.14010365 0.058019128 -0.11820018 0.19562048 0.14241736 -0.00077390426 -0.040458344 0.060923994 -0.13111843 -0.062901564 0.053168736 0.15281908 0.08956667 -0.12600932 -0.05662482 0.11020784 -0.034895796 -0.0029139558 -0.04027026 -0.103505835 0.12664855 0.054773077 0.2933983 0.063800246 0.014691429 0.16007636 -0.14038487 -0.21881332 -0.17974389 0.095314324 0.13411431 0.3014219 0.13065971 -0.2814214 0.09202795 0.13294384 -0.03154532 -0.11296596 0.31254804 -0.3050065 0.040955145 -0.024650542 -0.117744036 0.014033932 -0.2112024 0.0153338285 0.11178522 -0.12278742 -0.109094635 0.034389596 0.06267609 0.31766912 0.01948534 0.24919686 0.321699 -0.08820932 0.13967617 0.11798384 0.16512014 -0.12258308 0.20328248 0.10128492 0.24905957 -0.0068580154 0.07587666 -0.12863222 -0.008843806 -0.213974 0.0513516 -0.098143324 -0.07739622 0.04725775 0.06659557 -0.037659947 0.018016143 0.07775942 0.13135865 -0.2081776 0.052445423 0.08464673 -0.21669212 0.018159324 -0.44214275 -0.11533777 -0.12989801 0.20850231 -0.012226288 0.056174118 0.06801919 -0.022944124 0.1740635 -0.08026225 -0.21267074 -0.052357584 0.013442271 0.09846786
178 0.075447455 -0.2095209 -0.0064839427 -0.047488417 -0.091081895 0.059100095 0.037408568 -0.044520147 0.017451536 0.062866695 0.030038374 0.06555482 0.0543339 -0.06483185 0.17500843 0.18775548 -0.06460246 -0.055371296 -0.036719225 0.029601788 0.027310481 0.14452115 -0.080374755 -0.19309823 -0.11766537 0.1867145 -0.077022806 -0.11002729 0.04766374 0.110386886 -0.06222016 -0.039778277 -0.07167265 0.0011556323 -0.13578315 0.1637245 0.2628378 -0.027296273 0.13329929 -0.21552931 -0.1430915 0.14858164 -0.14275008 -0.015877133 0.091982365 0.057032228 -0.22322468 -0.07500023 0.0078031737 -0.12807125 0.11765995 0.0061797695 -0.058553673 0.13595794 0.0649865 -0.037092 0.34231716 0.13694894 -0.06769394 -0.0037728264 -0.11329313 -0.022320798 0.1647035 0.085536875 -0.009340105 -0.046648197 0.20553188 0.13690664 -0.03635802 -0.013715565 0.024739442 0.076884605 -0.2034858 0.13370287 0.11093307 -0.15703988 0.019448921 0.0023528514 0.0038503932 0.3976171 0.086483955 -0.1684777 0.05273328 0.3350068 0.0888177 0.0013897403 0.038812432 0.060232613 0.25389054 0.015980843 0.14672141 0.016032966 0.042261697 -0.10487157 0.35457343 -0.10865113 -0.15559722 -0.057805452 -0.012291215 -0.048175484 0.12795565 0.29993066 -0.20326376 0.25324333 -0.116454974 -0.10594186 0.0339051 0.0091331275 0.20171782 -0.10566549 0.18859537 -0.16098486 -0.20792371 0.058419038 -0.0036909084 0.055629287 -0.09677901 -0.006327635 -0.05306041 -0.065085046 -0.14902553 0.08253005 0.06742966 -0.14054018 0.0018019326 0.046394356 -0.006822771 -0.12776092
191 0.1603755 0.1146863 -0.14306746 0.07572468 0.08528203 -0.017567916 0.12900296 0.059776124 -0.06410927 0.047238898 0.09979139 -0.114428096 -0.19388062 0.16120152 0.15843733 0.1500687 -0.095642306 0.04596435 -0.25629827 0.06391567 0.07975782 0.17304404 0.042929977 -0.069452085 -0.22200651 0.03518292 -0.14682925 -0.09427311 -0.09584035 -0.0635671 0.027129266 -0.15737933 0.08907386 0.09520673 -0.080305055 0.0049588643 0.20012146 -0.045506775 0.1118033 -0.03679652 -0.048596926 0.066871546 0.05656795 -0.0749683 -0.04436168 0.056283955 -0.15170406 0.19182333 0.04278945 -0.057665363 0.07331144 -0.04796819 0.11013376 0.055260673 0.043839317 0.14058203 0.16402107 -0.06742891 -0.10584422 -0.07245033 -0.021410128 -0.03626156 -0.0464305 -0.10359185 0.017755888 -0.08163528 0.26595476 0.108673826 -0.07547477 0.026846686 0.07890934 0.1984113 -0.21308558 0.010464554 -0.03761603 -0.21533123 -0.07520798 -0.06427176 0.043107722 0.13146494 0.056653846 -0.109303355 0.10775801 0.14796425 0.057982784 -0.011686111 0.13866894 -0.059124928 0.061021525 0.077589005 -0.035883915 0.013156575 0.07871385 -0.098234236 0.15249464 0.09795331 -0.07092695 -0.15513533 0.025426611 0.0773739 -0.02899471 -0.15544412 -0.087498076 0.07112995 0.018884405 -0.059812587 -0.0118371 0.2728664 -0.032609876 -0.21252777 0.07379537 0.0024915675 -0.032593567 0.039546344 0.048525684 -0.054891065 0.14334226 0.1712746 0.069400385 0.028157806 0.06740286 -0.10727508 -0.0605459 -0.04136732 -0.061731882 -0.06333189 0.15235884 -0.022734972
195 0.024148824 0.06349227 -0.03664044 0.19823469 0.045802698 -0.08645166 -0.106252514 0.055612676 0.03955152 0.11722923 0.103499986 -0.04576506 0.013165062 -0.06163229 0.13758178 0.0989296 0.00071363006 -0.0055639823 0.05685737 0.16031286 0.08809443 0.18969439 0.10972569 -0.13540691 -0.02759596 0.07426629 -0.045339968 0.06685769 -0.10474571 0.026753819 -0.026760092 -0.11389706 0.111817755 -0.05110595 -0.079721615 -0.010223533 0.30811247 -0.14683618 0.07451035 -0.0075131315 0.057145666 0.036656085 0.06287426 0.040014766 0.07559363 0.027361427 -0.10140832 -0.00865771 -0.046530608 0.1917136 0.00026043731 0.0012462703 0.13334243 0.044913717 0.13216792 0.023764312 0.2534309 0.015813535 -0.058552746 0.11718158 -0.046949435 0.08777966 0.05319294 -0.09332998 -0.028772177 -0.059819784 0.07240122 0.078371376 -0.031547636 -0.08452617 0.10925592 0.09652036 -0.14804222 -0.02405752 -0.020098744 -0.04111443 0.058438294 -0.026625838 0.05914986 0.09190287 0.070604004 -0.13534401 0.00033071163 0.19990893 0.05627205 0.12619536 0.13041282 0.043079544 0.078739904 0.07671051 0.06808585 -0.019342488 0.08942192 -0.040377773 0.16092329 0.05771192 -0.028418526 -0.1978346 -0.05399092 0.086673014 -0.08162082 0.0076498613 -0.13165511 0.09466321 0.12122514 -0.15080181 0.05343838 0.13719077 0.035429288 -0.21552467 0.10472992 -0.017797472 -0.09053167 0.092255324 -0.05852479 -0.07791566 0.040518958 0.14140111 0.018961381 -0.06639586 -0.18673302 -0.0392981 -0.08383241 -0.07040784 -0.038204927 -0.12284867 0.008672634 0.11444134
197 0.15789017 -0.06511406 0.068980955 0.13653637 0.13812046 0.07117846 0.10208171 0.062375873 -0.051530026 0.024538312 0.08231413 -0.007867058 -0.0445816 -0.026254341 0.07465577 0.11334866 -0.0035219227 -0.033091523 -0.20280029 0.16683114 0.079422474 0.1142692 -0.029599566 -0.3522791 -0.18036908 0.08548134 -0.032984924 0.204537 0.07255385 -0.08243413 -0.05949467 -0.041653927 0.08313667 -0.12091383 -0.041964468 0.04506145 0.20274957 -0.08450854 0.17331381 -0.04848097 0.0064415266 -0.03417834 0.004371406 -0.048619196 0.10097626 0.09579205 -0.17248657 0.12815043 -0.10343416 -0.009043608 -0.0014898473 0.021452293 -0.03561471 0.06331784 0.036222264 -0.0028009259 0.23204498 -0.10322219 0.015638629 0.055454984 -0.09843274 -0.12897287 0.042423677 0.13696449 0.09816672 -0.017457847 0.06326696 0.11639795 -0.03185468 -0.025828151 0.0044377483 0.14718942 -0.17474768 0.0101813115 0.004811356 -0.07994382 -0.078330606 -0.08443632 -0.075412944 0.024046479 0.032131497 -0.01402426 0.017830735 0.13157196 0.117224924 0.1766254 0.08304379 0.03479553 0.15744299 -0.07757442 0.06320699 -0.01501481 0.04841592 -0.09172963 0.19280827 0.047260366 -0.12198477 -0.000112295456 0.0016942981 -0.16694449 -0.07414747 0.066160254 -0.08297165 0.017321955 -0.09839494 0.07882856 0.028606305 0.09392363 0.008848742 -0.072276905 0.00063438027 0.050821945 0.038655326 0.10056331 -0.0870559 -0.0030047074 -0.054649703 0.07028682 0.047726013 -0.05990857 -0.014784238 -0.063203685 0.16929796 0.10803531 -0.05508287 -0.07451924 0.061336536 0.13673094
201 0.096995264 -0.19028136 0.11437629 0.12648275 0.100434564 -0.014403674 -0.034051456 0.059859708 -0.027456539 0.013955658 0.11997292 0.05550639 -0.13180749 0.0018987441 0.04760889 0.043184966 -0.16236326 -0.013923385 -0.072464064 0.02508745 0.050071254 0.095542155 -0.06905738 -0.123267666 -0.080941215 -0.025855595 -0.10432472 0.19185545 -0.012781557 -0.09797273 -0.0047292155 0.018424055 0.09148156 0.056901276 0.00435634 -0.08351445 0.21080057 -0.011584413 -0.041729197 0.028766925 -0.07555564 0.02500273 0.0137958955 0.03289957 0.03129533 -0.08442682 0.010576072 0.083043724 0.04304288 0.16374888 -0.051941775 0.0150069045 0.014100281 0.043593474 0.13427821 0.073106535 0.15879172 8.1048645e-05 0.008918481 -0.004561027 -0.020207306 0.055704873 0.16625601 0.034026172 0.19652316 0.027549963 0.07749274 0.15840174 0.042939156 0.057975266 0.01931917 0.18573114 -0.12507962 -0.07420725 0.01979643 -0.23124076 0.009509775 -0.06856823 0.052118596 -0.012398587 0.06706022 -0.14698099 0.03567642 0.19001386 0.100044675 0.15688874 0.12449318 0.005355631 -0.033277698 -0.004067897 0.042585604 -0.05133519 0.013668885 -0.02872527 0.2225157 0.21590821 0.0014671362 -0.108413406 -0.12718946 0.0018433979 -0.04306135 -0.015226319 -0.10347191 0.07212014 -0.10990908 -0.058155864 -0.06434124 0.11634094 0.038846865 -0.08423417 0.08563708 -0.01760908 0.05556214 0.012835002 -0.15134978 -0.08125722 -0.054440245 0.057186253 0.009245211 -0.022928072 0.0022392496 -0.044017628 -0.0662768 0.009878962 -0.039096657 0.002343149 -0.017586555 0.101377845
205 0.03400667 0.046390984 0.25891173 0.122671634 -0.06831408 0.16254513 0.103352845 -0.011197764 -0.07309727 0.08330767 0.10390149 -0.010031299 -0.048564818 -0.021623198 0.01456964 0.0045503685 0.048970103 -0.25969365 -0.21204187 0.08043005 -0.0077618277 0.15991381 -0.019940862 -0.18935566 -0.29189166 0.13886017 -0.0058649536 0.13789381 0.014232975 -0.11616401 -0.040234137 0.020567536 0.05775845 0.058935657 -0.09983648 0.11793897 0.20737657 -0.15801784 -0.16545093 0.08648903 -0.034641303 -0.039988276 0.08227748 0.03736626 0.12310857 0.027269214 0.059132654 0.1839671 -0.08926019 0.25660384 0.10566611 0.07486176 0.11044768 0.0063815685 0.10926302 -0.02443201 0.2673424 -0.054834682 0.06031667 0.21791144 -0.08795103 0.21942748 0.11120493 0.16703999 0.15798971 -0.0099278195 0.074598886 0.16402207 0.30440003 0.016699098 0.011234727 0.066344455 -0.2208268 -0.30089143 -0.004202394 -0.029523097 0.12858836 0.0027449585 -0.047706787 0.11739132 -0.16699116 -0.15010002 -0.07421996 0.091886036 -0.047431055 0.107968144 -0.09181404 0.024582535 -0.014520533 -0.17098685 0.07433448 0.10112509 0.029280711 -0.10856192 0.113504924 0.31577015 -0.073862486 -0.00901892 -0.13723345 -0.03314759 0.025906716 -0.05399723 -0.14217345 0.25518233 -0.14656949 -0.18530719 0.060274694 0.26000798 0.081287175 -0.037447985 0.063935265 0.010456478 0.07606138 -0.119057335 0.06872321 -0.07622242 -0.016813379 0.0076931436 0.08504939 -0.1379436 -0.0591498 0.04580871 -0.1891771 0.059545245 -0.18148275 0.056656614 0.012348837 -0.0116071515
209 0.16954954 -0.15432142 0.059390638 0.030569823 0.07204676 -0.032617435 -0.07143507 0.07351425 -0.1087346 0.067490496 0.15258814 -0.115387276 -0.08655991 0.014882583 0.10793302 0.09350341 -0.161288 -0.05267257 -0.14007309 0.020346414 0.02959281 0.04607663 -0.034714952 -0.17812699 -0.12192889 0.058701325 -0.10709277 0.084458835 -0.012020907 -0.040989608 -0.052655254 0.09624954 0.10809834 0.037963603 -0.028973972 -0.037932925 0.1254381 0.0059385896 0.007983428 -0.016943268 -0.024915768 0.08471061 -0.04102573 0.040323555 0.0012709124 0.05265614 -0.07173266 0.04740512 0.0015169495 0.014575707 0.06291552 0.009178061 0.06928673 0.05360088 0.0045358753 0.09815949 0.19059934 -0.050379608 -0.014812285 0.11230502 -0.0519085 0.0470627 0.18957032 0.027107984 0.0076832674 -0.0074774334 0.0764994 0.016052563 0.10301702 0.042663876 0.12703566 0.087434046 -0.10588509 -0.049394283 0.030983528 -0.20578362 -0.045292918 -0.053989634 -0.0064997147 0.008654674 0.017522782 -0.17607349 0.03905044 0.21103466 0.16387029 0.13248752 0.078481264 0.010425786 0.057744667 -0.05279787 0.011852036 0.016683068 0.061636746 -0.010872525 0.28447434 0.12344688 -0.07074376 -0.18061796 -0.11246657 -0.06946133 -0.09069819 0.008259573 -0.1430847 0.06925191 -0.021671515 -0.06913233 0.01805315 0.087409355 0.08339816 -0.08651699 0.11948335 0.022074565 0.043302324 -0.036137536 -0.10694596 -0.050228734 -0.0033112075 0.06827601 0.010238522 0.044131964 0.027910346 -0.057479706 -0.011699798 -0.024987077 0.03663937 -0.061249036 0.095900856 -0.012707909
211 0.08883428 -0.14829582 -0.046925046 0.0022559192 0.016007278 0.09948319 -0.14203511 -0.05772095 -0.06045537 0.20552607 0.12226845 0.12965591 0.016154774 0.14020173 0.30739534 0.08499391 -0.13067167 -0.04558338 -0.10438425 0.0010691291 0.060573217 0.17781657 0.030707346 -0.15836397 -0.1315537 0.45897526 -0.13598241 0.0047976943 0.024240663 -0.19516456 -0.029317973 -0.18521543 0.09931844 -0.030798297 -0.009243258 -0.022815747 0.12588112 -0.1692946 -0.024014842 -0.07719139 -0.1556803 0.13017954 0.058897603 -0.06849032 0.10791833 0.044689257 -0.16174635 -0.036443476 -0.35108787 0.14783978 -0.03753404 0.14676628 0.12804437 0.14862753 -0.07100535 0.066834986 0.14584869 -0.12562251 -0.06782297 0.13763282 -0.1573971 -0.019849287 0.079671346 0.16449854 -0.093143314 -0.11381743 -0.089010194 0.16462494 0.09781111 -0.10014531 0.020623311 -0.11003402 -0.22593021 0.05386923 -0.023820827 -0.024870938 -0.10651023 0.053295594 -0.10284817 0.095294125 -0.048990622 -0.23733288 0.091714025 0.19875741 0.07206251 0.22250035 0.15995768 -0.0805644 0.22101946 -0.12070945 -0.0679294 0.16736437 0.06564478 -0.040408008 0.09910261 0.026757192 -0.18205644 -0.19952324 -0.01830216 0.07522286 -0.17312384 -0.074642345 -0.11504986 -0.015234597 0.011946548 0.13361411 0.025882563 -0.07134943 0.11465764 0.01456098 0.11547327 -0.017020443 0.057809137 -0.014877848 0.017376343 0.06945036 0.07976404 -0.15001102 -0.08573308 -0.09716771 -0.06628637 0.024666572 0.08622003 0.13794172 -0.01987061 -0.12518263 -0.17568375 -0.021407865
219 0.09165556 -0.09390216 -0.00498306 0.129056 0.09397135 0.11320641 0.092291765 -0.023910252 0.0061617326 0.15354389 0.03078336 -0.022273378 -0.04557572 -0.013461951 0.120914266 0.11159121 -0.20812282 -0.025457092 -0.1661256 0.19131522 0.10765652 0.30068803 -0.047692426 -0.20321223 -0.10420452 0.18021736 -0.03379164 0.055386662 0.0016306897 -0.11107094 -0.046743233 0.021510227 0.1293591 0.0025319876 -0.0317282 -0.1510167 0.16848847 0.042108912 -0.029446965 -0.10028419 0.006014988 0.06105043 0.09133684 0.012882583 0.12052243 0.062797084 -0.1026692 -0.11802633 -0.026868686 -0.12349071 0.019273123 0.061068587 0.1027463 0.07597075 0.038815673 -0.03104829 0.23880145 -0.11398121 0.060763057 -0.0038167164 0.02671115 0.030997166 -0.029337324 0.09987885 0.054235615 -0.021420814 -0.06521312 0.11498756 0.07780913 0.023772333 0.1177957 0.063818306 -0.16263497 0.015917799 -0.028017322 -0.10714315 -0.03663849 0.040525127 0.024021776 0.044881817 -0.042903326 -0.1993201 0.10112386 0.15765017 0.077702455 0.20174007 0.17799981 0.04723316 0.04293405 -0.12200695 0.0954681 -0.027347637 -0.016198238 -0.14740716 0.22540846 0.07680755 -0.11998358 -0.11813861 -0.06370459 0.06645504 -0.036612134 -0.094715536 -0.19870949 0.17532694 -0.12550753 0.056674566 -0.011174503 0.07450229 0.0022894992 -0.08254392 0.14817569 0.05527471 -0.0040622447 0.15557906 -0.008467062 -0.09486195 -0.027565423 -0.07106996 -0.06569436 -0.06254327 -0.12581798 0.048068326 -0.017843243 0.1545522 -0.12175136 -0.052929934 -0.0016498991 0.041439626
221 0.080064766 -0.13134705 0.019012323 0.028934063 0.012982903 -0.029779598 -0.06225295 -0.001985125 0.039256282 0.03904364 0.07810984 0.020550389 -0.14964922 0.002786548 0.08086661 0.06520218 -0.094645806 -0.12720907 -0.037915535 0.064097755 0.07306092 0.007273504 -0.002174075 -0.16925393 -0.10207355 0.05527928 -0.05726405 0.09476755 0.012613276 -0.09679181 0.007726633 -0.03431336 -0.023313966 0.103590935 -0.10839956 0.056468956 0.14864756 -0.00015959237 0.030177703 -0.0085734045 -0.015413761 0.007391729 -0.029086795 0.048243023 0.11788461 0.001177778 -0.09631147 0.13408792 -0.081778556 0.0050890367 -0.047902007 0.0027343112 0.03619978 0.14783113 0.12487436 -0.0053243157 0.24011241 0.030759513 -0.031294633 0.061656103 -0.056004833 0.037373446 0.13833033 0.021795576 0.18910511 -0.07294549 0.0139075015 0.12550764 0.0662558 -0.032537334 0.04795767 0.032178745 -0.15201065 -0.08163754 0.018609906 -0.15328622 0.015957696 -0.053964756 0.030254722 0.08868981 -0.032872062 -0.19310683 0.057109307 0.24424735 0.0761489 0.13829884 0.13328888 0.065059446 0.12872978 -0.045288548 0.028753748 -0.06801116 0.07692754 0.035826884 0.22305314 0.05992728 -0.0726174 -0.11832904 -0.004736771 -0.11922582 0.015294449 0.0018946416 -0.13695934 0.05861826 -0.017611058 -0.06361813 0.032285366 0.034689423 0.053501725 -0.066607274 0.07127575 -0.10781764 -0.056369264 0.046900824 -0.12227034 -0.10145189 0.00021308525 0.0225087 0.04324962 -0.03123564 -0.07223978 -0.06999088 -0.03233114 0.01482427 -0.10777706 -0.03640379 0.0109585235 0.016142538
226 0.047706015 -0.20048577 -0.019364323 0.2869339 0.048744075 -0.033847272 0.091980055 -0.031051407 -0.00015533685 0.2585334 0.020681374 0.33003473 -0.038378548 0.085621014 0.08366628 0.18396452 0.06405549 0.036905795 -0.005359282 0.24916093 -0.20954458 0.3736754 0.15333298 -0.3070833 -0.16652572 0.031241309 -0.11118638 -0.276654 -0.16692747 -0.2356091 0.1364464 -0.07730368 0.123843774 0.21414159 -0.18260235 0.06957837 0.20024587 -0.007865077 -0.27887958 -0.09172217 -0.033767603 -0.2499257 0.047455925 -0.039427966 0.09979729 0.14539129 -0.101952076 0.05191327 -0.13956301 -0.04225605 0.006036622 0.2025239 0.083171226 -0.07869538 -0.29757437 0.06312891 0.006358413 -0.176329 0.08578126 0.004270167 -0.10440814 0.023439 0.21094291 -0.012435435 0.03232755 -0.04557106 0.23308945 0.039594706 -0.08695135 -0.059632 -0.1919304 -0.1478276 -0.15220474 -0.0024064265 -0.08887619 -0.007601624 -0.19382246 -0.038978938 0.19070874 0.040479448 -0.08143171 -0.53417593 -0.101362705 0.3735597 -0.04156093 -0.016145986 0.10721916 -0.0023611924 0.17757888 -0.035464708 -0.036960438 0.17948502 0.11912142 -0.19948813 0.36788043 0.2518868 0.06581497 0.027501957 -0.064143024 0.13839282 -0.24524319 0.08076392 0.111573555 0.15259217 -0.0024529945 0.13818474 0.4347563 0.06461584 -0.18606265 -0.13366468 0.21366705 0.16188304 0.29516634 -0.17395957 0.10184686 0.0025867617 0.05688674 0.061862458 -0.049702797 0.0077898568 0.16138428 -0.14169766 0.16695122 -0.11335541 -0.11405564 -0.22355443 0.3482031 -0.0037459484
231 0.16067287 -0.2456944 -0.0065169237 0.055009536 0.16836868 -0.10739373 -0.048329376 -0.021361252 -0.1014961 0.08725026 0.09185607 0.107046776 -0.07034532 -0.14303422 0.15581366 0.13503483 -0.17353824 -0.09602749 -0.022856196 0.026725575 0.0836772 0.12587526 0.014965968 -0.2512682 -0.17363396 0.1278788 -0.0666661 0.07466068 0.06754478 -0.08276482 -0.1783262 -0.08542294 0.024602469 0.056992255 0.025300737 -0.008525143 0.22586419 0.06255664 -0.06291166 -0.06743387 -0.09093135 -0.119852215 -0.035088446 0.15653658 0.047571477 0.07345715 -0.073479876 0.075923316 -0.09624017 0.122613475 -0.12723209 0.09008462 0.024763877 0.14334202 0.01594505 0.194603 0.28940082 -0.018123787 -0.03785067 0.00821547 -0.086007744 -0.057978936 0.20328662 -0.031278748 0.00013903412 -0.05182203 0.065980546 0.023888092 0.06866196 0.12228491 0.021397058 0.055838425 -0.1779101 -0.058850903 -0.022323707 0.032056257 -0.022688575 -0.09134648 0.06184474 0.03991153 0.022939753 -0.08558092 -0.035850946 0.17510463 0.04963782 0.17850849 0.023038112 0.027602643 0.18195537 -0.0035802133 0.11700519 -0.0019427506 0.0029025117 0.003005709 0.22223261 0.04445303 0.010850085 0.03976766 -0.007339323 0.0057030786 -0.0031298671 0.04637822 -0.111238904 0.12889598 -0.16148424 -0.12711883 0.0002578055 0.053303912 0.0155821545 -0.17103663 0.12143793 -0.022507913 0.036266696 -0.112624384 -0.06719359 -0.027504345 -0.06345099 -0.01276677 0.056844298 -0.03493302 -0.04858772 -0.03935159 0.05154398 0.06326161 -0.0415678 -0.07711935 0.08282694 0.1329562
234 0.18415506 -0.08088431 0.023573618 0.11908527 0.034208715 0.0298122 -0.043893848 -0.048068155 0.008496259 0.008946578 0.1945009 0.014529259 -0.10089089 0.066930756 0.14364052 0.065148175 -0.11064674 0.010428514 -0.12341871 0.026221396 -0.036557745 0.21723083 -0.12953655 -0.16385704 -0.18304902 0.0556022 -0.12191792 0.10657889 -0.016698172 -0.2811696 -0.0929211 -0.020908477 0.049055044 0.096095584 0.095352694 0.04587735 0.12226165 -0.12506245 0.0809672 0.0810055 0.040699262 0.0824358 -0.13003816 0.066953465 -1.2606379e-05 0.04636906 -0.068797454 0.0740953 0.04017829 0.0033773077 0.044817146 0.0059427405 0.03654508 0.114352845 0.11492761 0.046126403 0.073956266 -0.012931586 -0.13719738 -0.041272216 0.05468845 -0.12571438 0.078704976 -0.04449457 0.15677081 -0.019207884 0.11086822 -0.054670133 0.025846492 -0.07634756 0.10718943 0.07651925 -0.27007085 -0.12768567 -0.08934467 -0.11705631 0.054425023 -0.15748146 -0.023536487 0.19862726 0.08335288 -0.16678417 0.16914706 0.14508843 0.060237348 -0.038833637 0.008747259 -0.03918388 0.13673279 0.1386032 0.08305771 0.018672187 0.068462364 -0.17367513 0.12911938 -0.06155523 -0.04208554 -0.08327957 -0.12806925 0.028226009 -0.08807886 -0.096900165 0.08718641 0.06263174 -0.056303106 -0.09098373 0.117671505 -0.015145885 0.108589135 -0.17064603 0.046382334 0.049459018 0.086968884 -0.036776353 -0.246225 -0.14229451 0.09846936 0.12103461 0.010401741 -0.13167685 -0.1938331 -0.066034965 0.03812291 -0.024071485 -0.07915279 -0.17728475 -0.04099919 -0.054312598
244 0.045321297 0.056264937 0.03951164 0.05648885 0.2049463 0.087448664 -0.046352234 0.08788772 -0.03813467 0.110524304 0.12242604 -0.045828637 -0.07678596 -0.04631052 0.072900444 -0.17984536 -0.092414364 -0.058417387 -0.19493812 0.08133556 0.03517855 0.12007532 0.027055623 -0.24692605 -0.16978887 0.18472879 -0.15328735 0.09571953 -0.10902922 0.08684258 0.13443112 0.005268855 -0.05636424 0.034743045 0.12462661 -0.15868805 0.30316958 -0.1231186 0.0065653757 0.0027737708 0.15965211 -0.030297415 -0.05723147 0.060892075 0.13598876 0.17040898 0.017616387 0.024766814 0.016587399 0.06353543 -0.2413565 0.03966653 -0.023815852 -0.10710148 0.09000409 0.0057885856 0.14475046 0.005237145 -0.09083657 -0.0028986386 -0.17516981 -0.10912563 0.023522384 0.08683003 0.07295553 -0.070114724 -0.14715667 -0.027034802 -0.08384625 0.091573894 -0.1155268 -0.011399895 -0.19944653 0.04750619 -0.0802581 -0.35984468 0.11712049 -0.30895796 0.010028958 0.116744086 0.04491727 -0.029652078 0.045616124 0.13515575 -0.008228165 0.06474699 -0.0040258057 0.14082056 -0.052274648 0.03417439 0.037763976 0.0004581727 0.19843332 -0.037623554 0.123875804 0.0051897 -0.12955333 -0.25898746 -0.25421253 0.0054475344 -0.23050739 -0.05171871 -0.102831334 0.12453934 -0.08315346 -0.2162524 0.072940275 0.18475933 -0.020939985 -0.10798914 0.037348717 -0.12039307 0.13209827 0.09757004 -0.29477882 -0.2573674 0.14675501 0.023212418 0.15409435 -0.21498759 -0.06312168 -0.10613597 0.017412905 0.18085048 -0.22667785 -0.12911202 -0.014170745 0.11768687
248 -0.016844535 -0.1099045 -0.06274976 0.0386428 0.062644005 0.03186697 0.040848203 -0.032380532 -0.15490748 -0.00990247 0.1599555 -0.029337792 -0.009137836 -0.076711506 0.22741467 0.007925961 -0.015027658 -0.116252825 -0.064878285 0.11505004 -0.044051986 0.22727938 -0.07847032 -0.1928676 -0.16001381 0.010565161 -0.015811827 0.121039025 0.028634189 -0.18363185 -0.096176706 0.043876577 -0.013164454 0.11861456 -0.08267198 -0.06676199 0.17600091 -0.030904211 0.051745586 0.003540637 0.0008594208 -0.031424038 -0.0064471588 0.04893324 0.12518005 0.054848738 -0.080998406 -0.02622095 -0.017654615 0.061050605 0.0047086235 0.039941024 0.021215683 -0.009610539 0.081466086 0.00026678885 0.17052965 -0.020137427 0.06538664 0.019827973 -0.022035807 -0.049188137 0.047564976 -0.0073239845 0.0962928 -0.09113909 -0.0038095608 0.14950463 -0.041712932 -0.07880903 0.08647726 -0.011289937 -0.14898953 -0.07225339 -0.018664984 -0.16194558 -0.068819545 -0.08067826 -0.036173567 0.17247336 0.02967724 -0.21542624 0.04891992 0.22397476 0.14677826 0.13765037 0.14212795 0.00038364145 0.116236016 0.05477862 -0.026420131 0.07854712 0.14081398 0.0019117533 0.16799474 0.07792635 -0.0010797872 -0.028820788 0.018090937 -0.14058425 -0.04485871 -0.00436153 -0.012773786 0.14086598 -0.051071845 -0.082409464 -0.010862182 0.011067892 0.07181542 -0.15578404 0.050008878 0.053623915 0.029980311 0.1132834 0.0101179965 -0.15684271 -0.0066909054 -0.07085051 -0.01069331 0.008138637 0.008502438 -0.13147734 0.021806804 -0.061108526 0.01391275 -0.085787065 0.03052011 -0.019435167
249 0.04370677 -0.059654564 -0.03160739 0.025982518 0.16461703 0.012809349 -0.059613496 -0.1036997 0.015522829 0.10870695 0.17678154 0.07526722 -0.1309009 -0.12002347 0.0722218 0.15753216 0.0316364 0.07091111 -0.13255088 0.1507336 0.05699777 0.14015387 -0.08964798 -0.16630423 -0.019985134 0.008817012 -0.23925567 0.13468653 0.053141844 -0.15169255 -0.09931341 0.09029814 0.013653718 -0.05541869 0.026865192 -0.07683911 0.1513909 -0.03160092 0.079645224 0.028665494 -0.099457145 0.035240598 0.047923643 0.06366654 0.006246789 0.020213805 -0.072628856 0.01435592 -0.13648018 -0.012295364 -0.027608857 0.05155092 0.035519388 0.09324271 0.12422651 0.04861681 0.17888176 0.02029902 -0.07263852 0.054559574 -0.03712379 -0.025878418 0.12966442 0.11118243 0.14237212 -0.005946844 0.18273817 0.19704105 0.014168321 0.0030853928 0.08552034 -0.07534109 -0.08392436 -0.066434294 -0.032991607 -0.12920737 -0.04613921 -0.030372601 -0.10915975 -0.067242004 -0.060745925 -0.21120064 -0.05885914 0.06890432 0.10550686 0.19806139 0.10877493 0.026487624 0.1289903 -0.022530481 -0.026672287 -0.05862269 -0.0125490585 -0.18494527 0.20816259 0.018627118 0.046302207 -0.09102281 -0.1108579 0.034053054 -0.03571385 -0.059405822 -0.1681928 0.20817699 -0.0047632935 -0.17724918 -0.12974505 0.030250868 0.13510057 -0.07684564 0.14594221 0.08935515 -0.020374265 0.08250205 -0.11593107 -0.048004676 -0.087155364 0.025135309 0.072390795 -0.06749621 -0.058484316 -0.040257666 0.043970853 -0.03578354 -0.06120239 -0.06985002 0.14512277 -0.0050374274
258 0.124134436 -0.023393936 -0.06808185 0.121952236 0.09241433 0.030102028 0.008044535 0.007362134 -0.03189991 0.10699313 0.08980163 -0.044352423 -0.08313262 0.0947352 0.11025314 0.094048336 -0.035376243 0.062202502 -0.12749001 0.10456032 0.04913082 0.20228034 0.04468189 -0.14447968 -0.10398151 0.04912299 -0.13545161 -0.080937035 -0.08695177 -0.038002178 -0.006362339 -0.08484019 0.06606188 0.09675646 -0.028233368 0.030469049 0.24610557 -0.086384885 0.07308666 -0.03976498 -0.11531318 0.024836065 0.038608268 0.043942295 -0.025757993 0.022394277 -0.15427232 0.06840609 -0.11648971 0.083705895 -0.01340487 0.042579863 0.12787595 0.03452154 0.013476487 0.09863937 0.07790057 -0.053813357 -0.068050094 -0.011701787 -0.105593845 0.03323639 0.044317666 -0.048267588 0.05399956 -0.098342486 0.18359283 0.01391069 -0.03328915 -0.0880888 -0.0020368 0.1544932 -0.30530816 -0.033519 0.041522183 -0.18282047 -0.16750649 -0.032379583 -0.022029279 0.07624005 -0.003607441 -0.06824886 0.042216644 0.17918868 0.08538422 0.0472174 0.1246927 -0.032834325 0.09070845 0.029100413 -0.010829145 -0.05663184 0.054178383 -0.09758967 0.15958112 0.086931236 -0.10092624 0.006960946 -0.11779722 0.06820259 0.041770354 -0.14130609 0.13451049 0.04909127 0.08902482 -0.018809063 0.14448519 0.1320013 0.048842803 -0.15662022 0.055824127 0.015372159 0.027195796 0.04744003 -0.16337046 -0.010735427 0.08319042 0.10505578 -0.06932801 0.0061273105 -0.11566027 -0.1287061 -0.060432762 -0.03397056 0.011335917 -0.1258503 0.11532425 0.017969918
260 0.15058307 -0.02488188 0.018945921 0.05112065 0.11574522 -0.021006452 -0.06043178 -0.05359842 -0.038571823 0.047851607 0.14787737 -0.08063101 -0.098565705 -0.0031385757 0.09092899 0.087778956 -0.09313637 -0.031466443 -0.17720355 0.019112412 -0.019383945 0.16475318 -0.04277081 -0.17909156 -0.15133981 0.051658977 -0.0431803 0.122476034 -0.04905198 -0.11644491 -0.064899184 -0.08926431 0.08533513 -0.030643273 -0.024225956 0.06205171 0.16549814 0.007364712 0.0067638583 -0.05019694 -0.04069956 0.06130056 -0.00807821 0.06476266 0.044560786 -0.025589181 -0.038472023 -0.06463986 -0.01884595 -0.010927898 0.0116963 0.08635714 0.21319039 0.017441386 0.11693793 0.07236439 0.13105282 -0.025251748 -0.017126914 0.11255433 0.009786729 0.005799548 0.1195753 -0.04032767 0.045109548 -0.030835561 0.102617465 0.12142169 0.13247137 -0.08868279 0.12488954 0.08794899 -0.10624773 -0.06257734 -0.010304599 -0.1929034 -0.02647268 0.014346727 0.0052598543 0.04290235 -0.124413475 -0.20919219 0.12394917 0.15239738 0.0018904617 0.06743643 0.17715403 -0.007753287 -0.008366527 0.016925177 0.04420097 0.01493053 -0.06155092 -0.094699785 0.25377837 0.11435852 0.015007707 -0.048244305 -0.040122934 -0.09198992 -0.0044195256 -0.02551996 -0.07933177 0.057384983 -0.041792862 -0.087385654 0.08196215 0.07936802 0.034850437 -0.064949386 -0.010708496 0.036985345 -0.0020519728 0.056339867 -0.118075036 -0.08616266 -0.002180828 0.06512324 0.012149718 -0.06820328 -0.1593486 -0.022244578 -0.045259226 -0.025710065 -0.14115085 -0.08749559 0.038756143 0.075190045
265 0.18121198 -0.058962367 -0.073347345 0.12297022 0.051321644 -0.008894205 0.09664326 -0.06005422 -0.036279146 0.13604392 0.06382533 -0.08317189 -0.10074182 0.070043236 0.08715081 0.10937244 -0.10813535 0.03949864 -0.17361185 0.058535848 0.033732932 0.13991931 0.021936152 -0.22334118 -0.08080547 0.080883294 0.026652511 0.10312652 0.048594978 -0.05027513 -0.016913751 -0.10071064 0.14233895 0.059263196 -0.034019105 -0.0060826256 0.13685735 -0.009431093 0.07863579 -0.073810965 -0.09765121 0.0146453045 -0.016013656 0.013229227 -0.026363958 0.053023756 -0.1618057 0.035482083 -0.043817796 -0.050479487 0.025161449 0.10803701 0.060763143 0.051301226 0.104185276 0.007974991 0.19404028 0.008262215 0.004380159 0.008336248 -0.04636528 -0.037092727 -0.009730603 0.04070551 0.04928761 -0.00023621351 0.033096194 0.073068045 0.0202128 -0.120400764 0.08890906 0.09449984 -0.16452542 -0.047402844 0.04098327 -0.14906046 -0.10859783 -0.038554993 -0.02951151 0.13184448 0.02783976 -0.1373792 0.14386733 0.2537455 0.0071438504 0.076424405 0.13557443 0.08791986 0.11082862 0.015991883 0.08954901 -0.08519637 0.010639647 -0.01990294 0.20904806 0.052936632 -0.10830595 -0.010679366 -0.091269016 0.042121332 -0.03669972 -0.05004775 -0.13508223 0.09934816 0.03015145 -0.06936597 0.12011246 0.031108016 0.012009753 -0.15697837 0.14324668 0.11708181 0.083722755 -0.029032538 -0.15775415 -0.055129334 0.083489776 -0.017413395 0.044253163 -0.010877813 -0.069513164 0.011071338 0.02305142 0.08045226 -0.14765099 -0.062115505 0.020881658 0.022610078
266 0.124250695 -0.070178576 -0.01498357 0.021735802 0.021364683 0.0056469194 -0.09658617 -0.095387176 0.072557844 0.065979004 0.19111648 -0.015744315 -0.08375867 0.0047289724 0.14620627 0.0961125 -0.20549595 -0.015585996 -0.11092475 0.0813539 0.13472684 0.19707923 0.053691424 -0.2713089 -0.14942569 0.068305396 0.0027713398 0.14647986 -0.063261874 -0.052509576 0.053208977 -0.09994045 -0.0064679594 -0.0012354807 -0.0047941087 -0.09669881 0.25848076 0.02289421 -0.02366217 -0.036387097 -0.076766446 0.021146372 0.051602393 0.04026289 0.11367411 -0.010714409 -0.049862284 0.051033024 -0.0355797 -0.047953784 0.001697162 0.10711898 0.08793157 0.016233195 0.030621473 0.08095067 0.16483706 -0.024378615 -0.06995957 0.08419445 -0.002527967 -0.04506761 0.13360624 -0.11370498 0.06558009 0.04447007 0.149304 0.11004972 -0.0061362493 -0.07507272 0.023077056 0.014452114 -0.07987796 -0.11813958 0.043781202 -0.20451772 -0.060786832 0.017285267 0.1122635 0.21955062 -0.0719084 -0.06439484 0.044107456 0.114636354 0.016463693 0.16997412 0.077055514 -0.052778587 -0.046858475 0.029647844 -0.06883013 0.06596074 0.086190194 0.03730648 0.20899244 0.22474746 -0.0021499891 -0.08223776 -0.043422762 -0.0059927925 -0.04069392 0.04288237 -0.085950434 0.08901274 -0.05982232 -0.10044147 0.0051697628 0.0677779 -0.005843996 -0.09883379 0.007406238 -0.03133084 0.02526961 -0.030859528 -0.12299148 -0.04515555 0.11418408 0.07179187 -0.05499313 -0.08077797 -0.041940693 -0.04659618 -0.20328687 -0.059297785 -0.027168311 0.012794414 0.0007627806 0.032743197
267 -0.031166013 -0.16112831 -0.080628105 0.10412458 -0.005806404 -0.09124144 0.042647026 -0.12092337 -0.033001725 0.20828067 0.16775076 0.07066907 -0.07960561 0.004060691 0.10836332 0.15927114 -0.11285647 0.037138402 -0.23226191 0.045490183 -0.013363897 0.15822794 -0.15585825 -0.17702499 -0.005447394 0.074977845 -0.29084566 -0.0072096786 -0.007068275 -0.09567105 -0.044191666 0.0631008 0.07989465 0.10165489 0.07307328 0.12218927 0.20934097 -0.051146712 0.0339378 -0.05111422 -0.11612642 0.13188167 -0.017268984 -0.03844085 0.24034178 0.015604068 -0.04132379 0.036557313 -0.051728733 0.04070856 0.009449245 -0.016478717 0.009055986 0.07383971 -0.039905168 -0.054956853 0.21237622 0.037497155 0.08749423 0.045373768 -0.24404265 -0.14714848 -0.021818662 -0.023852091 0.37398636 -0.11022358 0.15873635 0.044340093 -0.20448849 -0.17725027 0.16909868 -0.007953556 -0.02000805 0.017023003 -0.103715606 0.07552683 0.012055411 -0.14416753 -0.078732304 0.12393383 -0.09455259 -0.26556656 0.018025393 0.17370826 -0.043655567 0.13174993 0.17759404 -0.014123978 -0.013095602 0.0013986153 0.025202995 0.05920857 0.0747984 0.043916505 0.30495867 0.08809149 -0.040685132 -0.030149538 -0.21547918 -0.10163813 -0.105011076 -0.11521619 -0.09215688 0.06351514 0.012451584 -0.18175049 0.1296077 0.05310567 -0.10496821 0.02670509 0.158212 0.06820541 0.022868467 0.09068628 0.08222972 0.0917352 0.12242391 0.014946688 -0.004625457 -0.02026173 0.047828674 -0.13181654 -0.048749804 -0.0046380446 -0.10781377 0.082185246 0.15726255 0.13216473
268 0.16015849 -0.05064169 0.038015336 0.16129947 0.053897236 0.023535777 -0.08931687 0.04308392 -0.04068244 0.12766592 0.14526324 -0.06508981 -0.07574937 0.02468442 0.10102869 0.11165033 0.046147473 -0.04625128 -0.04769559 -0.0010117006 0.11376763 0.099566035 0.010464788 -0.15271617 -0.114466436 0.08448976 -0.037638582 0.15783262 -0.097095095 -0.15766169 0.00794359 -0.10268436 -0.036923368 0.033068128 -0.0025342517 0.09647159 0.25018862 -0.048052944 0.14517193 0.08916324 -0.0074487957 0.036302377 0.06642196 -0.063689165 -0.0031364271 0.013442519 -0.13089551 0.049412876 -0.18547598 0.009771584 0.0058063595 -0.0055051204 0.06581988 0.109275535 0.15310034 0.07241183 0.15342662 -0.0053276997 -0.07383171 0.043189455 -0.04951672 -0.12570764 0.11044311 -0.03404726 0.19364932 -0.047499884 0.07537538 0.076723196 -0.045212213 -0.06909614 0.031429917 0.0658728 -0.1806378 -0.11622359 0.051474873 -0.15364446 -0.011891134 -0.06831073 -0.02839708 0.025006998 -0.06679577 -0.15098017 0.12879878 0.19969879 0.016119566 0.10574474 0.1094661 0.11199334 0.080820166 0.031894006 -0.028431177 -0.06877198 0.018114526 0.03604707 0.12928839 0.059655413 -0.09607407 -0.12206149 -0.0066924947 -0.057364862 -0.08290953 -0.11159213 -0.021645878 0.10880187 -0.059945114 -0.055560686 0.08567526 -0.008559284 -0.012503943 -0.07716806 -0.13015303 -0.0025338074 0.012707948 -0.009606066 -0.12362174 -0.052752428 0.0837188 0.10302278 -0.0028096328 -0.061749168 -0.047740374 -0.066500604 0.007656664 0.03113387 -0.024222307 -0.038843524 -0.050277814 0.06675888
273 0.04129926 -0.14030707 0.0604916 0.050274074 -0.024514345 0.011318413 0.03936131 -0.103736535 0.028258981 0.032629758 0.1234756 -0.009351819 0.020048607 0.18228823 0.06494783 0.14071509 -0.027309777 -0.03845003 -0.24110803 0.049222324 0.034965612 0.20262688 -0.059651177 -0.23451816 -0.22372875 -0.022598892 0.04314107 0.1897962 -0.07373753 -0.10880467 -0.045468315 -0.05836262 0.056268465 0.05569639 0.02406765 -0.0101905605 0.12161125 -0.029901156 -0.09772294 -0.058701493 -0.07473136 0.255266 -0.0363568 0.14947364 0.11469556 -0.029954191 0.022748217 0.10722638 -0.068271525 0.13755007 0.065700404 -0.0076008034 -0.06614874 0.15276758 0.05993962 -0.12277347 0.15231001 -0.007597152 -0.009025299 0.08151655 -0.041121464 -0.09975647 0.15977103 -0.04918979 0.22106862 -0.08086778 0.042412598 0.14855248 -0.027750148 0.055487808 0.13329454 0.033206247 -0.22435653 -0.08796397 0.14445674 -0.1703133 -0.10397793 0.012819052 -0.060432374 0.0077613555 -0.023687681 -0.18939397 0.097782165 0.22514528 0.1537587 0.0048539247 0.16960579 -0.071706876 -0.046742108 1.2983183e-05 0.09997009 -0.10596195 0.109662704 -0.012529671 0.15037335 0.09752839 0.09762694 -0.1310541 -0.09891006 0.04230765 0.02673754 -0.022859348 -0.01990964 0.063213915 -0.11848618 -0.10700343 0.033119515 0.035382837 0.0071334215 -0.0058867787 -0.012757665 0.026472436 0.05463984 0.04151863 -0.13501887 -0.017568238 0.02255178 0.021286123 0.044292588 0.030508745 0.042833425 -0.084777035 -0.064073265 0.06479201 -0.085870594 -0.06577083 -0.005557209 0.04440285
275 0.049655363 -0.073403664 0.08948772 0.18026534 0.095464766 0.060874585 0.043396935 0.10483947 -0.062337648 -0.09225556 0.17671353 -0.025924433 -0.10730472 -0.14377078 0.14401902 0.15441985 -0.070473135 0.062621765 -0.11103402 0.18571004 0.018333022 0.2044602 0.063080706 -0.2634571 -0.024756132 0.046518475 -0.027576772 0.03503451 0.077124864 0.07961288 0.02417341 0.04688963 0.18270715 -0.038881652 -0.07038261 0.062630385 0.124234304 -0.09815634 0.09806231 -0.16559051 -0.16096394 0.016544966 0.0662265 -0.05805696 0.06900892 0.08428704 -0.089319244 -0.040146317 -0.080125056 0.14214478 -0.0056616263 -0.09550076 0.07645345 0.10717094 -0.0034066623 0.08184066 0.2586773 0.04747567 -0.060704928 0.063007675 -0.013947249 -0.094819255 -0.040360823 0.11054925 -0.08136728 0.027607672 -0.054956757 -0.006832119 0.0543997 -0.06290457 0.13853498 0.111002125 -0.1318618 -0.14935432 -0.06098876 -0.04292217 0.088162795 -0.090960525 0.019054703 0.06406998 0.017288733 -0.13233317 0.049353383 0.28926256 0.097633496 0.29719064 0.1090311 0.15559988 0.20038567 -0.03333632 -0.001336061 -0.021008393 0.054920007 -0.010124196 0.11262372 0.0120874625 0.080109626 -0.035511732 -0.1666289 -0.034661483 -0.1044726 -0.17802791 -0.22156371 0.012681814 0.048216578 -0.032770175 0.11315505 0.109077185 0.11235112 -0.22388393 0.1713904 0.09948163 0.09609682 -0.10947228 -0.016454045 -0.1277431 -0.022890905 0.00040469973 0.045937095 -0.06878516 -0.16920647 -0.12512694 0.020252522 0.13038923 0.106860116 -0.033106234 0.022870403 0.05748758
