259 128
191 0.0038682627 -0.020431451 -0.10511582 0.14661933 0.044039775 -0.11870891 -0.00027466172 0.052122287 0.06827103 0.118955195 -0.009437545 -0.13445275 0.012334129 0.026329014 0.064315185 0.07618382 0.0032241205 0.046878308 0.04816684 -0.041238602 0.051531136 0.04724772 0.054419354 -0.16465817 -0.06828667 0.13620389 -0.026782066 -0.13929862 0.06968892 -0.2224441 -0.14598942 -0.13473144 -0.0525064 0.07946777 -0.015071166 -0.014572673 0.13000593 -0.12080793 -0.06850812 0.00195776 0.0012464151 0.08529926 0.051223133 0.0047306055 0.20629814 -0.0016447502 -0.026962142 -0.0043392065 0.091521494 -0.04900685 0.17556396 -0.17068307 -0.026201336 -0.033427436 0.028322168 0.044582177 -0.092269845 -0.08624371 -0.09344645 -0.013035964 0.16791114 0.15394577 0.11935417 0.0025598132 -0.0016406074 -0.03593989 0.12081625 0.09950318 0.14207853 -0.1505288 0.058232345 0.03233841 -0.2369677 -0.040263254 0.09906812 -0.0005534782 -0.12003912 0.047535732 0.09138802 0.051059388 0.07640359 -0.1621906 0.09508313 0.32256675 0.07911765 0.08628375 0.1473911 -0.00064329593 0.013033919 0.052713085 0.048499428 0.12608272 0.05483776 0.04986145 0.300251 0.017853387 -0.055603635 -0.10640926 -0.19658983 -0.10420087 -0.06484906 -0.08386807 -0.0012219336 0.07401827 0.006996417 -0.12904313 -0.060581792 0.04537444 0.1316817 -0.29772392 0.14172783 -0.24489175 0.023656469 0.023878627 -0.24723317 -0.03747818 0.1006579 -0.1477423 0.0782238 -0.18655428 -0.229003 -0.023112133 -0.13224426 0.10221603 -0.06308693 -0.04402185 0.037917122 -0.064160354
258 -0.07700498 -0.07513231 -0.04126362 0.080293484 0.003331676 -0.07548726 0.052470766 0.115224764 0.016350199 -0.027203511 0.027223129 0.009959835 0.048297703 0.01365537 0.10404894 0.08147774 -0.0030607854 -0.019655999 0.041692384 -0.07465643 0.15698995 0.13166352 0.027814344 -0.16014989 -0.10706281 0.1565804 -0.032575157 -0.095469855 -0.0043970603 -0.22016154 -0.041240517 -0.13211799 0.10119296 -0.029089833 -0.012900375 0.15434472 0.15681855 -0.21935147 -0.02329767 -0.03833604 -0.07080053 0.1182703 -0.09020687 -0.14613226 0.096137606 0.11961384 -0.20711666 -0.008934707 0.049555283 0.032105632 -0.09594766 -0.06636795 0.00340044 0.07226208 -0.1036433 -0.02900845 0.081182554 -0.16528794 0.036358338 -0.029745787 -0.045880135 0.118842416 0.16663864 0.049745757 -0.083656624 0.010934279 0.046081252 0.105668396 0.05833257 -0.03200581 -0.029547472 0.032416593 -0.20950866 -0.11854903 0.2008727 0.010108447 -0.03692488 0.14299494 -0.073002204 0.018948086 0.083921805 -0.11717913 0.102125295 0.22833455 0.25161305 0.103005454 0.0039492417 -0.052583847 0.06839077 -0.08102961 0.053802785 -0.058366437 0.03996382 -0.03584447 0.2526362 -0.033047315 0.052278835 -0.038065635 0.0003054255 0.019264098 -0.07046713 -0.16417336 0.03587399 0.014032492 0.06819415 -0.058610056 0.009106133 0.20494913 0.11174124 -0.28157386 0.2208289 -0.04942679 0.036401298 0.07895553 0.014234586 -0.11903176 0.017695552 -0.089221396 0.008531144 -0.19866584 -0.11349896 -0.08107642 -0.17416655 0.12055189 0.013987527 -0.028915513 0.078572705 -0.031101348
25 0.04500204 -0.04685941 -0.036348745 0.106230475 -0.039984953 -0.18431635 0.063712515 0.10963927 0.10375796 0.079524904 0.12439403 0.109213576 0.055187885 -0.052251663 0.052715454 -0.053278133 -0.10085535 -0.10728986 0.0008499325 0.10739793 -0.044066798 0.017584598 0.0005862534 -0.11126975 -0.040257897 0.007916849 -0.03014408 -0.1158187 0.041712243 -0.13642634 -0.039083008 -0.041484494 0.080690235 0.0710867 -0.02316278 0.21779215 0.13822728 -0.011371637 -0.085502274 0.07531798 -0.058186777 0.21497092 -0.08267977 -0.1270014 0.015883885 0.02238546 -0.021572374 -0.14983323 -0.12371567 -0.07025563 0.076492324 0.10035983 -0.10101965 0.07847869 0.061055996 -0.10497279 0.09140414 -0.05147902 0.025254568 -0.040121462 -0.15564011 0.047466107 0.061691795 -0.08781787 0.043051448 -0.05046142 -0.031181071 -0.034766577 0.00872207 -0.044868052 -0.0837295 -0.07382561 -0.14727807 -0.058821578 0.03356294 0.015994426 -0.17541337 -0.00827341 -0.17551345 -0.062021136 0.10134281 -0.0686191 0.15357082 0.27763596 0.083755106 0.08789396 0.10729982 -0.05713052 -0.085315354 0.06163098 -0.051121127 -0.069905855 0.27289852 -0.09893373 0.20152102 -0.08089456 -0.07080269 0.022882422 0.038951065 -0.05802292 -0.033739593 -0.034505896 -0.025522478 0.012581884 -0.022747707 -0.05057516 -0.07218097 0.10007257 -0.0075633135 -0.14852828 0.2136633 -0.02059301 0.0033310188 0.08562232 -0.026587296 -0.08859783 0.033857152 -0.1496206 -0.089330815 -0.20843089 -0.24371907 -0.0015948559 -0.15102756 0.090599254 -0.17374021 0.17088233 -0.023008984 -0.005638547
268 -0.0598781 -0.043986626 0.16626282 0.014559599 0.06311193 -0.16389115 0.07297347 0.06692138 -0.0025935236 -0.13287553 0.059680834 0.11116675 0.037300114 -0.19254652 0.089197 -0.14844917 -0.051664397 0.00023740738 -0.04156424 0.06235305 -0.013564934 0.17922395 -0.050951652 -0.15763786 -0.14799723 0.09697784 0.031772584 -0.081436306 0.07325682 -0.025406403 0.05797793 -0.16966976 0.08020529 -0.087063916 -0.113196686 0.16631928 0.17227815 -0.06402194 -0.16904838 0.08877659 -0.048251987 0.07751387 0.051334396 -0.08571759 -0.07082851 0.09343694 -0.036817957 -0.17696813 -0.09724611 -0.03891863 0.10314885 0.10341054 0.029009497 -0.049889203 -0.10356079 0.03560564 0.024440031 -0.09374205 0.18942513 -0.022603273 -0.07330048 0.0691972 0.0605322 0.049812067 0.06948341 0.042368323 0.0068338825 0.20430829 0.025924008 -0.10874213 -0.0015864188 -0.003912893 -0.17444704 -0.06390329 0.19398859 0.123523176 -0.16509284 -0.065903366 -0.09768634 0.046705063 0.03578915 -0.0011404474 0.056481484 0.11769255 -0.011627871 0.1648601 0.13154955 0.02536423 -0.07684147 0.05859241 0.031125085 -0.18175504 0.18082508 -0.12838015 0.14835866 0.01789533 -0.1413852 -0.113966495 -0.112663135 -0.07617657 0.008057654 0.077042095 0.11008325 0.00536342 0.13501441 0.00076886517 -0.02942677 0.10311509 -0.045194805 -0.13224262 0.15259282 -0.16129205 0.062484227 -0.044089593 0.13706172 -0.04802349 0.11755354 -0.18093538 -0.008764145 -0.114596054 -0.039098058 0.06463803 -0.009524261 -0.02549885 -0.02186424 0.17255971 0.047602613 0.022684187
305 -0.12490971 -0.13021414 0.12883073 0.043791745 0.03201955 -0.24542119 0.13555248 -0.1564355 0.16429661 -0.015922284 0.01838275 0.09667655 -0.07430552 -0.060606536 0.026582673 0.041349422 0.046532977 -0.07279125 -0.12553447 -0.041251287 -0.058940407 -0.027474424 0.002987982 -0.05920086 -0.16244407 0.12616941 -0.119875774 -0.06667138 -0.12114496 -0.124390334 -0.15483409 -0.14467753 0.035978016 -0.008929292 -0.21059489 0.1251198 0.1214779 -0.19361572 -0.050966565 0.06607669 0.0410846 0.08952635 0.015709016 -0.10854961 -0.21291155 0.14116459 -0.23258439 0.0810882 0.1577602 0.115816206 0.093518496 -0.16749534 -0.021470934 -0.060860068 0.026176564 -0.15608627 -0.12964615 -0.016225468 -0.03126691 -0.117796406 -0.009850287 0.11430201 -0.033749744 0.020281833 0.10655399 0.18233593 -0.006838546 0.025220132 0.19642077 -0.086294614 0.17061925 -0.02343854 -0.1682308 -0.122866265 0.22707024 -0.043095082 0.08065784 -0.1660055 -0.26504624 -0.13587151 -0.020792494 -0.14971109 0.26496235 -0.032034524 0.1302056 0.24042606 0.02219418 0.046974126 -0.19679706 -0.04176996 -0.16319294 -0.07161349 -0.09656637 0.038811658 0.16976973 0.0903869 -0.087843254 0.014099979 0.06563768 -0.40162936 0.124690406 -0.0061798445 0.06478896 0.041820955 0.1391859 -0.23461057 -0.054183006 0.25145903 0.016650306 -0.22256684 0.17693706 0.05314233 -0.056919843 -0.09256679 0.25107503 -0.19979692 0.027479352 0.04431434 0.19212282 -0.16638179 -0.14331377 -0.1519256 -0.31719476 -0.05156339 0.058675017 0.060231723 0.004313664 -0.05366194
316 -0.023759924 -0.025053494 0.0843841 0.11593471 0.09048157 -0.11608183 0.05344531 -0.14139746 0.15749575 -0.012966331 0.15353405 -0.03646268 -0.04940223 -0.08530232 0.18000413 0.171642 0.008644552 -0.15950279 -0.04756422 -0.03001775 0.02240543 -0.005256803 -0.016225718 -0.03156686 -0.11843401 0.027542157 -0.17894252 -0.026902521 -0.079068825 -0.11328137 -0.05843058 -0.2006215 0.013958189 0.042557344 -0.22967331 0.15697557 0.1292448 -0.111063346 -0.020849826 0.087641016 0.0676732 0.018416913 0.122552685 0.038683992 -0.14212582 0.13814086 -0.18702865 -0.1212682 0.15885703 0.065090396 0.021489518 -0.091278456 -0.04495621 -0.024250116 -0.07777962 -0.07347691 -0.053805176 -0.041991945 -0.0051037148 -0.061086595 -0.00041729142 0.10300788 -0.0114576 -0.012381247 0.08347688 0.03965981 0.06197437 0.12836856 0.28957352 -0.019158203 0.1347434 0.07883177 -0.12050548 -0.1560798 0.19067578 -0.04436778 0.12870646 -0.09783658 -0.21852039 -0.10053024 0.09069484 -0.14060536 0.40115258 -0.075803265 0.005097322 0.16029543 0.049547624 0.05208587 -0.17326982 -0.04209573 -0.089962535 0.030248826 0.13226043 -0.03943838 0.1677218 -0.005366446 -0.033637196 -0.09530161 0.005300944 -0.42755184 -0.026565991 0.041783355 0.015541732 0.038733307 0.04735436 -0.15962571 -0.0054407623 0.25722882 0.03580408 -0.17352308 0.17823249 0.058948413 -0.026480509 -0.056181356 0.18449776 -0.14489175 0.07161029 -0.03880524 0.031189114 -0.16921608 -0.15686797 -0.09965178 -0.17875285 -0.09709788 0.0045833774 0.13671176 -0.0053768805 0.0025314721
260 0.07058876 0.029193763 0.092698194 0.07428627 0.07443201 -0.23929834 0.14933006 -0.06526746 0.11074809 0.04444893 0.18983796 0.08587286 0.07172229 -0.02954389 -0.058688067 0.061421946 -0.116746835 -0.16271839 0.059301008 0.09041711 0.03537423 0.05773581 0.036222354 -0.15411915 0.04806659 0.08700429 -0.09176143 -0.0023782258 -0.113739446 -0.12123316 -0.023707338 -0.0461704 0.10424332 -0.014992043 -0.040698033 0.04018893 0.13280971 -0.08131223 -0.04352934 0.12176606 -0.10774281 0.08181947 -0.115795866 -0.008231316 -0.0187451 0.14212891 0.13197167 -0.051777035 -0.17651588 -0.040693678 0.18081522 0.096471526 -0.08772673 -0.14007632 0.047634926 0.02470577 0.23021428 0.036520265 -0.09268987 0.079975784 -0.18062778 0.1760795 -0.041584108 -0.082866766 0.15592933 -0.04571664 0.094498076 0.10763401 -0.097391106 0.018571973 0.007739159 0.06432385 -0.20551027 -0.3033826 0.016541928 0.012004253 -0.17545564 -0.10838523 -0.11531792 -0.035358902 0.07245803 0.08175682 0.0061232042 0.34034893 -0.03379971 0.019565267 0.034621917 -0.05692161 -0.04117359 0.013977428 0.06798435 -0.14857313 0.010944436 -0.13774443 0.23042588 -0.050963487 0.069364175 -0.097671285 0.080716275 0.010547314 -0.057127107 -0.04795701 -0.03729781 -0.021745058 0.09437175 -0.050010882 -0.16156587 0.0016509113 0.08172165 -0.18730181 0.13460317 -0.09827286 -0.05300828 -0.07747996 -0.011019403 -0.14113392 0.09016858 -0.06584882 0.010602538 0.003596348 -0.1491594 -0.14886099 -0.1884062 0.026859267 -0.09656343 0.16453367 -0.042015813 0.008553676
246 -0.12676576 -0.22859336 -0.24340552 0.08889114 0.042404495 -0.067975506 -0.11430507 0.1608344 0.03131787 0.07713995 -0.058218513 -0.087717175 -0.028476644 0.078359984 0.032093413 0.18958531 -0.03572821 0.079064354 0.1185763 -0.15929443 0.12948036 0.12562037 0.132517 -0.20779134 -0.07379487 0.13758135 -0.099373296 -0.3054497 0.017653733 -0.12490627 -0.16768734 -0.16454269 -0.14390483 0.107819885 -0.0891491 0.18415205 0.09932207 -0.09140666 0.06754014 0.057297926 -0.011790011 0.13784637 -0.014377993 -0.013334313 -0.028028686 0.18020171 -0.15093736 0.018745106 0.08238877 -0.018276244 -0.008900942 -0.23369478 0.013969061 -0.11205246 -0.13612008 0.027237142 -0.025438923 -0.04411972 -0.11932891 0.18859471 -0.030921599 0.11248617 0.11920092 -0.041401625 -0.061448973 0.009806623 0.12103373 -0.097834215 0.14175475 -0.21299848 0.047954556 -0.15312235 -0.2733494 -0.17937763 0.05034055 -0.0786293 -0.06710016 0.084190525 0.027174773 0.1359286 -0.040162675 -0.030359646 0.0028103415 0.16224231 0.13460837 0.005513462 0.1149522 0.044940166 0.23558457 -0.10300788 0.0082605835 0.0012647142 0.075079955 0.00825058 0.37117955 -0.15330805 -0.06945461 -0.059211977 -0.0147477565 -0.02755899 -0.087401584 -0.11382271 -0.07953706 0.07443704 0.05104981 -0.076173835 -0.057965524 0.08171946 0.11563031 -0.20245765 0.19610098 -0.14321603 0.041949425 0.07032644 -0.18053916 -0.11847931 0.13154548 0.07050278 0.028039595 -0.18755315 -0.21696341 -0.078919604 -0.12289291 0.06754932 0.10514588 -0.076267876 0.0074096355 0.075663626
79 0.04404089 -0.0885663 0.13938907 0.01637844 -0.050428655 -0.16286488 0.009050275 0.18941362 0.028934238 0.046920013 0.09838575 -0.07057758 0.0062952037 -0.10313246 0.07373356 -0.018095091 -0.10964298 -0.033378202 -0.009937474 0.051646497 0.045014746 0.042078275 -0.09427595 -0.16320543 -0.0663954 -0.012712148 -0.11125731 -0.09026914 0.024782289 -0.10197353 -0.061426446 -0.012865884 0.008335122 0.01962135 -0.10563295 0.315796 0.1812902 -0.0632878 -0.17894368 0.09308325 -0.04409842 0.1430805 0.014288525 -0.04284413 -0.06430221 0.08774219 -0.092959516 -0.048625484 -0.07111286 -0.030955158 0.23828445 0.09209081 0.009461493 -0.027152607 -0.05781611 0.080618225 0.054875907 0.050911017 0.083235055 -0.08385559 -0.06177774 0.05094512 0.040882304 0.056608245 0.108339146 -0.009852353 0.07555474 0.26982665 -0.02478388 -0.011153034 0.037332684 -0.051875 -0.20184956 -0.028360305 0.08460879 0.012218503 -0.10415996 -0.05398503 -0.08293046 -0.0072443727 0.031073755 -0.047811806 0.042050898 0.092521265 0.18689884 0.07723529 0.09700907 0.026938673 -0.06088775 -0.004948299 0.16773216 -0.14299299 0.17267556 -0.041877057 0.13505279 -0.0807687 -0.038243804 -0.103906676 0.112852335 -0.008114892 0.094929926 0.13148797 0.084626555 -0.024390137 0.012592497 -0.08321276 -0.1421943 0.15509653 -0.0845054 -0.19421355 0.013937006 -0.16902569 0.05643674 -0.0039652847 0.09360362 -0.15259919 -0.033840742 -0.046596088 0.018850936 -0.15564924 0.07563791 -0.025434447 -0.06972658 -0.0088232765 -0.04809018 0.14499226 0.08238156 0.054319248
85 0.07006678 -0.13545144 0.01335754 0.05482508 0.025769414 -0.16551346 -0.036565017 0.1391405 -0.12367762 -0.09908763 0.18458997 0.024740292 0.05865832 -0.00038383334 0.13470547 -0.035658922 -0.009688683 -0.3085134 -0.17837946 0.19564451 -0.013707229 0.15664448 0.052181497 -0.30327973 -0.123324856 0.26991695 -0.14929909 -0.21322045 0.06846588 -0.09223938 -0.24760133 0.097517796 -0.110612616 -0.099707246 -0.13825585 0.2613779 0.11735074 0.09762727 -0.07415623 0.05823545 -0.08815357 -0.03393911 0.11514623 -0.018444898 -0.020097097 0.13011864 -0.05560055 -0.30832168 0.01987963 -0.029785857 0.15331015 0.07832734 0.07507977 -0.017413165 0.029727597 -0.037823085 0.044758998 0.029283194 0.15212515 -0.026719363 0.10175128 0.08835366 0.054929763 0.24282056 0.005774216 -0.05788535 -0.016034873 0.06132963 0.10212135 0.06374285 0.1864628 -0.14292592 -0.2454744 -0.0059019695 0.16024071 0.004157526 -0.14531922 -0.15370172 -0.035202768 -0.011944473 -0.07002437 0.017132415 0.00790288 0.010089951 -0.04980418 -0.03616879 0.034866713 0.04739392 -0.10383824 0.028457098 0.09619562 -0.26445955 -0.003987892 -0.0023060413 0.15645215 -0.02443428 -0.0037572992 -0.06219766 -0.0888619 -0.1236686 -0.13591197 0.22304575 -0.045552555 0.09920225 0.025419254 0.02514235 -0.16194253 0.08435937 0.12945995 -0.10791859 0.05615334 -0.11856837 -0.059960153 -0.07953042 0.011303606 -0.034961097 0.060385782 -0.085599326 0.09538243 -0.26583758 0.081101656 -0.12312326 -0.049078304 -0.021204736 -0.03161013 0.04976568 0.016106702 0.2547902
103 0.02557591 -0.17336169 0.0034932771 0.1980491 0.06649093 -0.080586985 -0.025695521 0.065094665 0.009179087 0.0740462 0.1168734 0.086059935 -0.00841559 -0.061155666 0.06405358 -0.09342156 -0.020778835 -0.22277202 -0.1139441 0.17504294 -0.05971657 0.17063652 -0.054744303 -0.15695521 -0.13294849 0.17474067 -0.14743143 -0.13130076 0.014468903 -0.02538604 -0.12873276 0.054163117 -0.06584248 -0.096878484 -0.2379332 0.22725548 0.00031972025 -0.01751416 -0.17558281 0.07139995 0.003828977 0.00820921 0.017583597 -0.106143646 -0.04103091 0.13620053 -0.123495616 -0.2683531 0.01808953 -0.09348614 0.18877771 0.028618084 -0.13788608 0.021458978 0.006580495 0.009355108 -0.012615054 0.0135154035 0.06482416 -0.06536028 0.093850896 0.07868997 0.03800257 0.07971713 -0.00811099 0.022988414 0.076931074 0.1374385 0.06900302 0.036113124 0.13828525 -0.039347872 -0.25860232 -0.1099985 0.10100691 0.028050033 -0.12326932 0.017141605 0.009729014 0.06060382 0.036644496 -0.021305814 0.06591263 0.04164674 -0.03767329 -0.029773496 -0.015509653 -0.029665964 -0.043258213 0.07124681 0.1573686 -0.14061804 -0.0819143 -0.12262839 0.23370977 -0.037047494 -0.009806039 0.012924539 -0.14869335 -0.1418843 -0.0012709503 0.08604458 0.030356133 0.101851895 0.054978658 -0.13751706 -0.0888942 0.07064665 0.14741762 -0.19718291 0.16777842 -0.024114704 -0.01847958 -0.09519247 0.120272934 -0.009593464 0.061315414 -0.041108053 0.07586302 -0.14364666 0.0038959696 -0.081902854 -0.099134974 0.02284579 -0.08155734 0.15033884 0.09610038 0.1473363
141 0.040636204 0.07283594 0.09308982 0.061952207 0.16070184 -0.056097697 0.017490841 -0.07714517 -0.048532262 0.05567249 0.14446051 -0.10815785 0.024348412 -0.21373186 0.15227585 -0.0026011523 -0.121749535 -0.16128625 -0.043736655 -0.07360093 0.10268618 0.14255169 -0.024313072 0.018190378 0.014534378 0.1695759 -0.03408804 0.0010533397 0.013564615 0.0038688206 0.096551545 -0.14659859 0.21953592 -0.027183669 -0.021563502 0.16098087 0.1510531 -0.10008806 -0.10831819 0.15331653 -0.22620115 0.0636914 -0.05500367 -0.026638806 0.07632007 0.08187229 0.042020407 0.046685696 -0.057035893 -0.08792819 0.09754642 0.01872837 -0.00042243127 -0.1613296 -0.0110076135 -0.040462732 0.07427198 0.088589385 -0.07445531 0.011848248 0.06149779 -0.045967452 -0.11289202 -0.055103756 -0.017003244 -0.12845396 0.081590466 0.08456848 0.016775688 -0.04849093 -0.097694874 0.13420671 -0.26339263 -0.14918308 0.044124767 -0.05026789 -0.0064159213 -0.0055439756 -0.18987039 -0.15851149 0.07072829 0.050938535 0.07237769 0.30993852 -0.030764984 -0.002825969 0.047990553 0.0809639 -0.02982058 0.0016766437 -0.032589104 -0.10261055 0.26575658 -0.08188061 0.2215002 -0.10465409 0.056110993 -0.09145893 0.001007113 -0.08582011 0.037801575 -0.0014330255 -0.06395817 0.0044607646 -0.033408735 -0.18243273 0.04573922 0.23632407 0.007273383 -0.23872514 0.24207044 -0.07033742 0.017995195 -0.0900908 0.06492797 -0.022134725 0.043062825 -0.074076496 -0.06348531 -0.25227657 0.0074840477 -0.042163245 -0.22192028 0.023960931 -0.11627472 0.14015816 -0.046013165 0.04666943
234 0.06523631 -0.2031802 0.05171765 0.0005886388 -0.06591419 -0.055146627 0.04725957 -0.040208284 0.16837318 -0.106698304 0.015218513 0.14958914 0.10984691 0.02698081 0.040538937 -0.11231594 -0.21116546 0.08845441 -0.005154483 0.09820362 0.08603664 0.069903865 0.18777706 -0.16902448 -0.06135762 -0.026526963 0.039237764 -0.15621771 0.13230357 0.029917315 -0.027690198 0.038138524 -0.03484992 0.13114898 0.045119032 0.13716823 0.3038903 -0.21250057 -0.060438458 0.02045258 -0.043906316 0.03488852 0.040203713 -0.11518182 -0.020567894 -0.109830335 -0.028320499 -0.2014037 0.022361442 -0.041949183 0.15642558 0.049604625 -0.04589393 -0.062037796 0.19175668 0.03475498 -0.008550271 -0.17356136 0.010592452 -0.014583711 -0.18598963 0.12956285 -0.08554061 0.01981029 0.07388581 -0.022386411 0.050018214 -0.021880534 0.03198403 -0.027404001 0.022018095 -0.07081426 -0.21611625 -0.010362297 0.1595971 -0.113712244 -0.27191728 -0.10201603 -0.21359587 0.04231328 0.14816532 0.06412742 0.134213 0.25268134 0.07222769 0.16206358 0.10424996 0.01967472 0.17218003 -0.022019293 0.18153234 -0.03430043 0.014451139 -0.10381666 0.15901186 -0.039746415 -0.08505167 -0.017280083 0.11118741 -0.21854214 -0.1984721 0.06998727 0.18561348 0.050353736 0.17908105 -0.00715055 0.004262865 0.0033360133 -0.089736775 -0.10655109 0.103892975 0.043184295 -0.062338687 0.06894816 -0.074301995 -0.12272203 0.19824082 -0.2501374 -0.005181294 -0.0023371584 -0.1250742 -0.17637275 -0.1451529 0.036261138 -0.12329682 0.18849741 0.03377094 -0.01638426
51 0.023130802 0.02096317 0.01047063 0.10017509 0.095234565 -0.082627356 0.05654819 0.037899103 0.025331952 -0.052394588 0.15749907 0.039062817 0.038872574 -0.028386965 0.03859502 0.083126895 -0.15212506 0.013335726 0.017645303 -0.07378839 0.13020645 0.107349075 0.07445765 -0.00049020845 -0.10147997 0.09038199 -0.05250874 0.008346647 0.17616239 -0.3091326 -0.04280927 -0.03971243 0.081227176 0.056489494 0.09248261 0.24811162 0.24009359 -0.006341545 -0.17548724 0.17026675 -0.11345463 0.10322457 0.020117275 -0.05157946 -0.06862986 0.1711103 -0.16544594 0.034105152 -0.08116563 -0.15138735 0.030339165 -0.030894961 0.0020247137 0.031266186 -0.13257046 -0.047175024 0.1147486 -0.09317623 0.08640285 0.03865025 0.051436953 -0.073478915 0.07250794 -0.16925667 0.025975019 0.13309312 0.077569194 0.28313264 0.1080562 0.018267155 -0.12701234 0.029962225 -0.12754549 -0.11363317 0.02271518 -0.0716899 0.09138116 0.044125166 -0.11793268 0.019335603 0.038956247 -0.022637533 0.090390675 0.0772629 0.034351338 0.08450854 0.03238324 -0.06687232 0.018226294 -0.04177844 0.0046667494 -0.025105786 0.25532547 -0.111385696 0.18317506 -0.091862865 0.07572954 -0.0027173462 -0.05636315 -0.15163526 0.0008535008 -0.035274822 0.039909188 0.116700605 0.016065389 -0.0032476513 -0.021316823 0.16825788 0.04873944 -0.18224421 0.20192516 -0.060489763 0.07836584 -0.15225843 0.022327214 -0.07870932 -0.055790734 0.0019552098 0.025659272 -0.203978 -0.25735068 -0.007444785 -0.28644654 -0.10236302 -0.038364194 0.06428395 -0.03116836 -0.025066111
265 -0.05973069 -0.046651345 0.13472502 0.052785948 -0.012796464 -0.08148332 -0.10958489 0.069234654 0.009889012 0.16274105 0.101548694 0.016347066 -0.001617282 -0.031707298 0.12362262 -0.084260486 -0.11315111 0.082446404 -0.034718532 0.08448506 -0.0327276 0.08764336 -0.03810447 -0.06645003 -0.12844485 0.09186179 -0.07596882 -0.011482688 -0.004528059 -0.12207727 0.03734369 -0.14069296 0.062033273 0.13907522 -0.00490213 0.21976508 0.06962288 -0.07489243 -0.018004425 0.15623686 -0.17430998 0.055943407 0.014436897 0.094317056 -0.07394974 0.054982517 -0.0027174908 -0.08676425 -0.0722238 0.032645646 0.0978245 0.0104393335 -0.010308089 -0.039835785 -0.04754636 -0.070060685 -0.033705343 0.09347722 -0.13414407 0.014834138 0.061329715 0.07572704 0.099704936 0.0477507 0.11954635 -0.10403225 0.10665004 0.11862618 0.12410739 -0.084647894 0.063363075 -0.059878133 -0.10769651 -0.113417715 0.095411465 -0.014213557 -0.112174034 -0.05742579 -0.14122209 0.08310995 -0.0054025464 -0.09776447 0.06515207 0.15462035 0.006751643 0.048907608 0.13326927 -0.02912047 0.11358526 -0.034130327 0.09996203 -0.12106677 0.041734766 -0.07897846 0.24075314 -0.041586567 0.05270446 -0.07061743 0.06197836 0.0026952107 -0.07966132 0.0006078606 0.07171257 0.114843294 0.08669406 -0.0332134 -0.18804486 0.05946265 0.22991939 -0.22057314 0.09092182 -0.19560552 -0.087219164 0.05358244 -0.04152228 -0.12298049 -0.045562226 -0.07053056 0.040785454 -0.08676574 -0.08386737 -0.105505645 -0.17424299 -0.096942596 -0.032468516 0.009496599 0.036409315 -0.089681506
208 0.10531849 -0.019610759 0.07493474 0.029071698 -0.00447931 0.011586279 0.021825414 0.013722529 -0.019403195 0.04620114 0.13630939 0.010318086 0.039485626 -0.10792816 0.17960243 0.018081263 0.115909666 -0.21721348 -0.038712647 -0.035685323 0.06707792 0.3149546 -0.017434612 -0.2484128 -0.029057553 0.09983695 -0.032125995 -0.1622787 0.19261143 -0.19088408 -0.1355407 0.05924741 -0.14737189 0.15382077 -0.21461686 0.1584683 0.31448016 -0.1185599 -0.038209192 0.23716529 -0.0046360586 0.038446512 -0.046419088 -0.2114712 -0.003943938 0.014039125 -0.093548 0.08637431 0.041536942 0.016683104 0.15277144 -0.05170848 0.06395249 0.07573719 -0.00050625537 0.02212298 0.056636333 -0.14150405 -0.11768644 0.06363325 -0.13942331 0.10073986 0.014655651 0.020211825 -0.015718367 -0.18437925 0.09631582 0.20515797 -0.01254138 -0.067732126 -0.082526095 -0.026221983 -0.2026984 -0.07035076 0.16170292 0.032885097 0.09238973 -0.04163892 -0.32895327 0.020676335 -0.0060501774 -0.14783978 0.12432299 0.16145363 -0.10316767 0.033225525 0.10800249 0.03574742 -0.16712901 0.01334368 0.093002915 -0.11108382 0.0015777377 -0.081251755 -0.06684492 -0.15384053 -0.10093245 -0.056139756 -0.08489591 0.069564074 0.05599604 0.020754756 -0.06723751 0.08970936 -0.0051398836 -0.24053548 -0.047826823 0.15983416 -0.030719513 -0.15732984 0.2386253 0.043219972 0.041391764 -0.21463686 -0.08812138 0.062242378 -0.007516764 -0.15666969 0.084214225 -0.055074822 -0.1770227 -0.05299918 -0.08259626 -0.039845217 0.020805126 0.05419949 0.04369846 -0.07605707
195 0.009135239 -0.19210383 0.13912578 0.24374281 0.06810783 -0.10611994 -0.06804587 0.0075647975 0.09357437 -0.07789639 0.10776682 -0.08754003 0.014980137 -0.021481913 0.046836924 -0.048810683 -0.0454179 -0.057658203 -0.18143782 -0.031543378 -0.05974412 0.2543521 -0.07154408 -0.05942437 -0.066987306 0.14033015 -0.02524675 0.044138063 0.1542806 -0.21551876 0.047089066 0.0013660674 -0.009335904 0.049571045 -0.017714735 0.02726355 0.20290087 -0.081178784 0.08239381 0.032307245 -0.15347736 0.1370679 0.13584058 -0.06757961 -0.041491386 0.11713344 -0.2192832 0.07629357 0.06566999 0.026516013 0.05435641 0.052217484 0.016152076 0.25129837 -0.069831796 0.038942065 -0.08959295 -0.1952217 0.16522264 0.06356894 -0.025120713 0.033613343 0.009248146 -0.11771455 0.11074928 0.05082403 0.061797824 0.25117046 0.11211568 -0.056540348 -0.069673255 0.07290157 -0.27710137 -0.111898005 0.093134716 -0.020862766 -0.0066721765 0.0069278535 -0.27463806 0.052826423 -0.17654985 0.03103974 0.15735 0.02918769 0.16155086 0.14070882 0.029041667 -0.080557 0.07303236 0.028470753 0.026551075 0.084138036 -0.043988716 -0.19235387 0.19815661 0.027056186 0.04423805 -0.077810094 0.012739932 0.01371663 0.034771107 -0.05482346 -0.043859184 -0.02055744 0.24855138 -0.07500116 -0.044358157 0.0245378 0.028132899 -0.29950026 0.20495006 0.06196022 0.11677144 -0.111825585 -0.00012969288 -0.118519664 -0.058159314 -0.017330272 -0.0730752 -0.14320287 -0.09344338 0.045438576 -0.36643884 0.119924426 -0.051783524 0.045964807 0.05507636 -0.005441641
30 -0.08296253 -0.022336246 0.074152954 0.2399294 0.0380556 0.081939906 -0.26694003 0.03298401 -0.07615332 -0.034869313 0.17070784 -0.20129167 -0.12349589 0.04616254 0.121857226 -0.053997107 -0.0057787406 0.041281883 0.10899206 -0.015182696 -0.0036367262 -0.0015488528 -0.10147707 -0.24453992 -0.45397982 0.07018471 -0.039330915 -0.19792238 -0.04637339 -0.12559031 0.08610546 -0.010199613 -0.1716819 0.1314863 -0.12987974 -0.18173403 0.22560182 0.29667312 -0.051234595 -0.0046705394 -0.28533033 -0.082198314 0.105071805 -0.123958595 -0.14655772 -0.19403853 -0.10789496 -0.24939846 -0.19369893 -0.07521813 0.09425482 -0.025163399 0.14450015 -0.12730867 0.11506856 0.08254409 0.057897482 -0.06971704 -0.035958678 0.18077625 -0.029390547 0.113809526 0.18207668 -0.053125393 -0.06540098 -0.027631601 0.2500856 -0.052356713 0.021927154 -0.31418857 -0.054442782 0.150003 -0.38043797 -0.07975784 0.17311104 -0.03639617 -0.1112988 0.20298244 -0.05432162 -0.045376673 0.05310987 -0.13952187 0.1488657 0.2600499 0.12230585 0.066121474 -0.0630266 -0.022404494 -0.27095714 -0.63793564 -0.04394454 -0.035655573 0.04656601 0.045284588 0.23047267 -0.27139187 0.07516066 -0.27048048 0.15533207 -0.108717114 -0.15802269 -0.074833475 0.19441618 0.19187172 -0.066954106 0.24588217 -0.22758193 0.23181136 0.04344419 -0.00075174094 0.22283396 0.08343192 0.097670555 -0.030883996 0.07611356 -0.038184218 0.064172745 0.17091651 0.32109565 -0.19579205 -0.04837623 -0.016548712 -0.05294177 -0.11835088 -0.08974348 0.0084820455 0.05251201 -0.06097532
346 -0.25082836 -0.16064252 0.05716077 0.26963386 0.057125945 -0.0022119563 -0.23844989 -0.015494006 -0.0016136289 -0.05273471 0.011518782 -0.15481739 -0.18878508 0.09965137 0.066583164 -0.19756295 -0.26140717 0.07237845 0.113325104 0.13326918 -0.03984065 0.073134184 -0.035822835 -0.27874765 -0.3882045 0.17163768 -0.020712366 -0.035707973 -0.05932643 -0.029376214 0.24829853 -0.042943835 -0.043091316 0.4289909 -0.1336691 -0.053711243 0.2692354 0.37358186 -0.11582287 -0.011962433 -0.32660437 -0.16852218 0.049818218 -0.063764684 -0.18219896 -0.05967579 -0.056548424 -0.2693084 -0.18420732 -0.046848107 0.15998814 -0.17797151 0.26011002 0.10408861 0.09188691 0.14928436 -0.042276036 0.00040602664 -0.10113714 0.19221169 -0.08452853 0.023409538 0.10125096 -0.0415605 -0.08176907 -0.048472505 0.16568206 0.046407174 -0.007051344 -0.16669184 0.08497278 -0.03815243 -0.31970277 -0.018883934 0.19254254 -0.006196935 0.08978577 0.20400818 0.0036838686 -0.2925653 0.0003467447 -0.031391744 0.14996736 0.35387012 0.18237051 0.1039243 -0.031618334 0.06285739 -0.26469842 -0.26010883 0.16459356 0.10321233 -0.0061176545 -0.021995144 0.10663906 -0.22150257 0.013602208 -0.15714282 -0.05742599 -0.15688461 -0.25562578 -0.18608738 0.04235021 0.21390226 -0.031596072 0.17797716 -0.035776995 0.15639201 -0.03846063 -0.21130094 0.22901095 0.050139412 0.02858468 -0.10774163 0.12056422 0.083897196 -0.10529475 0.0152241085 0.21202071 -0.13964419 -0.22422859 -0.1263199 0.021405144 0.06274086 -0.13134256 0.16960001 0.10368943 -0.1264261
9 0.01402242 -0.0005472929 0.0099145975 0.12654209 0.0035397033 -0.10728116 0.13803425 -0.02827919 0.16684431 -0.18418792 0.10205236 -0.058535796 -0.058120202 -0.17767969 0.19974005 -0.11454686 -0.08972802 -0.03619432 0.06395803 0.05436439 0.14050047 0.14306718 -0.12425021 -0.11301062 -0.16302118 0.066036515 -0.07350144 0.012339093 0.0478169 -0.07958641 -0.07377836 0.009709437 -0.05255084 0.13145137 -0.107623234 0.17315811 0.116682254 0.010370485 -0.056172047 0.14142084 0.13811131 0.011573246 0.102965385 0.104782626 0.010360418 0.047031593 -0.07120043 -0.0353645 -0.037167415 0.15344349 0.2100927 -0.118577346 0.093625374 -0.0405873 0.000809669 0.055153027 0.027032511 0.03977213 0.0433415 -0.09070139 -0.09702262 0.05666785 0.025800755 0.0611297 0.1126679 -0.056828704 0.0715101 0.10316934 0.00010189337 -0.08411647 0.15075985 -0.006793336 -0.28955168 -0.024726197 0.05157191 -0.048118744 0.0005966652 0.038136408 -0.13709138 0.22165877 0.12212373 0.021016866 0.035921626 0.11502401 0.011619144 0.18260519 0.06772359 0.064239465 -0.09830301 -0.043757673 0.092714496 -0.12552989 0.01044996 -0.14085682 0.061227903 -0.016144834 -0.16405983 -0.15120919 -0.053466637 -0.065007724 -0.09687157 0.10158949 -0.051504053 0.019624721 -0.019053265 -0.20721498 0.14438207 0.020329216 0.14055976 -0.19957167 0.27128458 0.052032165 0.08102658 -0.09406972 -0.03663036 -0.13442066 0.10248713 -0.063942656 0.23175097 -0.033995885 -0.020467715 -0.16564418 -0.15568897 -0.08892698 -0.03141342 -0.040831067 -0.012756949 -0.13544238
288 -0.008181962 -0.23318094 -0.17897289 0.17331806 -0.021928042 -0.16071536 -0.059404958 0.02575439 -0.053449605 -0.052467767 -0.07224956 -0.07412886 -0.19022045 0.040639475 0.081949875 0.075424835 -0.14400528 -0.008259547 0.12758079 -0.05094572 0.013077389 0.12509432 0.01962484 -0.08270591 0.027651748 0.031718764 0.012747857 -0.08733594 -0.17603475 -0.13281806 -0.1522098 -0.1856372 -0.07440128 0.10274507 -0.092563994 0.17264976 0.05147 -0.010709159 0.035457492 0.07202658 -0.12701759 0.23099582 -0.14168298 -0.054861534 0.16208522 0.0617339 -0.21268086 0.11000124 -0.12999558 0.11931678 0.07229518 -0.026009109 0.21411352 0.09878786 0.07748486 -0.01932305 -0.055012263 -0.16897342 -0.14014158 0.091622405 0.15324205 0.014748719 0.15098861 -0.0416152 0.027305985 -0.049969878 0.05252667 0.1488021 0.15309909 -0.16905874 0.16516241 -0.14663725 -0.22496878 -0.20737222 -0.09677706 -0.2492045 -0.072269544 0.073477566 -0.09083934 0.16393489 0.07242649 -0.12117865 -0.0045764465 0.04878345 0.1187224 0.054594748 0.12233699 0.022629471 0.08631731 0.035634775 -0.18147483 0.057929438 0.06940119 -0.026080864 0.27283385 0.1758113 -0.023913266 -0.1741538 -0.06901406 -0.16931002 -0.0956478 -0.12229791 -0.036351707 0.12599356 0.09623648 -0.046948668 -0.11971708 0.11162856 0.065680824 -0.24778758 0.1047391 -0.31383222 0.021218412 0.17088062 -0.073387414 -0.14708279 0.11951276 -0.01103767 0.20140725 -0.20184806 -0.2275633 -0.064439595 0.08196464 -0.06532475 -0.03452529 0.039952006 -0.09937061 -0.011951346
34 0.14098093 -0.024308316 -0.163221 0.13547938 0.064393945 -0.07490979 -0.06837111 0.24753374 -0.23441762 0.09387118 -0.15082172 -0.21545331 -0.21907146 -0.0287226 0.0011661259 0.10367616 -0.085317865 -0.014912477 0.100253485 -0.21104747 -0.042388014 0.20068616 0.06514975 -0.18430476 -0.022188338 -0.036632434 -0.121546224 -0.28653172 -0.11232126 0.016886914 0.048448887 -0.04190338 -0.0791798 0.038029008 -0.14837834 -0.0075272173 -0.007920557 -0.14031342 -0.021789795 0.05873761 0.07524095 0.2049328 -0.01419975 -0.094217345 0.13693835 -0.0036039606 -0.132573 0.07457234 -0.08738378 0.022622628 0.17126805 -0.21566467 0.1637079 0.044195656 -0.057109185 0.047919974 -0.05256166 -0.07227198 -0.092217796 0.03202501 0.067065135 -0.10336644 0.2579308 0.00046389623 0.08824307 0.0822006 0.059199195 0.15546557 0.08364501 -0.2420593 0.063971974 -0.1009555 -0.25202593 -0.14999032 0.057930123 -0.053622257 -0.10840567 0.1337505 0.01718257 0.07304305 0.113655105 0.03739585 0.22512074 0.14001034 0.058557004 0.030213665 0.042767566 0.015715199 0.0009491729 0.08412051 -0.015363314 0.029835895 0.049765855 -0.12277412 0.2653739 -0.06292962 0.077965215 -0.07169807 -0.09832384 -0.18873544 -0.33839732 -0.13703871 -0.07882691 0.111604996 -0.0040754657 -0.045944706 -0.15291739 0.082010366 0.21332058 -0.21634185 -0.0015804003 -0.28457263 0.08602339 0.22148904 -0.033637736 -0.15655461 0.17611155 -0.054957464 0.09312058 -0.07448836 -0.37279436 -0.13114886 -0.25020617 0.093640275 -0.24248177 -0.013272794 -0.0033893483 0.075087935
273 -0.06126127 -0.12737103 -0.008796688 0.09797441 0.04589831 -0.14139028 0.0800488 -0.105665594 0.120708466 -0.038056336 0.0017417266 0.027557034 0.17613183 -0.13410932 -0.09793301 0.04027891 -0.289931 -0.21063757 0.012372892 0.08822307 0.09233074 0.08671741 0.071519874 -0.02695528 -0.2022377 0.08322866 -0.18282342 -0.15387768 -0.04649557 0.05276426 -0.040174294 -0.012748934 0.05468086 -0.0864804 0.21752958 0.23526067 0.12892061 -0.19285864 0.11431039 0.035829905 0.13437751 0.13656865 -0.11104653 -0.016029937 0.026849013 0.06287113 -0.02762897 -0.27186835 -0.2875406 -0.012580189 -0.03583185 0.076035574 -0.05446766 0.11263068 0.18996312 -0.07102944 0.23583879 0.04767462 -0.11713384 0.14107668 -0.08948776 0.0030990213 0.07017045 -0.03602973 0.017077155 0.063766934 0.22387674 -0.017969836 0.2864648 -0.030092658 -0.06023892 -0.10448881 -0.23471674 -0.22036049 0.018991565 -0.16535906 -0.21066776 -0.2056399 -0.15775117 0.034669816 0.05269838 0.026319813 0.02529063 0.34479448 -0.01980733 -0.10026831 0.0091552725 -0.07672954 -0.049476605 0.084445834 0.0025202588 0.016006893 -0.06862063 0.005216428 0.22008654 -0.27041987 -0.017655628 -0.2288793 -0.009795104 -0.12436612 -0.2769944 0.13608962 -0.0826351 -0.029286334 0.12952405 -0.181449 -0.036276106 0.061566506 0.02336005 -0.21439381 -0.0946369 -0.008446957 0.07263379 -0.053728387 -0.002177791 -0.043626744 0.05953039 0.027200688 -0.16079777 0.11077255 -0.09832911 -0.058573566 -0.21032707 -0.16287132 0.088475406 0.2389619 0.13688695 -0.11486905
134 -0.07780397 -0.037059024 0.17730919 0.19459109 0.027732745 -0.20333926 0.08750362 -0.06102311 0.116981275 0.0852013 0.21249586 0.2230072 0.07607429 0.1082933 -0.031651855 0.053230405 -0.25699276 -0.21848276 0.03481821 0.14477883 -0.038799457 0.15132432 -0.0041570994 -0.21179655 0.037133314 -0.113995455 -0.027747508 -0.103046015 -0.010054018 -0.06253421 0.057521634 0.0829362 0.0029387637 0.025712533 0.22595619 0.20431653 0.039336596 0.013404874 -0.008243176 -0.107365936 0.17678697 0.17381607 -0.007751333 -0.12755474 -0.092473336 0.040041804 0.06622155 -0.10730501 -0.14278492 0.12207131 0.033738673 -0.013969974 -0.061207205 -0.059586793 0.11010709 -0.047598787 0.24005994 0.0051334477 -0.007039292 -0.04146037 -0.21364842 0.25243726 0.14546691 0.049512874 0.16360609 -0.14207543 0.1505531 0.037692543 0.21539001 -0.093534105 0.12544937 -0.05948508 -0.24144687 -0.22118984 0.07683804 -0.12418765 -0.2648857 -0.107448496 -0.0019555348 0.033422843 0.06218492 0.0026564654 0.034767114 0.37226522 0.05177746 0.048842203 -0.029290792 -0.050171904 0.06416266 0.09310815 -0.11958709 0.09922436 0.021064736 0.118237615 0.24337336 -0.1194498 0.05159463 -0.23474863 0.07538725 -0.122620374 -0.3104294 0.12564926 -0.18176831 0.017497396 0.11793633 -0.1685182 -0.018610489 -0.07115829 -0.13545622 -0.10292759 -0.14387959 -0.0788269 -0.069627695 -0.12764664 -0.020998156 -0.068942234 0.0575 -0.0279889 -0.112716995 0.001600978 -0.17083254 -0.06089353 -0.31229624 -0.14676064 0.091617376 0.20347342 0.09419885 -0.022671333
175 -0.057061616 -0.14798619 -0.17691693 0.075274356 0.081801794 -0.34428826 0.0047643427 0.09394285 0.060714375 -0.115938984 -0.04824978 0.025542255 -0.10465415 0.06987478 0.17336756 0.08492677 0.07880112 -0.04678284 0.042070787 -0.21647416 0.12055845 0.14967354 0.08950383 0.07041485 -0.14238757 -0.08586677 0.07688377 -0.17392524 -0.048843633 -0.11232826 -0.122970924 0.040815983 0.04823409 0.066199824 -0.1009369 0.1574968 0.19546375 0.16383599 0.07233077 0.24986032 -0.08951247 0.0054288753 -0.20077083 0.1378215 0.068117656 0.052797377 -0.21325907 -0.04170037 0.105087675 0.08479934 0.042302933 -0.0001805441 0.19041875 0.0038419722 -0.009664296 0.35345298 0.08545713 -0.046913825 -0.33918118 0.19687158 -0.037611105 -0.08411246 0.24598885 0.1018009 0.041999448 -0.08590031 0.18379964 0.06916257 0.14583777 -0.15605046 0.058553282 -0.18521217 -0.2270633 -0.23144801 0.2104633 -0.14828143 -0.04523442 0.02301889 0.0738143 0.12363505 0.106026396 -0.10211286 0.18303023 0.14764836 0.02430837 0.11150425 0.1491704 -0.0036922512 0.0674079 0.02881125 0.023790505 -0.028090775 0.049443495 0.013221311 0.087130636 -0.06445691 0.033458386 -0.038780686 0.021620989 -0.07328898 -0.12208616 -0.08692058 -0.09551111 0.1647552 0.0034667368 -0.097942315 -0.03876048 0.15817693 0.075578034 -0.14576301 0.19180427 -0.236411 -0.04234266 0.040092852 0.051759284 -0.13940229 0.112685405 0.18093495 0.13750488 -0.2015309 -0.069359064 -0.14569056 -0.25788182 0.23443744 -0.029483072 -0.06589557 0.10683796 0.11494788
194 0.076643586 -0.022830538 0.1039025 0.11540857 -0.022290997 0.107076414 0.025227506 -0.0040546632 0.10438481 0.19872038 0.22004062 0.046326455 0.17950368 -0.12052867 0.09540512 0.13557123 0.08880312 -0.16470833 -0.017662048 -0.06388381 0.18259288 0.36145234 -0.0045741857 -0.12636364 -0.09262025 0.21350934 -0.10492981 -0.21058169 0.065942846 -0.119949095 -0.01477758 0.027183684 -0.03914357 0.3065795 -0.24379608 0.044588033 0.16471231 0.062659934 0.118313804 0.08027303 0.015090041 -0.07469256 0.06284474 -0.16881406 0.16978823 0.06557753 -0.2981772 -0.13713649 -0.049327593 0.03146693 0.39598823 -0.0056443927 -0.13956618 -0.103504434 0.15589526 -0.017045796 -0.05648721 -0.027994804 -0.094700366 0.012070802 -0.01578824 -0.058896028 0.029519629 0.02835554 0.1452806 -0.0700436 0.11137321 0.21601757 0.18512194 -0.1319105 0.03451377 -0.03725354 -0.09764363 -0.017504526 0.20894973 0.05715433 0.17923439 0.0278557 -0.14796446 0.09054189 0.10805609 -0.24280755 0.1744656 -0.017229728 -0.12547253 0.0834491 -0.10022304 0.13502748 0.10995795 0.21870384 0.06372435 0.058964934 0.09392418 -0.050543323 0.011468998 0.019798866 -0.051672433 0.06309629 0.024504324 -0.25470024 -0.014535622 0.021000087 0.009804522 -0.13557668 0.14068697 -0.1406782 -0.11819389 0.014517436 0.2058022 -0.2072541 0.33131585 0.15512218 0.14980046 -0.13163821 -0.23453051 0.056187395 -0.004908708 -0.21612136 0.27985454 0.12604141 -0.12865691 -0.08865151 -0.20801459 0.015269805 -0.12276814 0.06609416 0.110994086 0.053423613
73 0.0239961 -0.25397378 -0.06785794 0.1597129 0.0780768 -0.16780964 -0.08618028 0.07233981 -0.18853518 0.10731769 -0.2520916 -0.15462449 -0.030411998 -0.022816425 0.020696163 0.1490925 -0.30992997 -0.036106355 0.04507917 0.08724764 0.07296901 0.1629486 0.14122267 -0.014887578 0.008296305 -0.025123129 -0.050402854 0.052825697 -0.07166428 -0.15694484 -0.10883208 -0.2744577 0.098271966 0.14390156 -0.08555783 -0.09604819 -0.17663908 -0.04377625 -0.01687152 0.15144391 -0.08919514 0.017811414 0.18879764 -0.05371095 0.15635152 0.09095389 -0.1429116 -0.034431025 -0.08834352 -0.15537055 0.07163339 -0.16630381 0.04138585 -0.042974543 0.2863347 -0.08750822 -0.091808006 -0.11256885 0.08015272 -0.101731524 0.030805597 0.27462074 0.09187101 0.15383264 0.11639918 0.1666359 0.012219736 0.252009 0.1960589 -0.12766254 0.012452725 -0.13392693 -0.16758826 -0.04881069 -0.0038407324 -0.011151141 -0.03433587 0.16426104 -0.18711512 0.1454774 -0.13484126 0.01571026 0.34325677 0.19543245 0.10703942 0.14344256 0.23998931 -0.064803146 0.17411481 0.050236482 0.013562905 -0.09109636 -0.11413843 -0.085226305 0.2855832 -0.1694276 -0.1375015 -0.15054443 -0.10433574 -0.120090924 -0.13513194 -0.015909888 -0.15575185 0.17885664 -0.10910384 -0.10374339 -0.06828107 -0.06563265 -0.11424112 -0.20196873 0.15216313 -0.29520994 0.029773038 0.25281167 -0.12560116 -0.09069529 0.003297467 0.0409169 -0.01994144 -0.018135427 -0.36377802 -0.070153914 -0.2832984 -0.013049181 -0.12904373 0.061041534 0.17789137 -0.047724053
226 -0.20046555 -0.084292404 -0.23363443 0.10261737 -0.0383317 -0.19678965 -0.123811804 0.11073131 0.15672754 -0.08549135 0.13888596 -0.26639348 -0.12610282 0.2001454 0.060947686 -0.2541367 0.041309804 -0.10315214 -0.19860114 -0.26736733 -0.053161 0.21254529 0.19261822 0.01740679 -0.18377003 -0.038082905 -0.11914048 -0.019855546 0.135545 0.17803589 0.08871619 -0.23194177 0.063959144 0.0644236 -0.065677695 0.09114754 0.39914876 -0.1062826 0.06728889 0.0022683756 -0.12055148 0.041953232 -0.36216873 0.029450543 0.30411822 -0.1254472 -0.40132925 0.2311153 0.119829245 0.14621897 0.02155743 0.0046559037 0.07759902 -0.05454137 -0.3026352 0.13176234 0.15640877 -0.09402183 0.008273181 0.110796 0.025562905 0.12378646 0.45139602 0.22247295 0.17724419 -0.03429843 0.07194491 0.14930901 0.11652093 -0.11782057 0.02913642 0.12708026 -0.24016955 0.007157345 0.3110276 -0.15119594 -0.055488426 -0.1282655 -0.06784495 0.012253872 0.05067787 0.028647795 -0.21254417 0.18542302 0.040453766 0.096988894 0.09509267 -0.07370223 0.017525189 -0.18730223 -0.11241479 -0.11204575 -0.070905246 0.12803194 0.43861467 0.04585164 0.1673317 0.11026108 -0.25552928 -0.14362924 -0.30951914 0.006224849 0.29602146 0.12175067 -0.055994153 -0.16417637 -0.17589526 0.0046431017 -0.064286575 -0.068189494 0.3315657 0.004193409 -0.2087303 0.09556699 -0.2168969 0.09912799 0.03416929 0.3026002 0.13645586 -0.38661617 -0.19361131 -0.022743285 -0.08764038 0.02577773 -0.014875371 0.11460773 0.10804366 -0.1634078
287 -0.084872186 -0.14219515 -0.20687886 0.36549485 -0.023530781 -0.06366216 -0.003506825 0.10184954 0.17621885 0.0025458245 -0.022906024 -0.2742975 -0.21940045 0.22076294 0.077313244 -0.34428793 0.08945947 -0.071663015 -0.07765157 -0.32599732 0.24690764 0.21814029 0.08660843 -0.026614282 -0.109391965 0.06322773 -0.07592039 -0.17197286 0.09240973 -0.16670252 -0.026750172 0.01678444 0.12991008 -0.08885341 -0.1350643 0.105615295 0.22676931 -0.1570794 0.0820093 -0.26421136 -0.06539862 0.08379514 -0.36788943 -0.17254472 0.1344441 0.088232875 -0.33209923 0.33784094 0.1845716 0.25219563 0.08462364 0.029342264 0.10209555 -0.070838585 -0.29918507 0.083387315 0.12701201 0.09374176 0.020687832 0.20751077 0.014034554 0.16672242 0.349215 0.15462813 0.10031636 0.00965605 0.03228517 0.20277971 0.099454895 -0.070916675 0.105103925 0.11687549 -0.07149004 -0.023702668 0.16703339 -0.19455074 -0.0020723727 -0.17932661 -0.14762346 0.04007181 0.053967837 0.09482854 -0.11065213 0.20396432 0.108925134 0.16916978 0.056887392 0.12305531 0.1075029 -0.1812124 0.14561348 -0.124265976 -0.013647119 -0.09305367 0.44240397 -0.1511487 0.07019242 -0.08463924 -0.3572652 -0.038803574 -0.2387593 0.022269486 0.07871568 0.23636259 -0.16389689 -0.08278948 -0.20438232 0.013500923 -0.05476289 -0.013178632 0.42037717 -0.008045256 -0.26788977 0.04898505 -0.2502135 0.14989376 -0.20589663 0.2243738 0.1712646 -0.25338 -0.058117386 -0.11944964 -0.11724535 0.103005275 -0.05174223 0.18544862 0.42662698 -0.050459553
130 0.05386933 -0.013351957 0.14377552 0.28595448 0.1487172 -0.1764243 -0.056502204 0.10690944 0.1796127 -0.15660615 0.10598238 0.08805293 -0.18514214 -0.20549166 0.06025397 0.10852072 -0.075439915 -0.20798796 0.073404 -0.038540192 0.11716739 0.062436767 0.15873773 -0.16273718 -0.10838894 -0.10532284 -0.11094398 -0.107261375 0.069859646 0.030933453 0.08614755 -0.010073367 0.12342378 0.010179023 -0.025953894 0.09053669 0.24200755 -0.23492508 0.020696476 -0.0005177478 -0.19456181 0.2392769 -0.15927532 -0.0801697 0.13533428 -0.09069933 -0.0899996 -0.25995857 0.06376719 0.07416949 0.06156787 -0.13237761 0.037376992 -0.022322705 0.21985145 0.002427026 -0.07760526 -0.0919548 0.022935152 0.20110264 -0.02007647 0.14637208 -0.017994406 -0.054311235 0.14897197 -0.046751216 0.052534107 -0.016052395 0.19408591 -0.102062955 0.0322134 0.097655185 -0.115727134 0.11014684 0.06555915 -0.33052665 -0.08643491 0.229416 -0.18989891 0.09559013 0.115030006 0.10150587 0.11551824 0.27452677 0.24630372 0.16454695 0.04415999 0.07012146 0.05226411 -0.17275922 -0.02783417 0.021972723 0.03307694 -0.16547365 0.08217843 -0.02906362 -0.14222965 0.06352093 -0.048580848 -0.041393615 -0.12885989 0.12670921 -0.12317228 0.07416143 0.15059087 -0.036091026 -0.06844338 0.04616615 0.13019292 -0.21536429 0.06637403 0.060760032 -0.13246652 0.089292064 -0.0015478733 -0.069106705 -0.055451956 -0.20885736 -0.04654679 -0.18715356 0.09487899 -0.26264736 -0.18457481 -0.0062324256 0.011844004 0.039611217 -0.010571635 -0.018917471
253 0.029903531 -0.06319113 0.031711295 0.2885457 0.0136342 -0.29572544 -0.017975613 0.14946464 -0.014738786 -0.16551745 0.058213472 0.15078272 0.0420775 -0.15739916 0.32819325 -0.06779713 -0.03944263 -0.17298856 -0.23001269 0.020214908 0.0022078378 0.3210268 -0.15802018 -0.08826841 -0.18697216 0.26062924 -0.2122923 -0.09644533 0.048620727 0.09129447 -0.2156638 -0.09182718 -0.10972667 -0.12820543 -0.2744143 0.17869467 0.049684465 -0.029724149 -0.09328203 -0.12435318 0.12577905 -0.13374923 0.030109076 0.009599941 -0.0067637227 0.22989053 -0.09189393 -0.16251604 -0.12114204 -0.01840561 0.12188545 -0.10581031 0.09187325 -0.06364011 0.13110735 -0.08895842 0.11265549 0.052063163 -0.020967575 -0.055308033 -0.041054703 0.004146564 0.011563597 0.030998174 0.1030882 0.092795305 0.14785519 0.015717681 0.017262084 -0.04834492 0.17090574 0.010677533 -0.22539313 -0.109944075 0.18899047 -0.01746709 -0.16192292 -0.027579004 -0.0421863 -0.02518901 -0.077914946 -0.022680555 0.03898633 0.005138092 -0.06924738 0.006473155 -0.111747526 0.0059680496 -0.087960765 0.17881298 0.023975683 -0.28938198 0.076702714 -0.060208786 0.11816625 -0.12823331 0.04715983 -0.001293404 -0.08433561 -0.22637819 -0.026906531 0.09795453 -0.0326121 -0.10602383 -0.033056457 0.13698658 -0.24537644 0.14993112 0.18563339 -0.20359711 0.2897867 0.0860072 0.0805257 0.12204176 -0.15758345 -0.13224699 -0.017340861 0.18060672 0.147848 -0.04545408 -0.01732694 -0.09289734 -0.030552922 0.10019931 0.031768236 0.038734913 -0.11500651 0.030247727
279 0.02894386 -0.20643441 -0.07658204 0.0132852765 -0.11420197 0.06332377 0.15186487 0.0287843 0.050826434 0.04343897 -0.039404 0.089320816 0.04578679 -0.2886986 -0.03683056 0.025955707 -0.17754671 0.07801168 0.19571806 0.10182959 0.12432316 -0.058800027 0.057746984 -0.03738915 -0.26257655 -0.11759171 -0.050372962 -0.14158513 -0.09734399 -0.008800821 -0.06449115 0.11531169 -0.108182155 0.036014996 0.0051253587 0.15437436 0.301554 -0.020498436 -0.081469186 0.03187382 -0.17264906 0.02393316 0.05319447 0.12732226 -0.2930633 0.08068174 -0.32260722 0.034559675 0.031376462 -0.014708559 0.16129184 0.06610199 -0.016777158 -0.06967693 -0.04223385 -0.04627196 0.09081122 -0.0766476 0.22301508 0.037960466 -0.12885153 -0.0006792445 0.028782176 0.13618061 0.2597278 0.059971444 -0.059593957 0.18595743 0.020177761 -0.13892941 0.0902167 -0.047833625 -0.20973791 0.057256024 0.14938225 0.28864095 -0.16204792 0.12189511 -0.35114592 0.1314441 0.07458512 -0.23819558 -0.20532005 0.29225135 -0.04216902 0.2610987 0.186443 -0.041966554 -0.13553712 0.13842803 0.14917685 -0.22286119 0.17269331 -0.25779077 -0.087449916 0.00910385 -0.24378507 0.026297757 -0.058005594 -0.062244233 -0.21921983 0.2680874 -0.014043097 0.05384148 0.11900427 -0.086874574 -0.11292048 0.20628475 0.0042055883 -0.08124546 -0.061850227 -0.15233463 0.21898325 -0.11799954 0.08418751 0.042794332 0.2506604 0.068315424 0.07959443 -0.21350197 -0.08849468 -0.17710577 0.022601359 -0.10122012 -0.12747872 0.13813859 -0.07197873 0.14305413
264 -0.0061601615 -0.09418112 0.1240514 0.095369875 0.018768577 0.029832823 -0.080041535 0.011703926 -0.061866436 -0.06026727 0.08348581 0.008317209 -0.025161715 -0.010580502 0.11937749 -0.058888923 -0.083616614 -0.21165033 -0.15638545 2.5684503e-05 0.13041003 -0.0051275576 0.05516112 -0.11605788 -0.0799935 0.084506035 -0.15062541 -0.13170075 0.00875326 -0.075323194 0.09146348 -0.034801383 -0.12523066 0.10475955 -0.0451167 0.37044504 0.14775956 0.07324387 -0.22372845 0.24848403 -0.13037215 0.042469844 -0.09397551 0.020036997 -0.060330965 0.11021262 -0.026188139 -0.097470134 -0.017865134 -0.104851834 0.11136804 -0.040298913 -0.054566465 -0.018799262 0.016191853 -0.10925675 0.07460393 0.094981 0.117304794 0.02022836 -0.028224899 0.0605518 -0.12039202 0.0889673 0.09022264 -0.0041549844 -0.0805653 0.14099742 0.14443533 -0.07557788 0.093894124 0.012406037 -0.29754606 -0.05991753 0.064114414 -0.039001238 -0.073682055 -0.017767737 -0.15889724 0.09139743 -0.09384808 -0.08568754 0.06193558 0.10530442 0.16083248 0.09715701 -0.0558171 0.0620601 -0.037351497 0.02205544 0.15336037 -0.06430988 0.017059224 0.002377469 0.13369995 0.03560334 -0.043676656 -0.066405736 0.047760297 -0.1898854 -0.004944211 0.0882609 0.05615123 0.05665691 -0.051032335 -0.13936763 -0.08694583 0.18628506 0.07602628 -0.17664982 0.12364259 -0.114653334 0.02334266 -0.18495373 -0.09403719 -0.0703443 0.054917313 -0.009426459 0.09185949 -0.07883151 -0.070231065 0.15978314 -0.033467136 0.09417284 -0.08863568 0.09266778 0.102806084 0.09778519
266 0.022416174 0.023875374 0.08512043 0.2088907 0.08651525 -0.06971579 0.0018740421 -0.020933114 -0.019617137 -0.23534542 0.09242314 0.016727235 -0.08844329 -0.098775394 0.23229179 -0.06861347 -0.050012715 -0.24574043 -0.054314494 0.043354426 -0.14670561 0.047239494 -0.09344339 -0.08873849 -0.2054529 -0.019375212 -0.13126378 -0.13894282 0.036522694 -0.06605427 -0.1796087 -0.088809915 -0.0032862197 0.004977012 0.039827805 0.23642111 0.10481106 -0.08834745 -0.01959575 -0.014486863 -0.03441285 -0.074478924 0.04342809 0.10101963 -0.052723404 0.086068176 -0.023723206 -0.050968014 -0.080231674 0.031033307 0.047577832 0.023411391 0.110564075 -0.00883977 -0.04506549 0.063052565 0.10055833 -0.056399144 0.038803857 0.026591867 -0.0012447942 0.027225766 0.02154776 0.19640318 0.13089664 -0.12302166 -0.08900307 0.109339274 -0.028193079 -0.08498384 0.019620737 -0.18070327 -0.304939 -0.09740624 0.16528684 -0.02075628 -0.04680191 0.055931557 -0.005841427 0.1250218 0.012639893 -0.1996822 0.10892448 0.14586459 0.05329301 0.11760761 0.059595656 0.016955117 -0.036136687 0.04776696 0.09053145 -0.26009244 0.106153846 -0.04491484 0.18233322 0.0073194318 0.025647307 -0.066654325 -0.010230732 -0.0001479896 -0.024429442 0.20589873 0.028534584 -0.24166621 0.0062808087 -0.13221656 -0.1599517 0.038971834 0.17706533 -0.28359964 0.0300172 0.02336165 0.07126236 -0.1397102 0.015868593 -0.03476115 0.12495221 -0.022816096 0.20342195 -0.11344723 -0.04927821 -0.03795958 -0.021274162 0.17115322 0.020654522 0.06778346 -0.004415261 0.08182423
122 0.03806096 -0.10145935 0.116904676 0.07753602 -0.040866 -0.24147992 0.12890168 -0.20581028 0.14621973 0.1362901 0.13847823 0.00798412 -0.12844501 -0.035917692 0.2490151 0.17837738 -0.0057015307 -0.034859795 0.008590624 0.006389627 -0.064481996 0.17856582 -0.01422448 0.08377933 -0.22613741 0.15238042 -0.15676442 -0.06248393 -0.04191939 -0.15151803 -0.2649341 -0.07229466 0.16973992 0.15797377 -0.28510386 0.022091221 0.095748775 -0.18667102 -0.0071709356 0.036734022 0.11973116 0.22218423 -0.07842403 -0.0902775 -0.080570504 0.12552173 -0.320621 -0.18452197 0.1321668 0.09456895 0.053905834 -0.269149 -0.02585183 -0.07495926 -0.23659657 -0.20699947 -0.021441929 0.18291673 -0.089815445 -0.0842725 -0.058971014 0.039299607 -0.23858844 0.10572019 0.11250643 0.12291868 -0.09388627 -0.074315414 0.14970292 -0.0789711 -0.01209115 -0.014604154 -0.012781432 -0.15384574 0.22333734 -0.061216224 -0.055598225 -0.08135027 -0.1650671 -0.19856992 -0.011653433 -0.15405871 0.2711554 -0.11545368 0.15108572 0.4479942 0.06079102 0.04576275 -0.28501797 0.1152913 -0.272371 -0.004576551 -0.019608364 0.059669644 0.094693474 0.15888083 0.028080536 -0.105735675 0.10676902 -0.3505678 0.12282637 0.0018523227 0.06020239 -0.029418308 0.09635151 -0.26064628 -0.097017474 0.2618074 0.05377467 -0.28726956 0.08289224 0.11165027 -0.24302958 -0.16462538 0.2677152 -0.15297492 0.047659636 -0.06377296 0.3250585 -0.29707658 -0.08380378 -0.26763105 -0.23163137 -0.04922617 -0.07032877 0.10671342 0.044355836 -0.16422927
109 -0.13672455 -0.020959798 -0.026551427 0.30992705 -0.053412892 0.011903553 -0.20535174 0.13329588 0.056895554 -0.2999712 0.06346649 0.14343832 -0.011819583 -0.07499545 0.17332374 -0.1475851 -0.14368515 0.10662455 0.18274662 -0.043059915 0.12909994 0.23653862 -0.08306551 -0.22842205 -0.16081548 -0.102011524 -0.119275 -0.07612473 0.07581344 0.007838578 0.044535715 -0.09139895 0.011299947 -0.014789164 -0.23051612 0.03600496 0.17409198 0.041462623 -0.19795203 0.17492934 -0.04303818 -0.17467096 0.05556301 0.027034577 0.0020863237 -0.016568953 0.022859612 -0.07000416 -0.06305932 0.08104965 -0.05313177 -0.04792379 0.043495953 0.013551456 -0.054266293 0.18499848 0.08417845 -0.017617343 0.021742 0.035748467 -0.051539835 0.030195897 0.16460432 0.3166122 0.08886652 -0.008698916 0.063743174 0.012555857 -0.04560518 -0.03387213 -0.020459257 0.100610696 -0.19042566 -0.13221954 0.21429779 -0.054504447 -0.02793067 0.20234568 -0.18843323 0.042681567 0.13255838 -0.12607934 0.05082046 0.33898467 0.03577541 0.1551751 -0.091401495 0.055205774 -0.096930094 -0.31112784 -0.01924622 0.02736611 0.034803696 0.012075881 0.31487468 -0.076444834 -0.18987012 -0.044415466 0.001974562 -0.12544866 -0.20071378 0.1311186 0.119827636 0.1979779 0.017505608 -0.101819366 0.22534007 0.033706795 -0.08024794 -0.31322825 0.117483445 0.18341875 -0.07736343 -0.10816663 0.14774065 0.039168324 0.18588808 -0.12887643 0.1188989 -0.0952632 -0.02358565 -0.177092 -0.06498787 -0.021328604 -0.15359448 0.04668632 0.120967604 -0.030884977
312 0.031109098 0.08245572 0.13431656 0.1295348 0.045374 -0.13116054 0.19399813 0.03119584 -0.03643649 0.1450313 0.12181047 0.068015985 -0.23230228 -0.1455401 0.07143316 0.10666212 0.06480473 -0.076833546 0.11192862 0.05273708 0.03024365 -0.009117356 0.056129474 -0.0779892 -0.1756237 0.18107653 -0.13711236 -0.048075218 0.05076425 -0.1016079 -0.18300322 -0.24482484 -0.048058745 0.090633176 -0.07489074 0.0657069 0.008581142 -0.033465 0.008169538 0.20696622 -0.19395816 0.027399253 0.094706744 -0.16306262 0.04226213 0.1885644 -0.0884065 0.11197312 -0.06486561 -0.035683148 0.1672408 0.036216963 -0.021970566 -0.09603804 -0.19666497 0.13450132 0.14863865 -0.007286798 -0.09362696 -0.12442697 -0.12758036 -0.07130618 -0.16789016 -0.18486112 -0.091792606 -0.016037932 0.050349463 0.12479611 0.038456358 -0.012910119 -0.032717172 0.02659358 -0.31940886 -0.037860528 0.06048367 -0.1482696 0.052575327 -0.12856163 -0.21035857 0.012440519 0.2549652 -0.028532878 0.014019911 0.2026526 0.10917487 0.1118613 0.02917469 0.00075397635 0.1002505 -0.091569014 -0.010818932 -0.10709208 0.1298691 0.031522434 0.09611077 0.057837855 0.077667005 -0.052355204 -0.061710604 -0.22065328 -0.13230489 0.026648356 -0.009882704 -0.04098763 0.13216825 -0.13434961 -0.058464248 0.008396698 0.035362553 -0.13205679 0.15609463 -0.0026697617 -0.062166046 -0.043542895 0.09415055 -0.09867879 0.028015865 0.009829057 -0.13285011 -0.15530917 -0.06846136 0.1698731 -0.2469624 0.08601489 -0.12645155 -0.019407034 -0.033209264 -0.17120856
244 0.18049057 -0.19690554 -0.08080215 0.100435056 -0.0028492752 -0.024067923 -0.15627995 0.029776827 0.0065108514 -0.055852164 0.1384761 0.18030062 -0.029393628 -0.20341128 0.20240588 0.0032043157 -0.35306868 -0.019132193 0.0203091 -0.102017514 -0.00070169277 0.22287183 0.019341378 -0.14518145 -0.3662087 0.13478853 -0.06783486 -0.18491745 0.18512022 -0.15844607 -0.05419434 0.097221434 0.037901264 0.037568364 -0.30121186 0.14083742 0.09468617 -0.080683164 0.052257147 0.047124043 0.033019725 -0.062010523 -0.029339265 -0.016036198 -0.054973878 -0.0041414276 -0.12253757 0.011405397 -0.039744332 -0.09881171 -0.00711545 0.17738073 -0.04870297 -0.1970826 -0.030388463 -0.15094583 0.10441678 0.03179362 0.10702188 -0.06867122 0.03202479 0.04456804 -0.004398278 0.12555827 -0.056283507 0.2868165 -0.08600397 -0.01674712 -0.001304167 -0.00807776 0.05505353 0.02202806 -0.06529553 -0.14801414 -0.019301338 -0.03627028 -0.28883067 -0.052816886 -0.05695397 0.08353296 0.20860656 -0.18276472 0.056517113 0.46334645 0.053679395 0.11842848 0.16972516 0.041621827 -0.13642475 -0.07369877 0.039468266 -0.04791211 -0.045844886 -0.021713356 0.3489371 0.10389146 0.024358127 0.083640024 0.0327429 -0.1793571 0.011293606 0.03818074 0.2653187 0.09489168 0.38506246 7.938939e-05 0.13857354 0.0422693 -0.11929117 -0.046583276 0.05253957 0.045412 0.046107594 0.023626678 0.085283086 0.12442119 0.13849394 -0.16753969 0.09804505 -0.0423185 0.05520576 -0.025649536 0.007840679 0.0031328732 -0.0076128626 -0.0041895835 0.08240457 0.013332777
58 -0.14143884 -0.16155551 -0.062400155 0.035658676 0.100341596 -0.23971307 0.10024341 0.015179881 -0.13243435 -0.071408324 0.151218 0.37745467 0.062013682 -0.13995868 0.23682548 -0.013654479 -0.03359491 -0.19379266 -0.32830673 0.1267442 0.010831739 0.45998845 0.067189716 -0.18502182 -0.32633197 0.14039154 -0.11285202 -0.19037883 0.08143321 -0.05538503 -0.34126726 0.11647805 -0.19590908 -0.072563685 -0.20029154 0.24517034 0.006507275 0.09878116 -0.24250847 0.017789226 -0.08568005 -0.072871365 0.012675022 0.12881635 0.0027596296 0.1591673 -0.004335061 -0.3514625 0.09989784 -0.08378763 0.103873275 -0.15776579 -0.037129957 -0.1420745 0.3034235 0.020827716 0.032680344 -0.08175245 0.091502704 -0.06521516 0.19190483 -0.06963239 -0.03640908 0.21191293 0.08954534 0.18831986 0.0099666715 0.10188112 0.096820295 -0.07885596 0.29237068 -0.032401033 -0.27955037 0.024771864 0.33472925 -0.063207455 -0.19391415 -0.079834275 -0.007786927 -0.12784347 -0.014128114 0.18235278 -0.075248204 -0.010461796 -0.13479403 0.094557144 -0.19126841 -0.11550088 -0.08222721 0.21249333 0.055435095 -0.10535171 0.046402168 0.018266072 0.35418192 0.0040568546 0.21005103 -0.090340994 -0.20237854 -0.029348077 -0.061230537 0.24547805 -0.01523138 -0.1208969 -0.04316622 0.17719135 -0.12570882 0.06361635 0.16523087 -0.1298393 0.2061886 -0.1665783 0.15306616 0.06478221 0.06900561 -0.017109357 -0.010698741 -0.0072154417 0.0042661536 -0.14202683 0.22982629 -0.02602624 0.043697484 0.04348386 -0.09931693 0.3009393 -0.078871675 0.18927816
151 0.06591963 0.23066638 0.102345936 0.14575921 -0.024930289 0.03869858 0.24216971 -0.15878998 0.015836235 0.2953681 0.021971885 0.058851838 -0.037514642 -0.09286581 -0.08555495 0.070979744 -0.049822185 -0.23797706 0.03191371 -0.12171039 0.01607507 0.027004408 0.020715024 -0.25034344 0.16073501 0.18029487 -0.048165195 -0.11983389 -0.09394908 0.019558353 0.008974167 -0.28520328 -0.021667061 0.093971245 0.09032228 -0.16161655 -0.04099755 -0.14110953 -0.064309336 0.12825863 -0.19502291 -0.049672503 -0.16402206 -0.026605539 0.07385747 0.102881156 -0.024889406 0.06938846 -0.23684418 0.13369793 0.2483466 -0.021987706 -0.041850068 -0.28531227 0.020593558 0.041229926 0.14284723 0.07081951 -0.10997083 -0.010896719 -0.100910954 0.007103053 -0.041761763 0.003229645 0.03932111 -0.067815654 0.19230548 0.22539164 -0.048807647 -0.04525903 0.03156713 0.019982785 -0.21577042 -0.1278799 -0.010214278 -0.16582929 -0.18949424 -0.29720768 -0.17086412 -0.015294963 -0.17307018 0.05251735 0.11921574 0.39376608 0.056367613 0.15544732 0.16953592 -0.0532718 -0.0018320245 -0.09101411 -0.1118613 -0.124726996 0.2435007 0.06595018 0.32959178 0.05126126 0.043243285 -0.16950466 -0.1267473 -0.10338454 0.092517294 0.00044344424 -0.08941842 -0.03636987 0.42463017 0.029774802 0.06974597 0.16592059 0.15920264 -0.018156618 0.17598256 0.007251768 -0.04758766 -0.037564456 0.18146154 -0.07305468 0.067357376 -0.0052127196 -0.051769298 -0.14899777 0.21663292 0.27567285 -0.1757215 0.070915684 -0.25682488 0.1148611 -0.19685481 0.1212705
108 -0.10653951 0.11734374 0.12028638 0.04318322 -0.06335694 -0.16076499 -0.122622006 -0.16560465 0.00022164076 0.0061808745 0.1279822 -0.009717577 0.018110754 -0.031953283 0.17746376 0.010769925 -0.036411285 -0.070852056 0.07157376 0.078284785 -0.05353399 -0.09512638 -0.025992883 0.04428121 -0.19131982 0.20474021 -0.16411313 0.16368158 -0.094199136 -0.1261587 -0.0915841 -0.18315488 -0.0055193533 0.11161379 -0.04451817 0.23006809 0.065235026 0.03164778 -0.1809558 0.01790552 -0.14912602 0.14028995 -0.0070770723 -0.033391442 0.03732986 0.18264389 0.07423844 0.029837785 0.14360258 0.09048834 0.064620964 0.063692115 0.071840525 -0.08301662 -0.011912339 0.060892597 0.019891942 -0.12758818 -0.17386903 0.13441141 -0.18063374 0.1639152 0.12477073 0.042675782 0.059076995 -0.12229133 0.19938675 -0.08200892 0.16721444 0.04598832 -0.038212202 0.1148299 -0.15517394 -0.12791926 0.06695061 0.03350523 -0.0011251909 -0.19940194 -0.22130308 -0.07712013 -0.039039113 0.05816694 0.12640677 0.20224553 -0.028978799 0.056320474 0.070197076 -0.029685806 0.15497293 -0.075867146 0.13490634 -0.19445287 0.19167025 -0.07188299 0.23646036 -0.011598638 0.16155025 -0.18470368 -0.0013016765 0.13925672 -0.0906077 0.020998867 0.037065014 0.076809645 0.16520768 0.077916846 -0.0471442 0.03985505 0.15866518 -0.29041377 -0.007994618 -0.19766966 0.12780201 0.016843516 -0.07401856 -0.053154103 -0.029450726 -0.18080948 0.09083303 -0.013055271 -0.015747994 0.005284729 -0.23679706 -0.0429189 -0.12646842 0.041618317 -0.11908075 -0.03877615
199 -0.039053775 0.053273845 0.0382523 -0.01666313 0.021169532 0.029698906 0.2588334 -0.100244775 -0.12599751 0.17439614 -0.065992884 0.0728041 -0.17261726 -0.13390051 0.047915317 0.021927293 0.030689236 -0.20862906 -0.15450794 -0.0006089505 -0.02667755 0.064211264 -0.0026385845 -0.14329715 0.10041509 0.042020798 -0.0757617 -0.038196027 0.0628914 -0.05319602 -0.13367052 -0.23501343 -0.043615013 0.069723114 0.0119065 -0.036878772 0.22432205 -0.054016735 -0.1567377 0.15189299 -0.3790638 0.05241824 -0.07427832 0.015663352 -0.024520425 0.1657983 -0.26974514 0.062076893 -0.08566584 -0.025745066 0.08594235 -0.06654537 -0.028724434 -0.21466331 0.08684023 0.118663274 0.24585333 0.15631019 -0.12044331 -0.057275493 -0.07501169 -0.002385826 -0.07786252 -0.122175515 -0.009560455 -0.16751887 0.18825781 0.17152719 0.0060221697 -0.031526018 0.10034196 -0.083515584 -0.036518827 -0.16984251 0.011456454 -0.03314571 -0.12656814 -0.18444796 -0.14374416 0.046486087 -0.055403084 0.0773274 0.10752328 0.35513234 0.035300095 0.20031151 0.19162558 -0.037896197 -0.06818663 -0.03976492 -0.0738522 -0.04603057 0.20735228 0.025854632 0.31023166 -0.011270261 0.094658054 -0.17569658 -0.12014505 -0.15039824 0.12659924 0.10408926 -0.16099066 -0.0055111726 0.19113703 -0.0130314035 0.066938564 0.100121796 0.10378271 -0.072177805 0.12603426 -0.010546637 -0.067451246 -0.11010222 0.025080564 0.10765988 0.22546223 0.04235714 -0.13573824 -0.061314307 0.19380873 0.13690238 -0.19647445 0.21976316 -0.19030063 0.009511434 -0.122019775 -0.07896112
223 0.0021256492 -0.17907351 -0.120842636 0.10751861 0.03684373 0.0070316913 -0.02038537 -0.014233491 0.077167995 -0.028598377 -0.11791439 0.06873042 -0.07738934 -0.12030955 0.17242101 0.057856314 -0.14112338 -0.059630506 -0.10288953 0.058753394 -0.04856931 -0.009663199 0.0019533404 -0.12739627 -0.23966718 -0.043458235 -0.07075399 -0.15170367 -0.06795523 -0.0034425885 0.07282023 0.11672435 -0.073408194 -0.016071402 -0.047150265 0.30600256 0.21355055 -0.10234665 0.00029673474 0.1786427 -0.10939323 0.04482059 0.14710592 -0.010638867 0.03634537 0.19668204 0.032969914 -0.074275084 0.08219105 0.08649632 0.090669826 0.026604876 0.06315625 -0.08866448 0.008859965 -0.13336064 -0.05309375 0.08173919 0.16387206 0.05712966 -0.24737175 0.10757868 0.056878492 0.17144775 0.14923769 0.13713917 0.07577211 0.24370638 -0.1862808 -0.08107793 0.13737322 -0.09979587 -0.23642763 -0.043705672 0.21280299 -0.029387623 -0.10027399 0.06621095 -0.0009872303 0.105781294 0.102354825 -0.08923256 -0.03669535 0.39772862 0.087279916 0.0068604546 0.019211272 0.0062039196 0.088417634 0.076837145 0.1252937 -0.32409266 0.18156701 0.06560852 0.06874901 0.16586395 -0.119298264 0.033180866 -0.009214172 -0.07501175 -0.0104765715 0.17231032 -0.0589945 -0.021728883 -0.11109881 -0.101364635 -0.2410416 0.06164698 0.07127539 -0.08081104 -0.046583384 0.051440496 0.18510701 -0.094130926 0.06188965 -0.041863278 0.12535493 0.035668314 0.20728955 -0.3150731 0.065535195 -0.017261459 -0.12151923 -0.09882777 0.0039153993 -0.032513507 0.017058358 0.016201487
64 0.2001589 -0.005592218 0.15249479 0.109006554 -0.071533635 -0.03476687 -0.014725639 -0.13071103 0.21755573 -0.053432804 0.20926405 -0.10390252 0.15571637 -0.11306641 0.20594896 -0.11721141 0.08179311 -0.09929761 -0.048221707 0.07597859 0.053101797 0.30199444 -0.0018444005 -0.07026497 -0.21619608 -0.088226184 -0.06113546 0.09047451 0.051043686 0.19941355 -0.18599443 0.10607518 -0.016287053 0.038559537 0.11597201 0.02404261 0.14514926 -0.061166927 0.026209628 0.07463388 0.019251214 -0.08408727 0.11473992 0.12212236 -0.100600965 0.08067213 -0.1344012 -0.04800638 -0.17297116 0.037946306 -0.035304084 0.02822028 0.05404746 -0.01410784 0.15599915 0.13822424 0.16756673 0.09024027 0.083224006 -0.1970936 -0.044193648 -0.06919375 0.15541655 -0.1376907 -0.055364523 -0.07071031 -0.011870916 0.13522121 0.20845078 -0.018666163 0.14491144 -0.037867364 -0.14236146 -0.10111365 -0.089151375 0.0008087868 0.04769521 0.16197352 -0.23001549 -0.03723365 0.010805431 -0.13129683 -0.024051964 0.33556277 0.0079491325 0.18891628 -0.1521008 0.05395553 0.025553845 -0.07770623 0.06358326 -0.24417701 0.057850845 -0.11359098 0.2663627 -0.057195343 -0.19274881 0.031837042 0.29567647 -0.08700377 -0.15251654 -0.07380985 -0.13773602 -0.14982843 0.0905242 -0.12959164 -0.021584602 0.17117174 0.0801548 -0.05731112 0.20551111 -0.07342941 0.13189627 0.07816964 -0.07686008 -0.10332084 0.032981124 -0.11812151 0.17379369 -0.14306605 -0.19893134 -0.18665586 -0.298817 0.031832326 -0.12746558 0.14681016 -0.049767632 0.02909672
144 0.13350582 -0.15439102 0.07643758 0.04954286 -0.16782185 -0.07130702 -0.037106518 0.01368812 0.06560152 -0.22987108 0.08266833 0.015064972 -0.08859427 -0.0576441 0.103865355 0.12452513 -0.19425899 -0.28210175 -0.024573345 0.19916394 0.080116436 0.08931953 0.08511139 -0.1855348 -0.23591977 0.04015037 -0.099895425 -0.13962938 -0.05473106 -0.003065751 0.12848833 0.2324943 -0.05150581 -0.1823173 0.093292326 0.1296681 0.19607237 -0.2699677 -0.023319272 -0.0055042473 -0.04163778 0.10206412 0.13019736 0.034499727 -0.10852037 0.058168747 -0.026163056 -0.058551688 0.021086525 0.05044855 0.04001326 0.06884953 0.03471872 -0.066439666 0.14276454 0.16144729 -0.07171368 -0.014551915 -0.07073109 0.033166736 -0.068953685 0.052472547 0.006142713 -0.0021658742 0.15433756 -0.050502993 0.2206808 0.07604013 -0.03690514 -0.06571238 0.09593055 0.04724764 -0.16066742 0.14384738 0.1320817 -0.15988193 -0.08131365 -0.026019037 -0.18031557 0.16166496 -0.00567149 -0.1219772 -0.028227804 0.4050234 0.12624463 0.29897904 0.015134309 -0.15736593 -0.0201923 -0.04802699 0.09527034 -0.03628532 0.055265296 0.055274274 0.10091452 0.024769237 -0.22005166 -0.00058899866 -0.014219613 -0.12678893 -0.17985615 0.06185017 0.116417795 0.035322152 0.0406987 -0.23452681 -0.000568299 -0.04607898 0.047189984 -0.20712644 -0.052148953 0.071505316 -0.10095011 -0.03267644 -0.12316031 -0.16559528 0.15026706 -0.12608096 -0.087454624 -0.07166313 0.017205738 -0.16238138 -0.14196369 -0.0896488 0.010094441 0.15264654 -0.021234674 0.13742918
214 0.006482818 0.10396361 0.0972446 0.09653377 -0.19816105 -0.015610916 0.18467297 -0.02856542 -0.14298967 0.19011225 0.13568786 -0.04007547 -0.14958055 -0.14633037 0.007848222 0.025270147 -0.065013506 -0.16789643 -0.012255388 0.11377135 -0.15231599 0.006551756 0.034489427 -0.14287364 -0.09600519 0.17732777 -0.08597983 0.0014565865 -0.03670183 0.004399119 -0.121869646 -0.18043703 0.12805785 0.072277546 -0.06579459 -0.112052284 0.16670796 -0.042689234 -0.16207443 0.056205392 -0.20084308 0.047969818 -0.22010982 0.05867033 0.03859231 0.051028766 0.18172252 0.10170243 -0.04381714 -0.01538106 0.097192116 0.09718177 -0.020655163 -0.29009634 -0.07144003 -0.10556227 0.18143298 0.008845548 -0.14429648 0.08632669 -0.2404902 0.05066392 0.04008436 -0.012010282 -0.037446186 -0.1402192 0.07046586 0.21497096 0.055042606 -0.20132099 0.017116256 0.152544 -0.20038961 -0.21864708 -0.007825939 0.06662356 -0.0053341202 -0.1289455 -0.23779295 -0.09643154 -0.12084424 -0.05889295 -0.0656232 0.2186164 -0.05352331 0.13297445 0.02622643 -0.086773664 0.06536623 -0.049687985 0.19403335 -0.15410098 0.26676568 -0.01457359 0.25563946 0.010531291 -0.0059211957 -0.07318132 0.10922755 -0.1553404 0.052363068 -0.038063724 -0.019709071 0.05795306 0.22931047 0.07074618 -0.032036033 0.058832962 0.19464783 -0.1867883 -0.0007172771 -0.14394338 0.110827416 0.090332754 -0.016314136 -0.15906966 0.03963674 -0.00021701428 -0.071446374 -0.008451439 0.108715124 0.033382617 -0.23864557 0.055387363 -0.21108 0.09222954 -0.14838476 -0.18409109
80 -0.051480204 0.057389077 0.13164295 0.1628906 0.047105156 -0.030507436 0.031016108 -0.043197032 0.06353479 0.10204714 0.036863334 -0.026724564 -0.32707834 0.066026956 0.0062341066 -0.012227059 -0.020922914 -0.22795586 0.015574976 -0.1813744 0.061378494 0.10497962 -0.016593147 -0.17784004 -0.013866313 0.22662227 -0.10683531 -0.047725644 -0.071552195 -0.064667374 -0.12084452 -0.19513723 0.03492792 0.35783017 -0.043615032 -0.09402137 0.15126304 -0.18221231 -0.00025601668 0.15545061 -0.11881365 -0.07995085 0.053508487 0.046536915 0.09151403 0.18752977 -0.029421527 0.08119592 -0.031690333 -0.2546168 0.022804352 -0.0024155255 -0.0063600154 -0.14148538 -0.19652514 0.12945858 0.3148287 -0.105568774 0.057698727 -0.06322503 -0.22720677 -0.15470535 -0.20669895 -0.16767783 -0.14549913 -0.06924732 0.112860635 0.2763394 0.10824715 -0.059674166 0.010134237 0.011298292 -0.28911972 -0.10998035 0.05620452 0.036968485 -0.029714093 -0.23723118 -0.12474548 -0.07033062 0.143146 0.06166444 -0.0692524 0.037252553 0.12174366 0.17415777 0.09814418 -0.031707413 0.01370375 -0.17564501 0.102942355 -0.06402347 0.25878903 0.0055793794 0.3095665 0.03774165 0.058976233 -0.14354452 0.10288761 -0.17925009 0.10639577 0.12035584 -0.05009798 0.0037800707 0.0850414 -0.023901481 0.042551506 0.036630996 0.052511714 -0.30539107 0.0043318984 -0.14213483 0.0035456114 -0.053469446 0.15728714 -0.1323048 -0.0031919132 -0.065197706 -0.024814248 -0.069070525 0.05480457 0.10690613 -0.2655439 -0.015746238 -0.056964524 0.09751681 -0.017875291 -0.16248278
106 -0.04440804 -0.18793824 0.03178791 0.2554256 0.07249874 -0.17276451 -0.024551734 -0.070285775 -0.19393586 -0.014913413 0.009962933 -0.07963543 0.14801288 0.056542367 -0.08182346 0.06866476 -0.18166527 0.008878965 0.10224262 0.09341595 -0.1145431 0.032133106 0.07675264 -0.15897891 -0.07510149 -0.1719891 0.083981685 0.10078104 -0.089164644 -0.25786048 -0.16951361 -0.06795112 0.17576224 0.22896455 -0.1373922 0.015640177 0.0040302733 0.007213178 -0.05923719 0.029072098 -0.050292257 0.17568523 0.15412132 -0.17254914 0.14636104 -0.017844206 -0.27386448 -0.13549243 -0.05407505 0.009986734 -0.0169605 0.06398439 -0.022283636 -0.01640645 0.18107891 -0.013361723 0.011609286 -0.13075791 -0.007569361 0.011203632 0.22524211 0.044802077 0.04615665 -0.10974331 -0.06663043 0.25865003 0.08615595 0.11227175 0.202012 -0.1881936 0.02362448 -0.042689577 -0.2138023 -0.24458207 0.123306125 -0.17343836 -0.04212742 0.026702108 -0.108807825 0.24200697 -0.10441966 0.023023287 0.10470763 0.19603969 0.08162354 -0.07175168 0.3919217 0.056006994 0.21115504 -0.07223919 -0.028267687 -0.2152345 -0.018688668 -0.046418585 0.1308279 -0.16939835 -0.10321228 -0.03093511 0.08160631 -0.006212972 -0.10496078 0.1233583 -0.013205205 0.104235835 -0.15127055 0.008920911 -0.21733147 0.024257224 -0.004944835 -0.15917611 0.15461184 -0.094170965 0.023248054 0.006134227 -0.17170492 0.018014517 0.005728229 -0.011728639 0.06550314 -0.21990398 -0.23475644 -0.13502406 -0.2773437 -0.053514246 -0.22277929 0.059277114 0.05115379 0.1275874
2 -0.19887233 -0.23257847 -0.17444472 0.267827 -0.0052783242 -0.04432595 -0.04122267 0.017108247 0.16781488 -0.05314731 0.12046499 -0.15943338 -0.27761373 0.34342 0.012809181 -0.345338 0.023579499 0.010772923 -0.13459787 -0.22438446 0.23883589 0.21581486 0.1277728 0.1352883 -0.389397 -0.079685204 0.030986046 -0.27410457 0.08225617 0.021161726 0.08114005 -0.1553689 0.3434543 0.09038072 -0.074278414 0.11770379 0.27839375 -0.20077789 0.1773115 -0.043556914 -0.14131173 0.040221635 -0.51060337 0.1405362 0.21932434 0.0037243727 -0.30689615 0.28799978 0.12984034 0.19414288 -0.06160349 -0.11397481 0.20459083 -0.15385188 -0.2351403 0.07674423 0.08307898 0.042824365 -0.039387476 0.26003897 -0.029107556 0.14845036 0.30265298 0.25633103 0.001855566 -0.078450665 0.14418158 0.43071052 0.18403342 -0.098344736 -0.007900067 0.0052987714 -0.13685106 0.04432708 0.23927864 -0.14720142 0.08211206 -0.106077306 0.06518696 0.030451024 0.13492814 0.089581475 -0.11982058 0.1032545 0.0839369 0.24133109 0.26489076 0.07968404 0.16604167 -0.0782582 0.009769642 -0.3003631 -0.116906874 -0.0119767245 0.31744546 -0.03463662 0.2971598 -0.04795502 -0.32347038 -0.13073613 -0.32762468 -0.13199295 0.12576698 0.19754934 -0.0661242 -0.11562647 -0.27429608 0.050897274 0.06902881 -0.07529086 0.6407291 -0.08152774 -0.17757352 0.031137232 -0.23578365 0.32811517 -0.03285796 0.19778983 -0.015850445 -0.20769873 -0.12211609 -0.037929162 -0.1027379 0.044039223 -0.033254445 0.21078159 0.29671767 -0.065190844
20 -0.0932655 0.054733686 -0.021113114 -0.03361 0.11166688 -0.1833272 -0.039713267 -0.13944131 0.16705108 -0.1510846 0.16067922 0.22024764 -0.157891 -0.0016883881 -0.050144564 -0.19404727 -0.1340757 -0.22850388 0.13808088 -0.08794884 -0.0693442 0.0041047554 0.20815393 0.038685977 -0.04509412 0.0907035 -0.08889808 -0.21956818 -0.089743786 -0.21050005 -0.15996405 -0.24911223 0.15383238 0.033258997 -0.15884608 0.050449118 0.042349983 -0.24952899 -0.32869968 0.059627857 -0.10690401 0.04433412 0.08860671 -0.077225186 -0.16830526 -0.061636794 -0.13134259 -0.05682877 0.13380273 -0.015624779 0.05374098 0.006731136 -0.007021139 -0.18721941 -0.17071271 -0.14754239 -0.1179131 0.03464103 0.03491922 0.12894233 0.08409595 -0.053812753 -0.009286759 -0.0846373 0.04333981 0.043440685 -0.051391337 0.26696685 0.32362115 -0.0016185251 0.10927741 -0.06695465 -0.12287406 -0.17440598 0.17549789 -0.1025584 0.14932005 -0.06611602 -0.26635975 0.0742485 -0.002914901 -0.03859069 0.095163144 0.17332363 0.06249452 0.1282197 -0.023167424 -0.026733506 -0.07846041 -0.19342558 -0.003414166 0.050704096 0.22817947 0.029021347 0.17261058 -0.1444623 0.009685479 -0.15721802 0.15361345 -0.5097515 0.11331246 -0.037440762 -0.09344018 0.07810866 -0.036049362 -0.016162166 -0.11143085 0.20300527 0.05494109 -0.25746536 0.24534078 0.18574753 0.20003958 0.004330477 0.16066614 -0.3183377 0.11248445 0.16404285 0.1293918 -0.16091235 0.012200126 -0.15837729 -0.30893007 -0.22019704 0.044517074 0.119560845 0.09668993 -0.083471045
255 -0.08928956 0.0347462 -0.059096422 0.019996649 0.07681146 -0.07440778 -0.15871605 -0.14396596 0.19030103 -0.16207287 0.1323913 0.14200321 -0.26532587 0.011952985 -0.099891275 0.07861019 -0.028595164 -0.35783118 0.08034442 -0.112638906 0.015894216 0.101217955 0.1801494 -0.015789542 -0.048945438 0.1351861 -0.05979968 -0.21402848 0.028014777 -0.18926238 -0.16567604 -0.23938507 0.3053941 0.048185445 -0.057733 0.15232371 0.09250161 -0.20765801 -0.3526458 0.22272445 -0.025824232 0.030503081 0.21624607 0.0020403198 -0.12716478 -0.020710986 -0.3618259 0.017345296 0.17670271 -0.02817946 0.14215179 0.0022322948 0.1974276 -0.14195655 -0.19117601 -0.24845687 -0.2167744 -0.029929876 -0.01644612 0.16362818 0.17550272 0.12217627 -0.11282958 0.0073429905 0.028424354 0.17670937 -0.12621222 0.16783474 0.38072342 0.13063212 0.23338297 -0.010520442 -0.09096627 -0.14283814 0.1786892 -0.051784728 0.21156408 -0.16259126 -0.09331876 -0.0201509 0.13876836 -0.11391438 0.16502449 0.26854426 0.079423614 0.040855575 -0.026300283 0.08036043 -0.17514333 -0.067277886 -0.041457906 -0.10770753 0.3133295 -0.10005747 0.19321091 -0.13196404 0.08018271 -0.17631833 0.13326503 -0.307879 0.022259936 0.07316794 -0.103728674 0.09949128 -0.0740745 -0.076672114 -0.07422864 0.19289534 -0.046155035 -0.16875872 0.22492847 0.09512695 0.25738743 -0.033865064 0.15178126 -0.28805795 0.1573866 0.11515308 -0.0073307664 -0.16077639 0.03896114 -0.16394715 -0.3087992 -0.17504847 -0.030784078 0.09199484 -0.08440063 -0.17804909
7 -0.14830083 -0.06730616 -0.023670137 0.08532663 0.23756833 -0.21667689 0.00611906 0.057733256 -0.06255686 -0.04736698 0.15016712 0.17842102 0.00635984 -0.14464661 0.34175774 -0.008514606 0.112830564 -0.395567 -0.20433573 0.09211205 -0.04572349 0.42851663 0.07298827 -0.20543703 -0.2760091 0.22814052 -0.31349427 -0.20554526 0.058738705 -0.10911791 -0.3002807 0.09701893 -0.19616799 -0.24837284 -0.31904134 0.24429762 -0.07891323 0.02718395 -0.1885826 0.016261088 -0.10875891 0.14434256 0.030784812 0.26739034 -8.719717e-05 0.22838469 -0.137187 -0.18974522 0.028094605 -0.034875188 0.2444189 -0.095472395 -0.1250538 0.07863692 0.33263335 0.07891601 -0.00963811 -0.043563865 0.10913181 -0.112717934 0.16512544 0.11792134 -0.15052035 0.10327156 0.07261648 0.15303448 -0.01609867 0.15302195 0.10964091 -0.055962604 0.22517413 -0.18013161 -0.17814581 -0.098328106 0.19792345 0.069154896 -0.12937152 -0.040586133 0.12920362 -0.10277948 0.053620078 0.20023894 -0.11352379 0.10098632 -0.052502126 -0.081457786 -0.088443965 -0.072659194 -0.14206052 0.13077164 0.12545995 -0.02954314 -0.059206694 0.008386607 0.09135724 0.050790444 -0.05122412 -0.10062608 -0.07652172 -0.06693079 -0.11659006 0.30282503 0.072288156 -0.05371441 -0.107204214 0.21434778 -0.03804477 0.02706789 0.11906899 -0.18022612 0.20577486 -0.05198296 0.07744774 -0.09789802 0.07446066 -0.008441378 0.01752452 0.09066177 0.016250236 -0.26343152 0.11709139 -0.07899261 -0.08359695 0.23159249 -0.23243651 0.19371402 -0.13058318 0.11146457
230 -0.12504281 -0.13181254 0.10857725 0.116264865 0.014735455 0.01842641 -0.1705584 0.08438532 0.030593144 -0.15142778 -0.07506492 0.090693876 -0.0028739632 -0.12034258 -0.015949994 0.02521476 -0.10569843 -0.08461449 0.043621443 0.10806646 0.20864114 0.20627762 0.090388924 -0.21608588 -0.16314404 0.021142758 -0.042004246 -0.13228193 0.18288514 -0.027764918 0.0926962 0.02109892 -0.17409559 0.08154231 0.08860757 0.0741029 0.26972067 0.04383779 -0.039095722 0.14150962 -0.12014907 0.12821802 0.077850826 0.07364437 -0.11697068 0.13680884 -0.088804096 -0.054516293 0.008348333 0.12862681 0.010422862 0.119304344 -0.16214968 -0.069424614 -0.088475086 -0.20552556 -0.21232586 0.05696151 0.25190094 0.03484531 -0.01928942 0.026344508 -0.12955493 0.22099659 0.23485613 0.100221805 0.037968166 0.22841145 -0.07490387 -0.09401784 0.21744086 0.0076145553 -0.18343274 -0.07335449 0.2382845 0.09267151 -0.0966374 -0.10061189 -0.029901387 0.07545272 0.057101153 -0.2373731 -0.0029318267 0.35300004 0.21490747 0.12823416 0.07387469 0.0028012057 -0.1256174 0.029112458 0.11904646 -0.13367826 0.22792335 -0.14796627 -0.026249476 0.11431527 -0.41112354 0.07365194 -0.07461579 -0.1969531 -0.07843543 0.013256487 0.02612718 -0.1399593 -0.08377209 -0.21563607 -0.22956644 0.15056038 0.07021205 -0.016297784 -0.12178711 -0.33622485 0.23565495 -0.101593964 0.1889677 0.11769116 0.049126368 0.086616136 0.07260503 -0.14364766 0.17049512 0.045741055 -0.05087529 -0.13432471 -0.16888979 0.27978095 0.1479911 0.16463259
239 0.13658585 0.0492532 0.04973173 0.11753472 -0.09770305 -0.2906866 0.08860092 -0.20878711 0.13748117 0.05253675 0.00043339387 0.020610726 -0.15470679 -0.008150174 0.18830675 0.24791892 0.03676187 -0.0707035 -0.06761258 -0.05804903 -0.117908806 -0.008211534 0.00846113 -0.11123771 -0.1673519 0.08284756 -0.05873155 0.030271363 -0.13662986 -0.1686689 -0.26386198 -0.1713713 0.15330768 0.02012194 -0.012532876 0.22657636 0.15701234 -0.110344075 0.095933914 -0.14217815 0.22433305 0.20412791 -0.12901163 -0.03182204 -0.077195495 0.24802059 0.036605094 0.00016053012 0.017988287 0.09583588 0.20155914 -0.43238604 -0.10028229 0.010753318 -0.012379699 -0.05938014 -0.25144845 -0.0071870727 -0.21011588 0.21176717 -0.20677973 0.16112918 0.015323634 0.04072728 0.006780026 0.24274714 -0.12152003 0.07111351 0.24901935 0.09719597 -0.04836627 0.013699934 0.0014220824 -0.08100969 0.2430989 -0.074490584 0.075545944 -0.22978194 -0.2585489 -0.120332584 0.05329898 -0.19006403 0.24569851 0.04038542 0.27224377 0.3327917 -0.05024395 0.057297632 -0.26926944 -0.12621255 -0.27472103 -0.07622647 0.16815983 -0.049804177 0.082459554 0.1299986 0.065292165 -0.008582374 0.2892042 -0.43569076 0.11555872 0.19576316 0.28083563 0.09013297 0.072516635 -0.33793584 -0.05855772 0.12412462 -0.06360022 -0.3000949 0.35682648 -0.055502925 0.009163379 -0.31955838 0.3321319 -0.11667122 -0.014143599 0.057846673 0.10931491 -0.16782439 -0.16962439 -0.3140063 -0.08511512 -0.11670551 -0.155199 0.2000044 -0.046527762 -0.05391448
70 0.0035695364 -0.050796196 -0.09153508 0.121558085 0.14501527 -0.1524302 -0.08644851 -0.08571085 0.13819644 -0.16581203 0.17651214 -0.1594452 -0.002198993 -0.11130292 0.1681125 0.1153679 0.1492181 -0.05687783 0.11274012 -0.2663457 -0.11523818 -0.15653203 0.2086956 -0.04605075 -0.08966148 0.06120661 0.040202618 -0.110733725 -0.017275304 -0.11874082 -0.19509207 -0.040073108 -0.043630853 0.054819617 -0.18426743 -0.007792885 0.35647267 0.011037497 0.022817234 -0.04267171 -0.045713484 0.037761953 0.015230146 -0.089665204 0.15017267 0.19119543 -0.1756202 -0.16464728 -0.07794986 0.10920579 0.1494906 -0.10657384 0.0024026688 -0.12047529 0.027239623 -0.023825726 0.13466172 -0.048046753 -0.05011254 -0.29745057 -0.042100336 -0.06432516 0.0826629 -0.10895749 -0.014407743 -0.030546091 0.10730909 0.151055 0.018811107 -0.092613935 0.17986579 -0.072941124 -0.33127582 -0.13310742 0.20753792 0.11708596 0.026120473 -0.10277338 0.0060912063 0.13272451 0.018531274 -0.08033437 0.19566716 0.2985044 -0.0075388793 0.07391887 0.13031666 0.12877017 0.03313519 0.07801582 0.0802748 -0.032339565 -0.11744465 -0.002663926 0.10338167 0.060190964 -0.099013895 -0.11906276 -0.036396213 -0.28917697 -0.0509952 0.041941527 0.005518403 -0.019414777 0.116462655 -0.040278476 -0.06991173 -0.051059797 0.06732896 -0.21214777 0.20036076 0.054131746 0.04234513 -0.15184657 -0.016453179 -0.004266219 -0.08266146 -0.14375317 0.1349004 0.16651523 -0.18128872 -0.028520094 -0.17048971 -0.039157003 -0.011613093 -0.014878533 -0.022761276 -0.13221836
163 0.05485029 -0.21085972 -0.06254806 0.17821412 0.026928948 -0.34037492 -0.09013596 -0.14711061 0.12669651 0.22352815 0.28677246 0.041547015 0.0887169 -0.14629121 0.20074771 0.06658286 0.16232638 0.026571251 0.09342511 -0.04500028 -0.025466966 -0.02052438 0.0013575368 0.023921814 -0.28053817 0.09592694 -0.24411336 -0.05965785 -0.1080435 -0.022507485 -0.24794236 0.030743321 0.08328639 0.057430904 -0.0966389 -0.065071024 0.13797761 -0.11493443 0.07004856 0.029743366 0.21410587 0.03481006 -0.122382656 -0.010844004 -0.062332354 0.14088437 -0.21746598 0.0780483 0.19197465 0.060542025 0.07294205 -0.118867345 -0.15206309 -0.11260253 -0.22975856 0.015205798 -0.17559461 0.20098865 -0.15768212 0.04839463 -0.14486064 -0.014557704 -0.269972 0.02466634 0.055950608 -0.02635888 -0.108233206 -0.052721113 0.1891081 -0.06354522 -0.034293912 -0.18535608 -0.010030417 -0.17001331 0.30795643 -0.08843971 -0.10213881 -0.09276947 -0.3062999 -0.18880615 -0.1648709 -0.29356062 0.28815565 -0.16352537 0.21979772 0.33606586 0.11530253 0.030022766 -0.35766637 -0.26969677 -0.21294427 -0.06916037 0.07630889 -0.21057872 0.24851966 0.20965898 0.15136053 -0.23092173 0.08821461 -0.31798652 0.108308755 0.16900417 -0.09620465 0.031297546 -0.032552082 -0.1100308 -0.030093452 -0.055665947 -0.0025636097 -0.4675025 -0.059266154 0.12823287 -0.106362626 -0.094394684 0.060090292 -0.15775415 0.11792124 -0.118904635 0.054136768 -0.21886016 -0.18339023 -0.0763335 -0.30922672 -0.10933653 -0.1549181 0.2906221 0.1732533 0.060362365
91 -0.06285104 0.101212025 0.115690745 0.27198154 0.15321892 -0.25651774 -0.086069435 -0.0835763 -0.18634316 0.0822617 0.13236701 -0.053049862 -0.010567136 0.06856598 0.10627828 0.14726117 -0.17302707 0.0393789 -0.023529353 0.13509528 0.0057425187 0.090462446 0.18503931 -0.2017268 -0.1919796 -0.19593064 -0.17091507 0.03649199 -0.13717969 -0.2845142 -0.11335829 -0.07398895 0.10027296 0.3495288 -0.1331045 0.08151536 -0.069411956 -0.12732504 -0.15352073 0.08814915 0.01767783 0.0698272 0.18169488 -0.09402585 0.14267613 -0.01187485 -0.2312843 -0.13493773 -0.012298855 0.068028666 -0.018519036 -0.049170777 -0.0046179257 -0.05931407 0.05519387 0.16305678 -0.12600946 -0.057899583 0.12162177 -0.0135231465 -0.033195842 0.033606566 0.041154712 -0.026129046 0.15213397 -0.010085022 0.045471035 0.19426243 0.30356714 -0.07867377 -0.0059165573 0.07206748 -0.09340455 -0.23716848 0.122688346 -0.08586307 -0.057058137 -0.059498303 -0.049061343 0.21428306 -0.15299416 -0.0409074 0.13304539 0.10157281 0.1113257 -0.08787811 0.36332443 0.068022765 0.12954009 0.06599366 0.026249398 -0.026813261 0.07422149 -0.05798432 0.14305702 -0.15421997 -0.025442671 -0.013618574 -0.11715339 -0.06550062 0.164601 0.07321796 -0.0069822203 0.10432335 -0.07145153 -0.12983723 -0.17259532 -0.009911712 -0.010988241 -0.1020587 0.15608595 -0.047017865 -0.035114314 0.084183484 -0.06500417 -0.081860684 0.102072835 0.11537831 -0.06219092 -0.14263667 -0.18369374 0.077115335 -0.21753572 -0.017156616 -0.18805437 0.13807474 0.08057629 -0.09000849
321 -0.065363996 -0.084356345 0.071445465 0.40174505 0.09284994 -0.25922787 -0.029741617 -0.13263588 -0.24797903 0.11031227 0.13721159 -0.18287224 -0.12813184 0.21143453 0.08859848 0.24747188 -0.31864572 0.005662807 0.05317016 0.16885579 -0.05619841 -0.06972876 -0.014999015 -0.30157346 0.05639682 -0.11118417 -0.2599576 -0.011574118 0.009020054 -0.1854921 0.115369394 0.058811095 0.19969483 0.19634473 -0.1771459 0.06219056 -0.16904376 -0.039029025 -0.23154473 0.18878652 -0.10541425 0.10131501 0.022752084 -0.26522607 0.1505994 0.175938 -0.24538936 0.09474889 0.07259982 -0.0018214203 -0.1602258 -0.079194695 0.09196522 -0.111699454 0.013870251 0.07571838 -0.24845386 0.051137716 0.009907604 -0.11640465 0.24866837 0.1957527 0.007389254 -0.17479333 0.07531619 0.27689916 0.14883156 0.081134185 0.49608034 -0.018309135 0.17100738 -0.039843466 -0.31002197 -0.20482287 0.20159586 -0.32515675 -0.24505778 0.21646486 -0.29924974 0.32208318 -0.27663723 0.07375579 -0.09415831 0.052905012 -0.10901273 -0.08558317 0.38056716 0.207926 0.10506026 0.10759553 -0.011282888 -0.12787032 -0.11578631 -0.12650657 0.0794203 -0.123192675 -0.03735936 0.09656692 0.114315756 0.024315583 -0.11759285 0.054750852 0.011573164 0.061206743 -0.16632594 0.032254558 -0.16883695 0.06524703 -0.2690906 -0.049625628 0.34236813 -0.2637088 0.062384777 0.016655797 0.07601531 -0.19388497 0.09872034 -0.11134932 0.05537677 -0.117598556 -0.2591774 0.05217597 -0.062360525 -0.073198736 -0.3431782 0.17503324 0.068182245 -0.056169383
46 -0.05539375 0.026675347 0.014573549 0.18771316 0.022701127 -0.180006 -0.103088506 -0.116004206 0.16528569 -0.2842698 0.3178123 0.048184536 0.016371505 -0.14181139 0.22806408 0.12964435 -0.06799499 -0.06928341 -0.046636537 -0.19818653 -0.07617489 0.37371764 -0.1300611 -0.12169515 -0.09657957 0.22509612 -0.17793669 -0.16271196 -0.26098868 -0.11989551 -0.10518442 0.20423555 -0.12856449 0.09907466 -0.13742377 0.14432058 0.12040791 -0.19888124 0.08591645 0.023576843 -0.09254158 -0.0094728395 0.0792469 0.07923224 -0.02660621 -0.16077025 -0.139709 -0.004695885 -0.12893611 0.11387692 0.14346634 -0.20328581 -0.21250956 0.1080604 -0.09957948 -0.11272322 0.07517405 0.19304994 -0.1705423 -0.062257614 -0.10463279 0.16776882 0.0045736474 -0.011514772 -0.050417732 -0.08916567 -0.11011609 0.08098918 0.0809038 -0.24972644 -0.042805888 0.09134704 -0.118099116 0.011764695 0.12719463 -0.113321215 0.30913898 -0.10481867 -0.1850953 -0.008170508 0.031172398 -0.21544142 0.24965768 -0.15897278 -0.05044097 0.044639945 0.09347285 -0.16403843 -0.05706522 -0.038344894 0.016366336 -0.13007069 0.028562002 -0.050680343 -0.1956807 -0.04512091 -0.04092215 0.082555376 -0.07965444 -0.56621766 -0.0150118405 0.16007279 -0.114267014 0.11921199 0.20590964 -0.06202328 0.0026262067 0.16735469 -0.14212574 -0.26349002 0.34982416 -0.21774925 0.00015825876 -0.069118336 0.08667111 -0.16452245 0.13398336 -0.00110973 0.21113336 -0.057117518 -0.2595585 -0.06841845 -0.17560513 -0.042635713 -0.11505479 0.10990799 0.08932626 0.005052002
50 0.07486539 -0.12486272 0.0014469336 0.002031655 0.07842038 -0.24481642 0.21209754 -0.22584419 0.21392524 -0.103346184 0.08623089 -0.06314962 -0.14847353 -0.033362973 0.087332524 0.082950175 0.12349658 -0.15699634 0.05060075 0.054109387 -0.07190161 0.034079734 0.076710574 -0.050340194 -0.3763787 0.15205936 -0.07817384 -0.10367738 0.03783163 -0.03653258 -0.034098767 -0.03618263 0.17785951 -0.00446307 -0.28225785 0.18553993 0.23304074 -0.085124314 -0.08018761 -0.01827192 -0.033445757 0.1641592 -0.04816914 -0.03329799 0.012464244 0.0626677 -0.16947377 -0.09956606 0.15466322 0.015249057 0.075747974 -0.20941927 -0.1518397 -0.13944578 -0.14040859 -0.03482429 -0.07398116 0.042297978 -0.019880746 0.012718933 -0.14382634 0.11291326 -0.08714351 0.051939666 0.13522732 0.15586407 -0.023128029 -0.04549458 0.12689206 -0.09037108 0.13069014 0.082243115 -0.13338783 -0.2373886 0.08119123 -0.022166783 0.06568986 -0.050314274 -0.12715699 0.042226408 -0.054818403 -0.15335527 0.2519392 -0.20055418 0.024780504 0.2974033 0.14336394 -0.09786286 -0.16460569 0.06543473 -0.10665535 0.061065935 0.12201411 0.062043834 0.20685214 0.052450057 0.019122208 -0.19307043 0.13930604 -0.36384302 -0.02945222 -0.24637492 0.07529347 -0.12484687 0.13373 -0.16237351 -0.036308408 0.04841333 0.046681095 -0.15703735 0.18180275 -0.009324227 0.058175493 -0.22899705 0.07281945 -0.15867704 -0.05745532 -0.03039452 0.24030592 -0.22836243 -0.101608366 -0.107774615 -0.2786006 -0.06976693 -0.10655683 0.0056178337 0.1831012 0.052968174
285 0.13837759 -0.054628067 0.02190712 0.032657843 0.02443736 0.0343867 0.14141905 -0.04030188 -0.19557363 0.08625213 -0.047182173 0.040859286 -0.17521991 -0.11738002 -0.091281034 0.09701902 0.026431333 -0.07680692 -0.09000655 0.080498934 0.05562338 0.13371538 -0.008679278 -0.19683246 0.082698524 -0.03260675 -0.1973559 -0.05022323 0.08104259 -0.022661505 -0.11371336 -0.19254768 0.031207582 0.1801433 0.13169399 -0.16652897 0.101824455 -0.080258794 -0.092568025 0.14655656 -0.2740174 -0.0690107 -0.0640438 -0.045257315 0.024818335 0.16753238 -0.122324064 0.090213254 -0.18727927 0.016458753 0.2031427 -0.063214876 -0.119123705 -0.16014153 -0.13861397 0.09032792 0.2705685 -0.12638812 -0.058987904 0.0028135956 0.046136238 0.21254441 0.03327484 -0.31756407 0.061262585 -0.1772544 -0.0927779 0.14151664 0.11047071 -0.2050561 0.11335911 0.024153633 -0.31705472 -0.14722067 -0.06329351 -0.037233833 -0.09828011 -0.27871358 -0.14208083 -0.14045273 -0.015823832 -0.09500411 0.008300109 0.18644436 0.09841218 0.25341952 0.11075262 -0.15775369 0.020577768 -0.07791922 0.20065276 -0.202508 0.29567534 -0.086368255 0.15270387 -0.07332236 0.063462764 -0.055364273 0.04749407 -0.10558368 0.052780073 0.12796871 0.05488435 -0.051253833 0.15506838 -0.14837112 0.1815453 0.11199564 0.06880514 -0.11063778 0.067582265 0.004569048 0.037258837 -0.0377164 0.055771597 -0.1171175 -0.04482555 -0.07653922 0.05499569 0.030726945 0.23553312 -0.029417293 -0.14518301 -0.07384745 -0.15135868 0.04597941 0.059530973 -0.25050664
206 0.052522726 0.22549126 0.17538856 0.044323996 -0.09491812 -0.08925437 0.269489 0.019142337 -0.15549794 0.10749964 -0.113920644 0.08128365 0.026449166 -0.051879637 0.008291279 -0.13570882 0.011140435 -0.18629444 0.058891434 -0.046646178 -0.12464514 0.047102667 -0.007583234 -0.3129071 0.20671538 0.07422061 0.011604759 -0.17990711 0.107514374 -0.14178059 -0.05560643 -0.18174593 -0.081630245 0.22395505 0.07804374 -0.11101488 0.11067337 -0.12753034 -0.104787 0.08194555 -0.14967665 -0.04727046 -0.09646967 0.07397713 0.27268222 0.15004906 -0.14632934 0.031640243 -0.067743726 0.08751639 -0.061952837 -0.11996191 0.023898339 -0.30159244 0.00776747 -0.0456867 0.10291446 0.21287833 -0.17190965 -0.024400288 -0.09888415 0.118921824 -0.09353092 -0.015314611 0.026234917 -0.028723095 0.07126732 0.15273122 -0.1102556 -0.046803266 -0.09221705 -0.064322345 -0.21308215 -0.1824534 -0.13087225 -0.036075383 -0.12766601 -0.035058312 -0.08693197 -0.11906206 -0.10989757 0.09600635 -0.0052018613 0.21093138 0.11673021 0.21876723 0.25390124 -0.12076407 -0.039489616 -0.012671437 0.11681753 -0.24381126 0.3735454 -0.05588451 0.3937331 -0.0042560105 0.09913099 -0.17440669 -0.10267885 -0.22563735 0.009143189 0.08696407 -0.08484055 0.086003676 0.30807406 -0.0075308457 0.0691513 0.08469467 0.09989709 -0.08726352 0.17834783 0.07458577 -0.112233095 -0.10666693 0.18194406 0.04163654 0.29852906 0.19535172 -0.10217328 -0.0142020555 0.06663492 0.03465184 -0.27607545 -0.009079605 -0.2699293 -0.026261572 -0.09223568 -0.08431678
202 0.06013897 -0.14659649 -0.11537234 0.12652178 0.01777929 -0.20141357 0.0315996 0.03596952 -0.20373248 0.03090582 0.21933822 0.34046844 -0.01512473 0.019582622 0.15789647 -0.011233258 0.056299012 -0.42250127 -0.27682656 0.041656118 0.04907647 0.5032665 -0.06387033 -0.22124265 -0.310321 0.14013563 -0.097944945 -0.13992752 0.16986008 -0.069598496 -0.40052682 0.22431579 -0.18974324 -0.0055178655 -0.30046168 0.24334006 0.0051581934 0.016765302 -0.14650953 -0.05850826 0.10642811 -0.078614354 0.15382189 0.11249605 0.03908452 0.24837106 -0.15752839 -0.23782428 0.0699298 -0.16296123 0.09417319 -0.08439749 0.04454461 -0.029969387 0.159713 -0.037409365 0.013278895 0.056752227 0.14888434 -0.104412176 0.131992 0.083574384 -0.11587628 0.018400148 0.15848319 -0.024918241 0.09038203 0.052072886 0.12448884 0.13834256 0.25538123 -0.016922418 -0.15118913 -0.06180509 0.279321 0.09994788 -0.063590534 -0.12762304 0.20576778 -0.06521641 0.0456478 0.05024647 -0.071663246 0.09709174 -0.050086815 -0.12520908 -0.23215768 -0.25291106 -0.08169842 0.045954973 0.0008819425 -0.05283222 0.03071474 -0.039088123 0.18941183 -0.0089970585 0.0658536 -0.030349597 -0.2145512 -0.046914466 -0.27256042 0.38648662 0.05969699 -0.08775974 0.067487575 0.2636448 -0.18039162 0.07230776 0.10925884 -0.30158105 0.24914876 -0.126037 0.056445163 0.027214073 0.21365385 0.0017801389 -0.051478505 0.13096729 0.012404525 -0.16254686 0.119329035 -0.10050455 -0.10234744 0.13847032 -0.18178847 0.30594325 -0.13010089 0.23253298
259 -0.071167976 -0.3119455 0.10732638 0.035731945 -0.054184232 -0.07701944 -0.20522669 -0.039875 0.07409395 -0.06915736 0.044787314 -0.057820346 -0.07068699 -0.042717353 0.3074958 0.20226535 -0.10450986 0.10458071 0.0077056116 0.12480515 0.09917185 0.28894123 0.12902291 0.0178816 -0.0010282594 0.17861483 -0.030585263 0.00857172 0.27787247 -0.26648197 -0.11371614 0.09348012 0.0857535 -0.13118641 0.0070067192 0.060099978 0.33023268 0.044772547 0.024434408 -0.0102141565 0.03316213 -0.06687068 -0.04232299 -0.0078078555 -0.02619327 0.11197836 -0.18675856 0.22605748 -0.12090282 0.12508938 0.10095036 0.055843737 0.0793681 0.03474643 -0.012628718 -0.119347185 -0.0013710863 0.054551996 0.29009697 0.07591111 0.12207078 -0.04039273 -0.0074248193 -0.26654902 0.01667046 -0.009082904 0.085144475 0.4367495 0.21203779 -0.0032773712 -0.08635274 0.16058776 -0.08277756 -0.028099757 0.1211435 -0.13315439 -0.06999896 -0.035706744 -0.4129632 0.1289283 -0.07749257 0.2560881 0.12461448 0.050483044 0.1563161 -0.17477201 0.04567143 -0.13481182 -0.015939234 0.09785113 0.27605614 0.08960917 0.22322775 -0.005768894 0.0378924 -0.01926076 -0.04927672 -0.009323963 -0.033344682 -0.15395197 0.23855059 -0.16918847 -0.13349871 0.033199545 0.21319273 -0.028883597 0.030694637 0.13655551 0.084844895 -0.1717712 0.25731885 0.017669225 0.16518734 -0.05105662 0.1323811 0.044924717 0.072903745 -0.060005862 0.16421394 -0.13986117 -0.1666545 0.057199065 -0.36546972 0.044246737 -0.29681066 0.07864967 -0.1630999 0.15690513
155 0.07352605 -0.24050517 -0.1905627 0.07785184 0.014751346 -0.08439979 -0.24661113 0.02356022 0.10707585 -0.023060035 0.17551298 0.03412912 -0.1150133 -0.05049905 0.27274513 -0.069516435 -0.14997265 -0.021733152 -0.29231405 0.17391403 -0.070145845 -0.0029270316 -0.07488083 -0.2919103 -0.10465368 0.028279988 -0.09312751 -0.052762363 -0.11785623 -0.07152201 -0.2084174 -0.1025439 0.05898241 0.014816918 -0.13280074 0.2542947 0.029344156 -0.0722178 -0.09288261 -0.0034451466 0.056570448 -0.030879855 -0.0779128 0.06796929 0.15734771 0.049479797 -0.1970201 -0.10606861 -0.24964029 0.03953395 -0.059070535 0.034945436 -0.18112159 0.13888901 -0.10072879 0.06947824 0.046228178 -0.04796721 -0.10692958 -0.054985937 0.022450091 -0.09269462 -0.11038305 0.15853304 0.07819246 0.23604067 -0.013709784 0.18291324 0.08711318 -0.0114651555 -0.01084914 0.20158216 -0.18047929 -0.14879686 0.06555809 -0.044983245 -0.03840439 0.050325755 -0.14034462 -0.06400643 0.11679261 0.013146409 0.27236176 0.094342165 0.026886031 0.39306974 -0.08810921 -0.12431858 -0.14801382 -0.07897183 -0.03583771 0.060461055 0.018897792 -0.15390122 0.27790928 -0.038210347 0.03764489 -0.13949794 0.022935858 -0.20599258 0.1972858 0.049494423 0.020785697 0.072047204 0.19071926 -0.18975523 -0.24585718 -0.22979608 0.020060105 -0.09289901 0.104924425 0.055937566 0.073014766 -0.029632488 0.22619668 -0.024503006 0.16157733 -0.030676065 -0.19294837 -0.26738834 0.052951742 0.05241744 -0.3282077 0.054181553 -0.022464879 -0.06924653 0.2539466 -0.11957819
62 -0.009937344 -0.066641554 -0.051033985 -0.040352248 0.1454726 -0.15235506 -0.06233899 -0.17377594 0.21440426 -0.18021022 0.060358956 0.23610614 -0.19774398 0.08909771 -0.109489255 -0.106312536 -0.060768574 -0.4154905 0.15953293 -0.19297402 -0.14521974 0.052368827 0.12976971 0.041509334 0.057392687 0.17543158 -0.030904623 -0.19130419 -0.009472029 -0.1843857 -0.15096045 -0.21268985 0.2732013 0.25786528 -0.15014948 0.25789392 0.08218484 -0.23979743 -0.4631547 0.30301175 -0.116772376 0.09880944 0.074515454 0.039245497 -0.25102156 0.031823304 -0.3363079 0.03494274 0.16856836 0.058801133 0.08150468 -0.1611043 0.095518455 -0.13581589 -0.20424038 -0.095382445 -0.19922085 0.070865646 -0.04577254 0.02702723 0.044803582 0.051285956 -0.15886274 -0.06907562 -0.077720135 0.057188354 -0.15675701 0.24265543 0.52974796 -0.03913643 0.22771499 0.035379566 -0.18753949 0.04610343 0.14617662 0.13321793 -0.0099702785 -0.0022966126 -0.23377447 0.017557409 0.14915057 0.06978061 0.17740116 0.28046608 0.29336685 -0.03794279 -0.06038893 -0.19792834 -0.18350796 -0.009770575 -0.010891484 -0.11574763 0.26776874 0.060290158 0.16562632 0.062126383 0.17287582 -0.26775134 0.15545109 -0.3511544 -0.07497031 0.047709737 0.0377352 0.06399749 -0.13647154 -0.06444495 -0.0033186718 0.26443458 0.05068963 -0.14226104 0.14912117 0.15220751 0.22518848 -0.17438717 0.0024901296 -0.31890514 0.21492602 0.17435022 0.078038916 -0.20176461 0.009454045 -0.03712594 -0.2455757 -0.14164595 0.12993605 0.21886571 0.017304933 -0.19526093
