307 128
0 0.021674026 -0.123751976 0.18415691 0.38632086 0.20918103 -0.17008205 0.1169739 -0.011395036 -0.12399285 0.13695146 0.23978229 0.12519212 0.041780632 -0.0010268315 0.021496251 0.06350779 -0.035696715 0.24700713 -0.18496707 -0.030293534 0.08833908 0.14175227 0.049879417 -0.23619907 -0.20855823 0.111105114 -0.23568667 0.23154475 0.05819612 -0.12154426 0.14989963 0.10595108 0.1801625 -0.014099213 0.033474613 0.015823094 0.16731383 -0.02648405 0.013481731 -0.15168299 -0.09966308 0.0075281896 -0.030972196 -0.120046936 0.05171116 0.107796855 -0.15097563 0.06527328 -0.06877096 0.13166548 0.08541469 0.058936175 0.11823406 -0.039533105 -0.21200864 -0.0032570458 0.09124465 -0.044363845 -0.10505595 0.013695494 -0.11723517 -0.069942795 -0.041937653 0.06736015 0.19581126 -0.1357206 -0.01092179 0.020046439 0.15990137 0.017743243 -0.05718095 -0.013058727 -0.29620898 0.05097646 -0.032099146 -0.23221578 -0.05315222 0.072448514 -0.040220886 0.24616133 -0.0070444327 0.042896118 0.32265767 0.2539797 -0.015312924 0.31337336 0.22044963 -0.32351497 0.10792414 0.0040252116 0.019056419 -0.02945797 0.009755822 -0.019326497 0.22734888 -0.011008297 -0.14462411 -0.18881264 -0.015972685 -0.20361286 -0.07610898 -0.2367891 -0.2026806 0.07692478 -0.08946118 0.08393278 -0.122379646 -0.05926669 0.20457569 0.062487405 0.27276403 -0.16470768 0.11143257 0.04982318 0.005099893 -0.16199523 0.052921023 -0.0014839581 0.17104639 0.030525962 0.19467773 -0.02268937 0.061093554 0.008923178 0.034868393 0.1361854 0.017010652 0.18245901
8 0.05847932 -0.062055144 -0.058961958 0.033099964 0.13492846 0.010937892 0.04289506 -0.00095454813 0.050594203 0.13590828 0.060721036 -0.11362886 -0.10704202 -0.16454272 0.07039004 -0.030599153 -0.01685542 0.050087906 -0.09474742 -0.043313634 -0.043808002 0.29617888 -0.0011406754 -0.122929506 -0.20541285 0.090213746 -0.13102135 0.1065156 0.009367701 -0.110178605 0.018546127 0.054681428 0.10848146 0.038096167 -0.16397248 0.16438174 0.10358636 -0.030560236 -0.11068627 -0.062313005 0.025766423 0.07512614 -0.111417376 -0.11005569 0.10014265 0.01761938 -0.09688844 -0.14732657 -0.15916601 -0.08700117 0.3203888 -0.048911367 -0.050333284 -0.006574507 -0.04346402 -0.083370365 0.1315254 -0.12904803 -0.03175391 0.10938849 -0.06442174 -0.01390083 -0.08175492 0.025218027 0.2279314 -0.0069760536 -0.051075414 0.03641249 0.16499841 -0.080203734 0.0674182 0.04695802 -0.11154076 0.0016178819 0.09569426 -0.22292519 0.105097614 -0.01644554 0.10918703 0.07634659 -0.061207376 -0.0669707 0.046674747 0.10359779 0.039754175 0.10247382 0.072616495 -0.13266335 0.08655532 0.25850242 -0.14766878 0.08757616 0.1283304 0.007768855 0.2340832 0.24821092 -0.06962858 -0.20074546 -0.060784217 -0.16455652 0.048558068 0.0036196075 -0.13217992 -0.06220969 -0.05413307 -0.11656263 0.078967124 -0.17398354 0.033842042 -0.2717788 0.18702364 -0.24144164 0.07733276 0.048714653 -0.03909539 -0.09251154 0.13826323 0.1705721 -0.08147471 -0.0032185412 -0.13449296 -0.114644565 -0.08180176 0.0702241 -0.15627052 -0.026528774 -0.24559137 0.21262173
14 -0.059104282 0.06735736 0.06491436 0.21854322 0.112062775 -0.093319915 0.088596605 -0.032587588 -0.14662458 0.10502836 0.090024866 0.1353946 0.029179413 0.027778113 0.0065643843 0.023207238 0.07023755 -0.123028316 -0.063435204 -0.013407108 0.017262924 0.054324985 -0.20120643 -0.1699808 -0.0075579695 0.10538378 -0.20372482 -0.039915852 0.06785544 -0.13880529 0.015496712 -0.0049115582 0.17191145 0.16087762 -0.13754137 0.016291259 0.30692518 0.06235684 -0.026945114 0.03720877 -0.09470923 0.02269708 0.14137903 -0.024738299 -0.018331703 0.008424502 -0.13391529 0.100197986 -0.109015174 0.09333667 0.08258884 0.1368424 0.07646488 -0.087306894 -0.025910178 0.020914717 -0.00036349855 -0.15865701 -0.109030515 0.11465992 -0.1510194 -0.027015975 0.08740894 0.09895033 0.049744762 -0.13054985 0.17112267 -0.08561539 0.09556171 0.028348662 -0.025778396 -0.03581273 -0.36346218 -0.13260692 -0.0982596 -0.04902746 -0.21232592 0.033935517 -0.09444825 0.009499515 -0.053144444 0.04260973 0.2032579 0.23501092 0.07243583 0.12078148 0.16785099 -0.19830664 0.19942966 0.043068245 0.081908174 -0.097458005 0.13094619 0.048280984 0.19781722 0.049181685 -0.10727899 -0.05652994 -0.11695111 -0.19752227 -4.5997323e-05 -0.15293574 -0.12132524 0.120352544 -0.11276596 -0.06464088 -0.042882953 0.0052188532 0.26196325 0.020959731 0.42221975 -0.03398651 0.057857282 0.13650471 -0.11326951 -0.17569004 0.06067445 0.0056678453 0.09635645 0.124087855 0.025170786 -0.2097439 0.14548023 -0.049692214 -0.057061244 0.0022184285 -0.056660414 -0.037453502
100 -0.043075435 0.06437154 0.079081796 -0.012799008 -0.0923653 -0.017652765 0.010617741 -0.065496355 0.06873861 0.0012085541 -0.20469923 0.048146512 -0.09199561 -0.18120074 0.20413084 0.01437049 -0.22369298 0.115863845 -0.023558185 -0.14060806 0.042767882 0.17327514 -0.081016965 -0.17644855 -0.11632382 -0.0119650345 -0.15901713 0.17249806 0.05757245 0.020287266 0.25371405 0.03535222 0.18688972 0.29666594 -0.08421735 0.07214638 0.15255548 0.14566624 -0.01276135 -0.20202377 -0.12521146 0.15672128 -0.12795182 -0.06854224 0.114580825 0.089151196 -0.008852721 0.15631054 -0.17329855 -0.024142582 0.050296266 0.06676925 0.007040607 0.2330585 0.09231861 -0.15844518 0.08612931 0.07048073 -0.12045027 -0.10632843 -0.049151376 -0.045441873 0.10466408 0.05185769 0.14815262 -0.08139859 -0.051094327 -0.1580996 0.13819377 -0.21134947 -0.1541559 0.12604554 -0.2573425 0.06437885 -0.043054946 -0.13205011 -0.033852864 -0.009692767 -0.073654756 0.29837465 0.04687306 0.0017085442 0.21853238 0.13158792 0.10304935 0.11593008 0.17356624 -0.21504647 0.14216517 0.015357932 -0.18823402 -0.03699789 -0.008166413 0.032731064 0.31780538 0.041641477 -0.18883191 0.02249205 -0.030820467 -0.13399798 -0.013268797 -0.06139601 0.030945709 0.05196108 -0.087775834 -0.1313062 0.20892236 0.13139315 0.1381343 -0.11563877 0.025701923 -0.13946746 -0.03852355 0.2995645 -0.07675897 -0.010935737 0.15313426 0.07055466 0.048147492 0.10423728 -0.03222363 -0.111648865 -0.025291381 -0.013846922 -0.22402532 -0.04188176 -0.053033553 -0.085539065
112 0.006544169 -0.0542823 -0.018662468 0.19314384 0.17952219 0.07126711 0.07814874 -0.06510043 -0.22029679 -0.055191047 0.17241539 -0.08608361 -0.09172111 -0.007639092 0.1528618 0.109123826 -0.040879462 -0.08607318 -0.07237122 -0.0155567415 0.04688563 0.25938523 -0.15653552 -0.20703866 -0.05498473 0.23446365 -0.117445014 0.13538328 0.1679722 -0.105711736 0.01817926 -0.039244246 -0.0007944648 0.07207372 -0.16923703 0.043395776 0.2700534 0.1303827 -0.012494405 -0.097181626 -0.080955446 0.08608532 0.112196095 -0.047500674 -0.0010044608 0.09279455 -0.09293464 -0.044259433 -0.10921994 0.093328476 0.057467036 -0.0462377 0.047325183 0.12020264 -0.088078365 0.003168739 0.056701757 -0.02640317 -0.16745943 -0.03726362 0.06423363 0.037982825 0.016452463 0.027483268 0.13962117 0.105430685 -0.12936185 -0.036472384 -0.04392593 -0.028913239 0.113097 -0.12550277 -0.37347624 -0.09348248 -0.030547746 -0.12306821 -0.146912 0.040471617 -0.050428815 0.13396688 0.06918772 0.026196435 0.046619207 0.112108916 -0.060385942 0.083812214 -0.0445405 -0.09216587 0.12641369 0.15845181 -0.03629308 0.06517171 0.03483256 -0.036810152 0.16183679 -0.00029264487 -0.16896364 -0.13331306 -0.05551613 0.04270087 -0.044791736 -0.01660837 0.0151512055 -0.07388057 -0.034653954 -0.045445263 0.0022634994 -0.08612936 0.04213931 0.047896948 0.070101164 -0.14006871 0.05706109 0.003568191 -0.04142032 -0.008320623 0.029107738 -0.105764404 0.110964805 0.05691926 -0.068894364 -0.09746909 0.08255093 0.006772261 -0.017059136 -0.040424895 -0.1542878 0.06459793
140 0.014249879 -0.09341406 -0.01794648 0.19673792 0.051400248 -0.008383129 -0.06228513 -0.0013956743 -0.014263589 0.064027324 0.11810145 -0.003642723 0.012932598 0.0593248 -0.06524945 0.08184524 0.048683178 -0.14625089 0.06246731 -0.10639862 -0.020052237 0.019024666 -0.05008214 -0.16286546 0.014875849 0.12472689 -0.18678342 0.06024059 0.09166203 -0.16654699 0.05247928 -0.18818486 0.061314344 0.061905436 0.25604612 -0.06172798 0.2647187 0.09124048 0.065091476 -0.060331978 -0.15544304 -0.09216258 0.089431584 -0.08112708 0.037158374 0.030945143 -0.17841533 0.030573715 -0.233315 -0.05721387 -0.010420279 0.11221882 0.11661764 -0.006490975 0.015213337 0.017274858 -0.025979066 -0.10855565 -0.072876625 -0.052773837 0.0064161704 -0.099552184 0.117432155 0.1483158 0.18394482 -0.13948728 0.010925341 0.09740345 0.093984656 0.02815409 -0.08215275 -0.08898996 -0.3325951 -0.030082153 -0.114831984 -0.15296173 0.00077936234 -0.03327089 -0.062390186 0.120343894 -0.057731513 -0.006253444 0.11983141 0.31063014 0.046069548 0.164938 0.076930895 -0.1449536 0.111030236 0.04216336 0.038305275 -0.06892083 0.23554951 0.02540821 0.26543632 -0.124351285 -0.12178668 -0.11395268 -0.14684604 -0.16356906 0.01960831 -0.13444507 -0.21048588 -0.07303947 -0.05216831 -0.05871857 -0.06373244 0.14921656 0.24441275 -0.09837343 0.40629885 -0.08164931 0.03601434 0.20959587 -0.059659973 -0.09621798 -0.016389148 -0.07818745 0.11087232 0.041692883 0.026759353 -0.18974772 0.0941129 -0.020828929 -0.11533548 -0.15289773 -0.032354366 -0.07733217
165 0.008074562 -0.022184301 0.07678925 -0.05836018 0.05004264 -0.12522683 0.009347004 0.03542497 -0.1691838 -0.03477483 -0.011584226 0.047734383 -0.012323424 0.021662565 0.16680522 0.03888515 -0.0371601 -0.10145147 -0.010430946 0.022433123 0.045704853 0.106320605 0.034465194 -0.11430491 -0.015763579 0.043487713 -0.061466165 0.12514494 0.14671087 -0.026831059 -0.06194208 0.031258084 0.14874785 0.09808264 0.0146646835 -0.02595949 0.21080883 0.080046125 0.11943703 -0.11103841 0.023198728 0.040589772 0.022188548 -0.008236067 -0.00026564448 0.106893174 0.03433617 0.06877097 -0.08150368 0.13340412 0.12432744 0.033051506 -0.07531624 0.072629414 0.02880369 -0.05192014 0.1721828 -0.054940782 -0.09556764 0.09534648 -0.008454285 -0.06554206 -0.06631492 -0.049429346 0.14165643 -0.047789082 0.02632883 -0.09619388 0.07957245 0.04151228 -0.109462306 -0.026512025 -0.1806555 -0.15454078 -0.01004732 -0.13063025 0.009892224 -0.024387058 -0.081462815 0.077678286 -0.034423247 0.05044445 -0.038582202 0.2565105 0.11327888 0.10852865 -0.018344443 -0.17706671 0.056007538 0.16421588 -0.06284865 -0.08223631 0.18663396 -0.01357523 0.20352332 0.10563644 -0.19648251 -0.09738641 -0.11496414 -0.048481476 -0.15384792 -0.031404212 -0.0515924 -0.028998254 0.052867476 -0.14385441 0.002773968 -0.009926227 0.097638905 -0.0046440293 0.10749399 -0.12779115 0.06981211 0.040794045 -0.0498608 0.111812875 -0.005528344 0.03627267 0.13431238 0.011486408 -0.14712144 0.009386765 -0.010911648 0.056191165 -0.1988324 -0.03198562 -0.15282483 0.09656378
186 0.124355085 -0.014287937 0.07502404 0.05787874 -0.03953611 0.02908503 0.16362248 -0.09325711 -0.106860764 -0.11246726 0.08413529 -0.111615196 -0.06401184 -0.08606863 0.13263467 -0.057549052 -0.16409795 -0.111986905 -0.101381615 0.046486158 0.03651928 0.0662895 -0.03298111 -0.22180581 -0.051044434 0.13719593 -0.046176855 0.057483967 0.0737697 -0.0603642 -0.12192359 -0.083880685 0.07903458 -0.025186697 -0.1003991 -0.13666178 0.16204198 0.06970627 -0.04066701 -0.06932005 -0.04061383 0.0077371118 0.032851186 0.01221444 0.16895442 0.17252746 0.14543656 -0.052974924 0.103148006 0.07653097 0.14116567 0.028680842 0.013307926 0.040196843 -0.085483745 -0.029499963 0.1009877 -0.22004348 -0.056503315 -0.013217082 -0.111244895 -0.15728153 -0.11149141 -0.009973186 0.16482405 -0.056628868 -0.008426124 -0.06454744 -0.08421924 -0.09165453 -0.09070571 0.02915596 -0.30226532 -0.17812574 -0.021854218 -0.110199176 -0.12406514 -0.06139216 -0.023543894 0.02923707 0.005962343 0.04613725 0.12173439 0.16841446 0.10132556 0.031627074 0.04208092 -0.13705012 0.18887462 -0.0053599593 -0.09799902 -0.032009296 0.13282536 0.021930821 0.11410015 0.11459389 -0.07664633 -0.24122752 -0.124186434 -0.1824498 -0.12438758 0.034462497 0.014190612 -0.050210863 0.05021356 -0.1077433 0.16908908 -0.005026274 0.10354208 -0.10899558 0.1342002 -0.090295374 0.08142918 0.10666362 -0.008637756 -0.06803719 0.07096241 -0.1213596 0.15222453 -0.033111233 -0.12498094 -0.10830115 -0.04520136 0.07736961 -0.061178118 0.050045986 -0.23011047 0.09256035
222 0.052453395 -0.08916563 0.09078324 0.094148315 0.13417101 -0.19086006 -0.08196723 0.11185366 -0.1560319 -0.023331955 0.06162637 0.034609597 0.020442404 -0.033283617 0.2832326 0.1312503 -0.0936796 0.029539205 -0.040113594 0.071457796 -0.010695052 0.13587672 -0.011739367 0.048506796 -0.047699463 -0.00987782 -0.05173 0.16231892 0.10219121 -0.14949447 0.121375516 -0.0022079803 0.1750341 0.039007857 -0.08100665 0.0576424 0.2701358 0.073017694 -0.025246054 -0.22873022 -0.010853532 -0.14649926 -0.082173094 -0.08920086 -0.19734553 0.2527147 -0.06866459 0.027093695 -0.027134212 0.17025827 0.036260433 0.08994623 0.03971803 0.019654177 -0.16962963 0.07238604 0.06369919 -0.11820277 0.018252177 0.09627574 0.20069695 0.12967588 0.04474257 -0.16232465 0.13637552 -0.061206434 -0.001770806 -0.07805507 0.06306331 -0.01397901 -0.11168582 0.08160123 -0.25989527 0.018992987 -0.0016051203 0.023987884 -0.047384888 0.055380195 -0.098452955 0.20651285 0.0012744514 0.094126664 0.10095705 0.3253661 0.012830203 0.05838446 0.092410535 -0.11129758 0.10896888 0.16461337 -0.054928966 0.025999457 0.24253637 0.13635011 0.23869638 0.15187924 0.0005964413 0.039608832 -0.007472261 -0.0046034353 -0.16990924 -0.045271255 -0.11132137 -0.05891869 0.019223625 -0.0552125 -0.08656302 -0.010212202 0.15816855 -0.087525554 0.0955722 -0.060594924 0.13447595 0.07029633 0.020519901 -0.05292751 -0.008116873 -0.0061421315 0.020121707 -0.1417455 -0.17799641 -0.055937603 -0.0053108414 -0.06202694 -0.14263599 -0.1892108 -0.12579666 0.03094051
267 -0.12011478 0.0141300745 0.037945673 0.060569976 0.23377122 -0.012680437 0.07177153 -0.028067503 -1.7429807e-05 0.10085106 0.07607903 0.0865186 -0.22370566 -0.074791275 0.08861811 -0.06686543 -0.16530238 0.21394473 -0.1062875 -0.09573906 0.13195145 0.1317016 -0.22313413 -0.0018176863 -0.25581652 0.024186699 0.0023121627 0.08599533 0.115283184 -0.06141737 0.2539555 -0.009206908 0.16195174 0.15910457 -0.19272816 0.15793487 0.1614313 -0.09404707 -0.09356613 0.05043479 -0.12955755 0.05286514 0.027135761 -0.14028661 0.032677013 -0.025583316 0.008836989 0.015259964 -0.33296484 0.20823267 -0.07373591 0.020824622 0.16156471 0.012829759 -0.11797886 -0.22468185 0.096233256 -0.16902338 -0.079741284 0.05881007 0.05542715 0.3501162 -0.0614581 -0.031023405 0.5380783 -0.049395673 -0.17270689 0.026878027 0.16702043 -0.10668395 0.0037493182 0.10872432 -0.14681132 0.11075519 -0.1339333 -0.049924824 -0.12890562 0.061613988 -0.029162213 -0.025928676 0.08003769 -0.043866895 -0.078199565 0.17206243 0.10041432 0.15575132 0.08224308 -0.22870792 0.2503667 0.0775602 0.12644744 0.116007134 0.0976409 0.039884128 0.1492596 -0.02907686 -0.039117813 -0.19370586 0.15781516 -0.07114357 -0.046314426 -0.18572861 -0.21184458 -0.13573864 -0.038312815 -0.104468696 -0.10700663 -0.2150789 0.25330177 -0.13256483 0.25437206 -0.1462318 -0.088884085 0.027757965 -0.023342641 -0.13385822 -0.028976358 -0.034220442 -0.25584832 -0.116930835 0.024401074 -0.1551058 -0.01185047 0.053466544 -0.29823187 -0.08800222 -0.016865628 0.08700781
276 0.02639071 -0.047174603 0.088118225 0.012391849 0.14628395 -0.19088832 0.07560475 -0.014606261 -0.014427677 -0.021562362 -0.08017641 0.12261591 0.045835685 -0.1449576 0.058859915 0.081518 -0.17930521 -0.046541188 -0.22091106 0.05755181 -0.03914402 0.028261725 0.123996116 -0.3127795 -0.10873339 0.15113828 -0.22611327 0.20543168 -0.0065303957 -0.042355955 0.05820827 0.003656767 0.066164576 0.17833328 -0.39188978 -0.14499569 0.13213734 0.086797416 0.039681762 -0.15829355 -0.0616975 0.12648174 -0.07327706 -0.19765714 0.1658518 0.19300754 -0.08191345 -0.017379679 -0.16980436 0.012638645 0.07681658 -0.02952787 0.08407236 0.06469237 -0.18199785 -0.07240752 0.20884499 0.03542509 -0.06561374 0.09816741 -0.37131763 0.070750736 0.03379268 0.044430356 0.10844067 -0.044291615 -0.064858794 -0.15871435 0.07137005 0.121628 -0.011523929 -0.06569614 -0.050426234 -0.08447636 -0.09125547 -0.19249474 -0.21569885 0.02399367 0.009447831 0.13163042 -0.092406906 -0.26376185 0.12175734 0.30685887 0.011208878 0.19859065 0.11372557 -0.06261273 0.06668688 0.0969355 -0.22234255 0.09485634 0.05637045 -0.050477754 -0.032498736 0.09974385 -0.09189412 -0.08017688 -0.008808954 -0.12798668 -0.16006714 -0.0317156 -0.15307444 0.015318998 -0.18527545 0.03633374 0.0033987598 -0.0037360485 0.04341138 0.07652236 0.12844269 -0.17199318 -0.042858396 0.14922811 -0.075522296 -0.022254154 0.089657925 0.080065414 0.11251108 -0.07737651 -0.042405985 -0.12225937 0.14981304 0.3374594 0.08069137 0.0008710683 -0.10092007 0.14670372
306 -0.027387114 0.0031823136 0.014202555 -0.04225714 0.1477329 -0.087632954 0.09624136 0.0710393 -0.030086365 0.020022875 0.051883124 -0.00035723142 -0.009834923 -0.117220044 0.08579606 -0.058367617 0.05957225 -0.012346024 -0.114360906 -0.004808834 0.042316917 0.12003418 0.013443585 -0.18897267 -0.019615809 0.03811271 -0.12069591 0.112972125 0.038861904 0.026557097 0.045294106 0.03799367 -0.09527523 0.14135715 -0.06896508 0.032436255 0.30635804 0.018738043 0.099156946 -0.14328876 -0.013407656 -0.002386722 0.010555228 -0.08329492 0.07555418 0.018608652 -0.07053714 -0.041852053 -0.11106515 0.024636205 0.09372834 -0.002990442 0.01700768 0.13510258 0.07182541 -0.045019396 0.16130574 -0.10259686 -0.10039505 0.1448801 0.076350816 0.0072287447 -0.037496705 -0.12578955 0.07463228 0.008811305 -0.11134862 -0.00932107 0.062617406 0.008208757 0.025228413 -0.05189345 -0.23983149 -0.10171889 -0.0036462564 -0.13545255 0.01209265 -0.016214691 0.01718687 0.029939402 0.07783262 -0.0677576 -0.060555756 0.300636 0.10595951 0.14249009 0.12101491 -0.04300719 0.04511897 0.14025348 -0.08103427 0.06473458 0.14861473 0.08540097 0.21579316 0.010790268 -0.14136533 -0.07977498 -0.06706655 0.055666268 -0.116114736 -0.038711205 -0.06467487 -0.11806591 -0.004447314 0.047406577 0.060707096 -0.023679921 0.069028735 -0.07787586 0.08428955 -0.045116812 0.031836443 0.12174285 -0.031105349 0.1833201 0.06592893 0.045487344 0.07122804 -0.051897176 -0.22545853 -0.014897693 -0.049591668 -0.0030666038 -0.2778748 -0.13008086 -0.13239434 -0.02406663
1 0.14776905 -0.07403697 0.06617319 0.15706295 0.062421832 0.0645314 0.0569308 -0.12961215 -0.10776092 0.10442864 0.08954242 0.023997398 7.0635164e-05 -0.17430362 0.13205375 -0.040503018 0.0751537 0.00095981837 -0.117351495 -0.012076196 -0.1559804 0.11083665 -0.024505995 -0.24377689 0.062068652 -0.063174695 -0.06377965 0.11582024 -0.0064830813 -0.03701341 0.059497993 0.027146548 0.006403701 -0.15922323 -0.040389583 0.18241964 0.27649575 -0.08235492 0.10639862 -0.14948043 -0.09556384 -0.06054408 -0.050303027 -0.08862497 0.17434664 -0.015522387 -0.17596513 -0.03398756 0.03293155 0.06204637 0.008819113 -0.03252196 0.108976975 -0.028788628 0.08920048 -0.07699265 -0.032287993 0.033106476 -0.14762911 0.012075194 -0.14069593 0.0016415215 -0.150776 0.12704447 0.23194341 -0.16716278 0.102182515 0.040198173 -0.14741589 -0.030391755 0.10886155 0.051573455 -0.19461828 -0.10797452 0.055994734 -0.17557448 -0.24066137 -0.13226645 0.15339363 0.24588455 0.014403619 -0.08365665 0.16230506 0.2844715 0.19878446 0.16552976 0.20885888 0.015696552 0.23543362 -0.017562373 -0.053550996 0.032427512 0.21123222 0.16104017 0.22633496 -0.0067393384 -0.13540602 -0.08304803 -0.23248915 -0.08252832 -0.049189277 0.119594276 0.032364022 0.06287443 0.106192246 0.03657626 0.017951246 0.06886925 0.054229047 -0.12483678 0.17212918 -0.17105852 0.099265285 0.094936326 -0.03612124 0.1223849 0.065927155 -0.05582123 0.08091779 -0.002921569 -0.14159717 -0.045414373 0.15245563 -0.072937444 -0.059838746 -0.20395546 -0.12129464 0.0026655882
2 0.14038076 -0.039955214 -2.340028e-05 0.10497175 -0.07219643 0.115666635 -0.13057122 0.19869286 -0.11814026 0.016179608 0.038221844 0.0931301 -0.080694176 -0.067216724 0.047035694 0.17008899 -0.08111306 0.017544746 0.029716237 0.11312223 -0.051847715 0.0016378149 -0.04124645 -0.15059695 0.044524513 -0.10032171 0.13439982 0.028871333 0.09686693 -0.087717846 0.009651541 -0.19822909 -0.03721901 0.17059961 -0.064043276 0.07772943 0.2106486 0.050428223 0.1885028 0.13602696 -0.106015384 0.23574461 -0.029920546 -0.054562777 0.096119374 0.12294706 0.042570237 0.18933725 -0.32661518 0.078665234 0.14589167 0.008184369 0.044815417 -0.12188917 -0.050167426 -0.04728106 0.14501457 0.032040484 0.072913475 -0.13806693 0.04637011 0.060518175 0.069591954 0.08023288 0.16567424 -0.06180392 0.09323833 -0.090173036 0.09317957 -0.023926795 0.01874426 -0.057877477 -0.30139953 -0.05613795 -0.1606049 -0.114092626 0.13822229 -0.041174907 -0.07046601 0.3788741 0.13334319 -0.105088726 -0.16162409 0.15096962 0.10936553 0.19513898 -0.101970516 -0.03192497 0.17095576 0.15583882 0.06075213 -0.0134004215 0.085777305 -0.044667542 0.10073084 0.06131009 -0.018960228 -0.09711373 -0.21563013 0.0383734 -0.08176047 -0.05658589 -0.058442127 0.08592331 0.101572976 -0.3191411 0.18608797 -0.035655804 0.14714687 -0.0051739444 0.18291374 0.0038987987 0.013245195 0.109767005 -0.07604719 -0.07270029 -0.080862135 0.12887068 -0.09513611 0.023214804 -0.17566273 -0.28251716 -0.032760836 0.08447189 -0.24454986 -0.13331388 -0.15315515 -0.09602765
5 -0.08354844 -0.035102807 0.18723652 0.19122262 -0.077285245 -0.03986381 0.08766167 -0.12481648 0.09969312 -0.052497298 0.028571172 0.07692728 -0.06354377 0.03331575 0.07082487 0.13322672 -0.0822768 -0.026947763 0.0134326555 0.06031919 0.1469562 0.10588471 -0.025245525 -0.15080294 -0.11562496 0.08330789 -0.086101465 0.22996688 0.05259996 -0.04184062 -0.017355567 0.011585986 -0.024148207 -0.021973219 -0.15812442 -0.13915955 0.22491555 0.01921584 0.09516555 0.023708979 -0.080325335 0.08703005 -0.1307543 -0.070207134 0.06802683 -0.02809273 0.18200701 0.10542565 -0.2695017 -0.010987282 0.08475535 -0.08552033 0.011803586 0.03925053 0.024948375 -0.06021456 0.094799064 0.09996354 -0.18023893 -0.009104456 -0.0636927 -0.050325647 -0.0016269196 0.062468015 -0.058845516 -0.07980216 -0.064675644 -0.15076266 0.0856021 -0.040761136 0.08590777 -0.00047957685 -0.08633863 -0.13384813 -0.009836699 -0.19555889 -0.064889014 -0.07092461 0.10785666 0.06754191 0.22105457 -0.08296449 -0.09221292 0.11391615 0.0657408 0.2724929 0.15402897 -0.13152964 0.12465431 -0.09828001 0.019958835 0.022168154 0.06309826 0.0044279685 0.22083764 -0.011737783 -0.14750183 -0.143623 -0.058015876 0.008841605 -0.13909851 0.05463031 0.0065406556 0.07015214 0.1857229 -0.1512099 0.1953897 -0.038268883 0.20074186 -0.03125713 0.23081772 -0.1430818 0.09551173 0.015712403 -0.2704458 -0.10001217 0.18178827 0.040293008 0.16251898 0.15636344 -0.14191973 -0.1842002 -0.16927853 -0.02511285 -0.18736504 -0.090650484 -0.21502678 -0.0212807
7 -0.039291948 0.10539145 -0.13125533 0.15579116 -0.23526876 -0.112236865 -0.03668865 0.01564292 -0.17185341 0.030210515 -0.12239667 -0.050695393 -0.10198363 -0.06609213 0.049045384 0.0633926 -0.026122684 0.019368501 -0.08424321 -0.077298366 -0.1101503 0.07295618 -0.16503678 -0.2033773 -0.26483774 0.111955866 -0.2581911 0.26933226 0.030432275 -0.040432002 -0.053639907 -0.11434396 0.06449502 0.064242475 0.00081390684 0.19027016 0.1640442 0.19556487 -0.20187175 0.062225126 0.084591046 0.10762735 0.052438285 0.013246943 0.08075948 -0.11605255 0.0009977682 -0.066679806 0.23657285 -0.056168012 0.1168709 -0.042913157 0.07649522 -0.078854054 0.12479609 -0.20399012 -0.10858963 -0.13029248 0.10944908 0.06852734 -0.08660325 -0.09499634 0.18474135 -0.076369666 0.23707868 0.07713996 0.042077914 -0.17720652 -0.010229372 -0.2779127 0.011671559 0.07789167 -0.29597476 0.05092009 -0.0015130454 -0.12059373 0.045498036 0.22241282 0.10157188 -0.08765091 0.021012666 -0.18245319 0.16538161 -0.04614117 0.2655161 0.043416288 0.07032087 0.12694846 0.23147163 0.18134667 0.04592847 0.22328132 -0.037414733 0.123818725 0.4900874 0.10733405 0.011330225 -0.13573919 -0.17383885 0.16458073 0.08704221 0.08880927 0.059100494 -0.03772045 0.17992255 -0.2366042 0.03266169 0.08809131 0.13265474 0.09984454 0.32218844 -0.016396834 0.29987094 0.043148644 -0.090227075 0.12889992 0.06327397 0.16449796 -0.13071318 -0.14613424 0.026776442 -0.40945482 -0.07102038 -0.014689978 -0.40780726 -0.32233083 -0.3479665 0.101997875
10 0.021306597 0.00824765 0.004258309 0.018466996 -0.011948343 -0.11828059 -0.05161444 0.12073579 -0.11386389 0.08244661 0.17849563 0.03782056 -0.10251037 -0.07003053 0.03516318 0.15730943 0.0024484233 -0.09634095 0.12914854 -0.030950975 -0.071716145 0.09992111 -0.0062620305 -0.10486476 -0.1133852 0.039705582 -0.008347466 0.02218892 0.06312634 -0.17107582 0.042738434 -0.33360967 -0.0030145857 0.0994132 -0.16330563 -0.034525275 0.08890737 -0.01689589 0.05458741 0.05515344 -0.06492035 0.14567012 0.14743964 -0.037201542 -0.018423121 0.02111798 -0.07045662 -0.022919998 -0.24452965 0.101183735 0.1436226 0.09732248 -0.08589348 -0.10137148 -0.026125422 -0.08126261 0.04430677 -0.09256594 -0.031944163 -0.063372165 0.08140792 0.08684779 -0.058822792 -0.01292728 0.18587182 -0.07849097 -0.10087658 0.08355737 -0.022066971 -0.12893973 0.08367501 0.018193834 -0.31385413 -0.1404303 0.038594972 -0.12774888 -0.0044700345 0.0021069765 -0.043013725 0.148366 0.041798722 -0.039415214 0.017872294 0.15562977 0.1524099 0.107407615 0.20189732 -0.010551943 0.12823127 0.090256765 -0.09345523 -0.08586589 0.13151611 -0.07613997 0.11268089 0.06591905 0.014950619 -0.15072067 -0.14927886 0.057361025 -0.066817716 -0.031717762 -0.20359421 -0.12085274 0.11219415 -0.22484192 0.013998677 0.08949922 0.16217469 -0.09866997 0.1366904 -0.112813026 0.13453946 0.035037763 -0.046526812 0.15361635 0.050652716 -0.0010551764 0.05771295 -0.057570897 0.0018517667 -0.047612928 -0.114878066 -0.069440454 -0.06580011 -0.18220727 -0.11540508 0.001365983
13 -0.059848692 -0.01561603 0.09312239 0.001769476 0.044248577 0.124960266 -0.0061307033 0.06895748 -0.11848561 -0.024034744 -0.049896386 0.05845615 0.03785134 -0.021541229 0.27417102 -0.0069678375 0.22209872 -0.2050578 -0.13268405 0.12273371 -0.03757878 0.16531886 0.058417086 -0.09716485 -0.11351835 0.26482916 -0.04846588 0.058658082 -0.06230986 0.010511362 -0.23960765 0.058244973 -0.2554765 -0.036844093 -0.0005135605 -0.084477775 -0.09086897 -0.09962451 0.05709502 -0.023452181 -0.16652946 0.23453093 0.055150986 -0.0020390393 0.0334276 -0.06808348 -0.10678872 0.0688824 -0.16788734 0.08611713 0.16863869 -0.13512078 -0.025378898 0.13888562 -0.08046106 -0.23415561 0.093088746 0.020092415 -0.12695505 0.08333994 -0.04497859 -0.011746985 0.081115484 -0.22381045 0.23021571 -0.047972877 -0.07024249 0.100243546 -0.04589314 -0.10151899 0.089571826 -0.16126119 -0.058085322 -0.01333364 -0.0053581554 -0.12470501 -0.09590333 -0.01677379 -0.10158053 0.22877873 -0.13425615 0.05226114 0.06151285 0.07672254 0.26608366 0.29963326 -0.016296225 -0.100446805 0.034909792 -0.022722907 -0.06495016 0.020396253 0.14906056 0.010769413 0.10002549 0.25719193 0.11910513 -0.111855 -0.023344163 -0.23698784 -0.07245434 0.16295844 -0.13080174 0.104751214 0.111147024 -0.19917229 -0.007408589 0.0029592835 0.27881345 -0.08725037 0.12504676 -0.24922921 -0.09463939 -0.010059999 -0.07070255 0.31812736 -0.032286692 0.19734615 -0.113313526 0.08745385 -0.095897496 -0.1524588 0.09124228 -0.11712584 -0.18043944 -0.34979168 -0.22056529 -0.14620107
15 0.06930205 -0.08432153 0.08903773 0.100423805 0.088671125 -0.051113766 0.040362377 6.523346e-05 -0.054128062 0.043276213 0.07902132 0.049041927 0.058829393 -0.2932913 0.10957694 -0.05528871 -0.013990685 -0.06348058 -0.15108505 -0.07282547 -0.010653747 0.16859278 0.0799612 -0.13306272 0.049614627 0.11484784 -0.028503276 0.17691077 -0.064051904 -0.007843079 -0.117209546 -0.020424254 -0.020229777 0.050675623 -0.07350057 0.001913457 0.09606166 -0.03657434 0.10039904 -0.14346522 -0.0756918 0.026415564 -0.049006097 -0.1687211 0.033846445 -0.0016963893 0.124051414 0.0440502 -0.030911416 0.11444403 0.10881953 -0.14107548 -0.029837709 -0.13492823 -0.11420781 0.04644727 0.15897259 8.594167e-05 -0.2528783 -0.0031045945 -0.053210117 -0.11674617 -0.015799036 -0.058072403 0.27960303 -0.091359586 0.117095605 0.00956927 -0.019142322 -0.02344378 0.003809394 0.021574795 -0.12310151 -0.06460209 0.06273436 -0.16276199 -0.10772993 -0.0037026503 -0.010944414 -0.020868948 0.017475985 0.023923129 0.023345273 0.21989205 0.046976972 0.19679984 -0.0751616 -0.2021427 0.10681432 0.121949516 -0.07370328 -0.042775515 0.19625087 0.04648161 0.06770159 0.2276442 -0.046458483 -0.21988195 -0.06299273 -0.24882212 -0.2125151 -0.030424384 -0.14800648 0.026595155 -0.07898572 -0.22799873 0.08215516 -0.07395534 0.020730311 -0.13659842 0.14635047 -0.18386522 0.08815108 -0.060688276 -0.0015671577 0.13784416 0.0056523946 0.110348485 0.1565823 -0.073899 -0.12503739 -0.025933057 0.00084717013 0.026247181 -0.018207043 -0.10376296 -0.21018665 0.004287217
16 0.017710855 -0.059330072 0.021824352 0.049044345 0.14164232 -0.13349219 -0.012613359 -0.012750609 -0.032339375 0.10006111 0.10413992 0.05977939 -0.09717541 -0.034555648 0.09744601 0.033267003 0.0201519 0.017899035 -0.047486592 0.04673593 0.049425267 0.08476399 0.0048622163 -0.108934075 -0.11090478 0.060751993 -0.15119766 0.114057556 0.012510833 0.054855492 0.048701975 0.05068462 0.06484002 0.085833594 -0.0477559 -0.03418821 0.23804146 -0.048680883 0.17757466 -0.09322825 -0.052926328 0.062246937 -0.0818791 -0.12261926 0.052886724 0.061024223 -0.12775189 0.038793936 -0.089290366 0.12000435 0.14354928 -0.019889435 0.05809813 0.101810895 -0.042204805 -0.051540982 0.08721919 0.00015047796 -0.07086179 0.08118067 -0.058296863 0.00082765316 -0.053250164 -0.07225267 0.10866966 -0.01737593 -0.00691932 0.02706006 0.06817889 0.0058196373 0.0549235 -0.13019729 -0.1758942 -0.15778068 0.032232285 -0.19916052 -0.043495953 0.03149187 0.010968341 -0.011676346 0.0010539829 -0.06769149 0.08668198 0.24777065 0.11745732 0.11287058 0.030543514 -0.076366015 -0.012497626 0.07174138 -0.035377465 -0.044553727 0.09465128 -0.03386278 0.17851044 0.0554799 -0.15294284 -0.2581507 -0.028381476 -0.0027908771 -0.14340971 -0.02437597 -0.09525887 -0.023398997 0.1267519 -0.15404458 0.060787838 -0.004540076 0.18352838 -0.119636014 0.107751355 -0.13871847 0.07535874 0.06578151 -0.07595758 0.15101598 -0.005043779 -0.013446607 0.06720243 0.037502848 -0.15526788 -0.08804517 0.06592015 0.116221644 -0.13538544 -0.11875782 -0.026954997 0.07841842
17 0.22025694 0.087445885 0.00047779613 0.14546017 -0.06935173 0.030958002 -0.01774865 0.26801473 -0.19226754 0.19719844 0.032170698 -0.17953736 -0.002721327 -0.1638027 0.014144982 0.0023522445 -0.15265127 -0.07536825 -0.030971354 0.00085126446 -0.056606982 0.023631146 0.14659558 -0.1942869 -0.006128142 0.03308456 -0.14434756 0.11085655 0.0035900713 -0.084692575 0.025438668 -0.20058873 0.00493242 -0.07976468 -0.030317867 -0.020075036 0.09393104 -0.094366975 0.06254578 -0.054015294 -0.20896016 -0.14958222 0.08488715 -0.055177305 0.010434376 0.19257346 0.083669886 0.086193666 -0.12945053 0.24261029 -0.0025590458 0.12623858 -0.19970302 -0.22651847 -0.28198907 -0.2917075 0.0823907 0.11745458 -0.10563077 -0.059796877 -0.22040942 0.025710834 -0.11517552 -0.10530108 -0.07380274 0.05082205 0.21139994 0.26389015 -0.029958475 0.0069156815 0.03818305 0.079713285 -0.32760412 -0.23552701 0.110138506 -0.02970372 -0.06336277 -0.024146196 0.09163779 0.027404059 0.0046067187 -0.038041737 0.258673 0.24012525 0.16921586 0.060486335 0.11007295 -0.08888642 0.22692035 0.08098514 -0.016406152 0.1410553 0.31145933 0.12644044 0.24922289 0.11916718 -0.07614443 -0.38564527 -0.064081065 -0.009188981 -0.16448049 0.027287794 -0.16373487 0.059039928 -0.06412973 -0.107627235 -0.0008197555 0.19562514 0.15812282 0.017310519 0.03524084 -0.10832678 0.015324254 -0.0008849785 0.011861867 0.03471297 0.18421893 -0.052381113 0.050717708 -0.046298802 -0.06438252 -0.020330528 0.2011224 -0.11158703 -0.1730655 -0.29388866 -0.09260988 -0.041431695
18 -0.043197826 0.097017795 0.0056030606 -0.08110935 0.05403804 0.03283007 0.07703216 -0.027643438 -0.057869677 0.096235774 0.10551175 -0.030595 -0.072656736 -0.06561345 0.061679114 0.07392934 -0.052096657 -0.009856849 -0.0335051 -0.095687956 0.010620545 0.04853939 0.077026695 -0.20123889 -0.08976934 0.1451756 -0.067264915 0.087956205 -0.0013063399 0.014812521 0.04821704 -0.036783043 -0.10656946 -0.017227795 0.011806082 0.13947833 0.2753788 0.16102374 0.07127666 0.009789233 -0.110731505 -0.023315854 0.11998855 -0.16719839 0.06991049 -0.09833435 -0.09488684 -0.15073599 -0.21937393 0.00040427048 -0.0056659593 -0.027811518 -0.020898936 0.14432903 0.08279541 -0.054422308 0.052238394 -0.1873965 -0.12330144 0.13360508 -0.05010411 0.08642179 -0.012649896 -0.0572768 0.1511289 -0.026034793 -0.16119304 -0.06450442 -0.050661393 -0.050553244 0.0049162493 -0.0850001 -0.27679434 0.033800185 -0.10791678 -0.10759293 -0.038387883 -0.01716806 0.028600102 0.118463725 0.15300243 0.004376586 -0.011883393 0.26338604 0.1626588 0.09621859 0.08246038 -0.01981695 0.14015342 0.10591834 -0.0657882 -0.0007099784 0.3084411 0.0640698 0.105368875 -0.06928903 -0.18648656 -0.09673979 0.0011536848 -0.141034 -0.13892798 0.060944494 -0.13022287 -0.095258825 -0.04164511 -0.07660438 0.060948584 -0.14055033 -0.058336396 -0.1983212 0.12178463 -0.20011425 -0.022549355 0.050630357 -0.03655302 -0.06387561 0.1457273 0.10069141 0.02658778 0.086628355 -0.063024655 -0.122591995 -0.12845413 0.03690865 -0.08425597 -0.16937424 -0.17712335 -0.12807748
19 0.026621329 -0.03371571 0.02783279 0.11503195 0.15664554 0.108168036 -0.04682518 -0.016582798 -0.07081965 0.048334986 -0.0043770666 0.046695586 0.09012593 -0.010848676 0.080066025 -0.013284905 0.107652225 0.05109523 -0.050727833 0.005751866 0.15792525 0.15186395 0.04079885 -0.09017899 -0.15011181 0.17358685 -0.17549026 0.21030289 0.022723345 -0.12655236 0.12873515 -0.05668722 0.10813392 -0.02024001 -0.014276716 -0.12099576 0.33738407 -0.040671214 0.101841845 -0.088651955 -0.16359907 0.05461464 -0.058563173 -0.15924768 0.011335735 0.07845642 -0.079791255 0.18738502 -0.32079053 0.12696594 0.103905044 0.10323355 -0.044483583 0.123907775 -0.08339329 -0.13591407 -0.0669122 -0.14694415 -0.17754124 0.102570586 -0.060810026 -0.065819554 -0.02081241 -0.11792 0.10074165 -0.018507708 -0.058383256 -0.09901063 0.15394458 -0.05928758 0.045889165 0.09373905 -0.07869501 -0.12723182 0.003408927 -0.1288767 -0.10981179 0.026136857 -0.010153163 0.06643895 0.08283299 0.030934507 0.05802242 -0.009765277 0.11312465 0.14996426 0.107126765 -0.10460245 -0.009083891 0.008118755 0.04604382 0.004537832 0.025149072 0.12085425 0.2624833 0.020098587 -0.071701854 -0.09095767 -0.11714552 0.064354695 -0.119815364 -0.03325911 -0.051019862 -0.11477931 -0.09651226 -0.15372129 0.016403113 0.018855557 0.20462126 -0.09077237 0.13161016 -0.22777453 -0.016138462 0.094987094 -0.029558279 0.1727088 -0.05708894 0.0648444 -0.0640114 0.095954135 -0.038077418 -0.047906917 0.14303057 -0.062231284 -0.17141849 -0.06753142 -0.23578274 -0.058181692
27 0.08410037 -0.20407353 0.08406531 0.13816732 0.068670526 0.07350977 0.14379625 0.11365311 -0.18871266 -0.015728293 0.10805788 -0.03765965 -0.13487792 -0.097752236 0.17509796 0.06820724 -0.09020434 -0.13287343 -0.07253166 0.047900066 -0.081655376 0.09277132 -0.16743478 -0.28422612 -0.1795768 0.08419719 -0.034496438 0.08668117 0.0435255 -0.10701653 -0.057044815 -0.18460181 0.05768069 -0.04168844 -0.12523945 0.00017449225 0.24649677 -0.03639179 0.02368388 -0.063402824 -0.033711765 0.012652734 0.022978237 0.050018996 0.06583669 0.07036115 -0.04927024 -0.019899616 -0.17465398 0.050244942 0.14569783 -0.14558192 0.09621136 0.027779281 -0.031374022 -0.14591497 0.11736369 -0.04940666 -0.051092025 0.053759936 0.018758297 -0.04382002 0.12012159 -0.0999482 0.11164855 -0.17428377 -0.041826185 0.032351986 -0.06803844 -0.07615982 0.09228892 -0.13879824 -0.309103 -0.098119885 -0.017973425 -0.096103795 -0.004485402 0.025894467 0.00533187 0.0966313 0.09720734 -0.10323356 0.07142607 0.17247923 -0.032405894 0.13290511 0.109381266 0.04075697 0.08065651 0.1287784 -0.164785 0.06371661 -0.028877089 0.03712186 0.12871264 0.080101974 -0.06888278 -0.19195351 -0.15597057 -0.11488621 0.11412393 -0.07874748 -0.13462812 0.028601719 0.15080884 -0.026573619 0.18967679 0.030701125 0.117718264 0.05458265 0.012439588 -0.06323516 0.07367352 0.01083171 -0.07873402 -0.023749268 0.0017602199 -0.010323641 -0.005372714 0.15161712 -0.10107316 -0.07068844 -0.052174896 0.07177763 0.010413947 -0.035648294 -0.10284425 0.12905645
28 -0.08681819 0.19319871 -0.14255781 -0.18231219 -0.41529405 -0.04155088 -0.09955901 -0.28680214 -0.07732389 0.09954782 -0.09521498 -0.1039473 -0.113187015 -0.021188678 0.077211656 0.124613576 0.016164001 -0.14267047 -0.11725444 -0.09534896 -0.14938991 0.20251797 -0.18069282 -0.031442996 -0.09788518 0.102972135 0.043177746 0.19360594 0.042985346 -0.2510783 -0.15044223 -0.04789557 0.031656224 -0.0034764046 -0.17771703 -0.0143143255 0.3814785 0.11065673 0.17002688 -0.21823797 -0.04940446 0.18538418 -0.05592377 -0.2274729 0.031593226 -0.14647421 -0.21190025 -0.2403825 0.088491626 0.12636818 0.063850686 -0.052971695 0.044250693 0.021733819 0.05147772 -0.303728 0.092922896 -0.2989864 -0.05626882 -0.12635186 0.048283964 -0.024374822 0.052098505 0.10247815 0.25174153 0.0173198 0.032424662 -0.15391752 -0.010032999 -0.20774572 -0.013172919 0.23016721 -0.20371816 0.036429875 -0.19901347 0.016840234 -0.066292696 0.06539523 0.26574796 0.11249752 0.22885591 -0.2366063 0.13581908 0.055579484 0.26502058 0.009115016 -0.090337634 0.110322006 -0.044287827 -0.031711023 0.10044036 0.020197697 0.25206056 0.11663978 0.32710305 -0.06454314 0.017908942 -0.11130124 -0.27555823 -0.052660435 -0.056199852 0.17887624 0.15293257 0.06315737 0.18087156 -0.2740433 0.0067500286 0.08403849 0.17115512 -0.112545945 0.42745912 -0.09129457 0.15589873 0.3157579 -0.1635645 0.022627918 0.17488095 0.060237356 -0.11975369 -0.009949022 0.13204558 -0.06666453 -0.052824482 0.04029166 -0.26124364 -0.17181349 -0.23774362 0.17112847
30 -0.030199809 -0.035987053 0.13358171 0.14092216 0.13333252 0.027504534 0.025719786 0.0036258125 -0.16163006 -0.06918606 0.070464365 0.025770428 -0.07974823 0.0031087808 0.19861211 -0.012605056 0.051977962 0.061069075 0.039462894 -0.053499382 0.043880012 0.1368591 -0.07932998 -0.12373507 -0.21368864 0.082145065 -0.062203407 0.07848695 0.105913065 -0.17715828 0.06640022 0.19766907 0.07536422 0.10310892 -0.1465956 -0.061295915 0.13050473 0.07073476 0.11910983 0.041290723 -0.058617912 0.12423457 -0.080483235 -0.046929266 0.059244283 0.09018539 0.04550612 -0.039362554 -0.28766412 0.046139065 0.114620015 -0.068465956 0.07267322 0.070393234 0.104400806 -0.042450964 0.010090618 -0.06414459 -0.13512655 0.06256006 -0.060440402 -0.10056232 0.041231107 0.0739627 0.1278111 0.07992835 -0.044933997 -0.13430585 0.12636952 -0.098204575 -0.048750743 -0.038242795 -0.2032735 -0.033737835 0.055630956 0.0052609434 -0.013165649 0.13866307 0.037176233 0.0015563939 0.14570343 0.060997754 0.07255483 0.124040276 0.028546713 0.24434502 -0.027949668 -0.09094355 0.27150822 0.13923435 -0.15485217 0.08448615 0.013568086 -0.015346033 0.17519079 0.13001306 -0.15789074 -0.11164813 -0.029310724 -0.012684839 -0.09593309 0.11794759 0.085790984 -0.09926882 -0.028808594 -0.03126517 0.11071992 -0.11458217 0.09417814 0.011112949 0.1702538 -0.21948157 0.09278851 -0.023883052 -0.09622728 0.12656459 0.08131762 -0.1070579 -0.0815641 0.23899096 -0.0886163 -0.10827733 0.08434631 0.14271614 -0.15127787 0.05204702 -0.17309664 0.16227399
36 -0.043371666 0.03892963 0.10652368 0.04678405 0.055618428 0.0052043293 -0.04739006 0.10429867 -0.22106814 0.14764404 0.067044176 -0.090219885 -0.13519885 -0.19000296 0.06501364 0.16313094 0.11582275 -0.21421063 -0.24525729 -0.028296368 -0.2223142 -0.05062623 -0.25176883 -0.35166728 -0.12578206 -0.16971327 -0.20943825 0.09871249 -0.014848376 -0.31516618 0.10002648 -0.23876652 0.08324415 0.31654394 0.08027967 -0.13168211 -0.0143914195 0.0933153 0.2313766 -0.17357138 -0.1024747 -0.040466525 -0.15338641 -0.03767881 0.11616557 0.14193314 -0.15845051 0.15326779 -0.18485957 0.037099708 -0.06809578 0.20218378 0.07696654 0.14904684 -0.16370066 0.0049675703 0.03561715 -0.08055627 0.04823742 0.19928941 -0.03808344 -0.043640006 0.18723409 0.23885189 0.019604584 -0.13297497 0.04924651 0.12282627 0.08534313 0.09196717 -0.14352767 0.075423606 -0.0674571 -0.06262155 -0.0071844333 -0.0865872 -0.038374763 0.13109514 -0.28395778 0.107519574 -0.15210475 0.1999261 -0.003010416 0.39283857 0.12935553 0.2652544 0.069223925 -0.10174646 0.16354775 0.10835252 0.06720078 -0.26055947 -0.09945939 0.06560071 0.19054863 -0.19847138 -0.2497589 -0.07109372 -0.2701259 -0.13031875 0.114764795 -0.260995 -0.030674206 -0.0024309275 -0.009252714 0.07762685 -0.11194676 0.08774806 0.15366475 -0.05710377 0.35948354 -0.11151166 0.0155084785 0.1322891 0.0019669137 -0.050923184 -0.037688196 -0.19080167 -0.12813933 0.22828355 -0.08935466 -0.21150537 -0.12098971 0.092135645 -0.32293925 -0.097034484 -0.09904166 0.07273541
46 -0.09611776 -0.058227338 0.20589203 0.2475945 0.13996392 0.07758188 -0.16253127 0.057590507 -0.30435768 -0.007644313 -0.014013663 0.14382376 -0.23857965 -0.12716945 -0.013452598 -0.05755343 -0.21445954 -0.07713797 -0.023024669 0.05318023 0.0021187132 0.050515797 0.18096273 -0.34801042 -0.3060717 0.17207387 -0.03983692 0.29532096 0.031201374 -0.16099028 -0.00083461404 0.13093272 -0.053321086 0.3543246 -0.3122366 -0.042290613 0.31871727 0.051982213 0.012374411 -0.0010430273 -0.12164943 0.24689007 -0.03519649 -0.109810054 0.14975365 0.1511336 -0.1838429 -0.13368778 0.11017499 0.18031332 -0.08156743 -0.0719796 0.062175866 0.054017242 -0.06412124 -0.06574492 -0.09568362 0.10028776 -0.11533336 -0.10140806 -0.001891739 -0.09801964 -0.002081138 -0.014651652 0.16974168 -0.06450585 0.25683668 -0.03154152 0.06074888 -0.114891805 -0.13406233 -0.07139043 -0.3345263 -0.12544535 -0.16171046 -0.07862511 -0.02301655 0.21625905 0.09582002 0.17669523 -0.10275222 -0.04019851 0.18472773 0.044598583 0.2904064 0.0748293 -0.005857174 -0.11151468 0.1757845 0.25957787 -0.23536669 0.109649934 -0.23080963 -0.058833342 0.11485323 0.18600218 -0.13639462 -0.007492281 -0.14214262 0.035132483 -0.12418363 -0.22416359 -0.18007061 -0.023666102 0.03780669 -0.020259593 0.046196986 0.002668975 0.085869625 0.25967127 -0.07919306 -0.012842549 0.087570965 -0.16465904 0.04618314 0.20559263 0.031176852 -0.008604951 0.046801925 0.031188207 0.099899136 0.104674675 0.09570099 0.09196252 -0.15620372 -0.2186677 -0.07481987 -0.073164366
49 -0.015273931 0.07384591 0.066836946 -0.033384364 -0.1758889 -0.17836034 -0.27552915 -0.10386078 0.08022426 -0.002683546 0.2076484 -0.09941569 0.07412522 0.059080675 0.08013111 -0.08839913 0.032777064 -0.2554492 -0.13315028 -0.24583541 0.06371249 0.05086086 -0.052366376 -0.0764511 -0.3621705 0.030296208 -0.1297348 0.15027039 0.1938109 -0.23612072 -0.13244592 -0.12011594 0.1141623 0.062616736 -0.101825915 0.2013014 0.13218166 0.19933723 -0.08161167 -0.10113323 -0.048502646 0.2823173 0.057800673 -0.17030518 -0.0064285253 0.10573115 -0.049502216 0.03728048 -0.16777357 -0.020453857 -0.11952748 0.16703436 -0.019196512 0.06418951 -0.1609815 -0.09298578 -0.1089664 -0.034716528 -0.034007765 0.061843798 0.095103376 -0.040167034 -0.014906461 -0.010132676 0.080388 -0.28574985 0.06868507 -0.18928982 -0.05872945 -0.02810038 -0.094975814 -0.035325833 -0.19393218 -0.16576494 0.25999653 -0.16698939 -0.07588314 0.08985922 -0.042793274 0.100098915 -0.10367375 -0.028496351 0.11737298 0.17237334 0.14479633 0.033443682 0.16468565 -0.093908675 0.12929274 -0.060995616 -0.16706194 0.19199851 0.09201244 0.09190565 0.19958153 -0.10768045 -0.041326657 -0.15559323 -0.29927772 0.021284088 -0.29170847 -0.09931109 0.07574528 0.04023908 0.2614839 -0.03226226 -0.00831983 -0.07973546 0.17331962 0.040723257 0.071539626 -0.06670552 0.11515559 -0.028028235 -0.051144537 0.18649057 0.13791855 -0.20446958 -0.028937953 0.16826522 -0.14224938 -0.22479363 0.012821694 -0.2779935 -0.078018084 -0.19719331 -0.25564483 -0.16303064
50 0.035871007 -0.009421146 0.014955251 0.031196477 0.07464121 0.117222995 -0.057203904 0.099855654 -0.078440845 -0.092839316 0.19532181 -0.14284942 -0.13514294 0.096960224 0.035535224 0.18593116 0.029696142 0.030842006 0.18832399 -0.0064214948 0.12700756 0.13094114 -0.043794714 -0.23144625 -0.06747368 0.06958772 -0.04710856 -0.08701832 0.06497098 -0.029474093 0.020748522 -0.06440427 0.055353623 0.09666688 -0.25027347 0.04868713 0.20897655 0.033982195 -0.042109113 0.07090035 0.04624154 0.08028118 0.04947975 -0.097794175 0.04287275 0.09698942 0.0065074833 0.122311994 -0.2013125 0.079420276 0.25848323 0.04893763 -0.10843291 0.06259376 -0.10863241 -0.024642846 0.04500923 -0.027817046 0.0043663927 0.07895635 0.004148869 0.013421289 0.003075674 -0.05063477 0.16020654 -0.037360087 0.015196587 -0.18881758 0.07058079 -0.08757593 0.09881514 -0.2215717 -0.31794795 -0.06576294 -0.08040786 -0.03849516 0.07425338 0.08421127 -0.02679485 0.01000659 0.023934143 -0.1152331 0.08680669 0.15902816 0.09827847 0.19370921 0.15773988 -0.22245227 0.1530195 0.08653253 -0.15153275 0.007623872 0.08846082 0.060608894 0.20235638 0.15594552 -0.0056695286 -0.08561206 -0.103934206 -0.09691381 0.006872812 0.09061348 -0.09283578 -0.08252952 0.21416664 -0.20689669 -0.076057486 -0.055629805 0.17758828 -0.025984671 0.1927564 -0.14929163 -0.014053976 0.027699944 -0.16670077 0.068439476 -0.050214354 0.021608533 0.07107652 0.0054269605 0.012131815 -0.09389754 -0.19806616 -0.007259469 0.005212302 -0.08096556 -0.14550187 0.16288188
51 0.133574 -0.08780967 -0.15662126 0.044167835 0.11724304 -0.054200497 0.17374957 0.084194995 -0.21434353 0.35924435 0.17189834 0.009604243 0.102242306 -0.21546377 -0.092410825 -0.097726405 0.004701463 -0.08970516 -0.109851055 0.07680865 -0.06338003 -0.074582815 -0.08685386 0.07496151 -0.10573088 0.078340985 -0.2106779 0.09234195 -0.06821859 -0.093347214 0.084616646 -0.13275278 -0.009682017 0.15219381 -0.12531027 0.10187309 0.38840342 -0.3661733 0.10598307 -0.3460128 -0.245066 -0.0024699504 -0.07519068 -0.13339375 0.09625032 0.03762066 -0.061179854 0.070386134 -0.19412673 0.23848785 0.02439749 0.18517461 -0.22830276 -0.21453702 -0.1219354 -0.17454036 0.20404209 0.061510213 -0.20119227 -0.1128909 -0.20477411 -0.06720893 0.103547715 -0.2014226 0.19542076 -0.18960175 0.2158534 -0.0025951574 0.2364955 0.037808117 0.011532947 0.07042612 -0.0919845 -0.051069327 0.08150974 0.03590319 -0.15109536 0.086955644 0.0645383 0.035719495 0.1870863 -0.019660512 0.15713158 0.41772968 0.018165652 0.24214393 0.14167494 -0.22641195 0.061812863 -0.07027947 0.18346845 0.021867204 0.30416667 0.15389289 0.16347742 0.019387864 -0.017068142 -0.16780955 0.09148408 -0.09787108 -0.15252788 -0.17572796 -0.3169984 0.08594997 0.121546 -0.102915116 -0.064813115 0.11016512 0.16872743 0.04000253 -0.044512134 -0.2755138 -0.011362591 0.24216868 -0.07606217 0.050504155 -0.16852874 -0.050991256 0.014295143 0.061302926 0.11028635 -0.009050509 0.061002575 -0.14149134 -0.005511922 0.032107607 -0.008524888 -0.02527479
53 -0.028351031 -0.08419953 -0.22890005 -0.015009197 0.16498376 -0.29059124 0.14717191 -0.05374841 -0.25960338 -0.008814815 -0.073226236 -0.1279117 -0.18546164 0.1134315 0.090989925 0.009577564 -0.066877745 -0.2722672 0.0051281136 0.33025947 0.16874349 0.057511423 -0.08160514 -0.23099867 -0.050813965 0.33889166 -0.010892544 -0.060194373 0.016653985 0.051041625 -0.16705306 -0.10002831 -0.06334604 0.10123346 -0.24380317 -0.13813879 0.1661695 0.16007525 -0.07440587 -0.38058197 0.16164754 0.04313567 -0.025195874 0.15801598 0.11462293 0.10181338 -0.1183838 0.042805646 0.04989878 0.035673294 0.10721454 -0.16477436 -0.11350356 0.09034405 0.039218113 -0.0890415 0.0038003458 0.028319133 0.15045005 -0.036112968 0.047992088 0.07022808 -0.29819623 0.13508941 0.07555982 -0.052440062 -0.04247596 -0.0068573374 0.064042225 -0.08615997 0.12288806 -0.29558876 -0.02881222 -0.115355454 -0.021573035 0.09849128 -0.11336972 0.06167784 0.0053255013 0.14195803 -0.13801198 -0.1646507 0.029595222 0.37168023 0.06028342 0.021795329 0.15310708 -0.1446542 0.15279372 0.112731084 -0.14005286 -0.30293256 0.24444434 0.23096909 0.21786697 0.19271839 -0.19805619 0.02464215 -0.1971592 -0.20119219 -0.030183718 0.006386434 0.032068226 -0.048435472 0.09625906 -0.34246048 -0.0008282122 0.031069072 0.22438961 0.014914437 -0.022338182 -0.23307246 -0.06893899 0.22704291 -0.29591605 0.024863513 0.051799383 0.04925815 0.07443473 0.26818597 -0.04952681 -0.023350947 -0.21339019 -0.05420459 -0.18297538 -0.10813887 -0.17846514 0.16882084
54 0.006010499 -0.084982954 -0.043734644 0.22125451 0.062426127 -0.04406334 0.14516518 0.061504155 0.03690081 0.01997088 -0.043895654 0.025237031 -0.15101445 -0.027931882 0.14814317 0.08763855 -0.019260209 -0.10719322 -0.017125241 0.12338695 0.12942076 0.18616965 0.020990882 -0.08570584 -0.11441322 0.12243128 0.012703713 0.16449687 0.01754582 -0.14357162 -0.07721389 -0.12391719 0.10345597 0.034012184 -0.118183255 0.018941803 0.14970365 -0.11479652 0.15285933 -0.079676166 -0.019458298 0.022512866 0.029278954 0.07958889 0.06512897 0.21125709 0.060675707 0.064212054 -0.19275184 0.18944588 0.020811893 0.022004602 0.083770506 -0.026538972 -0.021409998 -0.009355055 0.2190024 0.018544456 -0.075129956 -0.13730647 -0.06908847 -0.12500905 0.0154933175 0.11625081 0.029395035 -0.15775643 0.028867243 0.03669681 -0.006329869 -0.09731537 0.12223201 -0.06583107 -0.12095835 -0.1137701 -0.05079722 -0.122087054 -0.101349846 -0.038550086 0.053714026 0.04714892 0.06393024 -0.16794868 -0.0066586365 0.27450255 0.0032620286 0.093444996 0.03951223 -0.16707717 0.2973629 0.065804616 0.008005301 -0.010870178 0.2595307 0.073242724 0.20279391 -0.056321926 -0.0050086346 -0.17760652 -0.1241344 0.05749396 -0.18452685 0.07458126 0.0068546627 -0.08283655 0.049162585 -0.2378535 0.07514247 -0.0010864106 0.04639765 -0.0531587 -0.068307765 -0.18831173 -0.08834787 0.044610057 -0.15585355 0.14837798 0.16775222 0.19190547 0.032752972 -0.07666823 -0.022555469 -0.062102694 0.07470019 -0.08474512 -0.25465864 -0.02191295 -0.10440967 -0.019987136
59 0.001363579 -0.0739214 0.05705602 0.2043076 0.02431703 -0.007828094 0.06315318 0.16702822 -0.100068755 -0.2133876 0.0788146 -0.101000264 -0.03393153 -0.005043107 0.11690774 -0.039078984 -0.031939387 -0.1781023 -0.12546101 0.05321517 0.16288778 -0.029962977 -0.0638608 -0.16930375 -0.09468658 0.115888275 0.033911165 0.050637476 0.0072039543 -0.015290144 -0.06307417 -0.101986915 0.079496875 0.072813734 -0.005529942 0.1548076 0.37015456 0.12466054 0.023222785 -0.11676081 -0.025254529 0.07135063 -0.0012305029 -0.10587497 0.13317277 0.11939832 0.085209586 0.0503459 0.0266372 -0.008956461 -0.01713213 0.12644671 -0.10102443 0.0520465 -0.14102346 -0.021410469 -0.020263502 -0.13669229 -0.014957438 0.11919375 -0.014134289 -0.1287219 0.04374301 -0.03281571 0.040030114 -0.17137429 0.11328786 -0.08162255 0.061247725 0.020655489 0.04386741 -0.10247982 -0.109955385 -0.10079633 0.18964526 0.019651325 -0.059226662 0.11726473 0.076046206 -0.0028268385 -0.08117325 -0.14735614 -0.14373659 0.23110624 -0.0053141285 0.07154678 0.095649295 -0.023610037 0.08673332 0.018295439 0.023583965 0.04942921 0.172032 0.049405046 0.21712354 -0.08436738 -0.19822946 -0.24765511 -0.23367748 -0.10425559 -0.13681576 0.07038413 0.0649464 0.053337485 0.061857346 -0.13109727 0.17666137 -0.07289157 0.22288102 -0.013107376 0.15918462 -0.08565756 -0.008800097 0.077982105 -0.11621851 0.081106916 0.027888943 -0.17222781 -0.012945546 0.13863143 -0.14276502 -0.088993855 0.076637045 0.055901576 -0.07835069 -0.17416471 -0.18411806 -0.06007724
62 0.014718322 0.17916426 0.03936813 0.28004053 0.045275 0.026732547 0.02165117 -0.04922107 0.15865442 0.046035435 -0.033785645 -0.09486871 0.1361674 -0.085807934 -0.02493733 -0.091937676 0.01060126 -0.06128826 -0.14364018 0.06055183 0.0432348 0.012642107 0.0009236674 -0.073109895 -0.343539 0.10159637 -0.08502726 0.3067668 -0.04608146 -0.01909879 0.030157758 0.005254444 -0.025496366 0.17579572 -0.12979351 -0.048662364 0.012673473 -0.065536596 -0.027916482 0.08424569 0.036297936 0.0046151173 -0.001017352 -0.019350657 0.10671513 0.26194015 0.001086106 0.23687053 -0.34362072 0.08561499 0.12885633 0.062522806 0.051067352 -0.009151956 -0.09476408 -0.067686215 0.18588066 -0.17425492 -0.27215853 -0.014518992 -0.24297632 -0.16541292 0.058721013 0.12166722 0.1882008 0.06818213 -0.07562712 0.024019472 0.067476496 -0.00050571817 -0.03866416 0.0033789824 -0.21920674 0.041626506 0.13443226 -0.18838175 0.0049540955 -0.035633057 0.07837857 0.06289704 -0.11298478 -0.04425061 0.013380757 0.13399026 -0.016381104 0.18728991 0.036014225 -0.084459685 0.16260062 0.03565657 -0.20762607 0.063417956 0.18025272 -0.057619594 0.16424473 0.014103323 -0.12026186 -0.23520221 -0.08647323 -0.14518604 -0.012625077 -0.025528768 -0.06923912 -0.031263784 -0.0732343 0.057171598 0.21114741 -0.21966222 0.07895371 0.048565686 0.21151473 -0.24192151 -0.07896779 -0.08391439 -0.0048204837 0.17962967 0.17257638 -0.12702577 0.18525639 -0.058722354 0.03177835 -0.19161907 0.17572756 0.23055497 -0.14411092 -0.2500525 -0.2256646 0.068639465
66 -0.037976265 -0.030868102 0.013889441 0.16912793 0.07341383 -0.11536264 0.08977248 -0.013942578 -0.13899381 -0.002540254 0.09305108 -0.13539857 -0.18907554 -0.18618259 0.17338687 0.15042631 -0.06486731 -0.12615769 -0.16407853 0.0046027587 0.009135481 0.012593867 -0.17688909 -0.2330996 -0.30096075 0.12647781 -0.078067504 0.22667064 0.048479103 0.055281036 0.07853213 -0.11503344 -0.019171579 0.008404677 -0.1344683 -0.0911202 0.17856985 -0.06294789 0.03860523 -0.09833511 0.0656308 -0.0783122 -0.12356497 0.09664661 0.034295097 0.114310294 0.07149151 -0.051298082 -0.20167977 -0.10016401 0.17100878 0.095085114 -0.0002218903 0.08352949 -0.014836428 -0.17031126 0.23623632 -0.0033924405 -0.037716907 0.10463356 0.15124652 -0.14913864 0.08981836 -0.08895962 -0.06726019 -0.11898869 -0.16981004 -0.030972008 -0.21106102 0.09444342 0.054942112 -0.18216409 -0.118953176 -0.047138035 -0.06280578 -0.07206044 -0.18333139 0.018309033 -0.08993878 0.1376882 0.2176065 -0.01789929 0.099281706 0.16943727 0.09110524 0.13362788 0.10961322 0.009353878 -0.014083934 -0.015725309 -0.28416586 0.046510063 -0.0394947 -0.0035764915 0.062237263 0.10390982 -0.060819842 -0.122575395 -0.13325815 -0.005982127 0.09586673 0.17994995 -0.09171626 0.07525927 0.18492682 -0.082349196 0.14339095 -0.03907438 0.14961587 0.0019660138 0.11591287 -0.007742916 -0.015572839 0.20884736 0.02525879 0.11831753 -0.05925084 -0.13439095 0.14891864 0.14010222 -0.27664942 -0.110697016 -0.03910532 0.09602208 -0.14113645 -0.1500122 -0.10379458 0.023479369
70 0.046802104 -0.055802766 0.0044748583 -0.008557291 0.1385088 -0.049358115 0.0402863 -0.0061324183 0.013889323 -0.09985904 -0.031845137 -0.015594884 -0.1480718 -0.050109915 0.09230768 -0.03291822 -0.09710636 0.015483725 -0.120814346 0.058132187 -0.022396311 0.15834174 0.030821625 -0.21740751 -0.27089864 0.04464913 -0.16633153 0.13704525 0.06633986 -0.026094118 0.0856685 -0.15026832 -0.13442715 0.13756569 0.054806046 -0.019344186 0.25111267 -0.0021332346 0.11745142 -0.11006829 -0.13140745 -0.108272485 -0.027641445 -0.027944678 0.14724794 0.04369704 0.00712232 -0.078203194 -0.13700394 0.065845974 0.1311868 0.044952318 -0.036896866 0.078731045 -0.035231803 0.014075153 0.16348968 0.10229984 -0.10434616 -0.08969042 0.06771266 -0.05712514 0.0688546 -0.17186569 0.11213499 -0.032763757 -0.10749403 0.069874346 0.006597382 0.022975415 0.08981019 -0.23174468 -0.3144856 -0.05531991 0.08766282 -0.19591369 -0.032372832 0.06441263 0.0389775 0.10606221 0.10392442 0.099496596 0.011208331 0.2555645 0.16392162 0.15615678 0.08973106 -0.1002779 0.11652603 0.034878258 -0.13490513 0.056333683 0.061691042 -0.013737894 0.22655927 0.051247224 -0.014654232 -0.12992606 -0.020858116 -0.08280122 -0.0522832 0.018828131 -0.15774527 -0.031253822 0.1758823 -0.09574371 0.041136164 0.13349673 0.23229127 -0.0937343 0.13889095 0.058364403 0.015852282 0.08041032 0.0339723 0.039933104 0.008680549 0.00038150023 0.1073075 0.03580992 -0.18032558 -0.01013643 -0.027254846 0.050756294 -0.11092392 -0.05027218 -0.05990565 0.11595869
71 -0.0056272103 0.014608275 0.027476056 -0.022821607 -0.18183446 -0.041929897 0.009331495 0.07189319 -0.17878516 -0.0401859 0.1254088 -0.017472718 0.044412658 -0.23166157 0.14346324 0.20509857 -0.010252495 -0.0750535 -0.07041107 -0.020208674 -0.11196534 0.076864436 0.02917875 -0.19362612 -0.15169312 -0.106456235 -0.059029263 0.122770965 -0.06392252 0.07887021 0.063244574 -0.18182953 -0.12209015 0.10577257 -0.115689315 0.07203219 0.30272052 0.16691558 0.09334793 -0.047735717 0.061076757 0.028331256 0.11170747 -0.0019146698 0.08622044 0.10395991 0.18403803 0.05314082 -0.052088205 0.084480755 0.011658772 -0.013219949 -0.1266897 -0.06758882 -0.042983588 0.04517584 0.17375582 0.038731553 -0.035129596 -0.018426474 -0.1285552 -0.05103544 0.0049615493 -0.021891043 0.10155319 0.010261844 -0.17015283 -0.00024111159 -0.012031999 0.109984815 0.10047066 -0.13592267 -0.34484997 -0.015593333 0.13785362 -0.10863546 0.0638372 0.12088813 -0.014978563 0.18387085 0.12631534 0.009915948 0.054710556 0.29007536 0.1313615 0.29573154 -0.21278474 0.053800628 0.11477183 0.053133015 -0.046678625 -0.04730396 0.28353998 -0.07840188 0.20861357 0.07845258 0.038433895 -0.15594068 -0.15632147 0.025919182 -0.25879708 -0.04559481 -0.034583334 -0.042366702 0.038166158 -0.20419613 -0.046879347 0.05050852 -0.05169056 0.03779632 0.07350246 -0.15004064 0.17983173 0.13401586 -0.032668155 -0.008538223 -0.114499845 0.06617908 -0.050386347 -0.17130189 0.047872018 -0.07917041 -0.17082886 0.14963055 -0.06448182 -0.1036983 -0.12552938 0.06495939
75 0.13669856 0.10551743 0.08459727 0.095999554 -0.07782864 -0.1276023 0.15768252 0.13175087 -0.39594105 0.116305806 0.038849372 -0.28765124 0.023838047 -0.20196678 0.07518507 0.091102034 -0.13848516 -0.0041311854 -0.023640566 0.09457628 0.017029718 -0.06581318 0.22852157 -0.09408842 -0.013789528 0.02263598 -0.015521714 0.26097584 -0.09050298 -0.065741256 -0.0003916786 -0.15359934 0.0898123 0.170309 0.0483866 0.03684862 0.12994272 -0.19787593 -0.04352023 -0.2349604 -0.10839949 -0.18891066 0.02605199 -0.09878473 -0.077664874 -0.037295442 -0.035866324 -0.22604784 -0.119564615 0.2253009 0.03076632 0.2758398 -0.2731996 -0.2835536 -0.26134935 -0.26829112 0.15891744 0.31203303 -0.2666851 -0.119919635 -0.23639359 -0.027536249 0.05443493 -0.13444711 0.13536142 -0.034342982 0.20333748 -0.18867482 0.07804955 0.10410187 -0.020095361 0.10092667 -0.2680764 0.017243877 0.043914475 -0.14296904 0.020411555 0.08269634 0.23310266 0.15611368 -0.0014217414 0.19212748 0.23574205 0.3789462 -0.03212948 0.08191859 0.22368085 -0.1443256 0.15020749 0.09060095 0.023918677 0.098892115 0.23079225 0.16026485 0.18845738 0.061749395 -0.11937815 -0.07823748 -0.24202684 -0.01261641 -0.04411066 0.07039423 -0.014470217 0.04033071 0.00944307 -0.1443867 0.064958565 0.09423992 0.05046739 0.0074329753 0.06932377 -0.011985275 -0.012172811 0.08084987 -0.016111923 0.13447013 0.082816854 0.04544317 0.020927465 0.03886544 0.08344174 0.12813142 0.14310543 0.023975072 -0.17839028 -0.23519374 -0.31560227 0.1885951
76 0.13862622 0.021141795 0.22476692 0.0800757 -0.10788824 -0.0030074583 0.09320731 0.0012984473 -0.10142228 0.104842715 0.12606145 -0.082962744 0.043831848 -0.15993077 0.0025743502 0.083235115 0.12778097 -0.049093325 -0.119097665 0.09498193 0.068994805 -0.066286534 0.013244163 -0.1839158 -0.25758326 0.011834888 -0.06671838 -0.06795489 -0.1372259 -0.03521148 0.1688733 -0.07750867 0.0038000897 -0.0769575 -0.16400975 0.06989794 0.2073659 -0.02863814 -0.059544828 -0.051772866 -0.24273 -0.13322887 -0.09777915 -0.033809856 0.05059697 0.13903436 -0.039274316 0.017438453 -0.26761004 0.15078105 0.05035851 0.17825189 0.062509075 -0.13149817 -0.18501595 0.024818638 0.14085563 -0.14522624 -0.15217145 0.09410926 -0.11918357 -0.015539988 -0.24280898 -0.06851398 0.22758675 -0.20519154 0.1114575 -0.007470488 -0.03357459 0.051366076 0.087181695 -0.051019873 -0.25017 -0.092559926 0.0013342306 -0.10159914 -0.18669896 -0.05889416 0.104896836 0.07518249 0.03612284 -0.067328654 0.45944303 0.26738128 -0.0031118323 0.08170056 0.08537232 0.009411781 0.13728099 -0.07960506 -0.15121926 -0.08366464 0.20227793 0.15540102 0.06785173 0.03743605 -0.034443732 -0.14246604 -0.1618252 -0.12756322 -0.114494294 0.10530537 -0.08151858 0.08751504 0.073859945 -0.07686775 -0.08971646 -0.19900581 0.12897187 0.0052404855 0.109756835 -0.09806223 -0.14272864 0.1972669 -0.088471815 0.0026417722 -0.14997712 -0.03937796 0.20636696 -0.014325104 0.08075269 -0.17420775 0.1152674 0.009100467 -0.10038918 -0.12925375 -0.2383002 0.029904608
80 0.011232465 -0.017269034 0.11117547 -0.039291363 -0.0012721511 -0.10155668 0.17881286 0.088410266 -0.17721763 0.093601346 0.35806316 -0.11217335 0.02423588 -0.14703265 0.28624514 0.140823 -0.017687373 -0.038194954 -0.10342731 0.017962823 0.043281153 0.026350616 -0.016746307 -0.03183334 -0.18689783 0.13168873 0.03699555 -0.0017320497 0.0012943998 -0.07472894 -0.07239878 -0.11567255 0.09176165 0.12504296 -0.09565538 0.17012592 0.14862034 0.06426596 0.014918627 -0.0348165 -0.09749893 0.13836367 -0.027633626 0.06136225 -0.06349667 0.12681808 0.04299538 -0.12594555 0.017568631 0.07329877 0.07661585 -0.00045164587 0.039418846 -0.061780877 -0.063939475 -0.036780283 0.12516667 -0.060987785 -0.011740611 0.0068278676 -0.0067511406 -0.0792243 0.0328984 -0.04936302 0.12692419 -0.13991214 -0.033505224 -0.038597427 -0.02411545 0.018814553 0.017176285 -0.08294854 -0.28089133 -0.04267661 0.056071613 -0.065953135 0.067521214 -0.033074535 -0.18293454 0.08756027 0.10101492 0.03756585 0.12414761 0.16078167 0.032906488 -0.040894646 -0.05559642 -0.16804305 0.20066476 0.19616641 -0.03257221 0.0774101 0.1857773 0.12346271 0.20777102 0.11683662 -0.012531866 -0.081642084 -0.021953842 0.08471543 -0.20562777 0.09550569 -0.035696287 -0.15546045 -0.0018311923 -0.16632456 0.016949698 0.028166523 0.1406539 -0.051648106 -0.02478251 -0.10513082 0.050895784 -0.04769256 -0.11617971 0.0663815 -0.0229052 0.24017611 -0.024246695 0.0043894723 -0.047099903 -0.16333713 -0.09156963 -0.025376074 -0.3070961 -0.0510435 -0.11334665 -0.012128722
81 0.013174449 -0.05480901 0.16932786 0.0029995542 -0.0689061 -0.2606026 0.10759757 0.009359109 -0.10590052 -0.061726227 0.29866263 -0.13604164 -0.0626782 -0.057255268 0.3358029 0.15792654 -0.029390724 -0.10299455 -0.103143856 0.06961441 0.08391701 -0.015540211 0.031009013 -0.08693208 -0.09924779 0.111468464 0.084932625 0.15624063 0.04409118 -0.052715167 0.018930295 -0.1037874 0.061079342 0.057384178 -0.0143679455 0.025233503 0.16020645 0.114260316 0.10651632 -0.08496776 -0.035539985 0.16492994 0.0014914995 0.06991903 -0.00046940742 0.018704351 0.08795093 -0.1498963 -0.007930695 -0.012304435 0.025452986 0.072120406 0.06847573 -0.021718016 -0.048703447 -0.033528917 0.08801232 -0.15487766 -0.020336976 0.020247258 -0.026415523 -0.12234871 -0.014194496 -0.06691231 0.3522841 -0.055126596 -0.15132321 -0.06235218 0.04987824 -0.08712896 0.022859609 -0.14541632 -0.20186585 -0.05228762 0.0057899356 -0.12977067 0.037414208 -0.13182901 -0.1978415 -0.11097737 0.057796277 -0.044098057 0.0384572 0.17465197 0.04617399 0.06716328 -0.0038434374 -0.14802848 0.09599082 0.08096459 0.09371381 -0.061555877 0.14665751 0.07936025 0.15333158 0.0014131796 -0.14825913 -0.17365769 -0.02859765 0.034624107 -0.23997185 0.11323334 0.023811236 -0.14677973 0.025957786 -0.06583202 0.016996 -0.030872954 0.15336446 -0.019899385 0.056889318 -0.04930735 0.09202467 0.10548479 -0.061649866 0.14786932 0.057190496 0.06858582 -0.03873745 -0.003675044 -0.10262056 -0.12939388 -0.07870676 -0.11831975 -0.22645172 -0.08038091 -0.07779613 -0.051082116
85 -0.07964506 0.029529266 0.054419402 0.037084293 -0.15524624 0.042986207 -0.010082075 0.07071568 -0.26342624 -0.08282007 0.12712818 0.019196454 -0.07394738 -0.14033416 0.36225483 0.078182496 0.07051587 0.021216538 -0.07535159 -0.050600827 -0.1167077 -0.009727894 0.15120493 -0.12512513 -0.107139 -0.09740296 -0.038011707 0.16588406 -0.04664846 0.036493164 0.056631286 -0.19528306 -0.032293722 0.108419284 -0.08222386 0.03325723 0.26596907 0.1650171 0.15251231 0.04159794 0.1399619 -0.03727535 0.07144121 0.0409031 0.079767 0.103656664 0.023221714 -0.032633163 -0.057175204 0.17546381 -0.009567497 -0.07333768 -0.067330144 -0.0057770265 0.15572593 0.027967969 0.12485377 -0.09393825 0.09691814 0.04037973 -0.17459907 0.006125925 -0.10103837 -0.1453456 0.13298252 -0.1471799 -0.08421431 0.042430703 0.03952253 0.053043585 -0.04086736 -0.08318051 -0.15546735 -0.057522304 0.060085397 -0.049993854 0.16134517 0.2522333 -0.027856618 0.19936574 0.1846675 0.0465041 -0.004883461 0.2643267 0.18392439 0.16388889 -0.025569974 -0.007701907 0.20494428 -0.019973645 -0.10906876 -0.060345694 0.0751901 -0.013824575 0.1253482 -0.012368695 -0.024637397 -0.050647415 -0.2431925 -0.03170239 -0.25322124 -0.037043907 0.01477017 0.10286277 0.12899725 -0.30014277 0.17310795 0.10188951 -0.06727832 0.017852185 0.115389585 -0.28044415 0.23924208 0.11173666 0.010414143 0.107813366 -0.10715746 0.066301964 -0.14188868 -0.15459765 -0.004563305 -0.07102591 -0.20386516 0.09779235 -0.23881611 -0.15517867 -0.076620184 0.07319035
86 -0.023537217 -0.09029091 -0.14115623 0.107698835 0.058916725 0.03128224 0.017594064 0.014511605 -0.17450495 0.050029133 0.21303482 0.051678628 -0.029845476 -0.06310451 0.13148558 0.12788752 -0.027074121 -0.0028949615 -0.021760946 0.03366265 0.1293672 0.17579137 -0.055866923 -0.052524325 -0.21204422 0.044044327 -0.15698169 0.20469297 0.08490971 -0.061247047 -0.020076877 -0.05203597 0.030941496 0.10450891 -0.041287716 -0.0012027851 0.14977214 -0.08747604 0.059251107 -0.16343616 0.104220994 0.20828623 -0.06434594 -0.20101693 0.033025537 0.17707258 -0.05055766 0.04798449 -0.003199061 0.077615984 0.2924288 0.06434498 -0.098833375 0.104120694 -0.059693392 -0.053757243 0.12066615 0.09354097 -0.10766307 0.0063730106 0.08597269 -0.1469446 -0.027552728 -0.07029153 0.05065906 0.047489304 0.031502936 0.0614912 0.19616012 -0.031239234 -0.06944386 -0.05689955 -0.186476 -0.140203 0.009080179 -0.053972144 0.05846958 0.061537683 0.043389954 0.12001872 0.048674453 -0.020775463 0.026375221 0.25786617 0.10451685 0.14121547 0.08708005 -0.0928628 -0.02406242 0.057780005 -0.08256839 0.026667876 0.22143427 0.13224402 0.2016683 -0.04375436 -0.07843208 -0.13455373 -0.04620032 -0.08113487 -0.1592336 -0.185681 -0.024403041 0.09115698 -0.03973315 -0.12356362 0.044402394 -0.008845384 0.22234054 -0.075646885 0.114679486 -0.09556714 0.10566746 0.07154172 -0.13513012 0.043323852 0.10209349 0.0071423915 0.0755796 -0.030545479 -0.0531932 0.030161113 0.01342226 -0.001824184 -0.15213932 0.054047722 -0.0021105667 -0.0407647
87 -0.017673684 0.1291085 -0.06245952 0.24174108 0.065407306 -0.12359309 0.22917975 0.074950136 -0.29911843 0.13757528 0.12112016 -0.1310977 0.08247293 0.1391131 -0.03323242 -0.08011744 -0.01061316 -0.15993756 0.11254453 0.1616122 0.011350279 -0.06930751 -0.10333635 -0.15384139 0.07932587 -0.0058121914 -0.2358826 -0.012520498 -0.1052387 -0.19051541 -0.01571684 -0.035040583 0.08507226 0.025955018 0.06712025 -0.09834344 0.037220363 0.04903516 0.02685319 -0.1250102 -0.05203895 -0.10912871 0.16456744 0.09503382 -0.0993684 0.35689354 -0.112172686 -0.041510828 0.010083583 0.30680066 0.02135687 0.13415048 -0.20055935 -0.16445808 -0.085837625 0.0692329 0.23046815 -0.13957486 -0.016836615 -0.13236584 -0.000986693 -0.08808908 -0.12933166 -0.16228724 -0.0015630802 0.06288033 0.03806737 -0.011079561 -0.022138558 0.15466039 -0.23214939 0.07810917 -0.3633699 -0.082468815 0.02658191 -0.19123714 0.0011197481 -0.15947008 -0.06550053 0.11082411 0.04183087 0.010928211 0.027407562 0.3684875 0.16453402 0.2129815 -0.027791427 -0.15905203 0.17431621 0.19698027 -0.20261052 0.31023914 0.14883651 0.13357258 0.16342494 -0.0046364604 -0.13172302 -0.22186644 -0.13269563 0.13268217 -0.10382787 -0.10806372 0.06800126 0.07741236 -0.043835636 -0.2507946 -0.03480034 -0.053880684 -0.065269895 0.19249688 0.09282834 -0.3410393 0.16157363 0.030254187 -0.14320657 0.062025305 0.14919071 -0.15866047 0.31698808 -0.12010764 0.14105916 -0.0844341 0.16960996 -0.03370664 -0.39463893 -0.13761394 -0.17797247 0.13120134
93 -0.07129276 0.013419319 -0.13939352 -0.10765791 -0.029771924 0.1273181 0.08609673 0.007829409 -0.043989595 -0.03258224 0.033084307 -0.071688965 0.062521435 0.00467571 0.11313239 0.03733678 -0.11410715 -0.05913904 0.12738867 0.023011938 0.02315367 0.0626145 -0.009202508 0.062646024 -0.017532494 -0.059837833 0.043408047 0.08015633 0.086916484 -0.28157884 0.049060885 -0.109069705 0.1375045 0.29379708 -0.17882441 0.0065619717 0.27232668 -0.14480536 0.009263888 -0.017997464 0.11697627 0.08524774 -0.054993015 -0.111186296 0.13878371 0.13741246 0.0015101298 -0.09926285 -0.21851563 0.14986908 0.105536155 0.0807927 -0.06402158 -0.10070706 -0.09944763 -0.20255221 0.13834527 0.008277901 -0.16241764 -0.17043775 0.01642767 -0.06782862 -0.21097907 -0.086313464 0.269639 -0.031643104 -0.047286257 -0.21250081 0.03985418 -0.07530376 -0.08177431 -0.15162654 -0.34991238 -0.14049426 -0.038997263 -0.07364702 -0.032014407 -0.17956941 -0.033099733 -0.018361676 -0.118489675 -0.23404945 -0.059272967 0.15320593 0.14857887 0.09156428 0.15015815 -0.018325826 0.11675051 0.18505554 -0.22858965 0.053556107 0.13027054 0.07475952 -0.041940257 0.014698216 -0.077423945 -0.017171007 -0.06471717 0.12045575 -0.06489173 -0.00057011144 0.0007206303 -0.03617443 0.16667704 -0.12181257 -0.05740864 -0.1172388 0.1300201 0.12782133 -0.084261745 0.04133017 -0.082527585 0.1417762 -0.17022087 0.14591065 0.043897446 0.1635522 0.10837131 -0.11419381 -0.2059935 -0.103991054 -0.15608372 0.12799466 -0.47471848 -0.16003165 -0.30028325 -0.017125284
95 -0.10771539 -0.26248816 -0.053968415 0.14660102 0.13671438 0.052571204 0.058322128 -0.054560944 -0.07070105 -0.009425117 0.014131418 0.18166637 0.049280446 -0.07483732 -0.038607337 -0.11265096 0.070842415 -0.090476975 -0.18210581 -0.08402685 -0.026990766 0.08927601 -0.0018755059 -0.088406436 -0.09127622 0.26701096 -0.11980201 0.13198952 0.0040780893 0.015657274 -0.026941208 0.025509465 -0.008356973 0.02250557 -0.10989125 -0.045675028 -0.0012124717 -0.16503447 0.046082184 -0.1282278 -0.1257934 0.036756463 -0.042467836 -0.18311016 0.14369941 -0.06213819 -0.07667441 -0.06068224 -0.044055436 0.048781656 -0.013699331 -0.068638705 -0.09587968 0.06680321 -0.023902543 -0.19517823 0.039455146 0.0033084543 -0.029817732 -0.1326744 0.02563831 -0.11769064 0.015198742 -0.06503949 0.33193806 -0.038160287 -0.10145255 -0.005262572 0.05373722 -0.12136615 -0.03338628 -0.012624426 -0.10728194 -0.061891835 -0.0313204 -0.03977525 -0.2593531 0.07905199 0.017678553 0.043936018 0.00015401306 0.07065359 0.14507104 0.27338278 0.09952606 0.23154692 0.07997922 -0.10090138 0.13815674 0.029183658 -0.108223125 0.034804184 0.15636757 -0.0005772464 0.04804812 0.20098484 -0.032495882 -0.036499187 0.06174488 -0.13847399 0.03739987 0.06041352 -0.04363331 0.05923797 -0.067489095 -0.09994776 0.0009828256 -0.114119604 0.17628455 -0.0392777 0.2651182 -0.16921043 0.07569766 0.14870122 -0.20601524 0.07412891 -0.06435221 -0.07313452 -0.007740127 -0.018636195 -0.117083244 -0.2843338 -0.00237617 -0.01603221 -0.11548258 -0.024778381 -0.25514913 -0.1296225
99 -0.06544399 -0.07766939 0.13942227 0.12699041 0.17886594 -0.010617851 -0.010556824 0.038022704 -0.12171673 -0.06352221 0.14817318 0.07177245 -0.07580479 0.09593205 0.1466437 -0.028139628 -0.06520524 -0.024351874 -0.15666248 -0.004880853 0.037935574 0.09237137 0.026896168 -0.23374954 -0.11310537 -0.029042875 0.0057364744 0.24485774 -0.09121495 0.049837004 0.14416474 0.059340462 0.019438103 0.053237453 -0.13373269 -0.021727588 0.3467995 -0.022045104 0.020060001 -0.12304418 -0.122159526 0.042813927 0.06912348 -0.063310556 0.24590513 0.08044693 0.018358821 0.0032338602 -0.055526853 0.24797373 0.029885808 -0.047944997 0.0004898401 0.14099078 -0.05780736 -0.1021683 0.120782144 -0.061678987 -0.0036896132 0.2719306 -0.14360027 -0.08304363 0.029083224 0.0140695805 0.11187512 0.037795227 -0.0453708 -0.0031565367 -0.032005426 -0.037255384 -0.040991075 -0.034847703 -0.35771576 -0.15922996 0.05656405 -0.23629503 0.02907938 -0.08700255 -0.04396914 0.041588355 0.14407285 0.126286 0.042846404 0.18621446 0.016563108 0.13552804 0.071286954 0.02430758 0.18813178 0.055299062 0.03953014 0.060098547 0.008191985 -0.0033829159 0.07176508 -0.031213842 0.04636394 -0.016967028 -0.20576048 -0.0063068983 -0.11080823 -0.03263675 -0.04076427 -0.13894822 0.03142341 -0.0008587672 0.12894997 0.02257285 0.08431207 -0.011568073 0.14680715 -0.021662025 0.10332807 0.065954365 0.0049034096 0.007478813 0.039047286 -0.05319317 -0.10111984 0.068937734 -0.03242416 -0.12912217 -0.030327713 0.005805237 -0.18076791 -0.19046813 -0.14962524 0.0047817365
104 -0.02943384 0.023574434 0.20278357 -0.028665433 -0.046484932 -0.07633265 0.09210561 -0.044536367 -0.064970255 -0.021639332 0.17763257 -0.048824705 -0.16791753 -0.103039116 0.24405347 0.05678315 -0.14255257 -0.21514286 0.013165911 0.09554254 0.052436184 0.13041346 0.06453788 -0.2984072 -0.15619852 0.17390761 -0.012843574 0.05198809 -0.021365505 -0.18985866 -0.057049967 -0.047767695 0.07470688 0.14959538 -0.08027685 0.0064234775 0.13249256 -0.0511847 0.21046926 -0.12798552 -0.20701043 0.09123787 0.08138805 0.06090547 0.032862484 0.08064177 -0.15044676 0.013697535 -0.058476 0.20913032 0.007721974 0.101695664 -0.029889274 -0.007357034 -0.088629074 0.06356378 0.09392263 -0.1649324 0.012598806 -0.032661222 0.025893323 -0.10097285 0.1620941 -0.008852043 0.22514932 -0.08201793 0.08803498 -0.041627318 0.11688498 -0.10302498 -0.14760914 -0.032346863 -0.30907565 -0.005385977 -0.13924901 -0.070252664 0.11307239 -0.19292395 -0.035733942 0.1551427 -0.074486606 -0.004655104 0.15007132 0.20142981 0.15691292 0.023885049 0.09436156 -0.06479545 0.19581333 0.070578426 0.002733014 -0.074745506 0.25136897 0.08421228 0.052050784 0.0012846073 -0.028578522 -0.11271083 -0.096375 -0.041392993 -0.08682689 0.003844743 -0.03640927 -0.017596964 0.07397285 -0.07426126 -0.03307997 -0.02351452 0.039464094 -0.19865435 0.09750611 -0.038874455 -0.04409306 0.06446962 -0.25600854 -0.046784677 0.062254827 -0.0014966842 0.099315815 -0.025760492 0.05749799 0.16562186 0.06306098 -0.02702846 -0.12553169 -0.061579358 -0.052327733 0.09965298
106 0.041064814 -0.10101722 0.026439158 0.06310508 0.21533518 -0.057992164 0.02133292 0.0816862 -0.093312696 0.010742784 0.36246032 0.025609195 0.014735044 -0.111403584 0.16659886 -0.10734126 0.008168666 0.021313699 -0.071833365 -0.097610675 0.1218656 -0.007309593 -0.067176685 0.0024725934 -0.069002494 0.046593163 -0.0009790842 0.09831107 -0.0023846356 0.0002101218 -0.1365 -0.12061783 0.01587332 0.012504598 -0.06978572 -0.03416684 0.118956536 -0.1063221 0.152842 -0.19370894 0.10531196 -0.021974906 -0.08846664 -0.08705987 -0.013122447 0.038388014 0.08071863 -0.011067138 -0.0074375006 0.1374271 0.052945584 -0.02446649 -0.06049747 0.0013073456 0.03366788 0.0070476844 -0.05391252 -0.06682112 -0.20603383 -0.04133789 0.06527039 -0.10108772 0.10000459 -0.12378004 0.25286108 -0.13571593 0.007711728 0.050377186 0.09579166 -0.2519625 0.0313618 -0.10031473 -0.17466821 -0.16993748 0.0025018016 -0.072577916 -0.11218601 0.05781452 -0.14948572 -0.16435735 0.07901379 0.024379209 -0.01628749 0.3250102 0.033795256 0.12933521 0.139775 -0.073411435 0.14517784 0.025079666 -0.032419566 -0.0050971597 0.12386986 0.13646697 0.1254481 0.02508981 -0.058670692 -0.16438921 0.013077717 -0.07328351 -0.15192483 -0.03326273 -0.1598141 0.01809547 0.1122959 -0.08692175 0.10095865 -0.015122851 0.23900115 0.040862598 0.16189438 -0.10933344 0.023860138 0.08293971 -0.15055953 0.13582341 -0.072235495 0.06006384 0.0020413601 -0.017003028 -0.06298237 -0.095367946 -0.15447424 -0.051265944 -0.16481808 -0.031044189 -0.14922215 0.0187488
107 0.05750407 -0.09970347 0.07969621 0.018554663 0.027033713 -0.049145784 -0.080661006 0.12507631 -0.06112623 -0.03714358 0.0312552 0.055752635 -0.2271591 0.03076416 0.11690241 -0.0416166 0.015834041 -0.07997924 -0.113530315 0.05381445 0.11236969 0.06261083 0.0941028 -0.14001262 -0.0053238994 0.15503822 -0.082839236 0.13521966 0.018207291 0.042929582 0.015573244 0.038794897 0.00386373 -0.14109956 -0.10074198 -0.032498043 0.14795592 0.014072726 0.16549756 -0.013880992 0.0019814353 0.12891595 -0.09192033 -0.09996403 0.14130668 0.024292683 -0.049445726 0.0832385 -0.11121197 0.1742296 0.04866815 0.002005414 0.07005273 0.11021924 0.034799002 0.04118524 0.06702597 0.03549681 -0.049389064 0.021992441 -0.037988037 -0.19659925 -0.030668462 0.0020428814 0.22245342 -0.057562314 0.07261157 -0.10241532 -0.110978566 -0.05491505 0.033093236 -0.083478026 -0.11706052 -0.113336384 -0.01083614 -0.134863 -0.11137469 0.014346722 0.036547806 0.014552407 0.095018186 0.12891172 -0.02556776 0.2002124 0.15502736 0.07267235 0.05566844 -0.16116251 0.17030872 0.103320114 -0.0014396134 0.087177165 0.25273663 -0.036133662 0.13617074 0.088040784 -0.06104785 -0.21100439 -0.16613457 -0.07165704 -0.06351391 0.10737889 0.118233666 -0.013446549 0.16516188 -0.25437847 0.12054242 -0.036368206 0.27977046 -0.13318081 0.10715058 -0.10412142 -0.041790936 -0.008860564 -0.12482862 0.117384456 0.055565823 0.014450707 -0.04950115 0.06669399 -0.08325613 -0.07164477 -0.017542072 -0.009453928 -0.13841486 -0.061642412 -0.19061169 -0.015323435
111 -0.043397002 0.013607487 0.056751896 0.081705034 -0.027825398 -0.10544549 -0.017707197 -0.029801589 -0.17840454 -0.01175934 -0.00764157 -0.065585695 -0.07490274 -0.14705852 0.1765178 -0.017647663 -0.10380665 -0.064025186 -0.01599572 -0.026875582 -0.027813502 0.09159312 -0.13487607 -0.07932112 0.052189507 0.0918554 -0.08256448 -0.0067507643 0.122802794 -0.07201782 -0.014674578 0.0068189856 0.07296124 0.1685319 -0.1196543 -0.036539696 0.1964412 0.1543538 0.15817526 -0.18993513 -0.0300474 0.15396939 -0.011401523 0.015836362 0.11740528 0.143356 -0.02565398 0.004446214 -0.19051038 0.12271595 0.055321697 -0.045238335 0.029532516 -0.09474244 -0.047413245 -0.11055079 -0.03134064 0.05805227 -0.0880271 -0.009487833 -0.08091558 -0.022344574 -0.09466887 0.101768546 0.31183568 -0.14721009 0.049741417 -0.08245198 0.15222986 -0.06256189 -0.11847318 -0.06175233 -0.14978682 -0.20006756 -0.059234835 -0.11610195 0.014118089 0.07622936 0.049991984 0.11138502 0.017566886 -0.09757982 0.12175995 0.23152345 0.1566035 0.1271898 0.033776272 -0.039936397 0.11564239 0.032210205 0.017351445 -0.114638396 0.084524274 -0.025916988 0.2128579 0.0484249 -0.19797528 -0.08534564 0.074785255 -0.14466786 -0.17637634 -0.04441627 -0.043777395 0.0134912245 0.027578251 -0.12713596 0.04194442 -0.009361941 0.098716505 -0.1301376 0.043590438 -0.06612192 0.058565367 0.009338613 -0.13380131 0.10566629 -0.019753268 -0.07473723 0.010841994 0.08377978 -0.045447286 0.037580863 -0.044119194 0.066819824 -0.16031657 -0.120607875 -0.17322887 0.04752102
118 0.1207048 -0.14518298 0.04080784 0.3317902 -0.12336767 0.0056615393 0.0031548808 0.0689851 -0.24080831 -0.072893016 0.1639924 -0.0037584072 0.0026474816 -0.1585957 0.31636047 -0.012840948 -0.15187033 -0.07320345 -0.26353428 0.28035197 0.110750385 0.0030855548 -0.12752926 -0.1769176 -0.057595856 0.169341 -0.022160737 0.107868016 -0.051626813 0.06919092 0.03426367 -0.013397218 -0.09560775 0.08535142 -0.026513143 -0.2803161 0.19651131 0.11077164 0.06524405 0.023886755 -0.13800196 -0.06096244 -0.014117643 0.0036713928 0.064424 0.28861988 -0.09741645 0.18685037 -0.15397081 0.030556107 0.046055097 -0.10019263 0.099199764 0.26412007 0.13213368 -0.029443158 0.07737912 -0.103344925 -0.30093756 0.03946761 0.118449725 -0.062057048 0.026483841 0.10187827 0.29790783 -0.063235 0.08359598 0.10681037 0.05225123 -0.0010299601 0.03909354 0.08827697 -0.053565793 0.015311231 -0.079821266 -0.056541808 0.10437384 0.08726301 0.056236126 0.0636086 0.18690348 -0.21277106 0.06671289 0.15340458 -0.07686762 0.13232502 0.0731976 0.48732665 -0.061769936 0.20534322 -0.045174524 0.084278315 0.121799015 0.21521744 0.060583103 0.010536526 -0.30334124 -0.26035523 0.03415433 -0.19473225 -0.13978422 -0.0020971685 0.15261117 0.2822583 -0.08300777 -0.15221506 0.1580702 -0.15621969 0.17518252 -0.018976556 0.15513286 -0.15138628 0.061879013 0.09435915 -0.1814957 -0.04167147 -0.02906361 -0.2597133 0.08934482 -0.09270634 0.0018067721 -0.15362549 0.16274287 0.06972119 -0.1271766 -0.076689735 -0.1393815 0.01436819
119 -0.027805066 -0.002039003 0.011230815 -0.019605985 0.07407705 -0.17600542 0.04324279 0.019799806 0.0457425 -0.072521195 -0.020489078 0.0775772 0.079521656 -0.02748371 0.06736952 -0.038226552 -0.07543897 -0.06503046 -0.1267165 -0.043201193 0.027443353 0.06790851 -0.09725571 -0.14867145 -0.23914292 0.103558026 0.028395414 0.13502848 0.13279803 -0.06691602 0.025407882 -0.0414192 0.10664862 0.17065506 0.046402525 0.0397633 0.12418048 0.1361703 0.043910388 -0.119920254 -0.060089525 0.0989672 0.057611655 -0.029713841 0.024464147 0.0672849 -0.04818656 -0.10659745 -0.008940648 0.030019319 0.0782167 0.04136218 -0.036345754 -0.009415262 -0.10849431 -0.046141043 -0.00050239253 -0.058303274 -0.051653434 0.14929426 0.06317992 0.0021705844 -0.02777392 -0.021414785 0.11418847 -0.120626934 -0.07694677 -0.091961 0.0060522193 -0.048055362 -0.07564567 -0.16289468 -0.24935755 -0.1714297 0.14030783 -0.05788364 0.044137333 0.0083819 -0.012529799 0.04135683 0.019643923 0.034439165 0.004582325 0.27755335 0.07998996 0.13080274 0.087370284 0.030461185 0.09603922 0.045841157 -0.026051164 -0.008566965 0.17319511 -0.003951458 0.21644132 0.04783252 -0.06425979 -0.07508148 -0.102439076 -0.031859346 -0.15013838 0.03305892 -0.06819481 -0.073966205 0.06003834 -0.05962641 0.103052534 -0.1037751 0.16012639 -0.20693956 0.14846031 0.08871583 0.07268537 -0.022957424 -0.05796113 0.18860637 0.0447982 0.030962765 -0.016212363 0.09690932 -0.20076808 -0.10501445 0.06449274 0.052674733 -0.23497252 -0.19565567 -0.18343449 -0.113434
122 -0.16886501 -0.026269248 -0.027975269 0.13348562 0.13854514 -0.14936869 -0.04820971 0.23989359 -0.074600354 0.22316626 0.20001057 -0.09092917 0.015288948 -0.1004329 -0.23712353 0.0933068 0.15869224 -0.079440735 -0.09175416 0.045594282 0.2302427 0.3206399 -0.0024649682 -0.16938081 0.25474572 0.13328435 -0.149961 0.14409518 0.17171271 -0.06768968 -0.21845014 0.011285279 -0.14646009 0.14823948 -0.005399951 -0.051624723 0.12955748 -0.0037387325 -0.067882486 0.049396317 0.077714056 0.15884711 0.08358602 -0.06481648 0.12021602 0.124777496 0.011363566 0.07374212 -0.22485991 -0.05800401 0.17082061 0.19111368 -0.0837592 -0.014088271 -0.045261893 -0.1481606 0.056228418 -0.046936598 -0.008315489 0.21002217 0.044277873 -0.010762451 -0.2073806 0.06830379 0.21176204 -0.26210466 0.13394852 -0.110296234 0.14974004 -0.08871304 -0.14535677 -0.21545665 -0.3162869 -0.19584648 0.017123364 0.0486408 0.10765589 0.056275673 -0.3266708 0.09211518 -0.12477192 -0.10060319 0.00025774512 0.25836414 0.19460137 0.16065054 0.1366808 -0.11597786 -0.08307309 -0.02265587 0.009200158 -0.1857692 0.08595253 0.19049838 0.3071997 0.038657475 0.05093772 -0.024604363 0.03684763 -0.12270942 0.046682898 -0.22651355 0.099513106 0.030814763 -0.021252817 -0.114305735 0.0024497043 0.15456751 0.115306005 -0.10357307 0.32706523 -0.23038949 -0.05108789 0.21528575 -0.20538889 0.087724835 -0.01139283 0.012872085 -0.15835257 0.04624287 -0.11225493 -0.028066652 -0.20858413 -0.05650586 -0.09971828 -0.21003622 -0.24169467 -0.39343953
123 0.056685034 -0.10643911 -0.074865736 -0.062002778 0.16414729 -0.14112094 0.101881765 0.076378755 -0.07175116 -0.010914453 0.31021592 0.037513945 0.035283834 -0.14497438 0.18302321 -0.039730247 0.06284718 0.047277145 -0.12346448 -0.052256845 0.096454404 0.08224062 -0.0892167 -0.13838033 -0.08589584 0.15323581 -0.06853889 0.07308141 0.16498703 -0.09325835 -0.1915447 -0.1752138 0.036906373 0.07829596 -0.034055248 0.05841693 -0.004900852 -0.2084774 0.25459453 -0.2352766 -0.039725658 0.057463147 -0.12036047 -0.18215758 -0.066683926 0.011795666 -0.02760489 -0.07964742 -0.036553215 0.08675769 0.09681417 -0.052520696 0.014492929 0.018735282 0.05951228 -0.03441839 0.08513819 -0.1067951 -0.106244504 -0.051095087 0.08794933 0.029376972 0.065313615 -0.098112114 0.14803556 -0.051154654 -0.067648575 0.04026004 0.11198429 -0.2176159 -0.008487683 -0.15414171 -0.16247047 -0.21140341 0.014346232 -0.075758606 -0.11844418 0.10899444 -0.1809173 0.04850649 -0.06413876 0.018987238 -0.006720192 0.2888771 0.030466212 0.0145018445 0.037205853 -0.14367247 0.11603372 -0.035765707 -0.021302532 -0.029204823 0.07282875 0.1856641 0.1780631 -0.03990754 -0.13571648 -0.17320658 0.043695115 -0.04256635 -0.21481518 -0.040024076 -0.13476752 -0.09875067 0.08043181 -0.009607067 -0.04178926 0.030973488 0.20139615 -0.05981629 0.097929224 -0.12349751 0.020649139 0.08663664 -0.14159967 0.17663197 -0.06463576 -0.042406183 0.025561577 0.059195958 -0.16279592 -0.055374615 -0.084933266 0.0503842 -0.20252217 0.048436712 -0.07693354 0.054854643
126 -0.06114563 0.032230034 0.1579704 0.014111908 0.046460386 -0.012948873 0.037485402 0.081896074 0.020362468 -0.017715182 0.12531537 0.018194536 -0.0738221 -0.04792571 0.15871884 0.06017375 -0.07697664 -0.03318786 -0.047436 -0.0013623694 0.04445384 0.063466415 -0.02244858 -0.10543387 -0.24364121 0.083429836 -0.062474553 0.122422665 -0.01480927 -0.13727762 0.010780319 -0.009077782 -0.01522084 0.07114637 -0.11445556 0.038564436 0.12732744 0.114674315 0.1577791 -0.08821609 -0.024921084 0.080783136 -0.023426255 0.010182099 -0.023304341 0.13562389 0.017332014 0.038564976 -0.20258527 0.114584275 0.08316754 0.01613611 0.015940482 0.06194334 0.0077179414 -0.029588226 0.09983608 -0.085655525 -0.1508265 0.0750416 -0.09804565 -0.0728083 0.09463127 0.037011232 0.16113447 -0.07793373 0.0030392793 -0.000988693 0.03081909 -0.16326527 0.054295953 -0.043193597 -0.14600167 -0.085948564 -0.043667104 -0.039327916 -0.03876188 -0.02999296 0.06911417 0.09362309 0.058389544 -0.017125834 0.049854442 0.12872629 0.042393778 0.07849195 -0.07393135 -0.10254511 0.0781477 0.13773373 -0.12167849 -0.0068148547 0.17987141 0.11659072 0.17300174 0.031454735 -0.052176554 -0.19916019 -0.15350518 -0.068679735 0.007400084 0.025739988 -0.02357541 0.032574814 -0.0100397505 -0.15866196 0.16037688 -0.14292313 0.08241071 -0.09838159 0.1118164 -0.16007634 -0.032511476 0.03483248 -0.05090549 0.010998172 0.079857655 0.034316283 0.05202997 0.044494633 -0.045490786 -0.09908396 -0.038257778 0.049669985 -0.13526078 -0.115046754 -0.19144428 -0.0127034215
127 0.03243833 -0.1401469 -0.2463889 0.038225424 0.13829266 -0.0536949 0.11718139 -0.008500522 -0.0055096014 0.20010994 0.15759851 0.0059484844 -0.22405109 -0.31908587 0.15375766 -0.08074037 -0.14742656 -0.10575238 -0.09851068 0.006349641 -0.19214277 0.029063355 0.07964373 -0.33072174 -0.050414857 0.16476117 -0.22414416 0.045795564 -0.04374447 -0.22957097 0.27663845 -0.23070522 0.05545993 -0.02535841 -0.14780988 0.1799512 0.40453792 -0.14077398 0.28199422 -0.09591254 -0.1133364 -0.0668509 -0.0036180576 -0.1389178 0.006615923 -0.21432419 -0.4709438 -0.24000049 0.11305641 -0.08348502 0.004847174 0.22366151 -0.17236444 -0.10878131 -0.14956486 -0.06690135 -0.2204788 -0.16281106 0.122344516 0.016531311 -0.1172213 -0.011893927 -0.2062986 -0.14825194 0.18882549 -0.08774617 -0.11216867 0.066401094 0.026648032 -0.053226456 0.060314897 -0.22345732 -0.08335163 0.034661405 0.171583 -0.07978807 -0.3440067 0.07889798 0.10194321 0.12052119 0.11577294 -0.20058833 0.103590176 0.1978484 0.19738716 0.16473727 0.353185 -0.020040981 0.22024699 0.14777091 -0.045462344 0.24563509 0.0847654 0.029356278 0.011732338 -0.0071080737 -0.031166136 -0.29565242 -0.11977716 0.092595205 -0.10755231 0.18059658 -0.10118367 0.11102036 0.13736384 -0.09987297 0.11985589 -0.035051648 0.070346065 -0.18920222 0.06371894 0.016527062 0.03600294 0.20867582 0.07923851 0.12180081 -0.0023960047 -0.178952 0.013144769 0.24157667 -0.23034081 0.10281872 0.16038555 -0.11947121 -0.010233993 -0.24646065 0.011704078 -0.2448642
128 0.10991777 -0.06912281 0.038954575 0.116679795 0.080604464 0.045536682 -0.13888179 0.124745995 -0.13898951 -0.11976213 0.17446235 -0.080973506 -0.109949365 0.010478673 0.06814639 0.008263515 -0.041766673 -0.18396522 0.050650552 -0.041783094 0.19514446 -0.027656067 -0.12466615 -0.30360946 -0.10231777 0.14900728 -0.089715004 -0.07371663 0.04780588 0.076565444 0.14555696 -0.12247849 0.027463991 0.018810872 -0.11880572 0.055842783 0.26402238 0.15343507 -0.13122457 -0.1427162 0.15849943 0.12710734 -0.012792664 0.05470908 0.050256856 0.13138147 0.030440817 0.1090809 -0.13052656 0.013924661 0.079684086 0.03939942 0.04969394 0.005255649 -0.03324069 -0.10400646 0.06734517 -0.041402005 -0.02888086 0.0042127366 0.13953884 -0.16390683 -0.11268787 -0.23305804 0.25845185 -0.035919193 0.12533218 -0.26091978 0.013409512 -0.030782709 -0.020071076 -0.24139711 -0.15636303 -0.0905933 -0.031237744 -0.046584815 -0.07352139 -0.07628286 -0.042710032 0.017066022 -0.1046287 -0.023223434 0.08493826 0.08785934 0.05304306 0.18891028 0.04348318 -0.21044177 0.21003175 0.009933419 0.03760894 0.023969065 0.20493625 0.0633512 0.102758594 0.21171564 -0.08146355 -0.034744073 -0.268773 -0.023065282 -0.13424619 0.06654096 -0.25156733 -0.07556309 -0.042293176 -0.08245655 0.034111638 -0.0052354806 0.10142745 -0.06327732 0.19114304 0.039727986 -0.03625071 0.1243368 -0.12794565 -0.06730138 -0.023040766 -0.06618847 -0.030557804 0.0865601 -0.11984286 -0.14766072 0.048875544 0.019867772 -0.091369525 -0.15751246 -0.039112512 0.10525109
135 0.10837417 -0.12016702 -0.07948603 0.2880156 -0.03447245 -0.13448273 0.09402218 0.11913151 -0.05584766 0.071387246 0.20789558 0.03164959 0.026142785 -0.17351581 0.011286719 0.025261525 0.14945945 -0.12738582 -0.10933031 -0.10827645 -0.19660974 -0.03653346 -0.0368177 -0.41492838 -0.13007793 0.19898479 -0.15324837 -0.03962951 -0.029576067 -0.18059352 0.043623216 -0.2491879 0.08549852 -0.0273035 -0.02366198 0.11563751 0.2283709 -0.0707381 0.046903234 -0.17281558 -0.040295076 -0.086817265 0.22146046 -0.045123465 0.15222816 -0.067851715 -0.31732252 -0.049640954 -0.0063105216 -0.053998236 0.035529282 0.13738611 -0.10293847 0.009493947 -0.1301694 -0.13191375 -0.0947965 -0.0990331 -0.054319933 0.015701035 -0.23437591 0.014540346 0.047840137 0.26338655 0.1574819 -0.21920654 0.075713605 0.09653312 0.21043509 -0.09012745 0.10999568 0.017925948 -0.11682098 0.07914479 0.105464615 -0.007862161 -0.088829294 0.05381797 0.06500845 0.10445879 -0.019041117 -0.16664167 0.33644733 0.19161123 0.0024205327 0.3313576 0.31274667 -0.07412638 0.263335 0.023004267 0.062411997 0.22196937 0.30800608 0.12684445 0.14907032 -0.11853976 -0.12022646 -0.38347438 -0.1847063 -0.21424727 -0.056893963 -0.013224702 -0.06530063 0.06867945 0.105888076 -0.0016055487 -0.056453787 -0.0149972495 0.037777778 0.005833889 0.2291895 -0.17038763 0.016512256 0.24107513 -0.22823143 0.098328054 0.13306737 -0.282658 0.11931255 0.17378765 -0.044017766 -0.08602725 0.04648412 -0.29473537 -0.016569164 0.09682664 -0.081983246 0.028223332
137 0.019732574 0.107848965 0.04840368 0.15802956 0.08465225 -0.16028403 0.082412414 0.23708189 -0.3390261 -0.23139913 0.22376208 0.20816025 -0.120304346 0.105468884 0.055883273 -0.09734097 -0.19503975 0.22117074 0.01081503 0.22369246 0.03505989 -0.04095663 0.018827097 -0.25128272 0.061775763 0.21229799 0.08294661 0.32468775 0.07927654 0.13781512 0.14375922 0.1269984 -0.16758108 0.20973633 0.036390983 0.0715824 0.29052687 0.10720846 -0.07116093 -0.0017598536 0.03913351 0.095226176 0.35423124 0.022231387 0.14582975 0.0975649 -0.13856068 -0.19922577 0.037431292 0.06955464 0.05683885 -0.08134844 -0.09980069 0.10013375 0.23277055 -0.22197235 0.06891065 0.01446547 -0.16978756 0.260552 -0.15499663 -0.14474139 -0.100926325 -0.09950457 0.08405555 -0.124185555 0.062327903 -0.14533591 0.17520529 0.29390407 -0.06534684 -0.039367624 -0.24554648 -0.18674229 -0.07847867 -0.16577025 0.1165751 0.011740613 -0.01838235 -0.07146403 0.009919011 -0.024277635 -0.0500548 0.24079171 0.16747844 0.11352419 -0.26354614 -0.062688254 0.065798864 0.11992908 0.16691203 0.1817448 0.09281254 0.20322184 -0.01868614 -0.02185459 -0.048057493 -0.13897143 -0.15061091 -0.037086982 -0.30113524 -0.20824979 0.19577 0.04744958 0.038728412 -0.1835941 0.06345087 0.02563735 0.05613098 0.02480264 0.23022942 -0.05757739 0.22920315 0.0916822 -0.06725976 0.08148534 -0.049989432 -0.06449428 0.0926204 -0.047807876 -0.029913977 -0.00036370772 0.03970981 0.14329615 -0.30478156 -0.13579534 -0.2691621 -0.041382354
141 0.019102132 -0.11670961 0.00983567 0.10485071 0.07732232 -0.13950957 0.0047933166 0.036778644 -0.13033557 0.011245741 0.15815693 0.050750066 0.0014448856 -0.08486515 0.11382271 0.06345468 -0.036037818 -0.18162069 -0.3282607 0.11703453 -0.1087747 0.08673158 0.08928484 -0.2518868 -0.18373482 0.036747303 -0.03736118 0.28173468 0.14447375 -0.06678477 0.12620814 -0.043471128 0.028275443 0.13375062 -0.07791216 0.114364214 0.012783822 0.113347575 0.11976787 0.048948858 -0.15404905 0.05075786 0.017247843 -0.0067238226 0.15047379 0.08847043 -0.042023297 -0.110989735 -0.018675743 0.08951182 0.028659724 0.18212667 0.032982074 -0.0020603174 0.03285302 0.021276303 -0.03963544 0.046243966 -0.17321415 -0.107420124 0.017908612 -0.10303044 -0.0889195 0.097394064 0.21544173 0.0115677565 0.05913641 -0.1053033 -0.1256335 0.0066447747 0.08095506 -0.033103082 -0.13383572 -0.03560088 0.0034134886 -0.09163459 -0.13289754 -0.041211225 -0.13595964 0.2047766 0.03501953 -0.021061871 0.01786765 0.2703233 0.19683693 0.004544444 -0.033686753 -0.12315964 0.15107481 0.06460828 -0.05131152 0.102445364 0.21818593 0.11164709 0.17149183 0.03226978 -0.008048499 0.013019433 -0.0912088 -0.028111277 -0.14906354 0.022513188 -0.14670038 0.09749523 -0.07066575 -0.04490967 -0.23483129 -0.048418857 0.058411557 0.054958347 0.13561514 0.08833442 0.01955301 0.09277235 -0.15896876 0.1985452 0.03459846 -0.05763798 0.20613977 -0.1429179 -0.17449664 0.07140125 0.017545488 0.0443622 -0.24161796 -0.18992211 -0.055119574 -0.10727562
148 0.009622654 0.016859831 0.19144866 0.09920345 -0.0026276715 -0.069257095 -0.0064493204 -0.031287137 0.061660312 -0.082707636 0.29395828 0.07846202 -0.010413459 0.14054352 -0.006913719 0.16902667 0.10027864 0.20203602 -0.17481668 0.07824868 0.29718602 0.17503688 -0.032331266 -0.36402553 -0.09839165 0.34072846 -0.089194134 0.1634313 0.27544203 -0.025490222 -0.05698713 -0.13800219 0.16081992 -0.013599846 0.0019452755 0.18588383 -0.12013515 0.0174968 0.027547177 -0.041257173 0.08593428 0.18846445 -0.05122209 -0.20847328 0.06921623 0.13573278 -0.14558515 -0.088293284 -0.23284289 -0.018525394 0.06498876 0.110423036 0.16280182 0.021795323 0.0013955877 -0.010368707 0.10236305 0.013296035 0.09748246 -0.20204744 0.1016334 -0.059188224 -0.11358546 -0.17188856 0.15228012 0.19061628 0.0031973375 -0.12190219 0.010640786 -0.12872563 0.07229776 -0.22395718 -0.06572491 0.011881548 -0.13237298 -0.015537731 0.13597997 -0.0670282 -0.0043119825 0.0356365 0.14785275 -0.030481279 0.09149742 0.34333864 -0.15998444 0.11179485 0.016926479 -0.17254949 0.20971525 0.12037026 -0.08771445 -0.104841776 0.24601685 -0.13426211 0.09846662 -0.012928441 -0.021564651 -0.19979843 -0.2152138 0.023291484 -0.08655613 0.16640308 0.16214983 0.13570294 -0.036228187 -0.041217126 -0.22503859 -0.17326692 -0.010459628 -0.12416191 0.4259897 -0.10851654 0.01978743 0.09066777 -0.309159 -0.024227314 -0.09801186 -0.087607026 -0.14679351 -0.11551453 -0.20175438 -0.3355204 0.13681911 0.120877296 -0.06535563 0.01828918 -0.19091208 -0.002959219
149 0.2077134 0.04268982 0.014850604 -0.10638097 -0.11169778 0.074549966 0.037113495 0.15048164 -0.007986328 -0.02997642 0.071577966 -0.029506352 -0.22418995 -0.030027317 0.3293973 0.116711184 0.114401214 0.0916224 0.026954511 -0.21386616 -0.021191379 0.04752217 0.018030133 -0.046593823 -0.1945692 -0.10087583 0.0748902 -0.011766431 0.06288159 0.12402441 0.077684894 -0.36072183 -0.041311625 0.18015908 -0.23979196 -0.02856078 0.11341115 0.08178519 0.053175803 -0.059041504 -0.062336113 0.21715593 0.02035733 -0.009665182 0.078309536 0.023990152 -0.0055528367 -0.04153888 0.03657962 0.006153399 0.026653081 -0.033651117 -0.074943945 0.05397804 0.09165763 -0.06501255 0.12660763 -0.047831737 -0.10148325 -0.10384278 -0.06704034 -0.049555738 0.11227256 0.003084034 0.2159159 -0.04624338 -0.08964241 -0.02960856 0.1028435 -0.13935171 -0.002443647 0.18223867 -0.12690707 -0.07374176 0.034624863 -0.12040709 0.07474398 0.11375833 0.00499086 0.20236915 0.22702228 -0.18652193 0.10301965 0.4357778 0.22923161 0.2760759 0.012510861 -0.03431286 0.33909765 0.0198932 -0.11236326 -0.069412425 0.21371047 -0.070217766 0.34823048 0.036577627 0.112345815 -0.07238841 -0.17432103 0.021280441 -0.08855675 -0.09641042 -0.15242179 0.016346294 0.18332104 -0.21491967 -0.042679377 0.075885095 0.0023712202 0.039895438 0.004185394 -0.27698126 0.0026687752 0.019833475 -0.080657184 0.14558786 -0.09663186 0.058194116 -0.033846285 -0.24780665 0.04699843 -0.14299777 -0.28424597 0.04028561 -0.15204325 -0.016593188 -0.09072221 0.07085067
159 -0.11302291 0.039602704 -0.086279534 0.23123294 0.16521959 -0.06969086 -0.17930342 -0.15869796 0.10847801 -0.062397186 0.19222137 0.103953116 0.06599454 -0.022645827 0.11316562 0.34663922 -0.056261588 0.007619237 0.09357046 0.09037752 0.08486701 0.13752158 0.033303816 -0.13354471 -0.3549647 0.07193222 0.014445032 0.079350375 -0.2031909 -0.19728126 0.27425593 -0.029508049 0.2876252 0.20605117 -0.088432334 0.19554396 0.14698076 0.14257301 0.10986768 0.0325305 -0.08528381 0.18523394 0.014059386 0.068040974 0.09403593 0.08783949 -0.034624055 0.08971631 -0.50634605 0.061570343 -0.08453047 0.28525358 -0.09203907 -0.11939811 0.058847517 -0.08379226 0.19363545 0.007704806 -0.07154386 0.041802913 -0.12671095 -0.23619115 0.049299855 0.18804106 0.4141458 0.043028586 -0.13379078 -0.05561794 0.013578429 0.1581373 -0.17662369 -0.08901304 -0.12773566 -0.015344919 0.005798512 -0.1286041 -0.11574051 0.20705487 -0.18523405 -0.1366461 -0.19330701 -0.14274818 -0.006489087 0.2454149 0.30945653 -0.01493348 0.17279756 -0.008059503 0.14336132 0.00012962779 -0.21610554 0.022898575 0.0061720456 0.14636089 0.049753044 0.15406111 -0.25458783 0.15346968 -0.00394091 -0.050782964 -0.035634745 -0.21075216 0.15204474 0.11721398 0.01211966 -0.07907109 0.012552174 -0.014902461 0.06058793 0.13656808 -0.050700523 -0.054339055 -0.07273478 0.017236236 -0.31443977 0.11543071 0.0009760247 -0.12631951 0.11643816 0.11301134 -0.033015814 -0.058859214 -0.01580505 -0.015619584 -0.16263488 -0.24605763 -0.31012216 0.14975026
