404 128
0 0.070957996 0.070835955 0.09885405 -0.14372873 0.13933642 0.13506794 0.12724286 0.19363001 -0.0015192104 0.22699745 0.0035051235 -0.030271968 -0.11056948 0.12087046 -0.11626457 -0.06220398 -0.20738126 0.018068442 0.06105208 0.047241364 0.10351977 0.42112324 -0.0031378337 -0.23951298 -0.045094837 0.056859534 -0.14249581 -0.28483644 -0.023299158 -0.016378382 0.27793416 0.015522792 0.084205054 0.16295122 -0.2990452 0.11893446 -0.10648873 -0.05117419 -0.15635857 -0.04615469 -0.17184441 0.2191626 -0.22415614 0.101200335 -0.014656214 0.185695 -0.37327173 0.03247138 0.06769327 -0.18233155 0.034389507 0.043436248 0.1621804 -0.0708643 -0.035626236 0.15113233 0.24430712 -0.020432312 -0.040552195 -0.21310285 0.16030972 -0.16921651 0.037490923 0.09984483 0.13131031 0.100125104 -0.0027400001 0.41283152 -0.13703738 -0.32716587 0.19462743 0.017020848 -0.17602779 -0.1112882 0.026367962 -0.11941006 -0.032213822 -0.045148175 -0.016692456 0.1183218 -0.05683102 -0.13249658 -0.023632947 0.23205586 -0.05173725 0.057377107 -0.005907195 -0.14557822 -0.03145827 -0.112555735 0.051701907 0.19978185 0.02901127 -0.019680245 0.41154855 0.05384122 0.09693804 -0.081203975 -0.04141804 -0.113354325 -0.102025226 0.13436446 -0.3308621 -0.15533675 0.14643596 -0.11031617 0.005300499 0.25540295 -0.0030739766 -0.06400771 0.14761835 0.06236606 0.063049875 0.0365569 0.111951016 -0.060056962 0.1092905 0.18026367 0.10962944 -0.24811545 0.25481513 0.020607587 -0.18937816 0.08303939 -0.2170689 -0.07818657 0.019114325 0.045759037
1 0.0070531406 -0.13344114 0.073486485 0.066431805 0.2497437 0.0396595 -0.06453097 -0.014305896 0.04018728 0.09086281 -0.088971876 -0.049646493 0.021748777 0.055944286 -0.04643406 0.05974566 -0.17137657 -0.052778862 -0.046459693 0.088786155 0.024278369 0.16332269 -0.02033315 -0.26867977 0.0134786535 0.18721619 -0.1615379 -0.18134594 -0.085099384 0.02494616 0.18755485 -0.10323924 0.057056837 0.112070575 0.045552794 0.12537499 0.10274715 0.025783485 -0.25796852 0.18170077 -0.16372466 0.03730777 -0.115078226 -0.102603614 0.16768561 0.03726263 -0.14290176 0.18148783 -0.09606208 -0.05056816 -0.058826953 -0.10498026 0.27835688 -0.11589394 -0.27046415 0.12764902 -0.17461528 0.0018293696 -0.05045288 -0.016583668 0.024812099 0.031695753 -0.00056467013 0.20642474 0.257079 -0.011357888 -0.05675204 0.18782958 -0.305281 -0.22736011 0.1297089 0.004886037 -0.12106283 0.013317446 -0.01307649 -0.18844238 -0.27312183 -0.11045238 -0.10477675 -0.06776459 -0.24585411 -0.10586764 -0.18922709 0.118963785 0.13415468 0.16018249 0.049971167 0.064104445 0.14705613 0.043402568 0.015816849 0.15873232 0.07186849 0.049674343 0.23273858 -0.018162813 -0.1516834 -0.111093245 0.14374307 -0.16293828 -0.08226668 -0.08583127 -0.31738287 0.11900353 0.0066456175 -0.13150772 -0.0671738 0.023759097 0.16092665 0.08663858 -0.15650693 -0.16416216 -0.053526573 -0.076734416 -0.20880714 -0.1712474 -0.07938991 0.0028746475 -0.0076682107 -0.11725005 -0.07023793 -0.1322547 0.027827522 0.042937215 -0.30770975 -0.115065515 0.0919821 0.12217777
3 -0.07372858 -0.20626724 -0.019379562 0.022842083 -0.023665253 0.07807737 -0.22535357 0.0088315625 0.1761415 -0.04187101 0.10064327 0.052676372 -0.07471525 -0.1278008 0.09499867 0.03522366 0.11553984 -0.10302552 0.037849016 0.03798573 -0.10172217 0.04852052 -0.09507359 -0.16761212 0.0023322566 0.11586467 -0.04039892 0.11868128 -0.010782658 -0.045086663 -0.18765554 0.02338375 -0.08300653 -0.08400469 0.15738204 -0.02311442 0.2303819 -0.11628224 -0.15235023 0.1208938 -0.07366341 0.068988934 0.018539269 -0.031515367 0.006196052 0.03937939 -0.07530569 0.00072854524 0.043823633 -0.012586308 0.037111755 0.03468294 0.13896927 -0.0038739722 -0.049810782 0.023028517 0.3039979 -0.048248284 -0.21159393 -0.039805762 -0.043668024 0.032509863 -0.050563544 -0.08710333 -0.059613295 -0.022349821 0.12118841 0.12936674 -0.07251683 -0.16584031 0.0029263885 -0.16396971 -0.20717138 0.045852657 0.07093566 -0.14108966 -0.09618006 0.08619778 0.06897376 -0.07199732 -0.039071508 -0.06799911 0.23731655 0.25437582 0.020518947 0.1856998 0.13035333 -0.16792257 0.15033638 0.007500728 0.04808763 0.22999173 0.19129825 0.050303392 0.16029553 0.02122935 0.016897095 -0.14469782 0.06663287 0.0035404447 -0.11946725 0.062039174 -0.12690525 -0.07466438 -0.029869046 -0.24618714 0.22773057 0.045964573 0.1624089 -0.102923214 0.070879385 -0.037881777 -0.09654831 0.17056043 0.07095593 -0.01797338 0.023433236 -0.006103452 0.19079103 -0.072237544 -0.021864934 -0.15155925 -0.11412995 -0.010041577 0.016955761 0.09807938 -0.016230643 0.11728932
11 -0.0036080717 -0.11315623 0.061459202 0.14890686 0.17808743 0.06577428 -0.065753385 -0.04934231 0.010332839 0.04151869 -0.01622736 0.06441408 -0.05648587 -0.022832356 0.024135493 0.07811991 -0.08166476 0.11580496 0.044620417 0.0026783254 0.0038116442 0.06716961 -0.058801502 -0.18067726 -0.06446033 0.10806049 -0.10878087 -0.04389564 0.029382363 0.009495239 -0.02981688 0.03860714 0.09006216 0.029860139 0.0708828 0.017014079 0.2577188 -0.036096316 -0.01991389 0.069955856 -0.005898062 -0.02625991 0.010257249 0.03598393 0.058901116 0.024829907 -0.1565545 0.10795353 -0.027568078 -0.08806065 0.118980475 -0.011184119 0.10130098 0.033664033 0.06470001 -0.034910124 0.09757443 0.042489544 -0.09663131 0.035901938 -0.021896785 -0.10796446 -0.0037881562 -0.025587708 -0.029042479 0.009627132 -0.015576968 0.15291427 0.04655839 -0.08164977 -0.0813755 -0.15738927 -0.31081063 -0.07696606 -0.00016728087 -0.23732698 -0.17908862 -0.029808298 0.011545505 0.024734903 0.033628687 -0.027164957 -0.026410347 0.2024389 0.0894438 0.21487217 0.1565797 0.10144817 0.07567792 -0.025111545 0.0800793 0.030295141 -0.009134412 0.031679302 0.06696481 0.09262088 0.0808333 -0.19610408 -0.114393905 -0.0995098 0.07345037 -0.04473558 -0.051129896 0.032919537 0.16988459 -0.1262151 -0.024263076 0.15594292 0.009520123 -0.09279924 0.1656666 -0.12424911 -0.04956155 -0.007599846 -0.026530795 -0.06511494 -0.05060615 -0.052804537 0.128563 -0.18468575 -0.08705644 0.096484184 0.10795495 0.060538184 -0.06188947 0.052691374 -0.01617043 0.018759951
14 0.09914095 -0.07248684 0.020198382 0.0492701 -0.09070658 -0.037013713 0.049556024 0.022549625 -0.058122847 0.070650764 0.026227478 0.05742598 0.06064405 0.0430451 0.14907815 -0.08352569 -0.035521675 -0.09077463 -0.0642903 0.0057811053 0.06999622 0.0022941502 -0.062918276 -0.1403609 -0.20978487 0.030438626 -0.20743732 -0.013590101 -0.039125126 -0.08125288 -0.009093928 0.010259098 -0.00015297455 -0.0158858 -0.1069045 0.07585684 0.032087207 -0.025526945 -0.05190756 -0.09422624 -0.09219364 -0.11911698 0.026957422 0.008631022 -0.037528686 0.06526498 -0.12528601 -0.034394577 0.0013953901 0.017955624 0.039709736 0.16758764 0.061744343 -0.01692554 0.084147975 0.036103036 0.07101396 -0.08511576 -0.08633023 0.011843084 -0.013467035 -0.055814616 0.11650139 0.045618422 0.11637201 -0.00869172 -0.07122862 0.034289293 -0.0881314 -0.1815757 -0.01681314 -0.12294099 -0.16937771 -0.21307473 -0.039147537 -0.1470784 -0.115397535 -0.059045732 -0.118868746 0.08141018 0.03785832 -0.033833627 0.093071625 0.3303019 -0.0020679273 0.1846435 0.04253342 0.011085911 0.031153856 0.04216307 0.0342124 0.059912 -0.049846467 -0.13008809 0.19542827 0.00043253886 -0.08897669 -0.22919932 -0.10200686 0.01907292 0.022793025 -0.024572374 -0.045085963 0.004412129 0.05889802 -0.109914064 -0.1313721 0.12828767 0.14265789 0.0005350355 0.19633085 -0.01608701 -0.036211964 -0.04539825 -0.0280271 0.006414318 0.04630218 0.02203913 0.14428036 -0.105282545 -0.045745887 -0.062297445 0.06985027 0.107057504 -0.11048589 0.092873745 0.035392478 0.16382809
17 -0.07615369 -0.18191738 0.0012318259 -0.048214592 0.17352186 0.06927387 0.0806255 0.029725075 -0.036451068 0.110904485 0.100389354 -0.07923556 0.07414942 -0.030813994 -0.011032452 0.06785498 -0.055746604 -0.08259441 0.029486354 -0.07310405 -0.059780534 0.1653625 0.01407576 -0.11196033 -0.06433708 0.037146613 -0.15951635 -0.09971714 0.0008085831 -0.057594575 0.09543989 -0.1230069 0.067090884 0.17910177 -0.116702475 0.0024178023 0.041007336 -0.04630373 -0.0032374482 -0.036334876 -0.0060780337 -0.0014545934 -0.07665538 0.10107396 0.10665343 0.052681096 -0.15662958 0.10591779 -0.08996064 -0.07568277 -0.012811853 0.084499106 -0.05345224 -0.023538768 -0.0019004826 -0.11622604 0.044157684 -0.061493315 -0.07942487 0.077800676 0.06309862 -0.113583274 0.12527062 0.21613632 0.16162957 -0.018326556 0.0655119 0.045397036 -0.07174932 -0.21003225 0.08957311 -0.1417129 -0.1953921 -0.19034052 -0.07206815 -0.124860734 -0.13114107 0.028936975 -0.1183896 0.12074928 -0.13874331 -0.08346793 -0.09277082 0.23554519 -0.044682816 0.22584386 0.09409845 -0.101590924 0.02341029 0.021432221 -0.04591297 0.07619738 0.051734287 0.11398532 0.23828608 -0.049973376 -0.05441424 -0.06664153 -0.027279839 0.016774056 -0.037498206 -0.08615191 -0.06100423 -0.061848983 0.06719883 -0.016752256 0.11649326 0.0988721 0.12903048 -0.17565039 0.036039833 -0.15505117 -0.011560102 -0.108410135 -0.10996553 -0.15479359 -0.15299194 0.17957595 0.14226589 -0.12271087 0.23230647 -0.15423054 -0.001493406 0.027410638 -0.12863365 -0.029002974 -0.004845091 0.04834645
21 0.043408245 -0.04949528 -0.07115074 0.06941561 0.03284698 -0.07836176 -0.12136913 0.055371348 0.0529114 0.054623704 0.023650585 -0.10913839 -0.02237248 -0.08733111 0.08901692 -0.00032535274 -0.08110506 -0.14434534 0.099541344 0.060288485 0.09203767 0.085355565 0.09820999 -0.16676892 -0.1044593 0.029462026 -0.08306732 -0.017327037 -0.015569019 -0.13341986 -0.0138446 -0.1001473 0.015893308 0.058939017 0.0010409476 0.06577322 0.11045593 0.07022339 0.009818308 -0.030849844 -0.101921946 -0.08527689 -0.03835034 0.021272577 0.015700404 -0.003799015 -0.15550962 0.06692946 -0.025388692 0.047003653 0.19760959 0.032866746 0.045442052 0.119777 0.13369653 -0.117962085 0.19537401 0.057344917 -0.09288952 -0.033102263 -0.08935469 0.041400027 0.10282717 -0.010335186 -0.044936124 0.10506234 0.07742718 0.031247823 -0.053725503 0.015385557 0.16037263 -0.018160298 -0.10840852 -0.0952137 0.0007502324 -0.13878466 -0.0069352416 -0.030838588 -0.028303217 0.05098843 0.01665791 -0.17497005 0.09003016 0.1607548 0.07759319 0.19514145 0.1489886 -0.07883571 0.08665279 0.06442351 -0.037748326 0.057821527 0.09719832 -0.12824483 0.21794306 0.13388248 -0.05093561 -0.10920507 -0.0704385 -0.05134079 -0.11518072 0.008045906 -0.09202919 0.012933413 0.013789368 -0.10635757 -0.019930018 0.20406862 -0.041443266 -0.061373606 0.06842862 -0.10523747 -0.06768369 0.037169587 0.0015386491 -0.023587227 -0.01000814 0.0066642216 0.051541574 -0.07792041 -0.06909498 -0.12682654 0.054011304 0.10120449 -0.061147396 0.018643148 0.06102601 -0.059184387
25 0.1401826 -0.15886416 0.014775005 0.06369633 0.14591089 -0.013581454 -0.12603965 0.05647005 -0.07814106 -0.025142321 0.13241275 -0.021644907 -0.102076836 -0.02115096 0.11881512 0.13330175 -0.0552572 0.050762963 -0.14929916 0.016898299 0.05052736 0.082777455 0.09681308 -0.047941152 -0.10634647 0.03913983 -0.0581082 0.19968356 -0.049891364 -0.07314525 -0.03469749 -0.057733666 0.011759273 0.079687886 -0.0023833532 -0.024831573 0.005173286 -0.0080965115 0.053448632 -0.04032324 -0.14749627 0.048886225 0.046151247 -0.015018544 0.0058186203 0.110804364 -0.0596214 0.09133494 -0.05268127 0.08937895 -0.086136185 0.048963215 0.14332213 -0.009534664 0.018020622 0.014280846 0.07972829 -0.03445169 -0.18752617 -0.030554222 0.055418093 -0.0118125975 0.0033663409 0.0028240138 -0.0227027 0.08012369 0.052700423 0.14909449 -0.08327522 -0.0053790607 0.013790884 0.009132091 -0.18106085 -0.05902861 -0.05349225 -0.15784754 -0.027073096 -0.05262964 0.0157537 0.106232464 -0.08120254 -0.026664605 0.09758536 0.20700622 -0.07163829 0.078814514 0.13507473 0.040597916 0.04628143 0.054562505 0.00066624687 0.018520895 0.044133853 -0.07041998 0.0420113 0.107732676 -0.05595757 -0.21120311 -0.107914746 -0.07038116 -0.14915992 -0.08310578 -0.10153749 -0.005447339 0.013237457 -0.10197523 -0.031894386 -0.06680383 0.113733515 -0.042962395 0.08577992 -0.108879015 -0.014291949 0.08421897 0.01527275 0.020059109 -0.09549385 0.032255206 0.014875487 -0.1269633 -0.027818311 -0.045956414 -0.052766185 0.074026085 -0.050288938 -0.057937127 0.040681172 0.09308591
30 0.008435593 -0.07441074 -0.03997363 0.16047469 0.09692162 0.06324641 0.051721703 0.018382356 0.0039371583 0.10541157 0.0066843675 -0.102549136 0.057133067 -0.04064286 0.11291566 0.04103443 -0.061213527 0.030404737 -0.023347039 0.08022946 -0.06936845 0.2575966 0.020354878 -0.15441617 -0.11835232 0.09970542 -0.05175317 -0.0830281 0.03845429 -0.045392483 0.21326993 -0.14276177 -0.0013342907 0.032899 -0.11718637 0.119299404 -0.021494325 -0.028427336 -0.13518697 0.024784807 -0.11216794 0.08288075 -0.09689758 -0.004420239 0.020718023 -0.038459003 -0.12138086 0.12365884 -0.03031409 -0.016878232 0.002642462 0.044721495 0.033708636 -0.038156237 -0.019167008 0.06713233 0.10302267 0.0010483606 -0.032733705 0.0809091 0.075236216 -0.08201848 0.21047609 0.23701131 0.23692721 0.0808916 -0.027330915 0.026839342 -0.14834516 -0.26330686 0.113532506 -0.038719974 -0.106443085 -0.16061266 0.011397409 -0.20420553 -0.19792928 -0.03273339 -0.12159614 0.06142579 -0.1527167 -0.09449912 -0.064183556 0.24696253 0.045839388 0.25760716 -0.057693865 0.04545009 0.13748541 0.06704282 -0.14038265 0.19920757 0.14634503 -0.0325378 0.1354386 0.013849923 0.025006764 -0.06628656 -0.030037148 -0.14636222 0.00463947 -0.024582388 -0.20428088 -0.08995266 0.11845466 0.045059763 0.032811865 0.004641175 0.19518323 -0.12407036 0.018351834 -0.019377701 -0.062033202 0.0012169483 -0.056741513 -0.023557913 -0.05739449 0.043865256 0.15240619 -0.13526075 0.073203854 -0.13429084 0.037319105 -0.079922035 -0.1226727 -0.059384 0.022499174 -0.07949437
51 0.1360965 -0.01999837 0.12634723 0.11412174 0.2919642 -0.0052593336 -0.06774199 -0.06633952 -0.0043891827 0.03086222 0.08795772 0.03345508 -0.068353556 -0.113552175 0.19170754 0.13887976 -0.10566916 -0.027566535 -0.017466068 0.047023058 0.036152612 -0.06828386 0.0099131465 -0.025669558 -0.0076345 0.049510505 -0.049446575 -0.025001597 0.004602457 -0.21944731 0.09811435 -0.14729877 -0.024872335 0.12188793 -0.11898031 0.03464037 -0.038371958 -0.093499705 0.035721935 0.08889614 -0.27655405 0.031105902 0.08101598 -0.02123759 -0.0007599202 -0.026053786 -0.03665412 0.05079656 -0.009523098 0.10511721 -0.1134437 0.01630753 0.23977786 0.11581611 0.15501834 -0.0028754708 0.07902909 -0.06947836 -0.036059175 -0.021692963 -0.0055479626 0.010571756 -0.07686919 0.0962512 0.11912371 0.081574 0.048256565 0.16633014 0.023346731 -0.10094247 0.07880135 0.018564923 -0.10954413 -0.060238164 -0.0524022 -0.107438974 -0.07161957 -0.04100243 0.04783451 0.018018609 -0.10962126 -0.081246465 0.010077704 0.15441419 -0.07892475 0.17553104 0.17828356 0.09479479 -0.035883956 0.056768678 -0.028678957 0.07989197 0.020994298 -0.12043889 0.12922066 0.08632471 -0.008434028 -0.11951706 -0.103567086 -0.08334264 -0.072027765 0.04419819 -0.014895216 -0.0849521 -0.015711479 0.013501837 0.10033622 0.14006415 -0.050035965 -0.021275787 0.04689482 -0.108739026 -0.004779904 -0.020435635 0.0068222517 -0.033506922 -0.008247866 0.1517284 -0.06781709 -0.1457793 -0.09605544 -0.17079294 -0.13989413 0.062445108 -0.13620023 0.09748364 -0.010898655 0.03300058
57 0.058302503 -0.092906386 0.09551486 0.06897495 0.0385333 0.033160876 -0.1502997 -0.06345422 -0.048388828 0.075665094 0.107412785 -0.053576212 -0.12568477 -0.019710964 0.073213115 0.08704884 0.019231344 -0.057251688 -0.076160304 -0.005551745 0.0069576288 0.08692642 0.0023309463 -0.11510436 -0.15567006 0.050069474 -0.043673687 0.09030608 -0.07308334 -0.08918337 0.012200176 0.0772596 -0.10727272 0.07204035 -0.0409991 -0.07906295 0.15356274 0.044773415 0.026225472 -0.076851696 -0.02063796 0.01902326 0.02258403 -0.009727547 0.109294094 -0.048512165 -0.06442004 0.08941028 -0.08109107 -0.0027845553 -0.06958105 0.06321515 0.087685816 -0.012687493 0.043960612 0.06902945 0.06640603 -0.032205604 -0.16835074 0.054852813 0.012432175 -0.017355656 0.12237148 0.018767815 -0.022307603 0.00010736216 -0.0094765145 0.101668835 0.006404543 -0.21801634 0.001620041 -0.021458682 -0.12879679 -0.1436813 -0.08500576 -0.16470277 -0.11954468 -0.033943772 -0.020385094 -0.050545216 -0.1339284 -0.13398498 0.113512695 0.121378645 0.11821917 0.23007745 0.14017321 -0.05498029 0.050524104 0.11254152 0.10449537 -0.083992735 0.17041741 -0.11402908 0.12433877 0.022595137 -0.028996924 -0.01110788 -0.005404 -0.069213994 0.0432281 -0.10926946 -0.15223393 0.034756545 0.06809371 -0.16867636 -0.039757255 0.0034968772 0.105199024 -0.08515554 -0.019361652 0.030321317 -0.06861479 0.09214938 -0.12747496 0.042641103 0.061487887 -0.02677165 0.04582195 -0.113883145 -0.026152683 -0.15687233 -0.015997645 0.01119095 -0.015030721 -0.020587763 0.04035826 0.093707025
59 -0.009577301 -0.13848671 0.091198295 0.080143236 0.077997446 0.01980284 -0.04419367 -0.11986382 -0.015236782 0.01282692 0.03859361 -0.014053652 -0.020737085 -0.0017961329 0.1878993 -0.021219123 -0.030877022 -0.046710122 -0.008194652 0.07914791 -0.020895107 -0.08428167 -0.038556438 -0.11512412 -0.07830396 0.17214574 0.026068745 -0.0074245953 -0.019873196 -0.08871536 -0.05079402 -0.033294946 -0.07062306 0.103072986 -0.02047204 0.17331676 0.16201963 -0.16297717 -0.05795798 0.05122182 -0.07783721 0.066817395 0.0724643 -0.013468314 0.024426 0.077339344 -0.20816313 -0.04010511 -0.0397566 0.026884042 0.09414851 0.048803575 -0.022771087 -0.09856067 -0.031913396 -0.104185216 0.08376216 0.015815562 -0.06770232 0.0056242025 -0.13376184 0.003859815 0.16216633 0.10886131 -0.11321048 -0.10266644 0.18549928 0.19164906 -0.018792896 -0.14769293 -0.039600838 -0.104482315 -0.12322436 -0.045136873 -0.10255347 -0.16501035 -0.07451039 0.07960577 -0.046588372 0.035380535 -0.074272424 -0.20858331 0.117036365 0.050887093 0.06848358 0.008077757 0.15316138 0.0191665 0.024328096 0.0018039976 0.09227729 -0.05171209 0.14760378 -0.0010012292 0.18525912 0.23613498 -0.057735145 -0.046589155 -0.15047468 -0.037190367 0.012331602 0.0051054033 0.018010147 0.010887713 -0.009138608 -0.1899179 -0.033367634 0.16552995 0.09318422 -0.13913555 0.07107719 -0.06707922 -0.029999323 -0.031075677 -0.111592375 0.0031217933 -0.066388026 -0.0723855 0.14167687 -0.11497011 -0.014568668 -0.062357042 0.001045431 0.017026491 -0.08294647 -0.03985744 -0.00817353 0.15909635
60 -0.07392003 -0.06509615 -0.037965402 0.08701119 -0.0023980697 0.04971512 0.13201687 0.0070002405 0.062423605 0.09675353 0.021305112 -0.038880646 0.19068982 -0.09348784 0.17398062 -0.035320554 -0.07920948 -0.058426976 0.029653912 -0.021807453 -0.05499766 0.15372048 0.0007737008 -0.18953507 -0.016514419 0.14198622 -0.0698324 0.10991875 -0.026475292 -0.013914163 -0.03109348 -0.021471376 -0.12723199 -0.026185868 -0.05273013 -0.048925065 0.06250552 -0.122021355 -0.08383616 0.06827369 -0.13496986 -0.020454103 0.16008957 -0.038868826 0.10301865 0.06099972 -0.11110423 -0.0031509832 -0.067493826 -0.03660203 -0.039053515 0.06369507 0.16226867 -0.15291892 0.054077424 -0.14242133 0.10146105 -0.09950572 0.056444112 0.0693604 -0.050782323 0.066528864 -0.030106079 0.08854552 0.09498381 0.022894701 0.05259997 0.13424613 -0.04914111 -0.17947744 -0.05243933 -0.1786034 -0.20387249 -0.21861932 -0.039474223 -0.11892046 -0.061229814 -0.022315962 -0.053616934 0.03894276 0.0017839329 -0.06080247 -0.01565995 0.17630412 0.016725259 0.22639541 0.19790985 -0.022145154 0.088044465 0.092883356 0.03978097 0.050680418 0.06847076 -0.06602644 0.08076084 0.04859195 -0.07489569 -0.16749616 -0.25535607 -0.19922161 0.019459363 0.026722852 -0.025597474 0.028535971 0.2806261 -0.06509885 -0.039426714 0.082959384 0.15315147 -0.0068372795 0.17155452 -0.024105025 0.033853848 -0.08704925 -0.021434488 0.105619244 0.028784309 -0.0612755 -0.021672452 0.08939607 -0.04364766 -0.11622369 0.00042999664 0.030739458 -0.17995436 -0.04780911 0.04933085 0.122400254
66 -0.0757608 -0.20651436 0.111021735 0.040597647 0.09028391 -0.14982392 0.16239804 -0.08218177 -0.08161165 0.1293159 0.0620083 0.08040061 0.0050245672 -0.102427855 -0.07604178 0.16996472 0.05626413 -0.040383913 0.011006521 0.03580805 0.0609994 0.035126016 -0.08845557 -0.113165565 -0.20562035 -0.09714614 -0.12707491 -0.03751373 -0.034114882 -0.17603874 0.030028816 -0.024507439 0.13975678 0.09100483 -0.042147353 0.005648205 0.14209677 -0.09548551 0.059681874 0.17767093 -0.23421738 0.025415275 -0.033680763 0.018369237 0.08142079 -0.08009567 -0.15947336 0.059791796 -0.012010342 0.14725453 -0.026423829 0.06922176 0.19829871 0.01857589 0.04715417 -0.12451127 0.09146379 0.15738855 -0.050815072 -0.055839807 -0.02046462 0.071697235 0.039392278 0.12679143 0.09477155 -0.068758175 -0.059166905 0.023028037 0.11954082 -0.11012869 0.09872242 -0.14712155 -0.0094831735 -0.0158329 -0.024851378 -0.25274 -0.08353394 0.17764574 -0.022325834 -0.040270407 -0.06312089 0.018734567 0.014798216 0.07381695 0.042468328 0.30741403 0.19080827 -0.14311913 0.18354622 -0.08897543 0.023342403 -0.026111953 0.22446078 -0.039814968 0.10042256 0.05615297 -0.13512658 6.6804634e-05 -0.09132144 -0.1310253 -0.01077143 -0.10197551 -0.087386765 0.08004929 0.14817674 -0.04468351 -0.045778733 0.029681662 0.10064245 -0.060299333 0.045679677 -0.08844118 -0.17468123 -0.015724551 -0.03460328 -0.027638085 -0.12259484 0.13722232 -0.10968629 -0.10543764 -0.070866905 -0.0619747 -0.13210858 0.0075636087 -0.09019862 0.001993833 -0.18040086 -0.06447628
72 0.11475541 -0.037436336 0.024984386 0.11781665 -0.0193067 0.10224376 -0.014654284 -0.112127006 0.25793967 0.08471797 0.14809397 -0.0059743645 -0.073509395 -0.16656633 0.217399 0.005768433 -0.08044838 0.0035300725 0.07584037 -0.04661035 -0.028223692 0.079508066 0.0022006282 -0.14721017 -0.036402334 0.08500423 -0.2209363 0.12781698 0.09560349 -0.026745547 0.07021541 0.077022396 -0.16786033 0.16194838 0.024659665 0.012717487 0.10123505 -0.17099199 -0.19965118 0.09651464 -0.19477856 -0.05378347 0.13892272 -0.14309584 0.07621218 0.021968422 -0.014924583 -0.18000343 -0.05552548 0.012462908 -0.04815155 0.1168912 0.21939531 -0.09720839 -0.0455745 -0.103604935 0.18656276 0.06972714 0.05025678 -0.107900046 0.16028535 -0.06526843 0.0005585265 0.13220645 0.23025051 -0.02220239 0.08755587 0.22991207 0.10084879 -0.21910813 -0.06930846 -0.1466458 -0.08486209 -0.08615179 -0.0374904 -0.11733881 -0.004929133 0.07617286 0.09841824 0.093586385 0.18324731 -0.25939164 0.16838294 0.0013911711 0.04142466 0.12592 0.17652608 0.082157634 0.13344887 -0.01140339 0.11001593 -0.0028450647 0.17923105 0.0494232 0.3338428 0.02338249 -0.15389615 -0.068710156 -0.03601605 -0.13845405 -0.048370913 -0.16296019 -0.052555785 0.05188645 0.0831521 0.01562087 0.10954785 -0.021668512 0.12915652 0.0048967875 0.05329887 0.1315613 -0.074087955 -0.01775605 -0.3379671 -0.059114475 0.087226234 -0.017122447 0.08662248 -0.10425086 0.074343756 -0.022620004 0.0115821725 -0.044079624 -0.18819584 -0.035722394 0.027989233 0.09930746
80 0.08305591 -0.28234667 0.24996734 0.40821892 -0.003229686 -0.2691321 -0.1342625 0.11425476 -0.05644817 0.015974633 -0.11124454 0.020916162 0.13039522 0.0061083967 0.13372245 0.13985823 -0.034556635 0.00090073724 -0.109441206 0.22545502 0.06142338 0.12498246 -0.18824509 0.009922887 -0.08838871 0.12097613 -0.058303982 0.10608672 -0.17489354 -0.19397649 0.24201037 -0.31314594 -0.0699306 -0.22254175 -0.09520116 0.17230092 -0.032547045 -0.05316106 0.23665856 -0.03113738 -0.10499717 0.15272169 0.09367264 0.19068758 0.26709133 0.19334279 -0.19376531 0.0076046335 0.034219995 0.23704447 -0.15300247 -0.130174 0.23896304 -0.20620114 -0.064470045 0.013233182 0.26417792 -0.09483529 -0.042841364 0.08412932 0.25063533 0.05472581 -0.12417325 0.02401045 0.02346591 -0.06386337 -0.028692275 0.10548777 0.06744794 -0.23219842 -0.00051895785 -0.13559267 -0.33897996 0.12407135 -0.189012 -0.16007818 -0.016557474 0.13694245 0.197327 0.14503466 -0.019628357 0.21724352 -0.23746875 0.110452525 -0.2831772 0.22940922 0.3345874 0.08107214 -0.123547375 -0.022193711 -0.038954947 0.040369518 0.013263886 -0.21842511 0.18329671 0.027056972 -0.06949726 -0.28844652 -0.11383314 0.17282215 -0.07975415 -0.031946465 0.17022349 0.033028223 0.06714856 0.07967969 0.040429983 0.14158413 0.015838284 0.03379082 -0.35939556 -0.0050121164 -0.15828337 -0.23965193 -0.013280842 0.0065326286 0.24848421 -0.0023268112 -0.14735109 -0.046990626 -0.332176 -0.07868245 -0.25194505 -0.12859699 -0.13508451 -0.2401291 0.018790476 0.11547265
83 -0.0036868209 0.055759035 -0.08415316 0.117477536 -0.010192088 0.1465947 -0.08453869 -0.08743172 -0.053840637 0.2190093 0.25993714 -0.07818551 -0.16414611 -0.048092064 0.1642913 0.109068945 0.01591486 0.034673225 -0.102231376 0.010800198 0.055309244 -0.062452994 0.023738824 -0.12183981 0.007592141 0.019773068 -0.029461507 0.10142544 -0.017006297 -0.078332886 0.06793276 0.0012623799 0.05830158 0.105114296 -0.18165258 -0.040686328 0.20326498 0.028750215 -0.080713406 0.12565713 -0.10997801 -0.019852558 0.004837396 0.0129091 -0.018871443 -0.061897013 -0.0904355 0.076822646 0.029464476 0.11761232 0.17004865 0.038132783 0.18526293 -0.063077725 0.049943447 -0.12629972 0.04410207 0.0143222315 -0.096373044 -0.0022063944 0.030621845 0.10057862 0.15885568 -0.050444096 0.0149587225 -0.04349464 -0.013881623 0.124722145 -0.053938765 -0.043957174 0.09582486 -0.11134996 -0.030110171 -0.06171487 -0.01977453 -0.18567179 0.025673034 -0.07003976 0.024612766 0.26914212 0.07167124 -0.017457526 -0.12648332 0.14546332 -0.04789074 0.25627264 0.049657658 -0.006756255 0.19880866 -0.009515413 -0.0069908146 0.11382223 0.16634148 -0.0043945783 0.14461736 0.17383525 -0.12616304 -0.17897455 -0.048324205 -0.053778257 -0.05779746 -0.109493285 0.030708678 0.07141757 0.060712166 -0.11224192 -0.026465457 0.09476945 0.06314875 -0.055619072 0.008245319 -0.18593842 -0.09329242 0.090482175 -0.09248936 0.0759999 0.07249782 0.013575573 0.15853432 -0.07273868 -0.026426999 -0.016119236 -0.074547455 0.08286375 -0.023887329 0.015176925 0.018691532 0.09236014
91 0.12120886 -0.14532396 0.18810877 0.06508702 0.1245824 0.11438975 0.002095061 0.08134938 -0.09361874 -0.028812831 0.05383055 -0.041294225 -0.08401951 -0.008079886 0.12267232 0.0064922106 -0.14932132 0.004618657 0.08975555 -0.02008916 0.039892633 0.10152886 -0.09690213 0.016078547 -0.035761278 -0.11767166 -0.13435607 0.11179133 0.0074515953 0.011101462 -0.003882279 -0.071757086 0.002995352 0.10308451 -0.083440825 0.01884325 0.33193985 0.000112936614 0.008295207 -0.027089784 -0.06978902 0.10509022 -0.054850772 -0.10599715 0.1559947 -0.029062511 -0.18911257 0.076142944 -0.14299525 0.103619 0.008857763 0.2107364 0.20930661 0.11861731 0.08264667 -0.015814139 0.2169842 -0.015097508 -0.08694323 0.0015248572 -0.09012575 0.008680405 0.050948977 0.010776808 -0.061985325 0.05382741 0.024321144 0.17210573 -0.027034739 0.0538417 0.10155379 -0.039008312 0.029777734 -0.035787135 -0.006037734 -0.1588444 0.01679458 -0.031817447 -0.14946447 0.0593891 0.09447647 0.06863368 0.11988295 0.059175123 0.04352436 0.1285075 0.085102566 -0.110689074 -0.0050331187 0.10121097 0.0069684642 -0.0017061844 0.100461915 -0.031218162 0.24586907 0.1689516 -0.050529137 -0.10193413 -0.16267012 -0.01819813 -0.00939002 -0.06502193 -0.15041181 -0.08329522 -0.08186427 -0.025863629 -0.01762898 0.105283886 0.13074993 -0.052252192 0.073668726 -0.09874228 -0.007186831 0.14627096 0.0072719576 0.026004398 0.019172246 0.0075651845 0.15665808 -0.010348489 -0.02352955 -0.13807331 -0.026239049 0.06365528 0.016778933 -0.15167435 -0.12524949 0.04354998
93 -0.021155525 0.005247856 -0.023039125 0.10335621 -0.029932987 -0.028746944 0.031262364 0.08314461 -0.09418646 0.07073895 0.14311327 0.06746978 0.04880964 -0.03898561 0.10393704 -0.06218998 -0.03255953 0.018181115 -0.08494866 0.17438771 -0.049041294 0.06256055 0.053315524 -0.22809242 -0.17773427 -0.030870494 -0.102551155 -0.07240463 -0.11188032 -0.08318253 -0.02778958 0.024513813 0.15630022 -0.07859459 -0.07150217 0.12394908 0.13679516 0.031852778 0.043834794 -0.041284204 0.074532904 -0.14218447 0.11489881 -0.004318653 0.032899026 -0.028943898 -0.1449604 0.029605567 -0.07671127 0.05879921 0.1583408 0.13121931 0.06821388 -0.006325364 -0.03438395 0.0024669461 -0.050744116 0.029881733 0.0065684547 0.1194232 0.013583124 0.04612094 0.059001315 0.125108 0.18261355 0.08275191 0.084009126 0.112426564 -0.08572381 -0.2210848 0.1828747 -0.08522314 -0.08986034 -0.06177145 -0.07292568 -0.29249954 -0.14852151 -0.05242332 -0.118326366 0.048832268 -0.0051881657 -0.024995718 0.0430318 0.24164422 -0.10001445 0.09586457 0.13145815 0.0062568337 0.14875934 0.12678134 -0.00038615914 0.10064517 0.115822606 -0.1989906 0.16505349 -0.099395655 -0.096656494 -0.1968741 0.022020489 0.0758085 -0.101959035 0.05501491 0.01056826 0.038197745 0.014957213 -0.101008326 -0.10400751 0.08372734 0.043066174 -0.13066345 0.38199452 -0.0081510525 -0.07796794 0.07821121 -0.037104364 0.10439914 -0.097528934 0.026023911 -0.063364916 -0.04267549 0.069229096 -0.20637625 0.049356673 0.1609046 -0.12853417 -0.055260494 0.08835349 0.095811844
99 0.016090795 -0.08636462 0.011098004 0.08636424 0.084243014 -0.024778094 -0.011198608 -0.08490145 -0.1364723 0.0528403 0.0183845 -0.009753865 -0.15862495 0.041831836 0.10537934 0.057439633 -0.092659116 0.0931205 0.0475859 0.013636011 0.027450036 0.06522317 -0.0611464 -0.15529186 -0.013817201 0.019156933 -0.09824936 -0.085413545 -0.16330792 -0.1706742 0.06930485 -0.005791715 -0.041709304 0.066841744 -0.12422886 0.05314456 0.04704516 -0.12539096 -0.011387722 0.013807388 -0.3169462 -0.08227634 0.0363735 -0.026123095 0.021063244 0.009032105 -0.24724409 0.08294679 -0.052470893 0.08830638 0.12541288 0.22017355 0.08435822 0.03158937 0.050990455 -0.078586966 0.046787918 0.03987542 0.0006258741 -0.10035798 -0.06609561 0.089494765 -0.14761986 -0.020021781 -0.08183259 -0.11361006 0.11595849 0.059804965 -0.026261939 -0.06764653 0.06830033 -0.03203587 -0.1820418 -0.13047542 -0.047103908 -0.049626444 -0.072470285 0.030066388 -0.06031621 -0.067920424 0.036268916 -0.08181959 0.022319099 0.19689621 0.1884843 0.21119095 0.21337673 -0.055172306 0.121755265 -0.0042538624 -0.028217971 0.012551201 0.14036177 0.026772395 0.11096165 0.14094785 -0.06007751 -0.12593895 -0.020272963 -0.14066017 0.10633073 0.11495392 -0.0304538 0.112810366 -0.074683465 -0.10921295 -0.066225134 0.11197103 0.062347922 -0.20667256 0.07526057 0.0004468067 -0.038070854 -0.046796914 -0.11572913 0.051870175 -0.12500313 -0.10199927 0.10502152 -0.10129065 -0.07450083 -0.062465392 -0.14062779 0.1275523 0.020532224 -0.11887431 0.10449255 0.10798153
105 0.10273767 -0.05512572 0.13115056 0.14725003 -0.11042133 0.05485222 0.12981021 -0.13507108 -0.168141 0.025061572 -0.022328023 0.32258087 -0.08749126 0.00077366194 0.0020942022 0.18674913 -0.024280563 -0.06551194 -0.21655394 -0.065764256 -0.089943096 0.029428462 -0.2562913 -0.3138608 -0.015148572 -0.020506315 0.0903554 -0.11622816 0.036078647 -0.06997189 0.0803141 0.09237043 -0.10087488 0.13304594 -0.2337472 -0.14501286 0.24975027 -0.057415124 0.10301293 -0.07210588 -0.33102027 0.0540924 -0.10856963 0.011462512 -0.011193439 0.1682012 -0.23918766 0.07746304 -0.22985007 0.064881094 0.04199784 -0.16855451 0.20097524 0.15794183 0.02088563 0.11384195 0.20800292 -0.026893986 -0.11027112 -0.20022121 0.13324471 0.05018165 -0.018608525 0.07845157 0.026405914 0.08056296 0.029980991 0.102378346 0.062025104 -0.14165446 0.14551352 -0.1222622 -0.06876471 0.09492289 0.006327159 -0.26392016 0.061987236 -0.16372505 -0.050953813 0.18262526 0.030887442 0.006177219 -0.16825417 0.09712923 -0.070155084 0.2887586 0.20309909 -0.111815214 0.09556978 -0.0023550733 -0.1294403 -0.1069375 -0.028898971 0.087077744 0.16416802 0.21012428 -0.099049814 -0.19789945 -0.04300043 0.06598086 0.037903097 0.12713411 -0.08576106 0.10286184 -0.18482995 0.19769835 0.035129547 0.08498759 0.30810964 -0.26620352 0.12109348 -0.011953319 -0.14346418 0.29218346 0.14606313 0.122479804 -0.046694886 -0.21343382 0.19877143 -0.21508226 0.011348255 -0.016848492 0.05660737 -0.022256061 -0.23738356 -0.004773849 -0.03194948 -0.105315365
106 0.09299328 -0.056410916 0.074028395 -0.008995506 0.10242975 0.1009845 -0.031783238 0.022626694 -0.04202369 0.03036521 0.07614434 0.017027391 -0.16965385 0.101516046 0.111681044 0.042851333 -0.074568234 0.03677723 0.018098542 -0.033583257 -0.037698727 0.03177143 0.07568623 -0.049016554 -0.15223733 -0.09680294 -0.108303145 0.027722131 -0.0461025 -0.050348684 0.021184588 -0.037152942 -0.0061441595 0.09945729 -0.088388756 -0.015044826 0.17078991 -0.0717979 0.08614592 0.033831228 -0.06145423 0.00723303 0.06495508 -0.098309614 0.053847607 0.036450926 -0.07595745 0.08689373 -0.011064006 0.07589879 0.07632438 0.07978813 0.18888249 0.10128158 -0.12571535 -0.015644072 0.1435142 -0.04439032 -0.16451138 -0.00030125 -0.11422298 0.025161609 0.0902384 0.015403178 -0.042199966 -0.010365135 0.03517488 0.0010413104 -0.010719153 -0.11004792 0.11049237 0.025357174 -0.10376844 -0.168741 -0.029620254 -0.24822958 0.06480554 -0.022054473 -0.1486168 0.12758732 -0.03694129 0.061067455 -0.0074080206 0.22160104 -0.05741493 0.12330948 0.08877408 -0.07922119 0.13276516 -0.023050977 -0.063310765 0.027198745 0.071524076 -0.042250246 0.20389916 0.11119411 -0.055249717 -0.10005015 -0.15865259 -0.058711894 0.07543437 0.08966012 -0.06664174 0.019316884 -0.018338064 -0.14702548 0.08076288 0.15190944 0.078131855 -0.12187366 -0.03771052 -0.18690309 -0.07509664 0.10511226 -0.056977745 -0.023045328 -0.021931294 0.0448023 0.067800045 0.021022582 -0.02126678 -0.046921358 -0.023631824 0.13218197 -0.10763645 0.01762326 0.024981918 0.020472698
108 0.05616994 -0.14681596 0.00521985 0.12249747 0.0496497 -0.0022732718 -0.10514672 0.040253013 0.09613569 0.07869816 -0.03499551 -0.11023061 -0.021887906 -0.019897625 0.029860698 0.09802606 -0.13217552 -0.120871484 0.034712385 0.046572946 0.008664166 0.12692168 -0.012243506 -0.16421391 -0.11020557 0.122849904 0.04006145 0.10198144 -0.11225898 -0.06676373 0.08398989 0.10395696 -0.013963943 0.07473198 -0.08789212 -0.002095087 0.12495815 0.075913295 -0.084769465 0.012765818 -0.2033232 0.05494587 0.06706822 -0.13311839 -0.002727126 -0.063853465 -0.11570702 0.036207445 0.018626163 0.09957825 -0.035365615 0.024589501 -0.010923268 0.056920506 0.0011644114 0.009200035 0.247485 0.017437605 -0.09381501 0.120058954 -0.027504634 -0.029830534 0.025864244 0.053081527 -0.0198134 -0.0048765913 0.08800091 0.021010147 -0.064723864 0.025032455 0.036106337 -0.03384712 -0.17445672 -0.11303238 -0.049103808 -0.13990521 -0.030967759 -0.07996331 0.091019325 0.1132492 0.06647754 -0.045325175 0.0036177207 0.21739933 0.027768483 0.096976474 0.039856642 -0.040339284 -0.03268155 0.08066632 0.020422135 -0.03265292 0.052904453 -0.01110961 0.073028296 0.08142685 -0.031623535 -0.16084139 -0.09234713 -0.003272523 -0.16623533 -0.059198037 -0.1274842 0.019422159 0.056545835 -0.09597293 -0.11508443 0.11177409 0.08280598 -0.14575827 0.14172226 -0.1906256 0.039962944 0.045484662 -0.041420642 -0.094316766 -0.029800246 0.066304356 0.062011644 -0.10660058 -0.14206253 -0.12838235 0.015769346 0.0052064024 -0.13217293 -0.04157312 0.008284823 0.0821607
109 0.11344914 -0.10005669 0.14233923 0.21151176 -0.04326875 0.057345137 -0.011332406 0.10137017 0.10155469 0.15379044 -0.09709086 0.13306664 0.08900574 -0.043263428 0.21948597 0.302556 -0.16798817 -0.03225737 -0.13984737 -0.07238326 0.06473919 0.18092352 0.054339916 -0.1206057 -0.18977495 0.012916506 -0.07393295 0.11557488 0.1744306 -0.095902756 0.15559864 -0.04407893 -0.15032534 -0.03949136 -0.1380123 -0.021089649 -0.07041695 -0.121522434 -0.14080827 0.023013106 -0.033888973 -0.03283744 -0.20136163 -0.051388457 -0.13856696 0.07813013 -0.19392872 -0.20931497 -0.004852328 0.021014385 -0.24224238 -0.10070942 0.1527093 0.045508694 0.13737223 -0.027239487 -0.03394361 -0.17812727 -0.12541994 -0.08164682 0.043414146 0.22448753 0.11362855 0.050748784 0.12660576 -0.07057947 0.13523628 0.39716563 -0.18542133 -0.1419687 -0.027419103 -0.04277238 -0.18511872 0.050854113 0.021525186 -0.16395675 -0.08852232 0.04725037 0.0052503003 0.19094293 0.076279975 -0.10031377 -0.040074077 0.23032837 -0.069501236 0.3320676 0.012024082 0.09241288 0.34770805 0.10580925 0.055670913 0.10673074 0.21518505 -0.1309882 0.105228946 0.17592035 0.040470462 -0.11027875 -0.11152004 0.020045174 -0.036182877 0.00845292 -0.1649099 -0.16951361 -0.04243323 0.10653531 0.16152826 -0.08614308 -0.09612413 -0.13359496 0.018279597 -0.026421035 -0.028655423 0.08758899 -0.007152788 -0.081935026 -0.15062504 0.086332545 0.09859769 -0.08492476 -0.0686 0.017438538 0.0074116173 0.057599235 0.042485695 -0.10059642 0.051096313 0.027414534
111 0.052321862 -0.100024745 0.0046107075 0.035880953 0.14756328 -0.014047097 -0.009940924 0.010381687 -0.07571552 0.029281996 0.083040304 0.078583464 -0.046213478 -0.078393035 0.08134547 0.11374857 0.06729304 -0.063828856 -0.070746735 0.059088845 0.11446051 0.034878816 0.043384116 -0.12767941 -0.0854635 0.054692548 -0.17246024 0.009711706 -0.09593652 -0.1269864 0.024971595 -0.09847859 0.008518578 0.19347978 -0.10504434 0.030291032 0.19599229 0.08830754 -0.1356811 -0.024125736 -0.09881994 -0.03986578 0.03413755 0.051958796 0.051795743 0.0191304 -0.1017773 0.001550476 -0.058322225 0.19954263 0.034330342 0.10406348 0.06108737 -0.052120324 0.11140402 -0.10089773 0.061902747 0.043362085 -0.025206804 -0.06555004 -0.029569866 -0.05079599 0.07396624 0.109093376 0.035820726 0.08701122 -0.082288496 0.017170168 0.01393762 -0.15295292 0.03647748 -0.074552774 -0.12924646 -0.09889412 -0.13696152 -0.14113508 -0.12579171 0.06133798 -0.05777892 -0.008332115 0.0060021915 -0.08316418 0.04938864 0.17125262 0.0012198256 0.24358365 0.11079257 -0.122407995 0.12838379 -0.03187803 0.051684078 0.019032273 0.10390061 -0.0776134 0.20033807 0.050601866 -0.021491516 -0.11193603 -0.08974149 -0.08987568 0.05711711 0.07973164 -0.1613488 -0.047145706 -0.010523539 -0.10863633 -0.012282169 0.02967306 -0.01899606 -0.10941254 0.11335532 0.009139538 -0.031629477 0.047448434 -0.021050127 0.010821191 -0.07483488 0.13060878 0.08659067 -0.0021473062 0.047828145 0.016360037 -0.025850615 0.037983675 0.028692 0.02849551 -0.011175634 0.0670176
115 0.00563462 -0.16191263 0.07585526 0.16191639 0.10921195 -0.009405647 -0.11651408 -0.076899566 0.008054007 -0.012903329 0.110742584 -0.091561936 -0.007887311 -0.048804604 0.07846305 0.10669668 -0.1361004 -0.0036282525 -0.036044214 0.051402707 0.048696615 0.12825653 -0.014855699 -0.14723383 -0.11579062 0.012205458 -0.029251356 0.0012225587 0.03628831 -0.032700345 -0.035479117 0.016816208 -0.0022133745 0.09753581 -0.036647543 -0.004712644 0.14741069 0.009938812 -0.020755617 -0.06715589 -0.10173195 0.022510333 -0.08146768 0.0096011115 0.07154471 0.053504944 -0.12263232 -0.009190234 -0.105745986 -0.0082476055 0.085725546 0.0071589653 0.022096774 -0.022761323 0.020374963 -0.11063561 0.14817816 -0.0331406 -0.0553792 0.016001524 -0.055884555 0.046480592 0.08925348 -0.0106178345 0.0021941573 0.054041397 0.04671759 0.110176265 -0.0667045 -0.16040553 -0.025922751 -0.067382336 -0.10554379 -0.18211007 -0.00480268 -0.14147562 -0.014397873 0.0055336426 6.2977095e-05 0.09656371 -0.010184003 -0.101053566 0.09342096 0.22323774 -0.022578772 0.113462344 0.17066677 -0.1229897 0.034571685 0.06233479 -0.082250744 -0.06424604 0.1530148 -0.03686953 0.06969024 0.09895116 -0.050042897 -0.035428863 -0.1465026 0.06350933 -0.034367163 -0.008995234 -0.0391077 0.029104779 0.02913003 -0.090161875 -0.007831357 0.11225839 0.0017472176 -0.085934415 0.060259707 -0.03536507 -0.05016792 0.012668266 -0.06583623 0.002162841 0.017394517 0.01941567 0.03934357 -0.11370408 -0.008690248 -0.051969446 -0.045075275 0.06454629 0.066715494 0.015109801 0.0063115465 0.061873004
127 0.032624435 -0.08277188 0.11655105 -0.053997744 -0.05705262 0.039141275 0.2481887 0.012316152 -0.0246858 0.1987919 0.08409182 0.18541539 0.1006004 0.17444895 0.1917106 0.090956055 0.09997135 0.13164389 -0.0043636523 -0.106341116 0.051571947 0.08669506 0.028449852 -0.056031577 -0.31797585 0.049590115 -0.21149543 -0.053000677 -0.16618575 -0.1087358 -0.079560995 -0.11540099 0.1844644 0.24396513 -0.21763967 -0.15078336 0.11079405 0.12001751 0.08842802 0.05507344 -0.029993152 -0.123579875 -0.043616306 -0.01556351 -0.14480712 0.14828034 -0.027466511 0.016886031 -0.03233761 0.006325369 0.0023614082 0.049691163 -0.05155675 -0.101253346 0.04933963 -0.17047714 0.25699642 -0.006341069 0.15198606 0.21449217 -0.021605974 0.04095229 0.0524812 0.30852908 0.3680005 -0.1392101 -0.1373275 0.14943174 -0.031506304 -0.28762615 0.10612572 -0.024544919 -0.18781246 -0.13555744 -0.013410976 -0.096212156 -0.057390656 0.026383873 0.019949071 0.14788799 -0.077949576 -0.031179257 0.13024476 0.37935498 -0.18830901 0.11944618 0.19386965 -0.08939692 0.030525453 0.055010818 0.2059364 0.052938726 0.081482776 -0.114763655 0.14042896 -0.06613264 -0.08852189 -0.08533146 0.075179845 -0.10239173 -0.007434484 0.0058579408 -0.22302149 -0.048495244 -0.035411462 -0.1604719 -0.07386242 -0.009544762 0.21076816 -0.21306999 0.32221776 0.1914179 0.0522859 -0.054453265 -0.16906759 -0.14788157 0.07189104 0.1797882 0.17651963 0.059322003 0.056909256 0.020155592 -0.0017044003 -0.07592494 -0.17917512 -0.17064857 0.09384527 0.02734358
129 -0.012431396 -0.07032185 -0.03048078 0.09012662 0.013698898 0.16746981 0.08101146 -0.023330186 -0.018043289 0.027114803 0.018112658 -0.008181007 -0.13164203 -0.0056051686 0.027851956 0.048935853 -0.007519536 -0.08865588 0.000281493 0.10162968 -0.013766747 0.12800406 -0.037414633 -0.31791162 -0.06865657 0.048806455 -0.19857983 0.061385356 -0.04708368 -0.00035251555 0.13357288 0.016220963 -0.11263088 0.07174352 -0.05879039 0.044405553 0.19094215 -0.0022632624 -0.09099802 0.016572224 -0.26842856 -0.091956325 0.07978088 -0.11831127 0.08886429 0.03879106 -0.08171237 0.0989766 -0.047359087 -0.020715497 -0.025277324 -0.041985046 0.079886 0.022830894 0.013751393 0.018850952 0.12680776 0.039397225 -0.104384355 0.13152656 0.040209066 0.06903825 0.12186712 0.066154614 0.20616242 0.124797784 0.019812603 0.1285877 0.034978807 -0.20906882 -0.012836039 -0.15550841 -0.14848442 -0.16140307 -0.020517897 -0.11555392 0.05227217 -0.08611151 -0.11895389 0.05995765 -0.0057478463 -0.11172094 0.11291241 0.12759164 -0.065509036 0.2610586 0.1577496 -0.036077052 0.11409287 0.00048407927 0.02610919 0.12605728 0.14069314 0.024207732 0.20240572 -0.1625893 -0.03362444 -0.17147416 -0.03125107 0.08669132 0.050848633 -0.09089536 -0.16275217 0.034095705 -0.09420465 -0.14386195 0.0019301169 0.057444494 0.012417977 -0.081972815 -0.116225034 -0.008640464 -0.020340363 -0.11528162 -0.15627044 0.0086709475 0.12031373 0.10071152 0.12986107 -0.006338334 0.006390239 -0.105433345 0.12168478 0.19256066 0.06080249 -0.10425936 0.087344244 -0.0545179
132 -0.034198705 -0.105961114 0.103418544 0.059313923 0.0733625 -0.06526848 -0.03192544 -0.053325925 0.057161037 0.03809622 0.13840765 -0.11457227 0.02105889 0.014956521 -0.01858206 0.040765658 -0.071053565 -0.008907823 0.04310748 0.07864655 0.13289538 0.2520741 0.032144617 -0.0877222 -0.13238394 0.10963825 -0.03864197 0.06842699 -0.009934838 -0.15967506 0.06003741 -0.029701259 0.02554706 0.039423272 0.025278237 0.03088348 0.11599849 0.0069712135 -0.008091614 0.122653045 -0.15774709 -0.1109937 -0.065272726 -0.03390212 0.1476692 0.033321526 -0.111381784 0.011603085 -0.026266886 0.05252819 0.11593406 0.016668282 0.02922757 0.060625345 -0.02765823 -0.0018832029 0.06514417 -0.028973429 0.005280252 0.030458596 -0.006053683 -0.05425289 0.12364781 0.062863894 0.007650399 -0.025830703 0.018673996 0.18766616 -0.09922352 0.0010462428 0.03706782 0.03976785 -0.024786977 -0.010391355 -0.07158029 -0.19199094 -0.07323792 -0.022324385 0.011241079 0.16927141 -0.06971315 -0.026133463 0.072387986 0.121788554 0.1394746 0.14267233 0.14316036 -0.06360269 0.037032075 0.0738723 0.061105143 0.022911204 0.041564103 0.082168184 0.10251101 0.015380395 -0.107572764 -0.123644754 -0.124554634 0.01689131 -0.0817643 -0.1272698 -0.17073217 0.06986835 -0.053452685 -0.15645449 -0.07830337 0.17886946 0.04136347 -0.17528895 0.026716275 0.03680516 -0.028886447 -0.012941066 -0.16286442 0.051295716 0.0662354 -0.031254824 0.03788705 -0.10352346 -0.16990517 -0.2178925 0.034584053 -0.035320323 -0.13520937 -0.12904052 0.04628652 0.026343273
134 0.061257288 -0.16900235 -0.05418942 0.113498 0.16349488 -0.0680928 -0.030273901 -0.03159521 0.0012889504 -0.04006056 0.071766585 -0.1268546 -0.07256188 -0.039527643 0.10029792 0.042959772 -0.023883801 0.033920832 0.020301186 0.006568566 0.07711426 0.21120293 0.09685861 -0.13932066 -0.1410625 0.031832848 0.025819872 0.2008154 0.022957794 -0.031160934 0.028934976 -0.04617822 0.012886478 0.05175276 -0.16393214 -0.019977104 0.24129951 0.052680444 0.08529945 -0.024714135 -0.116954975 -0.036503762 0.024647268 0.045836467 0.05153085 0.09344001 -0.038478475 0.030239474 -0.12867887 -0.020911751 0.043826208 -0.07811485 0.044935558 -0.022058018 0.054572143 -0.08478513 0.16674429 -0.09119585 -0.027917642 0.074492656 -0.029161783 -0.052559745 -0.09812456 0.08438998 0.0331289 0.069708616 0.10041593 0.09621254 -0.077085584 -0.06631556 -0.043600228 -0.002294179 -0.042751852 -0.030464804 -0.011395352 -0.17525677 -0.01992648 0.07640186 -0.061485924 0.04758779 -0.12111601 -0.031399548 0.027832584 0.1526761 0.043760456 0.098662004 0.19915509 -0.127316 0.03865815 0.103882335 0.018035332 0.0020209823 -0.025509387 0.09796445 0.17132215 -0.015332758 0.041556336 -0.20146954 -0.09293277 -0.12797424 -0.051457368 0.03680505 -0.16065978 0.0077687246 0.03808386 -0.008281785 -0.14738564 0.033301968 0.045719218 -0.037040014 0.08765195 -0.13324338 0.03523179 0.10465883 -0.0068734935 0.06311956 0.016230451 0.072072625 0.09154322 -0.084841624 -0.04342616 -0.05801152 0.02388722 0.115222484 -0.038838457 -0.091079764 0.057903174 0.17097184
141 0.022844078 -0.20407896 0.0063880025 0.09564138 0.1844145 -0.068812296 -0.22193152 -0.0018968625 -0.06570099 0.10594449 0.026634926 0.07435904 0.0048798285 -0.07461478 0.1659507 0.13039392 -0.23214851 -0.048164763 0.047034506 0.12868495 0.22966184 0.20204929 -0.023509111 -0.062253587 0.0060447706 0.12447468 -0.049251333 0.035548262 0.058556717 -0.10161318 0.08495035 -0.24119872 -0.025536748 0.06679422 -0.04615303 -0.006799091 -0.05633562 0.01352078 -0.0018947347 0.048941307 -0.10577784 0.19353001 0.27403 -0.0011000708 0.043597233 0.008872542 -0.0052702185 0.14949551 -0.05993685 0.15487687 -0.0773135 0.004409273 0.19221368 -0.01933568 0.09435086 -0.1036158 0.20927253 0.030224202 -0.048407774 0.02056955 0.1906759 -0.12309183 -0.054444056 -0.0010707765 0.02032136 0.05649872 0.08022888 0.08153398 -0.041268516 -0.11123322 -0.0153796375 -0.0019286192 -0.23127294 -0.06847767 -0.010288608 -0.17621222 0.011784747 -0.0026924354 0.19658555 0.04267575 -0.07101732 -0.057943054 -0.0029873608 0.2981272 -0.21932298 0.12857321 0.10798114 0.020549163 -0.08070125 -0.112314574 0.018737568 0.009839381 -0.004770677 -0.038019955 0.10297322 0.10847713 -0.09312384 -0.17024747 -0.051878087 0.078431554 -0.052096274 0.09063069 -0.064247444 -0.06374473 0.021333894 0.007379543 0.040469594 0.120484464 0.038472183 -0.1090133 0.009953545 0.025388565 -0.05603469 -0.0334281 0.045988586 -0.019741995 -0.09632418 -0.016399615 -0.19244732 -0.09856159 -0.10064549 -0.04980572 -0.14002514 0.028482912 -0.13946806 0.039038487 -0.059794944 0.044808123
144 -0.09957713 -0.21898541 -0.047632046 0.104813494 -0.060101427 -0.0258445 -0.18872653 0.014525279 -0.08349517 -0.11636332 0.10765962 -0.07265763 -0.080345646 -0.027702099 0.19792444 0.18772173 0.02312651 -0.13526204 -0.060475007 0.07295798 -0.019093018 0.06493876 -0.0682758 0.013813386 -0.03238393 0.17463662 0.013885318 0.18761042 -0.03254398 -0.075685956 -0.058393843 -0.04602668 -0.17723233 0.048975114 -0.023065874 -0.008630856 0.13455424 -0.021747796 0.11070543 0.021608498 0.026259582 -0.032265913 -0.070703484 -0.060652353 0.021878928 0.10713693 0.0021920255 0.10538819 0.05535102 0.10799852 -0.042784333 -0.081003666 -0.011607757 0.061794993 0.018147057 0.029168028 0.18887275 -0.02010176 -0.15187114 -0.13801315 0.1372173 -0.019840905 -0.027637431 0.010380169 0.031091789 0.024251878 0.09522978 0.2836244 -0.10177807 -0.19474539 -0.0489967 -0.060061447 -0.008833864 -0.018520642 -0.036780685 -0.18057926 -0.052743867 0.047500003 -0.002092752 0.0652463 -0.087452225 -0.12081502 0.1461016 0.117046304 0.12227665 0.118359886 0.15647446 -0.06762842 0.12061783 0.10890335 0.07937877 6.7862784e-05 0.19200061 -0.053481363 0.10071733 0.13392721 0.047006793 -0.22662114 -0.028740577 -0.158296 -0.09031146 -0.065857686 -0.16402698 -0.020758955 0.06729442 -0.11525442 0.018749526 0.042555317 0.12922059 -0.005449091 0.05302942 -0.0631365 -0.04897049 0.21301098 -0.019086529 -0.0058938195 -0.115912355 0.07591952 0.0029673695 -0.0756517 -0.08919516 -0.06572623 -0.031156518 0.06276362 -0.0441042 -0.016524056 0.14358813 0.06395238
147 0.0055963914 0.017670985 0.20811349 0.27213472 0.08908456 -0.10452426 0.027107641 -0.09037294 -0.032726217 0.019846575 -0.028340798 -0.13753039 -0.08260489 0.010586003 0.030498365 0.124442935 0.027720941 0.039581608 -0.12758398 0.056226157 0.06959496 0.13367127 0.12776443 -0.011872296 0.0003161166 0.12134293 -0.121104054 0.0032279438 -0.07666717 -0.038274977 -0.07918857 0.098179065 -0.11822741 -0.0031081312 -0.004230823 -0.12435438 0.11845255 0.00067856343 0.037953887 0.10889589 -0.06323374 -0.021946883 0.16705154 -0.034583375 0.13669296 -0.09290878 -0.12971675 0.0033335516 0.017918421 -0.014740797 0.049587186 0.07400235 0.11162734 0.00066878734 -0.0038670222 -0.03582949 0.14991081 -0.049912415 -0.15045567 -0.050660916 -0.08210327 0.0019446037 0.15592419 0.0017846641 -0.075379536 0.09970754 0.14984493 0.15154143 0.029920453 -0.17611086 -0.050312355 -0.11087991 -0.15193367 -0.13711157 0.014592091 -0.20897599 -0.09012935 -0.031297594 -0.055700243 0.10535439 -0.04246779 -0.13120477 0.068407774 0.11649206 0.12057569 0.12334246 0.1241967 -0.01147523 0.14986946 0.041020904 -0.104230106 -0.054900963 0.1571802 -0.046082262 0.25963286 -0.019088766 -0.012604512 -0.061795298 -0.06940058 -0.005614463 -0.0051943483 -0.0019275384 0.094900794 0.03361518 0.0010233779 0.05855031 -0.04823008 0.011332314 0.0845976 -0.03660774 0.12428049 -0.09776131 0.023564419 -0.15984926 -0.1295561 0.01637796 -0.06719705 0.015267511 0.17619145 -0.139426 -0.048780445 -0.014914972 0.09069339 0.1241499 -0.09106594 0.021750718 0.11659268 0.061722834
149 -0.014317472 -0.078495495 -0.060484145 0.11924609 0.036118627 0.075208984 -0.039407972 -0.036447402 -0.0934617 0.12143455 0.1508357 -0.07357304 -0.19423875 -0.039560862 0.16802885 0.026725328 0.06654059 0.007225955 -0.11078672 -0.013191196 0.048883345 -0.031771988 0.035040215 -0.18934412 0.052976776 0.01078566 -0.0851997 0.068106115 -0.008100233 -0.031061534 0.054331638 -0.027744424 0.017806897 0.108769454 -0.17900085 0.04012818 0.15902293 -0.010589937 -0.06521923 0.098721124 -0.08740891 -0.012508995 0.08514449 -0.05071792 -0.0155480085 -0.047479857 -0.087530844 0.010339218 0.027037617 0.09822299 0.18862256 -0.002496593 0.15078774 -0.026533762 0.079032645 -0.13210481 0.12377387 -0.0014403322 -0.041575972 0.019842384 -0.014855882 0.021882646 0.16621096 0.07113863 0.007915298 0.04415902 0.0027859283 0.07540014 -0.14589038 -0.16179347 0.024102252 -0.07512818 -0.110545084 -0.06911826 -0.015415381 -0.17827043 0.05953496 -0.05887204 -0.065938674 0.17190376 0.03794104 0.0154138105 -0.09771445 0.12536925 0.0903144 0.15244779 0.11461811 0.012732367 0.13967873 0.058673285 0.056194916 0.027780011 0.17779934 0.05357848 0.15440401 0.14308417 -0.13082989 -0.21196559 -0.1312244 -0.0055410247 0.06845483 -0.11901661 0.013697086 0.07593065 0.14535023 -0.0432553 -0.067834154 0.092273444 0.063810274 -0.1304177 0.027601061 -0.023322588 -0.037733685 0.050149452 -0.058146056 -0.06774226 0.09436081 0.095482595 0.13178378 -0.016797597 -0.0037515687 0.018387435 -0.0871902 -0.063729115 -0.0008817772 -0.006378529 0.0710819 0.057368204
150 0.06112835 -0.14766769 -0.02816788 0.17958347 0.022832066 -0.014124623 -0.036880713 -0.030611891 0.07947727 0.070281886 0.11656032 0.058138568 -0.17283672 -0.029645178 0.1379678 0.07840972 -0.037110444 -0.13577855 0.059250213 -0.025549904 -0.08954514 0.07203586 -0.049272176 -0.19979496 -0.0048455046 0.13432185 -0.070257545 0.093485355 -0.0135022355 -0.017039556 -0.08760939 -0.042386126 -0.049872365 0.06916114 0.039448615 -0.07308869 0.16050583 -0.048000682 -0.025016444 -0.053089492 -0.10882187 -0.06921421 -0.094592914 -0.032918304 0.14136332 -0.011150877 -0.13628797 -0.13772826 -0.14327544 0.08149188 0.11006119 0.048194718 0.12661134 -0.09846185 -0.0161927 -0.041638676 0.16435298 0.07611126 -0.068133906 -0.016861076 -0.021806154 -0.008479771 0.0542167 0.0009831309 0.15564162 0.044574235 0.13786443 0.1771301 0.11028603 -0.30475885 -0.12835634 -0.049955897 -0.08324418 -0.1799533 0.017301155 -0.23444064 -0.04752925 -0.028457718 0.036842816 0.014321274 0.043134153 -0.09504139 0.104893714 0.12071337 0.0718812 0.12441177 0.19372292 0.09870717 0.13164693 -0.02216121 -0.012562999 -0.022397518 0.19741404 -0.035801597 0.106572814 0.04587749 -0.1266854 -0.060884368 -0.17645834 -0.06931526 -0.0006527983 -0.05930568 -0.08389718 0.0867609 0.11764733 -0.032840766 0.033723842 -0.058478408 0.026455918 0.05804927 -0.060277972 -0.006134882 -0.068638705 0.011924469 -0.02471103 -0.049332373 0.1609529 -0.03759415 0.07406859 -0.13503397 -0.018498464 0.045126677 0.07452963 0.052555356 -0.042034835 0.07505503 0.056787863 0.023730313
156 -0.23161682 0.15946433 -0.27327865 -0.13108857 0.042753812 0.059860684 0.093522914 0.25147006 -0.32140476 -0.050083585 0.034759816 -0.01922193 0.112813 0.15647705 0.036291696 0.005232258 -0.012091903 -0.1454574 -0.026337642 -0.1662301 -0.00699536 0.31430334 0.08374017 -0.16265932 -0.31036815 0.034132734 0.0678844 -0.17782192 0.07912127 -0.19193989 -0.09458929 -0.06381137 -0.17939043 0.2636496 -0.19058634 -0.035322845 0.059500992 -0.16084255 0.017400265 -0.063092604 -0.09654311 -0.2513908 0.08357513 0.0025912174 0.01528718 -0.024176238 -0.14594235 -0.05118175 -0.31424096 -0.2507569 0.040916525 -0.0014579773 0.15497383 -0.13746381 -0.11205789 0.038226668 0.09663381 0.09070942 -0.08665905 -0.011924573 0.034053348 0.052813265 0.22010139 0.2838033 0.16196321 0.023334168 -0.10533849 0.02666005 -0.023834953 -0.4000954 -0.047433868 -0.01974412 -0.33321908 0.030274 -0.22341941 -0.12560643 -0.01087374 -0.07415812 0.13113892 0.011887882 0.09133314 -0.025785346 0.052593343 0.18562843 -0.13768478 0.26324013 0.42812902 -0.0745239 -0.11255983 0.19757788 -0.17378967 0.042038236 -0.09874072 0.0777617 0.055909973 -0.0049966346 0.046099354 -0.3149102 0.10974757 0.20949073 -0.17647308 0.029245613 -0.024119237 -0.16456167 0.04404743 -0.1707008 -0.3590863 0.20643233 0.012204948 -0.11294676 0.23123392 -0.049430862 -0.035568256 0.22521383 -0.0017895412 0.05418619 0.037082914 0.070452556 -0.058394868 0.015368015 0.079570785 -0.22800653 -0.277893 0.016014026 -0.2821575 0.030373136 0.09363857 0.14411598
159 -0.043170027 -0.09478789 0.035371378 0.04673526 0.074492775 -0.021735558 -0.18596926 0.000660003 0.03780637 0.112816915 0.09625789 -0.05389374 -0.10014504 0.03334653 0.12204569 -0.009660986 -0.05847418 -0.058384314 0.0010665046 0.08202401 0.052243464 0.007830059 0.06309097 -0.21086967 -0.16957867 0.042550307 -0.0541986 0.026014522 -0.009166365 -0.13645248 -0.12893032 -0.06706048 0.029988108 0.041626893 0.0016035452 -0.048931453 0.055003725 0.10932156 -0.040177472 0.080411024 0.00082615204 -0.018793833 -0.1417771 -0.039667208 0.035326388 0.13783717 -0.005617178 0.07452109 -0.061202582 -0.05838948 0.008003028 -0.027380027 0.1580095 -0.13623862 -0.13149565 -0.047948185 0.18156435 0.0671526 -0.0047609373 0.078683026 -0.07040106 -0.01669777 0.19102578 0.0503254 0.061188485 -0.017210107 -0.085815206 0.20510106 -0.1478772 -0.28620785 -0.011917368 -0.30322817 -0.24561334 -0.044416096 -0.08381898 -0.030063625 -0.08727829 0.06258659 -0.21935903 -0.04358265 -0.0649342 0.019284176 0.25860858 0.23836693 -0.007482809 0.18858047 0.17763215 -0.1492829 0.0491635 0.18672802 -0.046490178 0.1690673 0.06641447 -0.058364842 -0.04349017 0.004156658 0.060340717 0.024299612 -0.044655155 -0.10489086 0.037251864 -0.14739141 -0.09761167 0.0408481 -0.014834077 -0.20151286 -0.01685988 0.050624277 0.20474933 -0.014234262 0.17835067 0.03549804 -0.034489002 0.087352864 -0.113218054 0.087549694 -0.12946594 -0.0726985 0.04316782 -0.011460615 -0.034601156 -0.076674834 -0.039852828 -0.053436406 -0.13634329 -0.025237564 -0.09333953 0.15362276
168 -0.19048218 -0.16355672 -0.13524596 0.22593366 -0.13715653 0.07351782 -0.079865985 -0.09633888 0.15332666 0.12851502 -0.005447315 0.13784225 -0.030270975 -0.11276151 0.21026818 0.2019094 -0.1625286 -0.13094148 0.03992907 -0.1255456 0.14231932 0.16305368 0.0706598 -0.3644099 -0.12762596 0.22603586 0.023498833 -0.010555347 0.119158305 -0.019735333 0.09547814 0.04365278 -0.104237825 0.07825264 -0.15289146 0.03174281 0.09122601 -0.014906946 0.18161285 -0.042166974 -0.1371842 0.054447103 -0.07671549 -0.24483117 -0.058908705 -0.04952132 -0.18478125 -0.04624394 -0.053077992 0.067326464 -0.024798814 0.07827777 0.18221752 0.0919561 0.048975825 0.001499486 0.13236777 0.0310778 0.07273292 0.009551369 -0.006586319 -0.07185892 0.06399047 -0.083419636 0.15517372 0.11552649 0.05111357 0.079681955 -0.113097414 -0.17626831 0.055746928 -0.078272164 -0.24095419 -0.09343078 -0.017191865 -0.10294553 -0.013471732 0.04187394 -0.14954448 0.052481394 0.010436143 -0.08979239 0.022576297 0.19129235 0.06837761 0.09239757 0.084208444 -0.0673503 0.23779166 0.14833422 -0.0051027625 0.15298516 0.0022643765 -0.030852811 0.14543627 -0.008910208 -0.13755596 -0.12414725 -0.1083556 0.010615857 0.0841909 0.050083388 -0.07171573 0.24110015 0.27902868 0.019546703 0.035179853 -0.22037064 0.11510572 -0.05530067 0.055436593 0.06210296 -0.036445543 0.011195388 -0.03325531 0.065381005 -0.09842008 0.010746004 -0.105791084 -0.111961514 -0.07497254 -0.023601051 -0.07971593 0.13094349 0.032506306 0.18813817 -0.0342994 -0.038258392
170 -0.08139883 0.09512195 -0.012895467 0.13110107 0.08186457 -0.1017621 0.2240236 -0.115364194 -0.044840787 0.05573375 0.16654104 0.030056719 0.12408258 -0.051259823 0.27840465 -0.10964322 -0.1111286 0.02999794 -0.0026036939 0.08736071 -0.07354709 0.09130505 -0.07113594 -0.13775505 -0.21284176 -0.06703375 -0.112279564 -0.031358417 0.08583702 -0.14888777 0.14071922 -0.1802815 0.17646757 0.09703458 -0.21674688 0.13518837 0.06703005 -0.0037286913 -0.0029789044 -0.014467113 -0.115735956 -0.071680136 0.032005567 0.13696095 0.0008707554 0.0050388416 -0.15615462 0.037824135 0.0010862019 0.14165531 0.09620583 0.05777855 0.034131955 0.025345916 -0.032739814 -0.10925253 0.07823078 0.12517594 -0.076620065 -0.10431943 -0.07375814 0.09598609 -0.007292211 0.056796588 0.13325791 0.035054065 -0.009345274 -0.018323597 -0.09855719 -0.1354714 0.16649109 -0.17547141 -0.063864745 -0.00998275 0.02254511 -0.09304802 -0.026145566 0.079141445 -0.14184836 0.18909015 0.084116526 -0.07638314 0.052234665 0.41261232 0.02756072 0.2709746 0.21213034 -0.048069715 -0.029620226 0.03769688 -0.066378385 0.01604671 -0.039306343 -0.11507178 0.08933543 0.007814786 -0.18601991 -0.20187043 -0.023241019 -0.061068762 -0.04894422 -0.022381913 -0.11067853 0.10020085 -0.021296063 -0.05811762 -0.16319685 0.14145556 -0.05221298 -0.19248034 0.12550831 -0.056417007 0.016954392 -0.015081233 -0.12217474 -0.0035797856 -0.13281178 -0.015150476 0.013407332 -0.01779095 -0.118869245 0.030134277 -0.031245561 0.09633324 -0.038447898 -0.07507088 0.12848526 0.048256267
174 0.11165597 0.28124842 -0.12372836 -0.05662584 0.12235339 0.09382502 0.15015553 0.018869651 0.12696064 0.021801975 -0.12010178 -0.17545979 -0.18500412 -0.0887284 0.052560378 0.15141001 -0.034123212 -0.04946675 0.047533777 -0.023468243 0.059867915 0.15565912 -0.08763849 -0.22345212 -0.15317504 -0.16902493 -0.17589433 -0.1855296 -0.082975596 -0.047611993 0.03995275 -0.06306785 0.016857082 0.12648518 -0.13755207 0.24744092 -0.046042208 -0.15940472 -0.10180127 -0.11971352 0.07639999 0.13504776 -0.14670563 0.015048882 0.07282052 -0.018253567 -0.1750085 0.2026773 0.061812516 -0.03455616 0.020298295 -0.09381644 0.073950894 -0.009104845 -0.01713722 0.020302674 0.1877343 -0.054457072 -0.05268282 -0.12367161 0.20358033 -0.08050564 0.23785017 0.35398793 0.14693967 -0.044236887 0.16073771 0.30489323 0.0014831267 -0.33399013 0.12193931 0.026550097 -0.041200697 -0.07849589 0.068182655 -0.25919786 -0.10147488 0.007345353 0.05524189 0.0168356 0.052069668 -0.014094163 -0.086652264 0.39323348 -0.015919095 0.08419037 -0.05912064 0.03360576 -0.023603788 0.069009386 -0.07667782 0.3396856 0.14832541 -0.048653185 0.47958806 0.2300351 0.07404668 -0.07258251 -0.019489178 -0.14209531 -0.010801508 -0.0033441735 -0.20147116 -0.14085653 0.090368606 0.07830483 0.11415972 0.1998297 0.18319915 -0.04572281 0.09892512 -0.0054183076 -0.058231205 0.13955577 -0.0064727557 0.043101322 -0.045485064 0.02169876 0.013443445 -0.25353408 0.14447683 -0.115353175 -0.005985483 0.041863088 -0.07015309 -0.015635148 -0.10492446 0.08097453
176 -0.06426268 0.19282655 -0.34203908 -0.06955984 -0.03191521 0.06383908 0.12424201 -0.13961224 -0.059092503 0.34486493 0.3196688 -0.0054793423 -0.084447436 -0.13253814 0.13097548 0.16826749 0.030200051 0.06811117 -0.16612299 0.18728752 -0.060502507 0.011643551 0.016307103 -0.13226989 0.04871575 -0.01658177 0.11302765 0.06154727 -0.0013807561 -0.2940446 0.071817964 -0.09797286 -0.0032216087 0.05010747 -0.15135501 0.03006061 0.119272955 -0.0015348241 -0.20038152 0.17846988 0.083662346 -0.12514938 0.10399491 0.1267954 -0.03455621 -0.17104293 -0.10513927 0.30154237 -0.08171929 0.18277521 0.33729878 0.04095486 0.19673324 0.040089354 0.2364194 -0.057661995 0.3788813 0.015092221 -0.189023 -0.051511787 -0.22238964 0.04711138 0.08442954 -0.077574976 -0.04511143 -0.096350744 -0.08065637 0.1526843 0.037974473 -0.2086049 0.13257496 0.047459837 -0.081883825 0.03936574 -0.09860711 -0.074884705 0.111619 -0.10135688 0.09993034 0.08224647 0.12671044 -0.116025336 -0.2701103 0.050463635 0.16224131 0.20892063 0.16972576 0.031525854 0.06632627 -0.011203346 0.12745774 0.018902581 0.25597802 0.032394476 0.20011927 0.11237372 0.03358013 -0.28695711 -0.06593489 -0.04967544 0.04871858 -0.09188168 0.048505064 0.1022113 0.003130594 -0.13579576 0.10504833 0.12228048 0.1022947 0.013960188 0.044037193 -0.10515276 -0.098731145 0.20502742 -0.29916933 0.03993472 -0.10500863 0.21415211 0.1151631 -0.2726395 0.08327924 -0.012054003 -0.17910518 -0.267308 -0.19983444 -0.0029969085 -0.11058443 0.08237544
178 -0.10578218 0.0066955136 0.07462506 -0.09150256 0.025238946 0.12532124 -0.12945636 -0.10489762 -0.14261329 -0.014469195 0.17450985 -0.12342932 -0.06293074 -0.08431832 -0.17072394 0.093997404 0.055736206 0.19487278 -0.038187962 0.094381325 -0.00786107 0.14478514 -0.003633575 -0.04681311 0.10718548 0.026233492 -0.15890701 -0.016607989 -0.24010265 0.014386094 0.05983188 0.062579006 0.09693318 0.20730022 -0.109702446 -0.17149632 0.024843087 -0.030747354 -0.03647539 -0.07102639 -0.1866737 0.14891197 -0.051945087 -0.06896446 0.01152757 0.24844891 -0.07088612 0.12367593 -0.015375784 -0.07240049 0.14860569 0.054432996 -0.024759322 -0.029000686 -0.06704903 -0.037709184 -0.068979144 -0.0028163877 0.005933358 0.011920648 0.011977498 -0.002973355 0.090558685 0.099175364 0.24771582 -0.1362418 0.036585134 -0.06835408 -0.027101453 -0.13842049 0.08313498 -0.06381094 -0.17877908 -0.14633003 -0.03961344 -0.25680107 -0.117688894 0.08214696 0.06962382 -0.083558105 -0.19614342 0.044344846 0.12449864 0.38415822 -0.02858591 0.06670354 0.22670859 0.07536521 0.22281587 0.16552316 -0.14429079 0.1275519 0.07665701 0.013102594 0.32924274 -0.099745475 -0.10396948 -0.18826176 -0.033008706 -0.22926262 -0.08563832 0.025959477 -0.14973724 -0.10285524 0.005564414 -0.07519439 0.09386661 0.3222612 0.17347533 0.15704392 0.032938644 -0.21897507 -0.17183916 -0.081031665 -0.26502082 -0.10711047 0.12918939 0.24882242 0.18219103 -0.06628637 -0.15242364 -0.096522875 -0.22095494 -0.07308531 -0.39489734 -0.03738667 -0.0029993157 -0.20481533
191 0.101189986 -0.0645034 0.16288365 0.065997854 0.29571924 -0.027361326 0.0029536563 0.03230031 0.0021974652 0.03796342 0.22370358 -0.05130845 -0.08449217 -0.02270027 0.1690631 0.04374304 0.10921967 0.1068509 -0.019957928 -0.04254474 -0.11837702 0.08467852 0.08371958 -0.16620882 -0.07049739 -0.028847078 0.014664998 0.044505727 0.14497568 -0.21875001 0.05888968 -0.14452653 -0.043630123 0.04077535 -0.10333333 -0.10733911 0.1338804 -0.078294635 0.13261446 0.06661033 -0.20943223 0.019736134 0.05399892 -0.16873176 0.056943364 0.002993115 -0.06305616 0.11296088 -0.05347089 0.12921739 -0.09226987 -0.030676438 0.13787836 0.062830165 -0.121905856 0.103568435 0.067414865 -0.13981058 -0.045024432 -0.076542266 -0.056473076 -0.06749805 -0.03214483 0.016030736 0.039718896 0.008473815 0.036593832 -0.04327536 -0.020893855 -0.035095997 -0.07829499 -0.025560386 -0.03231873 0.07089929 -0.13414647 -0.1240256 0.010068644 -0.025017928 0.089775324 0.059365522 -0.007500009 0.055137552 0.06157805 0.20096979 -0.05764014 0.16653922 0.18825628 0.13000081 0.08677535 0.19393168 0.016267516 -0.040959362 0.059990298 -0.123539805 0.13856904 0.10629935 -0.05498634 -0.17623128 -0.06608844 0.004979708 0.005339661 0.027470505 -0.1719865 -0.26549527 0.035415825 -0.113411404 0.048453044 0.11014873 0.043320537 -0.20438068 0.078827366 -0.14461388 -0.046441037 -0.014945089 0.036262732 0.060558166 -0.082619615 -0.028867979 0.10196346 -0.039924808 0.02480408 -0.12453205 -0.05477731 0.07608555 -0.0985211 0.05119174 -0.047128752 0.055289064
195 -0.02317885 -0.09420039 0.08527254 0.06966264 0.21483561 0.0381258 0.095736325 -0.039703604 -0.13039619 0.05237195 0.029741755 -0.0857996 -0.14998499 -0.0004355035 0.10686699 0.08035645 -0.06551195 0.07528995 -0.060479436 0.06426992 0.16067842 0.09247553 0.026950313 -0.16892733 -0.08649006 0.12742455 -0.10408841 0.06648528 -0.00110751 -0.1341662 0.13420804 -0.14683369 -0.025922867 0.05566316 -0.10218284 0.026809508 0.0042526964 -0.081800945 0.08117161 0.00663459 -0.19686882 0.05465312 0.01887374 -0.0673594 0.11774611 -0.0148978615 -0.12131727 0.14272042 0.024452494 0.045784198 -0.008338473 0.095846385 0.1477125 0.037694123 -0.037349325 0.03628685 0.06771356 -0.0064675235 -0.074496835 0.083471514 0.021123348 -0.059765447 0.043173835 0.12551287 0.096288376 0.01601776 0.0032525228 0.12291713 -0.18349925 -0.12379332 0.12471838 -0.007878353 -0.02658521 0.116917364 -0.020587156 -0.15894711 -0.20316386 -0.07415149 0.048788764 0.1293323 -0.071002334 -0.068460934 0.01862352 0.14098404 -0.006207182 -0.019306418 0.08415628 0.024926618 -0.021085914 0.043184824 0.072408505 0.09794408 0.059733007 -0.09817704 0.08814263 0.0042353817 0.053795297 -0.14642742 -0.074606545 0.045845676 0.0138441585 -0.037920658 -0.04382924 -0.070785284 -0.012232189 -0.16633885 0.036175627 0.14577192 0.11242914 -0.032470778 -0.12031655 -0.16432342 0.0044972817 -0.022528455 -0.17457835 0.032729678 0.07514054 0.1138316 0.06984423 -0.13035944 -0.16787976 -0.087429136 -8.356327e-05 0.09500396 -0.17428502 0.053476576 0.043959476 0.07391591
197 -0.08533057 0.03853958 -0.0876247 0.019479048 0.15102291 -0.0408333 0.100529544 -0.12817408 0.035932507 -0.1274263 0.08241706 0.045305133 -0.013740051 -0.1020227 0.0966352 0.15034473 0.061931446 -0.09481858 -0.12026096 0.15686505 0.05081007 0.060997702 -0.03970049 -0.09531726 -0.15652852 0.07263774 -0.032911286 0.0011225352 -0.057402518 -0.014515066 -0.061205246 0.08023877 -0.079236284 0.06690247 0.092261344 0.082272284 0.1902759 -0.047621816 -0.062246438 0.04853386 -0.24351203 0.0055337185 0.021735515 -0.11125939 0.056772325 0.110718906 -0.15475614 0.00034615473 -0.08400207 0.1439352 0.029806372 -0.020839347 0.0814077 -0.14117827 -0.07524766 -0.13769607 0.23168214 -0.05475249 0.045408558 0.0712665 -0.06079001 -0.10379792 0.14224441 0.13413861 -0.023847846 0.0438959 0.09865389 0.16054648 0.09205782 -0.0629475 0.0037118662 0.0025499023 -0.13275976 0.025956675 -0.066507824 -0.047011036 -0.06056743 0.0754304 0.052449144 0.03922305 0.04437642 -0.11009496 -0.058305684 0.2550257 -0.10931955 0.27193928 0.07468345 0.078284614 0.11241438 0.090161 -0.05200605 -0.00427277 0.08099608 -0.14793742 0.19937512 0.017647946 -0.15787001 -0.013151445 -0.16917744 -0.031420987 0.012748936 0.05992463 0.005910051 0.061309908 0.004283233 -0.10411551 0.0858154 -0.0052090758 0.16926038 -0.12345162 0.10681744 -0.082666226 -0.13386829 0.11232566 -0.037072647 -0.000884254 -0.15470411 0.16806704 0.039547108 -0.13122027 -0.09993146 -0.11383678 0.0122958245 0.026410107 -0.16008784 -0.01058625 -0.0899526 -0.034118935
201 0.019435128 -0.124914065 0.06715892 0.11240035 0.045634776 -0.02942159 -0.049055252 0.029303785 -0.07885024 -0.015920656 0.052860063 -0.1190048 -0.025861224 0.018620329 0.13313842 0.115527794 -0.03208388 -0.08048906 0.004667721 -0.041897703 0.023537455 0.08386553 0.012118156 -0.16692658 -0.13053 0.03942165 -0.12515564 0.0073628 -0.046445988 -0.15959673 -0.014411988 0.008957463 -0.028500542 -0.0010745035 -0.03364762 -0.027314678 0.13358165 -0.040824533 -0.060866997 -0.045824148 -0.07886483 -0.034898736 0.063601315 -0.05250743 0.02555256 -0.033972867 -0.027698396 -0.016433656 -0.00815716 0.030907882 0.10573248 0.0332351 0.047749706 -0.062159944 0.046382412 -0.06933899 0.078144826 -0.04819962 -0.052181095 0.058643583 -0.14560719 -0.03699241 0.005620574 0.0056323623 -0.015755894 0.06668143 0.049902447 0.17392878 0.053275004 -0.147292 -0.098999865 -0.022712842 -0.13676736 -0.12257767 -0.06930491 -0.21693714 -0.039495397 -0.0048979134 -0.11263437 -0.006221371 -0.014821999 -0.05737831 0.11961279 0.20699468 0.018494513 0.09379052 0.11192836 -0.028451253 0.11339299 0.032481223 -0.010802925 -0.019583983 0.007583487 -0.09343468 0.20679227 0.057466798 -0.110446975 -0.124826096 -0.16184926 -0.07982982 -0.050539076 -0.08271027 -0.04164215 0.07395097 -0.061683506 -0.106445454 -0.037591718 0.036817577 0.0792747 -0.081609175 0.03368513 -0.047275245 -0.023690162 -0.055808052 -0.10799838 0.03949901 -0.04135024 -0.049306292 0.08701338 -0.039453477 0.01065971 0.052499875 -0.008399925 0.08111636 -0.031146754 0.07669626 0.017764471 0.08122643
205 -0.045734525 -0.093697354 0.12482239 0.3147961 -0.03635616 -0.24448226 0.11236518 0.11991424 -0.09496143 0.04326683 -0.02766853 -0.025260193 -0.047332168 -0.054099996 0.017951949 -0.031747214 0.044846322 0.011800967 -0.19323921 0.02776892 0.098101966 0.099027 0.22889797 0.10602967 0.0451098 0.07969176 -0.15221196 0.16801222 -0.07622883 -0.10170514 -0.10956498 0.21001942 -0.110524565 0.05099835 -0.114212684 -0.038562298 0.069393106 -0.005636529 0.0974957 -0.06704796 -0.009733416 0.19124413 0.11614464 -0.04153795 0.059770655 -0.14181732 -0.18816903 -0.18463117 -0.11523308 0.15105963 0.011521905 -0.05892078 0.09345396 -0.041031178 -0.015052399 0.0036741232 0.2542555 0.09302977 -0.19572307 0.08808454 -0.07652844 -0.04192957 -0.061681386 0.027273607 -0.041609835 0.19745359 0.29316238 -0.03742141 0.014774296 -0.22110687 -0.026879985 -0.080661334 -0.15249886 -0.2752561 0.053050753 -0.25653434 -0.14315332 -0.15902333 -0.045234483 0.06950211 0.08679547 -0.038099986 0.002612837 0.11262671 0.07971129 0.037869915 0.033569247 -0.052057862 0.08526251 0.10484024 -0.13004924 0.038239 0.18735065 -0.15702249 0.27653867 0.019975021 -0.095665954 -0.12788723 0.01747834 0.034761965 -0.09344686 0.05478556 -0.09422369 -0.16097109 0.07158071 0.004511126 0.0424916 0.15369326 -0.011247632 -0.19714403 0.060127486 -0.1376535 -0.027190795 -0.037639156 -0.20352446 0.11465359 -0.09789546 0.10471175 -0.0035814524 -0.13363123 0.028924467 -0.09959211 0.27956346 0.04499201 -0.113035895 -0.058210116 0.19905531 0.061444137
209 0.032939672 -0.08877006 0.04961045 0.053806815 0.12547322 0.019223742 -0.034053568 0.01888513 -0.011306355 0.032449424 0.08031665 0.016445938 -0.07428673 -0.045482203 0.13747737 0.042653654 -0.10205222 -0.04782913 -0.016042018 -0.054266177 0.06182962 0.082756095 0.019230235 -0.24920318 -0.09562117 0.0033543543 -0.14425425 0.024428166 0.015141029 -0.00709763 -0.0006735699 -0.07573348 -0.008153505 0.0048311455 -0.09155247 -0.039105944 0.14978826 -0.026232792 -0.0054209437 0.033356432 -0.06682145 -0.025314454 0.02521391 -0.027963229 0.07725161 0.022709742 -0.08470746 0.0048004254 -0.01708076 -0.0347953 0.10849311 0.059492256 0.1037508 -0.022132525 -0.039621867 -0.053776547 0.151817 -0.010796053 -0.062563084 0.03574132 -0.05857106 0.017803779 0.12812102 -0.014817081 0.02566175 0.022152131 0.053378668 0.13478304 0.049992684 -0.11692451 -0.040032953 -0.0695842 -0.123745665 -0.09521542 -0.030999415 -0.21023986 -0.028099736 0.027269728 -0.054693148 0.00075726403 0.03157623 -0.10238109 0.0041199243 0.13886443 0.12180695 0.17691717 0.19132769 -0.10384706 0.06741731 0.09040359 0.036319964 -0.0019325805 0.11288925 -0.043291423 0.11988645 -0.04599028 -0.06644231 -0.20899428 -0.10051487 -0.011435417 -0.034865223 -0.0663369 -0.008375415 0.11006174 0.017400112 -0.031470664 -0.05275753 0.009783321 0.023372307 -0.07432703 0.11870372 -0.038095854 -0.09851417 0.02066042 -0.057548176 0.077996135 0.0049258186 -0.08736666 0.051707212 -0.02052926 -0.017164672 -0.06318128 0.033380024 0.050054155 -0.007540954 0.08131126 0.025904128 0.041804697
211 -0.11893745 0.1103239 0.01276301 -0.0010539339 0.09749974 0.15674438 -0.02973237 -0.15339732 -0.106951006 -0.025329202 0.07192169 0.022552438 0.13116258 -0.05221234 0.13444485 -0.0009764155 -0.008709506 -0.20549245 0.071285404 0.06108956 0.08660738 0.054138433 0.07523672 -0.0042310967 -0.19575584 -0.04148223 -0.124150835 0.019319547 -0.03261861 -6.200224e-05 -0.06258177 -0.25013736 0.01981811 0.17759709 -0.017037945 0.0019307764 0.06380505 -0.081832096 0.06892594 0.06738406 -0.056856062 -0.22129631 0.031043539 0.17893717 -0.11477677 0.085232414 -0.046221342 0.016725203 -0.05519784 0.009595539 0.10329318 -0.025601413 0.08819466 -0.05884068 0.075622626 0.095641345 0.1653337 0.08105529 0.13123374 -0.14808318 0.17422926 0.09368702 0.24125265 0.20039807 0.13481227 -0.004675165 0.124069504 -0.053859055 -0.036330238 -0.0650267 0.11114788 0.08276225 -0.30480844 -0.1534561 -0.110398695 -0.4190559 -0.16581185 -0.0745889 -0.019676937 -0.055637244 0.07137953 0.10213295 0.097337395 0.40734643 0.050819788 0.22293091 0.027526041 -0.038435202 -0.028323894 -0.058956295 0.030718107 0.02358239 0.040835608 0.03227418 0.0070883683 -0.0802384 -0.020550543 -0.1478621 -0.1718027 0.12970944 -0.13967644 0.015308375 -0.08594938 -0.090394594 0.05091915 -0.09381219 -0.22111848 0.16130686 -0.06278145 -0.008487233 0.2194264 -0.100604296 -0.009619674 -0.18621491 -0.1780772 0.027385175 -0.12745246 0.062659055 0.09009013 -0.1380516 0.044392522 -0.22826147 0.12363844 0.110476084 -0.25807318 -0.002476527 0.16840482 0.10268606
219 -0.033361163 -0.13233425 0.088484794 0.07059572 0.049786136 0.026426157 0.050514974 -0.030362088 -0.06952314 0.14731485 0.076535724 0.04762953 -0.0032992295 -0.0661435 0.04748545 -0.015370862 0.15598395 -0.04551346 -0.02853692 -0.010489669 0.097655796 0.13573137 -0.04480101 -0.0045068506 -0.10666999 0.019983655 -0.13727416 0.02996931 -0.11504316 -0.030388623 0.002739978 -0.10106179 -0.039780412 0.04288486 -0.068792515 -0.0026030869 0.13752842 0.026786432 0.031361464 0.04073204 -0.08645502 -0.02453635 -0.0019864915 0.1268088 0.15205985 0.05384719 -0.118608996 -0.059386738 -0.046204206 0.06011055 -0.010905888 0.053033322 0.11282921 -0.09092477 -0.019992754 -0.027698122 0.102311336 -0.0051358887 -0.025947545 0.013436253 0.03084792 -0.030270493 0.05748423 0.20196602 0.018739525 0.01662484 -0.036325015 0.04211706 -0.02392789 -0.27247232 0.050091278 -0.13033171 -0.049140222 -0.07889491 -0.069208674 -0.15262333 -0.15245911 -0.05151589 0.00187854 0.06922684 -0.03433446 -0.05014447 0.01766671 0.2571716 -0.006012771 0.20878595 0.12909092 -0.17211282 0.0132165775 0.10765428 0.02563265 0.07793885 0.019442322 0.0004664199 0.098232396 0.0018167552 -0.12595643 -0.1413383 -0.10541252 -0.04228137 -0.040508587 -0.10307564 -0.06696287 -0.051572572 0.079889506 -0.07392193 -0.021206662 0.036510244 0.24311222 -0.13594675 0.19605857 -0.0019867665 0.054215364 -0.10929983 -0.122016765 -0.05584259 -0.19440092 0.14455168 0.13254774 -0.035765342 -0.043795805 -0.085186735 0.026001815 0.035219368 -0.12419189 0.01438894 0.020624489 -0.044270754
221 0.057381425 -0.15778393 -0.00012442359 0.080853775 0.017316205 0.005398736 -0.047937956 -0.02546464 -0.06997604 -0.026562346 0.16679354 -0.05553293 -0.054764338 -0.13800257 0.07900041 0.029975949 -0.08719518 -0.016864916 -0.047482546 0.06814421 0.034866486 0.091083825 -0.0010314869 -0.14814572 -0.090231664 -0.008870953 -0.11620486 0.027982809 -0.021913422 -0.02830604 -0.016081626 0.052182827 -0.008359821 0.07828846 0.0747928 -0.012071719 0.110891365 -0.01346117 -0.08886206 -0.04328356 -0.08174793 0.047701385 -0.016624415 -0.036195338 -0.015508504 -0.03180476 -0.106813975 0.03261557 -0.12286265 0.058613207 0.08292854 0.019019876 0.092380054 -0.041185047 0.08518555 0.03614052 0.12707146 -0.03176485 -0.101412766 -0.0150428815 -0.038626768 -0.09201671 0.039026752 -0.027874006 0.025406303 -0.10312114 0.012209822 0.16394043 -0.009054988 -0.15741922 -0.026057743 -0.003882012 -0.16731283 -0.09190507 0.027606923 -0.20848265 -0.009149481 -0.12407646 -0.07280152 0.009409034 -0.075421534 -0.037216283 0.15790677 0.13892335 0.019684419 0.1603045 0.10042184 -0.078665175 0.02711301 0.04028746 -0.006706303 0.05423001 0.044312432 -0.07474763 0.19722317 0.07303593 -0.024320886 -0.061545476 -0.10322838 -0.06930098 -0.041634727 -0.046531994 -0.115659595 -0.048029274 -0.015449444 -0.04916183 -0.03627024 0.13200796 0.045588702 -0.07328586 0.13562037 -0.12362598 -0.008727654 -0.010766199 -0.070424825 -0.00696352 -0.043136284 0.017197419 0.087900594 -0.019065863 -0.11884379 -0.081434235 -0.08330849 -0.0054256828 -0.04895238 -0.07376865 0.019736173 0.04308002
226 -0.101540215 -0.21858716 0.17925386 0.33955848 0.12695865 0.07335788 0.039468918 0.14903004 -0.021196654 0.2639014 -0.046176612 -0.12704462 -0.13928162 -0.022050748 0.33669063 0.016795816 0.071772054 -0.1058442 0.047727715 0.00768639 0.054139238 0.19419429 -0.14109845 -0.33627793 -0.20249723 -0.09527434 -0.2966319 0.10525664 -0.0073997797 -0.0738912 -0.099866845 -0.3204806 0.12020506 0.29329288 -0.21369533 -0.069303244 0.10784692 -0.099285275 0.15394573 -0.12869261 -0.3480559 0.045207784 -0.09598941 0.1649024 -0.18096848 -0.10425077 -0.4062674 0.028280726 0.24476203 0.063698426 0.019847535 0.04319324 0.31235182 -0.25709844 -0.088101484 0.13496704 -0.15539315 0.023543382 0.11661213 0.2939129 -0.0142774405 0.12329403 -0.07290064 0.019884055 -0.024846923 -0.4110397 0.2224544 -0.027157614 -0.043412376 -0.08057668 0.029582521 0.051247016 0.050680563 -0.03680399 0.07780955 0.02533362 0.05823512 0.069913924 0.083061196 0.006684659 -0.090399966 -0.0605937 -0.09578168 0.18580456 0.12122967 0.059829574 0.2883421 -0.018828794 -0.039334126 0.39866644 -0.22436227 -0.17950755 0.32083017 0.09840911 -0.024192367 -0.19404349 -0.1590264 -0.05153333 -0.13665761 0.02661622 -0.10151039 0.21783544 -0.075402506 -0.26378128 0.3260399 -0.20902778 -0.001414382 0.21397458 0.21606344 0.28614134 0.249616 0.0846226 0.07403038 0.13334557 0.10659233 0.0056631877 -0.13802604 0.23995435 0.004401224 0.0017859278 0.22189827 -0.025461249 0.042210996 -0.02817349 -0.18458977 -0.082053944 0.016771462 0.08545823
231 0.024178674 -0.18462893 0.046080418 0.014065573 0.23800305 -0.18119353 -0.05018194 0.0760431 -0.013110586 -0.0027013058 -0.008774559 -0.025315551 -0.041683048 0.037978772 0.028793471 0.10624966 -0.037197795 -0.09871453 -0.048207674 -0.20037068 0.05177707 -0.0418656 -0.051948916 -0.17398869 0.06289272 -0.07463778 -0.13433634 0.038782284 0.0070865126 -0.032575283 0.073418364 0.020327527 -0.019719869 0.06810545 -0.124818675 -0.06531615 0.2010609 -0.056165926 0.023725795 0.029599443 -0.079479136 -0.0741468 -0.15116215 0.046538252 -0.048192617 0.12319595 -0.1270847 0.20296709 -0.05342571 -0.026855823 0.03668602 0.100825764 0.022445196 -0.066798344 -0.039216477 0.056093503 0.30656382 -0.013717318 -0.1127885 0.10605089 -0.08864329 -0.0018634859 0.097572856 0.1238919 0.07329415 -0.004748909 -0.023635665 0.17843296 0.034156743 -0.17406283 -0.034927428 -0.12140002 -0.19302516 -0.051663335 -0.018203888 -0.14738593 -0.08634252 0.059548903 -0.16499716 -0.032716755 -0.11173499 -0.024782065 0.08158164 0.12970643 0.119178735 0.19849055 0.21462211 -0.06665672 -0.012651477 0.00576718 -0.0982086 0.059293248 0.12346905 -0.096231 0.08073875 -0.07914357 -0.13409562 -0.077624224 -0.01771814 0.023358343 0.033481248 -0.03400391 -0.012633279 0.019760203 0.07398337 0.002059476 0.013640542 0.085136816 0.09410992 -0.079365544 0.13248603 -0.049564954 0.002411104 0.044783555 0.061415147 -0.07762663 -0.075699285 0.082684316 0.049937762 -0.15200232 0.08133044 -0.04027699 -0.0016782413 -0.005270391 -0.19573317 -0.056009952 -0.16241154 0.07037583
234 -0.0011064877 -0.1405622 0.011474503 0.09605163 -0.029475177 -0.04335561 -0.09506818 -0.054391604 -0.027261714 -0.114824355 0.07487813 -0.051020365 -0.06472353 -0.056539398 0.10462497 0.16978967 -0.022293989 -0.07224511 -0.09878327 -0.025442166 0.049820993 0.15030263 0.0073676733 -0.16418913 -0.08259018 0.084868886 -0.07700094 0.17729345 -0.046767168 -0.10750429 0.05547944 -0.20538852 -0.08515884 0.08538077 -0.0077592037 -0.13405512 -0.051302176 -0.055547476 -0.034939803 0.012530834 -0.03681587 0.03997376 0.074127026 -0.008723038 -0.035467103 0.047130287 -0.0064611128 0.13278477 -0.034399245 0.06864788 -0.058347065 -0.065490246 0.05258675 -0.054506853 0.0111522 0.026816737 0.18640642 -0.21775089 -0.04379279 -0.049044836 0.18501844 -0.0441547 -0.04619045 -0.03669858 0.00354766 -0.029953 0.13063057 0.23123062 -0.0908336 -0.09750181 -0.061466746 -0.16619262 -0.16360912 0.06680916 -0.025689472 -0.061096665 -0.06562866 0.04215701 -0.008634468 0.10627794 -0.15021862 -0.028170928 0.111990325 0.29457808 -0.0037443913 0.18422736 0.12984316 0.03708221 0.021037852 0.09020399 0.09692844 0.016284049 0.18075226 -0.028960811 0.15147842 0.01622093 0.08348053 -0.1628507 -0.035905186 -0.085262835 -0.0365817 -0.039377425 -0.18169253 -0.0050616306 -0.019222723 0.0040774085 -0.0025640714 -0.05673557 0.05609282 -0.15155666 0.059562765 -0.1058226 -0.09505753 0.055770732 -0.07837153 -0.045597155 -0.07616252 0.12915047 0.17194977 -0.027963998 -0.0062374943 -0.06285312 -0.029630303 0.03899753 0.0058376244 0.06962428 0.049510308 0.079591416
244 0.14300157 -0.15376985 0.28727302 0.13916625 -0.0940168 0.010807618 0.015426891 -0.042764805 -0.11631404 0.095589966 -0.07476261 0.003608958 -0.11549747 -0.01749096 0.19067661 0.14841333 -0.041612785 0.0008153486 -0.15998611 0.019490799 0.0005090603 0.036969054 -0.105777286 0.042283785 -0.09610827 0.06544207 0.001609052 0.14244056 0.038064156 0.033051334 0.16971172 0.09035236 -0.14354737 0.17457254 0.15937479 0.088827245 0.0921638 -0.093671635 0.025254522 0.21341474 -0.06393786 -0.052686956 -0.012980288 -0.018561613 -0.039457187 0.15258709 0.048413888 0.0023745815 -0.19623809 0.03724145 0.005072072 0.15570718 0.05354037 0.09032672 0.23905036 0.11305243 -0.041441485 -0.13901898 0.024250383 -0.055251326 0.052094337 -0.009890288 0.087520294 0.05843515 0.017282577 -0.09532304 0.09346549 0.39384735 -0.07642491 -0.11820087 -0.13540283 0.07714237 -0.21515583 0.025042262 -0.1887695 -0.07730274 -0.06826662 0.116786264 0.056803036 0.1863977 0.010401588 -0.10235908 0.00931132 0.26465464 0.031158159 0.1428383 0.0011616385 -0.28525075 0.12555255 -0.0007253044 -0.0092436 -0.0456861 0.1903912 0.028175266 0.1705391 0.04920107 -0.19754097 -0.25081524 -0.17627157 0.053032976 -0.12564723 0.087512314 -0.13753726 0.032876723 0.082358606 -0.006514761 0.0052470183 0.12086462 0.0006530596 -0.25654078 -0.10264616 0.038501743 0.009975608 0.27310014 -0.011510004 -0.08689759 -0.03255501 0.045028776 -0.03664388 -0.13409209 -0.016689362 -0.017603738 0.14708464 0.011397378 -0.14097644 -0.094296284 -0.14155138 -0.04916945
248 -0.008687001 -0.0013857416 -0.015187996 0.1661213 0.17334153 -0.033536654 -0.007826431 -0.067587495 -0.115708925 -0.01993129 0.03143063 0.026703775 -0.1264889 0.031257063 -0.0049649253 -0.0061465492 0.026114805 -0.0626647 -0.042282388 -0.02380735 0.03639709 0.15786253 -0.04218186 -0.06803604 -0.088042654 0.018487722 -0.10618442 0.120135345 -0.15313734 0.07086448 0.0073494357 -0.0029784755 -0.060058653 0.08407903 -0.060746625 -0.06519071 0.06550034 0.018730037 -0.009618278 0.035676368 -0.12745163 0.12514512 -0.025867771 -0.1156646 -0.036016583 -0.08299347 -0.16294108 -0.064416975 -0.037439425 -0.0040872763 0.10633349 0.043211617 0.07559507 -0.034834567 0.12112116 -0.0021672884 0.082464464 -0.06434147 -0.07721285 -0.014270104 -0.043551903 -0.0768908 0.0019703892 0.044635102 -0.00014139432 -0.110992394 0.0026973903 0.1256512 -0.13316485 -0.05733051 -0.03330542 0.05395032 -0.10200144 -0.022824632 0.053727593 -0.17334028 -0.022498695 -0.021079564 -0.033744074 -0.039787296 -0.05726139 -0.04119813 0.16909406 0.29549572 0.009724559 0.32109225 0.081386015 -0.11204182 -0.046387378 0.071649976 -0.12767294 0.05803564 0.0889427 -0.01428682 0.13193695 0.12119811 -0.017825177 -0.031967413 -0.26758754 -0.022995228 -0.0899742 0.026246894 -0.06548114 0.026778532 0.03921023 -0.052609436 -0.0643206 0.16655813 0.14665787 -0.15026392 0.1032815 -0.1620478 -0.07815126 -0.0531984 -0.016505366 0.025263665 0.008476902 0.058513153 -0.020097153 -0.07471875 -0.015384665 -0.12476323 0.09644293 0.049916033 -0.07985626 -0.05855747 -0.012400162 0.11501693
249 -0.0467174 -0.12708883 0.018309325 0.16393018 0.16419716 -0.031754278 -0.07681453 0.08541228 -0.102088794 0.0022834593 0.118064344 -0.004324907 -0.20981005 0.024512284 0.018355135 0.0047460194 -0.101601034 0.029486038 -0.047415376 -0.12249128 0.098852515 0.10508212 -0.03207383 -0.15030682 0.0074076047 -0.09916932 -0.14923026 -0.042942103 -0.09989791 -0.01979683 0.0910062 -0.04264037 -0.024741692 0.035231054 -0.012100548 -0.038144965 0.102133594 -0.0681956 -0.02325986 0.1182609 -0.33326113 -0.01499342 0.011532806 -0.00010798255 0.17893541 -0.048733294 -0.01630485 -0.05361286 -0.0375331 0.15564427 0.12143984 -0.027585901 -0.009333812 0.017018152 0.01734073 0.049475975 0.04970647 0.08984338 -0.05331708 -0.023665087 -0.06362687 -0.034388606 0.13288188 0.06294035 -0.022494411 -0.084693424 0.061563835 0.06144566 -0.0059666904 -0.20952372 -0.024289776 -0.13372694 -0.12758802 0.06724395 -0.16945003 -0.1666539 -0.08941623 0.053508807 -0.11768395 0.1221395 -0.0038779548 -0.06087284 -0.036301173 0.27270713 -0.03026504 0.06281875 0.17028359 0.007222349 -0.07718967 -0.03334001 -0.0682111 0.0717237 0.10468401 0.038477883 0.12103402 0.17511958 -0.08133332 0.002373639 -0.18025698 -0.14288634 0.004112076 0.036718793 -0.0132655855 0.2618576 0.004968413 -0.04628321 -0.12842801 0.054336887 0.03365696 -0.07931587 0.13511872 0.013625765 -0.16969594 -0.057948638 0.044269256 0.03521737 -0.07342285 0.07986932 0.072086066 -0.17547487 -0.033026975 -0.08852848 -0.09446465 -0.12023515 -0.06967866 -0.035556972 -0.033071164 0.08634472
258 0.06307409 -0.09323002 0.009431311 0.10121478 0.13017891 0.016934829 -0.027063902 0.072771885 -0.010406922 0.014470965 0.06076394 0.038925868 -0.082482085 -0.022620521 0.26393524 0.0590967 -0.008878968 -0.019898007 -0.088222474 0.07651325 -0.02966851 0.03890409 0.10518904 -0.16772883 -0.1007049 -0.029330337 -0.09960279 0.05192162 0.056346763 -0.091366924 -0.032596238 -0.093487255 -0.0260482 0.12599841 -0.16119403 0.06377737 0.02123482 -0.22151357 -0.095361635 -0.005011444 -0.10268534 0.104528464 0.08967825 -0.112625234 0.041008536 -0.00864713 -0.098848745 0.20460947 -0.038269475 0.07460207 -0.052300088 0.049432 0.17824386 -0.03450822 -0.06419723 0.15515505 0.0459168 -0.103878684 -0.08477308 0.035381623 -0.0977137 0.045876466 -0.023030045 0.016012017 0.04427469 -0.02992418 0.056459084 0.09729447 -0.10784883 -0.057679076 0.015068334 0.068036154 -0.10095673 0.06559853 -0.18495366 -0.20812497 -0.13966821 -0.045582928 -0.01238363 -0.0527743 -0.023552652 0.013464105 0.045709923 0.24611598 -0.021505387 0.18433696 0.13974291 0.03526722 0.04190603 0.070511095 0.052434135 -0.105600476 0.033375837 -0.09652206 0.09427844 0.08709379 0.04933045 -0.084769145 -0.046961676 -0.008684032 -0.09069573 -0.003016019 -0.21654163 -0.16805382 0.062480465 -0.009243776 0.0063705086 0.09222732 0.03291062 -0.14655986 0.11386303 -0.041038904 0.072303504 -0.037824657 0.033163946 -0.0053518033 -0.0158386 0.11544766 -0.012714837 -0.0041477405 -0.11866731 -0.09160432 -0.057350196 0.015094114 -0.11222845 -0.006886746 -0.010432381 -0.002272523
260 0.077743836 -0.18596774 0.08126302 0.066032395 0.12558804 -0.1379039 -0.050437447 0.024253828 -0.12211993 -0.003683932 0.113905385 -0.08197555 -0.13031204 -0.053829994 0.10596183 0.12730454 -0.01702907 0.0113847675 -0.0360822 0.012908117 0.089954436 0.053435776 0.0057902317 -0.14788899 0.016425129 -0.042891618 -0.05269253 0.122056775 -0.036044024 -0.08111627 -0.03583273 -0.069377474 -0.06524153 -0.1021759 -0.111174904 0.07570721 0.07510784 0.09618046 0.020972151 -0.06864059 -0.15460266 -0.053197592 0.0018042328 0.032247897 0.11007325 -0.0045604655 -0.016823877 0.037101883 -0.0742421 0.049897086 -0.058403976 -0.008769214 0.123256154 0.045859426 -0.03941253 -0.12900774 0.17197682 0.014675549 -0.10742115 0.022306506 -0.010789374 -0.096704744 -0.0031353352 0.081403695 0.045646373 0.054246407 0.019236458 0.033650354 -0.03040307 -0.11530307 -0.029441785 -0.029522039 -0.11525834 0.001486329 -0.03797984 -0.14206608 0.018328102 0.06855857 -0.10358943 0.031272087 -0.08020041 -0.043933377 0.060913857 0.25495368 -0.10100621 0.089517206 0.23654988 -0.07323906 0.085214496 0.04647182 0.009241888 0.005472537 0.015793705 -0.015584549 0.10938777 0.06882474 -0.014380449 -0.18537028 -0.115830556 0.008280684 -0.05423311 0.028617922 -0.14097455 0.0819762 0.024823807 -0.029072233 -0.014029722 -0.040898155 0.09522109 -0.1261013 0.109917045 -0.047096517 -0.12302953 -0.03540769 -0.09781518 0.04124366 -0.14114517 0.02633257 0.016539438 -0.06336113 -0.04305345 -0.043534286 -0.06215698 0.00886557 -0.01241314 -0.048947148 -0.039933253 0.06111358
265 -0.00941219 -0.041439068 0.025087213 0.07498241 0.095675394 -0.07743461 -0.019887 -0.027874066 -0.054629806 0.064762995 0.122861065 0.09917926 -0.09727141 -0.058536638 0.14161141 0.036208224 0.10025385 -0.098580666 -0.03368119 0.06640169 0.08020347 -0.008892389 0.0028805423 -0.0581114 -0.21991259 0.0023641586 -0.08870949 0.14233774 -0.06721638 -0.09131597 -0.018101763 -0.07590239 -0.008141426 0.0034866808 -0.14324306 0.07218784 0.094185054 -0.08756038 0.059120137 -0.029258722 0.010585122 -0.0057192133 0.034711137 0.003518535 0.113011576 0.12214646 -0.057861865 0.0036499195 0.056751546 0.004498101 0.03595921 0.030053105 0.13113038 -0.021407602 -0.08390142 0.029334698 0.12777236 -0.04347202 -0.072334945 0.12451961 0.029467441 -0.079423286 -0.04154218 0.1398576 0.0006575589 0.047716327 0.10011173 0.12269329 -0.007454117 -0.14376564 0.020314455 -0.034917448 -0.086301476 -0.03233052 -0.05985432 -0.07848329 -0.08821472 -0.07016122 0.076231994 0.071353406 -0.091100365 0.018130317 0.017161397 0.2771838 0.005692256 0.17144287 0.22627781 -0.06317865 -0.0052012987 0.13491443 -0.050746974 -0.014467131 0.007527993 -0.052031074 0.15210949 0.040034402 -0.043794215 -0.19945282 -0.10296851 0.02521517 -0.028590707 -0.017942267 -0.15873873 -0.028825529 0.018196754 -0.0043640067 0.027851108 -0.0143746575 0.18251339 -0.12361881 0.13104106 -0.06782663 -0.0003203938 -0.012932561 -0.08687125 -0.07405351 -0.07333005 0.08498422 0.067746624 0.07600228 -0.013966834 -0.14135014 -0.04757204 0.03809671 -0.21065338 0.0009024658 0.017140238 0.045540873
266 0.084187016 -0.15447459 0.12923001 0.04328343 0.037530597 -0.15333563 -0.032420326 0.004422376 0.06598355 0.11042771 0.019256495 -0.019565517 -0.09528345 0.025081158 0.13943385 0.03333572 -0.092345215 -0.16347225 -0.067610376 -0.09380996 0.10116125 0.11134294 -0.05045026 -0.08882607 -0.12409961 0.07529784 -0.10048446 0.13659394 0.042418007 -0.06734627 -0.11502855 -0.10778391 -0.07261033 -0.09738149 0.0028114698 -0.053814117 0.057450313 0.09131326 0.045535326 0.032313976 -0.08066222 0.118010685 0.06071216 -0.009136843 -0.0017921764 -0.026841162 -0.0027362623 0.010550125 -0.065873355 0.1259273 -0.02838319 0.04261252 0.057370275 -0.063518696 0.1681999 0.060185656 0.066992946 0.06158266 -0.114024565 -0.01075175 -0.02658555 0.04329234 0.061840355 -0.0657249 0.01020611 0.012661644 0.11384344 0.04127035 -0.018008871 -0.15469994 0.024474459 -0.050707232 -0.13011196 -0.118391305 -0.108340815 -0.22567067 -0.09739815 0.0011143356 -0.07768811 -0.047895566 -0.13515837 -0.13862513 0.063388005 0.17875941 0.1632445 0.06485513 0.24433969 -0.040385477 0.098287374 0.06371726 0.053155053 -0.0874605 0.08201599 0.010070569 0.1913041 0.096522234 -0.0490484 -0.0630398 -0.1061934 -0.06950606 0.077888824 -0.038330536 -0.1452628 0.046949413 0.085077 -0.12341428 0.037974544 0.091454625 0.16496384 -0.018841531 -0.015028796 -0.11409259 0.016514808 0.12142622 -0.08308491 -0.034973 -0.0058746804 -0.018750587 -0.008210527 -0.084079176 -0.08884495 0.016528934 -0.00996958 -0.039244104 -0.013455828 0.06609917 -0.062001348 0.10547424
267 0.119491234 -0.14214619 -0.03703231 0.117499806 0.17518198 0.10655079 0.066327766 0.2335954 -0.12898391 0.22077888 0.11728221 0.020172847 -0.05183463 -0.09466587 0.016073868 0.07607628 -0.113468714 -0.060867175 0.06593812 0.27768865 0.081332624 0.1068212 -0.11082468 -0.3329516 -0.15280399 -0.056451507 -0.14893843 0.026090173 -0.15637024 -0.05510644 0.07997839 0.12585203 -0.052943133 0.23032148 -0.16058524 0.12780143 0.2615519 -0.10612556 0.05679546 0.052448377 -0.1704183 0.069395915 0.12311146 0.041417144 0.07260111 -0.09932454 -0.24431154 0.067077644 -0.009352792 0.0852677 -0.023076536 0.13481295 0.07758379 -0.11164672 0.016846409 -0.0029522532 -0.011045627 -0.13187128 0.10107682 0.008047164 -0.05530187 -0.042141225 -0.08158672 0.17306831 -0.023661943 -0.16917044 0.2019564 0.10563751 0.007551059 -0.07453809 -0.09254772 -0.077413745 -0.036962837 -0.05399714 0.10273403 -0.085896865 -0.03847514 -0.011858838 0.08704696 -0.1081211 0.0032216627 -0.13116623 0.100502394 0.19484435 0.005582377 0.044917252 0.04299441 -0.051047184 0.03952251 0.10842816 -0.07513531 -0.14550367 0.111091256 0.14654951 0.08712259 0.017136527 -0.025670413 -0.12776916 -0.1711974 0.023307744 0.04633191 0.0244096 -0.06867136 0.04006737 0.20357488 -0.057919145 0.046759307 -0.04938533 -0.0034526524 -0.0026690909 0.13650508 -0.21763346 -0.023343144 0.089668475 0.078091875 -0.029056422 0.07900925 0.10354292 0.17121136 -0.03545387 0.06634243 -0.26829484 0.03909639 -0.03235161 -0.021595454 0.0075435047 0.03911461 0.10621558
268 -0.0064663286 -0.11665862 0.12448067 0.11144394 0.089572154 -0.062142294 -0.115065016 -0.08262284 -0.02402653 0.022969326 0.18110402 0.07553564 0.0123321265 -0.0053454074 0.17277278 0.16668017 -0.032104798 -0.021022344 -0.10905807 0.01762322 0.13742134 0.1600892 0.06889782 -0.14606161 -0.21586573 0.02125662 -0.011461983 0.013909508 0.013263532 -0.08652983 -0.05065468 -0.065951444 -0.101774156 0.04584243 0.0051846486 -0.027731603 0.036172632 -0.099113725 0.105668746 0.008307391 -0.03523133 0.010536742 0.0018358295 0.08788728 -0.06166844 -0.042626306 -0.059955124 0.021036772 -0.11901969 0.111429036 -0.045765568 0.092048295 0.17251086 -0.023864474 0.10907076 0.065262735 0.119480975 -0.08799099 -0.072390124 0.05893121 0.08710132 -0.048513606 0.03267795 0.04315738 -0.08964528 0.0044702524 0.06709867 0.15159573 -0.003343415 -0.10247956 -0.030103812 -0.022746071 -0.2215726 0.005553851 0.05560078 -0.11716353 0.037829403 -0.057900686 -0.00065882166 -0.028267853 -0.057784636 -0.051572938 0.12005437 0.09377069 0.025052488 0.19936734 0.103862755 0.04586116 0.031296276 0.04477602 -0.009747019 -0.05059546 0.12708147 -0.055757444 0.15331331 0.11610518 -0.048836414 -0.0982149 -0.046149455 0.016711656 -0.18809639 0.0054645035 -0.13948467 -0.007617075 0.030173058 -0.057700578 0.0134967035 0.03511098 0.1145146 -0.06957428 -0.042622868 -0.16737378 0.10257611 0.108171135 0.011489513 0.033837534 -0.016945478 0.08923008 0.0048033223 -0.0919832 -0.146539 -0.14788476 -0.0038185276 0.031678893 -0.06079969 0.080173716 0.016303271 -0.041546647
273 0.03494747 -0.066011705 0.1604196 0.12655054 0.07689267 0.06694678 0.006930449 -0.006557673 -0.08990409 -0.11204142 0.20201553 -0.030707791 0.004587487 -0.11609411 0.12004544 0.15447289 -0.16964443 -0.06272034 -0.006916045 0.066022545 0.15292355 0.30503312 -0.034112476 -0.14689958 0.016198168 -0.13305871 -0.13223778 0.20962946 -0.025590006 -0.053183097 -0.020018319 0.0064238757 -0.015782887 0.046553493 -0.106443666 -0.034599025 0.119756326 0.09149233 0.059989687 0.041263353 -0.1535839 -0.08970257 -0.047346596 0.09992692 0.012324747 -0.025397021 -0.09021312 0.039319165 -0.16097438 0.008105789 0.0340135 -0.03331165 -0.022894131 0.079658665 -0.08395239 0.038154807 0.24534276 0.035522137 -0.09766895 -0.075707495 -0.0015650417 -0.0051955776 0.024174199 0.06428376 -0.026996959 0.027823048 0.14939396 -0.018232726 -0.07982294 -0.10274364 -0.073664114 -0.052562457 -0.0058471193 -0.06396197 -0.004292467 -0.09736383 -0.035303675 0.017063824 -0.151993 0.21241887 -0.070571095 0.009403535 0.12597036 0.21100053 -0.030590078 0.14567347 0.23494054 -0.11845619 0.06159157 0.05367232 0.13438807 0.06148474 -0.0050733695 -0.08251346 0.07063576 0.01646228 0.07198236 -0.18703538 -0.09215442 -0.16228539 -0.0056825522 0.006706697 -0.16120376 0.08264925 0.107959434 -0.068677746 -0.036405187 -0.085030206 -0.10111389 0.0114059355 0.13997327 -0.06064033 0.04509805 0.19137204 0.06189436 -0.031499095 -0.035417777 0.08740194 0.042283807 -0.03525045 -0.07998697 -0.051919337 0.06713533 0.021066863 -0.013810807 -0.11272604 0.020198679 0.20468676
275 -0.105300285 0.09106955 0.1204658 -0.049383014 0.10459882 -0.12435615 0.18659319 -0.0041149533 -0.0023634376 0.13483039 -0.06364989 -0.04074237 -0.23435003 0.21857716 0.0809012 -0.030101715 0.007574146 -0.07620347 0.047006916 -0.052170593 0.18874817 -0.017448068 -0.08084096 -0.20152402 -0.05122351 0.12727468 -0.20784517 0.103420176 -0.04945148 -0.09447386 -0.050926402 -0.0064754444 -0.071019836 -0.022038057 -0.09470474 -0.06141354 0.10255511 -0.024776885 0.09672197 0.0991937 -0.12637857 0.08539131 0.10378153 0.021133307 -0.06422483 0.17605203 -0.2811337 0.14076984 -0.008671061 -0.021605141 0.061417453 0.09547323 0.022865351 0.09966845 0.010504519 0.07698446 0.2762519 0.11561577 -0.0036217743 0.11665283 0.09997842 0.011908197 0.06969007 0.09746763 0.07087569 -0.018149523 0.15082431 0.2751897 -0.051066432 -0.18513438 0.056942828 -0.07983742 -0.14453311 -0.12666954 0.078789234 -0.17954311 -0.2358943 -0.068191074 -0.24225312 0.25695226 0.08131789 -0.10204593 0.13933134 0.35114905 0.08286868 0.1452052 0.07726063 0.03156748 -0.058107745 -0.02495447 0.07740241 0.029909523 0.103361964 -0.109248556 0.1811562 -0.07924579 -0.109924674 -0.00766257 -0.14822645 0.08354852 -0.04261161 -0.09156781 -0.12469961 0.14574365 0.13244742 -0.023589827 0.16190082 0.169779 -0.081712134 -0.038003054 -0.04827779 0.05088927 0.15068214 -0.18484299 -0.123910464 0.10471316 -0.101275295 -0.06394273 0.05922407 0.07650755 -0.07774257 0.045490496 0.08412646 0.07043014 -0.06254311 -0.038087822 0.061511226 0.049920134
