572 128
0 -0.017697766 -0.009546634 0.16763537 -0.051934104 0.059934035 0.085945755 0.15769885 0.049342807 -0.08365705 0.15118372 0.023919856 -0.110313475 0.22891352 0.09104991 -0.08234137 0.21674655 -0.11912285 0.012392743 -0.21878912 0.24510232 0.022674436 -0.007861986 -0.096617594 -0.058949504 -0.05973617 -0.0851911 -0.07936879 -0.12338889 0.12362859 -0.19177406 -0.3064065 -0.1444006 0.16175896 -0.13448353 -0.20798337 0.09711732 0.12397088 -0.17841178 -0.062868536 0.16096549 -0.22454602 -0.18087406 -0.22015697 -0.0033280142 0.13450569 -0.30750933 -0.063500136 -0.10065869 -0.1949852 0.0046958365 0.35185722 0.13523464 0.069887325 0.22678423 -0.023101237 -0.034157086 0.31435552 -0.1148445 -0.10446449 -0.22732039 -0.15801893 0.019663872 0.08786722 0.14168191 0.08507541 -0.25536603 0.20959294 0.083690435 -0.03268288 -0.19514035 0.019276595 -0.09013127 -0.12177792 -0.071103506 0.050530422 0.049924683 -0.13249752 -0.066657685 -0.19416112 -0.0840092 -0.10510665 -0.061835837 0.08121785 0.35167617 0.099151455 0.21140881 0.13775484 0.011385995 -0.06138596 -0.07355082 0.10947753 -0.08668636 -0.06274837 0.03448004 0.052964624 0.084071234 -0.09008932 0.08836691 0.1251926 -0.23495546 -0.07202869 -0.020311464 0.0050640595 -0.0032364314 0.053903498 -0.123353526 0.026385887 0.46433622 -0.072700754 -0.3517105 0.019050544 -0.06814926 -0.12232655 0.13689773 -0.07987539 -0.19610757 -0.25559437 0.11268649 -0.098363765 0.05771 0.010565227 0.14287362 0.18278763 -0.17837964 -0.1870882 -0.3133941 0.09672455 0.09034998
1 0.26291448 -0.075062335 0.04545958 0.20716812 0.04232999 0.073452525 0.25505972 -0.14471057 -0.048393305 0.08776009 -0.08170225 -0.107381955 -0.119131334 -0.046090014 0.25923088 -0.07764635 -0.08820008 -0.11508462 -0.09732475 -0.04710981 0.08596382 0.26802182 0.1501116 -0.13572124 -0.23495072 0.15010054 0.00038532817 0.05335452 0.08872168 0.1845541 0.047502927 -0.11582905 0.056827575 0.0153016765 0.012502989 0.061565362 0.1583307 -0.16165899 -0.0051646424 0.12577082 -0.14827293 0.13489932 0.029664632 -0.06946322 -0.028953167 0.04012329 -0.005487532 0.13901487 -0.18699816 -0.012782103 0.34913075 0.104381725 -0.050437763 0.32829836 -0.08129459 0.23091133 0.42950886 0.00048016128 -0.11053606 0.29673183 0.0040124827 -0.030087609 0.050441083 0.14670667 -0.18932702 0.15380423 0.26603603 0.23607713 -0.23509085 -0.06877817 0.16000965 -0.1376599 0.06192047 -0.17359444 0.06787341 0.12031105 -0.28803775 -0.07502613 -0.23816593 0.03129964 -0.097000815 0.035577614 -0.09342492 0.13700269 0.14392588 0.036588002 0.093512245 -0.23470521 0.08495323 -0.012713348 0.07429071 -0.22983424 0.022877978 -0.12698992 0.21865927 -0.03743452 0.16638494 -0.20173313 -0.037279367 0.022199653 -0.091778815 0.009196151 -0.018215993 0.16943303 0.016536966 -0.24416392 -0.042602647 -0.0034976893 0.07500205 0.17780772 0.2288804 0.14502597 0.033665705 -0.00046945523 -0.2411088 0.09936535 0.16611944 0.002171171 0.13227041 0.14534296 -0.013170292 -0.15166965 0.10216244 -0.22231148 -0.1979734 -0.029102268 -0.22131367 -0.13448542
2 0.08553546 0.028318381 -0.17490198 -0.057547595 0.18972826 -0.085420735 0.18018354 -0.15309358 0.07593299 0.05702842 0.11127624 -0.12963904 0.03959634 -0.050631482 0.27415302 0.18364732 -0.08577646 -0.009600544 -0.13142936 -0.016882915 0.35756832 -0.13402124 0.22308101 -0.38347042 -0.017730612 0.1719037 -0.2099509 0.17378414 0.06651952 0.12452812 0.14349404 -0.13380441 0.025352666 -0.14132017 -0.22491373 0.38306987 0.23017962 -0.14647363 0.077390656 -0.011455173 -0.0081436215 0.101683296 -0.149072 -0.065674305 0.0045445724 0.014691574 -0.032344677 -0.0323833 0.08376139 -0.06708863 0.19127434 -0.28049222 -0.22658041 -0.07520627 0.08015465 0.21812154 -0.21422261 -0.07066798 -0.17744625 -0.11870081 0.14501259 0.18999356 -0.2148578 -0.13083634 0.18920188 0.11881449 -0.06673928 0.37556598 0.089238495 -0.12192241 -0.0654684 -0.0811443 -0.39413252 0.22265947 0.11878522 -0.13226189 -0.37576926 -0.40621907 0.119026974 0.2828569 -0.12554584 -0.17515247 -0.075078785 -0.07482808 0.44507024 0.37427053 -0.03621268 -0.19452673 -0.45088243 0.220622 -0.23377253 -0.13142993 0.14539668 -0.033835467 0.31924188 0.017156146 0.16136551 -0.153037 0.080934525 -0.2728795 -0.009777042 0.12782013 0.026053438 0.043215033 0.04972347 0.1761248 -0.20686148 0.057808183 -0.008973939 0.2499912 -0.08624471 0.27336103 -0.0759115 0.074653104 -0.32047334 0.29085657 0.12002006 -0.0651515 -0.06504664 -0.08594609 -0.078664914 -0.053757757 -0.021584043 0.33993065 -0.17307614 -0.033476207 -0.20245312 0.091757685
3 -0.044660617 0.09999925 0.06781433 -0.008288277 0.037087914 -0.06162862 0.24943197 -0.04519354 -0.022467855 0.41136762 0.01931271 -0.20147225 0.06844408 -0.009942103 0.006323092 0.40745923 -0.24052937 0.0048682326 -0.10422895 0.05355785 -0.04532216 -0.16404165 0.32813555 -0.1640173 -0.23841815 0.30776516 -0.07634881 -0.06162548 0.1971631 -0.18458502 0.024348982 -0.27394393 -0.20335764 0.01608241 -0.1447519 0.061626103 -0.3016131 -0.08336526 -0.22859795 -0.2613755 -0.1541439 0.05009652 -0.1669159 -0.27438512 0.23889728 -0.09405398 -0.16552606 0.06425622 -0.0910071 0.07251019 0.05226607 0.02354369 -0.089628056 -0.012267597 -0.30897146 -0.018935805 0.12553675 -0.14191821 0.15457404 -0.19837052 -0.07116689 0.38138807 0.0032195267 0.2022726 -0.21723501 0.17211002 -0.113384455 0.20794605 -0.2018373 -0.01797464 -0.13574123 -0.06285967 -0.260788 -0.11679485 0.1306104 0.1234834 -0.14981082 0.03961924 -0.21748176 0.16486782 -0.1942914 0.059030343 0.089920476 -0.10812859 0.25054494 -0.020840246 0.29340523 0.04687778 0.21971041 0.07046671 0.06287015 -0.16353045 0.023789251 -0.12092665 0.022962416 0.06285575 -0.19182299 -0.43535364 -0.09030167 -0.06531027 -0.22962838 -0.12492718 0.061389092 -0.02792734 -0.0933287 0.0943702 -0.0028392 0.17651382 -0.59978455 -0.095740855 0.13745904 0.124737784 -0.1436855 0.028602071 -0.48652256 0.38786513 0.30677173 -0.04584871 0.36797217 -0.047886886 0.117888294 -0.111562274 0.1406422 0.24471608 -0.303769 -0.21004933 -0.13883092 -0.02353663
4 0.11380403 -0.015581495 0.0064677717 0.23939216 0.031255104 0.025039261 0.10363597 -0.26845512 -0.27776182 0.0999917 0.035860043 -0.03960302 -0.08261109 -0.1358823 -0.03729933 0.13055241 0.014760954 0.07033531 -0.25229028 0.18593284 0.16506478 -0.00090440334 -0.22223483 -0.16036108 -0.23504266 0.100677066 0.07551384 0.06626573 0.13920024 -0.083784185 -0.22841392 -0.29164186 -0.15951619 0.018588055 0.010150129 0.054049887 0.13724016 0.18275382 0.20847514 -0.025000492 0.03982482 -0.04652655 -0.26306364 0.057118364 0.13959768 0.09862492 0.14863002 0.10316976 -0.03217052 -0.05634143 0.30185226 0.050833743 -0.12074116 0.2221971 -0.1353903 0.06740696 -0.054189768 -0.07401094 -0.12049114 0.14079928 -0.2963534 -0.11379077 -0.15386824 0.22116223 0.00039111843 -0.21908163 -0.13395356 -0.1330929 -0.009215796 -0.029239258 0.0345246 0.057035755 -0.39641738 -0.06878771 0.008993928 -0.06867308 -0.12392723 -0.09159367 -0.18462926 -0.023493644 -0.27971187 -0.30813137 0.039121576 0.26094523 0.21906327 0.0337033 0.19641882 0.16573627 -0.04309008 0.079775505 -0.031870626 0.16555999 -0.06410528 -0.20576565 -0.05446467 0.11024155 0.037199095 -0.27233434 -0.24541958 0.060806606 -0.24840558 0.10238022 -0.05992655 0.10816213 -0.16430368 0.057253566 -0.015829649 -0.17054701 0.08204496 0.027538335 0.026995618 -0.017791895 0.14028056 -0.1834884 -0.033239223 0.30181572 -0.2871636 0.13093334 -0.16307911 0.1114347 -0.02336714 0.05997371 0.26859546 0.08178581 -0.14402898 0.025944628 -0.043119133 -0.18311155
5 0.0057737534 -0.16486645 0.17385532 0.25448453 0.25359783 -0.18173312 0.11422346 -0.0033549527 0.090143576 0.04166711 -0.1413976 -0.15594853 -0.3896956 0.14901395 0.0912716 0.18070027 -0.24553724 0.021201625 -0.16523784 0.05695204 0.039427407 0.14059828 0.049475078 -0.11731944 -0.2509472 0.08546853 -0.05100449 0.027301986 0.119328134 -0.13373303 -0.11283208 -0.123792835 0.03418036 0.15068729 0.062244505 -0.10770348 0.218589 0.12881078 0.20513454 -0.23089892 -0.0547939 -0.036756977 -0.10220995 -0.060545035 0.35590342 0.01600542 -0.12968685 0.16555771 0.07012915 0.025076201 0.034678 -0.10519149 0.030532392 0.390728 0.1110301 -0.10985364 0.12788361 0.15319133 -0.03513796 -0.23842041 -0.22471572 0.16831571 0.32428584 -0.04763512 0.085198835 0.11521779 0.039925504 -0.031448852 -0.26592687 -0.0698451 0.08150828 -0.12494287 -0.12299984 0.0053402754 0.21040708 0.31374463 -0.14335905 -0.04781365 -0.08667017 -0.084397234 -0.049009994 -0.115679406 0.021977555 0.19604567 0.05030382 0.1131288 0.14921327 -0.065373525 -0.045618545 0.11936706 0.15782124 -0.00949759 -0.15202907 0.06013997 0.27670234 0.16872694 -0.12786117 0.02997954 0.34331748 -0.18766813 -0.25934845 0.008897983 -0.07991742 0.16217047 0.12095057 -0.1268719 -0.06231013 -0.076757446 0.004436584 -0.17311157 0.042954884 -0.14332074 -0.057998344 -0.06830683 -0.042993195 0.07947993 0.068348125 0.20535599 0.058620445 -0.1539188 0.027376289 -0.110828474 0.21914598 0.042256903 0.11881141 -0.13040632 0.08871937 0.13890101
6 0.19257864 -0.20662335 0.12407922 -0.00046481518 0.09329809 -0.14027709 -0.14245103 0.11324494 0.111599915 0.35242143 -0.21930861 -0.06775211 -0.12820083 0.05678132 0.12759975 0.021124905 -0.32356846 0.13958584 -0.2908063 0.14063251 0.31809294 -0.008772474 0.10775799 -0.03204365 0.07041977 -0.04046408 0.06647717 0.1355018 -0.06970733 0.033932216 0.05063582 -0.11831804 0.0684503 0.06516326 -0.10616542 0.023755612 0.27615777 0.04988726 -0.09886548 0.24695891 0.084485345 -0.03906931 0.06329662 -0.1878039 0.37559012 0.18206704 0.12885812 0.03699292 -0.022513604 0.13357621 0.14711852 -0.04660736 -0.050331317 -0.020969987 -0.04913568 -0.09835334 0.106491536 -0.24045965 -0.13314292 -0.18820062 -0.087414205 -0.13253213 -0.023812424 0.16977909 0.16002028 0.010633241 -0.10021278 0.11196353 -0.095095076 -0.1340881 -0.062429465 -0.2043074 -0.33947548 -0.12621713 0.06678883 -0.19522053 -0.11905757 -0.055234652 -0.06425601 0.018079132 -0.14242585 -0.17787074 0.06921696 0.014920664 0.19979255 0.030234937 0.16237344 0.13423237 -0.02956877 0.16884561 -0.099014536 0.01703401 0.0023033947 -0.03205301 0.27005175 0.2012981 -0.19870037 -0.1961828 -0.0166179 0.034229193 0.29567745 0.009744186 0.15637156 -0.12827793 -0.023584265 -0.2274404 -0.03573056 0.14044806 -0.00087582704 -0.19310208 0.23598538 0.080720186 -0.004971264 -0.027871063 -0.21039474 -0.18663287 0.27198294 -0.06743141 0.2041225 0.0019889567 -0.20536654 0.1439837 -0.049477845 -0.15523955 0.03967277 0.14745565 0.036956646 -0.09828539
7 -0.14787066 -0.29031548 -0.1063373 -0.06019169 -0.044422273 -0.2346686 -0.0070715984 -0.0063460516 -0.12562782 0.2769538 0.12601641 0.13334998 -0.04062255 0.0598468 0.3716747 -0.06907004 -0.13112915 0.05665828 -0.11226797 -0.05450891 0.007238813 0.14707255 0.034925856 0.08715839 -0.28725532 0.17508245 0.025240086 0.043819185 0.20470251 -0.11320729 -0.2376754 -0.15323289 0.023938784 -0.05642422 -0.25298193 0.36073104 0.019979725 -0.28287184 0.107939355 0.16927806 -0.08656959 0.07826282 -0.26159978 -0.18789326 0.28189927 -0.03772114 -0.13996403 0.11580165 -0.0920465 0.08108087 0.26120123 -0.103931755 -0.10404674 0.035415757 0.0035518003 0.013815667 0.20425679 -0.14215012 -0.0047423383 0.22990039 -0.097067274 0.17902614 0.09708381 -0.062045313 0.0791238 -0.040367853 0.09670374 0.079047054 0.08193954 -0.115200944 0.0125701595 -0.047709744 -0.20637299 -0.23116 0.2504869 -0.040286098 -0.19054957 -0.016301049 -0.040180214 -0.0060993694 -0.038562745 -0.090205655 0.012879436 0.24223623 0.13238838 -0.18129952 -0.026276475 0.09802038 0.29608378 0.001032816 -0.040816013 0.1154547 0.13344887 0.053798385 -0.051515903 0.35554314 0.019863112 -0.032638814 -0.21915248 0.023803284 -0.14097433 0.08030966 -0.0141245965 0.020842373 0.025950644 -0.049104106 -0.0710011 0.043347567 -0.05297218 -0.11039259 -0.010076758 0.024618778 -0.11381109 0.25038457 -0.0526592 -0.057264596 -0.006126526 -0.101669624 0.11184263 0.04589811 0.07975548 -0.03563336 0.08039515 0.093452744 -0.19342548 0.028113898 -0.04307353 -0.0013332472
8 -0.058252376 -0.18234606 -0.14924708 -0.087900855 0.024091387 -0.04572074 0.13076186 -0.34068108 0.013472892 0.08129041 -0.1784464 -0.23892538 0.022485143 -0.27017233 0.17433256 0.13789873 -0.2258169 -0.09622053 -0.3641867 0.22593674 0.16240355 0.31004578 -0.20504186 0.14420463 -0.23397605 0.1145003 -0.09025148 0.28308687 0.07642614 -0.1902238 -0.08693782 0.12331506 0.02583386 0.12014279 -0.21769498 0.13757287 0.106490426 0.056134768 0.0023967088 -0.012417704 0.070346035 0.05281026 0.07713679 -0.1033645 0.2470062 0.16944017 -0.10778581 0.25997823 0.14789353 -0.12146487 -0.14519812 0.20827326 0.14554869 -0.08413541 -0.1422 0.05997636 0.020347605 -0.09266198 -0.12439894 -0.04597784 0.09946419 0.22805248 -0.114582516 0.17394973 0.35204917 0.011748005 0.0077169808 -0.13303734 -0.21394843 -0.12912175 -0.030041602 -0.16369037 0.062394716 0.2373426 0.03560736 0.01944892 -0.15668 -0.062864386 -0.084642634 -0.12066732 -0.30366516 0.019452313 -0.11221901 0.2650541 -0.035556424 0.089553155 0.22126651 -0.15953505 0.03316176 -0.08567588 -0.0104469685 -0.13388568 0.17004877 0.11734029 0.35929283 0.2883245 0.17970419 -0.18222922 -0.089017026 0.11376948 -0.18868035 0.15387745 0.21738464 -0.001895749 -0.021994153 -0.08354111 -0.26397032 -0.08679417 0.1072966 -0.01462108 0.19144419 -0.05698534 0.01786373 0.22014084 -0.043256126 -0.07123859 -0.050129976 0.13490729 -0.09210183 0.1813608 -0.05835712 -0.11696781 0.14215635 -0.21014743 -0.38585037 -0.04310472 -0.025071792 -0.023037558
9 0.057097286 -0.1998407 -0.054312043 0.36003777 0.065469235 -0.01509777 -0.04374548 -0.035206627 0.06810141 0.20164531 0.18215033 0.0043804203 -0.13411224 0.056043703 0.084644124 -0.06343565 0.021582728 0.07926942 0.14136986 0.11135523 0.042625926 0.058245417 -0.19418493 -0.19902743 -0.038213737 -0.008636136 -0.023268366 0.15447582 0.061849028 0.0015603931 -0.25992632 -0.101678565 0.12770046 0.1896006 -0.10432769 -0.09786811 0.04500788 0.12853944 0.11609978 0.13702439 -0.033287335 -0.15908265 0.12686747 0.1465428 0.008278403 0.04368682 -0.014705261 0.0075742295 0.085055076 -0.0818988 0.22344756 -0.018011972 -0.116237976 0.33090335 -0.07917157 -0.10841128 -0.036735713 -0.025010183 -0.25388077 -0.1749441 -0.0868856 0.0922271 0.070873655 0.07078292 0.15457739 -0.08955572 -0.09946466 0.046772823 -0.00025696107 0.23596193 -0.2748683 0.104210526 -0.1330511 -0.04739266 -0.07315996 -0.17521767 -0.20849226 0.0017011951 -0.09805324 -0.029453218 0.0025785991 0.0028200808 0.11672405 0.24713391 0.037522677 0.3507238 0.25582874 -0.14295524 -0.06972556 0.33733204 -0.13330436 -0.08747559 0.33821386 0.04875013 -0.42736527 0.1945777 -0.20464332 -0.37464342 -0.055426043 -0.08163229 -0.18617775 -0.20100579 0.013432699 -0.030924788 0.053521235 -0.17727165 -0.12223229 0.33639905 0.19936346 -0.20239781 -0.2020437 -0.13202018 -0.039329153 0.21904966 -0.119448364 0.062257703 0.20217307 0.08281488 0.1569929 -0.20202081 -0.09976584 -0.047757145 0.011686461 -0.09343024 -0.1624001 -0.1989286 -0.03587704 -0.024262216
10 -0.1719631 -0.112911895 0.051193025 0.16102494 -0.03502006 0.10124741 0.25314406 0.027967632 -0.16898027 0.07965568 0.013362542 -0.062078107 0.09476152 0.30021238 -0.13401434 0.24286725 -0.23306653 -0.033730216 -0.1766294 -0.03422952 0.37594107 0.14905179 -0.2875986 -0.12916964 -0.2545159 -0.19078717 -0.10105493 0.21841073 0.010090365 -0.13353853 -0.01256609 -0.15737541 0.07012472 -0.11743323 0.12975243 0.024623778 -0.17049737 0.07077722 0.12296025 -0.04775725 0.08446962 0.13722312 0.05432712 -0.20249572 -0.16303347 -0.11992151 -0.22817108 0.120039456 0.10407229 -0.07853301 0.1729204 0.17804798 -0.18841773 0.052707568 -0.16591023 -0.35841626 0.23108171 0.008418893 -0.06969528 -0.077579446 -0.057408422 -0.20413533 0.090288006 0.20365414 0.17638011 -0.19787748 -0.2047372 -0.048202503 -0.14657551 -0.35617197 -0.11397473 -0.20121862 -0.2654279 -0.1922943 0.24841876 -0.3995518 -0.28969795 -0.14803834 -0.08225497 0.0259732 -0.049616497 0.02596156 0.17059551 0.2124158 0.21856202 0.0013198886 -0.007346371 -0.14179967 -0.07427681 0.010446205 0.1328403 0.17510498 0.22660325 0.035588905 0.31341818 -0.06748186 0.22668923 0.03004995 -0.03663093 -0.021907704 -0.10299293 -0.032760493 -0.19508372 -0.143115 -0.01889894 -0.0014991029 -0.041374125 0.25804475 0.23782551 -0.08435597 -0.0604046 0.052948195 0.010094476 -0.09557282 -0.21881779 -0.10958467 0.09036932 0.08036959 0.20753494 0.08232413 0.008078802 -0.07340292 0.085419 -0.11114514 -0.04997355 -0.16066119 -0.13426517 0.09651886
11 -0.06372321 -0.17209512 -0.02263687 -0.0893009 -0.0860756 -0.24855752 0.1530521 -0.18834507 0.07777519 0.02160311 0.09516078 -0.092137 0.050995793 -0.046896763 0.1910509 0.0009614083 -0.15381451 0.028000742 -0.17446342 0.020870652 0.23367277 0.19265616 -0.05355917 -0.00018512673 -0.1087639 0.30716896 -0.17858502 0.21438602 -0.091244906 -0.23137893 -0.06738575 -0.14983048 0.01789077 0.09723267 -0.053680237 -0.17703484 0.14087869 -0.17924538 0.032890636 0.16991413 -0.14098556 0.01005451 0.0590733 -0.0064046187 -0.09773145 0.018059662 0.12701851 0.03066789 -0.012154437 -0.072546475 0.09669613 -0.08987145 -0.083890975 0.14385323 -0.08911991 0.25642535 0.25168774 0.04402119 -0.21461593 0.011483176 -0.10628988 -0.008534037 -0.035524264 -0.047204345 0.21712103 -0.103791505 0.070744224 0.27680916 -0.024471652 -0.05129623 0.071183756 0.0580493 -0.25916973 -0.25112644 -0.0026953395 0.16672167 -0.029020736 -0.0143137565 -0.07929593 -0.23963138 0.15768147 -0.04300498 0.03796547 0.26894274 0.027854549 0.17904472 0.15990222 -0.09778813 0.07750052 0.20943248 0.067043096 0.09478448 -0.18322383 -0.11996194 0.094207145 0.07211609 -0.018145356 -0.08032716 0.025409296 0.0013827496 -0.13723704 0.024728209 0.0085034035 -0.03078538 -0.074620456 -0.020705715 0.08540693 0.17878735 0.04073107 -0.12836005 0.18446794 -0.09270528 0.12672561 0.090815865 -0.047744513 0.05932629 -0.23216924 -0.09837303 0.06525249 -0.14859511 -0.12484752 0.07121932 -0.0040304 0.16568269 -0.10126576 -0.16312827 -0.043340623 0.032490402
12 0.26309213 -0.008904651 -0.19663678 0.026689533 0.013514993 -0.091953866 0.095541745 0.4268982 -0.42498824 0.4105183 0.18052901 0.05860427 0.19729814 0.00247224 -0.13211219 0.43242472 0.13048717 0.098546155 0.03127005 0.34246528 -0.025640333 0.071941145 0.15701413 -0.4191338 -0.0280408 0.053821575 -0.4131474 0.11013921 0.1443733 0.008429555 -0.11040112 -0.082704745 -0.45880204 -0.01924717 0.10323629 0.011701399 0.152987 -0.015858438 -0.36040798 0.13616735 0.026767535 -0.05415906 0.26658583 -0.26972553 0.027546044 -0.26889187 0.046242535 -0.046352282 -0.197561 0.073229186 0.079794414 -0.010534305 -0.22548532 0.08890661 0.15449196 -0.2804719 0.07212366 0.047098905 -0.17611976 -0.16481012 0.04706124 0.045457855 0.016618654 -0.27469456 0.14273308 -0.3611973 -0.09098533 0.27373332 -0.09614822 -0.07071468 0.097834036 -0.14663538 -0.2922352 -0.07284304 0.117403835 0.07632272 -0.18694174 -0.11395281 -0.0026563858 0.17328091 -0.07078624 -0.42051333 0.19739804 -0.0619135 0.31541812 -0.13159284 0.16190766 -0.41005006 -0.24380785 0.2690446 0.0046266736 0.024176463 -0.050376575 -0.18594556 -0.17624786 0.01278762 -0.0013249568 -0.45639986 0.08752294 0.2521855 -0.21234076 -0.08140314 -0.10585484 0.028432924 0.25899994 0.28485674 0.084566705 0.270069 -0.027158383 0.16440944 0.12299716 -0.11173638 -0.26519504 0.17632343 0.09966406 -0.029634442 0.00028352317 -0.43497318 -0.06090353 0.20660597 -0.039795514 -0.6200683 -0.31547529 -0.018321538 -0.06385823 0.3841911 -0.18358555 0.24295683
13 0.04302931 -0.23583917 -0.17865643 -0.08431211 0.010964214 0.15782982 -0.17022195 0.02553068 0.091450036 0.18182667 0.17115161 -0.120394155 0.021759428 -0.012909018 0.19114193 0.14985293 0.04273238 -0.034271378 -0.122706786 0.3929874 0.10527352 0.16048919 0.22464955 -0.39100435 -0.05161952 0.30941257 0.27088392 0.115728766 -0.0049452456 0.028851388 0.2894667 0.0070431675 -0.14481893 0.023036258 0.040726896 0.25390705 0.0012701598 -0.07674275 -0.29252172 0.10151151 -0.2323744 0.14013298 0.19041535 0.06730321 0.106429346 -0.10200144 -0.15698963 0.03474618 -0.2088478 0.04510845 0.09339608 0.031017084 -0.11857383 -0.20826878 -0.24890222 -0.09153035 0.16450633 -0.017264651 -0.38607672 -0.15274112 -0.18725611 0.1429173 -0.02498563 0.28356224 0.0013406493 -0.16955045 -0.14046028 0.10201669 -0.3188286 -0.2987011 0.113431044 -0.1979407 -0.10961395 0.3125027 -0.09082637 -0.11379386 -0.361754 -0.032621473 -0.27434173 -0.18826881 -0.036034647 -0.25324684 -0.039653245 0.003549533 -0.0034160614 0.23921077 -0.057190526 -0.28683415 0.05349931 -0.08494154 0.2349521 0.071089484 -0.24889919 -0.14160134 0.015278372 0.11393683 -0.08548137 -0.31887522 0.13576901 -0.046339113 -0.12779205 0.06448317 0.010131815 -0.19365093 0.04464623 -0.040721912 -0.122894235 0.14966378 -0.10616575 -0.34758458 0.10704475 0.046470944 -0.26511154 0.12288014 0.001844843 -0.033116367 0.0617171 -0.03628295 -0.098730735 -0.033567492 0.06945435 -0.07118861 0.0008320958 -0.21174742 0.02522424 -0.1243576 0.040901877 0.031903654
14 0.16454421 -0.13640402 -0.077630155 0.15042394 0.023356697 -0.14640123 -0.26734877 0.12897982 0.106166355 0.33261296 -0.21450913 -0.13478439 -0.19372071 -0.14444314 -0.11895071 0.039705712 -0.18227825 0.22037695 -0.28450695 0.13427499 0.14238939 0.102004774 0.36328244 -0.16680007 0.09443333 -0.112319574 0.122668914 0.13537851 0.25441423 -0.1591538 -0.12765463 -0.19544469 -0.034786966 0.028305383 -0.1304923 0.21828702 0.084411904 -0.012835318 0.12718289 0.038955078 0.0040209377 0.038653553 0.01619223 -0.13221313 -0.037009947 -0.002194195 0.051909346 0.16272022 -0.30205232 -0.01581531 -0.006400259 -0.046592437 -0.17553958 0.25812426 -0.037253775 0.18679932 0.14708184 -0.138079 -0.2036892 0.019918976 0.07239383 0.024561735 0.017750524 0.007697574 0.034605168 -0.121969424 -0.062140472 -0.14153813 0.000531708 -0.18723555 -0.030001752 -0.0068255933 -0.24564056 -0.059664093 0.16823027 -0.15800767 0.06659471 -0.118159026 -0.29497117 0.16084163 0.001775114 0.033244286 0.016581645 -0.002456884 0.16642693 0.2480266 0.31075093 -0.014723906 -0.11630264 0.34067202 -0.06470968 -0.13068132 -0.02437583 0.07799042 0.10309994 0.015679609 0.15272689 -0.4031041 0.13058329 -0.013716431 0.24407947 0.049690314 -0.008417413 -0.11101846 0.037063982 -0.11586671 -0.06648794 0.24913903 0.26092726 -0.14834495 0.077994004 -0.030980144 0.15368283 0.19530676 -0.08216704 -0.23174462 -0.06651721 -0.12949228 0.11673912 -0.055433724 -0.17989337 -0.046053354 0.15240295 0.09140904 0.12235805 0.1478638 -0.11702729 0.24390402
15 -0.23312645 -0.011459194 -0.3102217 -0.108367555 -0.017086051 0.1706745 0.23226918 -0.08044724 -0.27399987 0.123909995 0.27645406 0.042327125 0.10107742 -0.16098669 0.048256867 -0.05968853 -0.20549199 -0.07088286 -0.08123571 0.13463998 0.33072883 0.62200695 -0.2352497 -0.421737 -0.18870448 -0.1830079 0.120332636 0.0928483 0.25013497 -0.25964049 0.26310554 -0.016920133 -0.07129223 -0.1562345 -0.07580697 0.24355178 0.19377688 0.17757836 0.18196179 -0.11155354 0.07691638 0.18671699 0.021452067 -0.1781615 0.18174404 0.44511572 -0.16826981 -0.21085386 -0.2656913 -0.053954996 0.16976471 0.07870636 -0.28526238 0.051957447 0.1688457 -0.13515192 -0.068473704 -0.03655029 0.06403502 -0.2068134 0.011671717 -0.23721623 0.05452118 0.18855679 0.119508475 -0.067138396 -0.04071278 -0.24697357 -0.10553583 -0.027462037 -0.07243631 -0.28728792 -0.21087267 0.15265071 0.16355276 0.017412748 -0.11182254 0.21657851 -0.08895745 0.34027573 0.07750204 -0.03984926 -0.06923708 0.20983389 0.25168315 0.17486125 0.063905925 -0.20483169 -0.04326374 0.13226295 0.029382756 0.011680771 -0.07894138 0.09991734 0.45291212 0.11345135 0.051072977 0.0009719485 -0.1245365 -0.07272555 0.12703706 -0.07080427 -0.017150052 0.13654627 0.03407 0.059465412 0.16327065 0.45431364 -0.017779015 -0.16489354 0.3045687 0.29274446 -0.14874505 0.059180353 -0.2697543 0.14672671 -0.1510316 -0.2972051 0.16805652 0.046616767 0.035761386 -0.0825292 -0.14250939 0.17571895 0.11197565 -0.21756099 0.0028403967 0.042157523
16 0.06582282 0.20335744 -0.026519326 0.027830709 0.05969204 -0.11259361 0.28329614 0.039171882 -0.07112971 0.34145707 -0.022301702 -0.1516784 -0.017930295 0.039895114 0.1532076 0.35048744 0.1288331 -0.0262306 -0.10291779 0.010561707 -0.07719639 -0.11017007 0.14748469 -0.13126668 -0.21427694 0.16580386 -0.16012396 0.015509924 0.042130154 -0.25096226 0.0027133664 -0.24619663 -0.10594889 0.11276668 -0.06586905 -0.008401473 -0.24212758 -0.18554927 -0.09439328 -0.19980928 -0.32356405 0.1330842 -0.2105487 -0.023949437 0.15833844 -0.12937137 -0.12833919 0.070011385 -0.17578663 0.104819 -0.12255388 0.20669416 -0.12180601 -0.13464399 -0.38706955 0.05380239 -0.016944781 -0.023620805 0.14035928 -0.22970189 -0.18859224 0.4151824 0.023027344 0.1741858 -0.004708041 -0.046595853 -0.06696025 0.17122327 -0.048191532 -0.20351957 0.059737824 0.06697195 -0.28182122 -0.19857451 0.11420919 -0.060515013 -0.112649895 -0.04984818 -0.18847124 0.06264681 -0.1870077 -0.045400705 0.07160733 0.06404521 0.19647421 0.22836262 0.3217153 0.17787656 0.19168548 0.20089181 -0.12608756 -0.2757168 0.06499244 -0.23514697 -0.059841264 0.002941739 -0.18188319 -0.28368944 -0.18685038 -0.028993601 -0.13476346 0.11435101 -0.06856512 -0.099714056 -0.08133647 0.07188675 -0.136009 0.108602636 -0.23013604 -0.17532846 -0.15658541 0.003878487 -0.10320356 -0.19969359 -0.4325072 0.1613573 0.10519075 -0.09955528 0.28487757 0.06728365 0.18789634 -0.116837464 0.15069413 0.07968573 -0.08869177 -0.24411094 -0.12769319 0.10300114
17 0.066670276 -0.084351346 -0.055357795 0.00075295236 0.09832806 -0.22068413 0.18257602 -0.072786085 -0.09470435 0.21153897 0.23879617 0.117152505 -0.25047418 0.25916794 0.28258812 0.4279571 -0.16614716 -0.35132372 -0.19381842 0.37331283 0.12023331 0.06399852 -0.050325233 -0.26213503 -0.12796444 0.033711806 -0.07711685 -0.060527872 0.17694089 0.0780016 0.074902974 -0.18297382 -0.106869854 0.074842244 -0.089323096 0.13130924 0.45196956 0.022789909 0.0021077031 0.11712356 -0.052453708 0.20492686 0.031800132 0.10089962 -0.12790641 0.1416061 0.22174853 0.0962323 0.22176956 -0.016377944 0.19848774 0.12157038 -0.028426142 -0.07262701 0.19184406 0.39494714 0.072345085 -0.094104365 0.06322842 0.060009897 0.09388359 0.18480596 -0.0005948061 0.10596077 0.05341229 -0.05414663 0.27396175 0.053676404 -0.20215574 -0.00047391417 0.037869886 -0.07447771 0.023904266 -0.010017232 0.162114 -0.0025251938 -0.3432619 -0.041771233 -0.12107479 0.08548389 -0.08156882 -0.211526 -0.27172416 0.16524623 -0.03376323 0.0472454 0.06841472 0.011522466 -0.030770198 0.09987835 0.18042752 -0.13850252 0.044710834 -0.11198281 0.030733347 0.020264912 0.031404506 -0.24149731 -0.06259902 0.047566704 -0.075863816 0.22123922 0.068495356 -0.08478617 -0.0545139 0.23251632 0.1378561 0.2026214 0.35604033 -0.3495721 0.059905246 -0.058273487 -0.14274195 -0.10351695 -0.021225076 -0.17450705 0.06193072 0.06942587 0.13694632 0.07962473 0.019487472 -0.14421919 -0.002016107 0.10482773 -0.00051480666 0.09099359 0.07657278 0.020953665
18 0.06584302 0.06129323 0.16656214 0.089818425 0.10828448 0.13285498 -0.25892293 -0.26805082 -0.0005625637 0.09089529 -0.031416934 0.07164925 0.02017297 -0.006330809 0.34775215 -0.0033377893 -0.17630227 -0.14819884 0.2687775 0.14435041 0.11437242 0.42072433 -0.043265633 -0.08874466 0.088831775 0.22577316 -0.059980538 0.14701413 0.11839642 0.16855757 -0.041834865 -0.058874458 0.18543807 0.15187599 -0.12692876 -0.15971124 -0.11392961 0.09527732 -0.031231817 0.20653322 -0.25731078 -0.021251595 -0.014598833 0.1041247 0.062434275 -0.027272688 0.10339585 0.16621237 -0.08929708 0.24520738 -0.037727326 0.1500419 -0.09821648 -0.06943527 -0.30394357 -0.13329116 0.06926282 0.06841959 -0.15333611 -0.16411684 -0.034842208 0.23351087 0.1695062 -0.0025748783 0.090604365 -0.021563647 -0.02482266 0.02299932 0.27704772 -0.17179592 -0.13384955 -0.10642996 -0.27648962 0.049544297 0.059205696 -0.06880901 0.02334131 -0.14829257 0.039527357 -0.048290405 -0.2908336 -0.5152893 0.14831711 0.12323168 0.0062598526 0.20690325 0.28784552 0.1032288 0.07267948 0.07770982 -0.11984415 -0.072571464 -0.069197625 0.033194855 -0.038730063 -0.066672795 0.049511526 -0.2530118 -0.0339084 0.04944565 -0.09708822 -0.1774248 0.017491588 0.034497403 -0.115319535 0.056467935 0.18554904 0.11409805 0.14871532 -0.12182852 0.29606423 0.024504803 -0.20611773 0.18799435 -0.3490439 0.009127195 0.027115691 0.16634002 0.013595225 0.098052226 0.02289108 -0.15483905 -0.12021844 -0.077222496 -0.24406487 0.034920577 0.17359023 0.063494824
19 0.27268082 0.015750699 0.13688877 0.26480222 0.30015022 0.07728422 0.11755798 -0.022797074 -0.112313986 0.016874041 0.011910564 0.16491485 -0.14541627 0.4178779 0.14855886 0.34914762 0.006233461 0.14731954 -0.03076889 0.012458071 0.31042972 0.014993349 -0.14703232 -0.08005634 -0.042067155 0.28858483 -0.19486688 0.171213 0.08181771 0.08057003 -0.00092355284 -0.18325087 0.00089186424 0.25385943 0.21070258 -0.03409951 0.10751521 -0.012611188 -0.06505643 0.2356726 -0.22417298 0.053200312 -0.09753625 -0.096409 0.0071807653 -0.0042020283 -0.05105242 0.22496808 -0.25078997 -0.062174823 0.060075756 0.18848178 -0.21459055 -0.0837815 0.21493748 0.2347239 0.1873963 -0.0027784423 -0.08947899 -0.046921294 0.014353413 0.19055302 -0.023315812 0.011153489 -0.17445369 -0.09243076 -0.025910642 -0.026927505 -0.10546362 -0.34326047 -0.15173529 -0.09979274 -0.29670283 -0.26939553 -0.07595454 -0.096531056 0.11139338 0.022447878 -0.23249769 0.25311875 -0.16763346 0.11941632 0.24220628 0.31715384 0.058068123 0.23826422 -0.1432992 -0.1781879 0.3229546 -0.025149863 0.056840472 -0.067401245 0.0525566 -0.1487194 0.1190277 0.10658546 -0.25951833 -0.008103399 -0.1705715 0.10042056 -0.067542434 0.07866122 -0.1513587 0.1473106 -0.07228111 0.002146877 0.066837594 0.006547758 0.16685623 0.18996169 0.18942255 -0.18288712 -0.14052294 0.349026 0.14781465 -0.008771832 -0.100732885 -0.034657627 -0.037962876 0.039862286 -0.13563478 -0.045598418 -0.28781888 -0.060350068 -0.2364153 0.16563186 -0.14093189 0.12300069
20 0.06095281 -0.027458945 0.093032144 -0.012219464 0.20495047 -0.13849898 0.046096995 -0.14534417 0.00071138924 -0.13269958 -0.019796537 -0.049328677 0.08547956 -0.2397412 0.03468941 -0.03043094 0.038229156 -0.183601 -0.045202054 -0.027928244 0.21211311 0.07672253 -0.0457842 0.05530109 -0.26166257 0.2801881 -0.17528878 0.2659972 0.109552264 -0.05856815 0.12591986 -0.17213573 0.058887325 0.042905908 0.060252223 -0.060735326 0.052748892 -0.30178 0.18590769 -0.030778276 0.071226984 -0.22767149 -0.15348695 -0.12262362 0.07390088 0.19297546 0.15967865 0.020939225 -0.1027934 0.095941976 0.078846574 -0.21546361 -0.07301744 0.004665886 -0.1941368 -0.09280544 0.31561372 -0.09511634 -0.08209691 -0.26394507 -0.010390307 -0.08393454 0.078401096 -0.14313897 0.19085929 0.087856025 -0.034779143 -0.049954016 -0.2862783 -0.053127844 0.19675562 -0.22838633 -0.2122998 -0.14418195 -0.12679808 -0.10792608 -0.091222376 -0.21573216 -0.19345482 -0.17682357 0.051369067 -0.11046163 -0.062455475 0.10874918 0.034008395 0.30157363 0.17306568 0.12316102 0.024316315 0.28494725 0.16070987 0.07880891 0.02301316 -0.07564595 0.09232971 -0.030735092 -0.17104174 -0.2899227 -0.16165209 -0.090087324 -0.06849308 -0.0009444803 -0.12021194 0.25301746 0.10843443 -0.07357434 -0.09651784 0.019469857 0.24509314 -0.0835264 -0.015212305 -0.05778476 0.06859166 0.21990742 -0.082227334 0.2852104 0.020785714 0.10313527 -0.039779123 0.014911904 -0.22570549 0.06306494 0.035793696 0.09804718 -0.12974069 0.08353208 0.06658517 0.17221141
21 -0.23098642 -0.36587703 0.020946283 0.20713559 -0.08289635 -0.033895202 0.113656685 -0.10788469 -0.104199685 -0.13350932 -0.33879086 -0.11517943 0.08998591 -0.15812467 -0.119205095 0.007633126 -0.1206589 -0.11503008 -0.2835509 0.020985238 0.0858072 0.34105036 -0.19266449 -0.16139534 -0.045967687 0.12258832 -0.25112188 0.06190716 0.040280726 -0.21160649 8.753344e-05 -0.08744924 0.13361889 0.017094186 -0.044130836 0.07299577 0.21728706 -0.05027881 0.17287244 -0.044117663 -0.010432503 -0.020020487 0.09966587 -0.1153341 0.078747265 0.19711035 -0.06871687 0.065625094 -0.11012817 -0.2340277 0.05379752 0.28640342 0.08346346 0.21944365 -0.07431422 -0.19211471 0.28783232 0.08534683 -0.16943964 -0.10764404 0.01721653 -0.21363531 0.2293976 -0.01554682 0.19934295 -0.11225463 -0.11245404 -0.08302258 -0.13756484 -0.008469247 0.049295787 -0.021738233 -0.1499299 0.029447054 0.046012558 -0.24810259 -0.20057419 0.07016117 0.0094819795 0.08732261 0.053015035 -0.26971325 0.078166984 0.24358815 0.38097632 0.18576856 -0.07730079 -0.100145094 0.08043219 0.08583413 -0.003005395 -0.05738889 0.123173185 0.011441623 0.15082398 0.18470383 -0.1907757 -0.1961988 0.068085864 0.020997647 -0.02175409 0.046304442 0.063242234 -0.03504108 -0.17213742 0.038891334 0.06505871 0.10951123 0.17180741 0.17434716 0.2302035 0.059187602 0.050151665 0.15593505 -0.032731254 0.07535041 0.066613995 -0.020729996 -0.16729581 0.063241184 0.1665772 0.13916944 0.15941723 -0.056804303 -0.104192294 -0.22423926 0.061272666 -0.12480758
22 -0.04117258 -0.31429163 0.25788376 -0.17311534 0.084336035 0.019691696 0.076172225 -0.11641066 -0.09877619 0.023186378 0.025493158 -0.02958431 -0.3957711 0.024689753 0.17006463 0.4281961 -0.09166037 -0.052619997 -0.13957044 0.31748378 0.13669802 0.23192905 -0.060848854 0.01905168 0.15852313 0.30159622 -0.2531327 0.05734729 0.12475998 -0.0026861369 0.09883009 0.0038837427 -0.077137776 0.03129611 0.0849582 0.02290025 0.15009584 -0.09671153 0.15487087 0.11741402 0.1332127 -0.0012317281 -0.12881492 0.13405958 0.12140366 -0.025563624 0.0362406 0.04362509 0.09998298 0.15482204 -0.015494879 -3.2868447e-06 -0.14577717 -0.14126681 -0.14669994 -0.19741379 0.08354486 0.079087704 -0.07638297 0.06219401 -0.0597804 -0.08682702 0.30544606 -0.049571525 -0.16198781 0.039555613 -0.0051337876 0.0039394246 -0.11459269 -0.07623253 -0.040185444 0.09155876 -0.093650654 -0.18179442 0.07034822 -0.0044129435 -0.18871677 -0.2076597 -0.2177625 -0.108099684 -0.030020716 -0.09392159 -0.084754065 0.26755875 0.1523014 0.36953285 0.12493781 -0.032532893 0.09674069 0.282825 0.07270237 -0.0040465854 -0.15135907 -0.07218363 0.05288875 0.19252792 -0.029241674 -0.13989532 -0.18070303 0.048818294 -0.16501608 -0.23968916 -0.028032526 0.3375592 0.032125935 0.096538715 0.019391721 0.09587358 -0.12527435 -0.04371497 -0.066813804 -0.058263533 0.169237 -0.1311652 -0.0019845082 -0.09890412 -0.19111966 -0.07174725 0.0055313287 0.040554173 -0.16994238 0.039298635 0.04312643 0.18760413 -0.14421421 -0.019656543 -0.108843066 -0.03096218
23 -0.1911128 -0.13686326 -0.046292193 -0.105706625 0.09454116 0.032045867 0.15871577 0.08300081 -0.123675995 0.38355285 -0.256283 0.13433701 0.109232835 0.1533431 0.05466013 0.051970255 0.109299146 0.08145656 0.05851697 0.060069457 0.22583167 -0.064698234 -0.06455425 -0.3579996 -0.08010489 0.20702958 -0.19155368 0.06671379 -0.00831143 -0.15277803 -0.38299125 -0.07722675 0.009233372 -0.10423134 0.043916058 0.29865286 0.16026586 -0.31588784 0.019785505 0.059426285 -0.061999433 0.16679737 0.009375511 -0.10546764 0.2908653 -0.14956224 -0.25804943 0.3544691 -0.10341086 0.2263433 0.21897762 -0.027101148 -0.040407173 0.1838699 0.14235198 -0.22330633 -0.004061185 -0.12317526 -0.17934714 0.11101605 -0.109230176 0.08621109 0.1026634 0.114309184 0.00074889656 -0.10526591 0.065621905 -0.016456718 0.04643447 -0.10797384 -0.10792527 -0.09382699 -0.2854747 -0.20722939 0.23753183 0.028428568 0.033318914 0.10428352 -0.11389736 0.18600512 -0.19973092 0.02057686 0.43465635 0.015019249 -0.062120438 0.33457243 0.20015201 -0.001119497 -0.3405792 0.29014084 0.0142921535 0.17437072 0.17685904 -0.08485806 -0.016732426 0.2667256 0.19743727 -0.24694473 0.08656151 0.014801441 0.027491057 -0.10049716 -0.3538233 0.044371936 -0.122948006 -0.019319506 0.0070451107 0.10976428 0.25731844 -0.07272083 0.16989814 0.123141155 0.056048207 -0.16891937 -0.10294494 -0.09791942 0.1127411 -0.05524285 0.018832821 -0.08046997 -0.46793884 -0.055838414 -0.23820093 0.05258409 0.30909404 0.28051198 -0.005009957 -0.012014749
24 0.15747657 -0.14399202 0.04282943 0.20803095 -0.07374834 -0.04900645 0.029882155 -0.011424402 -0.15010545 0.23697482 0.06432339 0.049793553 -0.2359803 0.23092456 0.21142434 0.0291143 -0.13041501 -0.04337205 -0.003359451 0.019913364 -0.032056406 0.2268558 -0.07730183 -0.10393756 -0.26808023 0.121706985 0.06678334 0.13413054 -0.05781293 0.02027929 -0.25515416 -0.21833839 -0.11297713 -0.003912466 -0.13822003 -0.10812289 0.11118192 0.07370601 0.16739982 0.14215219 -0.3156795 0.0192005 -0.060477566 -0.05993715 -0.05558107 0.063933924 0.15641719 -0.065468036 -0.032716952 0.11642288 0.18283845 0.026832148 0.02924273 0.08052171 -0.006915539 0.10277221 0.10131555 -0.045073014 -0.112889126 -0.021611808 0.083117895 0.13231108 0.048396256 0.17746416 0.13937312 -0.16228074 -0.038419515 0.01761263 -0.027168196 -0.12723692 0.11718199 0.1077406 -0.10055228 -0.07660237 -0.100772664 -0.20828047 -0.15946221 -0.04763942 0.026408965 0.14640911 0.20316839 -0.030824758 0.03563439 0.3084976 -0.0306529 0.026219046 0.23254251 -0.19252954 -0.17558125 0.35304144 0.12978901 0.11042077 -0.07934163 -0.11665553 0.1023493 0.2099976 -0.055525824 -0.36293322 -0.047908325 -0.06997316 -0.10566198 0.11752404 0.09694381 0.14332062 -0.0011586997 0.0025143288 -0.06926321 0.0930223 -0.008740756 -0.004454171 0.07449431 0.09083507 0.019138725 -0.020739213 -0.11400637 -0.07394861 -0.15843788 -0.047639858 0.047561944 -0.051193707 -0.082015306 0.005380672 0.18537442 0.10146652 -0.032895587 0.1263744 0.16922878 -0.0755069
25 -0.116722636 -0.084192045 -0.18944277 0.21138713 0.041803002 0.30293968 0.16349779 -0.1130782 -0.1391619 0.23154674 0.00012983652 -0.09108537 0.02414908 -0.022652205 0.032089878 0.16126509 -0.0090701105 -0.16794911 -0.15592039 0.06437322 0.21846622 0.21667784 0.005792215 -0.12216396 0.031256523 -0.12083986 -0.088198274 0.28632316 0.00058088405 -0.2292789 -0.06232136 0.18295494 0.1337156 -0.006786962 -0.17755528 0.014989018 -0.1378403 0.031137887 0.05825441 -0.055045865 -0.23096846 0.061267067 -0.031444553 -0.18744682 -0.18661205 0.07889869 0.059212178 0.20561042 0.06738238 0.07656258 -0.06968698 -0.12989873 -0.08206818 0.059491374 -0.25544307 -0.2421262 0.12073081 -0.03223194 -0.041211907 0.14678809 -0.047424123 -0.21369499 0.19997689 0.059643976 0.18025213 -0.18287857 -0.03281874 -0.076039925 -0.14277323 -0.23699185 -0.0648683 -0.1359846 -0.18559925 -0.00044583954 0.045108452 -0.15874258 -0.29899165 0.056796845 -0.119535506 0.1075359 -0.16139683 -0.15181704 -0.039760903 0.29657587 0.4205291 0.35010684 0.13738276 -0.082239576 0.015781038 -0.043768156 -0.13400675 0.48353484 0.05504116 0.21073984 0.12736623 0.26758903 -0.013037942 -0.061475076 -0.089868 -0.14276677 -0.04317481 -0.2159893 -0.070948325 -0.044669513 -0.041925553 0.032836493 0.34237087 0.30556956 0.19850431 -0.25242773 0.0024360423 -0.0071422085 0.05770879 0.012536246 0.03868165 0.13499948 0.02327232 0.16216607 0.029861452 -0.12442458 0.008109314 0.103916004 0.2984115 0.039917737 -0.28724852 0.112216264 -0.14519385 -0.068774156
26 0.10902152 -0.035346493 -0.013094912 0.12471576 0.028396241 0.032439623 -0.086680666 0.036746625 0.012702502 0.15895645 0.12700632 -0.08883575 0.11024378 -0.022102207 0.11587164 0.15073805 -0.11047753 0.0052358825 -0.045377668 0.123537414 -0.119878404 -0.005175855 -0.10229847 -0.10704287 -0.030478444 0.14679801 -0.19038428 0.15855746 0.1979536 -0.10633352 -0.0344706 -0.009264399 -0.12677118 0.12838463 -0.053534925 0.040173117 0.11957632 -0.030495478 0.11338821 -0.011361275 -0.07735203 0.09111169 -0.034810103 -0.209217 0.16339654 0.106538996 0.050249215 0.19697233 -0.03879145 -0.09720045 0.114569075 0.074445814 0.051417813 0.084695704 -0.1309677 0.061732214 0.2844741 -0.054110058 -0.12909432 -0.13998991 -0.032406535 0.051502205 -0.11029199 0.14295575 0.31812534 0.046679534 -0.03063993 0.006148092 -0.12131928 0.042215485 -0.0070504886 0.12692708 -0.05280726 -0.10697957 0.019268762 0.05014846 -0.06720347 -0.112788 -0.08072632 -0.06520751 -0.10829583 -0.24481642 0.01239672 0.371715 0.089957386 0.008056068 0.13167939 -0.10751445 -0.03665291 0.1304982 0.03441116 -0.2696934 0.0480064 -0.08304522 0.16494803 0.12405382 -0.07394055 -0.18214762 0.061713584 -0.033705335 0.2108643 0.15698218 -0.010879972 -0.03961642 -0.005450104 -0.10033921 -0.0061491006 0.15127863 0.33365798 -0.0037300568 0.0070704524 0.05339486 -0.009997778 0.10273725 -0.15269172 0.1657912 -0.13210902 -0.14372529 0.06732275 0.12490858 -0.04935988 -0.07866459 0.22814481 -0.007438284 -0.13458294 0.071057945 0.06840193 0.14121594
27 0.35830536 -0.21867624 -0.2411255 0.33715028 0.19963153 -0.28544676 -0.16549811 -0.012083733 0.032342665 0.097790636 -0.076971516 0.014152426 0.084716566 0.008137338 -0.097240575 0.019117739 -0.25098234 -0.17608902 -0.43290028 0.35930166 0.31340262 0.13408576 0.07591587 -0.1611061 -0.0033250633 0.04685603 -0.0119913 0.067685775 -0.07517369 0.1799824 0.23054469 -0.19574736 -0.17195901 0.093048215 -0.4957172 0.33503947 -0.19951265 0.010819162 0.20742844 0.24498722 -0.30900705 0.026767896 -0.23881121 -0.17069055 -0.18690932 0.34705853 -0.22403242 0.16255859 -0.17463596 0.26365992 0.033002436 -0.153748 -0.13180847 0.13437414 0.25521967 -0.28234962 0.03342521 -0.27030784 -0.023765579 0.08868942 -0.1366952 0.14425701 0.036202103 -0.15468635 0.008112367 -0.12712869 -0.012930451 -0.25744364 -0.15890314 -0.03182051 0.031349834 0.0312435 -0.1822392 -0.02961838 0.04485542 -0.051806256 0.002953449 -0.06181815 -0.17463797 0.033203308 0.086749956 -0.34070632 0.10756175 0.18304507 0.23300047 0.22419187 0.36004007 -0.03358064 -0.030340843 0.500859 -0.12155399 0.25029263 -0.23154499 0.13958627 -0.09405236 -0.11829362 -0.040549435 -0.25291547 0.031530507 -0.0698539 0.3036986 0.10886842 -0.24244934 -0.29585934 -0.20166545 -0.17777838 0.07402434 -0.027065841 -0.046025652 -0.116669744 0.25478444 -0.025427243 0.25750417 0.022142185 -0.14875036 -0.18224262 -0.13379306 -0.20398587 0.06751076 0.058168925 -0.09598088 0.09791951 -0.08896242 -0.123528846 0.09689268 -0.08765468 -0.21157295 0.0016844545
28 0.1155833 -0.044583477 -0.03311789 0.18766922 0.20471205 0.06067371 0.07826271 0.1295242 0.13675565 -0.09181205 -0.14308238 -0.16914183 -0.121543854 -0.044082485 -0.038317937 0.04468875 0.04008353 -0.053693753 -0.14158966 0.22852346 0.10836278 0.15020525 0.16978611 -0.15919498 -0.19126125 -0.010192971 0.21868192 0.12485285 0.018665224 -0.055487048 -0.012872453 -0.12204708 -0.17009293 0.006523461 -0.1277301 0.15408835 0.24697854 0.07595526 0.18087988 -0.06510405 0.014907877 -0.05460244 -0.16940172 -0.003985819 0.0007336948 0.042090368 0.021824786 0.06021769 -0.14818841 0.08788362 -0.007950064 0.10594076 -0.11752742 -0.051519886 0.08377829 -0.17505096 0.23929705 0.02505035 -0.081677645 -0.25679332 -0.090171926 -0.0011913986 0.10132071 -0.06425612 0.263695 -0.13961357 -0.09942316 0.18530852 0.1659296 -0.025516983 0.35960832 0.08296412 -0.36676812 -0.17527187 0.08147483 0.25306386 -0.011099587 -0.105198905 -0.14883044 -0.05472867 -0.08512488 0.056068856 0.074765846 0.4053226 0.25575495 0.1974225 0.15538523 -0.099579595 0.18686166 -0.0018220197 0.13671748 -0.09158417 -0.11829712 0.027899703 0.04505856 0.0370976 -0.049434558 -0.19591703 -0.044344436 -0.08326434 0.0698067 0.17027742 -0.16448435 -0.088061996 -0.07410745 -0.014620961 0.011972588 0.19384077 0.27898204 -0.10901473 0.059683166 0.20756689 -0.0069581685 0.06980499 0.11298886 -0.12446261 0.1023824 -0.04061671 0.11984706 -0.12741688 -0.016932316 0.06906203 0.07399667 0.008232577 -0.21250011 -0.0066133626 0.10201287 0.14426872
29 0.08309758 -0.14991552 0.19910799 0.07807776 0.24521583 0.06300899 -0.0074925437 -0.19115397 -0.22274758 0.015154434 0.06777555 0.02653 -0.050695144 0.25711045 0.24122304 0.32984903 -0.008788789 0.11993941 -0.005678551 -0.10759755 0.056569256 0.23508035 -0.16405971 -0.011057338 0.01854664 0.13579324 0.007970924 0.048697427 0.2737864 -0.020147448 0.013540869 -0.11720526 0.2451215 -0.04731448 0.037219502 0.049932536 -0.019314602 0.084544756 -0.06772707 0.15567969 -0.101403736 -0.1822089 -0.031298727 -0.069964044 -0.013427644 0.14749984 -0.17392123 -0.17763358 -0.2571663 -0.111391865 -0.021747874 0.31201193 -0.40707985 0.02653048 0.04511094 0.3004335 0.100113295 0.11998712 -0.10738294 -0.081209436 -0.03907311 0.0693011 -0.09982399 -0.037306994 0.32989928 -0.28500736 0.033254698 -0.15283506 0.05599816 0.00017232946 0.17260964 -0.1575747 -0.24051878 -0.31951016 0.08410314 -0.362904 -0.23344071 0.035795406 0.010220678 -0.114416905 0.045734804 -0.0667964 0.012222183 0.2889806 0.23594733 -0.111237206 -0.10473329 -0.27355137 -0.022234319 0.13027863 -0.14326717 -0.024158726 -0.073562585 0.21037914 0.19976018 0.1951004 -0.1656427 -0.33642775 0.0581318 0.13126718 0.011829734 0.04304997 0.18493758 0.19467852 -0.13643326 0.014849934 0.026726183 -0.07679615 0.09482086 -0.07411701 0.0707396 -0.09225647 -0.057477847 0.15010047 -0.085559435 0.09024509 -0.18396756 0.09365411 0.12209644 -0.015824007 0.022483934 -0.009428303 -0.06718842 -0.091672786 -0.15345232 0.02079607 -0.22810173 0.10935995
30 -0.03334493 -0.034789618 0.043748688 0.1190945 0.12231872 0.046731226 -0.2851202 0.11765757 -0.07594391 -0.059068073 -0.10594815 -0.13274913 -0.29231018 -0.118796416 0.14565927 -0.2552228 -0.04777797 -0.3321568 0.037712272 0.058842655 -0.079464525 0.19713695 0.008812573 -0.10426204 0.14023292 0.09787903 0.1444187 0.23626359 -0.026234835 0.32105562 0.1083433 -0.13702722 0.21097745 0.02163211 0.00018301813 -0.21224429 -0.042273562 0.04909921 0.11447815 -0.028204974 -0.22320661 0.14485687 0.191146 0.080059506 0.22528423 -0.00015264678 -0.0036619771 0.31907254 -0.11176338 -0.0634112 -0.074199915 0.0890836 -0.27016538 -0.2443219 -0.20958363 -0.20701131 0.39765993 0.015817607 -0.02688154 -0.15968288 -0.062327873 0.029447822 -0.06652203 -0.12428274 0.15787482 -0.28869155 -0.19126438 0.1116418 0.016505778 -0.03587875 -0.3636454 -0.09637069 -0.29703125 0.011794149 -0.1206196 -0.31928226 -0.0172667 -0.09571163 0.074223 -0.04110664 -0.49744943 -0.18516025 0.31507286 0.3062592 -0.063408904 0.31027618 0.482283 -0.21470329 -0.07794732 0.02628942 -0.044895697 -0.17498389 0.3342908 -0.047468636 -0.047705203 0.3243599 -0.06650302 -0.26063707 -0.14371683 0.11769627 -0.28699824 -0.40478188 -0.24905846 0.031997725 -0.03523243 -0.05995181 -0.16456644 0.22734036 -0.022773586 -0.21400622 0.03478848 -0.19138615 -0.369467 0.18327881 -0.3462928 -0.20210479 0.12556785 0.09051343 0.09423612 -0.08095684 -0.09964504 -0.17463548 -0.11208536 -0.19562744 -0.03618096 -0.3469339 0.10687745 -0.08068253
31 0.123818874 -0.047897365 -0.016979741 0.09298257 0.16395311 -0.15721765 -0.00977393 -0.0154676605 -0.023304535 0.12727354 0.008017484 0.04054757 0.079018466 -0.040038005 0.15013452 0.097721204 -0.13142276 -0.08290245 0.09276717 0.11631454 0.09851701 0.0786408 -0.012522476 -0.18351495 0.035061367 -0.024494536 -0.26640397 0.07829002 0.14748625 0.07192822 0.06961868 -0.15036525 0.03613959 -0.005949771 -0.016584532 -0.06893858 -0.1642899 -0.004017121 -0.16390523 -0.08721449 -0.09971134 -0.09687664 0.2088443 -0.010229508 0.2798909 0.06572604 -0.08578702 0.15866672 -0.14396855 0.0439253 0.12853925 0.23608914 -0.26809657 0.016736314 0.09352043 0.18553177 0.08048216 0.07442202 -0.07468523 0.1360901 -0.1273863 0.09474198 -0.025136836 -0.04213394 0.3408779 -0.14755577 0.10668406 0.17980674 -0.043994248 0.009331064 0.18487507 -0.15303852 -0.32565624 -0.019927291 0.104520254 -0.10900347 -0.2312371 -0.19987105 0.22907388 -0.12747793 0.020608043 -0.28721225 0.19753554 -0.0062869545 0.26082265 0.27590692 0.02233217 -0.002019241 0.056239232 0.093997166 -0.28974554 0.0030319586 0.050235614 0.1995032 -0.0011687533 0.2846974 0.05712256 -0.22088467 0.037702296 -0.15315619 -0.17658955 0.21379827 -0.21367693 -0.040781982 -0.08524383 -0.060760126 -0.017789986 0.08482782 0.20932084 0.059232697 0.1496214 -0.12039361 -0.11261494 0.0070929783 -0.15918404 -0.13744329 -0.027380193 -0.2899097 -0.027331447 0.02113308 0.028657956 -0.10008147 -0.108005546 0.045191992 -0.028285827 0.12575474 0.024941226 0.13629915
32 0.22772965 -0.013243379 -0.062314544 -0.091852136 -0.052619893 -0.24376458 0.19271974 -0.042921282 0.020839667 -0.13493781 0.23591813 0.13931844 0.17624725 0.21945377 -0.051179256 0.13642517 -0.062261757 0.032334454 -0.19635902 -0.0036757297 0.19136079 0.11017577 0.07803888 -0.24290204 -0.010495809 0.3121957 0.0076734214 0.3323963 0.04711247 -0.15047467 -0.12270034 -0.07302601 -0.008918488 0.08019484 -0.2560898 -0.047510512 -0.06745781 -0.04034842 -0.04988911 0.19298883 -0.09094475 0.16169399 0.14350273 -0.13558745 0.010029491 -0.065642044 -0.118502714 0.07004985 -0.06449057 0.10229642 0.15858231 0.021099351 -0.24868166 -0.053211793 -0.22622378 -0.046795156 0.2969687 0.06717653 -0.2156093 -0.045908157 -0.25022948 0.06515854 0.28546742 0.04577964 0.070627175 -0.21370856 0.04718866 0.17908043 0.061225947 -0.021952169 -0.058576517 0.056623507 -0.10120607 0.09804376 -0.048630226 -0.009258768 -0.11997857 0.09829765 -0.23081456 -0.048537504 -0.06253656 0.016741965 0.013770978 0.023508495 0.055803463 0.034934312 0.12079896 -0.3821639 0.14162146 0.10269833 -0.14267989 -0.12080208 0.014871809 -0.27461788 -0.0440675 0.1794878 0.17571546 -0.2083073 0.1329806 -0.02961491 -0.14954586 -0.11591547 0.13503905 0.08690313 0.1818609 -0.08139639 0.05913614 0.14850794 0.11818617 -0.101096846 0.25561658 0.16116692 -0.17078371 0.10199522 -0.25855404 -0.010429957 0.2074597 0.07822336 0.0009864962 -0.051917545 -0.20111197 -0.11775832 0.09958111 -0.102101624 -0.07326123 0.04397183 -0.18589179 -0.05103689
33 -0.33282527 0.17418481 0.11524081 0.083814576 0.16522816 -0.072647244 0.006935787 -0.05629601 -0.00672589 -0.03070923 0.15667546 -0.05696713 0.024614252 -0.17693742 0.24665193 0.33498704 -0.3306919 -0.13804796 -0.2011242 0.12122918 -0.0417978 0.23064634 0.048881877 -0.24929209 -0.26859155 0.10444814 0.025473371 0.040113825 -0.13659112 0.14133973 -0.05112425 -0.14538021 0.027813701 -0.15111789 -0.3135647 0.090562634 0.3104477 0.15227214 -0.11542158 0.009190697 0.16246991 -0.032884385 0.0004087809 -0.029315958 0.14838447 0.002394322 0.10568071 0.12200243 -0.16151237 -0.11981403 0.15292175 0.27438378 0.07016993 -0.24219261 -0.069657244 0.09153011 0.24665657 -0.13312633 -0.00013994296 0.15625623 -0.14320289 -0.28841868 0.18519166 0.2540943 0.082113594 -0.24890034 -0.046269868 -0.06630728 -0.24705873 -0.061923657 -0.22589606 -0.15539344 -0.20554726 0.1745788 0.20959541 -0.26354915 -0.13366282 0.14511012 0.08178258 0.3218257 0.019511685 -0.012631122 -0.14287288 0.23459221 -0.13822617 0.18832767 0.15039435 -0.1344591 0.061585113 0.2853434 0.08077468 -0.30993128 -0.080762886 -0.075818345 -0.0706166 -0.114882246 -0.037903957 0.07524153 -0.11059171 0.122097045 -0.25157368 0.097932085 -0.12823915 -0.22452143 0.0053114686 -0.04377864 0.15114175 0.14159764 0.061576664 -0.31931612 0.08797996 -0.22058842 -0.050936613 -0.053454716 -0.027039835 -0.020165225 0.08624329 -0.08138388 0.1273795 0.08526926 -0.10482633 -0.026891075 -0.12856293 0.30147907 -0.12225026 -0.025898607 -0.057585284 0.082283154
34 0.09806095 0.14004654 0.011550035 0.004396892 -0.06422624 -0.23456572 -0.0028153432 -0.006283988 -0.06372786 0.09641378 0.08807058 -0.030232454 -0.03634306 0.14350784 0.16195323 0.10426834 -0.2042335 -0.06279357 -0.16810288 0.20731683 0.054025955 0.10540236 -0.06450807 -0.16008611 -0.054009486 0.10503579 -0.053736567 -0.0029246344 -0.070428945 -0.11810936 -0.06735481 -0.040466327 0.17551601 0.048161425 -0.1186004 -0.06664673 0.20030542 0.057857793 0.16085841 0.023591088 -0.21189745 0.0051937434 -0.06636094 -0.03865672 -0.10286476 0.014677351 -0.048676424 -0.05097106 -0.06681962 -0.0037411712 0.2005368 -0.0014844305 -0.04987256 -0.07030144 -0.06834875 0.09266236 0.15949336 0.060672134 -0.2848543 -0.02919748 -0.10816196 -0.041964628 0.11344164 -0.178675 0.14411679 -0.1627569 0.098312266 -0.084201075 0.029020043 0.052442916 0.07018885 -0.17772286 -0.16865544 -0.05833802 0.03360976 -0.024008738 -0.076163 -0.07359174 -0.14488828 -0.13797258 -0.08317272 -0.30395555 0.00920503 0.20602906 -0.1358529 0.0068987003 0.1311676 -0.01609341 -0.07237806 0.067597084 0.079632886 -0.23270822 0.020165073 -0.13742207 -0.017285172 0.30909637 -0.09706321 -0.27841437 0.060242977 -0.12620245 -0.24725917 -0.08573966 0.01488743 0.12862824 -0.1481568 -0.027953599 -0.08633149 0.289479 -0.041817598 -0.08351455 0.11399339 0.026546955 -0.16292208 -0.003339074 -0.07369909 0.015681421 -0.056724835 0.05018678 0.21471792 -0.003849034 0.013868929 -0.03928342 0.013516504 -0.09415062 -0.06759749 -0.01279968 0.031733185 0.10036939
35 0.13593024 0.21729022 0.07263693 -0.00076139864 -0.086160146 0.08213969 0.22088064 -0.055221442 0.005790235 0.0727273 -0.003862931 -0.023121845 -0.1972434 0.17060582 0.09591107 0.08707329 -0.19589035 0.009145346 -0.22300424 0.10175791 0.019617178 0.013586867 0.0971151 -0.054950293 -0.067600146 -0.07977664 -0.05667214 0.14523372 -0.06405588 -0.006242707 -0.20596841 -0.043680687 -0.023401525 0.09500577 -0.16152675 0.10590876 0.085828505 -0.05153805 0.11197133 0.06133594 -0.24899197 -0.06635889 0.0139226 -0.20575744 0.17415918 0.025623368 0.1585663 0.022682551 -0.019825697 0.0074224286 0.15261748 0.15393834 -0.20788603 -0.055482984 -0.16485174 0.049282473 0.11652899 0.005648193 -0.17169102 -0.041796837 -0.06662809 0.02281867 0.030048097 0.17213692 0.10353622 -0.16042815 -0.056172863 0.21424092 -0.0896887 -0.08776495 -0.04482825 -0.1045302 0.11063355 -0.12578 0.011029047 -0.13602972 -0.14402817 -0.06456725 -0.2273237 0.09745812 -0.37511545 -0.011890722 -0.055996273 0.20525809 -0.009311068 0.17988831 0.270218 -0.1026298 0.11967932 0.044147328 0.0052905 -0.15248334 0.20349064 -0.1658958 -0.047723096 -0.025600987 -0.023687864 -0.33200356 -0.006082043 -0.25216076 -0.13737449 -0.017136177 -0.07294825 0.13573436 -0.13476588 -0.101052985 0.016052336 0.22793077 -0.017940799 -0.057175614 0.06399905 0.0016914359 -0.08098471 0.12138805 -0.28843778 -0.06912464 0.07449709 -0.00727611 0.087038815 -0.030456798 0.06635275 -0.023046969 0.118313074 -0.05595507 -0.13883696 -0.021110257 0.1474018 0.30271474
36 0.07926666 0.08535014 0.05936089 0.16060576 0.12786752 -0.021586495 0.08049377 0.021042949 0.1883641 0.24507487 -0.018469242 0.06820374 0.082654454 -0.31226203 0.12162969 0.12571485 -0.12962061 -0.26755044 0.049697954 0.20397139 -0.28407353 0.13877545 -0.2650596 0.06929399 -0.27508062 -0.0367418 0.073638 -0.22897546 0.28577524 -0.114979334 0.09004967 -0.1240813 0.18387349 -0.021743964 -0.049081612 -0.106068656 0.23360848 -0.019298092 0.1787516 0.1490144 -0.08700659 0.22582738 -0.17508943 0.029964808 -0.085403055 0.30167016 -0.09200985 0.103390366 0.23770986 0.01546408 0.08391628 0.26087663 -0.022809453 0.04329035 -0.33624482 0.24178508 -0.044372614 -3.566701e-05 -0.08803669 -0.117001146 -0.2290019 0.15191285 -0.031304415 -0.17373078 0.30729017 -0.041260526 -0.05502796 -0.033015165 -0.14314948 -0.036202323 -0.011453088 0.003757194 -0.27143273 0.078420244 0.20915055 0.047952756 -0.24865595 0.116834566 -0.2121703 0.09138533 -0.14884637 -0.17299166 0.0453556 0.031446643 0.13900003 0.09898097 0.11247377 -0.096402876 0.009210207 -0.08839655 -0.08976557 0.21244057 0.09240001 -0.30888575 -0.07923096 0.22563618 0.0978371 -0.31555727 0.059914783 -0.5148985 -0.3103585 0.0071574207 -0.117610835 0.2146236 0.014122688 -0.057242837 -0.0644087 0.19872847 0.0573665 0.010485469 0.2084417 0.038704813 0.10734684 0.18265861 -0.053729713 0.07807678 -0.24668942 -0.008203262 0.10860894 0.020549586 -0.04616186 -0.2919097 0.029527662 -0.029473651 -0.12402665 -0.093924165 -0.036378037 0.22477768
37 0.28490123 -0.15961817 -0.19186024 0.1194604 0.20749831 -0.2782087 -0.26315245 0.11606347 -0.07999882 0.20822382 -0.16780812 0.11254939 -0.009583262 0.022423575 0.15942773 -0.023388114 0.053311836 -0.20276606 -0.05264653 0.12016037 -0.057130713 -0.25498256 0.029394893 -0.060854744 0.10992522 -0.10673498 -0.19225264 0.2593589 0.31170654 -0.14832735 -0.1943007 0.15915784 0.24801043 -0.018960355 -0.183957 -0.16074379 0.0002857473 0.17961213 0.074579075 0.025192419 -0.14286609 0.2183364 -0.15072964 -0.050763328 0.30716515 0.14007203 -0.11452656 0.09821151 -0.11461035 0.18969832 0.10676685 0.25045252 -0.08766093 0.020990916 -0.14212127 -0.11294045 0.24580963 -0.1355737 0.1022638 -0.11744483 -0.05414418 0.0726729 -0.052213058 0.13419384 0.16809988 -0.03574198 -0.14166051 -0.028192826 -0.25005075 -0.25817633 0.035812598 0.022841588 -0.38040093 0.028237158 0.16140088 0.019493375 0.10459253 -0.21147816 -0.16355333 -0.06695341 0.056419056 -0.022201616 0.06295923 0.2530471 -0.061831668 0.31417805 0.3721241 -0.040817782 -0.022322001 -0.08585708 -0.19814669 -0.13898093 -0.09528641 0.0059262975 0.05932056 0.2667923 0.21265455 -0.26960623 -0.21050443 0.12188465 -0.2596834 0.14450186 0.108644634 -0.049786642 -0.07925593 0.19951856 -0.12026132 0.31373167 0.023564717 0.066162035 0.3673252 -0.09480143 -0.2498207 -0.119519144 -0.04133236 -0.20073438 -0.104540825 -0.20469189 0.11922959 0.17613637 -0.18077655 -0.0011476104 -0.16919641 -0.10094668 -0.26501969 0.080998756 0.088189125 -0.16387747
38 0.0067488006 -0.15792067 0.010686294 0.13566893 0.065408275 -0.22060214 -0.004760408 -0.036319535 -0.019017516 -0.022265436 -0.2230606 -0.006330805 -0.18855251 0.08299653 0.053445302 0.07666282 -0.22467671 0.040199894 0.14586565 0.14247099 0.17803684 0.18957691 -0.122029245 -0.26835585 -0.3982383 -0.14793316 -0.10231296 -0.04323419 -0.23503083 -0.20562355 0.105173 -0.042372953 0.049420107 0.2562488 -0.03929264 0.082780264 0.2663913 -0.1985979 0.17344771 0.0014094451 0.18882294 0.031731028 -0.15828867 0.029290741 0.16642332 0.33052957 0.0048401 -0.118728206 -0.33728564 0.10138576 -0.040873066 -0.03431648 0.07721205 0.063403204 0.15865487 0.13249157 0.3118712 0.056865554 -0.08614784 -0.29878727 -0.047889438 0.05755396 0.069363065 0.0032803365 -0.14366661 -0.13124712 0.045187123 0.12733799 -0.25826535 0.21143545 0.18961583 -0.16662365 -0.18245292 0.089373 0.060677934 0.07287598 -0.092626855 0.061578132 -0.14733548 0.058107648 -0.24594998 -0.33224228 -0.11367248 0.05402805 0.07598703 0.4380387 -0.1307815 0.11342574 0.08695035 0.016695632 -0.09632765 -0.10650504 0.11213753 -0.009850894 -0.09222787 0.113497 0.02572482 -0.19307873 -0.109151386 0.16192074 -0.18452987 -0.009598681 -0.18081865 0.25633684 0.008311655 -0.09276666 0.07012686 0.04690149 -0.16450024 -0.05978086 0.078353785 0.014057672 -0.10484125 0.020049745 -0.44523692 -0.052620165 -0.035350244 0.19655745 0.18872789 -0.27422333 -0.105463676 -0.06053673 0.16824888 -0.034391224 -0.18967707 0.16877645 0.009570108 0.124058366
39 0.119195335 -0.011350019 0.2522144 -0.13642089 0.05978087 0.10661127 -0.050190337 -0.25335094 -0.045341052 -0.10644771 -0.12772511 -0.22790982 0.0142621845 -0.15273875 0.21308847 0.06520196 0.08786245 -0.20696722 -0.03686521 0.14866057 0.0556167 0.24864306 0.0037029178 -0.01304382 0.04239803 0.26593646 -0.10112767 0.2999336 -0.09717298 -0.07555936 0.022503678 -0.023560472 -0.04230092 -0.1708839 -0.021806562 -0.18364555 0.091071926 0.08132156 0.19279039 -0.056064952 0.012295808 0.05510408 -0.03316251 -0.15556863 0.18126294 -0.11534341 0.13599312 -0.1359352 -0.080455266 0.04611363 0.18438414 -0.1669815 -0.23606215 0.078070685 -0.25539503 -0.096454866 0.37176406 -0.1516456 -0.28597015 -0.16608472 0.001984284 -0.1492451 0.017656118 -0.18879281 0.009356717 -0.024078393 -0.122860566 -0.11844439 -0.14934382 -0.21512759 0.06777896 0.04652754 -0.12552993 -0.30600044 0.11706045 0.024750987 -0.2100541 -0.07261554 -0.19029744 -0.24095026 -0.10123247 -0.08330249 -0.040424626 0.114488654 0.0049894787 0.200252 0.20064534 0.14236902 -0.108187445 0.26855946 -0.0665756 -0.24373092 0.027014405 -0.16402298 -0.039484076 0.16226725 -0.107979745 -0.34373334 -0.23502171 -0.026889691 0.035106923 -0.010258711 0.06587699 0.24444187 0.13925128 0.015176468 -0.14377294 0.00059944997 0.22753806 -0.112787195 0.048190024 -0.022539584 0.08309861 -0.056037154 -0.16431475 -0.061916728 -0.20046803 0.08023653 -0.121018045 0.11900804 -0.1345935 -0.15133126 -0.135031 0.22080213 -0.08721951 0.0944441 0.10584736 0.15678298
40 0.19059409 -0.30645147 -0.11069405 0.46961084 0.22306874 -0.092613414 -0.0012538474 0.29441833 -0.024163108 0.11663054 -0.0009306114 0.19784762 -0.22903582 -0.18409847 0.06614104 0.105644114 -0.16823483 0.14667805 -0.028549543 -0.14121738 -0.06015861 0.188245 -0.014366024 -0.3340505 -0.2333715 -0.10905112 0.20014513 0.19480398 -0.08889654 0.045498617 0.111736245 -0.17105988 -0.064972125 -0.0895844 -0.30450478 0.011467363 -0.0143587515 -0.031877566 -0.05351893 -0.053769972 -0.26409104 -0.25419283 -0.48731485 -0.06827579 0.12300152 0.2726496 -0.059353705 0.42739522 -0.16591378 0.07475837 -0.01896918 -0.2631814 0.24235387 -0.041904993 -0.05472606 0.34015906 0.16694799 -0.009620648 -0.09581551 0.43894774 -0.15367305 0.20305832 0.24099848 0.085942805 0.03395981 0.12079598 -0.0875124 -0.070324376 0.045034233 0.039558344 0.056449164 0.01803676 -0.34207 -0.36530206 0.27195305 -0.37000868 -0.37083605 -0.11257054 -0.13313115 0.19979422 0.14523295 0.17460676 0.061140865 0.15467629 -0.27790347 0.17942733 0.19216186 -0.12730275 -0.017626563 0.3120118 0.17958839 -0.10137427 0.041086517 0.09704556 -0.14292127 -0.16321027 0.39059645 -0.25939536 0.004333343 -0.014296236 0.15608533 -0.12638621 -0.018057754 0.05596447 -0.23677777 0.21528699 -0.08325929 0.111783154 0.02510569 -0.070554696 0.3992273 0.17872985 0.26174787 0.14336218 0.3042334 -0.46442485 -0.059189264 0.2457083 -0.049903452 0.15100776 -0.23801085 0.19267863 0.004130312 -0.19191499 -0.24982052 0.26832142 -0.077387854 -0.036062215
41 0.12118158 -0.059974413 -0.15444326 0.12610264 0.087003395 0.08657277 0.017490555 0.14961937 0.21534325 0.094326034 0.016785817 -0.036167182 -0.020028295 0.0016612448 0.31794617 0.1714578 -0.113005824 -0.055411793 -0.009792207 0.0065612425 0.04794564 0.26689115 0.06365475 -0.24760215 0.03840129 0.121309616 0.140776 0.02760725 -0.09300625 -0.24548121 -0.011549606 -0.006197342 -0.031117098 0.08767454 0.00214459 0.3495499 0.16799705 0.16560741 0.19179015 0.20160717 -0.18031158 -0.059221763 -0.34421325 0.02109099 0.13703598 0.0035632115 0.087158956 0.36801016 0.06090554 0.03373419 -0.005519119 0.052555706 -0.092903696 0.07384669 -0.27018654 0.17410676 -0.02538379 0.15378155 -0.40322214 0.13796198 0.16441754 0.03549023 -0.18081822 -0.04300726 0.21393307 0.066487834 0.14449126 -0.058462262 0.05017182 -0.010286956 0.18875903 -0.06558722 -0.3500025 -0.32324332 0.06896224 0.0076389443 -0.10299138 -0.036734253 -0.059688788 0.12918356 -0.23035707 -0.1558015 0.14333974 0.15659459 -0.14903492 -0.029147454 0.18705241 -0.078159995 -0.24145672 0.17892025 0.06807396 -0.13209677 -0.08687073 -0.018038273 -0.048763316 0.0117143 -0.16070999 -0.25537774 -0.12647612 -0.16202319 -0.20608225 -0.028838031 0.033586986 0.23705074 0.036903225 0.042056937 -0.20150913 0.040283453 0.12703282 -0.23240739 -0.0022636703 -0.023949102 0.091736935 -0.039158043 -0.14797278 -0.20583153 -0.07161204 -0.0069928207 -0.06707831 0.33137187 0.09419449 0.17667285 0.2154215 -0.045410316 -0.1294251 0.013568095 0.12983805 0.08694292
42 0.115343474 0.019511469 0.026398962 0.19401786 0.14344025 0.18073882 0.056869328 -0.19725747 0.12099921 0.23919415 -0.14368849 -0.004488685 -0.06894432 0.11022445 0.12959497 0.045039557 0.17882484 0.34552965 -0.14577782 0.12134529 0.27929267 0.13575928 -0.14314517 -0.10501849 0.034529958 -0.07638129 -0.010172768 0.052542806 0.23881471 0.03410118 -0.11201126 -0.19626996 -0.042985376 0.16197303 0.007503315 0.026842821 0.04315742 -0.21705787 0.112032026 0.031213634 0.09577966 -0.0208628 -0.3004476 -0.12045182 0.30567202 -0.06055412 0.11307055 0.09103807 -0.012439656 0.06952437 0.07787002 -0.14603865 0.043080613 -0.12500033 -0.084359415 -0.1914273 -0.098514125 0.006135868 -0.25797254 0.18796134 0.009534417 -0.039881464 0.03881873 -0.3039799 0.15787868 -0.15783109 0.10985155 -0.09948368 -0.20500295 -0.23999774 -0.036398306 -0.18312101 -0.15650024 -0.059899386 0.23708989 -0.023351952 -0.28118736 -0.12356927 0.0471122 0.14598726 0.18118873 -0.12523168 0.21465415 0.24188969 -0.17677955 0.18755044 0.22894087 -0.3417813 0.08731844 0.21821348 -0.028792527 0.009217785 0.1576181 -0.03503554 -0.15375228 0.033513915 -0.18181095 0.087494776 -0.045516044 -0.08329648 -0.03496819 0.019616123 0.041812085 0.13301921 0.07813373 0.13981703 -0.10362599 0.023110187 0.057906277 -0.21667561 0.16632724 -0.22155756 -0.060823113 0.03254712 -0.40715963 0.16111608 0.02680486 -0.1917404 0.18904334 0.019780036 0.08487217 -0.17499024 -0.01138666 -0.2579296 -0.36096904 0.1631425 0.025111193 0.03395948
43 0.21530397 -0.2732474 0.06280403 0.26113024 -0.028260956 0.37463257 0.23028727 -0.35971773 0.14672479 0.19325943 0.058183186 -0.046487153 0.13951975 -0.12446502 0.026302945 0.2623352 -0.28743404 -0.018940447 -0.12900317 0.2774193 -0.034582764 -0.067969814 -0.06568032 -0.098567806 -0.13477309 0.24651118 -0.043646157 -0.11393083 -0.3008191 -0.37314388 0.11801007 -0.029394425 0.15751784 0.17417511 -0.01963627 0.117541 -0.1531537 -0.001779768 0.047145564 0.012061388 -0.017289745 0.133219 -0.037574265 -0.03202049 0.2880684 -0.0108522065 0.13888597 -0.07822449 0.050077166 -0.1797931 0.10835523 -0.10533292 -0.17343067 0.24217469 -0.29561725 -0.08491497 0.1011759 0.011332096 -0.24830012 0.08738373 -0.2625951 0.011669826 -0.09284095 -0.07584236 0.06873787 -0.081090845 -0.24860168 0.10505551 -0.023683185 0.10669452 -0.23823272 -0.21167085 -0.34793103 -0.08230854 0.03614391 -0.027840491 0.19567281 -0.024154225 -0.16881965 -0.1492765 -0.01887563 -0.24714793 0.021694375 -0.010926092 0.46052873 0.10654043 -0.22925714 -0.18494365 -0.048567228 -0.17327212 -0.00025332675 -0.21393265 0.16259941 0.19082879 -0.13577755 0.092714034 -0.076218866 -0.23900743 -0.033051077 0.16007543 0.024181254 -0.031528555 0.05098513 0.07660596 -0.043013755 0.10542933 0.09756738 0.39248177 -0.052020796 -0.27507833 0.08806089 0.032404687 0.074959524 0.106011145 0.057484105 -0.09814878 0.1138058 0.1567164 0.29554915 0.15398769 -0.059453852 -0.054971572 0.15098786 -0.29153332 -0.12374971 0.3204974 0.07332414 0.0028606518
44 0.32364473 0.20431584 -0.15401283 0.123707905 0.4196924 -0.22674756 -0.016495539 -0.11229795 -0.020228932 0.022884145 -0.3699081 0.08303973 0.023771074 0.12735313 0.23243046 0.096809536 -0.18781811 -0.1694183 -0.21635045 0.1491745 0.030837774 0.0535754 -0.020323038 -0.30416748 -0.08548375 0.29993096 -0.07352894 0.24807061 0.121414915 -0.21477598 -0.15309085 -0.15239848 0.068367586 0.32652667 -0.13702984 0.2991945 0.11836136 -0.08193636 0.12501647 0.19756305 0.0687558 -0.041090023 0.014698662 0.010923804 0.007957577 -0.17179012 -0.068372615 0.028721545 0.0388695 -0.13992053 0.21461014 0.5155575 0.15952054 0.029842323 -0.26019126 -0.13476427 0.050980702 -0.33801123 -0.15340036 -0.1033962 -0.100269355 0.010396517 0.24984501 0.10592639 0.16807574 -0.08808593 0.08422028 -0.30145168 -0.08214447 -0.04521091 0.17935215 0.11057219 -0.18584308 -0.087210774 -0.0082094595 -0.21731511 -0.05941794 -0.04224993 0.0708468 -0.22852665 -0.20828961 -0.387659 0.08533152 0.21724768 0.107791565 0.21423961 0.03492639 -0.0635133 0.046997044 0.086999685 -0.061134774 0.16757628 0.18589084 0.02436113 0.14243561 -0.20652981 -0.024682157 -0.08428295 -0.11564762 -0.05739037 0.05086539 0.06590325 0.2492703 0.0046021678 0.0020252906 -0.004823941 0.019920299 0.099093705 -0.02290177 0.13245854 -0.03475225 -0.005490373 -0.16528022 0.12628187 0.31892723 0.0005467707 0.19362646 0.034105007 0.23797126 0.038194355 0.09705887 0.117450565 -0.039609205 0.025507165 -0.032136366 0.0811546 0.07456129 0.058815233
45 -0.041357405 -0.049777377 -0.16638917 0.30546588 0.010453797 0.00870406 0.09726099 -0.039444815 -0.15121117 0.15688142 -0.05336897 0.26113057 -0.4186224 -0.12484151 0.11919867 0.034775503 0.07502176 -0.11121887 -0.28081608 0.1547395 0.067881435 0.013641019 0.067136966 0.15275231 -0.15765204 0.13811709 -0.18577395 -0.017620657 0.04823822 -0.038799852 -0.18963705 -0.3715188 0.12099989 0.12610364 0.042634748 0.12532552 0.21559393 -0.06343827 -0.17628068 0.20765157 -0.1878447 0.035009913 -0.0045517446 -0.113627695 0.018599374 -0.15756719 -0.065652266 0.090984814 0.050864592 -0.041605543 0.114302374 0.02507428 -0.6103532 -0.12398232 -0.016692571 -0.037544202 0.19913499 -0.12300783 -0.29958516 -0.032430843 0.27010655 0.022978099 0.114897534 0.035482187 0.07096481 0.015877692 0.118755765 0.18273291 0.11991283 -0.05692376 -0.016210347 -0.33977833 -0.2602237 -0.039094936 -0.15506817 -0.0928632 0.00032432357 0.01783681 0.10780536 -0.061752904 -0.10591143 0.061669197 -0.004547512 0.3255645 0.17335214 0.070443384 0.01661797 -0.17982654 0.13483906 0.23049821 -0.05361767 0.1689227 0.010660424 0.12468622 -0.0047416524 0.08776349 0.034479894 -0.08313527 -0.0434163 -0.16215914 0.087648645 -0.13281092 0.116976164 -0.039974086 0.015338936 -0.2625618 -0.08831487 0.30148122 0.034864087 -0.11619083 -0.011301403 -0.021262638 -0.006224262 0.10476551 -0.22099349 0.088102154 -0.10700696 -0.07917924 -0.12328213 0.115735054 -0.35514256 -0.18795507 -0.37777457 -0.3267237 -0.051704496 0.20435908 -0.062807746 0.22206141
46 0.15076447 0.08244415 -0.12257527 0.14812863 -0.12595259 -0.042525794 0.047784857 -0.10729118 -0.16708812 -0.10644627 -0.015764821 0.056962516 -0.15068859 0.13823818 0.33099392 0.093824096 -0.03107628 -0.14669104 -0.11832832 0.21242198 0.12958285 0.2478758 -0.074479856 -0.049567815 -0.013641043 0.15951923 -0.18802573 0.087707475 0.14041372 -0.021150254 -0.022330504 0.0281626 -0.049975365 0.17946143 0.022484878 -0.029467484 -0.15167905 -0.09395445 0.025679452 0.157848 -0.022667186 0.07613594 -0.08344582 0.107528724 0.20302086 -0.06535908 -0.08401575 0.018375842 -0.3853616 0.11332653 0.036782663 -0.20417179 -0.19085667 -0.17768086 -0.20198011 0.12666322 0.1991587 -0.18346956 -0.018145904 0.029053852 -0.19930187 0.29132956 -0.23710218 0.070824265 0.32436004 -0.0696083 -0.14870512 0.03477259 0.098990805 0.25191104 -0.39211634 0.043805823 -0.21980774 0.16334946 -0.2223563 -0.11392914 -0.17298944 -0.094615005 -0.017980943 0.11859545 -0.26182526 -0.018319907 0.08021194 0.18790992 0.12983665 0.2822693 0.17728648 0.053491004 -0.0374873 -0.040776163 0.14776339 -0.20177078 0.19768573 0.20194644 -0.024837751 0.32813334 0.020856155 -0.14064695 -0.23068939 0.017335825 -0.032411076 -0.098360024 -0.023479303 0.1675897 -0.024455186 -0.07845498 0.183953 0.06770967 0.093645774 -0.30672252 -0.22047839 0.10657726 -0.21860269 0.237904 -0.15205184 0.042207867 0.09947908 0.1065805 0.2375353 0.25561187 -0.15598033 -0.3192612 0.14681743 -0.006885436 -0.078888565 0.0306088 0.029988684 0.13051301
47 -0.10303805 0.12758446 0.06379892 -0.037785105 -0.04564807 -0.26382238 0.13961232 -0.18289723 -0.12975197 -0.059214838 -0.031423256 -0.19604374 -0.023944352 0.018748226 -0.15642242 0.25775614 0.03463741 -0.03666932 -0.14228755 0.15068664 -0.05439287 0.21864387 0.035498373 -0.20763499 -0.26300198 0.1543052 -0.007916848 0.18430725 -0.15633631 -0.20808773 0.061277464 -0.013395462 -0.019073663 0.08431309 -0.053825162 -0.063608624 0.26796234 0.04816868 0.093960345 0.013448515 -0.06259431 0.13879874 -0.0007229521 0.22014564 0.03963181 0.08203255 -0.16707243 0.057447676 0.01455578 0.06885161 0.32272905 0.064678155 0.020804161 -0.01779478 0.11132897 -0.09282583 0.29991373 -0.06200134 -0.34166345 -0.17641601 -0.08678729 0.13418686 0.08312065 0.0040303995 0.23044057 -0.013278475 -0.016940476 -0.122608334 -0.1413897 -0.105542876 0.003000075 -0.036012713 -0.08888551 0.07710427 -0.0093932925 -0.18145975 -0.16498671 -0.0016244326 -0.095724136 0.23302665 0.011761603 0.030981997 -0.12050821 0.17142648 0.2005948 0.18870972 -0.00801393 -0.31124353 0.022096617 -0.041240167 -0.124501616 0.014041378 -0.041295543 0.0053742668 0.17155157 -0.036367003 -0.2479464 -0.17809595 -0.17420064 -0.10471203 -0.17222384 0.17892528 -0.055457205 -0.08704364 -0.021994691 -0.20614417 -0.03343213 0.21453924 -0.074695505 -0.14397079 0.2160421 -0.09824119 -0.073698975 0.06406876 -0.22034192 0.029689489 0.061302114 0.14125416 0.13616534 0.0060712374 0.27376655 -0.057302147 0.11078397 -0.06704103 -0.036044113 -0.044532523 0.06658157 0.0899995
48 -0.09235191 -0.23603347 -0.24994074 0.16608714 0.26194188 -0.08985933 0.15608338 -0.12325543 0.17889872 0.2894577 0.093608096 0.031903543 0.175284 0.062871434 0.0655932 0.23469022 -0.327747 0.13250746 0.10051172 0.052353002 0.0020934532 0.20865913 -0.2103981 -0.19928631 -0.105159245 0.20820169 -0.02037946 0.32929546 -0.009879684 -0.37704453 -0.023635427 -0.21679763 0.04244153 -0.2909327 0.24758671 -0.02328757 0.028736455 0.21071632 -0.11761866 -0.10235248 -0.28180212 0.07074149 0.007259596 0.2033109 0.014705737 -0.009592173 -0.14085327 -0.045431394 0.03442846 0.017910413 0.03110614 0.01797082 -0.014719373 -0.072945446 0.18633221 -0.06608019 0.12869199 -0.17602429 -0.23947784 -0.16051197 -0.15249601 0.036438644 0.24583325 0.08205961 0.038970347 0.0437838 -0.009866942 0.044614073 0.31658798 -0.24549241 0.2610257 -0.2580493 0.014257053 -0.27320018 -0.17760459 0.2124917 0.022006571 -0.1865799 0.24416442 -0.07405388 -0.04073332 -0.0733407 0.19831708 0.34206325 0.021826519 0.17370376 0.3713423 -0.099557996 0.21857053 0.005393186 -0.06513549 -0.21076402 0.04116364 0.021506483 0.16085185 -0.11617754 -0.11993679 -0.23618613 0.01779299 0.0031922497 -0.080267265 -0.028059876 -0.029270165 0.19788364 -0.37292963 0.15057658 -0.2191254 0.32396963 -0.01973734 -0.035975162 -0.11402897 -0.19489926 0.09334857 -0.012808737 0.053056777 0.12468377 0.07238717 0.028506622 0.25293002 0.23979378 -0.053076107 -0.108857274 0.23992567 0.14409721 0.037442442 0.14018674 0.06717763 0.098197065
49 0.06495502 -0.07159288 -0.09847752 0.064786494 0.0005731741 0.10329062 -0.116123274 0.12748343 -0.06430392 -0.03311053 0.1631512 -0.01645317 -0.045190662 -0.13227451 0.21619642 0.1339418 -0.026300142 0.019816611 -0.0112792775 0.14993124 0.13611403 0.13862312 0.10896442 -0.12628219 -0.123236336 0.2072608 -0.027075766 0.20482256 0.00759571 -0.11355246 0.00520087 0.09101158 0.048899192 -0.21217683 0.05072983 0.23946577 -0.02531418 0.0059647355 0.11543469 -0.12038301 0.105716735 -0.16356426 -0.002115715 -0.02888073 0.16058211 0.11709825 -0.2688218 -0.029013127 0.019705677 0.060084864 0.07902834 0.2012995 0.04209177 0.06933127 0.02630263 -0.020678619 0.2468844 0.01840798 -0.21174611 0.10402879 -0.086510025 0.12588352 0.03612513 0.053814795 0.11967241 -0.19268115 -0.103839375 0.10225172 0.07502346 -0.20360054 -0.08800231 -0.13168493 -0.18960162 0.041582275 0.063608974 0.013133415 -0.24990334 0.077704735 -0.20157216 -0.0052604564 0.055103675 -0.21723665 0.00836284 0.18841024 0.18654908 0.2292742 -0.012906472 -0.08958612 -0.090603374 0.10329021 0.16196235 -0.10620688 0.09288991 0.18387191 0.032795966 0.0044960896 -0.038881894 -0.18610036 -0.08499249 0.051654097 -0.14705677 0.15675883 -0.073141634 -0.01267717 0.0055830916 -0.13901609 -0.16644852 0.27041852 0.076481685 -0.20004235 0.25721323 -0.11400257 0.055186797 0.08849119 0.055738214 -0.15531199 0.072693944 0.12585224 -0.021970231 0.12903158 0.06894652 0.1557395 0.006976996 -0.044431906 -0.12277096 -0.15621519 0.15852684 -0.048422318
50 -0.11027409 -0.41967523 -0.16254972 0.08726642 0.10144927 0.08116607 0.092425734 0.2356332 -0.20280153 -0.10201211 -0.37455335 0.20459008 -0.0066111716 -0.20287848 0.28093714 0.27660298 -0.07646627 -0.13505316 0.116933435 0.39469194 0.13753161 0.35043156 -0.10510115 -0.05024614 -0.0024062376 -0.045201607 -0.10782281 0.07742747 0.0040748264 -0.22439323 0.057454232 0.13039012 -0.2417671 -0.13904463 0.15147962 0.18785374 0.24891554 -0.027956665 0.21939361 0.05686986 -0.13383721 -0.08778797 -0.18211304 -0.19558486 0.21116608 0.14265373 0.07219213 0.14332493 -0.13698685 -0.15874493 -0.158233 -0.042127505 0.05298525 0.05998568 -0.09292303 -0.20812277 0.27970603 0.06128277 0.13708837 -0.18726079 -0.3662325 0.014561984 0.022158844 -0.06374596 0.25080305 -0.1349324 0.11895453 0.10275288 0.018570233 0.033568405 0.040871255 -0.05440801 0.031470265 -0.041762225 -0.0003182658 0.11348154 -0.0912704 0.022438135 -0.03443595 0.27086174 -0.090370595 -0.11421913 -0.26649934 0.15759139 0.037320178 0.033399034 0.3482831 -0.23273093 0.20896862 0.1372455 -0.016422061 -0.09629904 0.032339647 0.22604384 -0.047712512 0.20697023 -0.12775148 -0.18930712 -0.093574435 0.17098315 -0.25359017 0.07081981 0.062324557 0.029215086 -0.20023416 -0.035802707 0.100033276 0.360161 0.0064972695 0.19825096 0.057192005 -0.188607 -0.47653887 -0.042626772 -0.03645124 0.2095087 0.117536776 0.34671244 0.04656859 -0.06746227 -0.07014728 -0.26475304 0.022948403 -0.0049695964 -0.07828816 -0.2996792 0.23310809 0.25900733
51 0.15923205 -0.12478154 0.039643496 0.045485113 0.10995391 -0.20669696 -0.029879455 -0.21433248 0.061493393 0.19538446 -0.034256298 -0.040768057 -0.30971727 0.005845778 0.14860523 -0.16724265 -0.022195518 -0.2441714 -0.2325917 0.18939777 0.07220161 0.095405824 0.002072195 -0.22086923 -0.13198747 0.068724774 0.05000879 0.4364188 -0.03143535 0.019779762 0.09400219 -0.002743812 -0.29867232 -0.16839643 -0.07820428 0.17822593 -0.33428228 0.1294467 -0.18740237 0.11093861 -0.038221247 -0.03869834 -0.06760616 -0.023038534 0.099573284 0.001621917 -0.0117798 0.14387847 -0.18454652 -0.0128437765 0.310962 -0.07347736 -0.26141444 -0.054147974 -0.31415257 0.047120158 0.06296439 -0.0837263 -0.2667955 -0.14382172 0.010111975 0.21814087 -0.028120194 0.09164469 0.015863491 -0.2654876 0.010865542 -0.068719625 -0.026584709 -0.045464516 -0.031794675 0.050552905 -0.13259311 0.16595243 0.2408828 0.0844287 -0.10257769 -0.2970982 -0.3030768 -0.19119546 -0.35331205 -0.2362665 0.07293753 0.30712733 0.11761704 0.13720162 0.23879483 -0.18843433 -0.35191375 -0.064464115 -0.029785208 -0.32509223 0.036033902 -0.2162383 -0.24900785 0.24434933 -0.024693822 -0.09862956 -0.02254935 0.04348477 -0.29023424 -0.09503218 -0.11300115 0.021261847 -0.25845924 -0.22647187 0.31003988 0.1324355 -0.074325845 -0.0070278957 0.15910994 0.12837543 -0.116776675 -0.05920893 -0.12549487 0.048627425 0.29508644 -0.2136813 0.12852727 -0.08227527 0.037616536 0.0026484488 -0.10408453 -0.18707922 -0.2276194 -0.021914499 0.21958902 -0.010862022
52 0.27378073 0.11228384 -0.30437216 0.365587 0.3706869 0.20544627 0.03719151 -0.070152186 -0.24233852 -0.17729087 -0.047454238 0.015768867 -0.310461 -0.1432206 0.0945605 0.26730904 -0.17378211 0.012000604 -0.24675454 0.18641739 0.041851077 0.52446705 0.24637087 -0.17289868 0.1751629 -0.11598143 -0.13155662 0.023343058 -0.01652933 0.025068704 0.22216852 -0.19220728 0.03843563 -0.120578535 -0.3296792 0.056482118 -0.05760559 -0.25943896 0.11121345 0.107687764 -0.3375087 0.19520597 0.3473049 -0.009584874 0.31763875 -0.22852114 -0.061842535 0.21295436 0.3007457 -0.23245877 0.40857282 0.22995238 -0.041280624 0.2110476 0.02666678 0.21164179 -0.0018327833 0.010599839 0.11181684 -0.0494453 -0.03935415 0.1225409 0.12129687 -0.12546206 0.24346957 -0.18511328 0.040510904 0.048058867 0.062176075 -0.19739175 0.15164855 -0.048855077 -0.31430948 -0.17026402 0.104285866 0.11791216 -0.17059024 -0.056740135 0.0651333 0.13988373 -0.0027523327 -0.117406994 0.19343832 -0.162298 0.26967 0.13342014 -0.119322896 0.107901596 -0.20353073 0.2631014 0.11072447 0.115746096 -0.18834352 0.14638638 0.21371226 -0.16906148 0.030004108 -0.37324896 -0.08150956 0.09062413 -0.4304614 -0.04618131 0.08004962 0.08402832 0.01587535 0.10366407 -0.14999236 -0.034988556 0.036994793 0.16523363 -0.008042013 0.24081922 0.07431042 0.09369834 -0.24073367 0.047485955 0.1309921 -0.019022316 0.13064331 0.12076292 -0.25238702 -0.0456232 -0.16928464 -0.04820457 -0.19035925 0.008644533 0.27694625 0.17683734
53 -0.061465416 -0.29043603 0.02941757 0.028725518 -0.06959346 0.0669952 0.069008976 0.12852281 -0.27220082 -0.0025322468 -0.34139308 -0.06332835 -0.21231113 -0.07381835 -0.10244286 0.065946445 -0.26853728 0.28720674 -0.020904565 0.31175622 -0.14138232 0.06401595 -0.09512598 -0.2091125 -0.17256306 0.113319494 -0.14796051 0.3458389 0.12025827 -0.15737927 0.25103104 -0.16436383 -0.13631546 -0.29728127 -0.007912244 0.05068811 0.29990175 0.18910556 0.111312196 0.092169665 -0.3334991 0.03576388 0.1259103 -0.23968655 0.16065222 -0.07941872 -0.34642607 0.12579568 -0.069460586 -0.2562462 0.04842171 0.12497014 0.045582715 -0.048917226 -0.014755665 0.23009658 0.5065102 0.046868645 -0.46039852 -0.33205688 0.033246875 0.0006154598 0.23626223 -0.09184758 0.029667368 -0.11120095 0.09368529 0.03648308 0.039001107 0.00840831 -0.10835783 -0.13426079 -0.1389274 0.18328185 0.016976018 -0.14827745 -0.15435143 -0.23640229 0.029998593 0.038855184 0.16941302 0.18975192 -0.14345525 -0.18522686 0.00070787576 0.44543234 0.16239907 0.05385455 -0.24866745 0.1999334 -0.06628474 0.033294383 0.22464575 0.24823265 0.08263097 0.28809646 0.058206696 -0.06718081 -0.039046697 -0.116869226 -0.05269917 0.085453294 0.08320101 0.28579104 -0.04236188 0.03645281 -0.038989585 0.0052401563 -0.31392074 0.13397889 -0.08278387 0.06445427 -0.07761317 0.07107354 -0.32666555 0.11548126 -0.23089764 0.09536425 0.21931605 -0.006038808 -0.07720723 -0.19356254 0.10944499 -0.032771308 -0.3004177 -0.16425602 0.08512784 -0.14651383
54 0.3581983 -0.120434895 0.3267582 0.05758457 -0.23687819 0.026277011 0.057165414 0.16481178 0.08695422 -0.071730174 -0.0183088 0.03888178 -0.083351694 -0.31810954 0.03471277 0.40876666 -0.21616498 0.059695046 0.033405665 -0.026945267 0.08919377 0.20705158 -0.14592685 -0.11269862 -0.3119951 -0.012782893 -0.3619503 -0.02525632 -0.08448745 -0.08133947 -0.0904272 -0.0069817635 -0.034570165 -0.0743532 -0.060258564 0.23895521 0.119442634 -0.11517534 -0.09734105 -0.06119906 -0.24551369 0.02233613 -0.1767511 0.11316364 0.066731066 -0.049714986 -0.19362007 -0.14627707 -0.16028512 -0.0050831162 0.19941565 -0.13522075 -0.053583495 0.04492973 0.018832166 0.07453445 -0.14947212 -0.19197023 -0.15925054 0.036321353 0.0068464074 0.14358297 0.3924887 0.1586831 -0.29095215 -0.22665524 0.12157738 0.094520964 0.014462837 -0.25136548 0.045970857 -0.18051656 -0.36878204 0.18070404 -0.012656794 0.16857915 -0.22148226 -0.51798075 0.12521248 -0.26075256 -0.04249004 -0.03209125 0.015140909 0.05650534 0.16914865 0.3741926 0.17864066 0.037297055 0.22936137 0.007611675 0.031288352 -0.26881757 0.22975512 0.076364815 0.22497499 0.068446554 0.016100422 -0.2047503 -0.24917834 -0.1383479 0.047318973 0.003119481 0.09221321 0.15493168 0.23675454 0.25943217 0.1458691 0.2170648 0.44685233 -0.13666366 0.06436475 0.031428304 0.10906555 -0.12093475 0.04439539 -0.010470059 -0.2824338 -0.1837129 -0.12790208 -0.024574133 0.02285571 -0.035939828 -0.04934141 0.16448757 -0.075452 0.06112405 -0.12050055 0.35089698
55 0.13329105 -0.34514618 0.24805075 -0.013079625 0.032486614 0.12943466 0.026977919 -0.0715452 0.12918653 0.15232536 -0.026117535 0.09119989 -0.24492308 -0.18373282 0.099242546 0.14141876 -0.28262094 -0.21793586 -0.1880749 0.1404092 -0.072072595 0.010326039 -0.02453182 -0.267539 0.081798 0.05056302 -0.32411674 0.016524777 0.0012539643 -0.32385385 -0.114321396 0.16989845 0.08758758 0.011116669 -0.08689724 0.22565341 0.34759992 0.14314488 -0.30998892 0.075739756 -0.10550315 0.08611204 -0.20241183 0.020210776 -0.1917098 0.1543908 0.10633196 -0.34994453 -0.35637182 0.24797198 0.19686992 -0.02857684 0.19153388 -0.13534047 -0.16219176 -0.06421028 0.1647183 -0.22413814 -0.27880785 -0.051755615 0.021255663 0.17215998 0.25202733 -0.054698896 -0.16150482 0.02307083 0.21217391 0.24335657 -0.25941765 -0.4682852 0.082120776 -0.24980676 -0.30798188 -0.15137604 -0.025733696 0.08103544 -0.015451001 -0.66047525 0.13656841 -0.184971 0.006481934 -0.18445435 -0.23373581 -0.036357436 -0.06832682 0.0028289391 0.0684629 -0.0022830435 -0.13664237 0.050685924 0.15304743 -0.25820124 0.34284434 -0.024812348 0.12838638 -0.040902667 -0.05253142 -0.27508703 -0.2104679 -0.21657431 -0.020165773 -0.26148206 0.1814887 0.124547474 -0.063335165 0.33612925 0.24414904 0.122558944 0.35835382 -0.09693229 0.29430845 -0.21642514 0.15249005 -0.13498451 0.056279678 0.29840013 -0.24423774 0.257218 0.29528582 0.10374891 -0.070341766 -0.34690484 0.029254965 0.11295533 0.1873949 0.06604087 0.005490993 0.054178424
56 -0.047341112 -0.17922379 0.0924331 -0.124717124 -0.082216494 -0.056744058 0.20187774 0.10206692 -0.15900639 0.0073254886 0.5100107 -0.017318074 -0.1592516 0.0046304553 -0.0011814864 -0.0054280763 0.09232555 0.030334733 -0.039002147 0.22358848 0.12267141 0.07549091 -0.16095725 -0.41531554 -0.06705016 0.042834006 -0.19327891 -0.13047609 0.12566864 -0.15475856 0.13891155 -0.13469167 -0.00839071 0.118411124 -0.22382788 0.097408086 0.018489197 -0.16749978 0.083920434 0.071042836 -0.11207576 -0.046260934 -0.06608493 -0.086981565 0.07436822 0.10491241 -0.16615334 0.10859401 -0.06261307 0.14810069 0.31545255 0.15036172 -0.11531924 -0.060251594 -0.23305753 -0.27937454 0.24560912 0.19665894 -0.02748871 -0.036548074 -0.3218049 -0.25515217 -0.0608867 0.05266281 -0.047233175 0.17060246 -0.08099082 -0.08579187 0.16913426 -0.28639367 -0.0055107097 -0.06820098 -0.33213145 -0.11853059 0.2596867 -0.025689336 -0.20883141 0.0021229524 -0.034063905 -0.024469698 0.26021925 -0.040890787 0.06768426 0.2570423 0.31358638 0.078451306 0.1961097 -0.069047086 -0.17165413 0.15326956 0.13443072 0.027868874 0.27992538 0.18831785 -0.13879842 -0.0022292137 -0.008640304 -0.17398517 -0.20681414 0.20566446 0.23008595 0.19577894 -0.07390837 -0.058299195 -0.0035763578 0.08028147 0.071232565 -0.09206443 0.20344466 -0.21105649 0.055094548 -0.2788349 0.02230685 0.1091445 -0.31128287 -0.14412571 0.3140342 -0.06512319 -0.098131955 -0.112713605 -0.046900038 -0.108747 0.24677584 -0.09273274 0.011965415 0.30265197 0.08122329 -0.025927588
57 0.055497814 -0.025538998 -0.14188987 0.11275191 0.14365526 -0.2969711 0.07486661 0.083704725 0.068915695 -0.027872553 -0.079698406 -0.034502864 -0.08726065 -0.30555952 0.025595704 0.11368906 0.05286754 -0.14542514 -0.02641352 0.10257823 0.13601029 0.08588845 -0.03780663 -0.19191816 -0.13003945 0.1585557 -0.17007068 -0.2117502 -0.2104589 0.0001814985 -0.0059008365 -0.3412818 0.02098405 0.1750279 -0.3057204 0.30049112 -0.053384762 -0.03148105 0.118811645 -0.032829463 -0.060102437 -0.10381085 -0.025183309 -0.23421082 0.08272682 0.0577866 -0.2993379 -0.28329235 0.06263633 0.2191368 0.25399885 -0.08179943 -0.01563559 -0.19810748 -0.35104042 0.07564814 0.072493516 -0.11620514 0.08997003 -0.10568845 0.081406884 -0.43822688 -0.016995223 -0.20488358 0.005345485 -0.044144895 0.070641704 0.02050037 -0.1105376 -0.10129955 0.089505024 0.061328337 -0.28592506 0.07601 0.35173178 0.17512023 -0.17712127 0.01863839 0.096833594 -0.16320829 -0.05600243 0.16293855 -0.12305761 0.34631678 0.38010827 0.28316978 0.21730797 -0.09241966 0.047538396 0.048330914 0.16014023 0.18496782 -0.060658917 0.25563923 0.013241116 -0.1336934 -0.10688636 -0.14142692 -0.07760032 -0.1862605 0.17507169 -0.064969756 -0.043910746 0.2375357 0.28011024 -0.22633745 0.028369458 0.23961398 0.10656027 -0.24505831 0.24450383 -0.045574803 0.091217875 0.10075456 -0.06398179 0.08365541 0.007631255 0.29592535 0.22049186 -0.006758201 -0.057963613 -0.14697689 0.017999358 0.20255834 0.13291208 0.054842018 -0.11076699 0.024554033
58 0.10657553 -0.045222864 0.20177652 0.10852013 0.005832848 -0.08061666 -0.119406514 -0.09579365 -0.023438111 -0.2768208 -0.2915992 0.1778247 -0.31844324 -0.35877123 0.14763062 -0.04255898 -0.3097216 -0.032401484 -0.056128185 0.071458966 -0.037591957 0.078266226 0.024172472 -0.095108345 -0.124250814 -0.026322024 -0.25810027 0.043028936 0.2507541 -0.19051206 -0.17029433 -0.0871479 -0.1608888 0.006826235 0.04700302 0.24205035 0.0909634 -0.20614925 0.32428542 0.25982127 -0.29190478 -0.09530541 0.15452544 -0.20981754 -0.037963595 -0.15114062 -0.15660918 -0.055840474 -0.17370413 -0.2728721 -0.005214821 0.15672456 -0.26059997 -0.033896998 0.18459807 -0.015379688 0.2647714 0.17813663 -0.059917584 0.059494957 -0.33319324 0.06435687 0.038460467 0.021302294 0.3328789 0.14145608 0.02111443 0.102371484 -0.19990687 -0.0044541783 -0.2655007 0.13293071 -0.11808638 -0.13647796 -0.019405002 -0.33526325 -0.07886702 -0.3393755 0.022851443 0.035226606 -0.35833004 -0.018305385 -0.007619766 -0.00097189436 0.24727182 0.26208797 0.09184046 -0.058439884 0.20942923 0.24687141 -0.074436784 -0.08915311 0.118697606 0.047014724 0.027736643 -0.04404273 0.0033822206 -0.011425113 0.23595044 -0.14935684 -0.24321248 -0.070940375 -0.06650258 0.35804915 -0.24037623 0.09654245 -0.07856323 0.21994877 -0.068327196 -0.21950838 0.14362974 -0.22991441 -0.08018117 -0.05358297 -0.05344341 0.1806517 0.21179199 -0.17027688 0.07177644 0.049139615 -0.09871733 -0.1673801 -0.19095823 -0.039190922 -0.044410553 0.26178005 0.21581443 0.06437121
59 0.016874492 -0.067119494 0.008822045 0.069998465 0.006042986 -0.028226735 0.04961031 -0.13413337 0.081637375 0.16540714 -0.08301866 0.12295153 -0.15878828 0.023486422 0.029165452 0.08291856 -0.1853528 -0.054338645 -0.15621296 0.18012719 -0.13528113 0.09788127 -0.12880348 -0.280894 0.021813396 -0.0016078616 0.009398444 0.19638777 -0.01640528 -0.12578443 -0.2008434 -0.11992182 0.030087119 0.33006993 0.07802534 -0.09371138 0.15719832 -0.07543288 -0.24076885 0.050791033 -0.06388389 0.011091786 -0.064102754 -0.13259788 -0.09588049 -0.29701912 -0.14086595 0.18605796 -0.04411008 0.096621126 0.1323868 -0.0612389 0.0031076428 0.2592442 0.13890396 0.13743082 0.04251058 0.12284186 -0.29686862 0.064460255 -0.16329277 0.14847381 0.10995912 0.021620858 0.20561247 0.026806396 -0.121617556 0.15144601 0.009905773 0.041008998 0.04149908 0.07599726 -0.089891836 -0.007153022 -0.0020364048 -0.077114135 -0.20091541 0.03128489 -0.065451264 0.15025999 0.09458734 -0.35900438 0.012320374 0.23489921 0.016788011 0.057520762 0.081803784 -0.035452656 0.06833684 0.24835218 0.18380834 -0.021251787 -0.05071405 0.08469074 0.06664035 -0.09133863 -0.17438659 -0.34982973 -0.046651833 0.022293668 -0.092418395 -0.11878338 -0.027169835 0.1579225 0.09551147 -0.026221061 0.019772468 0.2038974 0.26635367 -0.025611527 -0.030829776 0.077232786 0.0093128085 0.098382376 -0.08282504 -0.10077435 -0.10933916 0.15127417 0.1319306 0.017546229 -0.15352377 -0.1746267 -0.04261903 0.055068947 -0.020036818 -0.036332298 -0.014571662 -0.016111178
60 0.015052502 0.16514744 -0.11000748 0.17205432 0.22958587 0.00453739 -0.092602156 -0.08936205 0.120241895 0.23937777 -0.17974673 -0.00026708777 -0.11512866 -0.07010973 -0.0047621387 0.21109036 0.02573616 0.13901705 -0.1135579 0.29692358 -0.0422705 -0.030344363 -0.23509395 -0.094601296 0.083505616 0.041031145 0.08588644 -0.06880948 0.1864957 -0.16150187 -0.18052167 -0.2720047 0.12344347 -0.18556899 0.009406 0.10361534 0.3754669 -0.0005927277 0.0060097906 -0.27122784 -0.15012808 0.24795412 0.18879105 -0.36967272 -0.009410136 0.16147675 0.18617876 0.047562107 0.010125267 0.10444407 0.015755411 0.07509792 0.16685924 -0.06404151 -0.0876614 -0.11415355 0.19927697 -0.040601064 -0.0072721047 -0.041572507 -0.019654706 0.22636929 -0.034196798 0.09363038 0.1888976 -0.16522732 0.21784306 0.30434304 -0.06974005 -0.21714465 -0.25811172 -0.15308191 -0.077708624 -0.1756039 0.15480547 0.25965384 -0.24867283 -0.2032448 -0.25743926 -0.10779499 -0.29091322 -0.28039357 0.03940849 0.4045914 0.21848781 0.069778055 -0.23384672 0.11439093 0.09493147 0.144977 -0.039704323 -0.052072078 -0.2545612 -0.013262652 0.18318444 0.069337636 0.012318182 -0.16957264 -0.19210665 -0.13655767 -0.0494621 -0.18158221 -0.108762845 0.06801986 0.0134873325 -0.15078658 0.14098662 0.28510162 -0.03649052 -0.22288907 0.16526823 0.06657912 0.008207525 -0.022941906 0.08060028 -0.049791895 0.014152958 0.124033265 0.1284625 -0.034385365 -0.106818065 -0.027495034 -0.11666047 0.013711384 -0.049264528 -0.14012507 0.078392506 0.12041474
61 0.11471494 0.09455888 0.029380027 0.19323586 -0.1057976 -0.102274805 0.12347242 -0.07126356 0.18185169 0.24226536 -0.09553317 -0.015414902 -0.115607604 0.20028056 0.27459723 -0.102791466 -0.28484777 -0.04642199 -0.06894051 0.08938819 0.3639727 0.2769348 0.07911011 -0.23533362 -0.28116515 0.20853372 0.05294482 0.09955623 -0.15901642 0.22310524 0.19633475 -0.10941521 0.16700295 -0.03985794 -0.00335102 -0.033099785 0.06492398 -0.29783517 -0.13569601 0.04972595 -0.23931138 0.051145896 0.025735624 -0.13448557 -0.12904014 -0.10555886 -0.059295226 0.09939055 0.0055541745 -0.02533828 0.029198244 0.23609889 0.16250947 0.18902676 -0.11801077 0.011018759 0.27015486 0.038518347 -0.16358007 -0.022042185 -0.13601986 -0.08249341 -0.018850425 0.1691108 -0.1593049 0.2757461 0.30579668 0.09031007 -0.2090909 -0.21072963 -0.12585104 -0.015453528 -0.063214086 -0.24773288 -0.11145088 0.08206858 -0.19859381 -0.1408644 -0.17704448 0.056641873 0.035919193 0.13671371 0.1339084 0.26883778 0.4063277 0.0075454386 0.22840115 -0.054490346 0.07295026 0.0075828433 0.11213185 -0.1571074 0.07647212 0.049823765 0.08772309 0.15296406 0.02464404 -0.119004704 0.06890178 0.006636618 -0.10708731 0.16738975 -0.100477755 0.1614183 0.07482909 -0.25481847 -0.02830628 0.019161612 0.09698037 0.093323916 0.38261315 -0.033527464 -0.015129805 -0.069092125 0.1652973 0.3293516 0.025733193 0.1238394 0.07384298 0.008606388 -0.13466425 -0.25738797 0.014686878 -0.07411149 -0.32797742 -0.04824717 0.004329269 -0.05147116
62 -0.04486511 -0.19788972 0.10522764 0.16895153 -0.062464572 -0.00839947 -0.10501559 0.1901204 -0.15895149 0.13511178 0.07082494 -0.012374625 -0.1105994 -0.18070224 0.25569415 0.07691175 -0.16260368 0.11092505 -0.044149075 0.19809397 -0.069500774 0.038153745 -0.094368316 0.053586967 0.05378236 0.0877076 -0.008775781 0.11505007 0.13976876 -0.16098513 0.05842072 -0.18847966 0.13029228 0.23334801 -0.1283956 -0.165013 0.016635688 -0.37322107 0.07961599 0.1701108 -0.07692013 -0.049472507 0.04143529 -0.15166315 0.19920398 -0.06410616 0.054909963 -0.17030394 -0.052264053 -0.101128764 0.19379298 0.047438256 -0.030414695 -0.23510914 0.036605258 0.07973057 0.17712444 0.095941685 -0.26765603 0.2008649 -0.16846612 -0.0126346275 0.43791166 0.027449224 0.107374534 0.071911044 0.103484064 0.077854015 0.1929511 -0.025737545 -0.041154034 0.107737966 -0.3163433 -0.07529006 0.04276852 0.060713083 0.09144201 -0.5398274 -0.213618 0.08410249 0.22976297 -0.27901727 -0.13442722 0.31538418 -0.06056612 0.3096731 0.039907776 -0.08615636 0.12913086 0.29808712 -0.028364277 0.087141015 -0.017679397 0.05134058 0.2589783 0.018235002 -0.07414106 -0.013342278 0.13816145 0.076720715 0.051316533 -0.05882595 -0.0863572 0.27995098 0.022578396 -0.0818952 -0.0012769536 -0.0839078 0.2098508 0.00808411 0.018434504 -0.106067635 0.13511637 0.03583524 -0.042048648 -0.029939367 0.21296225 0.017989479 0.04205305 0.062047787 -0.16757986 -0.0044954713 0.050910052 -0.03857709 -0.2537525 0.025385598 0.12946615 -0.07138153
63 0.08064648 0.0635583 -0.06276822 0.45129615 0.16782509 0.020603303 0.32265615 0.12498457 -0.009679736 -0.120562285 -0.09276544 0.03640319 0.052996825 -0.010397964 0.37625661 0.15050079 -0.20506762 -0.14312935 -0.012441924 0.2506181 0.15554905 0.026752116 0.07145432 0.062028244 0.014829185 -0.058147937 -0.015246987 -0.1326109 -0.08544943 0.08955268 -0.21636373 -0.10077457 0.19002712 0.014293464 -0.17516991 0.057731036 0.03628063 0.07967442 0.11876003 -0.056406975 0.022875948 -0.15195829 -0.18606058 -0.02851952 0.059341595 -0.02573168 0.02402383 0.01757515 -0.19898091 -0.08847284 0.25972193 -0.046418812 -0.1358874 -0.024459101 0.053328052 -0.04160702 0.56548405 0.0019362747 0.007646267 -0.07032355 -0.14502007 0.19765681 -0.043934926 0.34707284 -0.04014743 -0.28135222 0.23225057 0.03895209 -0.14261061 -0.23572546 0.12694564 -0.15171668 -0.34822738 -0.017625505 0.077031195 -0.019696819 -0.07190789 0.08134214 -0.11818834 0.16651876 0.0029188057 -0.096961476 -0.1189015 0.09598598 0.15111537 0.055609874 -0.022392519 -0.05193317 -0.117124856 0.24729264 -0.07701773 0.07464154 -0.03785334 0.089282915 0.1651407 0.07121042 -0.17135611 -0.10946602 -0.09667036 -0.13209254 0.058829214 0.067151085 0.12355387 -0.22707018 -0.031247756 0.073442034 -0.1916276 0.30026558 0.099770464 -0.16957827 -0.031989824 -0.006321567 -0.0884009 0.054724507 -0.30851975 -0.04548019 0.18218715 0.02067668 0.00032262268 0.043311678 0.040576104 -0.05570313 -0.059337568 0.22522846 -0.17109586 0.11534268 0.018279145 -0.0677314
64 0.09905979 -0.35029513 0.13971086 0.105683975 -0.0076017063 0.005023736 -0.14748459 -0.14489166 0.14476214 0.15916249 -0.013424033 -0.11821239 -0.04466221 -0.2977232 0.2224753 -0.037567824 -0.109673925 0.0835828 0.009575338 -0.16625115 0.25538552 0.18790616 0.20566498 -0.15757377 -0.16395424 0.2363114 -0.45405486 -0.31438097 -0.2063434 0.0374027 0.035676427 -0.061545774 -0.12831365 0.02107979 0.16440669 0.107593745 0.36365974 0.3477292 -0.053917866 -0.07883643 -0.05796689 -0.1866029 -0.40121648 -0.14289573 0.09210435 -0.0035362665 -0.10873259 -0.033178873 -0.083699524 0.0246704 0.04616001 0.0070566973 -0.049008552 0.038299385 -0.00802398 -0.0028258879 0.009709242 -0.45389235 -0.12953922 -0.093393855 -0.1332882 -0.026084343 0.33776292 0.0119125815 -0.19295366 0.018787945 0.35453716 -0.029042466 0.17732379 -0.14535609 0.12118732 -0.19639927 -0.24353175 -0.100806184 -0.025392469 0.2315145 -0.32003257 -0.3328616 -0.027951576 0.051775873 0.10135666 -0.18750477 -0.10952629 0.082191624 0.019976526 0.12695386 -0.001693696 -0.07698337 0.19495147 0.22219358 -0.085064285 -0.23915842 0.1669745 -0.09972163 0.24231322 -0.030460548 -0.060811523 -0.36031246 -0.31758463 -0.38553518 -0.06805791 -0.12955709 0.07018881 0.32594022 0.15904225 0.29947415 -0.07179054 0.20957436 0.26723963 -0.19827098 0.2870624 -0.039878964 0.096982725 -0.20221193 0.15005349 -0.14763524 0.0812934 -0.0002979218 0.10663918 0.010391572 -0.04166941 -0.123422645 -0.24391486 -0.032612238 0.08258249 -0.032517824 -0.24031101 0.2925379
65 0.25908726 -0.13153589 -0.31616434 -0.2715253 0.17173547 0.030217998 0.29441345 0.034919 -0.18913537 0.017084751 -0.058846243 -0.034767 -0.25515446 -0.12477984 0.11608007 0.0400927 -0.029078284 -0.033954922 -0.27732682 0.15233324 -0.10990308 -0.002598478 -0.14963242 -0.13488664 0.114919536 0.07300944 -0.0070745 0.18765764 0.1239518 -0.21668957 -0.20712915 0.2989861 -0.03695295 -0.39497453 -0.0015018485 0.032284833 0.24651888 0.12053506 -0.039701577 0.21204355 -0.058831334 -0.054200172 -0.156682 -0.03210707 0.14793673 0.09669146 0.048484065 0.20146151 0.021681797 -0.18723837 0.034587737 0.02508377 0.073870644 0.17478426 -0.030147573 0.012551213 0.34306523 0.049660224 -0.29415852 -0.07108534 -0.32877305 -0.057728264 0.20646504 -0.059143532 0.1095395 -0.08617984 -0.10659428 0.17128132 -0.15425797 -0.13542551 -0.13287325 0.19903482 -0.25144356 -0.30461058 0.33706376 -0.14145756 -0.34773427 -0.23486257 -0.15337549 -0.13587672 0.20778455 0.028928662 0.14162211 0.081030205 0.27723894 0.07615859 0.08890016 0.13130239 0.346999 0.09162639 0.25423273 0.0507128 0.26432595 0.07749839 0.033078045 -0.030974528 0.063772224 -0.015256246 -0.20611629 0.16023913 0.17770599 0.23484153 -0.37026757 0.13101932 0.12614653 -0.18539031 0.021889012 -0.003929044 -0.26619628 -0.15613003 0.0706983 0.15983874 -0.30173743 0.14065719 -0.33139926 -0.12761351 -0.0062346966 0.032612827 0.18768376 0.13321428 -0.065459125 -0.034586072 0.016450573 0.08223684 -0.15059069 -0.019421086 -0.023388306 0.092499234
