407 128
0 -0.043089807 -0.068245225 0.033995192 0.119851805 0.13942474 -0.025926054 -0.09092685 -0.029746229 -0.082778715 0.15091537 0.07056733 -0.18701676 -0.14254239 3.93073e-05 0.14138907 0.1280763 -0.1254771 0.005735397 0.04692257 0.027883891 -0.067588046 0.19289759 -0.045551892 -0.099272504 -0.02801923 0.07255977 0.022631977 0.15084611 -0.17846708 -0.20563278 0.019430546 -0.22343978 0.06405856 -0.046109237 0.0020129434 0.25350556 -0.043295883 0.057232566 -0.006407919 0.11978611 -0.07400831 0.020842422 -0.09085116 -0.13203968 0.07518185 0.013107164 -0.0656065 -0.19555691 0.046605103 -0.057624847 0.026782528 0.2360425 0.08160824 -0.16481984 0.043000367 0.048203636 -0.0072108363 -0.04161894 0.0863915 0.12957883 -0.00018211336 -0.054737642 0.018351432 -0.0013350504 0.19615422 0.08683132 0.057205264 0.060789954 0.006694409 -0.11093985 -0.05016991 -0.19408466 -0.17088534 0.048687514 0.15240107 -0.12652269 -0.09422628 0.044705678 0.03648409 0.07318024 -0.020309014 -0.31618723 -0.08656257 0.29362866 0.063405015 -0.023692932 0.22166947 -0.055302374 0.17144798 -0.031951237 0.07393161 0.123392954 0.12802279 0.17442328 0.06352284 0.034404073 -0.23087943 -0.0879251 -0.010356551 -0.21858197 -0.0060248612 0.019939207 0.06827349 0.084736116 -0.21695073 0.017867006 0.0739545 0.08091815 0.111170866 -0.03088803 0.19438596 0.0085571315 0.25300303 -0.05391619 -0.16147 0.016572101 -0.08369768 -0.017637197 -0.08203586 0.14468119 -0.18726954 0.065236904 0.14856546 -0.112127915 -0.052964237 -0.097316004 0.1502677 0.18518281
1 -0.024079101 -0.21633333 0.16738944 0.022744741 0.011129072 -0.01378871 -0.13227561 0.008819855 -0.024026932 0.10261214 -0.1607436 -0.10624294 -0.0412438 0.081919275 0.17337157 0.117698774 -0.35039067 0.010361636 -0.14421979 -0.05315546 0.02527165 -0.02222323 -0.07955936 -0.29557022 0.21915339 0.01848855 -0.0968394 0.002113925 -0.10987324 0.0062376135 -0.16231066 -0.32465723 -0.043292847 -0.07856491 -0.025211051 0.03755047 -0.13804965 -0.08683884 -0.0044381055 0.09997624 0.10064017 -0.062883124 0.005743647 -0.10737733 0.041721564 0.12749127 -0.010443711 -0.16447373 0.0961626 -0.06400418 0.02773329 0.08366351 0.0850799 -0.055740602 0.16321477 0.15322573 -0.11814781 0.030853044 0.12819278 0.19280335 -0.029818883 0.07711248 -0.048774596 -0.0486681 0.2535558 0.08699352 -0.01643954 0.0075693033 -0.040438905 -0.2322009 -0.06568539 -0.060253333 -0.119897105 -0.18301974 0.018865675 -0.2135356 -0.080064654 0.05788432 -0.017645253 0.34875768 -0.17864329 -0.195491 0.029865509 0.26817447 0.005076509 -0.14757812 0.10496258 0.028985362 -0.043367404 -0.06138829 0.015367528 0.14039779 0.107722126 0.008959125 0.099136576 0.1537515 -0.2733529 -0.32731605 -0.15202276 -0.08452054 -0.17947626 0.10500681 -0.047540482 0.11114127 -0.06580671 -0.12017129 0.054822274 0.25099838 0.301048 -0.06982652 0.19249882 0.006250276 0.169432 0.09162918 -0.12393067 0.0005832878 -0.13058792 0.24987629 -0.11102214 0.05178041 -0.28952953 -0.06109334 0.081827946 0.016609436 -0.15901986 0.007963082 0.11758995 0.3294548
3 0.13320349 0.005012108 0.14062005 0.08511656 -0.011853845 -0.0015054458 0.008751849 0.00043572762 -0.15649584 0.294579 0.16504276 -0.064633414 -0.18903323 -0.07261833 0.18598484 0.030209068 -0.2234903 0.1337113 0.022434887 0.15438792 0.049809486 0.106518134 -0.20603658 -0.15307319 -0.064521715 0.14538756 -0.07515198 -0.08014318 0.017300991 0.20447092 -0.075372025 -0.06123605 -0.12426294 0.056472 -0.010278328 0.13065489 0.274119 0.18562073 -0.031207992 -0.11298725 -0.13607718 0.12023612 0.13218601 -0.08214843 0.1192759 -0.029152334 -0.084643036 0.10005058 -0.11029143 -0.0027189332 0.09148352 -0.102817364 0.016327607 0.10901455 -0.1578195 0.009434608 0.15042685 0.0077323457 -0.017195612 0.008782364 0.00783475 0.15779543 0.10604131 -0.02301657 0.035344392 -0.051405296 0.10967173 0.008001297 0.1003162 -0.14296524 -0.0838754 -0.07452695 -0.276757 0.026330385 0.0076410105 -0.17531331 0.16289593 -0.022015536 -0.02319049 0.101895794 -0.04286779 -0.04481237 0.14013764 0.16423313 0.077277526 -0.10728245 0.19517715 0.030544417 0.06781543 -0.20669955 0.018877108 0.0029654226 -0.059364196 0.066021025 0.16432746 -0.055947524 -0.16186455 -0.09630557 -0.008745984 -0.053427424 -0.26556873 0.07008075 -0.015286409 0.14243662 -0.055396885 -0.02719196 0.0368895 -0.039288852 0.008910308 -0.0011021368 0.20949289 0.04446693 0.038792673 -0.018682318 -0.094959356 -0.029246591 0.14841366 0.062027834 0.09996887 -0.06675749 -0.30894223 -0.12949295 -0.28451595 0.05926296 -0.13349 -0.09783321 -0.090678975 0.09770891
11 0.063817956 -0.026285714 0.058299936 0.07349397 -0.0104138395 -0.12119595 -0.066392645 0.10211185 -0.19607124 -0.0041413987 -0.0036998533 -0.1419517 -0.020788591 -0.089899294 0.14095123 0.09230853 -0.08822125 -0.08283834 -0.017830212 0.061252933 0.03532745 0.016953195 0.035625387 -0.099749826 -0.021644253 0.13788918 -0.0028113795 0.040198587 0.02549804 -0.17406027 -0.14240202 0.059881534 0.10921765 0.10325026 0.04261919 0.04640295 0.20298436 0.12662329 0.027930941 0.18005869 0.02686085 0.034722853 -0.11220947 0.037688706 0.100934274 0.075159274 -0.11133974 -0.10568175 -0.028256912 -0.010660204 -0.062847644 0.02638379 0.15605412 -0.024438059 0.022167569 0.17963253 0.08426875 -0.015274303 -0.09458038 -0.030905481 -0.021047499 0.035646815 0.08773004 0.13370304 0.059096336 -0.04522463 0.17770983 0.02499925 0.036286104 -0.15454161 0.016306939 -0.076009706 -0.20156516 0.020939589 0.057616185 -0.22302799 0.06423418 0.09533964 -0.028999653 0.105522424 -0.110952586 -0.114324324 -0.07348351 0.17329383 0.024396606 0.23234765 0.12303293 -0.15235391 0.054447327 -0.0013867898 -0.03810108 0.037278775 0.11200649 0.06004452 0.12426062 -0.045852665 -0.048384037 -0.117958225 -0.12365356 -0.12426439 -0.11163557 0.23679806 0.0016172166 0.15015097 0.0190768 0.10742972 -0.00088034396 0.04171034 0.11051888 -0.12512347 0.04764337 0.05310219 0.10275354 -0.05477075 -0.030418564 0.034269854 0.10485156 0.14074764 0.05987677 -0.048493486 -0.058963723 -0.11115689 0.019933978 -0.11185599 -0.16893257 -0.042617273 -0.027962323 0.03813378
14 0.039008267 0.009048521 0.15543912 0.052501127 -0.049736395 -0.07210895 -0.11317446 -0.07475222 -0.0524428 -0.0215039 -0.027594546 -0.0736537 -0.019376285 -0.09131745 0.09061525 0.002469861 -0.250626 -0.03115396 -0.05897773 0.01999865 -0.10410485 0.0523917 -0.10136081 -0.15295702 -0.05166798 0.09808555 0.053168062 0.16971017 0.028823214 -0.08630238 -0.16686958 0.11058134 0.020995686 0.072131306 0.012239896 0.039618514 0.22857355 0.06618666 0.102180205 0.01840218 0.07102785 0.069924966 -0.11797989 -0.027578127 0.011292863 -0.0022088613 -0.035946023 0.007548025 -0.10109575 -0.12556359 -0.030721227 0.09450525 0.11936354 0.049038734 -0.016504101 0.08035851 0.25202805 0.02477651 -0.06451023 0.10607626 -0.07288039 0.00053204934 0.08062479 0.110498235 0.031777363 0.18993902 0.16795455 0.03723641 0.08646916 -0.077465124 0.012506637 -0.018468877 -0.058861483 -0.09581173 0.05257198 -0.14307024 -0.06897626 -0.018345725 0.02455071 0.13086595 -0.18485704 -0.13894536 0.09386342 0.23742814 0.1426394 0.17606303 0.073490284 -0.08875817 0.06446412 0.06818824 -0.019431293 -0.117733836 0.20866713 0.02579366 0.06056206 -0.10685862 -0.11042926 -0.119935535 0.11420926 -0.14187066 -0.0096840495 0.04016861 -0.15837735 0.0042714435 -0.12907706 0.0328659 -0.10104433 0.001334729 0.062869385 0.0058499863 0.20620263 -0.05229621 0.06143854 -0.030622434 -0.13298704 0.121661946 -0.10878294 0.18255012 0.10480538 0.06211777 -0.10587845 -0.19896336 -0.15435322 0.091322884 -0.17347778 0.044662636 -0.09598416 0.054372683
17 -0.035223823 -0.17554052 0.23599115 0.1500009 -0.02791231 0.014217137 -0.025047073 -0.037170637 -0.0857287 0.014140609 -0.050908912 -0.1259538 -0.18819037 -0.038730916 0.17135851 0.035630535 -0.2311823 -0.14533505 0.0148020275 0.06955062 0.08635662 0.07337188 -0.15594588 -0.09277674 -0.083151616 0.039074592 0.058840297 0.14880674 -0.081958905 -0.19193025 0.12774965 -0.12964916 0.070333965 -0.058465153 0.060285725 0.043986205 0.020677986 0.02509117 0.019699505 0.082147904 -0.107398145 -0.03465423 -0.19315714 -0.1328902 0.13069057 -0.032389365 -0.043126594 0.049171776 -0.06469618 -0.031611286 -0.013447418 0.22473209 0.12853779 -0.0396131 0.09380457 0.23113796 0.15155464 -0.042517845 0.061634697 0.15945692 -0.011424023 -0.05753358 -0.009554349 0.0045540035 0.1140914 0.03351926 0.2384177 -0.03895872 -0.05366133 -0.02774671 0.069642685 -0.11133432 -0.10906175 -0.12625252 0.0394487 -0.09518012 -0.12224853 0.051013153 0.097003125 0.19069295 -0.078823976 -0.1359864 -0.051038112 0.225737 0.06248895 -0.09869792 0.2861661 -0.24665834 -0.06702844 0.0677709 -0.09688271 -0.0018489741 -0.011922609 0.03255924 0.112633854 0.1498576 -0.1697155 -0.03652782 -0.059930556 -0.0985394 -0.12195297 0.035972215 -0.004323165 -0.030565925 0.022736039 0.006950176 0.107219584 0.080530666 0.13558885 -0.0803272 0.21744053 -0.056792162 0.059921194 0.045060053 -0.2061587 0.08462644 -0.05832971 -0.029664077 -0.13443129 0.084280714 -0.1340646 -0.117439225 -0.018985242 -0.14625007 -0.12497172 0.016654119 -0.07692664 -0.02405395
21 0.23065877 -0.036130577 -0.016823582 0.18071811 -0.033879004 0.07173355 -0.03113172 0.0042975754 -0.18860501 -0.028766418 -0.08996765 -0.19648045 -0.05585946 -0.106736116 0.040749684 0.047997475 -0.17185643 -0.111175485 -0.021678722 0.16707599 0.13629572 0.08409211 -0.015493249 -0.21661119 -0.07776521 0.07587791 -0.10945715 0.124722324 0.004841042 -0.07411265 -0.1020808 -0.004466772 0.056391135 0.044703312 -0.07607334 0.09560639 0.17730178 -0.032676667 0.15297498 0.06854721 -0.03594547 -0.0059878277 -0.05347875 -0.025114913 0.094768055 0.0076982565 0.06751879 0.10386741 -0.00901617 -0.09616375 0.10923655 0.035003316 0.12573236 -0.01641334 0.027492626 -0.01743046 0.13582695 -0.0479091 -0.16167833 0.09239418 -0.05194639 -0.004189954 0.066521995 0.19005218 0.17965499 0.012131604 0.19032007 0.16046982 -0.12559223 -0.082548216 -0.04571249 -0.2836473 -0.1264984 0.067548886 0.09042883 -0.030064382 0.00811654 0.0047269166 -0.10143594 0.1371548 -0.07832633 -0.1822939 0.030962575 0.2300077 0.0016714565 0.14737587 0.04210122 -0.12525488 0.02624571 0.050899215 0.029047897 -0.023807932 0.07766104 0.048757147 0.10256805 0.03202978 -0.19905134 -0.02939392 -0.08310426 -0.10587199 0.03783057 -0.09147271 0.0201594 0.07776257 0.035812035 -0.007473793 -0.018273916 0.12273858 0.07743003 -0.010046116 0.043309707 -0.058977798 0.018342353 -0.050598584 -0.24455151 -0.0099792285 0.08214575 0.038473032 0.03592119 -0.00018246986 -0.030489067 -0.08246513 -0.034311075 -0.0395911 0.004047679 0.04964188 -0.043185264 0.08777938
25 0.14799818 -0.10195308 0.06601128 0.18541521 0.050268304 -0.10776154 -0.073805444 0.029728793 0.021001834 0.075324014 -0.021888478 -0.053184494 -0.09303179 0.009043165 0.184309 0.08916994 -0.1406973 0.03793734 -0.09930854 0.023934592 0.1020373 0.01866662 -0.075086966 -0.1960244 -0.21712266 0.047422197 -0.079402946 0.0016044148 0.022674967 -0.10505591 -0.13567574 0.09086817 0.014705494 0.060223762 0.06036103 0.0036378829 0.08828092 0.03416306 0.09466319 0.07029628 -0.07814944 0.04931346 0.003250595 -0.050191827 0.040113833 0.059440438 -0.05079789 -0.048054148 -0.0027164167 -0.019373346 0.06886135 0.054543436 0.15336475 0.17611472 -0.089203 -0.04629467 0.07154724 -0.027975054 0.0117651215 0.10193802 0.0892496 -0.0034673861 0.07026207 -0.025233828 0.11967372 -0.06815324 0.015781125 0.039225142 -0.039075825 0.04889274 0.021380719 0.026552016 -0.07438748 -0.18945625 0.09658937 -0.08524592 -0.09334846 0.021651188 -0.15602753 0.087990716 -0.08977156 -0.11117952 0.0067604464 0.17473234 0.043332845 0.043738756 0.089806445 -0.08366077 0.055542406 -0.0028723432 -0.10184289 -0.047845855 -0.05188362 -0.086914465 0.10923317 0.022731526 -0.10983058 -0.060716864 -0.06735076 -0.1452026 -0.088699155 0.015014555 -0.043015193 0.066064894 -0.057845864 -0.01108443 0.10871865 0.04790657 0.10166052 -0.17023268 0.08650019 0.024713272 0.019385872 -0.026133938 -0.11990685 0.0131281335 -0.0022767778 0.022461183 0.015266704 0.10427919 -0.12117389 0.0041374904 0.0055082245 0.075218916 -0.075815246 -0.11523898 -0.03780113 -0.02048403
30 0.013196739 -0.12391277 0.11013322 0.17692305 0.010008948 -0.0021599224 -0.11056834 -0.04508474 -0.18488704 0.035392012 -0.0043274676 -0.07398119 -0.32411712 -0.01610104 0.35689083 0.07525858 -0.076975316 -0.092986286 -0.05569558 -0.0014815371 -0.12780151 0.09738499 -0.07920191 -0.22874834 -0.07679357 0.076591924 0.108641446 0.078424685 -0.012920433 -0.18673229 0.018555393 -0.08123228 0.046200063 -0.01174701 0.013913217 0.21548186 0.09649907 -0.047455348 0.070232995 0.13132589 -0.055211667 0.0018633163 -0.068267465 -0.15329053 -0.00662279 -0.0018428782 -0.04952454 -0.030305551 0.06377228 0.037417732 -0.05928234 0.08841415 0.09645228 -0.0069888164 -0.028529448 0.15943551 -0.07742008 0.011349191 0.0722132 0.119712874 -0.047134556 -0.057865888 0.02978616 0.04950011 0.16623053 0.0871978 -0.022997923 -0.027189396 0.0039297715 -0.11121202 0.17380857 0.026232067 -0.08397313 -0.04789819 0.0065209353 -0.20763867 -0.13111037 -0.009750093 0.09619892 0.29040346 -0.054232802 -0.21981534 -0.003948099 0.24892612 0.012560397 -0.023145592 0.15823379 -0.16053744 -0.025326611 -0.031538267 -0.012952798 0.063439064 0.023241015 0.13003807 0.029657613 0.1659394 -0.26348773 -0.08206623 0.042316128 -0.19156225 -0.16097043 0.026128706 -0.039199278 0.07770568 -0.14101373 -0.03267103 0.102549665 0.087130725 0.078843586 -0.06763472 0.026556568 0.0034975791 0.13282728 0.020170078 -0.10431799 0.0863404 -0.17557782 -0.02807945 -0.042100087 0.0018181765 -0.120082706 -0.15813693 0.14649391 0.0062877387 -0.0652755 -0.0073222085 0.084277 0.004916011
51 0.094550505 -0.2679358 0.02894725 0.13044512 0.11429022 -0.0142224515 -0.014686759 0.03884767 -0.053658374 0.08256739 -0.060111873 0.017632442 -0.03608667 0.05330018 0.13311568 0.12427865 -0.15917513 -0.051621918 -0.3050819 0.15702738 0.07970645 0.06000346 -0.08098805 -0.15703037 -0.115528405 0.17131138 -0.23260053 -0.058885466 0.09684031 -0.19961941 -0.15727164 0.09095032 0.054529484 0.1334017 -0.04470462 0.123863935 0.057943974 -0.048928097 0.11736191 0.047826737 -0.10194018 -0.013475348 0.06213261 0.03228375 -0.029105771 -0.02190367 -0.074084304 -0.0042230794 -0.022707324 -0.08277465 0.089045145 -0.04161693 0.11225192 0.118090145 0.06957567 0.022569824 0.10179594 -0.04624684 -0.18799663 0.09434816 -0.028546983 0.01434702 0.14809816 0.09653616 0.105037466 0.07721453 0.05600728 0.10862974 0.036978617 0.031142805 0.03360659 -0.07671954 -0.112752825 -0.008758968 0.06308574 -0.14020765 -0.053134006 0.11853367 -0.11752377 0.0045293104 0.018747434 -0.1631176 -0.07765435 0.1756168 0.022376439 0.060828142 0.04991052 -0.06631864 0.084406674 0.06504385 0.023633895 -0.0069007776 -0.09135671 -0.005599588 -0.000317152 0.016822575 -0.10342567 -0.032704484 -0.111169316 -0.06496911 0.0022713225 -0.11218772 -0.047987655 0.13090129 -0.104237214 -0.00095396413 0.025357515 0.16395983 0.098404296 -0.19885513 0.08058891 -0.0950217 0.019526377 0.098542 -0.06823455 0.17983505 -0.04218342 0.10919236 0.121981055 0.10247456 0.030034082 0.036609944 0.025804058 0.03514372 -0.019586876 -0.11598545 -0.026804393 -0.061871674
57 0.064919606 -0.26015306 0.121921085 0.06754319 -0.13641682 -0.03842777 0.020724919 -0.09818317 -0.08261388 0.05501045 0.07192592 -0.1500728 -0.14393589 -0.04855554 0.01021347 0.16631655 -0.056373946 -0.034343775 -0.041655667 0.010232778 0.13362138 0.049794156 0.0063464916 -0.22038756 -0.1186773 0.046514 -0.13741478 0.11916638 0.056668956 0.00068777276 -0.049437836 0.18928643 0.061090846 0.10335645 0.02555705 0.091960244 0.27455652 0.098489605 -0.0779566 0.068337485 -0.16407327 0.06004508 0.063972905 -0.02621776 0.016029438 -0.036141593 -0.026100775 -0.053129658 -0.012896375 -0.030447109 -0.050320778 0.0041200984 0.0634892 0.063617535 -0.06481124 0.026345521 0.13363552 0.11603335 -0.051590096 0.039842993 -0.06831114 -0.008169986 0.107160434 -0.03463199 0.19000253 -0.046066437 0.079567455 -0.16348162 -0.026855001 0.097826615 0.012969386 -0.0024669007 -0.23038952 0.07536443 0.016649147 -0.2007628 0.041546833 0.039077185 -0.14855632 0.12466607 -0.09538476 -0.1535344 0.0072962265 0.18849894 0.04869688 0.13753538 0.09807553 -0.09518216 0.055964313 -0.03240972 -0.06997515 0.050847016 0.10124943 0.032587565 -0.032237776 -0.068932995 -0.07986692 -0.07740343 -0.08636319 -0.16569519 -0.040377524 0.08661131 0.060672995 0.20412318 0.08849066 -0.018289499 0.014480608 -0.0047677453 0.06361726 -0.08339366 0.0876655 -0.012546878 -0.008096625 0.05862747 -0.0494469 0.030053008 0.02284279 0.088905565 0.036392815 0.007830141 -0.086460374 -0.10802077 -0.032639924 -0.0092605045 -0.08254275 -0.01877093 0.10583568 0.03436824
59 0.06717832 -0.12876207 -0.14155169 0.08061967 -0.07627576 -0.08501085 -0.069224775 0.017376907 -0.07582263 0.044538632 0.1024999 -0.110664636 -0.11681354 -0.018611092 0.122888684 0.1642094 -0.19324751 0.013217972 0.021300003 -0.04290226 0.14021222 0.019695 0.017269064 -0.080375135 -0.056577053 0.24757929 -0.17371699 0.07537493 0.117861524 -0.050852463 -0.03016189 0.14877027 0.07794822 0.021967197 0.008899674 0.12996885 0.08988176 -0.017042613 0.0606946 -0.030441033 -0.05311459 0.04946152 -0.0017961741 -0.10762949 -0.019230835 -0.041523643 0.029104361 -0.062677085 -0.04562232 -0.14171483 0.0069805137 0.056166146 0.11523927 0.038623124 -0.114369504 0.08993894 0.2979397 -0.01419851 -0.05161576 -0.069295906 -0.05677244 -0.026084894 0.086148806 0.04505737 0.15453543 0.04357599 0.11295893 -0.07371373 -0.04113755 -0.13247505 0.03061983 -0.14299245 -0.11078361 0.049084652 -0.013621053 -0.2272203 -0.014391137 0.017538708 -0.08362926 0.013825082 -0.12662773 -0.12305767 0.001963547 0.16854575 -0.014862119 0.08908703 0.03796885 -0.099055246 0.053457238 -0.08619304 -0.023418762 -0.03233146 0.07166747 -0.10753991 0.13670808 0.015782367 -0.15259282 -0.121293604 -0.016610395 -0.089011714 -0.20100105 0.13719544 0.029688915 0.10905874 0.055177957 0.05214092 0.033845447 0.004259231 0.11616655 0.007977765 0.06814376 0.031968575 0.04466758 0.13310394 -0.17844303 -0.013891678 0.014889869 0.084046744 -0.025835555 -0.09495629 -0.06925825 -0.05748248 -0.07340932 -0.005180605 -0.02705798 -0.0024603065 0.00018550987 0.100663714
60 0.05804147 -0.11692549 0.13958992 0.07281436 -0.010818852 -0.009517143 0.055278137 0.15424035 -0.15909255 0.011383221 0.02196552 -0.13695432 0.0289192 -0.0848444 0.26111725 0.20560303 -0.1850583 0.07398234 0.026207734 -0.01002034 0.0095428005 0.11091949 -0.050009776 -0.16044366 -0.04431347 0.18613595 -0.048952118 -0.039767932 0.029328233 -0.10924917 -0.034495685 0.04593809 0.05636652 0.11782222 0.028638033 0.10085913 0.09566125 0.026984585 -0.018767957 0.083404936 -0.0301354 -0.064337924 -0.09899456 -0.041077953 0.12021863 -0.12538347 -0.1426009 -0.10771577 -0.08067309 -0.049369518 -0.027234513 0.0091780415 0.22126369 0.071332395 -0.05637184 0.117229335 0.16654299 -0.06178113 -0.21532312 0.18591766 -0.15317559 0.04133868 0.14089502 -0.0033836132 0.03776421 0.0007111127 0.071411096 -0.032469705 -0.12752119 -0.019211212 0.04269692 -0.09830741 -0.13675764 0.13720264 -0.044768464 -0.26736736 -0.116563536 0.11014114 -0.036070917 0.095742114 -0.1111434 -0.05924085 0.0024471702 0.297028 -0.027549032 -0.009044755 0.06684298 -0.088575676 -0.12832801 -0.052994262 0.053838138 -0.01942913 0.17252456 0.08170777 0.044910707 -0.097525045 0.02927485 -0.07865632 0.11726989 -0.17994079 -0.12360394 0.0519282 -0.06984753 0.10963944 -0.016663888 -0.19813524 -0.08498771 -0.023620587 0.013565059 0.022628315 0.0318039 -0.01486307 0.07095229 0.31592134 -0.085588604 -0.033783045 0.012394656 0.13018598 -0.058763664 -0.08407284 -0.16153921 -0.102872916 -0.091889344 0.12468481 -0.03681577 0.016658237 -0.028962199 -0.15957505
66 -0.100203596 -0.06416675 0.05203961 0.14048137 0.060250226 0.06745799 -0.02475152 -0.024910456 0.047076117 0.24931042 0.09450662 -0.008364574 -0.097811945 0.000834139 0.14089827 0.16300686 -0.035982482 -0.10148154 -0.03890423 0.03891033 0.02100415 0.12908576 -0.057182476 -0.1534475 -0.30595848 0.03442433 -0.043803077 0.023352679 0.0008925101 -0.08841311 0.048756473 -0.08848492 -0.05001735 0.021627482 0.0150680905 0.08418264 0.10118243 -0.021944972 -0.15764269 0.03953393 0.10592456 -0.09569526 0.14751568 -0.0065208655 0.13513152 0.08897737 -0.14703083 -0.16882989 -0.041504093 -0.1289033 0.043127418 0.10097616 0.17938238 -0.19212201 0.053438146 0.060068417 0.06342951 -0.0013357444 -0.01513391 0.058825612 0.12761822 -0.0019690408 0.0013527484 0.15355583 0.18920764 -0.07655941 0.05825802 -0.088463046 -0.053290647 -0.18781808 -0.01851697 -0.2725016 -0.33532992 0.012043284 0.059430555 -0.12949127 -0.05232869 0.11832701 -0.12700596 0.05651507 -0.1565905 -0.29049492 -0.10870975 0.29629356 0.24779108 -0.14775601 0.006655041 -0.098004065 0.14044793 -0.012485063 -0.06368121 0.032106638 -0.0517513 -0.19123031 0.25174063 -0.0025548278 -0.058130346 -0.110150665 -0.21131454 0.1133817 -0.16306475 -0.020857783 0.0011733169 -0.054883007 -0.01808035 -0.017771633 0.1354836 0.1739294 0.07432855 0.1997707 0.05349103 -0.028884161 0.028549014 -0.03928368 -0.27885827 0.1124904 -0.027740201 0.0681685 -0.015301514 -0.08909045 0.01660445 0.018737208 -0.04814773 0.0867015 -0.3536597 0.019634243 0.019123694 -0.052630767
72 0.22688562 -0.13829592 0.20280553 0.06310216 0.055465907 -0.03293413 -0.03615064 0.024655133 -0.0127850715 0.0034537502 0.16328973 -0.09903685 -0.04930722 -0.054506894 0.14732851 0.13303548 -0.07353617 0.07740254 -0.11579924 0.043350857 0.034224212 0.016740916 0.003878382 -0.05985013 -0.08547203 -0.013053564 0.04659052 0.0666069 -0.13966826 0.028737005 0.06372954 -0.062971674 0.03489278 0.08784 -0.055220447 0.24710764 0.08332285 -0.007661815 -0.11779844 -0.025917202 0.023910463 -0.041524064 0.077967905 -0.085234635 -0.18721904 -0.034517672 0.016935633 -0.14043003 -0.020427467 -0.12254962 0.13373253 0.17415866 0.20290534 0.065825745 0.045826595 0.08618482 0.24075468 0.1221653 0.015325397 0.07279992 -0.05704484 0.06135683 0.3638072 0.051441807 -0.055770054 -0.0495749 -0.034422472 -0.11688334 0.005376594 0.15393767 0.12466927 0.023394402 -0.18601505 0.11200823 0.02725252 -0.17138796 -0.001309758 0.11338534 0.01908406 0.23958279 -0.1256029 -0.22352895 -0.024468472 0.21854985 0.01677302 -0.084426045 0.09217225 -0.049769115 0.21805088 -0.02930119 -0.059807014 -0.03589962 0.085181795 0.10425138 -0.034650147 0.13896757 -0.21700868 -0.11178657 -0.053291902 -0.31778514 -0.111667626 0.12051036 0.15472542 0.0808116 0.07079503 -0.12604585 0.18828905 0.17529595 -0.0021870458 0.03841918 0.070261516 0.008002066 0.105563894 -0.080390565 -0.060463764 -0.03388664 0.034700595 0.060946252 -0.157424 -0.07380389 -0.29698324 -0.29951036 0.078435205 -0.05086427 -0.17341547 -0.041024785 -0.06721583 0.1258702
80 0.09123 -0.1611338 0.01662488 0.10928704 0.22354364 -0.34374753 -0.0367225 0.11083187 0.10954944 0.22394936 0.03311846 0.16908343 -0.07455039 -0.06588376 0.2612677 -0.039752815 -0.20281924 0.081992544 -0.25078443 0.03676531 0.16116573 -0.1425195 0.19043767 -0.24149594 0.03809816 0.11879835 -0.09146168 -0.057421487 0.030283727 -0.3522301 0.04587154 -0.042223945 -0.0015363947 -0.03782669 -0.058577564 -0.044743292 -0.029760648 0.07836916 0.17424601 0.13250038 0.009232702 0.10876848 -0.11337189 -0.056641772 0.004402717 0.007911987 -0.07286568 -0.029134702 -0.17543326 -0.27821362 -0.09595568 -0.31703854 0.108593546 0.082671694 -0.13416918 -0.022460321 0.010633584 -0.15795061 -0.12163444 0.29562148 0.017751502 -0.022792537 0.28719994 -0.13002881 0.10581846 -0.18706904 0.10657953 -0.057979662 0.11525657 -0.19986863 -0.06508428 -0.19776332 -0.14747699 -0.276791 -0.019979289 -0.10515296 -0.06476958 0.17786603 -0.18815342 -0.24213976 -0.09426208 -0.2660593 -0.048206452 0.016716043 0.20935825 0.10458044 0.39842376 0.040751874 0.20794801 -0.16207461 -0.0132532315 0.008408058 -0.023813935 0.028063469 0.07079968 -0.037497196 -0.064448655 -0.084337756 0.013805811 -0.028639147 -0.041546233 -0.24400185 -0.12298783 0.18717374 -0.08407869 0.035592154 0.09482372 -0.11865935 0.21508045 -0.16475154 0.2328468 0.308724 0.10132302 -0.064726554 -0.044882126 0.14636824 -0.23829325 0.11922393 -0.044904023 0.22075406 -0.05855184 0.039513685 0.09366435 0.03718612 -0.10750323 -0.3759421 0.24375652 0.04717726
83 0.06235463 -0.039068334 -0.0824331 -0.051884785 -0.020670846 0.13213755 -0.005348567 -0.059901115 -0.04725775 0.028452884 0.1420373 -0.03607806 -0.028870868 0.12900707 0.10404233 -0.03506214 -0.1651026 -0.0037336145 -0.065690316 -0.021666626 0.11482296 0.02422859 -0.14215459 -0.16466485 -0.0101891495 0.12041386 -0.06687728 0.16562848 0.060066607 -0.05256354 0.012951824 0.02122393 0.19598679 0.06363178 -0.011640458 0.07744564 0.2634257 0.04189882 -0.07845953 0.028203381 -0.09183983 0.024529973 -0.090887174 0.014684553 -0.037066236 0.093932085 0.10835841 -0.0751672 0.012508406 -0.011491733 0.10826949 0.14836326 0.16267143 -0.027851783 -0.10493995 0.018253185 0.08451547 -0.040386736 -0.11476553 0.12598069 -0.058418047 0.0901919 0.27511132 0.09655919 0.061033957 0.030867215 0.105407104 -0.0063837743 -0.10516619 -0.10471559 0.025971733 -0.026734296 -0.20912804 -0.012370474 0.041053224 0.029145373 -0.17613934 0.070270374 -0.051748425 0.01641417 -0.0037827888 -0.241643 -0.015325271 0.08673698 0.0906919 0.16947255 -0.021030685 -0.0639114 0.0039834254 0.0065202476 0.026164662 0.10766245 0.09451343 -0.01114397 -0.029550163 0.020407734 -0.15641147 0.0031603149 0.015011898 -0.30271265 -0.13198178 -0.00030271555 -0.13389078 -0.06468919 -0.037391007 -0.049814932 0.17847665 0.12514825 0.036124963 -0.22130483 0.17134117 0.022345858 -0.026684051 0.0045061763 -0.24012709 -0.15171471 0.019986913 0.020807615 -0.01984475 -0.02089141 -0.06676787 -0.1418013 0.009088378 -0.047142893 -0.17233028 -0.18640459 -0.06041613 0.13093154
91 0.057459563 0.04734089 0.076415025 0.14147446 0.06742114 0.013685804 -0.19808237 -0.00057489035 -0.18659312 0.23096691 -0.01302384 -0.07951565 -0.007670789 -0.0142900385 0.27084544 0.034132853 -0.09659853 -0.06187371 -0.06252846 0.048291333 0.11512638 0.13320008 0.13786004 -0.21435809 -0.1958841 -0.024432745 -0.08319299 0.097840115 0.07272974 -0.059535816 -0.14064449 0.116114564 0.065793745 -0.026545696 -0.05905931 0.16255791 0.34908524 0.104918994 -0.015783044 0.18324338 -0.12819652 0.05535533 0.08924641 0.09758381 -0.05742471 0.08116634 -0.021397354 -0.05036314 0.019585248 -0.19613698 -0.0060937395 0.0781803 0.23331758 -0.022076102 -0.01945384 0.10461271 0.0017786945 0.0777307 -0.056420512 0.059075225 0.06840404 -0.013642623 0.14451928 0.01558576 -0.0015448264 -0.031956468 0.022436604 0.008642285 -0.120982796 0.036330607 -0.068419546 -0.02029689 -0.17638437 0.046434328 0.0322203 0.035777006 -0.013051358 0.026110185 0.036606207 0.1183432 -0.02269293 -0.080553524 -0.00061322335 0.30307722 0.06131704 -0.022191485 -0.050972015 0.0052942615 -0.006188128 -0.13722032 0.0069528567 -0.07425052 0.11834851 0.12526764 0.124937475 0.046358634 -0.14614567 -0.116015345 0.044273008 -0.10577697 -0.14716546 0.03689581 -0.18754782 0.20410068 0.06671545 0.068635575 0.19213544 0.13446483 0.05586054 -0.07191264 0.06745167 0.08142727 0.03627568 -0.09876974 -0.11700764 0.0236342 0.12836882 0.031170735 -0.050421216 -0.009940054 -0.09753942 0.1397732 0.077797584 -0.10187381 -0.005534155 -0.069893174 -0.107799396 0.055241916
93 -0.0629301 -0.105579235 0.22413918 -0.046975717 -0.13244134 -0.04320669 -0.18142281 0.03903998 -0.09695026 0.014724084 -0.110726774 0.020427605 0.012305073 -0.08398711 0.22102025 0.095654905 -0.25809193 0.0008621601 -0.033461574 -0.05379222 0.050338082 0.10036502 -0.12712027 -0.12532672 -0.19514145 0.082295835 -0.15429267 0.17689167 0.08766505 -0.17207031 -0.062309507 0.02677738 -0.030599505 0.12155582 -0.025335344 0.109335825 0.16171028 0.06142844 -0.023244085 0.013644745 -0.06887156 -0.02712442 -0.18940866 0.0068751792 -0.081731714 -0.008970393 -0.059194427 0.065377645 -0.12798443 -0.03917405 -0.13668045 -0.0077853086 0.18431188 0.018849446 -0.04640878 0.20657803 0.16763286 0.0846785 -0.06628406 0.12986597 -0.030228404 0.09837331 0.2259503 0.08322461 0.0709161 0.112666406 0.19557269 -0.007817236 0.08822868 -0.059274156 -0.012798705 -0.046543285 -0.11824839 0.08336048 -0.015690941 -0.13607244 -0.048174553 -0.07356913 0.10779703 0.18217744 -0.1783941 -0.18282476 -0.043289486 0.34701517 -0.052170653 0.06244085 0.016957063 -0.060407337 0.0728657 -0.112265885 -0.083924 -0.08823772 0.15636124 0.072013006 0.19381279 0.07980275 -0.20503482 -0.079778135 0.10246492 0.04535589 0.08110654 -0.04909511 -0.063298516 -0.026168564 0.013668981 -0.10275161 0.07463046 0.14975788 0.038032904 0.06519606 0.11935658 -0.021627873 0.09198624 0.047012866 -0.15074815 0.025094615 -0.12262667 -0.05184782 -0.02486856 -0.10622443 -0.092802465 -0.1208914 -0.0060480423 0.1194907 -0.048462976 0.040262986 -0.08317499 0.0031278925
99 -0.02341685 -0.08258128 0.06664046 0.01858183 -0.045332942 -0.043150287 -0.09296331 0.06091953 0.12086757 0.0741903 0.16579805 -0.049041927 -0.0011641972 -0.08667255 0.13740653 0.08152089 -0.017138425 0.12368367 -0.13881423 0.07947935 -0.0047898195 0.16363014 -0.07828433 -0.028992882 -0.017609311 0.174276 -0.04986585 0.1289979 -0.035657745 -0.15256736 0.047827967 0.17261 0.014365586 0.07167535 0.10087602 0.11360261 0.22688589 -0.023417693 -0.028841298 0.078738086 -0.086335264 0.10702318 -0.12189049 0.09050057 0.16551343 0.06819732 -0.072969034 -0.22329096 0.017654961 -0.04962422 0.021587184 -0.01791347 0.09304094 -0.023803752 -0.0029865573 0.002263047 0.13929777 -0.08938086 -0.14671469 0.09068908 -0.04473745 -0.0578823 0.14105849 0.016229257 -0.018631717 -0.07304502 0.14301515 -0.061180238 -0.06055501 -0.09949112 0.048205145 -0.23403092 -0.15085198 -0.023828087 0.271168 -0.11388421 -0.06903754 0.047756363 -0.03413046 0.20154923 -0.016209818 -0.18579729 0.07751703 0.2409406 0.14616893 0.108571246 -0.008233808 -0.14738037 -0.0074094874 -0.07377096 -0.10018383 0.0055649523 0.2622202 -0.071146384 0.047395293 0.1786169 0.03430418 -0.054789603 -0.022541039 -0.2923566 -0.20310967 0.018685453 -0.060536195 0.087909386 -0.18558238 -0.13635851 0.16965602 -0.11652248 0.040531334 0.024944365 0.0063377367 -0.011094296 0.028515305 -0.0026226332 -0.1756662 -0.08584368 0.12690471 0.07995231 -0.023605151 -0.009771975 -0.05498108 -0.11868977 0.04726139 -0.13593405 -0.061509196 -0.054357514 0.013246476 -0.094286375
105 -0.06900544 0.000434717 0.18601508 0.1471602 -0.053288385 0.041607622 -0.09447798 0.023618488 -0.078444056 0.16892375 -0.14199464 -0.14231762 -0.050089136 -0.061465558 0.23876297 0.122081175 -0.18992916 -0.042238798 -0.03334206 0.089040995 -0.040225957 0.12490806 -0.19487847 -0.13071132 -0.14181055 0.10578592 -0.015977437 0.08652786 0.031681392 -0.09432379 -0.051087387 0.046052117 0.0039561666 0.14351803 0.1606742 0.15761465 0.12896097 0.03469814 0.12303902 0.11890377 -0.0461266 0.0069146384 0.041060563 -0.13638297 -0.014257878 0.06829845 -0.08351178 -0.09746501 0.10898354 -0.08920514 0.10093314 0.10418148 0.097859904 -0.090360194 -0.09400383 0.044388574 -0.057237055 0.13089049 -0.060382936 0.016861917 -0.16695891 -0.12937051 -0.07187349 0.009794625 0.17175771 -0.003395272 0.12966228 -0.11563598 -0.007956992 -0.36383995 -0.035722878 -0.0074087437 -0.14777169 0.11015808 -0.011270017 -0.2472569 -0.04756487 -0.028090177 -0.10352934 0.1775998 -0.14080948 -0.0331937 -0.06019951 0.24774238 -0.041119523 0.15554786 0.22268945 -0.13544951 0.07350698 -0.06462743 0.15156981 -0.06938816 0.06732346 0.014133958 0.080459416 0.0008069197 -0.015015485 -0.17344457 0.03975061 -0.09758171 -0.13163355 0.016810073 0.076472096 0.11275642 -0.07662687 0.013865588 -0.08033786 0.10003157 0.075329795 -0.045756646 0.07273595 0.061463915 0.16997513 -0.07267094 -0.1810435 0.03577057 -0.10516584 0.14990708 -0.0039047312 0.023716602 -0.04659166 -0.006528252 0.03389606 -0.1587203 -0.12280782 -0.0441554 0.030965995 0.007455837
106 0.009196354 -0.13844667 -0.019646503 0.1358765 -0.048053082 -0.05677367 -0.076903164 -0.04605565 -0.09408301 0.0533445 -0.056645285 -0.1282618 0.09685545 0.03458995 0.1799459 0.048539985 -0.09802316 -0.07286714 -0.1061647 0.004916558 0.05473244 0.11369948 -0.047046646 -0.004219649 -0.15143603 0.1929183 -0.03841735 0.058176704 0.04048207 -0.09162527 -0.17430702 0.10876431 0.13133755 -0.02259801 0.06980622 0.1882704 0.19577964 0.07563645 0.09628886 0.09243923 -0.08545563 0.0073055397 -0.053482104 -0.035831522 0.007990986 0.08594481 -0.038568806 -0.1284703 -0.10007622 -0.073221974 0.08915126 0.08681404 0.19108517 -0.06771623 -0.04059283 0.028944045 0.11413695 -0.072084256 -0.03204224 0.028114462 -0.12831339 -0.041685212 0.11871064 0.025130428 0.0822826 -0.014936708 0.087615706 -0.04013378 0.014694375 -0.051371757 -0.05714522 0.047489684 -0.1870443 0.0702372 0.047612313 -0.13257267 -0.08851021 -0.03325177 -0.073756434 0.17895024 -0.13356224 -0.09259618 -0.029048067 0.084474795 -0.012147995 -0.046324566 0.020275569 0.014002477 0.11043743 -0.0054188115 -0.0074322065 -0.0031348118 0.057436563 0.087047026 0.18474951 0.11427501 -0.14134526 -0.032561176 0.074556865 -0.077250324 -0.10006108 0.016099114 -0.07249825 -0.019685673 0.0022482031 0.016554834 0.15958764 0.21350046 0.13345054 0.028007647 0.07853188 0.030091923 0.17712446 -0.033576258 -0.060689487 0.1362546 -0.05521545 0.12906691 -0.039568666 0.06345335 -0.20109373 -0.037860684 -0.010162674 -0.028026855 -0.08480788 -0.14642133 -0.1856177 0.035211436
108 0.09031565 -0.08241881 0.059966292 0.16840112 -0.05478682 0.07433383 -0.013071912 0.08357054 -0.08777614 0.07092865 0.07175139 -0.045046236 -0.08613856 -0.20693716 0.016568791 0.012572817 -0.13374244 -0.023791557 -0.14108117 0.06996954 0.07363069 0.23910746 -0.048630785 -0.09722865 -0.17350286 0.10304278 -0.08674404 0.14546436 -0.020460805 0.010123461 -0.11245604 0.066114806 0.05518797 -0.014681357 0.07456677 0.0070971646 0.1492263 -0.030111443 0.033384066 0.06950023 -0.060478404 0.075462885 -0.058858875 0.1314188 -0.06596918 0.023529133 0.018042646 -0.011622743 0.0076121874 0.039092094 0.11386952 0.08783831 0.114742056 0.039416023 -0.093270674 -0.10573571 0.14911883 -0.061334293 -0.112298466 -0.038893998 0.11155616 -0.032698244 0.10144066 0.044964228 0.07718724 -0.032654595 0.107172705 0.007172899 0.033656787 -0.08515518 -0.035815615 -0.06466662 -0.22818309 -0.12430529 0.016109403 -0.048590712 -0.008528604 0.08328184 -0.07457552 0.119733214 0.03170301 -0.1875325 -0.07401484 0.23606081 0.1672859 0.195091 0.0077438042 -0.006484717 0.03739441 -0.0431795 -0.017785333 0.109315045 0.012172268 -0.030437026 0.038349397 0.03741104 -0.08429188 -0.19218034 0.006448551 -0.17854056 -0.05651345 0.043523695 0.08484154 0.1942445 -0.07088161 -0.12806472 0.06348666 0.09512048 0.12368477 -0.021808062 -0.05334556 -0.11631958 0.15194708 0.010793558 -0.08107246 -0.044356056 0.035617486 0.11357884 -0.110501416 -0.10945614 -0.10097528 -0.16040322 -0.08456026 -0.012698824 -0.10769699 -0.0205594 -0.047970705 0.14526853
109 0.19531843 -0.1085337 0.083229765 0.11893841 0.092399605 -0.05724167 -0.22576544 0.13462682 -0.12707116 0.1676194 0.22117528 -0.11382789 -0.35570708 -0.10812002 0.2815542 -0.054986045 -0.19562322 0.107594006 0.07255007 0.15958579 0.111851886 -0.03947012 -0.12118399 -0.12075248 -0.18910776 0.085778154 0.033449847 -0.000753423 -0.032308236 -0.08841278 -0.023313021 -0.10353274 0.03671835 0.0067397426 -0.012981044 -0.01656566 0.2430531 -0.07038242 0.030271664 0.22002019 -0.10526776 0.03602189 0.04526223 -0.13119195 0.011194044 -0.036979336 -0.25222632 0.0047380654 0.13066134 -0.044923965 0.2103756 0.14688694 -0.041513715 0.06605055 0.00719027 0.061656393 0.22800435 -0.01534345 0.011967467 0.14809558 0.10222545 0.044172067 0.047824215 0.048663035 0.082569465 -0.01410803 0.11582788 0.051431865 0.049392544 0.110824294 -0.004897668 0.04877154 -0.0463551 -0.23508982 0.022143189 -0.05328041 -0.08787978 -0.26207313 -0.043027893 0.029232793 0.038341563 -0.25124565 0.17484452 0.13313612 -0.0040408215 -0.06012552 0.21237656 0.03941977 0.15561846 -0.088600226 0.02845567 -0.10134069 0.008921599 0.076590315 0.041700676 0.06852615 -0.16708612 -0.1610565 -0.073724054 -0.05040124 -0.19768992 0.030090934 -0.12223938 0.14913407 -0.21881206 -0.0348289 -0.009850313 0.05365163 0.12172466 -0.06807552 0.0007759701 0.034852266 0.026707726 0.0783785 -0.091454886 0.086692855 -0.12054529 0.05372329 0.19255973 -0.051566504 -0.21561559 0.025829228 -0.047813803 -0.003039977 -0.110454954 -0.044297304 0.2382935 -0.083514005
111 -0.0053683757 -0.045221243 0.026284201 0.18627118 -0.01977886 0.04178688 -0.08602313 -0.04183793 -0.1111206 0.0828992 -0.027435701 -0.1551335 0.013641491 -0.06333916 0.1705299 0.1363576 -0.14269882 -0.08437059 -0.101354904 0.08854831 -0.03270227 0.18316449 -0.09803626 -0.14524123 -0.089613006 0.16437878 0.008413824 0.12412415 0.047815226 -0.12780017 -0.034996185 -0.046962027 0.07634975 0.06590061 0.058554668 0.07431112 0.09604994 0.061430972 0.05066334 0.053594198 -0.17525873 -0.0044319998 0.0032192247 0.050546914 0.16491659 -0.034723848 -0.02667711 -0.12617302 -0.046473544 -0.041645415 -0.13476484 0.09985466 0.078563325 -0.0024871272 -0.00876611 0.111337446 0.19779834 -0.13501967 -0.04838168 -0.029041516 -0.0133333225 0.047518328 0.1331809 0.07630333 0.16514955 0.06964686 0.15421095 -0.05287244 -0.04201313 -0.12787195 0.007691785 -0.043746516 -0.093358405 0.0036991928 0.10920498 -0.07724714 -0.03928655 0.0019463813 -0.023612786 0.044999722 0.0037018836 -0.1440362 0.010857712 0.19366688 0.11665211 0.069226205 0.018432561 -0.062610395 0.10150194 0.065444656 -0.02220791 0.013098044 0.05427459 0.040992446 0.13019283 0.008934495 -0.16321473 0.024907509 0.037647314 -0.12320622 -0.10378606 0.058660567 -0.08874642 0.019931126 0.016955333 -0.017072735 0.14705876 0.07192057 0.10794387 -0.081403516 0.09564318 0.05176129 0.062002353 -0.10272398 -0.068276435 0.029749887 0.013392091 0.058714297 0.0130461315 0.04347276 0.010760425 -0.08215201 -0.019489102 0.016030308 -0.1608588 0.022814933 -0.008251742 0.05932216
115 0.09028297 -1.1072183e-05 0.015013685 0.15267007 -0.0031424316 -0.0013229874 -0.056667943 -0.03710054 -0.008591349 -0.010952705 0.017083805 -0.11693268 -0.10381464 -0.07113541 0.22650035 0.112171374 -0.06534645 -0.10230188 -0.014031962 -0.01793228 0.048509326 0.059081517 -0.029662177 -0.20757023 -0.08239696 0.06797089 -0.08468416 0.05933748 0.07057329 -0.14173406 -0.02647837 0.13028802 0.026667438 0.04498251 -0.036738932 0.089163 0.20475024 0.19526528 0.08418313 0.0693856 -0.030425306 -0.07750348 0.049694225 -0.052570004 0.041484684 -0.020580305 -0.044176716 -0.017869435 -0.06517032 -0.05652473 0.037414134 0.0019957367 0.13979232 0.033607755 -0.06048468 0.05369402 0.123550564 -0.019018093 -0.045495633 0.08142534 -0.0037844733 0.08912624 0.23767631 -0.035376128 0.11451185 0.013910523 0.11222447 -0.015828272 -0.013595703 -0.076371185 0.0080851335 -0.12612803 -0.14783767 0.0076441965 0.02070728 -0.11638411 0.052778933 0.00723121 -0.0140302265 0.09821371 -0.12620084 -0.146596 -0.032354612 0.23477481 0.032348815 0.09686759 0.09271409 -0.08018299 0.06626166 0.05623798 -0.03893066 0.038207646 0.06469537 0.0127065275 0.07354368 -0.0129764015 -0.14612202 -0.09905637 -0.014947103 -0.10818362 -0.049266413 0.0203537 0.07444541 0.10440961 0.04499225 -0.03260947 0.04983827 0.11521095 0.039646324 -0.052590948 0.12077443 0.0046628625 0.059255235 -0.06784682 -0.024674986 -0.07708106 0.13967447 0.08828935 0.019579522 -0.019155588 -0.04056045 -0.072838925 -0.003954111 -0.024205118 -0.024293745 -0.018479798 -0.04741854 0.041697543
127 -0.20503382 -0.1703421 0.09446403 0.026503906 -0.06732141 -0.0043491926 -0.09845777 0.002274344 0.020183459 0.038225457 0.0022617055 -0.06025466 -0.092125595 -0.12493381 0.15416378 0.02820426 -0.10714732 -0.07436495 -0.0051126652 -0.014016594 -0.047807746 0.051613156 -0.22875844 -0.09678734 -0.19530432 0.23323482 0.043417577 0.29228586 0.08275019 -0.16381206 -0.043269545 -0.008431745 -0.10930415 -0.021420693 0.06518914 0.085847 -0.025237812 -0.04880502 0.20399444 0.07408432 0.040434472 -0.071710736 -0.21374606 0.009688971 0.13853082 -0.010359153 -0.13584754 -0.07597663 -0.003115929 0.020089807 -0.0024532 0.118181154 0.24409726 -0.14362167 0.07886655 0.18650788 0.09055833 0.09355949 -0.12699957 0.12549548 0.01221522 -0.10340465 0.043867197 0.010085736 0.061704945 0.07025655 0.155579 -0.061500113 0.16031519 -0.039938483 0.06384995 -0.14198233 -0.062061988 -0.13595735 0.057896912 -0.038481336 -0.26356447 0.20895728 0.05679619 0.34100953 -0.20417099 -0.22359544 0.015588063 0.2807477 0.12468769 0.06226042 0.15391313 -0.37505788 0.047555175 0.027708877 -0.025309049 -0.08396624 0.24458802 0.0858747 0.06979156 -0.0017427343 -0.056984205 -0.012604431 0.053732388 0.039528687 -0.07138349 -0.027487593 -0.27503878 0.03006948 -0.2985993 -0.122399256 0.04024833 0.010507589 -0.016783185 -0.029212039 0.20437405 -0.17894912 0.21504566 0.053087793 -0.22592543 -0.11312554 -0.094872735 -0.017887717 0.019145623 -0.04897723 -0.12039851 0.014446497 -0.014911483 0.031742793 -0.13627484 -0.011616763 -0.050098438 -0.1536833
129 0.09565224 -0.07759985 0.038681924 0.049135752 -0.06115063 -0.053466544 0.054139692 -0.0072804065 -0.17697744 -0.087407015 -0.025069501 -0.06475009 -0.08514782 -0.0877559 0.16996406 0.1192682 -0.19457717 -0.026604163 -0.06770117 0.021653391 -0.027320774 0.030080387 0.018267909 -0.009597924 -0.18287745 0.114640035 -0.104522064 0.110260054 0.04248077 0.008805525 0.055749144 -0.06783214 -0.0281047 -0.08251785 0.09995789 0.19076264 0.045129936 -0.043817673 0.078943916 0.09677301 0.041255172 -0.08271024 -0.026418064 -0.011968035 0.03590835 0.018589826 -0.17241015 -0.21897133 0.047653787 -0.006984601 0.00851616 0.14108601 0.20893113 0.080870055 0.10922003 0.020075342 0.20324148 -0.031757418 -0.17252378 0.07242821 0.015281806 0.14465658 0.16316317 0.07842471 0.13192305 -0.040799186 -0.010622565 0.0027730137 -0.0038977424 -0.07349455 0.12863503 -0.033889614 -0.2824703 -0.017804898 0.029194368 -0.169269 -0.1353544 -0.12420785 -0.09292506 0.05261479 -0.09666787 -0.064019516 0.039076686 0.32580182 0.03197815 -0.026889227 0.09692637 0.05985452 -0.039534744 -0.13169576 0.040997438 -0.0821676 0.07518726 0.036449254 0.10018129 0.212353 -0.2317346 -0.13349353 0.108510144 -0.14741135 -0.0850357 0.103408955 0.039075375 0.1062104 0.12413547 -0.06832315 0.121789925 0.07062247 0.020882165 -0.04663469 0.043110505 0.11828304 0.1649527 -0.03407409 -0.11979287 0.09493824 -0.02510986 0.16311155 0.034874223 -0.12975769 -0.2085395 -0.13316242 0.02673057 0.058997583 -0.0390662 -0.08687755 0.085216545 0.045367148
132 0.106902614 -0.032745864 -0.0037042233 0.110755466 -0.04374659 -0.09804382 0.021196114 -0.0749952 -0.09155076 0.012879006 -0.045336083 -0.21906564 -0.06670137 -0.0499274 0.16695265 0.2149368 -0.14845623 -0.07806654 0.017497888 0.024194755 0.09122191 0.078640215 -0.046014372 -0.21965821 -0.005033913 0.13000785 -0.16441798 0.0393066 -0.042611737 -0.00483826 -0.08870139 0.011082267 -0.053341832 -0.051121205 0.042505078 0.007575813 0.071894765 0.024351723 0.14280954 -0.05046145 0.024201818 0.009819707 -0.08255571 0.024387784 0.10234461 0.03563546 0.017972823 0.03747811 0.038030848 -0.020949334 -0.00066834217 0.074518144 0.078942806 0.029490124 -0.09424642 -0.005554236 0.069570616 0.079582825 -0.029411042 0.15615863 -0.03409767 -0.003860141 0.040754195 0.103637874 0.024284301 -0.0074543892 0.08540095 0.022759598 -0.04622467 -0.12173488 -0.059249535 -0.06185268 -0.10961824 -0.02366118 0.09956074 -0.11398689 -0.009737804 0.13829546 -0.04992728 0.15616284 -0.12510946 -0.11897102 0.026379222 0.224957 0.07600485 0.08077417 0.1106755 0.03899317 0.058547918 -0.027023906 -0.07220316 0.1534828 0.11408375 -0.031830367 0.06734202 0.07025037 -0.32157964 -0.08041421 -0.07286475 -0.10798323 -0.07978902 0.057684045 -0.08760881 0.0147881545 0.061112363 -0.1792381 0.058453232 0.16383179 0.15237452 -0.02588694 0.040854167 -0.08305036 0.10322209 -0.057833828 -0.14848055 -0.02419171 -0.049760357 0.1751467 -0.022292947 0.048235357 -0.14986603 -0.14117895 -0.027740946 -0.13441992 -0.041455742 -0.0550847 -0.01232741 0.09428062
134 0.19714628 -0.021833854 0.08831022 0.1760226 0.01671065 -0.06775811 -0.13652772 0.0905537 0.010552091 0.152668 -0.021737132 -0.20350397 -0.12192607 0.006659666 0.18191384 0.083059095 -0.19196431 0.0346138 -0.08000481 -0.026146168 0.12943898 -0.01157109 -0.04575927 -0.042869788 -0.12622575 0.035861913 -0.10135293 0.037748426 -0.12017585 0.009496843 -0.13816205 0.03477572 0.0039127404 0.056134235 0.063422084 0.03428337 0.12712009 -0.024157524 0.1012121 0.05576284 -0.041350134 0.15655667 -0.07688274 -0.04462974 0.0341056 0.15087387 -0.02381616 0.08961001 -0.069248706 -0.093114816 -0.080119275 0.09936191 0.13271539 0.1561042 -0.040127926 -0.012060079 0.09609851 -0.052154664 -0.0340673 0.18695027 0.11877826 0.034083344 -0.009908407 -0.036308117 0.031125525 -0.041137073 0.051877946 0.052262787 0.038084906 -0.09314699 0.048098046 -0.12770914 -0.123484746 -0.027124507 0.090151474 -0.10542165 -0.0890082 0.053314514 -0.14831896 0.11774462 -0.22998792 -0.08155256 0.04373185 0.2180681 0.06374091 -0.0056468947 0.18459362 -0.034869228 -0.068826295 0.042878862 -0.039610125 -0.083837666 0.046064463 -0.0027354562 0.17988732 0.038785134 -0.14214276 -0.110043354 0.014962896 -0.08485668 -0.05982068 0.0428223 0.03846115 -0.019341074 -0.06458128 -0.07029301 0.088821575 0.10747606 0.06680605 -0.15136155 0.109797284 -0.012834189 0.07733443 0.019654758 -0.17339033 -0.11056896 0.023374738 -0.01016321 -0.023041138 0.081242904 -0.087504745 -0.071993984 -0.07466876 -0.051612537 -0.11319402 -0.03666167 -0.10433665 -0.025215214
141 0.0692963 0.003096735 -0.0022740415 0.14074878 0.053682853 -0.15387964 0.21653613 0.13560422 0.1198297 0.12217793 0.028335793 -0.08950818 -0.01802938 0.11423249 0.14586274 0.15393983 -0.074087985 0.04007324 -0.1581596 0.1414065 0.15193555 -0.029932128 -0.07665852 -0.23831911 -0.14138497 0.18284056 -0.071049206 0.058712047 0.11137399 -0.07439702 -0.200252 0.013484099 0.012359143 0.10489292 -0.02066894 -0.035569172 -0.042566877 -0.05851523 0.08725469 0.010735914 -0.03753732 0.038157955 -0.005197137 -0.06408488 0.10606791 -0.04018942 -0.058923833 -0.030253423 -0.035867684 -0.1783059 0.044926565 -0.01742658 0.07349854 0.17994994 0.058289107 0.008400658 0.010391873 -0.0424503 -0.08511312 0.0047715716 0.08953475 0.0052498723 0.19402333 -0.048942003 0.067627534 -0.13276209 0.045030367 -0.04175038 -0.0055940156 -0.11682656 0.027387703 -0.08587627 -0.083519526 -0.0551662 -0.011471285 -0.07945099 -0.076460324 0.14300038 -0.18941274 -0.048793487 0.0122668 -0.30818316 0.08587728 0.17228062 0.1529439 0.16323327 0.18724667 -0.04892474 0.05185515 -0.016232617 -0.041777067 -0.0201581 -0.16091964 -0.08863336 0.079735264 -0.034328014 -0.0694154 -0.10662407 0.028630076 -0.075927205 -0.005464706 -0.2383411 -0.0052807513 0.14293595 -0.14046846 -0.018862644 -0.012156257 0.07485807 0.15242739 -0.12771088 0.026559044 -0.07974001 -0.021899497 0.06420106 -0.15466756 0.11124432 -0.13955875 0.12843807 -0.052544255 0.16210453 -0.2358178 -0.17595124 -0.0018208623 0.15002762 -0.13256784 -0.108384974 0.025478696 -0.06990494
144 0.18037799 -0.03905081 0.12519053 0.1700164 0.0040646605 -0.19937573 -0.03637699 0.0073730745 -0.10415955 0.15215456 -0.031878393 -0.07517418 -0.18090867 -0.14159061 0.07764146 0.09291338 -0.17979498 0.09487092 -0.061449233 0.07262902 0.17648225 0.0911144 -0.20942259 -0.10800141 -0.13980094 0.10739069 -0.1488021 0.059263118 -0.012867433 0.075950354 -0.0064837905 0.09233068 -0.044836935 0.05532115 0.02061411 0.04888376 0.21998811 0.111105844 0.16025324 -0.07156171 -0.3135226 0.026435474 0.14469801 -0.18645392 0.10864618 -0.04007776 -0.059208553 0.018190373 -0.026601981 -0.030366821 0.051520318 0.06097961 -0.06859478 0.122479565 0.09203562 -0.028673097 0.13943194 -0.028630711 -0.064729 0.012018299 0.054107 0.17910586 0.06619986 0.03453656 0.08241933 0.012369746 0.12136567 0.07299824 0.057486024 0.025934545 0.014620599 0.18762498 -0.15519974 -0.0036735667 0.06176359 -0.13991371 -0.095931776 -0.031921968 -0.011075498 0.08177991 -0.0050475923 -0.07732109 0.10084199 0.22320451 -0.0029677371 0.018902091 0.0890145 -0.07985377 0.08372374 -0.042209588 -0.016642975 -0.02289136 0.012861387 -0.074898615 0.23004435 0.09021887 -0.090186514 -0.07729025 -0.015990982 -0.061763834 -0.07942882 -0.012548706 -0.22984943 0.17664851 -0.10770823 0.034949064 0.007641474 0.019794496 -0.006262774 -0.023635479 0.08807537 0.10287937 -0.026261292 0.043441866 -0.19235893 0.01653712 0.045915212 -0.009922131 0.09272493 0.042002797 -0.16982974 -0.035336185 -0.09082606 -0.036798812 -0.13615686 -0.0017213683 0.008725633 0.033519227
147 0.10266645 -0.043485407 0.16718961 0.18808378 0.036103174 -0.06890773 0.07943194 -0.085158765 -0.16845958 -0.06524073 0.029694254 -0.22520058 -0.1479217 -0.04693091 0.15318084 0.24422237 -0.16350378 0.0012014055 0.0024976074 0.051088467 0.031721357 0.07309613 -0.029782346 0.025056148 0.029727336 0.12024511 -0.0019677079 0.10503513 0.018879684 -0.092212155 -0.09143453 0.036732502 0.1544503 0.11364624 -0.098616704 -0.09621053 0.27205992 0.17824495 0.0030663763 -0.031565264 -0.15295063 0.044468723 0.043333538 -0.06150226 0.1306717 0.13402274 -0.057733554 0.0023847404 -0.11129889 -0.006394169 -0.013836094 0.09036354 0.18446511 0.017355803 -0.07782266 0.0380021 0.2563636 -0.10508356 -0.06561282 0.02803215 -0.044358548 -0.001916957 0.1062567 0.011235199 0.21080773 -0.06772504 0.11925164 -0.0061151343 -0.020360319 -0.048106797 0.043413296 -0.0804044 -0.1412562 -0.09396541 0.03809928 -0.06269136 -0.016695417 -0.022772482 0.017880859 0.13249375 -0.09236484 -0.056564096 0.036030814 0.1529217 -0.02192117 0.13695003 0.114167154 -0.051744316 0.07046173 0.0038839178 -0.018359277 0.035405807 0.097795896 -0.08348256 0.14977187 0.021449285 -0.079440095 0.08048515 -0.045046866 -0.08670346 -0.10394998 -0.10560039 0.036008004 0.04164645 -0.035277057 0.012796859 0.17095608 0.05225371 0.078907594 0.04686222 0.019425128 0.109146565 0.059035532 0.038836878 -0.1146983 0.09763598 -0.025183804 0.15621687 -0.07718365 -0.08389329 -0.09797604 -0.14230679 -0.059194066 0.100477576 -0.06051177 -0.039899234 0.10415948 0.08535217
149 0.09165183 0.026647681 -0.0141670685 0.08445559 -0.02681216 0.034029286 0.0034681212 0.056723315 -0.070013426 0.04608837 0.07214557 -0.10244563 0.005455788 0.023648592 0.1118317 0.04143431 -0.14069478 -0.040766135 0.067284465 -0.06445014 -0.0008290334 -0.00025499426 -0.05267026 -0.07550431 -0.028390678 0.011984719 -0.044820994 0.10082392 0.15920395 -0.117849976 0.009728937 0.12909096 0.078116596 0.093207 0.055757754 -0.004304568 0.2345649 0.039169822 -0.1444991 0.094506525 -0.035008054 0.031108474 -0.029063357 -0.14817975 0.014767236 0.1068192 -0.009156694 -0.033832733 0.1030472 -0.050782006 0.10358648 0.13118216 0.11328418 -0.03469296 -0.038600557 0.008910307 0.1276035 -0.00939673 -0.15125373 0.14701635 -0.05951846 0.057656635 0.19760318 0.065843135 0.14932331 0.047173675 0.10024654 -0.045836635 -0.022194969 0.0032674856 -0.009042943 -0.055016883 -0.21643615 -0.051161617 0.01888491 -0.06705615 -0.13730091 0.11056708 -0.06356619 -0.014888561 -0.12172388 -0.19460364 -0.011579861 0.16307707 0.15458515 0.1313321 0.015224308 -0.020618225 0.020994157 -0.03161786 -0.073539145 -0.02080099 0.1573352 -0.004347497 0.028778514 0.09184522 -0.18650335 -0.016924582 0.011979422 -0.27628273 -0.19624661 0.013649458 -0.23440515 0.030537743 -0.05087522 0.027615102 0.07889352 0.1952532 -0.024988625 -0.068288855 0.16585393 -0.009205882 0.023795545 0.0015710851 -0.2207461 -0.052547805 -0.0062928284 0.05036992 -0.082029805 0.022706885 -0.13267507 -0.058088243 -0.005991029 -0.029546548 -0.14515358 -0.14272842 -0.011031193 0.065999635
150 0.034998607 -0.27105215 0.1549614 0.23941964 -0.021901067 -0.13029902 -0.097403556 -0.055502072 -0.111182265 0.05125292 0.06517457 0.023792414 0.0215714 -0.051587187 -0.035118572 0.024944827 -0.16750053 -0.044474885 -0.10975358 -0.031467926 0.054183647 -0.017000142 0.0809828 -0.012927514 -0.11686888 0.1355402 -0.035150606 0.13148825 -0.00864288 0.06852541 -0.033691794 0.0976335 -0.12134155 0.094974644 0.108604655 0.1170442 0.3411852 0.06442428 -0.078204684 -0.11004272 0.008042285 0.042318534 0.078839876 0.015883274 -0.004161029 0.1408805 0.08506522 -0.1208743 0.07024329 -0.14009179 0.07533235 0.11022384 0.06937092 0.10816199 -0.03471506 0.09055487 0.32202733 0.042689048 -0.1310054 0.08908821 -0.096440606 0.08821924 0.1624184 -0.048171286 0.08516212 0.0147648435 0.033228207 -0.119683646 0.04738697 -0.035367724 0.18011017 -0.07696168 -0.17404604 -0.038729746 -0.09777556 -0.09571945 -0.025191609 -0.028843712 -0.056274906 0.025879944 -0.07257762 -0.03993764 -0.027954025 0.23258053 0.13567911 0.09790139 0.020531317 -0.14001529 -0.0572424 -0.103513725 -0.03209939 -0.078663446 0.044108234 -0.014026001 0.05940308 0.06399925 -0.15447156 -0.18938121 -0.049115285 -0.16924638 -0.22092205 0.1799336 -0.049520638 0.20034887 0.14646126 -0.101192035 0.20075092 0.062743075 -0.08025821 -0.09715793 0.10072148 -0.035479423 0.051834106 -0.008802358 -0.10882526 -0.09462886 0.083682284 0.08855789 -0.05591618 -0.10012275 -0.05033389 -0.16336705 0.011180648 0.09021851 -0.06306193 -0.063004166 -0.036094096 0.057660986
156 0.056258116 -0.23282178 0.08060108 0.17393336 0.020220522 -0.06230349 -0.104542844 0.12082221 0.046466265 -0.07236545 0.16912436 0.12389299 -0.26101255 -0.18447177 0.024098169 -0.1880711 -0.20498572 -0.17163028 -0.09479536 0.058758136 -0.1301343 0.14568214 0.0029270686 -0.06506036 -0.22529103 -0.0053928583 -0.0942157 0.29443696 0.05265884 -0.09856933 -0.08124499 -0.0369467 -0.00057638285 -0.02745132 -0.017427107 0.082229525 0.17750143 -0.1641147 0.15381825 0.10397925 0.02816924 -0.024361998 -0.35032627 -0.09009389 0.18330774 -0.16940355 -0.21370545 0.029279452 -0.1152978 -0.22913826 -0.09007854 0.38716173 0.21034643 -0.110942096 -0.061439883 0.065637745 0.15063113 0.07351803 -0.011771493 0.27220234 -0.013291957 -0.15025663 0.1416957 -0.053796314 -0.026362676 0.30562052 0.066850156 0.03264173 0.19101636 -0.23467845 -0.18973088 0.026155416 0.013727433 -0.103185594 0.092981264 0.013185836 -0.23375958 0.14187633 0.026551945 0.009927663 -0.33835846 -0.32476097 0.100596115 0.26609445 0.18929134 -0.060211983 0.25875738 -0.23418579 0.00092399097 0.2720693 0.045571424 0.02893198 0.15273982 0.23151772 0.2077061 0.008122932 0.008819299 0.038773797 0.18091835 -0.030917244 0.23915313 -0.19744894 -0.08424915 0.03217431 -0.22611189 0.08996103 0.017884402 0.13741946 -0.12398284 -0.029556764 0.0747051 -0.0829214 0.19370636 -0.061824746 -0.114871085 -0.056398626 0.061529428 -0.0990232 0.18419002 0.16262308 -0.26473626 -0.15617384 -0.06925001 0.12834765 -0.21560283 -0.10558328 -0.03499465 -0.028625753
159 -0.017729541 -0.14903921 0.069403835 0.067008846 -0.062472265 0.013719317 -0.086627126 -0.0072198114 -0.0145081775 0.0632631 0.0034517513 0.006717745 -0.20246695 -0.2663211 0.19530436 0.07134351 -0.15162039 -0.13612956 0.16960396 -0.018757816 -0.06993046 0.029874356 -0.08591448 -0.06011115 -0.01944605 0.21571057 0.0014201395 0.09822368 0.16146012 -0.07539455 0.03781448 0.14071488 0.058870148 -0.10993154 -0.049178597 0.18205954 0.11161191 0.12423354 0.0035354318 -0.0061497423 -0.094036184 -0.10923298 0.076247804 -0.194215 0.11952479 -0.08267215 0.10034383 0.031800553 -0.092895165 -0.114058144 0.06342614 0.016826065 0.22479168 0.038672492 -0.025016818 0.0551186 0.34863168 -0.057492986 -0.06556024 0.20701443 0.1969952 -0.02144327 0.23124158 0.044444405 0.08224401 0.10696177 0.072377145 -0.121667095 -0.047398917 -0.12876967 -0.012199641 -0.0039083315 -0.05071892 0.062941864 -0.0518895 -0.1486087 -0.007841975 0.020399345 -0.12272248 0.039382946 -0.10406015 -0.048648424 0.030489689 0.31875318 0.06521998 -0.011212618 0.107271135 -0.268643 -0.005127008 0.11291978 0.0338547 -0.044030383 0.19939521 -0.07627569 0.1394301 -0.13641052 -0.025353502 0.011405975 0.04838137 -0.060080122 -0.026639953 -0.02344585 -0.0651213 0.21363346 0.059220474 -0.096649885 -0.03182345 0.055633385 -0.01581759 -0.08176102 0.2470292 0.013478325 0.17322105 0.008975001 -0.1786761 0.008241633 -0.028887982 0.05623634 -0.010321776 0.020833869 -0.13952819 -0.10081676 -0.08959338 0.072818585 -0.10053419 -0.08699061 -0.0045434646 -0.16078126
168 -0.028710213 -0.21774691 0.02875682 0.131596 0.118798465 -0.034787353 -0.11580815 0.21227954 -0.12190907 -0.038655993 0.32105908 0.008581556 -0.24449144 0.10515981 -0.03699418 0.089613855 -0.110959195 0.079838715 0.15162295 -0.10198184 -0.0012308812 -0.057377435 0.045041688 -0.04692857 -0.0068586045 0.0047488012 -0.20893085 -0.010774304 0.029447649 -0.031977423 0.03268495 -0.0091644805 0.17416696 0.12782998 0.21628706 0.037187397 0.18578072 0.05047383 -0.1725357 0.04430517 -0.16740097 0.032046728 0.17250426 0.044884354 0.15400547 -0.03297871 0.0019356103 0.11528478 0.09217397 -0.06522014 0.0007877207 0.0070943604 0.1900049 0.22510602 0.050308794 0.02254772 0.130656 -0.13077198 0.0001458454 0.050677225 -0.063221835 0.0391651 0.048045296 -0.024855157 0.11344514 -0.033553008 -0.011159759 0.031062275 -0.114547074 0.09933431 0.13175304 -0.1472297 -0.14376263 -0.0867924 0.060859866 -0.12661263 -0.12212151 0.044951353 -0.09427772 -0.095458835 -0.18455017 -0.35298616 -0.06987333 0.38970986 -0.02486238 -0.06267449 0.021763345 -0.050647438 0.09239678 0.079937115 0.06955909 0.04006059 0.13563967 -0.13143939 0.28364867 -0.012975632 -0.25201452 -0.106821604 -0.009429973 -0.17577256 -0.19505355 -0.026601102 -0.10453074 0.0400677 -0.12313063 -0.09002953 0.2395826 0.14468503 0.17628871 0.07636514 -0.01824023 0.014711316 0.15491164 0.1575963 -0.11876014 0.12885296 0.059211966 0.22456886 0.024798892 -0.082503766 -0.068326615 -0.047201112 0.015668806 0.17657495 -0.095750466 -0.17095177 -0.0642069 0.02987181
170 -0.01037458 -0.056221277 0.09983632 -0.050410435 -0.07530849 0.07747179 0.024257543 -0.064567685 -0.033014335 -0.11947754 0.018157177 -0.04522841 -0.021130634 -0.16096751 0.12714328 0.27027383 -0.25091365 0.039270867 -0.030662775 0.17274375 0.046988886 0.15652186 -0.17200305 0.0051963525 -0.1872202 0.059947852 -0.06516068 0.1595012 -0.0065760217 -0.07756513 -0.026664855 0.2524167 0.014401037 0.007075352 -0.059383743 0.01743671 0.16887504 -0.04547181 -0.008142891 0.003554828 0.050220136 0.14970043 -0.027147638 -0.0090821795 -0.02069134 0.029446976 -0.12037881 -0.033686582 -0.056176994 0.03281352 0.02695037 0.11734822 0.09223922 -0.066143595 -0.010596203 -0.00025725996 0.24084555 0.031202149 -0.11408577 0.05998102 0.0558411 0.12575023 0.1489305 0.11849539 0.09252236 0.10165416 0.14725386 0.14275444 0.15251176 -0.080929 0.04723639 -0.23528075 -0.2095838 -0.14240736 0.10104954 -0.10194801 0.0044458467 0.06410948 0.03909679 0.1511166 -0.06517331 -0.2312041 -0.070195176 0.37296465 0.12140553 0.05733576 0.0816396 -0.28346127 -0.026340319 -0.06700856 -0.06426395 -0.14341445 0.14492616 -0.025755635 0.16188867 0.07198472 -0.070225164 -0.12949753 -0.023420103 -0.12682523 -0.11383235 0.01054536 -0.13502976 -0.092477374 -0.12295944 -0.038267307 0.051915113 0.050453052 -0.095628455 0.14962816 0.1405482 -0.08733162 -0.032256555 -0.02900408 -0.13530014 -0.16524193 0.038804874 -0.029027816 0.005247133 -0.04321511 -0.09859491 -0.077169254 0.004708084 0.10097503 -0.061761726 0.08663339 -0.22726448 -0.12188465
174 0.0017813026 -0.2575249 -0.10305844 0.029556895 -0.03461386 -0.06088336 0.02755852 -0.065238066 -0.17092104 0.16373426 0.16500661 -0.1366927 -0.24516687 -0.06882826 0.41643563 0.23852944 -0.3194993 -0.018052403 -0.07006319 0.06786667 -0.04006029 0.10101735 -0.21844594 -0.114944115 0.07683789 0.20187783 -0.04510669 0.11485008 -0.10817975 -0.18281327 -0.044767298 -0.19541827 0.008152896 -0.17123143 -0.073515326 0.15265296 0.061507497 -0.06961538 0.2394353 0.15343781 -0.027710848 -0.018168647 -0.049215667 -0.26487917 -0.029877348 -0.065725975 -0.2503094 -0.117125474 0.08613157 -0.07343433 0.04716032 0.12697612 0.22142567 0.08071239 0.1045441 0.12973547 -0.010447275 -0.01885611 -0.0040429975 0.26708198 0.03084603 0.06112681 0.12297387 0.16052729 0.0042991755 0.10888636 -0.011484649 0.013649935 0.103674725 0.011228236 0.21411288 -0.24362566 0.011689867 0.04729813 -0.049895633 -0.023746794 -0.15504985 -0.05887263 0.24402829 0.09410208 -0.022356786 -0.14802825 -0.06604417 0.19390067 -0.051812507 0.02731713 0.19532312 -0.18095197 -0.0808515 -0.029397637 0.11268033 0.16695794 0.12851888 0.21917026 -0.021485727 0.15165235 -0.17929913 0.0067515806 -0.051924605 -0.080341004 0.0646498 0.063844666 0.04897785 -0.096769996 -0.24167195 0.069814235 0.1880288 0.14854737 0.14693817 -0.11683099 0.2205898 0.16392605 0.16470471 0.12882814 -0.11055248 -0.03239223 -0.2327364 0.07056323 -0.061185047 0.16403018 -0.021402095 -0.04672778 -0.04466118 0.06838276 0.020991836 0.0025366927 0.1717906 0.06807074
176 0.032546517 0.11531489 0.031095184 -0.05125136 -0.056699354 0.11056804 0.056408986 -0.17140785 0.007343255 -0.070942886 0.15598148 -0.18907955 -0.08767373 0.10270708 -0.0399099 -0.14500308 -0.27378175 0.007946443 -0.035534717 0.025873287 0.16671772 0.14835908 -0.33785552 -0.0015761232 -0.01727398 0.13292868 -0.1762451 0.050855882 0.16005819 -0.21556453 0.38222015 0.1529017 0.30036068 0.30443418 0.056426156 0.12396699 0.11884056 0.0054814965 -0.032598987 -0.08384211 0.093612075 -0.042405847 -0.23157778 -0.123064406 0.17183149 0.094241254 -0.0128551675 -0.12231749 0.1209033 -0.10266704 0.21440823 0.13343963 0.04946547 -0.0023902592 -0.15819211 0.11404548 0.023465412 0.05992786 -0.13057296 0.061886366 -0.20474078 -0.005397293 0.42157573 0.11709502 0.10940605 0.1343307 0.19367631 0.032739528 -0.034740947 -0.10859465 -0.18651524 0.017936956 -0.3120054 -0.03658931 0.04546052 -0.02046826 -0.030758983 0.0955245 -0.0064453874 -0.1263639 -0.13816045 -0.26596013 -0.073836125 0.21378593 0.057791922 -0.056248166 -0.037314624 -0.23478691 0.13272536 -0.0092219105 -0.055424724 0.116336554 0.08757846 -0.047719825 0.07843397 0.065858796 -0.15207803 0.0389893 0.04292457 -0.28905886 -0.3717565 -0.071283616 -0.27804044 -0.15576339 -0.033884145 -0.11971416 -0.04131213 0.17327318 -0.12628266 -0.030033223 0.14301772 -0.11246674 -0.1101962 0.05498382 -0.25154942 -0.07551871 -0.07120002 0.015162668 -0.1988478 0.09316689 0.0028892271 -0.09751962 0.061504923 -0.22156093 -0.24809152 -0.17577143 0.06863071 -0.046503052
178 0.09530823 -0.19948924 0.09343975 0.065176494 -0.0653352 0.12131002 0.11157639 -0.0470689 -0.08822918 0.08596922 -0.14620017 -0.13348727 -0.213882 0.16979897 0.44030488 0.16019942 -0.09239744 -0.10538244 -0.1669531 0.006540512 0.012715987 0.03116717 -0.08921422 -0.107310906 -0.24569485 0.020431604 0.08485736 0.15742344 -0.034092307 -0.102230795 -0.106594056 -0.18527511 -0.02248941 -0.039690834 0.028167335 0.13137275 -0.024404388 -0.13683715 -0.030140955 -0.0031137639 0.030614149 0.008168611 -0.082701586 0.05753233 -0.023913778 -0.056118354 -0.11235298 -0.2050128 -0.0013543206 0.04359318 -0.03843745 0.09030452 0.27292922 -0.102696784 0.01648305 0.17029363 0.17213094 0.17432848 -0.03923282 -0.0705677 -0.14686997 -0.062418766 0.00220825 0.076327145 0.24806058 -0.019394621 0.011639161 0.11220411 0.0005435108 -0.14317678 0.068730265 -0.10548928 -0.15796342 -0.17717524 0.08169616 -0.18353827 -0.032342013 0.034408428 0.042285822 0.16373311 -0.013251919 -0.12542498 0.051111802 0.19256598 -0.055224463 -0.03754685 0.12794828 -0.109251425 0.10589084 -0.23325296 -0.028245978 0.014976648 0.0630632 0.054950938 0.22525248 0.3291162 -0.10926915 -0.045686036 0.051146112 -0.05835673 0.016307786 -0.04103656 -0.019955492 0.05169384 0.04888325 0.023672882 0.06833367 0.06727467 0.08397695 -0.11565371 0.17394821 -0.063598976 0.017906224 0.113719836 -0.2071289 0.00506354 0.14465459 -0.04924037 -0.026044236 -0.05987899 -0.3046693 -0.09766395 -0.07491148 -0.061087128 -0.016009001 0.062199857 0.058053188 0.032772347
191 -0.08287644 -0.17048667 -0.011260588 0.144478 -0.031824626 0.06794234 -0.0016252557 0.14496922 -0.18455641 -0.026336022 -0.02088994 -0.035045978 -0.15448014 0.09339553 0.28539383 0.041643914 -0.099298194 -0.008254946 -0.21858886 0.02972083 0.0035792345 0.11179796 0.011239107 -0.1511204 -0.14360127 0.1245471 -0.19736132 0.1969071 0.034942135 -0.118223704 -0.22806127 0.14533126 0.11168006 -0.047312647 0.023935063 0.025867121 0.09673759 -0.09552506 0.08273853 0.10870222 -0.105853155 0.04688551 0.077105716 0.0055529396 0.0017361944 -0.0012274685 -0.074367054 0.0422656 0.03523134 -0.052758373 0.27086097 0.1219143 0.07067263 0.102391705 0.033693876 0.021693872 0.20897819 0.0052303066 -0.10514724 0.026231572 0.0317358 0.037778027 0.18335107 0.01910084 0.22519827 -0.15216734 0.0980353 0.04572042 0.06826368 0.083863966 0.11533874 0.010986985 -0.07133006 -0.0076183397 0.075230576 -0.11434729 -0.17578258 0.021506121 -0.15734987 0.07103865 -0.10142621 0.014289479 0.014638708 -0.049878433 0.071839266 0.04821269 0.065202214 -0.14656787 0.10586156 0.05331529 -0.013207642 -0.08395525 -0.014005437 0.05316177 0.13672976 0.028155746 -0.06365939 -0.055602368 -0.11986808 -0.19030619 -0.033598185 -0.022784458 -0.06443241 0.094367236 -0.06307829 -0.07651743 0.077576354 0.24982646 0.08027321 -0.082214616 0.06771157 -0.17852736 -0.09797236 0.120747454 0.020940633 0.14486791 0.041484643 0.051992636 0.040545695 0.07508597 -0.04135619 0.074691296 -0.093121246 -0.027816312 -0.14973424 -0.10343145 -0.14508273 -0.028070673
195 -0.01844349 -0.044326387 0.02325919 0.03654631 0.034963608 -0.060611 0.031510767 0.0064372285 -0.007043557 0.11024704 0.0047098566 0.020869117 -0.04293613 0.13320796 0.19228448 0.24282375 -0.1140774 -0.117495984 -0.045795605 0.011758044 0.08638774 0.13140586 -0.16154549 -0.24629247 -0.100517526 0.09398462 -0.16953819 0.12952986 0.11437912 -0.120012976 -0.1106938 0.03653511 0.04222517 0.09868312 0.060424883 0.007822965 0.056035936 -0.046214737 0.0833716 0.1927981 0.021570569 0.079161376 -0.0020627961 0.050089054 0.00018253335 -0.053368863 -0.080747955 -0.038008757 0.04794736 -0.106131874 0.06644326 0.06374176 0.06841316 0.059914317 0.023615006 0.030663876 0.09927813 -0.02797798 -0.18897358 0.06710375 -0.03598099 0.1266742 0.16265304 -0.022779716 0.0858778 0.09606251 0.061317924 0.049070176 -0.03326384 -0.14215931 -0.019382676 0.07776683 -0.078053474 -0.10658991 0.106379405 -0.089592144 -0.04166667 0.077013984 -0.12492459 -0.016614767 -0.103680335 -0.055359654 -0.036901444 0.020176673 0.020215219 0.103507236 0.074036136 0.0010416072 -0.061071478 0.030980956 -0.040901832 0.11474663 0.018194186 -0.049589455 0.119618736 0.08450965 -0.19341774 -0.20518097 -0.059220243 -0.028105116 -0.181464 -0.023626331 -0.0806791 0.05463649 -0.003959209 -0.0031228329 0.09815587 0.027450288 0.16393587 -0.20758612 0.118498184 -0.07120976 -0.044397574 0.0013574299 -0.18275414 0.14365335 0.075454965 0.14391425 -0.03870584 0.022440476 -0.1792241 -0.009931627 0.06951021 -0.02562799 -0.08639479 0.040156323 0.13810429 0.22534694
197 0.095773175 -0.09369401 -0.12804711 0.27216327 -0.04357134 0.17106141 0.088297226 0.1309905 -0.19024603 0.05826592 -0.012928824 -0.20011833 -0.07458406 -0.1009206 0.026578078 0.17436464 -0.1252786 0.06418742 -0.04326713 0.16357046 0.07595542 0.12481037 -0.11652551 -0.04362596 -0.058850493 0.078441404 0.010871017 0.18043716 0.11578683 -0.08514707 -0.09771473 0.03310875 0.06943548 0.15433168 0.003630548 -0.12808791 0.061657038 -0.05193375 0.097609386 0.104686484 -0.1106837 0.21113177 -0.0044928156 0.10940657 0.1584527 -0.074378386 -0.23361841 0.09138414 -0.03606598 -0.09674611 -0.046009786 -0.0702687 0.1544054 0.15587245 -0.07917992 0.068899564 -0.030903405 0.10707525 -0.082846195 0.08660196 -0.034426812 0.088878654 0.16324405 0.26116508 0.09733438 -0.017571975 0.092875615 -0.15007624 -0.036920525 -0.15810269 -0.08647071 -0.1585678 -0.19804615 0.045119073 0.027998881 -0.107377864 -0.03120502 -0.026364742 0.06474254 0.17014304 0.019145796 -0.16090311 0.14684895 0.16429701 0.076714024 0.042166363 0.06603201 -0.055567987 -0.0068920385 -0.09457673 0.07713268 -0.024900764 -0.0039856676 0.011697014 0.09427616 -0.08060133 -0.19916183 -0.11550002 -0.04506438 -0.15745248 -0.14417294 0.039182562 -0.116963044 0.1336247 -0.12056774 0.084662974 0.057750985 0.18287836 0.045184817 0.1116423 0.19474564 -0.19987859 0.11755331 -0.12601915 -0.021875322 -0.1392545 0.06688888 0.030374879 -0.0231218 0.06336584 -0.08132495 -0.18885022 -0.099871404 0.052390452 -0.13039608 -0.019364707 0.06270121 -0.118701465
201 0.094149135 -0.084377475 0.058367867 0.17393202 0.022284023 -0.12590557 -0.05677887 -0.008161365 -0.020364113 0.030084003 0.002981235 -0.0900192 -0.063173324 -0.08217674 0.05702384 0.18832177 -0.1230909 0.007890311 0.010343897 0.0072305393 -0.005475941 0.049001858 0.03386535 -0.15181974 -0.10996356 0.11386792 0.020105926 0.12878987 0.05436901 -0.08107983 -0.11717878 0.044687632 0.03112161 0.11117781 0.014956333 -0.023367323 0.29705006 0.13434444 0.02165388 0.0014575261 -0.02134893 0.03172215 0.053674188 -0.04586263 0.07066132 0.02119447 0.0061223307 -0.063477 -0.05490485 -0.06601571 0.08417969 0.08945944 0.12373961 -0.017931279 -0.05166063 0.061187603 0.15422837 -0.010748335 -0.07725142 0.026238194 -0.04022606 0.09064733 0.13235389 0.034857742 0.09179796 -0.019221835 0.13865556 -0.08174885 -0.025160117 -0.043898072 0.08533979 -0.06678839 -0.13573685 -0.038719494 0.062417552 -0.108778276 -0.09252327 -0.021429772 0.008175088 0.07934174 -0.10118044 -0.19315465 -0.020353947 0.07560052 0.0747674 0.11349287 0.094131224 -0.0752569 0.05974962 0.08825364 0.06895359 -0.057254203 0.09349406 -0.020008681 0.095849805 0.013525108 -0.09624868 -0.10088451 -0.03739351 -0.17869195 -0.07307581 0.04099032 -0.033798806 0.08294097 0.018564252 0.043943897 0.094619066 0.046655323 0.012530434 -0.1113482 0.095742315 0.027221294 0.11298113 -0.029207297 -0.15227762 -0.1503052 0.13288392 0.1460866 -0.009239643 -0.041690167 -0.03360816 -0.124628864 -0.13527232 0.0028899664 -0.09324726 0.01386328 -0.029305028 0.06633402
205 0.10297007 -0.16838302 0.15460326 0.025309041 0.11722107 0.006492302 0.08448831 0.0915218 -0.034519874 -0.1432012 0.08640115 -0.05320114 -0.1882503 0.13862398 0.16265643 0.05310956 -0.25197497 -0.0307129 -0.07470363 0.03637529 0.048838682 0.09818164 -0.021133272 -0.16639075 -0.035717178 0.14179835 -0.0045490107 0.08730218 -0.104726255 -0.033154275 -0.12198275 0.0132468445 0.22456703 0.07833204 0.16026172 -0.002143172 0.20846541 -0.03781025 -0.14114638 -0.03609069 -0.21162441 0.010045934 0.057064023 0.05694875 0.22017059 0.021582276 -0.09158459 -0.030917648 -0.07287076 -0.05132358 -0.20053712 0.058083385 0.28211135 0.015336809 -0.008051218 0.14681575 0.23342052 -0.041575395 -0.051090404 -0.10451817 0.11441541 0.026378095 0.14031963 0.08263004 0.2096472 0.00089374423 0.12766923 -0.0001699829 -0.019929811 0.06194301 0.027221499 -0.30641884 -0.23453312 -0.23277144 0.06447109 -0.07586562 0.01072432 -0.034702476 0.01826089 0.148118 -0.09518193 -0.123421244 -0.09582094 0.28412724 -0.061443035 0.096856005 -0.08854076 -0.003563259 -0.00548372 -0.0015639459 0.13133016 0.16788656 0.039345946 -0.02540443 0.26409224 0.17033355 -0.30499825 -0.091004774 0.04228728 -0.0038093796 0.017765792 -0.12891129 -0.07802649 -0.04305657 0.0051459935 0.102415964 0.1932365 0.033183776 0.11330356 0.10270703 0.02972639 -0.09816363 0.20651053 0.039717037 -0.08496472 0.13277337 -0.12947804 0.019680483 -0.13167554 -0.15185444 -0.026289279 0.061203036 -0.0783527 0.10418811 -0.04620594 -0.018706625 -0.06391341 0.14957303
209 0.028235296 -0.08859544 0.03757852 0.20056039 0.0056390394 -0.046267115 -0.09970388 -0.00900453 -0.008032548 0.01887246 0.029254941 -0.13107407 -0.00700085 -0.046470962 0.046042833 0.12796521 -0.17322356 -0.074233346 -0.047158267 0.01388556 -0.03550676 0.09237584 0.018162183 -0.13206899 -0.12168054 0.08954806 -0.04639716 0.052843995 0.07155943 -0.06809627 -0.10320029 -0.12909372 0.0028807917 0.12396964 0.0056387 0.060195416 0.20355564 0.10128992 0.061537962 0.036490098 0.0056630517 -0.06739018 -0.037755344 -0.0090344325 -0.029637208 0.01585678 0.02223752 -0.0919526 -0.022364281 -0.03769465 -0.05487914 0.1185511 0.098498 0.004384114 -0.013349307 0.013896669 0.16340601 -0.03368581 -0.08982126 0.08081638 -0.05248275 0.06856156 0.18566953 0.027507845 0.14654751 0.040672928 0.023544284 -0.07089222 -0.030785456 -0.1158186 0.017368544 -0.057777517 -0.10385883 0.027029322 0.053019483 -0.21537049 -0.09746394 -0.03313332 -0.01730813 0.101608865 -0.12338953 -0.16409299 -0.0047331057 0.16334678 0.08685855 0.13146168 -0.008966178 -0.05673295 -0.0029453537 -0.009771478 0.006650605 -0.07276122 0.06622245 0.0052605695 0.10489029 0.0024442282 -0.0880817 -0.15640204 -0.09906764 -0.088027224 -0.041316178 0.020641718 -0.041374203 0.13453217 0.067457326 0.030425325 0.119026944 0.07348601 0.05758204 -0.12308198 0.03433221 0.0051276977 0.13748279 -0.0068383166 -0.18800832 -0.08215013 0.09949998 0.17183143 0.06373553 0.022320636 0.028990274 -0.14614278 -0.09404138 0.052327212 -0.1792373 -0.09616505 -0.01308146 0.030667383
211 -0.0978702 -0.33938166 -0.061077915 0.038992632 -0.06424419 -0.011164121 0.08878033 -0.11696253 -0.17626962 -0.023232866 -0.012088558 -0.0379246 0.0532345 -0.1291577 0.1629326 0.059850756 -0.2851315 0.0044730376 -0.037946284 -0.114554584 0.04562694 0.16118516 -0.15589923 -0.21356602 -0.124979414 0.17460035 -0.16438106 0.08228719 0.04056524 0.015501494 -0.21471514 -0.0382226 0.0076233926 0.0933266 -0.08283489 0.32464725 0.08597274 0.18778564 0.07722606 0.14687726 -0.06316301 -0.00789146 -0.09913757 -0.072419465 0.16027625 -0.1184677 -0.0010798315 -0.0751767 -0.12588288 -0.07816079 -0.08714242 0.068912916 0.10569273 -0.014012841 -0.090142585 0.026709605 0.15857302 -0.12724032 0.14003308 0.22895886 0.017318951 -0.027495 0.18712571 0.08289164 0.25174513 0.045064095 0.18373396 0.17799425 0.076694384 0.02717702 -0.13060646 0.07249602 0.018940425 0.11561183 0.12408692 -0.13404293 -0.15344699 0.09926469 0.11843379 0.18947212 -0.22188132 -0.12305182 0.039772093 0.23448865 0.09504041 -0.06977773 -0.001878409 -0.17384312 -0.016519412 0.052312195 -0.1195193 0.10206912 0.14146493 0.06939412 0.1504401 -0.08356795 -0.17373739 0.11726929 -0.1490166 0.12991984 -0.026678476 -0.043242153 -0.07773687 -0.041275706 -0.06420822 0.105442025 0.09313429 0.07183762 0.16883595 0.042902406 0.20862594 -0.050222225 0.21387374 0.12386622 -0.035913963 -0.017977046 -0.066449225 -0.07844537 0.062281515 0.07827092 -0.019154461 0.09668531 -0.109010525 0.21541193 -0.08961405 0.024644522 -0.019170737 0.09250813
219 -0.124632545 -0.11790519 0.11454105 0.03594567 0.10089501 0.026769338 -0.0025806748 -0.009208022 -0.21802154 0.022495288 -0.018594349 -0.10392447 -0.15397716 -0.14867732 0.14836165 0.13171288 -0.14922751 -0.16061804 0.019401457 0.038163904 0.04051006 0.06459886 -0.10301247 -0.043935556 -0.04537507 0.15666437 -0.022100808 0.050702516 -0.07082814 -0.0420681 -0.03644645 -0.069281705 0.012240942 0.01828378 0.034336984 0.13208485 0.055761132 0.07665265 -0.0046236296 -0.03209892 -0.085037075 -0.02127617 -0.089962706 -0.039067317 0.037540477 0.0020576033 -0.061412036 -0.0017903869 -0.07760163 0.054670904 -0.055317473 0.10032523 0.20993318 0.009311248 -0.036997184 -0.041411106 0.23468108 -0.109599926 -0.038546793 0.19613326 0.06474086 -0.11279273 0.037823603 0.044024758 0.2557048 0.08747305 0.14501578 -0.01240848 -0.02995659 -0.039857913 -0.043890264 -0.11633416 -0.09884579 -0.06534165 0.1325947 -0.21510601 -0.15353793 0.08685678 -0.14435555 0.16641295 -0.22500212 -0.08491091 0.033160117 0.28528976 -0.0032133642 0.03890866 0.11209649 -0.07292353 0.000940979 0.07488923 -0.01077596 0.10864098 0.09373322 0.05442102 0.10815047 -0.026707428 -0.08445996 -0.114924245 -0.020032734 -0.072147384 -0.08769114 -0.06751549 -0.008192566 0.028279947 0.028902488 -0.0018367025 0.035634033 0.046828378 0.038698044 -0.0758617 0.19404021 -0.18707265 0.16350693 -0.11160245 -0.050447922 0.023137191 0.023526255 -0.019444726 0.034539826 -0.040936038 -0.1382603 -0.15747932 -0.019169005 0.03359644 -0.1273853 0.038005456 0.03503286 -0.06402891
221 -0.020765217 -0.11638567 -0.012011957 0.1641064 -0.10428604 -0.05892294 -0.066646546 -0.076684825 -0.061067443 0.09391011 -0.052023742 -0.14656954 -0.07609087 -0.12007242 0.14185894 0.14727809 -0.19975719 -0.10189909 0.010884013 -0.12386701 0.06771949 0.06518737 -0.03615677 -0.17487265 -0.19070853 0.048606638 -0.067703985 0.07039504 0.026931554 -0.07161908 -0.07585607 -0.028378136 0.022163132 0.050831456 0.06416466 0.17588042 0.09711588 0.037847824 0.04586255 0.131673 -0.060053714 0.0500135 0.02033315 -0.052292634 -0.0085373195 0.022950577 -0.037869398 -0.10557966 -0.02857659 -0.03950505 -0.037900046 0.038841143 0.118304044 -0.010538145 -0.05130312 -0.008981129 0.0998658 0.044322595 -0.011703845 0.0779561 0.016451344 -0.040051702 0.052950785 0.027490389 0.10946794 -0.050683994 0.1501576 -0.0039886185 0.06537823 -0.10598648 -0.050417244 -0.07724893 -0.118197165 -0.026900765 0.045950547 -0.112910785 0.016970312 -0.070376135 -0.077584304 0.050679542 -0.027332278 -0.11718626 0.032963675 0.26786777 0.04953148 0.06655973 0.07419683 -0.16049495 0.038090736 0.017297618 -0.016660037 0.04325607 -0.02466012 0.03287995 0.148382 -0.020979403 -0.109641306 -0.041346632 0.017560469 -0.14950778 -0.07920515 0.13166788 0.057232812 0.08847152 0.005160937 0.05969294 0.02267807 0.10752023 0.02332393 -0.1281684 0.10814044 0.009442673 0.100906365 -0.03515035 -0.06405936 -0.044512514 0.14225952 0.095209844 0.069227085 0.04413415 -0.1274422 -0.12654787 0.045123346 -0.0116139315 -0.115190215 -0.027749967 -0.0025588816 0.01230914
226 -0.1291089 -0.050518163 0.044926103 0.072936006 -0.0022010966 -0.04717197 -0.018089147 0.025750313 -0.0020242378 0.4687687 0.16500092 -0.11925896 -0.1493792 -0.28982505 -0.083918795 0.20034376 -0.040185418 -0.23299117 -0.21982722 -0.07943322 -0.018600522 0.14520542 -0.09562073 -0.17177618 -0.0050104423 -0.021233918 -0.09263433 -0.06604692 0.018247211 -0.07280959 -0.07985315 0.006407795 -0.23265846 -0.10009445 -0.1439101 -0.054138236 -0.07645589 -0.29098684 0.095245995 0.13079092 0.09634817 -0.14891943 -0.010288007 0.06498176 -0.042417005 0.02649912 0.034694184 -0.12506157 -0.11465849 -0.14986174 -0.0517701 0.2275079 -0.1137074 0.030497449 -0.10205797 -0.0056448667 0.3121042 -0.08435835 -0.16320138 0.23881501 -0.011966675 0.07495919 -0.13684542 -0.31618142 0.3348403 -0.14710036 0.34502286 -0.16654031 -0.13836485 0.217982 -0.03170914 -0.09091725 -0.3052967 0.15524806 0.29741135 0.029785128 -0.12434449 -0.26118806 -0.2930684 0.13846608 -0.5886636 -0.19583504 -0.009446594 0.1659041 -0.11288262 0.13091476 -0.07041817 -0.4527894 0.049294695 0.10175335 0.07629041 -0.1292502 0.26868248 0.16721658 0.12663023 0.15416077 -0.31798172 0.035307962 -0.05020487 0.019521138 0.051038958 -0.015446477 -0.07192514 0.033881407 0.107729256 -0.14460096 0.20495497 0.12920414 0.04643426 0.0028600644 0.21147409 -0.31751186 0.007494241 0.29384232 0.0010879235 -0.07930066 -0.11146859 0.500769 -0.18582231 0.0323707 -0.11645151 0.009884923 -0.13559014 0.10019788 -0.049636308 0.03230126 0.25672647 -0.08971425
231 0.024357265 -0.24009673 0.037004516 0.30674246 0.0109036025 -0.03563227 -0.028736202 0.019081332 -0.1245067 0.07640031 0.025069892 -0.22499055 -0.15159291 -0.02945827 0.12136367 0.058307283 -0.2610192 0.015658857 0.052535813 0.04785499 -0.033874277 0.069616884 0.0059371646 -0.06324363 -0.039765794 0.08291033 0.15126845 0.06043866 0.025611233 -0.05672505 0.05733291 -0.023209132 0.01620615 0.044761766 0.061870553 0.14236067 0.12072141 0.1274095 -0.037293248 0.04094079 0.0319397 -0.028616628 -0.13109577 -0.025371363 0.11421484 0.04581884 -0.007152987 -0.16212444 -0.10427952 -0.02180174 0.12286502 0.14698605 0.20463023 0.009701735 0.023383733 0.012212616 0.109861754 -0.11750057 -0.13871531 0.1603161 0.088563085 -0.07702082 -0.032564826 0.07243442 0.027188227 0.032876022 0.14175224 -0.11232731 0.06158718 -0.10041336 -0.006860221 -0.09308584 -0.20855978 -0.103635505 0.07918429 -0.19569534 -0.006920739 -0.025128718 -0.02373923 0.16205007 -0.25230742 -0.16770762 -0.017634558 0.09630649 0.121668205 0.008312198 0.109345764 -0.12513183 0.030210335 -0.10058491 -0.01566995 -0.016163182 -0.070152245 -0.06078126 0.07743913 0.053535365 0.03951421 -0.12948215 -0.17385168 -0.10283505 -0.15323964 0.059424765 -0.05384715 0.039601207 -0.025293814 -0.073969364 0.09848972 0.10573799 -0.09737941 -0.10507498 0.15529785 -0.0053871563 0.046818517 -0.10437794 -0.046095293 0.04947461 -0.008090387 0.009254828 -0.037572373 0.06680853 -0.040707827 -0.058570273 -0.018857956 0.03533228 -0.24080655 -0.1717477 0.012992631 0.028006578
234 0.18321398 -0.14296226 0.13868971 0.13456926 0.09817754 -0.10359863 -0.05286043 0.096061654 0.06463386 0.17963813 0.20042956 -0.10238808 -0.13925062 0.007599346 0.099352516 0.024647422 -0.17000683 0.019488692 0.0054726885 0.078075014 0.12660837 0.027192911 -0.2615965 -0.099677004 -0.19279838 0.2317612 0.09016533 0.08457212 -0.010289461 0.041885898 -0.07744574 0.08042638 0.032581028 0.10020592 0.09022566 0.04993065 0.1590549 0.050183415 0.118400835 0.076686 -0.1182183 0.16524932 0.062526606 -0.0018221458 0.056089118 -0.024620546 -0.18532087 0.018585013 -0.04921423 -0.03686589 0.031383507 -0.03894904 0.106402844 0.20090826 -0.07309988 0.0019514882 0.13634966 -0.078987174 0.022319 0.08777449 0.10193722 -0.039682157 0.0759203 0.08303977 0.057033252 -0.047545 0.08794459 0.0065747886 0.08914999 0.109900184 0.04976829 0.12965272 -0.14245415 -0.010986746 -0.038725983 -0.1265599 -0.07780028 -0.088408954 -0.14927539 0.029836364 -0.13455266 -0.1682095 0.043523915 0.15889318 0.04513504 -0.09300599 0.036025222 -0.1339154 0.12915033 0.017399974 -0.017742146 -0.03870008 -0.06149754 -0.103340454 0.26628417 0.1174035 -0.0056698914 -0.12457409 0.08961183 -0.1043839 -0.17717278 -0.058198746 -0.022043578 0.0490255 0.07267275 -0.06415712 0.09855876 0.030159697 0.12676841 -0.14599554 0.016688488 0.08383261 -0.019735567 -0.00012865638 -0.1617758 0.011907935 0.05070056 0.022435434 -0.005357614 0.11477643 -0.15670498 -0.006239781 -0.022837998 -0.15403302 -0.047484312 0.00011978114 -0.055947613 -0.11417491
244 0.079266 -0.120999515 -0.031620674 0.11133479 -0.047976673 -0.16738857 -0.050207507 -0.097841814 -0.04148099 0.052575093 0.28185144 0.020027364 -0.04269257 -0.065527275 0.078465715 0.120484084 -0.3064192 0.0043956586 -0.13029325 0.068346806 -0.015184682 0.051529787 -0.07693457 -0.19423312 0.0029782676 0.12409402 -0.08572911 0.2650829 -0.12806611 -0.24700686 -0.13977371 0.16174309 -0.070326075 0.081755266 0.055117965 0.075196035 0.31796107 0.009584116 0.15182479 -0.20073351 -0.12727703 0.10956347 0.096177645 -0.057757515 0.103049316 -0.04136028 -0.059414905 -0.23525426 0.09830235 0.029535258 -0.025423992 0.074148946 0.014470045 0.09602592 -0.046624027 0.020628337 0.103068694 -0.08881378 -0.018847285 0.16265863 -0.14101538 -0.034457598 0.022356357 0.0581799 -0.08255813 -0.07098713 0.03994715 -0.14896606 0.13783486 0.038262103 -0.19179413 0.1721353 -0.24757248 -0.22348803 0.04456988 -0.15276061 -0.00681273 -0.304926 -0.19176123 0.016214723 0.18047315 -0.23812917 -0.041189197 0.25431702 -0.046872325 0.24582398 0.19177571 0.039082933 0.067222275 -0.14747542 0.122131474 0.064246245 -0.07866961 -0.02221363 -0.0072966884 -0.12745778 0.1327603 -0.003771255 -0.05854918 -0.07047226 -0.22459231 -0.03237951 -0.039094884 -0.011203907 0.025236249 -0.051614698 0.16162285 0.07643086 0.053821247 -0.055930063 -0.09077643 0.012959788 -0.015530477 0.14501862 -0.036112558 -0.06504575 -0.05270564 0.20398183 0.047503605 0.11185593 -0.16901626 0.009805526 -0.002324744 -0.11508905 -0.1795677 -0.109443 0.094709314 -0.13660884
248 0.110724516 -0.09735289 0.14081907 0.1382165 0.014774779 0.13971433 -0.018719757 0.056538817 -0.0017122714 0.12034931 0.056989234 -0.14384288 -0.053104877 -0.11425816 0.22848584 0.04531419 -0.09687095 -0.035675883 -0.0942047 -0.053315077 -0.046642184 0.21640305 -0.10897782 -0.1344806 -0.07567669 0.10293484 0.004945527 0.092529975 -0.044255577 -0.02481006 -0.044723313 0.13069995 0.020220838 0.07713467 0.054031033 0.067548215 0.10660365 0.1133101 0.098701864 0.012166225 -0.21876994 -0.0015748823 -0.03652759 -0.034811236 -0.00023075423 0.056286067 -0.030381134 -0.073356725 -0.11073591 -0.09705643 -0.012793293 0.031445008 0.1578526 0.042740054 -0.12597731 0.026207829 0.1721199 -0.0049136984 0.00017061144 0.14945164 -0.069104396 -0.006403444 0.07610398 0.026592439 0.15826277 -0.058214925 0.1762256 -0.045503497 -0.03885591 -0.17052418 -0.003125613 -0.0377879 -0.12928249 0.03763577 0.07776595 -0.09005051 -0.026927477 0.09590878 -0.03288239 0.05260702 -0.046832923 -0.007423639 -0.022814643 0.20009142 -0.007212364 0.1675685 0.030449308 -0.057460044 0.0055813612 -0.06290624 -0.013837079 0.13704357 0.014421593 0.01063563 0.11241638 0.052277368 -0.02866906 -0.09340613 0.06117481 -0.13208894 -0.15702122 0.03924275 -0.020929601 0.046408825 -0.01706774 -0.031675305 0.14461644 0.10931851 0.08798224 -0.054911144 0.013065254 0.1333791 0.13865814 -0.051720772 -0.02415862 -0.044090025 -0.06427531 0.08456179 -0.10565791 0.020295786 -0.15950325 -0.1657011 -0.033848464 -0.100266516 -0.12106048 0.051565815 -0.056434464 0.012595572
249 0.100264765 0.058836814 -0.06355867 0.07967928 0.025896166 0.08211421 0.058705077 0.04562079 -0.028323496 -0.02775793 0.11217156 -0.0025891974 0.085727125 0.05407412 0.035328545 0.06466629 0.007446416 -0.06609883 -0.033236265 0.0807147 0.026969718 0.121150896 -0.09510663 -0.052793488 -0.13029216 0.12550375 0.1099455 0.10005846 0.062799275 -0.21813025 -0.1229768 0.0086665675 0.14620152 0.076910675 -0.0034943132 0.105773054 0.2595903 0.14722334 0.07173147 0.011216685 -0.06678946 0.0044091404 -0.074574895 0.0067321644 0.08533764 -0.073140614 -0.19582903 -0.11006592 0.021355053 -0.0035601505 0.02205123 0.1355287 0.17927636 0.046056386 -0.1224426 0.042930543 0.018979281 -0.030777043 -0.08535354 -0.020410577 -0.07814928 0.13349438 0.11393161 0.105752125 0.26276526 -0.028945336 0.016583059 -0.020486312 -0.09120173 -0.09807009 -0.009951855 -0.10707551 -0.26781538 -0.011484385 0.14788659 -0.01219222 -0.09012023 0.051852938 -0.06429645 0.15324153 -0.038039856 -0.15535603 -0.029947065 0.23042978 0.13586769 0.06437346 0.061823208 -0.07218309 0.10986279 -0.040110424 -0.019561669 -0.04426361 0.14363918 0.025990002 0.16619302 -0.03458589 -0.079127885 -0.11021346 -0.051767234 -0.1587568 -0.045363612 0.049935643 -0.1437661 -0.08435991 -0.04452078 -0.0021450226 0.101129144 0.046073962 0.08617516 -0.059196692 0.067541294 0.013640195 0.1796696 -0.06302131 -0.091931656 -0.011135527 0.075192265 0.10972731 -0.031784046 -0.066278845 -0.007265508 -0.08288788 -0.112082936 -0.10336488 -0.2010609 -0.15406895 -0.086517006 0.0034771597
258 -0.004343454 -0.08686863 0.004897495 0.05264032 0.073431365 -0.07789587 -0.038765248 0.008210355 -0.07417545 0.1324302 0.025738316 -0.108325146 -0.13808583 0.082239576 0.22851291 0.07392842 -0.22042188 -0.042445205 -0.18767291 0.030527465 0.1006776 0.13795437 -0.060581572 -0.14654186 -0.11364113 0.12199096 -0.08321978 0.01114617 0.046097353 -0.037481774 -0.13124049 0.11401137 0.114264235 0.058588296 0.06625514 0.12021547 -0.016433744 -0.041208528 0.09777221 0.17378676 0.01845107 0.017373038 0.05824476 0.03579818 -0.014038057 0.024368633 -0.23946653 -0.0658055 -0.0581839 -0.08218219 0.14354075 0.05119647 0.07352396 0.11144441 -0.08292013 0.042928275 0.026789354 -0.018817209 -0.1385612 0.19272932 -0.04507622 0.002968161 0.04457171 0.003575091 0.13833147 -0.0056358823 0.08712537 0.09679094 0.040053677 0.053750124 0.08300197 -0.08658348 -0.06289356 0.0061487113 0.10991944 -0.04972915 -0.051865738 -0.08081328 -0.22890967 0.07395142 -0.21276562 -0.08547371 0.005962999 0.09866574 0.018773142 0.17725262 0.011688955 -0.14203927 0.06068402 -0.02389086 0.01910554 -0.025638532 -0.022326691 -0.024585215 0.17125627 0.107406154 -0.029453225 -0.07880469 -0.06484198 -0.101914205 -0.03753139 -0.04811156 -0.0005261905 0.098886736 -0.097366236 -0.036969103 0.03595699 0.077957764 0.032468796 -0.061411764 0.0062547894 -0.09519432 0.011006524 0.027134607 -0.07074863 0.109202296 0.031109199 0.15700081 0.11991696 0.034226302 -0.08581372 -0.05623561 -0.08118144 -0.081620775 -0.15536273 -0.027721498 0.07622773 0.051956628
260 0.07451391 -0.06262412 0.010521782 0.24381194 0.036039717 -0.058429897 -0.052405853 0.04455483 -0.11351395 0.03970872 0.031395923 -0.07636594 -0.018253192 -0.039823297 0.14697702 0.06482278 -0.10741683 -0.01242013 -0.06637483 0.025816116 0.14627603 0.039341588 -0.03291009 -0.12763393 -0.09901627 0.1289483 0.06080548 0.039592143 0.04215969 -0.09095923 -0.15895158 0.04674589 0.030865705 0.04397272 0.06158452 -0.007202117 0.16993137 0.14630492 0.06782671 0.06724187 -0.0817038 0.027518662 -0.10147209 -0.041422408 0.03845718 0.07212863 -0.05544308 0.008798449 -0.14953855 -0.06677639 -0.045119707 0.037782498 0.031503648 0.1259172 -0.04224209 0.06950219 0.058136895 -0.07010219 -0.10253821 0.04849937 0.04620404 0.0035270199 0.078409575 0.041496325 0.10020976 -0.06904252 0.021457786 0.031047428 -0.025501305 -0.03325095 0.038744796 -0.050757054 -0.19776334 -0.07860495 0.010339422 -0.11967478 -0.02776396 0.06158219 -0.16330507 0.0925118 -0.11259282 -0.17450763 -0.021729328 0.13378401 0.12562113 0.05893482 0.09528239 -0.13266572 -0.06552051 -0.005104914 -0.021526506 -0.02463583 -0.076309584 -0.08420592 0.15643014 0.014399423 -0.095668554 -0.050040293 0.07891764 -0.17190091 -0.020339588 0.0013941512 -0.09019357 0.045042638 -0.028923888 -0.018070204 0.018617094 0.05456269 0.07887412 -0.08670283 0.046623304 0.010091784 0.14311548 0.037541494 -0.14482878 -0.042975824 -0.04779303 0.16554743 0.029718408 0.0124194585 -0.07160592 -0.15031841 -0.077846944 0.029711336 -0.16141991 -0.03634038 -0.030086337 -0.0519877
265 0.013942206 -0.1931534 0.09196768 0.18720263 -0.031333342 -0.09439122 -0.0037532493 0.1290557 -0.09145579 0.10307599 0.009024696 -0.08486943 -0.104018904 -0.09993898 0.17069796 0.06770392 -0.17235482 -0.10256736 -0.07716417 0.082397565 0.06671893 0.08657366 -0.13453966 -0.16160144 -0.20074499 0.022422917 0.04209764 -0.01337375 -0.029267391 -0.05757086 -0.09340528 0.10510493 -0.003652402 0.04132166 0.0173757 0.028828982 0.16373594 -0.012826866 0.17432998 0.018753387 -0.03760545 -0.07138562 -0.040156983 0.08074587 0.019525373 0.06715219 -0.13791996 0.036989026 -0.11001643 -0.035988193 0.052540492 0.033024892 0.22916979 0.035960976 -0.09278504 0.118034266 0.17090704 -0.05705788 -0.09643189 0.049099892 -0.008149187 0.023064665 0.1129472 0.059345543 0.115177445 0.032290835 -0.05814038 -0.018648382 -0.028125457 0.15411548 0.079005025 0.024552012 -0.1441577 -0.008334466 0.01876509 -0.1379669 -0.025497494 0.020743437 -0.08324707 0.20695746 -0.1581064 -0.11750558 -0.098797314 0.21636592 -0.018622765 -0.029907541 0.09173159 -0.16825888 0.016484544 0.01730614 -0.08659526 0.047469378 0.09549759 0.011726542 0.07228805 0.034384303 -0.13998702 -0.08302528 0.06914931 -0.069423996 -0.024920333 -0.053194653 -0.057265352 0.12909561 -0.12001133 -0.060727138 -0.03011671 0.1175278 0.05299267 0.03390666 0.17358167 -0.030170215 0.06161145 0.017991953 -0.024525328 0.09128575 -0.048380185 0.056114174 0.0031336828 0.056930788 -0.07951408 -0.09787992 -0.035699703 0.004774759 -0.08629346 0.06877997 0.039152086 -0.03102179
266 0.09493523 -0.12679784 0.07158765 0.20914368 0.07273038 -0.1079655 -0.016300078 -0.031323723 -0.044175707 0.0779095 0.06994832 -0.09413345 -0.074821845 -0.104330145 0.0134017 0.12274055 -0.08796637 -0.078386165 -0.039102767 -0.011146568 0.025830504 0.016004816 0.053090923 -0.09432583 -0.13233024 0.057478067 0.02021068 0.085520834 0.0062150657 -0.08688282 -0.09960863 0.14505975 -0.09768453 0.08518982 -0.09516496 0.032439012 0.34581518 0.23384634 -0.027115917 0.005678814 -0.15336879 0.08749629 0.011091858 -0.0435966 -0.041031174 0.0473265 -0.11852446 -0.05709468 0.051350992 -0.035814717 0.06458809 0.0075280704 0.0022584528 0.09954911 0.016191844 0.04519802 0.2196176 -0.033780064 -0.06572593 0.068443224 0.073750325 0.06339823 0.115617685 -0.062143225 0.13689312 -0.05131098 0.14639063 0.022952385 0.028268987 0.10082465 -0.01815079 0.026223661 -0.120127045 -0.034245666 0.19492908 -0.036157954 0.06253308 0.0022173864 -0.13695824 0.07588211 0.0054684263 -0.23431833 -0.028090699 0.19404511 0.082957864 0.07423228 -0.02280085 -0.084051885 -0.027096188 -0.05435889 -0.046745088 -0.03950278 -0.039265744 -0.052811157 0.14900926 0.037114747 -0.15737824 -0.13867556 -0.062395673 -0.0035695222 -0.096646704 0.05011956 -0.09009449 0.051069483 0.06247619 -0.02120909 0.16314009 0.038957052 0.022705473 -0.046979032 0.124891944 -0.08509086 0.060228325 0.05866424 0.047478277 -0.06271331 -0.022287566 0.056703154 -0.056338076 -0.03895807 -0.237361 -0.13614917 -0.004142515 0.05613448 -0.1344159 -0.062181525 -0.01503588 -0.03780993
267 0.07575525 -0.15588416 -0.056780722 0.15720917 -0.044523925 -0.10903802 -0.004277589 0.02563311 -0.0939407 0.280997 0.18637745 -0.13934106 0.037703685 -0.10863079 0.115196966 0.0886617 -0.10110542 -0.07136221 -0.13397172 -0.06615742 0.012003101 0.14808194 -0.06524645 -0.03287955 -0.107259154 0.0067969193 -0.14122446 0.042143974 0.02340208 -0.18495482 -0.16583821 -0.10576918 -0.1507391 0.20362017 0.0031962926 0.19911538 0.06441562 -0.11365195 0.007074665 0.07306353 -0.05956538 0.047401663 0.0765584 0.099535 0.07427327 -0.05572222 -0.066546306 -0.115083605 0.090533964 -0.09056529 -0.08756858 -0.075042374 -0.10257301 -0.08183134 -0.1985019 -0.023524627 0.08926804 -0.13199328 -0.16364035 0.19706215 0.028137986 0.06980199 0.09293692 -0.0022141142 0.06327528 -0.06409894 0.16306677 -0.22619131 -0.12715502 -0.021122403 -0.027154753 -0.0796351 -0.14373699 0.09804627 0.2181846 0.03745551 -0.061292816 -0.13845265 -0.25324014 -0.028252846 -0.16306083 -0.19879732 -0.009735355 0.31837258 0.054507498 0.09630507 -0.09120269 -0.08433867 -0.08398284 0.03569529 0.09103252 0.06564313 0.11096765 0.088250965 0.2723318 -0.048373777 -0.1575977 0.066602476 0.13022636 -0.15513438 -0.1631125 0.08638569 -0.11429513 0.04002007 0.05534812 -0.18155324 0.05244166 0.12839232 0.023477212 0.11757581 -0.066206686 -0.115563475 -0.020285266 0.009108965 -0.20037787 -0.009868853 -0.032296535 0.2230287 -0.03407093 -0.12740211 -0.03522491 -0.023428576 0.097186305 0.018463686 -0.17426877 -0.052086446 0.14556107 0.06516646
268 0.12821288 -0.10422565 0.078003064 0.18899238 0.06347453 -0.014933891 0.051184583 -0.007601574 -0.056131124 0.054242633 0.005522099 -0.042320453 -0.117155805 -0.008400191 0.12892492 0.073521115 -0.1356146 0.053689905 -0.12826484 0.01847375 0.13372593 -0.00085521775 -0.017401962 -0.25547695 -0.115340956 0.10877444 -0.061959423 0.092532285 -0.006320209 -0.15728217 -0.06928353 0.1351757 -0.08608843 0.15730485 -0.05701787 0.051531572 0.16150074 0.0638325 0.04114114 0.041427422 -0.16973372 0.08726932 0.038277335 -0.101343304 0.014085096 -0.08232002 -0.054273836 0.010644521 0.0014362286 -0.15750936 0.038931765 -0.028358195 -0.025981762 0.06639805 0.08086744 -0.032156974 0.21160263 0.01886106 -0.08226075 -0.003268343 0.13302475 0.02254101 0.23479202 -0.002022904 0.063868314 -0.03385107 0.0051802443 0.012627282 -0.04490368 0.09153266 0.043883346 0.03766409 -0.14392652 -0.053507943 0.0785803 -0.10542062 0.007040337 0.005789071 -0.12988989 0.038179804 0.02304502 -0.17322253 -0.013967086 0.23832628 0.028553082 0.07236661 0.104820915 -0.15233083 0.09336929 0.03963443 -0.04991925 0.0120204715 -0.11090773 -0.061733726 0.08975303 0.0005600557 -0.06887484 -0.016855732 -0.055498753 0.033216942 -0.16596535 -0.06888275 -0.10050239 0.07985691 -0.08997321 -0.039692614 -0.0025650868 0.09377026 0.122925535 -0.11274816 0.072067976 0.027058253 -0.013279515 0.00838815 0.021252831 -0.028288718 0.06838025 0.061995197 0.05638532 0.08363213 -0.15011212 -0.06593543 -0.03135842 -0.046439327 -0.14486916 -0.0069675543 0.03494564 0.06721218
273 0.051062245 -0.072622925 0.12161709 0.2988297 -0.12666747 0.026567087 -0.11228724 0.11047186 -0.041535456 0.17324506 -0.009526109 -0.050482858 -0.0899454 -0.0018209394 0.18718305 0.03290428 -0.15758954 0.044548053 -0.05504804 -0.011968437 0.04592977 0.065205485 -0.16654414 -0.14167286 -0.07557176 0.023946147 -0.10398683 0.14704208 -0.06464893 0.103371136 -0.139657 0.110804595 0.01846057 0.06290194 -0.012956444 0.03923108 0.22593616 0.100819595 0.06803086 0.06529769 -0.11560018 0.030320674 0.080269225 -0.057257086 -0.023940554 -0.1017859 -0.021044482 0.045376975 0.06799337 -0.09730455 -0.07340689 -0.04917567 0.08401542 0.12316596 0.020854454 -0.028526688 0.045310188 -0.011265371 -0.1044933 0.22192296 0.15399602 0.10960297 0.094886206 -0.09585106 -0.004600269 0.017803734 0.15616657 -0.039378215 -0.119203165 -0.18002237 -0.043279342 0.0055589485 -0.13202128 -0.0358967 0.024764301 -0.09057776 -0.06859464 0.0018746742 -0.052950837 0.061363105 0.035183534 -0.07018751 -0.036842644 0.23490587 0.16402952 -0.024279132 0.03904681 0.016163457 -0.11226024 0.083639205 -0.01295482 -0.024050234 0.010323358 -0.061239086 0.18789119 0.0021436426 -0.20989627 -0.22848661 0.06713263 -0.106662534 -0.025869032 -0.027319057 -0.071461976 0.13795011 -0.009718342 -0.04916989 0.17390174 0.12349997 0.06309601 -0.09818897 0.047372557 -0.009116605 0.08068403 -0.009790548 -0.057810795 -0.043025557 -0.0008055694 0.019734567 -0.048363466 0.06224047 0.009028626 -0.102005236 -0.061220556 -0.14496182 -0.12731296 -0.053031176 -0.12626378 -0.039381783
275 -0.10190947 -0.41095537 0.111392856 0.09431113 0.018812634 0.0073385127 -0.10346092 0.009180627 -0.034880664 0.21227027 0.023930684 -0.14953123 -0.028339699 0.012299018 0.26490715 0.20457676 -0.23391676 -0.06278526 0.016883362 0.03415323 0.10059313 0.026657794 -0.27519795 -0.24486843 -0.1627595 0.051906947 -0.08057249 0.04211433 0.072839685 -0.07626927 -0.1004084 -0.07898932 -0.11278633 -0.049134098 0.06711285 0.05268986 0.2038937 0.13538788 -0.024246689 -0.12863675 0.02353995 -0.17196994 0.08480542 -0.06851555 -0.021434898 -0.08422804 -0.036109738 0.03159773 0.00588485 -0.15001667 -0.03375778 0.07567637 0.14258999 0.017701872 -0.06894132 0.08443874 0.14235106 0.047658015 0.070298724 0.20108393 -0.14823286 0.036123104 -0.052335475 0.043706756 0.14913552 0.16537799 0.12636346 -0.07236822 -0.04222914 -0.21730042 -0.063922375 0.035051536 -0.047682613 -0.054637007 0.041216124 -0.17710917 5.384788e-05 0.107237026 0.03773 0.20596589 -0.1970513 -0.13612066 -0.011000641 0.23141035 -0.026690785 0.009731184 0.13618834 -0.083075576 0.0055494523 -0.06024647 -0.0013171524 -0.0071231583 0.07199933 -0.030768987 0.1491877 0.12190162 -0.014920717 -0.044314392 -0.04286705 0.022726782 -0.09089885 0.10869236 -0.073355466 -0.023830777 0.12316788 -0.05295528 0.071298204 -0.021402532 0.06257094 0.05867723 0.023496058 0.08171041 -0.03527899 0.09388875 -0.22227271 0.010659394 0.075434685 0.19198625 0.042838316 0.11659017 -0.049179804 -0.04310616 -0.042973734 -0.06386655 -0.05739741 -0.0049078683 -0.0032050435 -0.031963598
