327 128
0 -0.02397904 -0.03651405 0.11965937 -0.05863827 -0.15360399 -0.00876702 -0.0638111 -0.024508148 -0.13643757 0.025719024 -0.0042960634 0.15977125 -0.2829708 0.004631211 0.2859884 -0.20011277 0.297675 0.22907257 0.04909097 -0.09708806 -0.19309998 0.02890762 0.11513816 -0.04771925 -0.02262874 0.21192154 -0.28281295 0.061020095 0.16404992 -0.4409691 -0.22438821 0.045428414 -0.2584624 0.040541876 0.018392177 0.12238611 0.12929456 -0.056694496 0.078985214 0.0007453866 -0.28072673 -0.25723183 -0.1416316 -0.13282122 -0.04963272 -0.13940702 -0.28043935 -0.06566663 -0.011798399 0.14202176 0.09607735 0.10871998 0.21721013 0.12853725 -0.13297443 0.08947875 -0.2535424 0.11079449 -0.16910096 -0.39447817 -0.262145 0.0898857 0.41640714 0.19084884 0.05006805 -0.03478137 -0.16690847 -0.0016675871 0.10361647 -0.28890744 -0.02809917 -0.29090816 -0.15596142 -0.122322485 -0.17941532 -0.12474422 -0.2268356 0.14200914 -0.060194116 -0.12788573 -0.46623912 -0.102862306 -0.074142516 -0.2133878 -0.13383377 0.16317147 -0.08004022 0.11611193 0.1301947 -0.07174505 -0.13331601 0.069979705 0.19483812 0.20015927 0.31709945 0.27672255 -0.3519887 -0.12392309 -0.090386584 -0.065427795 -0.03850142 0.26449543 0.02617515 0.18457116 0.049557067 -0.13535629 0.5529308 0.119665295 0.09466347 -0.1829166 -0.14045145 -0.31721172 0.065106556 -0.004217664 -0.3002231 0.24164489 -0.07607038 -0.20413323 0.05978254 0.09648284 0.061172426 -0.12967896 0.033501305 0.4227257 -0.11233451 -0.115498826 -0.28141212 0.050934423
30 -0.08426598 0.04857904 -0.024416385 0.047340658 0.064836584 0.008011187 -0.012443598 -0.09123874 0.11076727 0.070571244 0.0634748 0.303974 0.031421203 0.030188438 0.19860657 0.14220947 -0.0057902285 0.12947416 -0.10654817 -0.23844148 -0.0866065 0.10054492 -0.040627904 -0.22187987 0.20827393 0.11763184 -0.09028408 0.022295587 0.122961484 -0.2560073 -0.06350769 0.0028369348 0.3155014 -0.0072343764 0.18226396 0.19524647 0.14424142 -0.13532867 0.264208 -0.13518308 -0.11900735 0.017329391 0.0011272742 -0.092903145 -0.05715175 0.024071176 -0.2330059 -0.061725117 0.13198613 -0.06789253 -0.18137877 0.24619034 -0.089783415 0.01077872 -0.022597967 0.06133934 -0.030841487 0.018734101 0.0033663844 0.031463634 -0.048144378 0.0057568774 0.26561186 0.23188773 -0.013226749 0.13542843 -0.15291166 0.054719064 0.012411214 -0.29716733 0.079470344 -0.14587833 -0.33991322 -0.09338473 0.19478348 -0.15377636 -0.15095676 -0.05708301 0.045752272 0.036236472 0.007804747 -0.14105947 -0.0015914046 0.030386958 0.006824505 0.25281227 -0.10980937 -0.05224491 0.20322187 0.11227425 -0.047891427 0.16622123 0.055502187 -0.11687316 0.17937471 0.16890316 -0.2376796 -0.019825405 -0.10392953 -0.025361853 -0.0072956737 -0.053787004 0.054885756 -0.07783093 -0.069150575 0.048864365 0.09084091 0.15686995 0.20352067 -0.04096704 -0.03374318 -0.23741528 0.041573577 0.104791075 -0.16159904 0.07760197 -0.09636295 -0.07640742 0.052533034 0.041889165 0.006632295 -0.102532186 -0.08879699 -0.0655374 -0.08991074 0.04267143 -0.20304374 0.0057349997
105 0.012799098 -0.026882438 -0.013855594 -0.2603289 0.17474422 0.33636406 0.26201966 -0.1616668 0.052610975 0.16483676 -0.2840388 0.279169 -0.4167617 -0.14442998 0.26549283 0.15854743 -0.0032173826 -0.008367501 -0.0889107 -0.064251624 -0.19053152 0.20325819 -0.045047566 -0.31672016 0.14888954 0.24989411 -0.047864385 0.2518299 0.20954092 -0.17479219 -0.10168048 -0.062561594 -0.13660091 -0.084806405 0.39689094 0.17824401 0.30199724 0.015407836 -0.033484396 -0.028366225 0.23982625 0.007572427 -0.1591544 -0.18810242 -0.16295369 -0.016274087 0.22418363 0.1629929 0.17394626 0.07822818 0.08657416 0.25396618 -0.23424931 -0.044214427 -0.11968863 0.04465602 0.0200891 -0.25335133 0.11072931 0.13192055 0.092089474 -0.34049627 0.017176254 -0.04591826 0.43920594 0.007184557 -0.1511028 0.030108836 0.110655405 0.013821877 0.26936212 -0.120282926 -0.14314698 -0.24911314 0.10942616 -0.09250734 -0.06629773 -0.022768226 -0.30275857 0.05924442 -0.047628954 0.044859227 -0.15859659 -0.2632408 0.56430817 -0.02707644 -0.033938125 0.13604592 0.014218823 0.13829398 0.037161663 -0.1472843 0.31955406 0.1953267 0.15324964 0.0786072 -0.38520312 -0.034279503 -0.113494135 -0.27108204 0.0640965 0.17922981 0.0076630227 -0.054804366 0.42457357 -0.12897824 -0.07867458 0.00784133 0.29180717 -0.043161403 -0.075359724 -0.05982511 0.13355899 0.14193904 0.0023069857 0.15009478 0.043925818 -0.122494206 0.2221158 -0.24183658 -0.29605925 -0.114975296 -0.25740647 -0.017530104 -0.17790993 0.0378575 -0.33292842 -0.15144572
115 -0.13894948 -0.046372056 0.049080495 0.032613557 0.11828924 0.097394556 0.021315834 0.083364986 -0.063472494 0.16617204 0.016635874 0.21718886 -0.04043646 0.0671391 0.18218794 0.1597775 0.06288704 -0.13647853 -0.009978071 -0.1067336 0.031885847 0.20838402 -0.102116466 -0.0006493604 0.026343664 0.086478315 -0.08183063 0.11773155 -0.046389513 -0.16854909 0.17491208 -0.0054477956 -0.0026955637 0.024231615 0.0756866 6.362462e-05 0.17582095 -0.0529357 0.12271194 0.024669059 -0.022077365 0.13477685 -0.014504351 -0.16920944 0.17281295 -0.05457297 -0.06890978 0.021490663 0.03756051 -0.070894025 0.028930625 0.22417712 0.06414351 -0.16092297 0.1940352 -0.046487022 0.13774684 -0.00586766 -0.057377614 -0.02117025 -0.009242217 0.013124184 0.076062575 0.11136261 0.12404404 0.067331456 -0.01642367 0.08662335 0.18559326 -0.24142231 0.010990769 -0.10863436 -0.089941874 -0.043023966 -0.016701553 0.14473069 -0.07424374 0.046496943 -0.0051103584 0.008096284 -0.00826865 -0.032163322 -0.019641217 -0.06058486 0.0100954585 0.051348474 -0.12686628 0.039765384 0.14024395 0.09174065 -0.009481518 -0.0683472 0.14222008 -0.2124436 0.06196837 0.18914126 -0.18390964 -0.0055757393 0.043557927 -0.08290041 -0.26557097 0.03754701 0.068620555 -0.07604257 0.05622524 -0.11394142 -0.13941877 0.108047575 0.012113618 0.010634841 0.026201295 -0.09816415 -0.137415 0.17682953 -0.10191077 -0.028725954 -0.040748473 -0.047037493 0.026737042 0.0007786902 -0.004763049 -0.03724714 -0.038360428 -0.011740451 -0.19606392 -0.04481128 -0.063168615 -0.01895813
127 0.1974371 -0.048681505 -0.19079559 -0.23897621 0.3562214 0.17184134 -0.029343057 -0.18792006 0.07216494 0.1831591 -0.025387488 -0.050852228 -0.2562188 0.022239888 0.36534408 -0.033365745 -0.025793169 -0.040215004 0.026697066 -0.076455 -0.4531417 0.023015484 -0.06925925 -0.3885845 -0.27230406 -0.11057113 -0.46554643 -0.088243686 0.16177899 -0.14668486 -0.089247525 -0.029433541 0.044149924 0.31196907 0.12953356 -0.10191706 0.10149682 0.15871897 0.07247538 0.054783005 0.1966161 0.09523514 -0.28679714 -0.07162245 -0.2716433 0.059128016 0.021771157 0.15171722 0.15460625 -0.14107828 -0.11096811 0.46721143 -0.061357692 0.048033666 0.09872051 0.040001728 0.02829649 0.26965922 0.12268809 -0.051063795 -0.13809732 0.015036767 0.0378526 0.04071899 0.12581924 -0.03540305 0.19897667 0.3475 0.28383428 -0.18287046 0.15102214 -0.37910855 -0.1039989 -0.16311316 -0.106737174 -0.08972669 -0.06952917 0.025344254 -0.34226078 0.024138676 -0.08359414 -0.04308642 -0.05217506 -0.19146961 0.29325613 -0.016964843 -0.084065914 0.09689489 -0.009986158 -0.02629373 0.1886137 -0.112790525 0.26765966 0.19232105 0.046475668 -0.15546508 -0.17754562 -0.012951868 -0.006491114 -0.24706204 0.057758026 0.019654967 -0.026281813 0.17919011 0.29562992 -0.12911731 0.16965963 0.15483995 0.20897853 -0.33309582 0.057494015 -0.20083056 -0.0036255736 -0.01878976 -0.28728014 0.114762396 -0.3086801 -0.019406438 -0.05813872 -0.16344234 -0.08240714 -0.04397342 -0.16472301 0.12244825 -0.3296703 0.056002878 -0.16314389 -0.14419656
132 -0.12158357 0.017256388 0.11712124 0.009541567 0.09793734 0.08315087 -0.030561563 0.14322005 -0.00023620653 0.029876785 0.13716346 0.1261205 -0.11152167 -0.03425533 0.32705325 0.16366357 0.07585237 0.016507227 0.07013286 -0.039801557 0.047584526 0.28195286 -0.08251238 -0.05672073 0.042713773 0.02581398 0.053831182 -0.044019397 -0.096031494 -0.059061706 -0.012054612 -0.019566482 0.06761319 0.12839505 -0.01277096 0.020892411 0.132693 0.018045932 0.15521641 0.0052742986 -0.08461036 0.19004896 -0.10653281 -0.23757099 0.16146764 0.035553828 -0.1618704 -0.10755632 -0.091498025 -0.09241133 -0.10874194 0.123986304 0.16185008 -0.1273446 0.09273352 -0.01992914 0.112388045 0.044858765 0.012159052 0.00071942207 0.034710586 -0.056490738 0.0084716035 0.12057065 0.08322237 0.22627093 -0.035370402 0.061201103 -0.062282734 -0.2929413 -0.109781064 0.03301315 -0.14604844 -0.091481335 0.006019615 0.13199267 -0.05398978 -0.035140853 0.060166437 -0.039257593 -0.04654609 -0.085048094 -0.17791796 0.101121716 -0.11034887 -0.006653797 0.11190655 -0.0038390656 0.0032093732 0.14990278 0.025412153 -0.024291288 0.1296017 -0.06406243 0.09976049 0.047092795 -0.10144141 -0.0013481635 0.047399778 -0.123745635 -0.11413609 -0.1599942 -0.10628705 -0.011270569 0.15542568 -0.05769571 0.104649924 0.037681244 0.038923353 -0.050748985 -0.046665527 -0.089119464 -0.0022718513 0.2264276 -0.20043269 -0.05559719 0.03441813 -0.092138484 -0.076391265 -0.020248303 -0.19097851 -0.12302891 0.071018085 -0.08401743 -0.22037025 -0.03457837 -0.078802146 -0.00022586096
144 0.119747095 -0.008206836 0.023553029 0.20998846 0.014808368 -0.05156292 0.0890252 0.12943813 -0.19556516 0.19353203 -0.09589317 0.049462296 -0.11684549 -0.14097992 0.043607015 -0.08267427 -0.054606292 -0.1784946 -0.020272614 -0.048281576 0.025290726 0.12459589 -0.00508857 -0.07608226 -0.35097444 0.028068623 -0.022697873 0.11262184 -0.1138665 -0.18799408 0.022106478 -0.02479848 0.025049737 0.12969849 0.047240276 0.21100207 0.27277577 0.046365548 0.008231708 0.0422209 0.011625821 0.07608214 -0.004283 -0.04182734 0.21313904 0.09045734 -0.08058731 -0.11227128 -0.03318156 0.09439705 0.06418868 0.12677245 0.058964632 -0.025964396 -0.1358993 0.047324922 0.053524688 0.09654055 0.1592652 -0.17307436 0.07940405 0.09848369 0.093463875 0.10167975 0.115175374 -0.032067727 -0.100735694 0.12126201 -0.081016146 -0.15248859 0.017586514 -0.13769098 -0.105504304 -0.13632372 0.17505373 0.19317906 -0.19161221 0.040591583 -0.07770899 0.050504494 0.097135395 -0.12782688 0.08110531 0.018668586 0.121606365 -0.0039897193 0.23159063 0.07582413 0.06672544 0.1538271 -0.21036072 0.04088731 0.0773805 -0.065445594 0.17651936 0.09326966 -0.077308476 0.09659033 -0.06195533 0.0075477604 -0.16893664 0.120798446 -0.0015748249 0.03362736 -0.11327265 0.13335896 -0.017788535 -0.09280772 0.048927236 -0.060722675 -0.06522097 0.027108327 0.051523056 -0.0024747935 0.010105227 -0.09215782 0.077463575 -0.0072108544 -0.06986526 -0.19561979 -0.14678763 0.033083677 0.08085715 -0.0025725877 -0.15335491 -0.17198943 0.0073373127 0.07616729
147 0.022749865 -0.03609174 -0.13199449 -0.05820965 0.17109418 0.047306713 0.18277976 -0.04424684 0.08885839 0.08678018 -0.011888646 0.16651465 -0.04596241 -0.19965391 0.1836349 0.07852932 0.010578989 -0.16370255 0.13465169 0.1835903 0.018458959 0.041419555 -0.16168572 -0.1931614 0.013282832 -0.018110204 0.061003827 0.03770024 0.0937655 -0.21413453 0.028053163 0.25527796 0.041654993 -0.013144403 0.11196478 0.032653872 0.16226275 -0.25123465 0.044728782 0.11939233 -0.2693348 0.10335338 0.09137112 -0.050930526 -0.119932644 -0.039360996 -0.13836858 0.0067678345 0.10112153 -0.01917847 -0.07138422 0.26720488 0.06502949 -0.23082355 0.0051985667 -0.14648207 0.12855664 0.10437507 -0.16318738 -0.16224584 -0.13217358 -0.041435875 0.0078062336 0.32229343 0.14592768 0.15499952 -0.22582577 0.17366472 -0.086536296 -0.08544651 0.03441771 0.07387718 -0.008469826 0.07216459 -0.005513819 -0.03553989 -0.02902626 0.04200217 -0.12553069 0.114739306 0.08752016 -0.057260938 0.03567553 -0.008656939 0.16233753 -0.17761543 0.014081686 -0.21381322 0.06809476 0.010623263 -0.020807182 0.043232486 0.28095537 -0.45400414 0.15138222 -0.024414347 -0.2906312 0.02177427 0.0062363273 -0.047155075 0.0035161395 -0.09965242 -0.22639826 -0.0064727534 0.004936289 -0.044685185 -0.1085052 -0.028985392 0.008051392 -0.086667344 0.030563338 -0.06530428 0.09754697 -0.017362347 0.040307842 -0.14511912 0.072594844 -0.031198833 -0.026210299 0.02855429 -0.119018875 -0.09909014 -0.07621939 -0.04142301 -0.20087278 -0.02352411 -0.040822137 -0.016275322
159 0.16561837 -0.019732997 0.15870109 0.24318963 0.017158188 -0.0962102 0.13708365 0.011290065 0.025799733 0.24655974 0.16104047 0.088993914 -0.14817685 -0.017216416 0.019156221 -0.09071505 -0.022604775 -0.25831777 0.0059586205 -0.14341646 0.078310125 0.342499 0.010345141 -0.09371312 -0.17366143 -0.010724198 -0.22663009 -0.054116387 -0.023565326 -0.20917548 0.17103295 -0.018206464 0.23184048 0.22861007 -0.0035461185 0.08766597 0.07218947 -0.13618948 -0.100887 0.09523641 0.053761 0.15089792 -0.027230226 -0.14202373 0.037625045 -0.026950222 -0.097845554 -0.021960877 0.08971479 0.09018508 0.037695173 0.13212886 0.09222103 -0.17529678 -0.042009916 -0.14400513 0.12437007 0.07997487 0.10444444 -0.007955427 0.001950587 0.14007784 -0.0031218738 0.13234615 0.18549454 -0.03727088 -0.12759428 -0.018516919 0.022488276 -0.04290531 -0.16148801 -0.186493 -0.042621717 0.002360015 0.1375069 0.15610525 -0.020884514 -0.036268607 -0.25452325 0.044331342 -0.086984366 -0.01729684 0.013775104 0.07024958 0.010579527 0.014297937 0.20668715 0.023884585 0.08263592 0.17924269 -0.14098011 0.014392767 0.19635725 -0.20092943 0.2334868 0.13365076 -0.028886117 -0.10365949 0.14462782 -0.06550397 -0.059997477 0.009935307 0.2648482 0.028602734 0.0994772 -0.15703815 -0.1852262 -0.13268651 0.040380746 -0.08170712 -0.02167838 -0.15642253 -0.11937779 -0.0096328035 0.0087085 0.0036259086 -0.26030657 0.0135039985 0.007215649 -0.09116549 -0.33764055 0.123827346 0.031868838 -0.06646307 -0.13251713 -0.09892561 -0.15018581 0.024244951
174 -0.08852229 -0.103139475 0.1925357 -0.018469522 0.22832817 -0.17873825 0.26165688 -0.095349275 0.03021734 -0.0256992 0.05146829 0.17167331 0.016871862 -0.24982724 0.050746314 -0.0080892835 -0.10040418 0.08913583 -0.17226611 -0.21333435 0.06365416 0.03292315 -0.17550378 0.0090388125 -0.17505659 0.023135176 0.07510544 -0.077155024 -0.016264206 -0.021705072 -0.2010736 -0.02576577 0.16704294 0.049209043 0.16540022 -0.15446766 0.25177315 0.0043421015 -0.099381536 -0.10004515 -0.19439708 0.2560527 -0.016363773 -0.21227652 -0.24649669 0.20871222 -0.21080211 0.017297698 -0.0066550956 0.024764791 -0.08031797 0.15971752 0.13617802 -0.06397364 -0.043291736 0.11427943 0.093068875 0.28184137 -0.020296857 -0.11686111 0.16507928 -0.04006992 0.42493382 0.26912326 0.16444847 -0.033210885 -0.2195483 0.14958617 0.12575123 -0.12824886 0.29972088 0.00034198503 -0.33067366 -0.21585952 -0.06519426 -0.14304344 -0.10431903 -0.16588512 -0.31201124 0.2843281 -0.27516007 -0.069081694 0.11670479 0.1933143 0.09604609 -0.00033310152 0.14245522 0.0030129505 0.13751839 0.0029065188 0.010290031 0.04091352 0.17249145 -0.10586729 0.04659366 0.16861947 -0.2738153 -0.10112185 -0.11660664 -0.015885381 -0.123124555 -0.12692955 -0.017992925 -0.03087081 0.08483416 0.2962657 0.2656504 0.27617985 -0.0013552255 -0.005092154 -0.12634349 -0.39707384 -0.027045332 -0.104991265 0.09839579 0.11181797 -0.03917097 -0.0077093844 -0.17811792 -0.021514636 0.14026928 0.0965574 -0.1555618 -0.09285488 0.07071548 0.16347 -0.08262482 -0.3108067
176 -0.07715245 -0.23846088 -0.23845413 -0.20196575 0.4391174 0.109880075 0.10184074 -0.06010866 -0.012696435 0.3205454 -0.09532036 -0.08040988 -0.08288213 -0.35132343 0.19818605 0.07239311 0.04405269 -0.16138707 -0.18283343 0.004474433 -0.513811 0.30858082 -0.4040289 -0.44124526 0.027125657 -0.021742726 -0.27535376 0.13468131 0.20792203 -0.23700666 0.04196423 0.12492571 0.04809646 0.19917697 0.0062828776 -0.11504147 0.078138515 0.32849845 0.17922395 0.13923168 -0.20084383 0.07329846 -0.14777519 -0.15114982 0.07814516 0.1349415 0.08653916 -0.09786344 0.104333565 -0.22049771 0.1114609 0.28017533 0.18771209 0.31977153 0.2105103 -0.12083268 0.056096084 0.06705736 -0.06682088 0.022637272 0.3838781 -0.14402358 0.14289494 -0.035949327 0.25597784 0.0066681094 0.30599195 0.09107546 0.0933082 0.05299529 -0.03932333 -0.22703761 -0.0025233629 -0.019321717 0.044373862 -0.1775808 -0.34822625 -0.2744784 -0.28292656 0.030078571 -0.11019031 0.11090578 -0.093894035 0.013509016 0.22355805 0.2848044 -0.26382312 -0.20496157 0.16413346 -0.044271477 0.020192739 -0.034381717 -0.1840324 0.14378081 0.15904213 -0.03350223 0.00030863233 -0.0067345323 0.03159159 -0.29827964 0.13487226 0.11664591 0.18662606 0.19448732 0.14779466 -0.39176083 0.1175093 -0.01343528 0.14006925 -0.054110542 0.117025286 -0.1459346 -0.05080924 -0.03656133 -0.2081594 -0.026978185 0.08695406 -0.23751603 0.043907925 -0.091995135 -0.14040604 -0.031794567 -0.18073916 0.09508354 -0.42291287 0.059021704 0.05839087 -0.13113636
195 0.14047384 -0.06435415 -0.077506796 0.06126244 0.20615269 -0.033247218 0.15041384 0.026297128 0.07664185 -0.10756823 -0.090181686 0.11273255 -0.05685362 -0.097803354 0.05348666 0.12186551 -0.1263513 -0.02483918 -0.034904823 -0.081966214 0.10433256 -0.045171242 -0.1800401 0.06541174 -0.19948186 0.009114192 -0.1907823 0.16159134 0.008972175 -0.2770154 -0.23533782 0.004154273 0.061626267 -0.023950528 0.00046886932 0.10816198 0.23912846 -0.07987904 -0.011318026 -0.12110146 -0.01890423 0.16325147 -0.072903335 -0.032535657 0.041704573 0.09684415 -0.056071136 -0.067811646 -0.014484474 -0.0999981 -0.024917118 0.16210054 0.1082535 -0.060767055 0.048530653 -0.039172966 0.01689966 -0.04064715 -0.22781815 -0.11610163 0.078756645 -0.16433848 0.06351408 0.039204333 0.24955668 0.1540572 -0.12937489 0.002258803 0.046104923 -0.1319443 -0.19140904 -0.10867241 -0.12744135 -0.07787362 0.089914165 0.11848533 0.03273851 0.030052312 0.07387985 0.088437 0.10249835 0.040926028 0.015802607 0.0016654462 0.036935333 0.059782285 0.09560391 -0.093770504 0.062310264 0.015599694 0.0882654 -0.10170642 0.09001417 -0.09061172 0.14929958 0.005552551 0.06965183 -0.10568313 0.21521874 0.06749967 -0.08598271 0.019258937 -0.0010589208 0.07511627 -0.016942129 -0.13482615 -0.065449655 0.06868111 0.08669898 -0.14408934 -0.018905 -0.11576711 0.13887808 0.108473696 -0.06942727 0.09361274 -0.011473955 -0.00093722745 0.012156229 0.07618093 -0.077692986 0.083518386 -0.11882138 0.03882941 -0.08065446 -0.108177416 -0.021574996 -0.12648034
205 0.00039753152 -0.25434315 -0.10718894 -0.14565593 0.12616295 0.1038109 0.048654214 -0.17005956 0.09659618 0.024111087 0.03184712 0.05297968 -0.02047975 -0.20530733 0.114903234 0.12113017 0.010854647 -0.13411942 0.031109257 0.25934467 0.074889064 0.044050563 -0.098521285 -0.0051280456 -0.008279577 0.12784383 0.023613991 0.12452938 0.09099769 -0.21265694 0.046898913 0.09737227 0.0089454325 0.012965274 0.0997472 0.0904637 0.099982 -0.13814947 -0.09438099 0.091884926 -0.19244625 0.1091096 0.12002562 -0.089294195 0.0030905418 0.024798507 -0.05978931 -0.119369246 0.08146727 -0.07855613 -0.05301572 0.29027647 0.076141804 -0.16962644 0.0649628 -0.21476905 0.14833263 0.04880397 -0.083327845 -0.040959377 -0.03769584 0.041571587 0.019636843 0.37252116 0.12852207 0.15852381 -0.1723085 0.06898888 -0.23323211 -0.12212798 0.05517388 -0.07577065 -0.035032876 0.13015196 0.04288213 -0.081931464 -0.012796918 0.04917321 -0.24504104 0.18057801 -0.037397344 -0.008445954 0.026141925 0.0071304436 0.13103004 -0.2506535 0.13384822 -0.064528 0.00413684 -0.058306348 0.04382575 0.19710256 0.24677256 -0.33560136 0.1279178 0.06668525 -0.19213307 -0.06710338 0.009455501 -0.11222044 -0.06533352 -0.047792498 -0.32327026 -0.089021064 -0.06959589 -0.18346666 -0.07680072 0.03856079 0.06914891 -0.1772222 0.06898494 -0.075481266 -0.012369 0.029958103 0.0008671287 -0.1004143 3.601393e-05 -0.11064986 0.101245664 0.02394493 -0.1014174 -0.09613706 -0.20729007 -0.14065875 -0.13669439 -0.08017135 -0.1294602 0.063888624
211 -0.033230912 -0.5098781 -0.09967834 0.21577165 -0.06728625 0.12021422 -0.2042197 -0.031662423 0.082879074 0.2516582 -0.016399788 0.11335604 0.029108293 0.117794126 -0.014163744 0.15250446 0.061169498 0.21514118 -0.25434563 0.23836274 0.0046970183 0.101676695 -0.12020709 -0.12197525 -0.42324483 -0.021166384 -0.19522548 -0.0061011384 0.21882051 -0.05946622 -0.07848667 0.018166697 -0.083368994 -0.0026952813 0.121501505 0.18512768 0.12350693 -0.15137927 0.22322719 0.13765496 -0.009039927 0.23939784 -0.19741233 -0.3786802 -0.0272969 0.06569708 -0.008588562 0.15701815 -0.37106368 0.27590746 0.13734527 0.17737025 0.30635512 -0.09329638 0.27327362 0.18307157 -0.06253292 0.13002913 0.039472878 0.06415764 0.15554935 0.060857054 0.1147645 -0.015885634 0.02380747 0.2354738 -0.06755354 -0.0106900865 0.10013185 -0.027701015 -0.03197542 -0.23967281 -0.10762724 -0.2695588 0.093958326 0.042765763 -0.05824693 -0.06568061 -0.14094853 -0.11372111 -0.088707425 -0.029079337 0.15984094 0.14113496 0.039283272 -0.07850317 0.20287545 -0.14404358 0.053149708 0.096276246 -0.02984323 0.16822499 -0.1203194 0.06081999 0.09972813 0.029281298 -0.23481217 0.005200845 0.14555094 0.06571341 -0.009150953 -0.09118627 -0.07160718 -0.010053633 0.032251727 -0.26518705 -0.19865656 0.32616955 0.13177176 -0.17821181 -0.17793308 -0.036198832 0.09074465 0.1316663 -0.020230465 0.10540359 -0.37487537 -0.12793024 -0.13516854 -0.19998054 -0.14413908 -0.135002 0.07883509 0.10881818 -0.18965697 0.22426797 0.09807436 0.26265478
219 -0.055098794 -0.08475076 -0.04226642 -0.0034343363 -0.043352634 -0.14509742 0.2010513 0.0990427 -0.060995106 0.14072296 -0.014529066 -0.0030162903 0.09946281 -0.025043497 0.047051884 0.058768407 0.10676861 0.040444005 -0.22304706 -0.09393749 0.1572266 0.2706852 -0.2005509 -0.14027877 -0.11180215 0.06907669 -0.044767078 -0.0457508 0.13492769 0.013425595 0.02223314 0.024606166 -0.04206394 0.09988395 0.25651816 0.2749384 0.25340363 -0.26817223 -0.0365528 0.0995116 -0.013303362 0.19838816 0.031323142 0.1092282 0.30189654 0.15411872 0.071257204 0.13618039 0.0050362186 0.11863539 -0.08290859 0.025182901 0.05509686 -0.014692001 0.11415951 0.034287784 0.086427726 -0.0043394906 -0.117884 0.034098484 -0.22856401 0.07330131 0.08288784 0.33892345 0.24446371 0.024999568 -0.23141573 -0.053636927 -0.10323515 -0.043342154 0.022474011 -0.037979674 -0.0550215 -0.04783653 0.04128074 -0.051016457 -0.020792162 -0.017767478 -0.33470908 0.062278703 -0.12640706 -0.014717373 -0.121072486 -0.010838534 0.20591216 -0.046061184 0.20913944 0.023210464 0.15113933 0.06346302 -0.05299667 0.032073647 0.11561411 0.08288852 0.04051729 0.075076416 0.047796384 -0.040497277 0.1277095 -0.08845107 0.034026373 0.1801432 -0.030183297 -0.056080896 0.03606683 -0.16689835 -0.13244152 0.07029228 0.10180096 -0.21470349 -0.032482456 -0.17857753 -0.21810946 -0.008701598 -0.117124796 0.08196962 -0.068644784 -0.010059749 -0.013526408 -0.17965223 -0.14825092 -0.016363641 -0.1252857 0.04453566 -0.22009245 -0.11647443 0.031762052 -0.10477405
221 -0.030538933 0.13671741 -0.10092371 0.17625962 0.013243138 -0.03482468 0.1636312 -0.07269633 0.002952948 0.16760683 0.062193174 -0.026238104 -0.06397589 -0.06913829 0.20539662 0.07256823 -0.056104235 -0.12248871 -0.15569377 0.34872848 -0.0070828493 0.07312938 -0.05513093 -0.22124216 -0.06980994 0.15358323 -0.071007766 0.19248071 -0.052029412 -0.086988546 0.11547229 -0.057157252 -0.06475565 0.008341943 -0.07748628 0.10128214 0.1353381 0.06434116 -0.06270925 -0.0859499 -0.012407826 0.32371077 0.10866469 -0.044871166 0.077224314 -0.110408135 -0.2851449 -0.1729989 -0.07924886 -0.07005306 0.22314362 0.18465772 0.039526496 -0.037087504 0.17461905 0.008439682 0.0848739 -0.14574237 -0.011010746 0.024178516 -0.0831281 -0.022034641 -0.009417702 0.03630173 -0.017394237 0.081489764 -0.17967269 0.008365751 0.06025663 -0.043257065 0.10285084 0.06790771 -0.27563962 -0.00017112552 0.07584918 0.2074942 0.015478395 0.043879032 -0.015143696 0.06690582 0.016285634 0.01859256 -0.15027837 -0.120830774 0.27718765 -0.1497292 0.070626795 0.0036936647 -0.022056945 0.03342008 -0.16256392 -0.02736131 0.09719287 -0.0023672776 0.30336136 0.11783927 -0.14923257 -0.041379623 -0.06504888 -0.033198852 0.055852756 0.02508507 -0.085770175 -0.09424678 -0.05321747 0.019499075 0.17519315 0.04875671 0.1833795 -0.15454036 0.01822377 -0.024408396 -0.055120613 -0.091144174 -0.16881654 0.16735393 -0.20392884 -0.0715457 -0.0022647255 -0.05360797 0.0026749317 0.10402491 0.050309334 0.004006345 -0.16480424 -0.2503332 -0.1529376 -0.15305118
234 0.04515783 -0.026209734 0.076964855 -0.055955667 0.030004075 -0.07050069 0.07456665 -0.16609876 -0.104893304 0.054685675 -0.016968261 -0.013457678 -0.033741046 -0.11050801 0.20423615 0.057039447 -0.22620192 0.11357005 -0.05648881 0.049436767 0.009334587 -0.024795989 -0.046465974 -0.10570313 -0.16747744 0.087102585 0.051054757 0.20475829 0.11647058 -0.01929873 0.03955214 0.07615531 0.026276696 0.05919478 -0.15027764 0.21120396 0.15292966 -0.014860445 0.11685065 -0.060692467 -0.023273725 0.14066464 -0.19206871 -0.004744224 0.13813692 -0.01977519 -0.20299126 -0.061515342 -0.099015795 -0.05053679 -0.040208116 0.074646704 0.08685571 0.08293749 0.04482427 0.027099721 0.03256454 -0.006889277 0.064889185 -0.2391322 0.13376884 -0.036769304 0.08588343 0.010482389 0.096186005 0.08222224 -0.20670624 0.09109235 0.059928387 0.07115822 -0.06878252 -0.06708206 -0.13324386 0.090710826 0.037394546 0.0031358309 -0.21102789 0.17240362 -0.11370137 0.008258592 -0.006999227 -0.2184475 -0.0097061675 0.07478548 0.011493489 -0.031412728 0.18698134 -0.082945906 -0.007936811 0.08513227 -0.0052531464 -0.23548695 0.11536493 -0.15419377 0.16012233 0.20163071 -0.058590714 -0.012466804 -0.061184406 -0.07570539 -0.07046631 0.10112292 -0.04629248 -0.102886274 0.089237265 0.17774694 -0.010140092 -0.11964996 -0.091104545 -0.012029809 -0.24525373 -0.1162237 0.041893266 0.061821897 -0.044020504 -0.1184913 0.11649505 0.15815951 -0.07748443 -0.14419812 -0.04478167 -0.0018339577 -0.0069347997 0.12805162 -0.1924092 -0.05009188 0.073558755 0.087646
258 0.12879467 -0.089757144 -0.03435322 -0.02749654 -0.017228954 0.068969026 0.10742104 0.11184836 -0.029726686 0.15145852 0.09808148 0.20536892 -0.04895057 0.011628328 0.076973446 0.22661662 -0.038039546 0.0028751476 -0.010043217 -0.07627323 0.059514906 0.09120278 0.019911226 0.047105417 -0.114686206 0.055718206 0.013763893 0.08541781 0.14308825 -0.0896039 -0.0732289 0.0044704573 0.20699617 0.014759843 -0.060523193 0.21091844 0.2379786 -0.027833449 0.05986634 -0.02784801 -0.10230229 0.23714082 -0.07197663 -0.0152046075 0.013498669 0.102264054 -0.21176855 -0.0927491 -0.021740513 -0.05454197 -0.04663302 0.07534287 -0.0151272565 0.026138088 0.26679295 0.020761438 0.08881251 0.02491482 -0.088511854 -0.18410772 0.04229019 -0.058707137 0.08892005 -0.1399291 0.09485412 0.1031053 -0.19534886 0.08683006 0.12640601 -0.04493338 0.004219258 -0.1481055 -0.044970002 -0.089371555 0.063971065 0.22406994 -0.22634338 0.04528389 0.0409635 0.03021632 0.061931334 -0.08223621 0.007499627 -0.018181631 -0.120092 -0.0045802845 0.113735944 -0.034286916 0.20046227 0.115773045 0.13416184 -0.035252117 0.15654035 -0.02090758 0.06241336 0.08549643 -0.105673194 -0.0024821819 0.17231698 -0.052811697 -0.082999006 0.14106162 -0.04328507 -0.021475833 -0.010296546 0.06177033 -0.049222518 0.091652475 0.01634286 -0.031602852 -0.05307724 0.01329291 -0.011912491 0.07804807 0.07899311 0.031892497 0.044378687 0.062124196 -0.08636994 0.057019915 0.067912646 0.017455906 0.09198589 0.010895104 -0.009926804 -0.06427527 -0.08563858 -0.07172565
260 0.020057619 -0.1332893 -0.041758418 0.026114268 0.14514685 -0.048116617 -0.06567103 -0.092448704 -0.14448455 0.047968056 -0.013904383 -0.024908472 -0.048336376 -0.13366534 0.024173846 0.23500031 -0.08898842 0.0213701 -0.10405835 -0.00690182 0.10903871 0.13816623 0.011271245 0.07150178 0.018332964 0.14362197 -0.11148056 0.1875741 -0.062465455 -0.16216595 0.15700741 0.04676833 0.12603319 0.0015800163 -0.11935632 0.16772828 0.18955436 -0.067117654 0.086595915 0.052814376 0.13747343 0.032684572 -0.07396659 -0.12550767 0.08732946 -0.10970451 -0.080588944 0.024368132 -0.077994786 -0.03977296 -0.0767029 0.13323894 0.058457583 -0.011855608 0.07902645 0.059589062 -0.038018998 -0.01561036 -0.2494835 -0.07200642 0.14004508 0.052980892 0.073260196 0.14897068 -0.03297477 0.032328706 -0.1314278 0.0008946356 -0.06463375 -0.02020736 0.09624299 -0.08366603 -0.042521693 -0.020461597 0.02997488 0.11604246 -0.10131422 0.03495793 -0.17054118 0.0035361997 0.04421715 0.032812707 0.1533978 -0.015219713 0.113311924 0.08603397 0.15470633 -0.029099667 0.0632199 0.10448271 -0.050853103 -0.11497529 0.13453442 -0.1344816 0.091840744 0.093242325 -0.22957814 0.039940137 -0.0444513 -0.11044661 0.017304389 0.053260293 -0.0012435309 -0.0038222675 0.047339655 -0.01590714 0.0004203919 0.01705897 0.053578623 -0.100695245 -0.09018522 -0.1811142 0.111229934 -0.05572815 -0.11348987 -0.19285926 0.031507336 -0.06328945 -0.14098127 0.08560349 -0.02660048 0.006637213 -0.003057374 -0.056088418 -0.08940432 -0.22763993 -0.09729139 -0.042515717
265 -0.026673619 -0.19237378 -0.11072324 -0.102320515 -0.03877614 -0.048515525 -0.04041106 -0.03262335 -0.004245741 0.082433 0.12032714 0.17470871 0.017978394 -0.082833365 0.078842364 0.12660594 -0.03177085 -0.05073989 0.008788065 0.061620384 -0.0582527 0.11950002 -0.0027739163 -0.13509814 -0.114946775 0.12116461 -0.1355707 0.13519454 0.013677453 -0.106821746 -0.025173621 -0.016348893 0.14097084 0.061008 -0.08884765 0.028011495 0.22620249 -0.095223606 0.07638532 0.01878642 0.07193907 0.2033998 0.03689259 0.006752905 0.0046543446 0.014629148 -0.11678813 -0.030288259 -0.1243481 0.02130048 -0.011666635 0.050894264 -0.023340972 -0.03168979 0.06570528 -0.099805154 0.12653603 -0.06598819 -0.043597512 -0.14742175 0.1169534 0.0347829 0.12955223 0.11261787 0.03153219 0.06459286 -0.12403236 -0.072240315 -0.07047696 -0.18023425 -0.0092709 -0.15029584 -0.04485164 -0.0347405 0.12237062 -0.014574688 -0.13320632 0.10378885 -0.16814636 0.06776534 -0.12198333 0.026745364 0.0029265536 -0.040202715 0.051598117 0.04998313 0.12006163 0.034008376 0.19394298 0.017721916 0.03988211 -0.10152266 0.16725555 -0.057574842 0.053883526 0.07871685 -0.14333436 -0.026630975 0.016838612 -0.24035096 -0.05250363 0.0121048605 -0.13513978 0.06042443 -0.0066718096 0.027992874 0.088161685 0.16678302 -0.009614166 0.041100614 0.033318177 -0.12684076 0.05165411 0.0758617 -0.09121434 -0.019212639 -0.023338586 -0.042655498 -0.11127584 0.06884292 0.04926637 -0.15735836 -0.08227619 0.04868175 -0.11542639 -0.082511365 -0.04357318 -0.076080896
293 0.020532459 0.11010043 0.09246299 -0.083248235 -0.056369267 0.13389751 0.09386172 -0.119782686 0.113040924 0.083122425 0.064961664 0.07607631 -0.1079842 -0.02032256 0.3335405 0.17797007 0.047605027 0.050930154 -0.1471544 -0.22868088 -0.15841796 0.3991099 0.036496278 0.12153209 0.15978034 -0.007834032 -0.10268271 0.046824973 0.13350083 -0.18631451 -0.2238017 -0.049338926 0.0789334 0.09213534 0.112104125 0.30994913 0.3610179 -0.097507685 0.28627428 0.058432374 -0.23820776 0.18927333 -0.29082754 -0.14326003 0.0062209726 -0.12721613 -0.07283077 0.13911319 0.25070283 -0.0011115824 -0.25384897 0.09208545 0.08149795 -0.07856892 -0.1330641 -0.10711193 -0.15698427 0.009216551 0.048263513 -0.00738732 0.008827141 -0.059996568 0.09736138 0.2762944 0.06267595 0.072459556 -0.18035832 -0.032941435 0.091744825 -0.27848646 0.06623137 -0.23942596 -0.25750193 -0.1302638 -0.016631722 -0.080236174 -0.06131489 -0.14866868 0.08391201 -0.16369005 0.021677775 -0.015102468 -0.14682311 0.10167861 -0.2355058 0.188311 -0.018063635 -0.02678248 0.13748145 0.060655013 -0.14276658 0.14667632 0.08314653 -0.04602528 0.10989349 -0.005949385 -0.17837101 -0.0573718 -0.07588293 -0.15500712 -0.041245047 -0.1636695 -0.13690606 -0.038961016 0.07918565 -0.08177179 -0.016161036 0.15004303 0.34589872 -0.12168612 -0.079697184 -0.12933107 -0.17797743 0.23254786 -0.17181963 0.0038892082 -0.1852068 -0.24049851 0.07738094 0.044533804 -0.23112129 -0.11075933 0.041148115 0.075985365 -0.090951435 0.12092393 -0.07018503 -0.028461438
307 -0.16933504 -0.22180046 0.025425682 -0.06524316 0.098036654 0.0024839765 0.012635393 -0.06244853 -0.09257781 0.0069668223 -0.020209594 0.1718138 -0.043325618 -0.00943879 0.19762668 0.019817812 -0.022439493 -0.06063689 -0.03919468 0.026294429 -0.010182143 0.13060173 -0.08235132 -0.13559891 -0.2278427 0.038793776 -0.110863835 -0.079097986 0.020114562 -0.103190765 -0.00387503 0.063035175 0.053703014 0.061295237 -0.027721304 0.10785667 0.15715939 0.010591063 0.117564976 -0.09069346 -0.10138771 0.16290087 -0.16375683 -0.01685061 0.1359553 0.20905295 -0.15277022 0.089786746 0.15550175 -0.23065363 -0.016348587 0.07486822 0.29729646 -0.1477643 0.021268629 -0.018348012 0.061546072 -0.078370646 -0.038479127 0.005769353 -0.13632609 -0.06349756 -0.03938118 0.00818396 -0.002720501 -0.022560878 -0.1669192 0.0034286077 -0.107883215 -0.06936448 -0.13809623 -0.008495103 -0.22418234 -0.0936504 0.0030561297 0.09582928 -0.008987589 0.046040215 -0.06694946 0.12654714 0.040097516 -0.26447347 0.051343527 0.05198669 0.12566936 -0.017688613 0.037857085 -0.12227668 -0.04138264 0.078777164 0.12548468 -0.18135364 0.16553079 -0.18059355 0.10561704 0.13471529 -0.2631074 -0.07390812 -0.13588396 -0.0030451384 0.088454634 0.13682102 -0.06666903 0.0022976894 0.044668306 -0.021141369 0.095562294 0.018989023 0.08000618 -0.010483704 -0.012137924 -0.0909595 0.08754045 -0.124328546 -0.06377404 -0.06683527 -0.047414836 0.12735555 -0.056825455 -0.23681897 -0.08278361 -0.0038902631 0.10237379 -0.02337699 -0.08582869 0.008632052 -0.040828414 -0.08472485
312 0.04834412 -0.2227957 0.1517831 0.15457655 -0.0451866 -0.026344152 -0.115918316 -0.01194925 0.18854447 0.10683107 0.030382518 -0.17155771 -0.25606135 -0.064551495 -0.07699266 0.26531562 -0.059232462 -0.104322866 -0.01870835 -0.111324415 0.013525062 0.12183412 -0.16411425 -0.10751448 -0.010001003 0.0839495 -0.25000808 0.28171661 0.09205111 -0.048029926 -0.016560627 0.053729393 0.06081626 -0.09453063 0.0983633 0.015437891 0.06226281 0.039632708 0.04293351 -0.02408374 0.057934813 0.34458214 -0.075708106 -0.08072792 0.05626528 -0.0703119 0.06421241 -0.16293074 -0.05887985 -0.06717399 -0.20647435 0.084597915 0.012532919 0.017830694 0.084421076 0.046509266 -0.005244662 -0.16541417 -0.1805039 -0.05704124 0.14556745 -0.058974385 0.12566249 0.20516211 0.035273664 -0.051132385 -0.12810192 -0.15675768 0.004192428 0.021554383 0.18725292 -0.34493202 -0.13268086 0.11808328 -0.026727792 0.13107447 -0.14019588 0.065704845 -0.09688052 -0.13681762 0.11578993 -0.03787483 -0.16308321 -0.08156115 0.08588838 0.05482177 0.19475769 0.057040792 -0.062050354 0.17306931 -0.039643254 0.026321275 0.19219604 0.10668077 0.12427254 -0.032645095 -0.15501004 -0.22470818 -0.019860366 -0.05885845 -0.02480018 0.06903176 -0.072529405 -0.07563139 -0.109733604 -0.046973895 -0.039439306 0.15457232 0.18794666 -0.11216461 0.013166135 -0.011283776 0.32014778 -0.10883065 -0.085676886 0.045280304 -0.097122826 0.1201016 -0.21004888 0.112431124 0.08039762 0.09256112 -0.17232294 0.051756896 -0.19408809 0.0045693764 0.25129712 -0.14581546
346 0.15699086 0.065536015 -0.23484227 0.06067686 -0.009089691 0.10898462 0.019056704 0.13468355 -0.03865532 0.270112 -0.06196378 0.35718468 -0.07627056 0.03958777 0.038864646 0.33323646 -0.12326058 0.05436194 -0.2536524 0.08555936 -0.2038932 0.11785013 -0.20324993 -0.087516434 -0.31012732 0.066759326 0.044570345 0.14621682 0.121338025 -0.025098346 -0.2083061 0.10430135 0.016913133 0.08380504 0.19163603 0.13260001 0.022869995 -0.051464483 -0.0074144416 -0.22796077 -0.050621726 0.14898477 0.06722134 -0.08530677 -0.10025961 0.0011030143 -0.18173003 0.0021123094 0.05737783 -0.040910598 -0.2508299 0.26377985 -0.015111467 0.23414408 -0.015097235 0.15411085 0.11496558 0.057526276 -0.036751002 -0.0008943736 -0.09972042 0.28521737 0.20035048 0.066953525 0.25345033 0.22707754 -0.19319467 0.16017015 0.045615442 -0.15079835 0.074213766 0.015707498 -0.20709683 -0.10939162 0.056660637 0.028157119 -0.40333143 -0.03302383 -0.21802041 -0.06119928 -0.23232917 -0.15847385 0.09232828 0.13308933 -0.011514892 0.20771137 0.13137086 0.0011620469 0.059370473 0.10056664 -0.02484423 0.12926628 0.15359029 0.075702146 0.24109457 -0.09677244 -0.22688773 -0.09060749 -0.15831257 0.1334068 0.12607734 -0.009432104 -0.08171352 -0.08981556 -0.01094148 -0.08414833 0.3203916 0.15160829 0.04352153 0.26161444 0.13722445 -0.0684675 -0.06147304 -0.08010749 -0.44626993 0.2327075 -0.14600304 -0.22052956 0.0199344 0.06918618 0.02523698 -0.11769886 -0.053255916 0.06713858 0.13759784 0.18816686 -0.19933738 0.1852907
1 -0.08338397 0.09720065 -0.17323284 -0.09678495 0.1076891 0.0669444 -0.10096671 -0.00068000663 -0.0084066205 0.16326168 -0.14323671 0.11062098 -0.01752784 -0.050728623 0.07243997 0.11017277 -0.077869825 0.1957333 -0.012290622 -0.0718098 -0.19994217 0.23924528 -0.13620202 -0.21933156 -0.09825965 0.23726545 -0.016724883 -0.03287407 0.039946936 -0.48898712 -0.1581605 0.17444788 0.032043554 0.031202443 0.029921504 -0.03731339 -0.05941889 0.06912161 -0.0060528857 -0.17689729 -0.18934374 -0.12730497 -0.0058475733 0.027545577 -0.056888036 -0.12286111 -0.22434452 -0.039704904 0.084874146 -0.024728913 0.06953571 0.16275138 0.029198818 0.051867567 0.07194533 0.16636127 -0.013741297 0.26655897 0.013303981 0.07609183 -0.19321664 0.047716733 0.13067605 0.109735236 0.23496398 -0.17392635 -0.26660016 -0.052638695 0.13955408 -0.20142454 -0.044004276 -0.21824506 -0.1219059 -0.032853283 -0.02426531 -0.15773806 -0.346982 -0.039137885 0.073775 -0.21808802 -0.2496439 -0.012167977 0.15978584 -0.034393996 0.10387862 0.27146316 0.08439221 -0.0143877175 0.1846652 0.21031108 -0.19671188 0.16098486 0.27353132 -0.025802141 0.26655096 0.1431083 -0.2822211 -0.14956748 -0.050169837 -0.15927827 0.23146 0.085212834 -0.056294415 0.11113828 0.07830991 0.03444963 0.17153707 0.12448553 0.03582274 -0.04535148 0.11780233 -0.14123887 -0.07851581 0.0066161198 -0.4245066 0.048603307 -0.16225533 -0.10828489 -0.015261547 0.17202073 -0.1615393 -0.098683156 0.0081002265 0.20961404 -0.027862586 -0.14432625 -0.18905902 -0.08481465
9 0.10743574 -0.1531071 0.018391732 0.09186071 0.06889517 0.030647593 0.14825638 -0.14658496 -0.08580318 0.14508304 0.08672002 0.10999294 -0.08405253 -0.092800595 0.16536933 0.047444258 -0.18332 0.055007774 -0.033191543 -0.0085543925 0.041812897 0.13771749 -0.09940276 -1.7346747e-05 0.00030285088 -0.0021243729 -0.059552275 0.15581347 0.21464251 -0.1280239 -0.14539665 0.020057622 -0.053996447 0.06662014 -0.050806746 0.17624299 0.15658171 0.11958178 -0.0027887763 -0.034983188 -0.14285375 0.021885136 -0.055983797 -0.11416566 0.13884163 0.1129633 -0.14751007 -0.1725223 -0.08320213 -0.0544219 -0.09778628 -0.03611429 0.013575959 0.14566658 0.05287042 0.033168588 0.0007129796 0.03557929 -0.07567376 -0.13745105 -0.015217533 -0.10920759 0.03113867 0.028977377 0.0826894 0.07722893 -0.026316384 0.036058813 -0.14827913 -0.1761484 0.018807083 -0.23864079 -0.0064403703 -0.12168107 0.10863383 0.051061656 -0.003582178 -0.01260656 0.0065811537 0.08465237 0.009547498 -0.023041869 -0.074745595 -0.020804709 -0.030725729 0.017056096 0.10711335 0.062260706 0.1734132 0.09753653 0.01223601 0.0026795887 0.16137545 -0.011676326 0.05684333 0.24194163 -0.070939176 0.067194924 -0.08609633 0.06189509 -0.12791361 -0.058706403 -0.16100468 0.03105876 -0.052282482 -0.015935415 -0.00196506 0.047558844 -0.025185082 -0.23251145 0.056630403 -0.13763684 -0.024840243 0.108105466 -0.08427327 0.06876655 0.0319463 -0.06431315 0.121911384 -0.15344755 -0.061088815 0.0053250003 -0.012295377 0.043983858 -0.16006371 -0.04281201 0.16721381 -0.116047345
17 -0.07855177 -0.17232172 -0.1710823 -0.11175198 0.041087843 -0.04895583 0.015092683 -0.13462342 -0.033444557 0.1274774 0.1796731 0.3147111 0.025359375 0.1228278 -0.16113825 0.20157012 -0.2148398 0.09705803 -0.157334 -0.00919042 -0.2474675 0.26807275 -0.13512199 -0.1521736 -0.027760286 0.23820603 -0.08810978 -0.010514499 0.37132472 -0.37593237 0.034694307 0.17441797 0.18214668 0.16624503 0.0066081025 0.2203929 -0.26522243 -0.064631775 0.0056741866 -0.26589572 -0.052245613 0.24639025 -0.12200908 0.05399543 0.19782943 0.06777577 -0.21705902 -0.10089975 0.11606094 0.07825229 0.23687471 0.15457809 -0.030043699 -0.027428746 0.041567147 0.18133116 -0.043392852 0.15509303 0.00441247 0.1842347 -0.20657183 0.17137165 0.12680507 -0.003087783 0.0784918 -0.043158285 -0.08623157 0.14655693 0.08014962 -0.08488553 0.06438164 -0.06723086 -0.2514517 -0.11122635 0.08845746 -0.033983707 -0.20255245 -0.1096013 -0.18812619 0.07678908 -0.10348509 0.07643924 -0.0860268 0.08615514 0.07682359 0.22554645 0.030995768 0.110359624 0.07246618 0.16458848 -0.20614055 0.15936308 0.40011296 -0.07479366 0.2886137 -0.037597496 -0.3202599 0.20992924 -0.13761987 0.06322577 0.050510854 0.08856835 0.046684153 -0.0662329 0.27260107 -0.0070166285 0.33869836 0.11556667 0.085135356 0.088906065 0.11362664 -0.16514128 -0.064215146 0.076439075 -0.38772616 0.2132794 -0.014557539 -0.12450504 0.03247997 -0.0017378503 0.09630481 -0.013992435 0.040377904 0.20277657 -0.041099176 -0.07850784 -0.09387259 0.02073386
22 0.028426081 -0.18136777 0.35479173 -0.2157471 0.5278132 -0.1995309 0.3458993 0.023440916 -0.13613643 0.021331435 -0.25106183 0.16442247 -0.112919435 0.075425744 0.08103746 0.03771516 0.02835304 -0.14422761 -0.20545854 0.22419883 -0.15707767 0.1854735 -0.25286126 -0.06502229 -0.04693467 0.42754883 -0.32674062 -0.009384378 0.083503075 -0.09162104 -0.14486861 -0.24564432 -0.12620443 -0.090178624 0.0056212354 -0.0744651 -0.113619104 -0.18617651 0.3361486 0.010342481 -0.20855644 0.42984655 0.073442325 0.17125167 0.0954814 -0.03594495 -0.1946934 0.21439251 -0.23309056 -0.056222416 0.06539294 0.3038451 0.00079907256 -0.10639583 -0.04669873 -0.15653165 0.012752182 0.15009473 -0.025523439 -0.41205308 -0.21074666 -0.3027602 0.15607934 0.19285607 0.20811921 0.23330376 0.08039087 0.3056562 -0.43251368 -0.12582052 0.10004443 -0.2517848 -0.14367399 -0.11551743 0.0014326831 -0.03909298 -0.28105792 0.048054937 -0.09683814 -0.30094764 0.004850509 -0.04752597 0.18242095 0.01851537 -0.14086778 -0.20471415 -0.3087105 0.114237964 0.048031628 0.30763435 0.26146793 0.107670486 0.1676958 -0.045839105 0.103731155 -0.10887314 -0.04426839 -0.03441967 0.4127182 -0.0422695 -0.0829974 -0.20251341 -0.27691287 0.32323486 -0.011018096 0.14151718 -0.08902947 -0.07642519 0.07052748 0.14276999 -0.022894217 -0.015991662 -0.105999336 -0.055456392 -0.1004553 0.179912 0.086596236 0.07821105 0.023817498 0.06875043 0.12359562 0.13428773 0.12491909 0.023554262 -0.1368118 -0.18503417 0.19939145 -0.17653662
60 0.09855159 -0.16432999 -0.06623042 -0.12222823 0.07524205 -0.029616574 0.038577136 0.0065824585 0.08856743 0.11033755 0.22390097 0.08596058 0.11367025 0.10437347 0.22273345 0.030695466 0.01524873 -0.005824481 -0.061537255 0.03093906 0.082511954 0.16568302 -0.0040087104 -0.0770068 -0.08904302 -0.036266237 -0.0011192078 0.011315863 -0.06077873 -0.23386331 0.14133646 -0.15272921 0.14016846 0.035292536 0.09629883 -0.01624928 0.07430091 -0.06054675 0.050804418 0.12941147 0.006026342 0.14585471 -0.18123682 -0.100285836 0.0663553 0.0075700413 -0.03599811 0.074975766 -0.021127917 -0.09914832 0.1807612 0.017120577 0.02524418 -0.03189586 0.22100656 0.08882752 0.11696569 -0.09179982 -0.14203489 -0.2648416 -0.14392127 -0.16233203 0.17435464 0.16007763 0.0001375601 0.034782775 0.012308249 0.21687871 -0.09279924 -0.14798522 -0.18385565 -0.15154207 -0.19544952 0.04901833 -0.062471047 0.045113124 -0.018355258 -0.119015224 -0.16171397 -0.21627161 -0.10264228 -0.054268155 -0.012124121 0.0075462544 0.055697482 0.10463433 0.05904675 -0.0916194 -0.05457743 0.01742203 -0.17849728 -0.065944955 0.0535964 -0.10575169 0.18597981 0.113772325 -0.28764963 -0.11567268 -0.059510045 -0.063381284 -0.04929922 0.19044045 -0.14506577 0.12713307 0.031066785 -0.14826423 0.1285222 0.08169978 -0.27708733 -0.12249914 -0.02301908 -0.08814034 -0.016594954 -0.015650503 -0.1439074 0.09904518 0.12279632 -0.105794035 0.04533838 -0.01492235 -0.076054744 0.006900283 -0.05171082 0.07071681 -0.13696818 -0.18743299 -0.12482319 -0.07352476
64 0.00844198 -0.23105733 -0.02029907 -0.09227043 -0.050552048 -0.020171583 -0.021748578 -0.052764982 0.034515858 0.03385806 0.12912178 0.020085493 0.022652688 0.019540764 0.14412528 0.07185271 -0.0754949 0.026245272 -0.116697155 -0.013432248 0.07265185 0.0005919314 0.008771085 -0.0070257103 -0.11950515 0.13109183 0.08506762 0.1633186 0.086943604 -0.3186949 -0.039826415 -0.15686238 0.056401882 -0.007869279 0.10665987 0.227944 0.18449278 0.057124916 -0.08334586 0.112532 -0.03229998 0.092048906 -0.09039329 0.09620701 0.12890273 0.16290125 -0.10286158 -0.24428073 -0.11277394 -0.08132556 -0.0816514 0.10922022 0.026088985 0.07317674 0.16151033 0.006776036 0.06274823 -0.08051636 -0.07197502 -0.08141883 0.05421067 -0.11599786 0.17943531 -0.02513816 0.12236564 0.18616192 0.07035241 0.15198056 -0.20689593 -0.11321183 -0.065706514 -0.15627414 -0.17258507 0.029028852 -0.08431095 -0.019916957 -0.17286928 0.00045603854 -0.108538054 -0.049826 0.076188885 -0.116865255 -0.0009846438 0.074170776 0.08223223 0.052133217 0.089322224 0.06928498 -0.017890055 0.18667169 -0.0053234883 0.020598829 -0.0027106483 0.019947471 0.11864162 0.13800754 -0.11411151 0.03428028 -0.093627855 0.0025411549 -0.15080468 0.089973785 -0.020372849 0.14453185 0.00080749526 -0.2289911 0.030911734 -0.05948067 0.06939978 -0.13289396 -0.20438296 -0.16180885 0.12324285 0.057240494 0.02623467 0.11353627 -0.018598974 -0.010848848 0.056639902 -0.0870216 -0.06250757 0.06028309 -0.014705086 0.061004993 -0.038521957 -0.23332733 0.063931115 -0.064615086
71 -0.013543222 0.18546018 0.0061496035 -0.07453324 0.098546885 -0.20262732 -0.06931579 -0.087739915 0.03046677 0.14445882 0.031475447 0.046196252 0.06352169 -0.04718716 0.22850871 0.10953064 0.036954165 -0.13063315 0.10235517 -0.16068992 -0.02334822 0.31266734 -0.53123933 -0.25267798 -0.009408865 0.21611461 -0.0054371934 0.038931474 0.19703113 -0.32662734 -0.23211442 0.16013049 0.110209994 0.14759248 0.05032022 0.009040173 0.15162368 -0.016084278 0.27818015 -0.12679583 -0.08969933 0.066272154 -0.08246184 -0.31044602 0.1747067 0.12041069 -0.06703386 -0.1561301 0.011805017 -0.051443554 -0.025954697 0.2314937 0.12391201 0.02539229 0.21937095 0.083993964 0.06938577 -0.14856645 -0.2903577 -0.15410967 0.050883614 -0.31789324 0.23891352 -0.28416753 0.09531894 0.23241588 0.04039694 0.08439439 -0.05984157 0.2414685 -0.10538732 0.27696943 -0.0013387206 0.091551274 -0.037461977 -0.11729443 -0.22629857 -0.039704237 -0.15559997 0.20584697 -0.02210298 0.08525566 0.14586228 0.15717623 0.2265902 0.30183324 -0.12767297 -0.08981987 -0.036880597 0.041955866 -0.06876934 -0.122111276 0.0004897986 0.01626933 0.08138352 -0.21861771 0.07696994 -0.022649031 -0.1000765 -0.38008967 0.0145695405 0.2660321 0.048005592 -0.061785206 -0.009329924 -0.19262576 0.08004085 -0.025501551 0.05942014 -0.3374548 -0.050925907 -0.05667526 -0.04706759 0.04990187 -0.13908741 -0.29657137 0.16858755 -0.35237545 0.058013674 0.14138488 -0.06843198 -0.034606263 0.010785953 0.062167645 -0.053893138 0.1732658 0.09700795 -0.08148673
83 -0.1995083 0.06897368 0.15473133 -0.11441603 0.10088295 -0.061723977 0.018681359 0.07162546 0.00035747924 -0.05838352 0.057070427 -0.15866698 -0.17376849 0.036511853 -0.017130923 0.21471033 0.019505933 -0.25480303 -0.06829002 -0.11428169 0.20934021 0.09384043 -0.1373898 0.15831712 -0.38935673 0.1265821 -0.065780975 0.16481733 0.04114884 -0.37548885 0.03408287 -0.18092628 -0.07101294 -0.04766345 0.04914141 0.17546493 0.18718222 0.13423046 0.008342789 0.05454548 -0.08505458 0.24094427 0.043528672 0.06883099 0.016891384 0.024389075 0.16620325 -0.1539014 0.0344578 -0.06592903 -0.15999791 0.18554664 0.08153892 -0.1620072 0.20115642 0.04043012 -0.026101049 0.008090267 -0.15413265 -0.042696584 0.053211488 -0.22377121 0.19535443 -0.2800066 0.10124318 0.15574831 -0.0030740658 -0.13561782 -0.044934884 -0.18698579 -0.13364571 -0.09239483 -0.1476231 0.03767406 -0.0066552265 0.015915474 -0.164054 -0.21921921 0.13072309 -0.051438984 0.037302993 -0.10221005 0.04730338 0.20219204 0.007873715 -0.020595133 0.13907434 -0.1948543 0.1977949 0.024380308 0.10052526 0.08085 0.23460673 0.038815524 0.18151237 -0.03243233 -0.0658741 -0.09344984 -0.108907744 0.05075819 -0.13391617 0.203819 -0.06871214 -0.053675555 0.30115196 0.095183015 -0.13116904 -0.18761782 0.15950255 -0.012939507 0.12228882 -0.08888304 -0.023893937 -0.1969125 -0.11206197 0.10187378 -0.07603834 -0.17816998 -0.039318807 -0.18862808 -0.080754206 -0.0706898 -0.10042955 -0.14224859 -0.15887544 -0.09951714 -0.18037045 -0.10024819
93 0.013158976 -0.1774633 -0.009091345 0.01402096 0.15901214 -0.087833904 0.054453082 -0.0032984382 0.122053616 0.35475615 0.029362096 -0.03444386 0.08370054 -0.18127352 0.013544532 0.20045084 -0.046763275 -0.012427748 -0.25061968 0.012764912 -0.01647822 -0.07869925 -0.10611556 0.066912465 -0.20988072 0.14763473 -0.08766487 -0.09189509 0.15361826 -0.30761456 -0.038713455 0.007670206 0.23755291 -0.10155252 0.12149489 0.011181749 0.24300846 -0.07195729 0.030097116 0.019093337 -0.12656713 0.012802105 -0.054688856 -0.13982324 0.096184045 0.079369076 0.0737051 0.106081896 -0.21772379 -0.09399507 0.023175178 0.09046106 -0.0795524 -0.21382041 0.17872588 0.2019901 0.12475537 -0.06621044 -0.02781557 0.102987 -0.17404196 0.20985301 0.15348144 0.080528624 -0.058318347 0.091218226 0.06337709 0.18400589 -0.08617009 0.15600242 0.048172932 -0.12316084 0.096617416 0.1929743 -0.106486924 0.008435578 -0.06365206 0.043145403 -0.011179619 0.144269 -0.061415717 -0.07159488 0.044855844 0.20699893 -0.14786103 -0.056537297 0.11174528 -0.0627594 0.06312374 0.0812978 -0.09370872 -0.08031308 0.32266736 -0.16906247 0.17764235 0.054600105 -0.12437629 -0.0058367467 0.07726438 -0.21531174 -0.22092564 0.13217373 -0.26372308 -0.100054964 0.02152492 -0.021257557 -0.17663573 -0.13397686 0.20476721 -0.08282562 -0.007109112 -0.09696767 -0.22951461 0.16717717 -0.33156732 0.081240915 -0.007136369 0.02334926 0.100730434 -0.005757236 0.0011024213 0.123339586 0.08231736 0.051514417 -0.13341196 0.15031801 0.064273044 -0.015829831
96 0.087943085 -0.021886285 0.44860217 -0.09634012 0.37195343 -0.04573948 -0.016075809 -0.019100085 0.11233468 0.006795078 -0.052324787 0.05414887 -0.16084665 0.19213572 0.10216626 0.1885189 0.061825365 -0.27450058 -0.11468571 0.1616819 -0.031936944 0.013314805 -0.0029771284 -0.08051134 -0.35833782 0.22366461 -0.04991158 0.09665825 0.25324237 -0.22406396 0.033307236 -0.35990256 0.050183237 -0.033432256 -0.22686 -0.027536727 -0.03862407 -0.02215011 0.43703154 0.061968092 -0.28316444 0.11385735 -0.16143 0.006643658 0.09295263 0.041283898 -0.23982605 0.06968933 0.042687055 0.027955087 0.17047417 0.32716948 -0.022658337 0.1341241 -0.04912662 0.022015825 0.42335016 -0.049436145 -0.41231754 -0.1114569 -0.10192833 -0.053549442 0.06141091 0.07552359 0.08175834 -0.06662246 -0.33131036 0.2706628 -0.37679473 0.013963099 -0.18109952 0.023050876 -0.02655103 -0.13059965 -0.038919087 -0.11303741 -0.2681707 -0.087150075 -0.26330483 -0.15781577 0.017377958 0.03282592 0.080937035 -0.21636194 -0.26001784 -0.25153098 -0.1231298 0.12145851 0.096439905 0.4330711 -0.020121986 0.26407492 0.2112138 0.10974364 -0.11215874 0.0059122215 -0.20557705 0.014201901 0.15314838 -0.06467824 -0.42520082 -0.13219954 -0.03240584 0.022620512 0.067796364 -0.11393305 0.13350372 -0.13385351 -0.13960126 -0.020229546 -0.29039466 0.028763626 -0.10663031 0.0057888017 -0.22786607 -0.11479335 -0.11002119 0.28194597 0.09504074 0.026390055 -0.037798617 -0.029425306 0.043579902 -0.029331706 -0.118562736 0.048623268 0.049775664 -0.13258709
103 -0.100366876 -0.012737984 -0.16086948 0.10773969 0.03175811 -0.037917607 0.02042304 0.13474497 0.11931444 -0.00793555 0.0660579 0.059381574 -0.1422501 -0.037828688 -0.0020190785 0.06553606 -0.07579231 -0.08049268 -0.0061623827 -0.031943977 -0.0352937 0.13078038 -0.17364468 0.07914471 -0.09851024 0.086546786 0.039300866 0.042391684 0.08799582 -0.047106713 0.024542073 0.1410845 0.026789643 0.100901544 -0.12425805 0.025396157 0.17530222 0.08796878 0.08655611 0.025154801 -0.012313147 0.13574058 -0.0793557 -0.054578256 0.046470072 0.17649147 -0.17845465 0.06337912 -0.17959784 0.035025585 0.025859453 0.17655279 0.14864841 0.002906021 0.10547609 -0.05436228 0.15363215 -0.054246232 -0.07560532 -0.03886104 -0.08953901 -0.007795756 0.05413557 0.14655185 0.06612402 0.0587219 0.059395485 0.1795821 -0.0726226 -0.10457877 0.0015578602 -0.20444167 -0.06958268 -0.017171955 -0.080190495 0.10589448 -0.08391245 0.027081339 -0.0040464 0.012372396 -0.06241284 -0.09725161 -0.010941835 0.010887432 0.024778398 0.044242386 0.10436785 -0.10853719 0.18620642 0.17228542 -0.069508955 -0.1732841 0.08459102 -0.08182388 -0.110082716 0.06860334 -0.046169773 0.052814532 -0.029175455 -0.081567384 -0.04072851 -0.0049094413 -0.09453049 0.012174375 -0.034918115 -0.015475049 -0.13674982 0.08398614 0.047644004 -0.23319294 0.015414384 -0.12299626 0.008787481 -0.08236666 -0.18850729 -0.024427967 0.06405906 0.035016898 -0.11621447 -0.04803926 -0.062231712 0.016248684 -0.16363186 0.13326974 -0.031245504 -0.07223479 -0.16851951 0.0354829
108 -0.009151348 -0.08540609 0.032537162 0.0987189 0.01630695 0.103903234 0.04429087 0.04332 -0.10656794 0.070403814 0.12701732 0.0033789156 -0.13905597 0.12871945 0.05211459 0.28558183 0.097952634 0.07159765 -0.1184359 0.014873311 -0.13925734 0.09745625 0.053620987 -0.1842411 -0.062280055 0.047239035 -0.09540697 -0.013733932 0.03097722 -0.26567334 -0.24198768 0.16463318 0.10179656 -0.14847644 -0.19968377 -0.10083349 0.34143946 -0.14745106 0.086623915 0.037964083 -0.08761841 0.11024213 -0.020189444 -0.18682782 0.052667577 -0.007772687 -0.08113459 -0.14526224 -0.07037449 0.16512671 -0.15577932 -0.07790329 0.16435711 0.10510892 0.14930713 -0.088870026 -0.036634877 0.04647599 -0.15408358 -0.14206558 0.11876718 0.049525354 0.0070338477 0.12310504 0.15277167 -0.013762714 -0.08576646 0.023060186 -0.22386023 -0.1057837 0.061696142 -0.31706685 -0.040351845 -0.04809655 -0.2921839 0.028373338 -0.1200928 0.016959447 -0.166579 0.029273232 0.083087176 0.06647024 -0.021074718 0.065125614 -0.06874342 0.15596585 0.09839808 -0.20820625 0.006469646 0.032640163 0.03283771 -0.21837409 0.16172378 0.065044 -0.03361568 0.03632949 -0.18028791 0.052204825 0.010412705 -0.048519596 -0.036378883 0.0416464 -0.09033794 0.14435013 -0.0044777184 0.09136999 0.0230424 0.04713197 0.14788377 0.013973699 -0.14348404 -0.048317686 -0.008579797 0.14281209 -0.073279396 -0.1384365 -0.21174237 0.08377881 0.080238804 -0.040654894 0.0833267 0.039471216 0.014858088 0.009189254 -0.08206954 -0.08118889 -0.06623586 0.012003441
109 -0.085685454 0.0017785174 -0.055619568 -0.007333191 0.029939838 0.049918808 0.022136502 -0.03459172 -0.00963841 0.043535646 0.023309855 0.28641978 -0.17232583 0.050701074 0.20730284 0.13390633 -0.1793798 0.020406632 -0.18838428 0.03388616 0.03559578 0.19849803 -0.14895609 -0.011169275 -0.19621643 0.06308001 -0.01023661 0.10680209 0.121235274 -0.04654774 -0.036107402 -0.086034775 0.043345466 0.03315847 0.09760054 0.022266261 0.016390776 0.06846432 -0.040510774 -0.113292724 -0.23608345 0.21244659 -0.08744836 -0.13429321 0.055442024 0.19654173 -0.1193231 -0.25217205 0.011746873 -0.024139458 -0.09166482 0.033495195 -0.03042531 0.1105197 -0.031532854 0.15070914 0.025456168 0.089445755 0.23382464 -0.06355079 0.06399089 0.1634 0.20293409 -0.036214698 -0.024346491 -0.1188305 -0.17932692 0.21187657 -0.078372285 -0.14452884 -0.010590614 -0.0014354853 -0.1360351 -0.15021253 -0.00037911948 0.16293779 -0.28319883 0.30128986 -0.061816387 0.02066822 -0.0066682063 0.18221453 -0.026829287 0.16409723 0.008902468 0.015611892 0.19331983 -0.18241778 0.07471481 0.113427885 -0.07188978 0.17530443 0.14640042 -0.006611911 0.28117445 0.17886652 -0.13820207 -0.07222604 -0.21706745 0.009302749 -0.06230552 0.06295048 -0.13422078 -0.028749952 -0.10253281 0.037223894 -0.034102775 0.029822316 0.12169409 -0.09365201 -0.050409414 -0.033310477 -0.0018395407 -0.08540052 0.02265429 -0.0053283107 0.044768166 0.121505365 0.046660732 0.029286012 0.029130531 0.013121522 0.05402954 0.21931215 -0.006912445 -0.12976071 -0.1768645 -0.010162608
111 -0.050485343 -0.23291448 0.13755222 -0.016888905 0.16756712 0.06791435 0.07870228 0.08021367 -0.04991277 -0.07485824 0.037745267 0.15917422 -0.08439054 0.092795946 0.15687495 0.09503458 -0.06744402 -0.14256449 -0.046724442 0.014311265 0.008564965 0.12251298 -0.035621244 0.0049727783 0.008019789 -0.0019121384 -0.072163604 0.14014556 -0.09840531 -0.13683067 0.16578013 0.027362838 -0.089670174 0.013500265 -0.08029768 -0.055463213 0.17806897 -0.1061112 0.05019797 -0.113892525 0.028201425 0.063987315 -0.018787242 -0.1321796 0.097671635 0.06292542 -0.15279393 -0.0045606247 -0.06304758 0.058784436 0.011923171 0.20872544 0.20077448 0.05594269 0.13193794 0.016077211 0.19120555 -0.12170212 -0.044774756 -0.030934177 0.03334009 -0.025372552 0.042140625 -0.026573054 0.15318602 -0.0189916 0.06717464 0.046051707 0.060511168 -0.24196331 -0.03043596 0.014793268 -0.121638075 0.0061383047 -0.076291084 0.101399824 -0.18215266 0.019596163 -0.08212751 0.048938017 -0.059215095 0.07116754 -0.040168256 0.028374279 -0.07442208 0.06991796 0.05930217 -0.07582425 0.08786398 0.101425186 0.09196434 -0.08278612 0.16747154 -0.05424355 0.10680351 0.20730868 -0.07535115 0.030339755 0.07739307 -0.11691016 -0.27390474 0.13451017 -0.08640393 -0.01869592 0.18536562 -0.070505634 -0.11984216 0.0899623 -0.005052277 -0.09239273 0.014634772 -0.13473587 -0.044107657 -0.060706243 -0.09694269 -0.09395855 0.040509433 0.018292658 -0.0060428176 -0.034030195 -0.14230813 -0.09660204 -0.025649223 -0.12285805 -0.21181163 -0.11904282 -0.063218534 -0.042058654
116 -0.014674008 -0.11386081 0.031320278 0.10717038 0.17709921 0.23322646 0.07937067 -0.049282797 -0.10962803 -0.016627869 -0.34792393 -0.14797615 -0.062041156 -0.10714208 0.16592833 0.19060668 -0.14208053 0.2667305 -0.04863195 -0.09592215 -0.08464918 0.16969498 -0.05463964 -0.2374993 -0.21213247 0.044268403 -0.0946961 0.018997459 0.089598276 -0.14522623 0.14362206 -0.10389152 0.33064193 -0.031956717 -0.004823997 0.17798205 0.24359006 -0.011753845 0.17275001 0.04232377 0.10112898 -0.14418328 -0.25183126 -0.10819277 0.09328956 0.15584071 -0.053063348 0.14658995 0.20450352 0.13765515 -0.08154375 0.19207747 0.0072830827 0.25603396 0.10227986 0.03762372 0.24398182 -0.20339379 -0.029625362 -0.12743942 -0.06479362 -0.001639461 0.10707701 -0.19649932 0.0156534 0.20766345 0.036298726 0.0008142894 -0.05856297 -0.08682694 -0.024344945 -0.09180708 0.1462603 0.04219013 0.20121902 -0.05220659 0.09535726 0.27523726 0.011534879 -0.25987512 0.062990114 0.057561267 -0.00025048218 0.0040596677 0.32238287 0.06492395 0.07728546 -0.028672013 0.20852615 0.24249673 -0.2679896 0.041454446 0.3532976 0.025009077 0.062203653 0.016472664 -0.018290766 -0.16058587 0.033449415 0.0072995424 -0.19643314 0.023381842 -0.12395038 -0.002015652 0.02907652 -0.10957839 -0.176147 0.3022175 0.27874866 0.05214743 -0.010779559 0.068157 0.1932249 -0.06835784 -0.1161563 -0.005576439 0.02266702 0.21877572 0.07055729 0.010033992 -0.033834327 0.15224564 -0.109087795 -0.096170545 -0.124242015 -0.041313432 -0.19359627 0.04160001
118 -0.33342287 -0.10504409 -0.03517463 -0.17818111 0.10491358 -0.1595836 -0.10707776 0.12688844 0.08031382 0.27821457 -0.19141354 0.03047158 0.18308099 0.044005957 -0.17074506 0.11520934 0.03733452 0.29700375 -0.0650461 -0.083822966 -0.03534507 0.27947643 -0.18934487 -0.04487015 -0.16775066 0.17032813 0.09103488 -0.08086859 -0.05158156 -0.39481556 -0.2322155 -0.06472723 0.13141195 0.0059533045 0.24781756 -0.05484543 0.06844309 0.04929078 0.03921968 -0.015801562 -0.040346995 0.033811066 0.0100583555 -0.14902653 -0.11258391 0.12930484 -0.3123486 -0.13072644 0.1020505 0.03766774 -0.013838672 0.18388048 0.16154598 0.38983777 -0.0011928614 0.18825343 0.09183282 -0.023654237 -0.05826946 -0.0023035496 -0.19835085 0.006033973 0.05135292 -0.042184412 0.13636504 -0.08793259 -0.30910686 0.14639609 -0.13942629 0.012389015 0.19689393 -0.09253429 -0.3541546 -0.15876941 0.13816029 0.061955094 -0.108840056 -0.14709616 -0.14977966 0.1720101 -0.05842711 -0.12488662 -0.13845214 0.030196205 0.014914501 0.18959706 0.22407992 -0.085502736 -0.016125286 0.31717855 0.065941356 0.19498232 0.20879862 -0.2726975 0.05548369 0.2923138 -0.25618973 -0.025172286 -0.15806057 0.025220038 0.17952666 0.15745081 -0.13985306 -0.094692804 0.16278763 0.064194016 0.053573772 0.025038522 0.3364195 0.09237084 0.2167902 -0.16973667 0.06371524 -0.03277773 -0.18219806 -0.00041704683 -0.17011976 -0.04953405 0.038693946 0.2976572 -0.037159253 -0.1421642 0.050038412 0.016374467 -0.16085252 0.21622398 -0.03519621 0.115818776
123 -0.15278065 -0.15555438 0.04610517 -0.03463812 0.15621407 0.08874976 0.037638795 -0.21554479 0.062886596 0.006409825 -0.008529317 0.08410562 -0.17652719 0.029668247 0.15578148 0.13422918 -0.14416571 -0.122757494 -0.08915768 -0.050914366 0.17209195 0.26655537 -0.10175082 -0.12583657 -0.0709809 0.15943897 -0.21177767 -0.11763792 -0.11621358 0.005774402 -0.06714478 -0.15144886 0.16090274 0.06802979 -0.12904212 0.06617614 0.22869705 -0.07121286 0.16876407 0.093384326 -0.017990626 0.10676639 0.07336223 -0.057697915 0.13313356 -0.13952374 -0.08085612 -0.17049098 -0.14895952 -0.04247543 -0.1717911 0.0064923684 -0.012857338 -0.017348908 0.22208624 0.007929119 0.19133197 -0.1717034 -0.15592887 0.0970654 0.12736091 0.10353244 -0.06299907 0.14061858 0.012083604 0.055306084 0.06840557 0.100669414 -0.24873379 -0.12675975 0.09849145 -0.2662257 -0.054382097 0.0012222362 -0.081543215 0.21255407 -0.044817228 0.08722829 -0.20265478 0.010622604 0.26033312 -0.028994797 0.0682524 0.008045114 -0.08507199 0.14358224 0.11808409 -0.14323485 0.012099838 -0.035961367 -0.07138756 -0.17813005 -0.027449092 -0.02307859 0.106359415 0.062251247 0.020890513 -0.024450729 0.035684448 -0.15021977 -0.029409785 0.05466705 -0.061822005 0.04657742 -0.036360618 0.26709574 0.09548778 0.05744173 0.0027984898 0.10728743 0.054609988 -0.20216547 -0.15810901 0.21643652 -0.15608448 -0.13814478 -0.1094167 -0.1228252 -0.12685546 0.09569895 0.014103667 0.2646288 -0.14963518 0.0241284 -0.0108629605 -0.004009948 -0.091778636 -0.11751931
145 0.18449962 -0.07921555 -0.046301395 0.17773633 -0.051579416 -0.11228574 0.25214088 0.06528448 0.11692273 -0.04270764 0.13587694 0.18283305 -0.04364889 -0.1321827 0.19633667 0.15284589 0.15258586 -0.014358634 0.015830968 0.060826093 0.11574735 -0.02116591 0.025159271 -0.28711447 -0.12490374 0.11366573 -0.017218646 -0.032963865 0.09698278 -0.21296988 0.12020294 0.059583716 0.07848671 0.04992902 -0.12046892 -0.068999894 0.06711792 -0.25356245 0.16794254 0.049668837 -0.08302633 0.14739303 -0.103299245 -0.02025532 0.030598294 0.12634414 -0.10871117 0.25439796 -0.08189829 0.09771957 -0.027087558 0.04501683 0.099967435 -0.10186373 0.1877935 0.034152437 0.018177528 -0.039362296 0.088571765 0.038258485 -0.04901783 -0.19341211 0.2001683 0.14149982 0.18926546 0.1341763 -0.07872955 0.13423704 0.08427028 -0.035915453 0.037945453 -0.1367095 -0.18818296 -0.095055655 0.012244708 0.04287024 0.01894857 -0.18930604 -0.15795222 -0.18638395 -0.011670579 -0.07687641 0.072618 0.2325589 0.018300984 0.13300882 0.10550422 -0.069975406 -0.09444213 0.14443678 0.1297757 -0.031773888 0.06914824 -0.056839127 0.015564525 0.22759685 -0.105644956 -0.2553712 -0.045278154 -0.08139211 -0.21459766 0.14651635 -0.16422221 0.037955157 0.15592107 -0.054025862 0.10176697 -0.009655249 -0.12364182 -0.10112447 -0.0013014777 -0.08661789 -0.0031293952 -0.16759661 -0.02756722 -0.009400475 0.0027566494 -0.15557565 0.0856982 0.05929189 -0.058986876 0.0063975295 -0.08956653 -0.15715809 -0.122669496 -0.067541316 -0.068734445 -0.09971782
209 -0.016658172 -0.20192082 0.04031851 -0.08499478 0.049749333 -0.09412882 0.063715644 0.00264907 0.076894246 0.022477562 0.07016932 0.053695202 0.07620145 0.03948433 0.18223907 0.060623065 -0.05686304 0.052458424 -0.0022942624 0.029670902 0.024544915 0.08780443 -0.12861805 -0.17303748 0.0023961023 0.07298335 -0.12650706 -0.04093672 0.1752787 -0.14923948 0.043445077 0.08479368 0.063348964 0.10389308 -0.037224397 0.012783972 0.07228028 -0.0507104 0.102241814 0.037876904 -0.106215835 0.110369764 -0.06595554 -0.118392386 0.0215187 -0.08764715 -0.045148343 -0.12736028 -0.07338494 -0.12068305 -0.036654726 0.19788948 0.0069680596 -0.1804478 0.04758641 -0.0002574818 -0.019980095 -0.082404085 -0.0876872 -0.17189021 0.04348774 0.03419998 0.01540144 0.12533665 0.0069502005 0.028010564 -0.12008902 0.21338885 -0.0056136916 -0.11240684 -0.118612655 -0.07853244 0.01828589 -0.040850863 0.0492232 0.09933489 -0.11103001 -0.059168216 -0.012545669 0.06285736 -0.060252395 -0.04305748 -0.04548145 0.026530873 0.046893463 -0.11276614 0.08680714 -0.15810347 -0.02297855 0.108144045 -0.06326843 -0.17585264 0.16531253 -0.11180631 0.2287632 0.1446677 -0.19082327 0.030240048 -0.012290558 -0.040702168 -0.054105826 0.112362705 -0.13125709 0.051266443 0.022593934 -0.19590388 0.020109233 -0.10049199 0.09124844 -0.008946563 0.08303336 -0.046686374 -0.085513994 -0.043327905 -0.22459409 0.06357297 0.04692251 -0.044365328 0.021004243 0.054768503 -0.28413594 0.006115147 -0.09323742 -0.06260982 0.0062503554 -0.23226652 -0.09361387 -0.14744137
248 -0.013950445 -0.11600814 0.07428466 0.13152708 0.14680687 0.06715559 0.14235407 0.09240815 0.10519733 0.061986428 -0.13310337 0.11199447 -0.10867647 0.052821055 0.25462848 0.1560704 0.06968079 -0.114185266 -0.09994716 -0.018457629 -0.13156043 0.18432783 0.01630037 -0.15265968 0.007259937 0.10053367 -0.051222418 -0.017429087 -0.13552955 -0.1750193 0.1478941 0.015758617 0.14027289 -0.0758741 -0.0050482675 0.053914838 -0.042155255 0.042198982 0.031256154 0.012772888 -0.027611341 0.15346843 0.09435293 -0.043982565 0.20013838 -0.01098716 0.015785297 -0.067388445 0.119417444 0.016815437 -0.11066852 0.18349016 0.1609251 -0.18093719 0.21748461 0.09014541 0.11306335 -0.046994504 -0.10121365 -0.029515065 0.15126075 0.035065714 0.024710909 0.12806 0.036997132 0.19288537 -0.07704033 0.22824302 -0.051969938 -0.11330522 -0.29275817 -0.17985171 -0.28320584 -0.056808237 0.13031815 0.21733429 -0.0844548 -0.1545829 0.11950327 0.09405014 -0.06752349 -0.020752313 0.12544657 0.15647785 0.18510789 0.072571665 -0.007994189 -0.021584675 0.18111226 0.09808844 0.0051691933 -0.12865551 0.17635144 -0.10185121 0.14653744 0.20741504 -0.14242934 -0.06619049 -0.1076462 0.17636447 -0.0654435 0.14636213 -0.076532304 -0.044550944 0.044865545 -0.1431415 0.1235546 0.13727145 -0.08963328 -0.012376727 0.111195765 -0.003918964 -0.005321103 0.16067366 -0.011047121 0.014460577 0.19470471 0.12960215 -0.026867062 0.020176062 -0.048542358 -0.073335074 -0.049964767 -0.13533658 0.044358633 -0.118114345 -0.06853267 -0.20110719
267 0.045936964 0.19663584 0.10624033 -0.13475062 -0.096100576 -0.11689769 0.04702215 0.06762851 -0.10320502 0.052357882 -0.048640095 0.3242922 -0.09174544 -0.018315023 0.2877923 0.23269966 0.1509427 -0.093940146 -0.10141705 0.1931906 0.18779317 0.062381096 0.015348292 0.0667391 0.004020537 -0.05913483 -0.27276385 0.2999492 0.012686945 0.034027677 0.06684228 0.12845144 0.09353603 -0.04889614 0.07727979 0.07021298 0.03748469 0.02760179 0.051800065 -0.009150877 -0.19804011 -0.091220036 0.05197719 -0.07882393 0.030209996 -0.024891255 -0.27486002 0.09249519 0.120574966 -0.04953701 0.12869944 0.14773138 0.07443144 -0.120769255 0.41977537 0.17316477 0.14276132 -0.007121724 0.04757309 -0.13501215 -0.09558487 0.05765293 -0.019514812 -0.10593549 0.0794512 0.05332727 0.04095189 0.21569824 0.01617738 -0.1382973 -0.07042061 -0.31056368 0.059313342 0.0028272395 0.042526845 0.22139943 -0.07529998 0.25020847 -0.33872038 0.035626635 -0.048522912 -0.20190254 -0.045634184 0.057126537 0.10960629 0.012110204 0.12557086 0.1904129 0.29904982 0.12967081 0.0788561 0.038582027 0.26163158 0.0028865973 0.1409122 0.037253413 -0.13863482 -0.10753755 0.089588374 -0.18993756 -0.030126585 0.31892446 -0.29945552 0.16405243 0.23303609 -0.016383702 -0.15979373 0.14805402 0.0082766265 0.14253823 0.015356687 -0.029216215 -0.15179297 0.0069295005 -0.01443921 -0.08980068 -0.13962768 0.14473297 -0.003902023 -0.12235633 -0.21101144 -0.09316395 -0.018590523 -0.2774705 -0.13908592 0.011777179 0.07216836 -0.15474935
296 0.03371234 -0.22480558 0.05302936 -0.020734943 0.0027154593 0.028407136 0.053559013 0.004974834 0.15008444 -0.18867026 0.034436796 -0.028689204 -0.09170177 0.15111122 0.0059347716 0.13699125 0.012273816 0.019941589 0.058634114 -0.038136866 -0.06615049 0.1501842 -0.016340457 -0.14296457 -0.189972 0.03340138 -0.020220561 0.029549455 0.019409887 -0.043950908 0.0107392315 0.043858375 0.0015517197 -0.0553773 -0.047006246 0.0399131 0.13258104 -0.029407086 -0.04814469 -0.08883697 0.081865095 0.084863335 0.031151412 -0.1424113 0.15887418 0.218172 -0.17760485 -0.04108708 0.083424844 0.066290274 -0.17876041 0.25318035 0.21654782 0.0069935853 0.053309824 -0.070225544 0.20479813 -0.08651817 -0.043233864 -0.17512882 0.030652573 -0.03220976 0.023735356 0.08980006 -0.06066517 0.1720188 0.014101368 -0.04323841 -0.057305228 -0.20658481 0.030772166 0.04084591 -0.07560728 -0.047607865 -0.017803581 0.03286691 -0.25875136 0.029541058 -0.04794478 -0.00048459807 0.10030632 -0.06721503 -0.09041175 0.09943889 -0.01960667 -0.00041747343 0.092549786 -0.14512068 0.0041736877 0.050473753 0.0355052 -0.0255989 0.2766334 -0.08681133 0.15025261 0.0381698 -0.081527315 -0.015396753 0.1241814 -0.11860321 -0.011112573 0.015020807 -0.12923028 0.039274625 0.017286686 0.06223305 -0.070012 0.050725404 0.12016977 -0.104228616 0.035990063 -0.12304881 0.08625384 0.10447101 -0.14103852 -0.071167216 -0.08480146 -0.11678954 -0.069137685 0.057359044 0.0016141863 -0.054915313 0.045217827 0.049954616 -0.23956805 -0.2797823 0.11618366 -0.13078384
300 -0.022130588 -0.18893665 0.009522194 -0.038916223 0.0035045021 0.024712365 0.04619533 -0.05446348 0.081943296 0.13921908 0.02951344 0.15257838 0.18792027 0.017844344 0.09296352 0.32483977 -0.27088323 0.31496564 -0.26643348 -0.07545304 -0.22663559 0.089057885 -0.21190442 -0.0040117144 -0.19532824 0.15495388 -0.10303111 0.10834321 0.2499906 -0.08357162 -0.38470548 0.10522205 0.029156644 0.17012352 0.036745824 0.16140386 -0.04764827 0.13482419 -0.065221235 -0.3700343 -0.17526527 0.21604756 -0.19836977 -0.16803087 -0.017193476 0.17969519 -0.24270794 -0.051011298 0.3382239 0.20189364 -0.17646597 0.09543995 -0.1553777 0.40389186 -0.03090103 -0.008113664 0.00085928146 0.13000627 0.19053 0.110401906 0.0023423405 0.11781684 0.072675616 0.19250031 0.20335644 0.08681557 -0.1323349 0.2650469 0.0709372 -0.09527787 0.22533545 0.02011657 -0.31925854 -0.11854018 0.047899384 0.05939177 -0.32009298 -0.20083903 -0.1518017 -0.111079745 -0.29421315 -0.07474265 0.17535377 0.12766765 -0.05489126 0.36211306 0.0600659 0.11197338 0.038027283 0.5001569 0.06609996 0.38676348 0.17644322 -0.16183436 0.2859408 -0.12022947 -0.17077246 0.16482927 -0.1203984 0.13438846 0.24230717 0.19472416 -0.17627098 -0.26348755 -0.05228966 -0.08027756 0.34897318 0.078779265 0.25146672 -0.023062257 0.0424232 -0.37068114 -0.14934613 0.13355882 -0.38792816 0.06091178 0.029500565 -0.09363124 -0.10723275 0.16007721 -0.028000493 0.0009002637 0.08448354 -0.07120095 0.092084765 0.20175824 -0.30241898 0.08500844
316 0.065863304 0.056372903 0.2179864 0.085767955 0.08369002 0.019358395 0.087643884 -0.07419853 -0.01317405 0.042237055 -0.016867755 0.22347085 -0.14370222 0.08370264 0.1234332 0.21171473 -0.07497162 -0.070628375 -0.15403275 0.024662523 -0.14320466 -0.0015841366 -0.07847731 -0.070969105 -0.11061055 0.27408582 -0.07842295 0.07638012 0.08719321 -0.27152884 0.002590465 -0.059638612 0.025145536 0.051434297 0.040481314 0.021119496 0.085860424 0.021455925 0.06315408 0.050679494 -0.24770711 0.1963786 -0.006096869 -0.18141405 -0.052659184 0.038044296 -0.22009024 0.00081605074 -0.10516167 -0.16520545 -0.17874925 0.116892055 0.011422631 -0.009763197 0.11435075 -0.14725187 0.11361043 -0.043622468 -0.21785857 -0.17427458 -0.14702655 -0.07325474 0.011995783 -0.09677854 0.06363708 0.18595687 -0.15774646 0.029023996 -0.10021419 -0.16272046 -0.024427112 -0.15508805 -0.11913284 0.0017715375 0.08805892 -0.020885397 -0.09536396 0.027623087 -0.14628488 -0.13893265 -0.05313197 0.061670683 0.019625148 -0.065259986 -0.008357137 -0.047231294 0.028052757 -0.025277974 0.09800438 0.1706545 0.11599062 0.028753769 0.11716228 0.015004447 0.002283305 0.26577336 0.026064439 -0.026693026 0.23260005 -0.16642164 -0.18167882 -0.055464413 -0.06050275 -0.05729529 -0.057301573 -0.1180925 -0.05805817 0.016372003 -0.053430855 -0.14955743 -0.05482734 -0.06541504 -0.007890272 -0.051305994 -0.14993474 0.19124536 -0.035326548 -0.17373808 -0.06617484 -0.04432981 0.06401986 0.05795045 0.121691555 0.036368616 0.06074223 -0.12083973 0.085193224 -0.042698447
317 -0.28608918 -0.2581117 -0.010429069 0.25127465 0.15397374 -0.14374301 -0.14883715 0.08207125 0.19041915 0.008432363 -0.11191493 -0.0644299 0.0049708895 0.1316074 0.017575368 0.07061482 -0.035577975 0.15495604 -0.08976525 0.05247543 -0.11952445 0.13969074 -0.12534367 -0.024624478 -0.13703346 0.19673379 -0.16500697 0.08683513 -0.057449818 -0.1296451 -0.16604695 0.06380231 -0.032379363 0.16363364 -0.12517187 0.19100352 0.12587292 -0.044785548 -0.035015866 -0.029406965 0.018076504 0.1704054 0.0711721 -0.17130399 -0.03672015 0.0012721742 -0.2428444 0.035662774 -0.037466727 0.0029935623 0.003963267 0.16682762 -0.050648283 0.041317593 0.13685912 0.17869778 0.06602549 -0.07292231 -0.14088744 -0.16269605 -0.0029354608 -0.07226449 0.10227512 0.014437852 0.052723434 -0.07561123 -0.20358634 0.054206632 -0.0018972286 -0.16036181 -0.053341653 -0.22257379 -0.10513901 0.115966804 -0.1024183 0.068154715 -0.18023536 -0.0074928184 -0.1359194 0.06625608 0.052884184 0.068254836 0.009990796 -0.011768826 0.034839027 -0.1201093 -0.023344053 -0.18218361 0.11649927 0.14391 -0.06274955 -0.11731427 0.026301116 -0.090855405 0.062645406 0.21830985 -0.021074394 -0.09453795 0.030656606 0.18793261 -0.20587257 0.07046416 -0.2585923 -0.010477901 0.14982422 0.028165923 -0.16280916 0.12199071 0.090181544 -0.011349716 0.04255623 -0.10758513 0.19720764 0.0017422899 -0.12949288 0.067642726 -0.18477553 -0.075200945 0.11259918 -0.025095789 -0.22373131 -0.12814105 0.043774236 0.0010342135 -0.20011076 0.23924014 0.17478323 -0.056019977
2 0.31764945 -0.009478787 -0.04417792 -0.08108425 -0.024888212 -0.05032947 0.023788882 0.27123174 -0.21634057 0.11902544 0.32235104 0.32233894 -0.22468275 -0.1922941 0.1863672 0.13347585 0.17130381 -0.20379971 -0.045709588 -0.104762636 0.051117852 0.08162912 0.18202505 0.08355871 0.014742778 0.034752946 -0.0710833 0.079937406 0.20689479 -0.05988373 -0.17417514 0.12403706 0.2157566 0.10320763 -0.11061693 0.077328995 0.003243149 0.21983606 -0.06056719 0.1494057 -0.46551764 0.25616854 0.08308927 0.14129506 0.14538184 -0.11871703 -0.36782372 0.027390536 -0.24755906 0.13785101 -0.12613632 0.12300351 -0.20314471 0.037882388 0.2851324 0.2660641 0.47119385 0.058423527 -0.10114821 -0.36451197 0.11964053 -0.113685906 0.21649353 -0.096843876 0.39328936 -0.2311805 0.07575207 0.335072 0.038742483 -0.06489662 -0.2935639 0.024460789 -0.017260445 0.14632225 0.2356548 0.18037504 0.12409635 0.33709037 -0.15895867 0.124658026 -0.3316956 -0.2561688 -0.112770095 0.14573744 -0.07303138 -0.098382466 0.25109965 -0.007379255 0.2730737 0.09632463 -0.011061447 -0.08793652 0.34816805 -0.12653661 0.23489402 0.08946862 -0.0069167716 -0.09177224 -0.063333385 -0.08749298 0.3315616 0.00044295535 -0.095876776 0.17523196 -0.18152216 -0.03796432 -0.07645308 0.28801185 0.096043654 0.11139619 0.14171785 -0.05009377 0.1820798 0.042889565 0.28378987 -0.037726127 -0.48655912 0.19021331 -0.024710577 0.10068071 -0.19125564 0.029025065 0.16776104 -0.19500075 0.051278215 0.23558147 0.01760456 0.19145004
40 -0.15790457 0.1095275 0.0004394346 0.06433842 -0.038664643 -0.12251712 0.19427933 0.09396464 0.086354434 -0.25696012 0.119472556 -0.11925423 0.07132405 -0.029109951 0.0056642853 0.17370558 -0.10142781 -0.09443735 -0.019547282 0.15882733 0.19167577 0.14114335 -0.026349325 -0.10594045 -0.16151223 0.25156283 0.08053963 0.11360842 -0.02068404 -0.19208114 0.115219265 -0.22051716 0.037492096 0.008127123 -0.0730358 -0.020607585 0.091267526 0.08990406 0.019837819 0.11951385 -0.095023565 0.061844792 -0.19194186 -0.0012043251 0.086923204 -0.06569452 -0.024557296 -0.061909713 -0.015507005 -0.08981021 -0.23454747 0.17253727 0.060960084 0.10831262 0.11327175 0.071078844 0.17273483 0.020026814 -0.21687882 -0.106202506 0.036045097 -0.019723866 0.1662517 -0.17170237 0.3105349 0.22396424 -0.28894278 -0.15583187 -0.0014813741 -0.1412436 -0.1310637 -0.22764038 -0.09605765 -0.1053948 -0.1339292 -0.10018524 0.0032210143 0.07303073 0.037516184 0.0075146533 -0.10881174 -0.2052563 0.006703947 0.178635 0.057558563 0.0907253 0.18314515 0.037119877 0.013125702 0.05912567 -0.014524705 0.03453783 0.1398651 -0.16805051 0.12488431 -0.028355613 -0.112588495 -0.11515045 0.1405207 -0.12385788 -0.32320848 0.13314506 -0.10179894 0.0018109503 0.029961592 -0.15454797 0.010020588 -0.04572063 0.061847974 -0.16551274 0.12617612 -0.009779105 0.04703786 0.09582491 0.1347042 0.10307183 0.01023017 0.1490745 -0.08973456 -0.05520077 -0.051592384 0.027289588 -0.116657585 0.17483722 -0.19811404 -0.053581547 0.032658532 -0.018575901
91 0.03378851 -0.14970478 -0.07777095 -0.008887073 0.04134535 -0.032961708 -0.09723068 0.045490354 0.029979924 0.092726536 0.2586692 0.08716791 -0.16728236 -0.20056024 0.083230875 0.18064062 -0.22117679 -0.10639608 0.099801175 -0.041507896 0.08814244 -0.18113388 0.09987126 0.08558612 -0.16122098 0.056911726 -0.14400555 0.016238319 -0.044076577 0.13271375 -0.20684722 -0.035677236 0.06478919 0.007806695 0.09433463 0.19621687 0.2726234 -0.26488537 0.11892441 0.031140266 -0.12601873 0.09313496 -0.019262115 -0.08256646 0.13443612 -0.12735547 -0.091522984 -0.021283302 0.080532126 -0.025629997 0.06859283 0.052358985 0.14216685 0.19669181 -0.060028244 -0.07023805 0.12935197 0.080375046 -0.28351906 -0.19886713 -0.0055160183 0.15022 0.093604885 0.10216585 0.14731163 -0.031903677 0.05252523 -0.033355094 -0.23073032 -0.058343284 0.21366075 -0.15058398 -0.21188155 -0.026823271 0.13655955 0.178515 -0.043448992 0.12665252 -0.08880033 0.19171588 -0.24893956 -0.004731467 0.050152533 0.07201776 -0.00010121251 -0.049900923 -0.045187887 -0.07329247 0.11949894 0.33132413 -0.13468026 -0.14364465 0.1173527 0.13035984 0.01378998 0.0058370996 0.05641831 -0.3550098 0.19592293 -0.09033446 -0.22599646 0.18435496 -0.096599326 0.10171537 0.002120745 -0.21580328 -0.14581698 0.09599646 0.012508014 0.07151882 0.08337934 -0.1317203 0.08228114 0.009402656 -0.07000845 0.10265064 0.19140546 -0.08467758 -0.1859619 0.03457397 0.06368851 -0.03856343 0.018992934 0.112404935 -0.04808377 -0.10794426 -0.113010764 -0.051001724
106 -0.079551496 0.019158497 -0.0049388357 -0.040020056 0.09151045 -0.012908405 0.018626142 0.14013098 -0.21972837 0.07063892 0.2639387 0.051481392 0.014551666 -0.2361644 0.13840833 0.22728907 -0.039076302 0.014792197 0.055288326 -0.04661719 0.14581342 -0.11798782 -0.020706395 0.0122144725 -0.036698725 0.12403422 -0.19405128 -0.17240556 0.10735608 -0.14755352 -0.06587545 -0.13388267 -0.056331005 0.023472559 0.01651022 0.13788986 0.1378557 -0.13859878 -0.012801905 -0.027363343 -0.084020324 0.18488698 -0.010599244 -0.12671995 0.06421836 0.007902377 -0.09689999 -0.21920402 -0.049314834 -0.15172973 -0.07616557 -0.026152892 -0.054743398 -0.042553734 -0.02061136 0.029660556 0.05805889 0.20127834 -0.30667692 -0.04138435 0.01670049 -0.025669973 -0.026840609 0.048593547 0.14645146 -0.057976946 -0.028526198 0.097768635 0.06496042 0.021204002 0.11933838 -0.10741769 -0.09376498 -0.055086892 0.0635772 0.13548665 -0.08514407 -0.012643022 -0.2131855 0.10502231 -0.122822955 -0.04934426 -0.116074085 0.18657327 -0.013517019 -0.031538427 0.0053633377 -0.059008095 0.06969928 0.14650689 0.011003796 -0.249584 0.24774754 -0.07129945 -0.057756186 0.078357965 -0.11933659 -0.1684169 -0.06559258 -0.017918516 -0.42074046 0.029618224 0.058272142 -0.01971813 0.19100718 -0.09494879 -0.026324162 0.1376335 0.17397444 -0.032185946 0.1571774 -0.21903346 0.08667897 -0.029060263 -0.16244295 0.20153861 0.15703629 -0.14480476 -0.039834656 0.05384301 0.14322297 -0.09187469 -0.084006384 -0.077745736 -0.19690892 -0.22355855 -0.18244556 -0.0017853812
191 0.13603652 -0.11089986 0.007580237 0.027922956 0.14871496 -0.10507057 0.07703619 0.102165885 -0.06564923 0.14959398 0.2206464 0.04473526 -0.18808936 -0.0874164 0.041945275 0.3400225 -0.14458467 0.062293798 -0.00076403614 0.08471048 -0.08737214 0.039575648 -0.0140198525 0.013022552 -0.13426019 -0.059988163 0.021102587 0.028992731 0.14723668 -0.10270313 -0.078334175 0.0014286865 0.26057413 -0.01890681 -0.0742392 0.315466 0.22532362 0.15356901 0.037624706 0.07939036 0.15348771 0.13335314 0.03222034 0.021906655 0.006857117 0.0704003 -0.23406085 -0.13774513 -0.1306236 -0.014028336 -0.005917216 -0.009470087 -0.01353572 0.031482592 0.19072905 -0.0959788 0.1013968 0.05950321 -0.18236324 -0.12947036 0.025095005 -0.06566298 0.10833754 -0.07193884 0.029041652 0.059868176 -0.07966277 0.040532313 0.1638621 0.14322063 0.15440807 -0.22269973 -0.12518704 -0.092783615 0.018247401 0.07638564 -0.17098863 -0.06689075 -0.058270704 0.16177708 0.037836522 -0.031098425 0.07423635 -0.087950744 -0.08851541 -0.14521442 0.105175085 -0.1326717 0.2586338 0.24708715 0.06198643 -0.05820049 0.13861457 0.08000614 -0.016354037 0.16399556 -0.081437625 -0.22665513 -0.0074717347 -0.10644865 -0.0716812 0.11876071 -0.07437288 0.08267364 -0.031560425 -0.023212424 -0.07602878 0.005578987 0.075725704 0.008410376 0.03015141 -0.03258242 0.0038410146 0.026241262 0.049594738 -0.10841944 0.15566777 0.070883706 -0.08785794 -0.015404484 -0.07405187 -0.14331661 0.010319347 0.12867779 0.1629839 -0.03943841 -0.09110397 -0.042475916
226 0.18814513 -0.056321457 -0.08833082 -0.058500923 -0.08437366 0.033631105 0.24375418 0.22479016 -0.04964083 0.1624649 0.13724117 0.29774448 -0.01028541 0.066570364 0.27445608 0.06337171 0.041420363 -0.15088338 -0.08815729 -0.15070175 0.09829464 -0.09219995 -0.055920906 0.04544774 0.060062837 0.0122649865 -0.045923308 0.025189752 0.17395115 -0.19628666 -0.22665401 -0.14180717 0.36036414 0.21707892 -0.10506744 0.17991953 0.11802204 0.2304244 -0.012069662 0.008893066 -0.24094024 0.17454016 0.094263844 0.23576571 0.08123397 0.110572994 -0.19630182 0.06447185 0.05611459 0.08694221 -0.02442609 -0.06574945 -0.13887261 -0.121588856 0.246821 0.34404683 0.31781954 -0.024386419 -0.20186628 -0.1469322 0.13698797 -0.033722863 0.23379724 -0.077966794 0.2132328 -0.36772093 -0.02890247 0.23697239 -0.00872135 0.16066247 -0.057369445 -0.12679377 -0.12382035 0.038308993 0.018658424 0.2296935 -0.28273252 0.26750118 -0.14379992 0.120876536 -0.33717844 -0.15115769 -0.018732851 0.047088403 -0.21248996 -0.069551356 0.083461575 0.26829115 0.33424047 0.024812702 0.02006913 -0.09188367 0.12889843 -0.020555228 0.30472422 0.012147627 -0.14026102 -0.019077692 0.26168308 -0.16158666 0.19859184 0.08981774 -0.2763501 -0.022997722 -0.12198314 0.00088166696 -0.112419724 0.19369382 0.22759925 -0.15705945 -0.04349957 -0.13165407 0.09705924 -0.15431571 0.25805646 -0.05138142 -0.23079097 0.038357355 -0.07253206 0.24184573 -0.081259646 -0.18543996 -0.033804767 -0.12579717 0.033617165 -0.101857506 0.08411067 0.076837696
246 0.016045315 -0.041889455 -0.03464305 0.0493541 0.27180612 -0.050436288 0.08302845 0.1557349 0.068102 0.26801506 0.17921458 0.2226536 -0.10251536 0.00013892468 0.118274786 0.28877965 -0.22323959 -0.020552797 0.06764625 0.06179931 -0.037841495 0.007185193 -0.06387039 -0.008244169 -0.068221115 0.13337964 0.02292542 0.10279533 0.1571028 -0.010249319 -0.023342201 0.060247757 0.45996168 0.10284595 -0.04166339 0.26966056 0.09812303 0.22882736 0.008010048 0.02035853 0.06728492 0.20546925 -0.059585623 -0.051748913 0.07331129 0.13375962 -0.2601864 -0.003567706 -0.032438625 -0.041310504 -0.050670784 -0.04825523 -0.044245016 0.03731579 0.1343955 -0.1526489 0.16930865 0.08731129 -0.24085763 -0.23517247 -0.1123324 -0.035518453 0.12325761 -0.14924714 0.005912371 0.0076429904 -0.18658842 0.0055789296 0.01177751 -0.037003018 0.20987645 -0.14312546 -0.15228893 -0.12555328 0.03105283 0.107664615 -0.100168884 -0.0094150305 -0.05852117 0.17578797 -0.025594255 -0.20808832 -0.082549915 -0.035566643 -0.064750284 -0.040147178 -0.06506095 0.006709053 0.18808982 0.023706587 -0.043163043 -0.18180686 0.17715582 0.19224763 0.077132896 -0.027932318 -0.009812603 0.011088072 0.0061289095 -0.06958543 -0.02906649 0.25192168 -0.13167888 -0.10532559 -0.037213545 -0.014517246 -0.12134398 0.12792471 0.13052022 0.13759659 0.17573817 -0.09161591 0.098844275 -0.019049592 0.123745814 -0.020997176 0.15979967 0.07836647 0.02583835 0.07021735 0.0008040111 -0.041933857 0.07703434 0.049486626 0.22135107 0.07159476 -0.14651474 -0.2028037
251 0.073316276 0.2651507 0.03560754 0.108799055 -0.037209503 -0.23895401 0.091149025 0.053944085 -0.34981456 -0.1356703 7.936182e-05 0.18120442 -0.22016396 -0.17753118 0.47398102 -0.011766728 -0.16237682 -0.16165736 -0.07302009 -0.11908067 0.097375356 0.18475327 -0.1363356 0.11257183 -0.24481286 0.111898676 0.118187256 -0.19014446 0.17561586 -0.16672969 0.09549296 0.19290245 0.35625672 0.1611352 0.12291568 0.2571965 0.10292954 0.028542811 0.15731224 0.23332281 -0.2533044 0.01679154 0.28405902 0.03736425 0.12587726 0.05075307 -0.23633376 -0.12766713 0.025282642 0.4284215 0.02231112 0.06953366 -0.0026277483 -0.09263485 0.267689 0.18914653 0.3425419 -0.12662514 -0.25410676 -0.15248853 0.23157781 -0.1785083 0.18548928 -0.14830256 0.14345533 -0.52554893 0.046933778 0.28359222 0.13648817 0.08132485 -0.14875007 -0.3832822 0.009247785 0.14901711 -0.085062794 0.27010214 -0.088292 -0.006388161 -0.019789731 -0.24805525 -0.30804345 -0.2343128 -0.034398533 0.096723095 0.2084755 -0.1256124 0.24525402 -0.01741446 0.42881098 0.10317205 0.17086342 -0.115081854 0.103273205 0.08728625 0.4849893 -0.3590406 -0.22027276 0.15050316 -0.03335095 -0.024634164 0.10452245 -0.048032682 -0.09455025 -0.15793194 -0.43288085 -0.09818935 -0.104692616 0.23208389 0.24068463 0.18199953 -0.07273475 -0.2513131 0.16883965 0.10334878 0.3315712 0.13736758 -0.077977486 0.036059678 -0.07204478 0.18470645 -0.050325308 -0.15970688 0.07192938 -0.25398958 0.042932663 0.12199799 0.2602167 0.08133851
287 0.30396467 0.014429218 0.043764286 -0.07814479 -0.18830511 -0.092518635 0.1664507 0.17406105 -0.18920217 0.2664987 0.18374032 0.37497896 -0.17855631 -0.17286456 0.21108052 0.28514728 0.0042215176 -0.14843851 -0.38631392 -0.15972905 0.018369783 0.10085983 0.16193634 0.038811706 -0.013122259 -0.08380386 -0.14057222 -0.006131282 0.047113154 0.09897028 -0.041104 -0.112088665 0.21354604 0.040424675 0.050947204 0.027630577 -0.061157852 0.05856854 -0.019779177 0.114151634 -0.2769601 0.06095754 0.19827425 0.1957436 0.18714026 -0.06980409 -0.41317296 -0.0007012938 0.025865365 0.1330002 -0.1647594 0.067342505 0.05363965 0.10742521 0.20328486 0.30895993 0.36202946 -0.31666476 -0.3309699 -0.14539516 0.050122987 -0.3110119 0.27171555 -0.21512952 0.3198055 -0.29648915 0.016016075 0.28901598 0.14329703 0.02721362 -0.097762436 0.005425348 0.003142743 -0.039594397 0.016230417 0.2485001 -0.20709006 0.07219691 -0.13895376 0.08493917 -0.34480792 -0.3477818 -0.063858554 0.06867589 0.047465947 -0.23266101 0.2336122 0.10870595 0.3214361 -0.004305981 -0.08573764 -0.23877405 0.35512233 -0.09608208 0.37006947 -0.0030651698 -0.115462705 0.039169423 0.17592676 0.09620064 0.29867074 -0.016684165 -0.08531198 0.23437645 -0.12312722 -0.16124323 -0.081089936 0.27677506 -0.0031795797 0.025294062 0.20007524 -0.28411984 0.10750361 0.010684494 0.13283056 -0.25129157 -0.1655758 -0.040909126 0.030546442 0.13456336 0.019679222 -0.13416322 0.0016664921 0.022286335 0.008209556 0.1742259 0.08603723 0.20216328
3 0.010338793 -0.24549122 0.21596706 0.20089571 -0.12819628 -0.013409307 0.04995852 0.10420043 -0.14955461 -0.08728031 0.054110587 0.2079091 -0.07757255 -0.29637226 0.18783489 0.30216005 -0.045056272 -0.20378928 -0.14558032 -0.12274322 -0.2267058 0.04299073 -0.032771096 -0.10381719 -0.14601347 0.13589124 -0.17721245 0.31418678 0.029312646 -0.29917935 -0.2549308 -0.26265073 0.027085967 0.06560543 0.12751943 0.21639183 0.232368 0.21480964 0.0011741304 0.086665966 -0.17889777 -0.13363688 -0.13145836 0.26297435 0.25648868 0.035499066 -0.23857933 0.051304065 -0.0425235 -0.008628315 -0.17286836 -0.06858609 0.099343486 0.08210923 -0.12339507 0.058081686 0.1930457 0.055633433 0.2035499 -0.10553946 0.11338276 -0.007846427 -0.040564097 -0.05554744 0.22649796 0.07512026 -0.2868311 -0.024869433 -0.20821059 0.027042134 0.074164435 -0.2367919 -0.236659 0.09613732 0.1175012 0.04760275 -0.25780442 0.14879045 0.01636537 0.01758655 -0.05790025 0.018895008 -0.2490107 0.09815211 0.15274723 0.11448397 -0.022944542 0.07079166 -0.15830332 0.00241646 0.08240183 -0.340855 0.12064067 0.05659071 0.04786822 0.10754387 -0.004687766 0.057783794 -0.15362597 0.04860026 -0.048321143 0.16574581 -0.1754824 -0.16987514 -0.22816122 0.15236437 0.08051344 -0.11743539 -0.06453943 -0.11832848 0.025023585 -0.13706934 -0.1426303 -0.32629147 -0.012246785 -0.35948193 -0.045742426 0.20970406 -0.090239234 -0.23621336 -0.0954569 -0.36304733 0.1840913 -0.12693417 0.0030974005 0.11440108 0.0039733155 0.14321502
25 0.058300763 0.01934258 0.033185188 0.054295026 0.079571985 -0.062268868 0.0063911234 0.01119318 -0.039341357 -0.004920376 -0.018861618 0.019812 -0.14155887 -0.009333678 -0.035524096 0.1898449 -0.0918424 0.025800148 -0.031934336 -0.010244694 0.037209578 0.07990368 -0.04539154 0.022772051 0.021989403 0.11235683 0.050644454 0.13989887 0.015440674 -0.1256409 -0.05771318 0.044766918 0.16120945 0.022092747 -0.08887605 0.26201674 0.2372547 -0.0039223246 0.1274837 0.063261546 0.064002804 0.13977109 -0.14271206 -0.07322111 0.076563984 -0.05767156 -0.008140889 -0.03333251 -0.14319065 -0.006872977 -0.113018654 0.13156638 0.03311025 0.14201473 0.21948378 0.09417194 0.14055175 0.01311632 -0.09833757 -0.15521984 0.081269845 0.038469568 0.07400171 0.037905373 0.10238352 0.15138462 -0.18511234 -0.01784633 0.091197744 0.10439453 0.032013956 -0.058960978 -0.15328145 -0.114434734 0.046955075 0.17306313 -0.24809001 0.047364175 -0.012005677 -0.07248488 0.1461134 -0.083012976 0.06627278 0.007444798 0.08359833 -0.00269141 0.14837545 -0.0006750375 0.16992149 0.18343043 0.04167559 -0.18564601 0.09495369 -0.07672608 0.10930234 0.12602322 -0.0989153 -0.17496325 -0.008098407 0.012158956 -0.051838603 -0.009876372 -0.07521364 -0.047475923 -0.10986304 -0.00284977 0.018904615 -0.030099997 -0.089818604 -0.045965318 0.00933343 -0.10376448 -0.015361694 0.052380633 -0.0379297 0.0026334508 0.025157923 0.12971894 -0.14891356 0.031299274 -0.036619697 0.046984885 -0.0027279882 0.035628308 -0.070239566 -0.110483974 -0.02791788 0.009946002
130 0.24893542 -0.16994977 0.046343856 -0.10338162 -0.020526798 -0.14051224 -0.022614753 0.20478107 -0.09403913 -0.08971021 0.065172344 0.24337028 0.04299196 -0.18230633 0.12347807 0.13808475 -0.06518324 -0.033475935 -0.024502363 -0.039750617 -0.09023904 0.028427944 0.08629047 -0.14093742 -0.09106971 0.20783398 -0.0069529903 0.10907473 0.112548605 -0.070881695 -0.30513576 -0.20365566 -0.04668779 0.1725959 -0.10106036 0.12567382 0.27256992 0.0043361983 -0.032623693 -0.074820295 0.029802462 0.060885943 -0.08209586 -0.09633881 0.16254762 0.1257855 -0.12717816 -0.11266653 -0.11081871 -0.059907313 -0.04155118 0.13120292 0.0833363 0.072403036 -0.041292693 -0.12071622 -0.054065134 0.02395894 0.028008172 -0.06285882 0.17953295 -0.01958915 0.18716866 -0.006893187 0.03501186 0.01921821 -0.28840697 0.13265365 0.12791933 -0.029106751 0.09102027 0.040417906 -0.13944235 -0.05849838 0.11507801 -0.001980197 -0.19740553 0.24298951 -0.07674526 0.13423188 0.07046347 -0.2283779 -0.059014603 -0.04351024 -0.095947415 0.072035216 0.096708365 -0.022020318 0.2673194 0.1728448 0.0063114604 -0.13808416 0.31065592 -0.28816742 0.1988109 -0.03555602 -0.01826368 -0.06535995 -0.032675013 -0.06105016 0.05097125 0.15469737 0.009135111 0.06601151 0.013364237 0.23417075 -0.14385498 0.0044813743 -0.23808473 -0.02113158 -0.049730714 -0.0762228 0.14433067 -0.14744785 -0.15363814 -0.03226858 0.14218712 0.05460832 0.012291255 -0.10227155 -0.15360749 -0.15995379 -0.098622285 0.14137249 -0.004036211 0.07687395 0.042406876 0.028887147
4 0.11997339 0.043550797 -0.041919645 -0.15159525 -0.0076363045 -0.105381645 -0.17159483 0.2564358 0.06523383 -0.041400645 -0.10347167 0.3627316 0.048054196 -0.06505636 -0.059823036 0.5615393 -0.09266068 0.2213599 -0.2864059 -0.041275144 -0.045486644 -0.21481732 -0.12015841 -0.25833836 -0.20780239 -0.017429236 0.08202891 0.18208873 -0.060398135 -0.080926575 -0.05383206 0.074658655 -0.0399261 0.13031176 -0.24890509 0.30086267 0.12715475 0.0393542 0.015664663 -0.10051304 0.08608012 -0.13340192 -0.43793407 -0.3249229 0.055087384 0.12443891 0.09909233 -0.007861821 -0.4802421 0.18043117 -0.11302783 -0.120133996 0.36154154 0.043507356 0.019340657 -0.41957656 -0.019004293 -0.025856698 -0.17570888 -0.3415603 0.32875535 0.15393396 0.12114356 -0.1450053 -0.081015274 0.062779084 -0.052177627 0.17418115 -0.3455125 0.30025446 0.065898575 -0.276242 -0.017207485 0.00073285395 0.09924915 0.08643427 -0.1794969 -0.10172657 -0.016828343 0.060292657 -0.15470757 -0.076161094 0.26874647 0.0010330766 0.3450514 0.06536043 -0.014843258 0.092299074 0.020471705 -0.025867172 -0.536135 -0.08767964 0.10821529 -0.1159472 0.14506797 0.16178961 -0.25140676 -0.052320052 0.1251717 0.037700336 -0.15945663 0.03328178 0.083134584 -0.045026336 -0.15461701 0.38742283 0.035544585 -0.097747035 0.2919045 -0.2756082 -0.033761907 -0.02588426 0.16636659 0.19232748 0.123160385 -0.14105557 -0.17508143 0.13780922 0.15530784 -0.028091237 0.26815227 -0.33602822 -0.0014541986 -0.16249964 0.019914983 -0.22805613 -0.056541372 0.00929096
12 0.029893355 -0.21737829 -0.013978178 0.17619783 0.023298258 -0.112097174 0.22353125 -0.09400142 -0.41195688 -0.17058958 -0.020855863 -0.085048914 -0.22058396 0.30088446 0.2735397 0.1312723 -0.27416694 0.1578842 0.035810124 0.12026994 -0.20766875 0.08789181 -0.21582751 0.17285535 -0.2596296 -0.09323021 0.1822652 0.071929656 -0.19598947 -0.32813647 -0.00014466405 0.11278519 -0.14840515 0.016853988 -0.009282153 0.11182369 0.08551119 0.042549554 -0.066745274 -0.19719143 -0.019532802 -0.031860262 -0.10141034 -0.011433318 0.10830516 0.032391537 0.18754189 0.27735704 -0.12868965 -0.27021685 0.05413866 0.2842099 0.18568353 0.15193303 0.112436876 -0.2912363 0.42281327 -0.17895642 -0.1585142 -0.07988557 0.13791165 -0.2129922 0.2059066 0.042176764 -0.1860001 0.08633101 -0.058212817 -0.18096215 -0.0016347669 -0.14926414 0.18158174 0.078007944 -0.051516205 -0.1929304 0.047882732 0.053570427 -0.0016421734 -0.38161832 -0.117984325 0.2214194 0.006525845 -0.0019013705 0.22710162 0.34030092 0.22241634 0.21210615 0.10871933 0.0944423 0.06696706 0.20651415 -0.42420033 -0.06443036 0.065827236 -0.0074818623 0.08008478 0.038469717 -0.28964046 0.0658724 -0.05848369 -0.2736337 -0.10367542 -0.29314837 0.06410233 -0.24540617 0.23141332 0.40938905 -0.026049292 0.18734717 0.066889554 -0.062 0.24872033 0.05170849 -0.16731548 -0.017352454 -0.24057478 -0.05654143 0.07522963 -0.0030526158 -0.04445412 0.2233875 -0.20357701 -0.061953794 0.20255211 -0.109300464 -0.20546633 -0.3072543 0.085234426 0.10927904
76 -0.23887381 -0.23378064 -0.016104775 0.03447505 0.24024478 0.17667724 0.02020358 -0.04835237 0.04185969 -0.11231672 -0.18163636 0.18131772 -0.008716664 -0.11858047 0.16815722 0.19257672 0.03127939 -0.047852766 -0.16386859 0.224661 0.073893905 0.14611904 0.1187231 0.04005504 -0.45740762 -0.19641875 0.029463213 -0.033996955 0.21914667 -0.07132673 -0.026539655 0.055482138 0.3177013 0.114458874 -0.026658926 0.06341237 -0.08637848 -0.098181196 -0.08133503 -0.035985827 -0.12050225 -0.053168852 0.07378952 -0.07662485 0.34583917 0.05876594 -0.15273689 -0.073062666 -0.14781068 -0.18837042 -0.19210418 -0.13631359 -0.20039965 0.0030830796 0.20915987 -0.09707777 0.005055943 -0.06972103 0.06491996 -0.3632031 0.1377819 -0.108970344 0.18749648 0.19959034 0.19390956 0.018509611 -0.003189015 -0.049388513 0.14156847 -0.11808314 0.04300491 0.046697386 -0.2545267 0.060868494 0.11051193 0.015078623 -0.07722615 0.24511805 0.08647538 -0.24243735 -0.058609817 0.018475685 -0.052429955 0.2099974 -0.03471704 0.0034426823 0.19891347 0.03114153 0.1692357 0.05030329 -0.07965195 -0.007793701 -0.050154552 0.029351918 0.14546736 0.054056183 -0.18844222 -0.001272969 0.023531752 0.19014674 -0.21692792 0.050316572 -0.011777185 0.04129968 0.097706586 0.06764164 0.08427543 0.16919604 0.0647105 -0.1872149 0.15335335 -0.22004674 -0.0026193878 -0.03615411 -0.058815297 -0.16310742 -0.05450093 0.09181393 0.14583606 0.1880226 0.15765244 0.15301684 -0.17094025 0.06357765 -0.1707648 -0.17467979 -0.30675003 -0.119966514
81 0.021545384 -0.27732602 -0.023667092 -0.073168024 0.12060892 -0.052994043 0.024220884 -0.18084568 0.059065416 0.13661093 -0.047910087 0.25841132 -0.24895838 0.057093885 0.097919434 0.4604284 -0.016184196 -0.05048075 -0.115024574 -0.12629126 0.24163075 -0.041103404 0.028928211 -0.27404583 -0.2457067 -0.20055951 0.13878772 -0.13544092 -0.17609967 -0.020226937 -0.11801553 0.06661119 0.12134956 0.12840249 -0.08509307 -0.013004559 0.3173351 0.10192964 -0.32591057 -0.38610113 0.107904986 0.28521085 -0.09422818 -0.13270707 0.01962992 0.009485428 -0.21888718 0.008186406 -0.12352217 -0.10298132 0.12984015 0.18719545 0.06599719 0.10165082 0.394316 -0.059774607 0.14634776 -0.014682161 -0.32995823 -0.044633813 -0.09023664 -0.12623973 0.3172511 -0.2682876 -0.042144883 0.228597 -0.094420835 -0.14790346 -0.17117812 -0.41973227 -0.029972337 -0.035150703 -0.14973101 -0.19862622 0.18954794 -0.11238622 0.08550455 -0.16551755 -0.2246655 -0.056773424 -0.06314984 -0.11244832 0.12066813 0.23631002 0.041712202 -0.22389926 0.11620233 0.12523176 0.10274973 -0.038683463 -0.1819119 -0.24831364 0.40674672 0.1845274 -0.16959973 -0.0677107 -0.07529436 0.15135872 0.016389793 -0.1155716 -0.13048886 -0.11469754 0.1982445 -0.0041212854 -0.14595106 0.057066966 -0.18833177 0.10788606 -0.011052749 -0.14942487 0.26196387 -0.1860824 -0.028155653 -0.01861614 0.1133606 -0.11940731 0.056150805 0.30593997 0.14834836 0.18278567 -0.25408316 -0.013537719 0.13584119 0.008894357 0.058953315 -0.016540112 -0.0005558817 -0.1602167
119 0.04932336 -0.35099092 0.13745512 0.3748666 0.08675369 0.13716152 -0.33721647 0.17780797 -0.15584996 0.08062088 -0.17746502 -0.1431669 -0.1339001 -0.16103008 0.16220945 0.25984204 -0.03612387 0.056872107 -0.045038506 0.19366537 -0.052913193 0.21283144 -0.01655442 -0.09609314 -0.2798699 0.05821634 -0.29413515 -0.18569535 0.27037394 -0.2305819 0.17986232 0.13616514 0.10275804 0.13131084 0.07363593 0.18860337 0.15521558 0.10533736 0.15913306 -0.19545448 -0.0507025 -0.053082354 -0.024087125 -0.25868925 0.16255254 0.13600694 -0.11968983 -0.07473709 -0.05503772 0.21208505 0.067295074 -0.048654698 0.17090206 -0.085839756 0.16631715 0.1791198 -0.09710867 0.01556584 -0.23933351 -0.23797879 0.12878188 -0.044195317 0.04259134 0.087229796 0.14927687 0.292674 0.12483527 0.02379627 0.11093472 -0.19625448 -0.0042690374 0.011653727 0.060105387 0.07720883 0.1390956 0.19045427 0.17297204 -0.05704336 -0.03436666 -0.1020327 0.1377622 -0.038965814 0.016010033 0.060790706 -0.062412076 0.035909686 0.13277811 0.2620776 0.35118058 0.07044809 -0.04559395 0.15613237 -0.08458178 0.011550263 0.07727044 0.007795991 -0.14166142 0.057522625 0.012644331 -0.06546129 -0.08351218 -0.018876078 -0.13596505 0.04028998 0.19774483 0.2373473 -0.14478259 0.13025172 0.062963024 -0.15761413 -0.113564655 -0.19087976 -0.14080037 -0.060711302 0.12830603 0.00786281 -0.14696975 -0.13011691 -0.062030483 0.12169446 -0.16866878 -0.0080524795 -0.14175099 0.09996422 -0.07592274 -0.06014894 0.060169417 -0.1005989
