412 128
0 0.102862164 -0.3014136 0.09231329 0.008659715 0.18910109 -0.039604057 0.24151945 -0.094480775 0.066112764 -0.14686823 0.17938748 0.017774621 -0.120415755 0.059956297 -0.057632305 0.10836531 -0.0034305833 -0.09551829 -0.22731808 -0.08909162 0.032708105 0.037462812 -0.12844267 0.014706562 -0.1033182 0.21688437 -0.18257923 -0.20885938 0.0845049 -0.11083053 0.00039186183 -0.014328845 0.15933718 0.21721557 -0.107418425 0.017629195 -0.030500628 -0.029666562 -0.100705236 -0.035084035 0.08810057 0.24434431 -0.11413136 -0.13728423 0.060605846 -0.08809473 0.13088678 -0.09497439 -0.045792636 0.14383295 0.049298692 -0.015587162 -0.13856822 -0.10878193 -0.0627618 -0.003512922 0.0078042396 -0.16418847 -0.059922494 -0.22581738 -0.21032433 0.16963212 0.0018641293 0.25332037 0.22395934 0.06240635 0.0016396935 0.036453426 -0.04046915 -0.27860296 -0.0991409 -0.0008617388 -0.065225154 -0.2068622 -0.017343072 -0.012558911 -0.104120255 -0.24702036 0.24093895 0.16345103 -0.15123935 0.053374063 -0.063778654 0.11516232 0.014307527 -0.015994916 0.14405614 -0.05386005 -0.0399216 0.056833174 -0.19996811 -0.0887231 0.09467043 -0.21959783 -0.04289108 0.2658837 -0.025874157 0.08342466 -0.042845096 0.1237093 -0.0033835238 0.11460386 -0.1955337 -0.2292295 0.06635113 -0.1781263 -0.13552408 0.301757 0.14188999 0.013968938 -0.013781209 -0.028625038 0.06775372 0.10681554 -0.122251056 -0.014954655 -0.044021927 0.012562569 0.015326546 -0.124969326 0.10097442 -0.093565494 -0.19908024 0.042168774 -0.10422888 -0.23009793 0.034338187 0.0341192
1 -0.033022232 -0.03402305 -0.008023296 -0.0338414 -0.093849145 0.21868466 0.11682049 0.022726135 -0.009225532 -0.016460177 0.08101332 0.034364108 -0.20267767 0.12242272 -0.023488835 -0.061416205 -0.11864574 -0.12893648 0.0015910959 0.14206746 0.1081449 0.0769065 0.071040854 -0.17681983 -0.07243815 0.09859597 -0.22449152 -0.07402588 -0.059718706 -0.049605235 0.09578514 0.0648327 -0.034801897 0.029348712 -0.07357783 0.16487592 -0.09543935 -0.069143474 -0.038079713 -0.08000948 -0.1125009 0.108776085 0.09706877 0.018520692 0.11046653 -0.15906446 -0.09286765 0.048426025 0.02310047 0.083518244 -0.03255113 -0.061983045 -0.01187785 -0.13145112 0.0010825465 -0.17028938 -0.0146069685 0.01274856 -0.08044617 -0.14855899 0.011495423 0.04106988 0.14309184 0.1710785 0.18149507 -0.19703464 -0.101397015 0.044741936 0.06726282 -0.12667534 -0.06932343 -0.064375326 -0.16861267 -0.05179624 0.03108302 -0.27359432 -0.066810064 0.0056426665 0.23071414 0.105823666 -0.12382018 -0.23028496 -0.06426898 0.13006757 -0.0071173534 0.1778254 0.044443812 -0.1693886 -0.12822485 0.011553446 -0.12822884 -0.11391431 0.11598702 -0.12854975 0.1400326 0.0904369 0.07528876 0.14403504 -0.089656025 -0.022369046 0.115641505 -0.049753882 -0.1612341 0.059886936 0.18608156 -0.16883138 -0.27040148 -0.022695158 0.080885075 0.06977142 0.059092868 -0.09318586 0.028936673 0.020516956 -0.014211057 -0.15749398 -0.11184926 -0.043766975 0.08110891 0.08944855 -0.09179472 0.040897664 0.078747176 0.16888928 -0.17998266 -0.2619631 -0.07849851 -0.084457144
2 -0.010327739 0.109022066 -0.14940372 -0.08341245 0.14120704 0.096424535 -0.19973436 0.012363697 0.10626155 0.19054364 0.016365977 -0.13514975 -0.2812816 0.067462616 0.049327146 0.17640139 -0.19373965 -0.013762427 -0.10892064 0.026856083 0.11807157 0.204621 -0.057916727 -0.13710375 -0.16751602 0.19240433 -0.19200426 0.030702401 -0.09101067 -0.08108467 0.09027666 -0.052778017 0.03421355 -0.12971644 -0.06265635 0.0644736 0.037575122 -0.07254333 0.029325435 -0.07366605 0.13226956 0.26329774 0.033265293 0.06691605 0.07149288 -0.04562505 -0.024088558 0.20677692 0.12275788 0.0067976145 0.17032133 0.18215321 0.08082529 0.0021172801 -0.27447477 -0.0050356076 0.10228014 -0.13537754 -0.3201844 0.10401015 -0.10032817 0.25201246 -0.0040550004 0.10995794 0.1521175 -0.04129597 -0.004297479 -0.096057124 -0.07094129 -0.16407771 0.11478258 0.05320189 -0.026169194 -0.10894326 -0.05459992 0.08241222 0.058581583 -0.10211344 0.065718085 -0.006323394 0.043618023 -0.17426167 0.039076637 0.32192615 0.031448785 -0.01065749 0.10053958 -0.057355255 -0.2606716 0.19684684 -0.11748043 0.066014215 0.0036176504 -0.110528 0.03180704 0.17856342 0.081042305 0.124584116 -0.0874664 -0.22229895 -0.09232019 0.06570281 -0.035007805 0.0853713 -0.07939085 0.17525457 0.1446918 -0.11459155 -0.17556913 0.07022048 0.005495356 -0.029697197 0.06205928 -0.05561085 0.023442956 -0.11842345 0.0046045943 -0.00093341677 0.055954326 0.056410477 -0.031024862 -0.16979308 -0.02314984 -0.15623365 0.033807207 -0.043975946 -0.0799689 0.15519157
3 -0.115463674 -0.02161205 -0.03626857 0.0751993 0.09983785 -0.043864746 0.069763504 -0.08624332 -0.07866148 0.038765643 0.048034675 -0.013961756 -0.0046024085 0.0073553314 0.11858711 0.11394195 -0.22033547 -0.13461797 -0.09866666 0.08290385 0.09064095 0.034178387 -0.03731418 -0.051424414 -0.34818175 -0.008329619 -0.20221147 0.004337533 0.013002313 -0.096347556 -0.08612308 0.019484553 -0.09099484 0.045181554 -0.007591319 0.058072593 0.08812463 0.038946893 -0.13948756 0.07501212 0.14342201 0.033290654 0.018218305 -0.019364398 0.12250257 0.021957096 -0.00626539 -0.12175922 0.033342928 -0.035068534 -0.033905312 -0.010626073 -0.07548604 -0.05833529 -0.05128173 0.06286411 0.14045066 -0.14035414 -0.13485202 0.058674205 -0.23810439 -0.093280435 0.12868969 0.119949654 0.15629706 -0.10892526 -0.09407916 -0.07692191 -0.05641403 -0.27993184 0.04589895 -0.08636719 -0.08291196 -0.08923243 0.072539926 -0.1009201 -0.11558384 -0.05349157 -0.004226791 -0.040929485 -0.08508942 0.04482565 0.06907303 0.03359302 -0.030375786 0.028017435 0.024879016 0.035596237 -0.00032244873 0.07026821 0.14563072 -0.0037205862 0.11189809 -0.049501147 0.13640016 -0.10437556 0.11951601 0.04376674 0.07789232 -0.21981348 0.010717278 -0.084939316 -0.15954289 0.016192151 -0.07639607 -0.031477362 -0.12107904 0.18639395 0.039227027 -0.06382495 -0.033713706 0.105178624 0.09483762 -0.02173359 -0.03290627 -0.12667714 0.055810247 0.16174215 -0.032352548 -0.24655333 -0.0757992 -0.11829413 0.0437146 0.08577969 0.047326535 0.074856855 0.044284966 -0.026518222
4 -0.035165556 -0.06349144 0.044242058 0.11816481 0.057051335 0.038639497 -0.08123327 -0.039182536 0.025103403 -0.021428058 0.13418752 -0.05136884 -0.025471602 -0.021666348 0.13001391 0.09638994 -0.07437128 -0.09372624 -0.10727021 0.079435036 -0.09689813 0.062859125 -0.1273372 -0.09598988 -0.14945978 0.07475566 -0.11901371 0.06650102 -0.06683939 -0.021625064 -0.05505203 -0.0529839 -0.048494358 0.0012085842 0.02535463 0.1215371 0.11721373 -0.20770365 -0.037145454 0.120586544 -0.06563161 -0.063514635 0.10534648 0.016566226 0.119202755 0.019008268 -0.10246959 -0.06073119 0.006555394 -0.06145223 0.038089506 -0.04411754 0.030007845 -0.13225251 -0.046757553 0.033781193 0.10436591 -0.043843534 -0.095232844 -0.06734638 -0.062503956 0.14366473 0.14684637 0.10542076 0.20479636 -0.032445185 0.008622169 -0.0033433803 0.07333818 -0.08938696 -0.007254842 -0.0042667147 -0.06714471 -0.013002314 0.09085358 0.021576436 -0.11859583 -0.02168598 0.0939434 0.101181306 -0.0021344675 -0.03148734 0.0861557 0.33308974 -0.09377817 0.057741642 -0.0021320372 -0.10661271 -0.032759085 -0.040475037 -0.02387661 -0.020549363 -0.01796043 -0.058264874 0.07940864 0.040785868 0.039416596 -0.042563263 -0.101284765 -0.15169162 -0.047631487 -0.07608198 -0.046005126 0.03965733 0.013323369 -0.040489696 0.05796463 0.072580226 0.05817212 -0.055923548 0.056805078 -0.02397311 -0.12507978 0.058246423 -0.09622575 -0.14010054 0.08325722 0.044193562 0.0814105 -0.12314143 -0.04413014 0.05537935 -0.02606934 0.0048740143 0.027344985 -0.073225416 0.046688467 -0.06673488
6 0.0712633 0.13587293 -0.059059847 0.031818725 0.20092942 -0.104805626 0.08317861 0.0045564384 -0.028626308 0.06043916 0.040932663 0.0048313835 -0.016696084 0.13162257 -0.058249272 0.08064559 -0.14903735 -0.0938492 -0.16599543 0.03720416 -0.019082986 -0.041166563 -0.1157609 -0.002006809 -0.2759786 0.06014664 -0.27161762 0.10020675 -0.02139679 0.046850637 0.1333844 -0.042676494 -0.05619063 0.06489689 -0.035902582 0.084582806 0.03238343 -0.0020392856 0.012971599 0.019897386 0.016091261 -0.15682667 -0.09072036 -0.05677 0.30977744 0.045714185 0.07066481 -0.021219973 -0.082117334 0.10490995 0.17639026 0.06970238 -0.21854968 -0.006001462 -0.019953605 0.15992382 0.033066664 0.0263724 -0.13852584 -0.016054485 -0.11949985 0.19144447 -0.002099654 0.1268766 -0.13359219 -0.06989828 0.12991466 -0.061087012 0.024246652 -0.15879263 0.005706811 -0.06780673 0.004157147 -0.06987689 0.042054437 0.004044503 -0.06299884 -0.038998038 0.097028345 0.090080485 -0.015467234 -0.053340513 0.028229957 0.12652454 0.044435453 0.061569385 0.097173125 -0.07807203 0.060236294 -0.02348957 -0.13491349 -0.014128408 0.108248025 -0.0055041774 0.061847314 0.04335637 -0.05853889 -0.08633828 -0.087074935 -0.12494862 -0.0090033505 -0.06472467 -0.11087047 0.1528214 0.05750621 -0.016880197 0.052176166 0.1024038 -0.09990302 0.02473294 0.026409952 -0.06407749 0.21061899 -0.011979453 0.072855525 0.061077304 -0.04983389 0.048222538 0.19933285 -0.1166619 0.006498027 0.024189277 -0.07276436 0.11473405 -0.14056943 -0.060440578 0.015906135 0.0758881
8 0.06110519 0.017689407 -0.10933052 0.028309427 0.16390234 0.052305084 0.116041444 -0.043678366 -0.1335844 0.08315556 0.03554721 0.022822004 0.0016913746 0.08269657 0.19261624 0.19018038 0.017159928 -0.03312709 -0.16035503 0.0075257323 -0.009941813 -0.08028223 -0.12083554 -0.084990904 -0.21829878 0.1367094 -0.21725523 -0.03467368 -0.027983854 -0.033591837 0.095021285 0.05841755 -0.007949508 0.02940246 -0.122325726 -0.02674375 0.011141191 0.035092674 0.008433493 -0.03159352 0.033484086 -0.061508108 0.026023006 -0.04669527 0.1404979 0.019773416 0.011067093 0.058572702 -0.04199234 -0.13085572 0.0060454984 -0.09731349 0.038883787 -0.03285355 -0.061797287 0.0098895 0.09520088 -0.044213496 -0.17529818 -0.04355673 0.040989805 0.116430216 -0.0089073945 0.05727444 0.22140208 -0.05787233 -0.049312424 0.01854495 -0.08703636 -0.18678904 -0.03544567 -0.062418062 -0.16046491 0.059055686 -0.08351349 -0.048322007 0.027474778 0.083768554 -0.13319543 0.07864744 -0.15038337 0.046294063 0.0158834 0.31794584 -0.021576677 0.0437177 0.081335135 0.028443692 0.021593388 -0.06263597 -0.093486115 0.012911178 -0.015601758 0.035828065 0.13368262 0.11499848 0.08016721 -0.16398121 -0.12849115 0.010749927 0.08482539 -0.107940204 -0.16797876 0.004273324 0.015893457 -0.062339198 -0.015902942 0.035552617 0.05866422 -0.053312592 0.12826253 -0.12375082 -0.032983385 -0.006671735 -0.052013326 0.07720954 0.08827477 -0.057242 0.056602087 0.078374125 -0.06481273 0.006173503 -0.037685424 0.06380335 -0.10581326 0.025981925 0.105041556 -0.16188589
11 0.046990037 0.061113223 -0.011492269 0.06426282 0.086569466 -0.059648767 0.045475964 0.06590722 -0.12182114 0.0052831927 0.042933967 0.102249525 -0.097787745 -0.051672716 0.14813766 0.04441466 -0.08637108 -0.025017295 -0.15156852 0.10331998 0.11438654 0.13400425 0.037962805 -0.07833026 -0.11220418 0.15094118 -0.041118532 -0.036932614 0.06054851 -0.04947301 -0.07663241 -0.078925334 -0.067276396 0.16360413 -0.006501054 -0.081959255 0.06284428 -0.058663886 -0.07766209 0.024063682 -0.11753545 0.016628815 -0.084591806 0.030950509 0.15808716 0.02353705 -0.013002136 -0.04272104 -0.0135319065 0.04277508 0.009311699 0.008411626 0.0037348715 -0.15319578 0.052148107 0.035874613 0.07063565 0.017988428 -0.14049152 -0.042835217 -0.16362205 0.16183491 0.12500316 0.051313795 0.15429509 0.08405904 -0.08733213 0.14772691 -0.08360347 -0.21751253 -0.11759331 -0.06196296 0.008477763 -0.09062471 -0.061410703 -0.037502754 -0.0869268 0.034880087 0.052442413 0.104101025 -0.038956933 -0.03529419 0.0474093 0.07943028 0.06834383 -0.012950237 0.06380034 -0.0019858994 0.09739599 0.0023753392 -0.16726346 0.16971913 0.022012772 0.032595996 0.08484367 0.080288485 0.06978308 -0.04542121 -0.25285 -0.07207065 -0.07660535 -0.11215461 -0.1421558 0.059131064 -0.0024166156 0.028610535 0.13761897 0.1442765 0.0088702375 -0.00065831695 0.13398628 -0.05606755 0.032980975 0.076149926 -0.115262344 -0.12019729 -0.1400213 0.0852768 0.025736926 -0.099530995 -0.032077514 0.014559344 0.100310974 0.10537348 -0.06985329 -0.027708858 -0.007996121 0.013591694
14 -0.011645276 -0.043534983 -0.03585174 0.08305026 -0.023561208 0.029425211 -0.015236845 0.10705178 -0.114200935 0.09135592 0.082865715 0.028556738 -0.014848792 -0.0045010136 0.023439052 0.125173 -0.060828347 -0.067133956 -0.06178149 0.093571745 -0.036078323 0.11178516 0.04211954 -0.04151005 -0.08221954 0.14533128 -0.13725919 -0.023399927 -0.08700933 -0.10316299 -0.059184317 0.09849306 -0.065853685 0.07826595 -0.09435215 -0.006625281 0.077030376 -0.14242789 0.059107535 0.110008284 -0.029163463 -0.021299759 0.07978333 -0.0044722697 0.15100247 -0.004037074 -0.099948086 -0.0065491037 0.005327424 -0.022624008 -0.051536348 0.1237513 -0.044415604 -0.029782234 -0.059863433 0.004138336 0.18165833 0.08824457 -0.1029167 0.0071964925 -0.16183513 0.0056408453 0.12598222 0.038184017 0.14557472 0.022442369 0.056777436 0.14021492 -0.09632684 -0.120829254 -0.030605465 0.0022254756 -0.10953209 -0.0629746 0.20148787 -0.13567412 0.032779854 -0.0049689654 0.059162706 0.14880924 0.024006989 -0.16563927 -0.05846513 0.22905071 0.0628084 0.099110976 0.15522546 0.12389201 -0.056476694 0.017790146 -0.040310927 -0.007668851 0.008651488 0.016035417 0.08530833 0.0840005 -0.06671462 0.03556218 0.034542307 -0.11283328 -0.085170664 -0.14656942 -0.029500948 0.124977425 -0.08165071 -0.0075260107 -0.029235855 0.07179045 0.10786396 -0.026253048 0.022422753 -0.141964 0.029624341 -0.020658905 -0.16189267 -0.06348197 -0.03153495 0.11534407 0.07359283 -0.06091878 0.056167364 0.02254552 -0.06542722 -0.028029539 -0.09199987 -0.053993613 0.036187634 0.04124219
17 -0.06611587 -0.08178508 0.0004176121 -0.119970314 0.011789806 0.040800463 0.1480095 0.044943813 0.04078769 0.08634447 -0.040090945 0.007328388 -0.08171269 0.044232298 0.039769914 0.04416539 -0.053312927 -0.18678844 -0.13192683 0.11743554 0.16878386 -0.041999135 -0.022457222 -0.045669165 -0.124399245 0.11547171 -0.16773312 0.07036837 0.005151825 -0.13668978 -0.06968017 0.0034426113 -0.042543694 -0.032745183 -0.13462317 -0.009516686 -0.02040169 -0.09427369 0.009274847 -0.023766091 0.05093275 -0.00087892805 -0.08847195 -0.013921329 0.07056751 -0.12250453 -0.023815332 0.11421461 -0.05866014 -0.09383954 0.013366078 0.13138656 0.0057142163 0.005043125 0.053004332 0.035329502 0.17627798 0.043396506 -0.03454647 -0.087030634 -0.084645905 0.035578478 0.15400584 -0.017317738 0.23738997 -0.10416029 -0.10964346 -0.040541835 -0.09822544 -0.23996353 0.0073545966 0.11834312 -0.18464407 -0.19497651 0.055490546 -0.040405624 -0.072067715 -0.0215719 0.0725937 0.04680885 0.024143668 -0.085317306 -0.048555594 0.027284203 -0.0069047217 0.15622467 0.053961087 -0.025683044 0.008961102 -0.08784312 -0.14474668 -0.05526215 0.13301624 -0.10910357 -0.06313869 0.04529351 0.010384262 0.07449457 -0.020993063 0.05807291 -0.1303713 0.01491401 -0.14244862 0.05792552 0.0011399342 -0.12563762 -0.03256119 0.16603027 0.041519903 -0.0026082455 0.13499993 -0.15817983 0.062325526 -0.0011865016 -0.13439028 -0.02251944 0.012870132 -0.041158237 0.08668772 -0.08369832 0.014974486 -0.041643653 -0.048126925 0.18624265 -0.055468313 -0.13239092 0.0086044995 0.0550296
21 -0.120962314 -0.03576052 0.0052088723 0.08043958 0.05124045 0.12260247 -0.066414535 0.015823605 -0.048684094 0.09443036 0.07162943 -0.08322873 -0.26077357 0.039541494 0.09310858 0.06342363 -0.076797426 -0.033192173 -0.1564264 0.08937795 0.0611953 0.039869018 -0.07837384 -0.061975457 -0.1828994 0.07297702 0.0064821034 0.1306532 0.08804145 -0.18538909 0.06312204 -0.098004505 -0.030960685 0.11259879 -0.011979787 0.100843616 0.06717803 -0.0842896 -0.026332187 -0.0164615 -0.0039892476 -0.17348368 -0.036133274 0.0070353537 0.09080125 -0.123987734 -0.19121729 0.004868824 -0.046003252 0.08360037 -0.008426183 0.14218816 -0.0371317 -0.032067787 -0.06829891 -0.014819976 0.18281859 -0.09223313 -0.075826526 -0.033254687 -0.15036912 0.02419529 0.04017267 -0.008834779 0.07782167 0.068929784 -0.0062353658 0.0017374674 0.040238608 -0.0032907326 -0.07908469 0.05686602 -0.10508064 0.02549393 0.03209075 -0.0041967933 0.0028491186 -0.009257376 0.11126436 0.020519469 -0.0046954746 -0.11497824 -0.061644096 0.17131136 0.057397194 0.14609423 0.05397534 -0.076039866 -0.039258134 -0.023557525 0.078633234 0.038570028 -0.04278369 -0.03855078 0.0019915756 -0.005489869 -0.144734 -0.04825678 -0.07227769 -0.1671678 -0.15917365 0.031402096 -0.19869468 0.07476888 -0.07727346 0.05568743 0.01460567 -0.02550408 0.052996922 -0.0079408465 0.025264181 -0.07237852 0.02709229 0.0034717226 -0.16832633 -0.004415875 -0.008948574 0.051513344 0.0033822588 -0.005468103 -0.069810905 -0.14481094 0.020226205 0.11171844 -0.08998151 -0.13409226 0.06876582 0.06498112
23 0.27268803 -0.2020163 0.012096659 -0.51719326 0.06886648 -0.026286365 -0.058035996 -0.12137937 -0.19843599 0.056598753 0.049533512 -0.1564228 -0.12326665 0.07853225 0.08394171 0.26035738 -0.17552881 0.22290242 -0.36587733 0.16896434 0.06672607 0.29133078 -0.33765402 0.63590145 -0.21307132 0.0101321 0.104108 -0.20784867 0.26075602 -0.14085263 -0.027802637 -0.1721079 0.065015614 -0.010193652 -0.16016015 0.27538294 -0.07629862 -0.35038376 0.14132199 0.28312546 -0.23741294 -0.2626611 -0.026821146 0.09425164 0.23695925 0.10166797 -0.27164173 -0.054217532 0.234327 0.26803032 -0.05007091 0.18358055 -0.18729557 0.13772513 -0.42649895 0.13534376 0.54949903 -0.07120848 -0.08511103 -0.0077107083 -0.13836445 0.036984067 0.34277174 0.25197786 -0.008797909 0.28846538 -0.072723754 0.00034124008 -0.059303224 -0.085592784 0.06899138 0.029779581 -0.19575503 0.07854894 -0.14832751 -0.31971845 -0.5027299 -0.1380683 0.09201603 -0.03612749 -0.06198507 -0.48850194 0.013560799 0.037817515 -0.017996464 0.3137559 -0.011090861 0.008956149 0.10098598 -0.009261234 0.079831176 0.10827376 -0.09574841 -0.25387618 -0.16262141 0.13696688 0.02100673 0.024693828 0.08434827 0.063431986 0.28699854 -0.21214129 -0.0640645 -0.064335436 0.10816626 -0.14797242 -0.04841272 -0.34796342 0.0072170286 -0.036477 0.20724213 -0.034068134 -0.010025879 0.13504411 -0.0705345 -0.37202972 -0.30182284 -0.025149344 -0.19039802 -0.008987994 -0.011224247 -0.031114737 -0.072199434 0.11255325 0.018298874 -0.20096162 -0.2804419 -0.2036894
25 -0.047766834 0.10456335 -0.09749767 0.08696013 0.10029475 -0.011551127 -0.023524756 -0.037030984 0.06610452 0.0101495655 -0.057862584 -0.08809193 -0.025010394 0.002395061 0.14101785 -0.006887174 -0.017103808 0.0033427747 -0.046199873 0.091804326 0.05890934 0.039998963 -0.04090412 -0.10241305 -0.32195932 0.041773073 -0.17096509 0.009291529 0.026831308 -0.10055444 -0.03917682 0.056879517 0.09246829 0.07785952 -0.027651407 0.050209574 -0.013597072 -0.08590737 -0.001077227 0.051846497 -0.13267729 -0.0067546284 -0.003654508 0.06168611 0.040995065 0.02842673 -0.011528226 0.042694762 -0.060690906 0.050065003 0.038617782 0.07961888 -0.024037264 -0.018205356 0.06801853 -0.08256955 0.07244829 -0.017369563 -0.10102482 -0.008547215 -0.03629499 -0.020882482 0.08029498 -0.013429012 0.0078211855 0.055774152 0.08268497 0.01404958 0.11847348 -0.125977 -0.020302474 0.01455401 -0.12157666 0.03144467 0.01568982 -0.018111661 -0.070314184 -0.013618215 0.04315515 0.034611203 0.0034872158 -0.1103356 0.026061036 0.2059301 -0.065443784 0.19632643 0.0011952354 0.12261677 0.00078526477 -0.08057978 -0.073508754 0.029094962 -0.004388434 -0.07951681 0.021334661 0.05580746 0.059187476 -0.02927496 -0.06944505 -0.08127888 -0.09519391 -0.11011927 -0.041129347 0.21833472 0.011294974 0.010332189 -0.1273752 0.1393308 0.034331966 0.057579335 0.06418013 -0.00745764 0.040998627 0.033393204 -0.09939831 -0.10362199 0.0013523976 0.08498434 0.12828262 -0.06454863 -0.07655442 -0.10443856 -0.07558359 0.16732161 -0.11634976 -0.11356442 0.067880094 0.051169734
29 -0.09845769 -0.06708503 -0.1729445 0.0059669116 0.21766248 -0.011081589 0.07810212 0.093618944 0.046234783 -0.21516119 -0.23949327 -0.10435429 -0.23899725 0.32995686 0.100696184 0.20151226 -0.34140328 -0.19352704 0.2550631 -0.2978501 0.31765464 0.026447507 -0.25200164 -0.08404054 -0.026784139 0.12217139 -0.28895083 0.32547 0.20565897 -0.2971257 0.011920882 0.26396263 0.15196495 0.071033865 -0.069141045 0.14093223 0.21261466 -0.081033826 -0.09086184 -0.020334832 -0.17260621 0.12123863 0.03980378 -0.12436694 0.2105818 -0.028168112 0.049369354 0.19981444 -0.22963235 0.042266447 -0.039384857 0.103461206 0.10905136 0.11689606 0.02016988 0.06236434 0.18989693 0.035174157 -0.3593923 -0.20459488 -0.14406446 0.22202793 0.1519296 0.09692062 0.043547668 0.11645672 0.080688514 -0.09563345 0.06361721 -0.28066066 0.10842646 0.035788238 -0.362847 -0.07538667 0.14794147 0.024190798 0.07581083 -0.14091536 0.16782705 -0.07584659 -0.013260103 0.0486064 0.031038348 -0.048461378 0.12706453 0.0072880685 0.16646229 -0.11982842 0.34469774 0.04960693 0.25863892 -0.23274688 0.24975966 -0.09946062 -0.0007260207 0.11729043 0.21786049 0.2001941 0.008595303 -0.044176266 0.097427025 -0.11778697 0.0951691 0.005444285 0.32019413 0.09315363 -0.044012915 -0.05537 0.022644177 0.029435227 -0.07954273 -0.09838841 -0.2589804 0.044657513 0.05514113 -0.09506704 -0.15427244 -0.2841427 0.14921705 -0.0076390756 0.15925835 -0.24569277 0.13757992 -0.030855058 -0.38676384 -0.25441006 -0.046065956 -0.0026980462
30 -0.13733461 -0.093183905 0.054416887 -0.05610727 -0.028547011 0.049144566 0.056850005 0.11996613 -0.08705876 0.07305706 0.021652497 -0.08533942 -0.068471804 0.105883084 0.08905201 0.051527712 0.006328655 -0.14542976 -0.014673588 0.07827462 0.12832718 0.020873997 -0.04377689 -0.026621928 -0.18755522 0.066131376 -0.16470289 0.076921806 0.026703916 -0.14472827 -0.019343259 0.0021550308 -0.015118655 -0.016695216 -0.13136142 0.11862681 0.005595918 0.006437525 0.0042661405 0.056555837 0.03957549 0.056718588 0.008569056 0.008129621 0.060312476 -0.009005208 -0.037300218 0.0056997077 -0.08351831 -0.033887267 -0.048208673 0.06555548 -0.0030169743 -0.02659031 0.077629685 0.04681513 0.124470375 -0.025549266 -0.2207061 -0.02457882 -0.04715736 -0.048448075 0.013936696 0.09572859 0.18322627 -0.10309606 -0.083494544 -0.10027746 -0.032860972 -0.12846376 0.04988809 -0.050737694 -0.2208441 -0.068272755 0.07622636 -0.17953387 -0.06759547 -0.039580353 0.078228705 0.07275008 -0.003772832 -0.14418 -0.00602536 0.10445093 -0.08076764 0.07889483 -0.01048377 -0.07741942 -0.11644515 -0.054511245 -0.084320225 -0.021510085 0.10912706 -0.20797075 0.0056339893 0.13640903 0.043403853 0.15937585 0.003593038 0.032751653 -0.10368117 -0.038647592 -0.10490165 0.034237195 0.039144192 -0.097438134 -0.17806385 0.25364527 -0.09362484 0.070310146 0.16443524 -0.07416981 0.023255117 -0.09937288 -0.15796016 -0.03486774 -0.1521979 -0.013505517 0.13648303 0.05524172 -0.07411136 -0.11310258 -0.022074817 0.17860211 -0.046885006 -0.054036662 -0.07100488 0.04348035
42 -0.03974841 -0.16254307 -0.048822068 0.079881206 0.11195097 0.050558325 -0.04420924 -0.032241076 0.031941414 0.083412535 0.16809277 -0.0064286273 -0.19429772 0.03186024 0.13686746 0.023441596 0.02035101 -0.0246779 -0.11054325 0.10858257 0.12368506 0.10681703 -0.035709336 -0.12341623 -0.062643945 0.014595429 -0.07595817 0.06666907 0.04128199 -0.10504563 0.057545125 -0.029430648 -0.042092934 -0.02396982 -0.026139759 0.10415266 0.10945868 -0.1292394 -0.03484942 0.0057447175 0.011127151 0.06202901 -0.06608889 0.053721577 0.094582476 -0.12312747 -0.2072057 -0.13644329 -0.07756487 0.0065693897 -0.0018963706 0.038598392 0.07750695 -0.011694067 -0.11296431 0.029272625 0.14618409 -0.23970018 -0.08664342 -0.0465598 -0.21237925 0.059624862 0.11497707 0.07239253 0.0069866967 -0.077177055 0.014594304 0.008897565 -0.01185838 -0.051582675 0.11510382 -0.03269765 -0.08000152 -0.14647736 0.009709806 -0.049484182 -0.02696573 -0.02514153 0.14405689 0.108238734 0.08914209 -0.05148049 0.07963666 0.21019255 0.06631617 0.10028099 -0.01233804 -0.036117703 -0.06213037 0.0008404832 -0.056122508 0.0068507893 -0.045538113 -0.00480362 0.13232747 -0.014409465 -0.0758502 -0.10829086 -0.043578107 -0.14575656 -0.050143618 -0.011509041 -0.103616074 0.10455882 -0.08406568 0.038830128 0.10143254 -0.020357165 -0.039954178 -0.009164252 0.04841285 -0.07872008 -0.0040187873 -0.04320849 -0.057908818 -0.113829754 -0.006256084 0.008174209 0.06298744 -0.037089266 0.03344229 0.018204158 -0.044373978 0.104994155 -0.053934526 -0.024125438 -0.008116849 0.018086186
46 0.15940961 0.0003663468 -0.0013587107 0.08168948 0.07328893 0.05270705 0.12769161 0.015098784 -0.053003035 0.027307939 0.15027755 -0.04575744 -0.22388825 -0.092225924 0.07918241 0.028156701 -0.20694397 -0.05477494 -0.16563852 -0.035245284 0.121543854 0.13939568 -0.12214283 0.08857666 -0.092220336 -0.012714901 0.0056405156 0.14555018 0.19359441 -0.07198156 -0.043669663 -0.0148521075 -0.0934448 0.083309695 0.012009984 0.23174657 0.13524136 0.011691834 -0.027112866 0.040795665 -0.0734152 0.05573341 0.020909354 0.04031654 0.12249857 -0.024621956 -0.18018416 5.185997e-05 -0.07616602 0.058033485 0.06103798 0.082354985 0.023626598 -0.23566625 -0.017658737 0.032654684 0.18512836 -0.17796788 -0.044791635 -0.06410238 -0.1785536 -0.1532709 0.10971461 0.13979213 -0.14174455 0.20606865 -0.043240022 -0.03114695 0.08367261 0.04423857 -0.005691985 0.09227532 -0.012579964 -0.0009586394 0.075923316 -0.07937201 -0.12308695 0.009653173 0.1229745 0.03658941 0.12430824 -0.07683051 0.06795456 0.28521731 0.041028585 -0.025809426 -0.0175073 -0.09052043 -0.08691264 0.007833408 -0.007680023 0.027935049 0.08672983 0.11637978 0.04705645 0.18486908 -0.061978813 -0.12997457 -0.12598996 -0.2264383 -0.011680765 -0.011071224 -0.013447841 0.057901688 -0.055848744 0.061481286 0.08524939 0.092720166 0.13083716 -0.072854206 0.107563846 0.08021052 -0.034219038 0.035616882 -0.112611294 -0.04697063 0.052828856 0.0014006431 0.028908731 0.036109645 -0.04212894 -0.09241499 -0.102329016 0.1099712 -0.055586807 -0.1337283 0.06288619 0.05497702
50 0.08057371 -0.13834321 -0.13365772 0.10647451 -0.036397997 -0.008964838 0.06644373 0.014758775 -0.18860005 0.23238206 0.22944643 -0.0019891076 -0.10275893 0.1057463 0.12818754 0.027422694 -0.17669839 0.059829604 0.078934304 0.045408953 0.13221988 0.016448151 -0.0592823 -0.059384584 -0.15212849 0.08205692 -0.2363071 -0.013271702 -0.027559068 -0.015066557 0.007137536 -0.111732475 0.079793036 0.062437627 -0.04587915 0.069466256 0.14140299 -0.19570807 0.004967134 0.055908598 -0.11967941 0.059567835 0.15250269 -0.08286523 0.02966999 -0.1182528 -0.10566504 0.08600888 -0.17343687 0.18353324 0.17665821 -0.02093281 0.10284759 -0.0005584025 0.08345461 -0.0051374123 0.112711735 -0.10763825 -0.030380817 -0.15416792 -0.13651587 0.11584157 -0.033748873 -0.044784628 -0.15413225 0.12744856 -0.06466854 -0.13357835 0.1427204 -0.18952236 -0.0461711 0.10662647 -0.038218725 -0.11376338 0.13081764 -0.09508048 -0.026174728 -0.030784484 -0.16667864 0.047971427 -0.11640424 0.050842337 -0.051541105 0.042770483 0.096745394 -0.10186585 0.09145101 -0.02007112 0.021809971 -0.020735024 0.022451509 -0.112144165 0.1383671 -0.033486255 0.24991262 -0.021653717 0.03194726 -0.03865444 -0.008026629 -0.14207213 -0.17328128 -0.09652178 -0.14213401 0.04858916 -0.055744536 -0.039777145 0.12638888 0.19817787 0.015665067 0.122695185 0.12508377 0.026375756 -0.058249608 0.041274212 -0.0139795495 -0.013113583 0.032866474 0.05124107 0.062272042 -0.00692633 -0.05670258 -0.112796165 -0.060251787 0.0757911 -0.0841909 -0.049640823 -0.01946687 0.028623072
51 -0.095869645 0.04073609 -0.017629234 -0.017847216 0.12412684 0.1814915 0.014313935 0.05546383 -0.095887505 0.14985424 -0.06043918 -0.052400563 -0.11876906 -0.013630373 0.022468997 0.031103613 -0.077175595 -0.006799266 -0.072671205 0.00451547 0.124651894 -0.036051203 -0.052101098 -0.07132929 -0.19659197 -0.04547228 -0.09419368 -0.06891336 0.030499639 -0.13785051 0.022196764 0.0780884 0.09567499 0.07050954 -0.0033008258 0.15557702 0.10977772 0.0107638 -0.02279961 -0.014044384 -0.1419741 0.014132448 -0.026090447 -0.017932462 0.12206573 0.07476945 -0.05229764 0.017577307 -0.03871111 -0.058601387 -0.02901599 0.0057611875 -0.012679964 -0.047588732 0.005777701 -0.037204776 0.09678492 -0.101640545 -0.100095354 0.1251741 -0.120856844 -0.024366412 -0.02769571 -0.060633592 0.05493854 -0.09046273 -0.036822215 -0.047302507 0.09319426 -0.033692665 -0.04642313 0.104269475 -0.08731355 -0.07884184 0.013808178 -0.08635589 -0.16333146 -0.118475005 -0.012645242 0.046080902 0.11397925 -0.118356206 -0.041245088 0.26006487 0.019705249 0.062860675 0.13359429 -0.029995924 0.043841124 -0.1053725 0.05784396 0.005200255 -0.008769094 -0.052121736 0.074066035 0.07268092 -0.059347827 -0.0411594 0.009074367 -0.080711216 0.00296795 -0.19868514 -0.1125919 0.2522596 -0.0034480605 0.043932047 -0.078994155 0.12448105 0.05178593 0.10835909 0.09986715 0.049343932 0.11038869 0.050436422 -0.12336915 0.07746786 -0.07144987 0.08236584 -0.0037926876 0.032041788 -0.07051334 -0.066005215 -0.034719165 0.28629005 -0.07284396 -0.16511442 0.045447808 -0.015697617
54 0.3047262 0.12007928 -0.17121042 0.20027708 0.0597742 0.057885367 0.010262487 -0.037060145 -0.056469478 0.029420981 0.04135838 0.1334175 -0.077330366 -0.08973295 0.12914553 0.1231145 0.0714688 0.045264855 0.043671973 0.035640817 -0.010345069 -0.17313525 -0.052625902 -0.071175635 -0.25443465 0.050314248 -0.24852338 0.07146503 0.15442957 -0.011466151 0.111353286 -0.16771959 0.08718447 0.20780402 -0.08180157 -0.0016058885 -0.00489455 -0.07572185 -0.13513549 0.038937595 -0.09778264 0.066123426 0.058730785 0.06467644 0.006002081 0.17690289 -0.09140319 -0.2661093 -0.14540307 0.0994484 0.042512853 0.0986307 -0.07340793 -0.06536955 0.048632827 -0.100259066 -0.04476846 0.043635227 -0.15189102 -0.049406976 0.029726213 -0.1713892 0.19726445 0.088677526 0.18898486 0.019702464 0.027772855 -0.0006943799 -0.1726106 0.07022776 0.17394578 0.07250373 -0.28054 -0.25902316 0.2516056 0.14157963 0.07851875 -0.16539952 0.014979136 0.033713363 -0.07558219 -0.10040764 -0.07221033 0.3134511 -0.13496669 0.028715534 0.035880048 -0.14270192 0.17891942 0.22055958 -0.15706989 0.07161892 0.027192216 -0.052307587 0.1385439 0.0075864103 0.03812442 0.008173114 -0.33876893 -0.16608608 -0.06753243 -0.061460488 -0.014470557 0.0019277512 -0.051682945 -0.20901601 0.035831086 -0.020953469 -0.15542337 -0.052358642 0.1452954 0.014755905 0.090427935 0.12020352 -0.015124333 0.040746655 -0.00034427256 -0.14572799 0.032570623 0.16736911 0.014623382 -0.044675447 0.014244252 0.08060353 -0.040711064 -0.10750618 0.051878076 -0.10279791
57 0.0068464293 0.0055101975 0.02045654 0.061315127 0.05165704 0.03177074 0.103927664 -0.0113357585 0.04619835 0.11001932 0.121343866 0.014240628 -0.1006306 -0.015901128 0.19619016 0.07963437 -0.120242745 -0.015098872 -0.093695275 0.13517953 0.04955926 0.010468236 0.040449467 -0.07209944 -0.114241794 0.004356724 -0.097522534 -0.00090342754 0.005300077 0.04965973 0.07019951 -0.011908602 -0.0020517507 -0.031247884 -0.061273955 0.11919295 0.002260536 0.03887403 0.017249351 -0.007194089 -0.039939538 -0.09184907 -0.098607905 0.035847355 0.14226456 0.110494226 0.062275548 0.041189395 -0.066475436 -0.05543701 0.11032104 0.009239125 0.015426075 0.063213035 -0.047961157 0.10831654 0.09483452 -0.042555287 -0.06283332 -0.009362456 -0.110664055 0.05508092 0.06790591 -0.013421268 0.21933115 0.0013159004 -0.05636338 0.08659419 -0.06836247 -0.08337573 -0.10010699 0.01564907 -0.12311642 0.022172885 0.10894605 -0.055039242 -0.14463253 -0.0932242 -0.117265455 0.122184865 -0.067431904 -0.043723393 0.04088369 0.114834815 -0.009799115 0.050148137 0.052435152 -0.09331255 0.049507774 -0.047887824 -0.07234758 0.051238444 -0.0035042244 -0.08095586 0.22065869 -0.048259933 -0.029257549 -0.110604286 -0.036358584 -0.17246568 -0.0052774237 -0.091963746 -0.14862645 0.012989005 0.002552468 0.102326594 -0.116664164 0.021377636 -0.019813703 -0.08706525 0.018109431 -0.03710508 0.028316952 0.047069576 -0.06872234 -0.07275616 -0.020229194 -0.038956378 0.18747815 0.069302775 0.025480907 -0.11210813 -0.03926429 0.13338768 -0.08806384 -0.071225576 0.09675274 0.013518678
59 -0.09879895 -0.05229519 -0.1190243 0.06831453 -0.011877481 -0.011545002 0.0141454805 0.0066881496 0.050391857 0.12105048 0.05858544 0.037855364 -0.113580786 -0.03661757 -0.051695097 0.12381833 -0.14608236 -0.15482105 -0.14970455 0.14892371 0.07592568 0.006563954 -0.08481402 -0.10999481 -0.16502279 0.030127745 -0.18017733 -0.0589845 0.07924298 0.005302071 -0.015935203 -0.02601412 0.080781765 0.013396845 0.031335033 0.020218216 -0.054310214 0.030867912 0.17079075 -0.057339814 -0.026784893 0.041781206 0.016878668 0.021656226 0.05939359 0.044657763 0.05681783 -0.06245461 -0.13915376 0.102103285 0.11281818 0.08917792 -0.023182156 -0.03895669 -0.026149265 0.11217064 0.1857969 0.01708544 -0.14626244 0.031283274 -0.08155893 0.13786241 0.07225339 0.046699263 0.072204165 -0.015200277 -0.099779494 0.20783849 -0.084421344 -0.18002056 -0.05562119 -0.017364895 0.06338261 -0.097222924 0.14625123 0.026716517 -0.0717259 0.07972372 -0.016986858 0.14878596 -0.05478897 -0.17898084 -0.011266778 0.12305835 0.07532284 0.0004990124 0.0064172945 0.035212185 0.043699462 0.06635526 -0.025353855 0.0847573 -0.09344532 0.002202998 0.19637877 -0.0028958814 -0.049376853 -0.11271807 -0.021273404 -0.20323174 0.1172849 -0.07475056 -0.16383922 0.10561568 -0.04250916 -0.05934307 0.005492975 0.13562699 -0.06691601 -0.0601165 -0.0074706664 0.008300616 -0.024903495 0.06284162 -0.114586264 -0.047844924 0.0009517955 0.0033736234 0.06175626 -0.021145131 0.015332478 -0.15723152 -0.0016840192 0.030054023 -0.026095325 -0.0564391 0.022753071 -0.070718236
60 -0.07067508 -0.0911765 0.12079143 0.033100635 0.122075126 0.055446915 0.019522324 -0.07302475 0.038481236 0.23390847 -0.022869145 -0.15126795 -0.07611243 -0.045688733 0.034494437 0.027039936 -0.04607169 -0.12235148 -0.100017555 0.1437749 0.0032694135 0.011559069 -0.1680091 -0.15277305 -0.066187985 0.025799818 -0.18034932 -0.07079101 0.0047916933 -0.046477556 -0.057946116 0.020891115 -0.039232627 0.059253737 -0.005889028 0.03551348 0.011768414 -0.053547096 -0.0670843 0.017127069 0.005834932 0.08796257 -0.019652385 -0.082423754 0.068308234 -0.087354116 -0.11647911 -0.021492835 0.08265176 -0.077165134 0.065676555 0.088163674 -0.029511645 -0.09687086 -0.06574266 -0.033995956 0.03142385 -0.034353454 -0.125973 -0.15856406 -0.13740276 0.0026271679 0.21205336 0.026917571 0.1546514 -0.04176404 -0.10861579 -0.03811771 0.025894323 -0.065609656 -0.039114248 -0.01704986 -0.050975468 -0.037924316 0.013669132 -0.122382164 -0.07776946 -0.014293269 -0.010449572 0.12784414 -0.06631455 -0.17940806 -0.038487494 0.23099491 0.075117745 0.06296012 0.09993098 0.035794333 0.10350906 -0.013764664 -0.026780302 -0.010475317 0.16329955 0.06461516 0.14947316 0.072079346 0.063022524 -0.04031117 -0.014796062 -0.08012011 0.042248975 -0.07162261 -0.120632716 -0.049984064 -0.079817936 0.02372395 0.0060354737 0.050911985 0.005415239 -0.073757604 0.101965815 -0.054562878 0.092282176 -0.005358096 -0.08004958 -0.011553515 0.007964051 0.12765895 0.0917224 -0.083748214 -0.052419428 -0.05253469 -0.04789265 0.04827013 -0.041023977 0.05052479 0.032951593 0.06876405
63 -0.045925185 -0.046712294 -0.16413924 0.04229693 0.06439156 -0.098385416 0.051323712 -0.03617679 -0.028054276 -0.031997103 0.057648588 0.0008749674 -0.18502323 -0.14640498 0.054892085 0.12986627 -0.22097026 -0.09394064 -0.32337058 0.19470236 -0.007306168 0.10148369 -0.013032346 -0.12594447 -0.12598327 0.023057994 -0.06192794 0.1298082 -0.034083996 -0.12520397 -0.08648105 0.16654441 0.02404834 0.11448798 -0.048274666 0.03179981 -0.028692394 -0.01103617 -0.060752995 0.009390277 -0.12953684 0.1719076 0.042358592 -0.123534776 0.17043477 -0.044794995 -0.053053807 0.17393501 -0.008646377 -0.24961603 0.13544244 0.033380695 -0.14699773 -0.11777762 0.11731846 0.004249168 -0.022161169 0.05676479 -0.046653282 -0.06046579 -0.2054156 0.113299526 -0.0051236153 0.10425696 0.13701132 0.06277955 -0.063575625 -0.0028487102 0.12438516 -0.019750003 0.089677215 -0.06954323 -0.061288297 0.005273899 0.07600722 -0.0018219514 0.01359304 0.18600759 -0.05278108 0.13246498 -0.10164834 -0.23051763 0.22738081 0.23495296 0.0495176 -0.06002409 0.054155156 0.11035977 -0.019716103 0.11949376 0.080915324 -0.07494572 0.06388483 -0.10939471 0.15328006 -0.03559528 0.015258246 -0.049352027 -0.04384695 0.109191276 0.048824187 0.08673012 -0.13092038 0.08076666 -0.07359197 -0.039780263 -0.14183515 0.059913788 0.004180775 -0.1097144 -0.004912013 -0.007224388 0.24310139 0.07651226 0.01813506 0.0634018 0.07379077 0.011438191 0.19900312 0.10768977 0.0027108542 0.03294618 -0.030390583 0.21665329 0.036157914 -0.04837492 0.0886299 0.016177742
66 -0.095230706 -0.03703748 0.055102002 0.0487098 0.121057294 0.16717437 0.012370332 -0.053945094 -0.10224965 0.15351316 0.019671595 0.04396807 -0.25038284 -0.058286976 0.0337513 0.051039923 0.12888013 0.06013605 -0.045526102 0.08141713 -0.013472428 -0.003142367 0.08546853 -0.07784828 -0.21496771 0.07104771 -0.18334319 0.045707785 0.10568735 0.04119592 0.09945586 -0.13467632 0.09032397 0.057338126 -0.22527725 0.062401097 0.006703278 -0.11034398 0.15179335 0.016576089 -0.023720946 0.0139649175 -0.0665431 0.079346254 0.06534539 -0.032975636 -0.057613716 -0.052654795 0.037152626 -0.0031651575 -0.025296524 0.10535811 0.09266867 0.015179164 -0.04189377 -0.10556066 0.15860035 -0.007452712 -0.07584994 -0.14654739 -0.2650913 0.09740916 -0.087856255 0.07950683 0.07976699 -0.14995112 -0.068161115 0.028486643 -0.1061591 -0.22868432 0.038174834 -0.07592439 -0.03591173 -0.2374278 -0.022836724 -0.107008025 -0.09071023 -0.02857718 0.031441797 0.03868109 -0.07259294 -0.14065072 0.020799398 0.17997462 -0.0134665575 0.111119166 0.10216299 -0.046654273 0.038690776 -0.048727226 0.014613908 0.008927718 0.06647031 -0.15971093 0.16820085 0.12627886 0.110497355 -0.09850813 -0.13809909 -0.11942218 -0.00031370253 -0.11013614 -0.15274094 -0.025488464 0.0067567923 -0.07211429 -0.020455457 -0.095198296 -0.0014696294 0.1308555 0.0432476 -0.012303248 -0.019139402 -0.028044578 0.025525317 0.05376195 0.09078873 -0.03009519 -0.036414564 -0.06576185 0.012614658 -0.07457057 0.009533092 0.0740428 -0.029023884 -0.019847227 -0.016336167 0.14437777
67 -0.036436282 -0.070594594 -0.17626543 0.11450269 0.12401597 -0.12680237 0.08863534 0.069874376 -0.046582982 0.10665555 0.046916705 -0.16157995 0.023979938 -0.015430223 0.012581841 0.0728515 -0.033240654 -0.1175355 -0.069357865 0.18998672 -0.01384941 -0.10082276 -0.061437335 -0.24089663 -0.13308056 0.12209442 -0.24098074 -0.035020836 0.028817123 0.010993841 0.12232991 -0.0047396477 0.061084684 0.07058027 -0.020389386 0.019037304 -0.013495941 -0.16345611 0.1673791 0.09631567 -0.14235696 0.12181211 -0.039406136 -0.18643446 0.070552886 -0.0533083 -0.08263238 0.1111332 0.025172068 -0.043148093 -0.03151102 0.071572475 -0.13002966 -0.016057426 -0.15437931 -0.008211427 0.18632519 0.046443187 -0.048829984 -0.013280151 -0.19188538 -0.0066849454 0.14863144 0.02879366 0.0429997 0.07971282 -0.021129439 -0.029292144 0.018952785 -0.0320453 -0.0992771 0.029043945 0.07944234 -0.00828217 0.16171682 0.079133466 -0.06609001 0.1424205 -0.1304724 0.22387543 0.0019966771 -0.07342898 0.015945802 0.15325524 0.05686434 0.02603279 -0.08520077 -0.0048018005 -0.002898965 -0.19308656 -0.04815241 0.17538331 -0.093670726 -0.11762854 0.14609051 0.07756244 -0.13352896 -0.12033223 0.114147246 -0.13113204 -0.014630361 -0.08917883 -0.13961855 -0.048724838 0.004540948 0.07073888 0.034248285 0.0153123215 -0.010272635 -0.041591816 -0.08755496 -0.06738092 -0.09592865 0.063655086 -0.01325335 -0.06391703 -0.08055319 -0.13589112 0.13664657 0.0019580144 -0.17835514 -0.07757815 0.018607546 0.14796412 -0.073745824 -0.16986898 0.067844376 0.12770517
72 0.07219132 -0.17728509 0.045346744 0.070937164 0.08947992 0.16138464 0.14231093 0.18846057 -0.10327519 0.06664433 0.017053796 0.04082597 -0.06555472 -0.14400166 0.10311155 -0.056683563 -0.19716354 -0.11717585 -0.08268982 0.053627744 -0.033641316 0.027059194 -0.0957863 -0.12621756 -0.061999507 -0.099313155 -0.104085356 -0.06493932 -0.043759394 -0.038185775 -0.0101459855 -0.019991098 0.14235654 -0.021356443 -0.3021952 0.037712235 0.08793271 -0.047862425 -0.02568076 0.07911094 -0.17237362 -0.045597944 -0.011179169 -0.10505633 0.11467939 0.12169299 -0.15177415 0.007002771 -0.032792564 0.0054301787 0.08352019 0.10941275 0.17189085 0.0954257 -0.12339416 0.08996757 0.034103807 0.0015147118 -0.20265783 0.052895177 -0.12827374 0.06454309 0.16912617 -0.0098767 0.16595021 0.018852714 0.019749302 -0.012006582 -0.13787666 -0.1685541 0.06504776 -0.13799578 -0.1714635 -0.13035662 -0.11643526 -0.08627598 -0.12171774 -0.041135896 -0.064299285 0.20602772 -0.08927636 -0.10452731 -0.10945061 0.23978935 -0.06284497 -0.049502578 0.08010383 -0.09757571 0.016961545 -0.030583385 0.008163496 0.053566623 0.13769425 -0.034054175 -0.02501664 0.12561099 -0.16760944 -0.011181281 0.054013886 -0.06779907 0.0740606 -0.053303625 -0.18457271 0.06770421 0.05474862 0.0027487185 -0.05424969 0.14577365 0.048016284 0.09336666 -0.0008178844 0.05200263 -0.016685924 -0.03892305 -0.08058174 -0.19551563 -0.038587265 0.01246378 0.011943707 0.0048638075 0.0012484643 -0.011803189 -0.0021865498 0.077925906 -0.07141851 0.07344234 -0.0057931053 -0.09093167
76 0.06734829 0.02360811 0.06739267 0.054448143 -0.03783081 0.023231966 0.084333666 -0.03138321 -0.08738403 0.090657 0.03440954 -0.07060472 -0.042057127 -0.041373614 0.092599876 0.1475721 -0.051354274 -0.10223356 -0.00694045 0.05972785 0.060922187 0.117695116 -0.051296864 -0.10584184 -0.18620579 0.09208311 -0.106247865 0.0058215274 -0.08588853 -0.085430235 0.028416663 0.028998967 0.04714895 0.09693055 -0.13399966 0.059696835 0.11202892 -0.07039575 -0.0481543 0.059901036 -0.017252218 -0.08192787 -0.008710583 -0.020692818 0.20769225 -0.016737886 -0.12242273 0.09093073 -0.040111225 -0.055321384 0.051835474 -0.03342441 0.07491901 -0.038801987 -0.068806686 -0.041804537 0.087614074 -0.006907549 -0.07200962 -0.0064391596 -0.043516576 0.048093714 0.08102736 -0.02004439 0.22465557 0.0030810884 0.08395283 -0.005093444 -0.0193436 -0.16732448 0.117586546 -0.018966295 -0.12436569 -0.057967704 0.06449201 0.017875832 -0.029878357 -0.061783932 -0.11745069 0.12954868 -0.006669783 -0.11551551 0.1401296 0.18531007 -0.08759006 0.13387655 0.07466137 0.07372838 -0.12445291 -0.08948885 0.003660134 -0.06399042 0.12654473 0.053836945 0.111132644 0.14236082 0.010418161 -0.066799 -0.050156076 -0.07267123 -0.04243976 -0.11149685 -0.03287646 0.0073092263 -0.05244241 -0.04599363 -0.0003701805 0.003810034 -0.00053776946 0.057658497 0.12757313 0.016684862 0.021831298 0.0046677357 -0.17053469 -0.051242493 0.06316221 -0.019471165 0.10989667 0.048299525 0.12970564 -0.02483311 -0.019451028 0.07027113 0.046789862 -0.061133478 -0.011361838 0.03812869
80 -0.15892622 -0.124056526 -0.058116123 -0.025890412 0.21717745 -0.12966383 0.047399197 -0.007989632 -0.07167899 -0.018778773 0.24894272 -0.18377681 0.05525629 -0.047589947 0.051768865 -0.17129748 0.048935406 0.10218764 0.14477666 -0.08504276 0.14823882 0.106533624 0.06928558 0.13865429 -0.23802449 0.16196585 -0.042166367 -0.07499302 0.038827766 -0.035457395 0.07552339 -0.03818694 -0.01489101 0.050305713 0.17236754 -0.003362296 -0.09659175 -0.00051223784 -0.06962491 -0.198967 -0.11763272 -0.10193338 0.020636931 0.0450715 0.06603262 0.14020409 -0.07862844 0.11422721 0.02592299 0.066669315 0.1554226 0.22942863 -0.06862492 -0.06361653 0.018624958 -0.19195363 0.11568449 -0.07505822 -0.18371744 -0.0043952568 -0.026226517 -0.061699763 0.022658572 -0.1416043 0.12367641 -0.026203506 -0.14430632 0.008240533 -0.13989414 -0.31750453 0.08747627 0.09196879 -0.11490957 -0.1172506 0.014514178 -0.14726245 -0.022999024 -0.20080352 -0.056032363 0.15529835 0.07022216 -0.086051024 0.1283755 0.31031483 0.039538465 0.02536723 0.050923754 -0.17224093 0.044524122 0.10722388 -0.20662439 -0.10008072 0.19112325 0.03424028 0.23031047 0.050888404 -0.002396576 -0.12949044 0.004358877 0.016700832 0.09535785 -0.018142452 -0.06380847 0.2475179 -0.058608137 -0.038132746 -0.08828509 0.10644432 -0.009718575 -0.024307994 -0.03768408 -0.101409465 0.0035954234 0.22983004 -0.11087636 0.024035469 -0.010517558 -0.005409904 -0.06778709 -0.055511903 -0.10337225 0.021866657 0.12932993 0.1467655 -0.16554452 -0.26459143 -0.032868143 0.023566043
83 0.092838116 -0.046836033 0.088449076 -0.11511583 0.08159757 0.080831476 -0.0081616845 -0.053759873 -0.16690302 0.109850325 -0.011473762 0.05818607 -0.023615679 -0.08822371 0.085766666 0.103579156 0.07377142 -0.16339366 -0.114507765 0.093494296 0.1132434 0.01815884 -0.055738993 -0.050344903 -0.1589126 -0.031653352 -0.16891716 0.2292019 0.07607114 -0.06795637 0.047472503 -0.07493703 0.08143388 0.13030218 -0.055424053 0.13234702 -0.03284114 -0.015155653 -0.12126783 0.12293782 -0.059188474 -0.0979942 -0.011828684 0.022868723 0.0614385 -0.070251666 -0.04740102 0.1526432 -0.0012059144 0.00074893166 0.004186888 0.21952446 0.06771906 0.040387142 -0.13105445 -0.06544391 0.1483482 0.024952982 0.011852619 0.02739399 -0.11734257 0.1584364 0.1613433 -0.0069249156 0.20973022 0.0248695 0.04518126 -0.020264354 0.039254162 -0.09591904 0.014434479 0.075892866 -0.015940048 -0.111685045 0.09596186 -0.09743457 -0.022638392 -0.06441694 0.011128759 0.10121071 0.07539647 -0.21199186 -0.013743167 0.14148799 0.08866548 0.0863911 -0.071922615 -0.022430334 0.03746262 0.0080104135 -0.043229878 -0.027224256 -0.044467032 -0.11964245 -0.017599966 -0.018557332 0.109019056 -0.10765329 -0.040175237 -0.094620906 -0.060286365 -0.16599812 -0.23924462 0.089699976 -0.17436378 0.03386762 -0.06013652 0.07807315 0.047985166 0.081281684 0.08177868 -0.033200808 0.099558264 0.12645668 -0.052250143 -0.072941504 0.045998383 -0.058615115 0.08913201 -0.113689974 0.030221641 0.0012935535 -0.054726183 0.052239638 0.07738008 -0.0034006091 -0.10471946 0.04755568
88 -0.16229717 0.0236899 -0.1713894 0.008710236 0.13663441 -0.022656517 -0.019272393 0.028530242 -0.07996507 0.0725469 0.069887966 -0.062395576 0.023096636 0.056510165 0.087966576 0.09880939 0.026465964 -0.051532418 -0.069983125 -0.0617048 0.051080693 0.13222654 -0.17394926 -0.01833322 -0.064983584 0.12821388 -0.09435095 -0.043056317 0.07974668 -0.10575963 0.07589501 -0.07503237 0.18616255 0.058550444 -0.04175466 0.0064388197 0.10544693 -0.051809963 -0.08046482 -0.02620102 -0.13353403 0.09757169 0.031917524 0.11675506 0.20469794 0.01322723 -0.063682415 0.109680824 -0.0077797673 -0.057949357 0.13125044 0.22518536 0.13469669 0.028030735 -0.062372137 -0.13117185 0.1252335 -0.022359319 -0.08612598 0.037782624 -0.19720669 0.03290207 0.11771314 0.063158974 0.11000078 -0.06267146 -0.10688257 0.023055723 -0.035954002 -0.24507922 -0.009989107 -0.101824865 -0.18906522 -0.17024578 0.06574014 -0.019649446 -0.05886195 0.046413623 -0.010563171 0.10891118 -0.13120979 -0.14706458 0.096828006 0.102938674 -0.016898984 0.10923863 0.10667044 -0.03218274 0.04566382 -0.0375749 -0.19299777 -0.10079412 -0.012801426 -0.06483268 0.001019724 0.11530181 0.13585845 -0.15599136 -0.056601275 -0.03026145 0.012612581 -0.11658018 -0.13210642 -0.10463919 -0.111639574 -0.038437 0.07334189 0.027240062 0.083546564 0.058616634 0.0017160005 -0.05230141 -0.038177013 0.04663727 -0.17411914 -0.114327714 0.022772763 -0.0009071918 -0.13522752 0.06777452 -0.0029768755 0.029409792 0.017167605 0.008421712 0.054233756 -0.12691177 0.042109016 0.040227104
91 0.043104656 0.062339585 -0.037235487 0.02328285 0.04759524 -0.03457876 -0.007932485 0.006783064 0.049847174 0.03784598 0.010471835 -0.005512574 -0.12841865 -0.048683066 0.21950667 -7.130315e-05 -0.039019417 -0.07643276 -0.17882782 0.027667427 0.056505416 -0.06272271 -0.20098111 -0.10104689 -0.22911596 -0.0077421586 -0.18191871 -0.019988079 0.059735578 -0.010295478 0.10211044 -0.014155535 0.039741166 0.13984801 0.124258 0.09622673 0.07043618 -0.07810275 -0.055123966 0.036247864 -0.13050015 -0.0067145783 -0.09826062 -0.05524395 0.18377595 0.13119306 -0.037113998 -0.103205495 -0.029733453 -0.053511374 0.062767446 0.13539739 -0.05860972 0.0048065474 -0.019080622 0.09436542 0.06050349 -0.011963072 -0.059322745 -0.076147035 -0.066034086 0.13153233 0.0019297429 0.16644025 0.09512599 -0.1569574 -0.08011056 -0.05520181 -0.040585294 -0.06714975 0.05288215 -0.13951038 -0.067160614 -0.06384445 -0.009479124 -0.0003556475 0.071742296 -0.016727034 -0.010181566 0.1315268 5.1601593e-05 -0.075294435 0.062481012 0.22118218 0.0086903125 0.10878211 0.038774792 -0.046009753 0.07141982 0.037869442 -0.14609148 -0.04271534 0.053628735 -0.07128057 0.08186568 -0.03194247 -0.10008223 -0.0072305514 -0.09100997 -0.04875604 -0.022591235 -0.026710218 -0.089509204 0.0052329795 -0.047761444 -0.019806111 0.028050883 0.10789749 0.040623184 -0.08065895 0.078478 -0.052300677 -0.12674965 0.06933875 -0.10777442 0.0034619202 0.01957405 -0.022660688 0.08754655 -0.062327016 -0.005820214 0.004967271 0.005046607 0.14351512 0.014576462 -0.02804375 0.035511497 -0.04580773
93 0.08766166 -0.026357101 0.08174231 0.06524254 0.100105226 0.10277091 -0.1075353 -0.017874822 0.020586794 0.043271177 0.08786096 -0.047480166 0.011901182 -0.039981574 -0.031650078 0.104410134 -0.14635639 -0.08850578 -0.16087817 0.161266 0.08355376 -0.07853983 -0.14546904 -0.23536618 -0.07149122 0.070066564 -0.16023645 0.07332623 -0.11052564 -0.07271094 -0.04365996 0.0053972416 -0.060143653 0.18444194 -0.07291721 -0.00768959 0.1465229 -0.056624506 0.0429683 -0.07953296 -0.04779379 0.008847631 0.12962894 0.10890578 0.056946408 -0.07707227 -0.035128545 0.017476149 -0.03182953 0.10703235 0.01168869 0.1829078 0.06877011 -0.106974006 -0.022318322 0.06972656 0.19996424 0.18349132 -0.076616436 -0.20562452 -0.011473361 0.0772019 -0.013517149 0.06487225 0.13058306 0.059590638 -0.0067828223 0.025312778 -0.12557235 -0.06630393 0.054696266 0.039679702 -0.12686358 0.047290236 0.057361692 -0.036160346 -0.04808645 0.15101795 -0.03000394 0.1184638 -0.010160871 -0.1226006 -0.04178823 0.18918923 0.08324789 0.3213344 -0.013900309 -0.016640639 0.017670432 -0.003860506 0.098454624 0.0006126487 0.12489611 0.0137968855 0.0426762 0.058920197 -0.037151363 0.072112076 0.027458448 -0.040042706 -0.15462524 -0.11304279 -0.04082545 0.18701597 -0.027622238 -0.11449741 -0.11080093 0.06405152 -0.01801051 0.042423762 -0.058255132 -0.11927327 -0.13126667 -0.11152663 -0.18852821 0.16021125 0.042895444 0.0038432062 0.026497621 -0.04879058 -0.002183563 0.03839624 0.005056336 -0.0039711054 -0.18092006 -0.16429816 0.036147308 0.04248272
99 0.12972929 -0.07418248 -0.08745737 0.11198061 0.19656317 -0.012276468 -0.04293542 -0.0074944133 0.0049790516 0.26343435 0.021647435 -0.07407871 -0.10159439 -0.0009651287 0.14950962 0.009556381 -0.036600683 -0.19934177 -0.1532189 0.025046825 -0.033505343 0.12505844 -0.15038554 -0.055318784 -0.13891616 0.14110756 -0.114422016 -0.045159124 -0.08410716 -0.098593 0.0727635 -0.1085215 0.09770824 -0.046157025 0.09612015 0.02944966 0.07478856 -0.049312804 -0.0141269835 0.13037772 -0.018814282 -0.006560486 -0.067389205 0.033862013 0.05885884 -0.07071775 -0.13614744 -0.045815542 0.037583437 -0.011395812 0.15271497 0.07800582 -0.049686637 0.13628373 -0.07002785 0.07407375 0.093988515 0.06560227 -0.029483765 0.05128739 -0.26994762 0.05374311 0.023250869 0.044077072 0.13549736 -0.0680443 0.0045873257 -0.0005820202 0.019523919 -0.14245608 -0.04758149 0.06055257 -0.017745696 -0.10516625 0.09639111 0.050304573 -0.021262849 0.013607149 0.012960261 0.17875716 -0.022395093 -0.06297409 -0.06313934 0.07310784 0.02042115 0.07771826 0.019180832 -0.17425638 0.05517974 0.066248976 -0.030866142 0.0021721548 0.0462134 0.032863263 0.054126374 0.0221001 -0.04079617 0.045401152 -0.10098814 -0.17954397 0.043894254 -0.041671596 -0.09525355 0.031937674 -0.038031638 0.0141903 -0.06915214 0.1558127 0.073821716 0.11687655 -0.033026494 -0.07296479 0.0108270785 -0.04909361 -0.0787568 0.054185618 0.05762832 0.056135837 0.13389023 -0.17101151 0.04012608 -0.14650902 0.0015701896 0.09025816 -0.10219691 -0.06479901 -0.008267589 0.04850354
105 0.09230524 -0.050998386 0.108068205 -0.05564307 0.15601343 0.15816927 0.3233801 -0.061463874 0.004270813 -0.29490954 0.16507898 0.00580975 -0.0489788 0.09594356 0.11041434 0.120493226 -0.013029425 -0.014966153 -0.20157047 0.14517291 0.2421142 -0.23964038 -0.22748388 -0.040918328 -0.087823056 0.12327206 -0.48701876 -0.026478315 -0.13112445 -0.20306425 0.07325935 0.12952748 0.091499634 -0.0014184177 0.12530835 0.5036538 0.22251105 -0.33303732 0.18837881 0.0679039 0.082632415 0.09599497 0.09378616 -0.021523511 0.009722891 0.019723067 0.26328433 -0.008902349 -0.21203038 0.09552163 -0.2949816 0.15683638 -0.017072057 -0.055168957 0.04478416 -0.16494961 0.024099365 -0.054325435 -0.3444705 -0.15410171 -0.14916533 0.36367926 0.098694384 -0.0141091 -0.08298922 0.033282336 -0.15521789 0.054516263 -0.08871224 -0.349555 0.21183866 0.040742896 -0.13309914 0.10308007 -0.09732352 -0.081195734 -0.035734784 -0.0871506 0.057848897 -0.07574982 0.04424559 -0.22217323 0.014221464 -0.029564628 0.036610708 0.15266766 0.08819674 -0.086370505 0.22892377 0.07069152 -0.20271936 -0.09514763 -0.13136742 0.015703276 0.23109409 0.044353258 0.041242607 -0.02724888 0.16140333 0.28250313 -0.12555416 -0.038654316 0.02396571 -0.013324617 -0.1785823 -0.035690516 -0.12168088 0.0061237067 0.15620479 -0.059117116 -0.1416693 0.116651066 0.27105895 -0.24583733 -0.19739941 -0.08977073 0.09813982 0.093909875 0.1373294 0.33001488 0.13121544 -0.2331763 0.11632394 0.017819848 -0.23740026 -0.010837337 0.113605805 0.1537803
106 0.09751136 0.08803956 -0.13560717 -0.03646381 -0.008073026 0.009156595 0.031183677 0.07502269 -0.10474328 0.04747839 -0.03913232 0.012992293 -0.034604132 0.062425096 0.106111646 0.07194512 -0.003620075 -0.052781902 -0.061860796 0.12707143 0.11130536 0.024423249 -0.10563907 -0.027051102 -0.22483844 0.07402244 -0.1698378 0.07506725 0.022336105 -0.064110756 0.12353989 -0.03127916 -0.0045221685 0.14316803 0.06664277 0.0962168 0.11431827 -0.020469138 -0.088908896 0.077117264 -0.09982675 0.033620063 -0.023518534 -0.038738117 0.13869122 0.019505702 0.02694576 0.031098505 0.06070654 0.029442199 0.0093264 0.09393914 -0.04034072 -0.0853219 0.004268502 0.05394751 0.04159006 -0.0155985905 0.01289993 -0.06885183 -0.06287179 0.122481845 -0.005476864 -0.026207825 0.13511816 -0.04331903 -0.035614286 0.007703277 -0.004232977 -0.1217811 0.02040368 0.01953874 -0.078348435 -0.07367833 0.10976479 -0.022264525 -0.07287403 0.049747143 0.017380117 0.10452485 -0.07069464 -0.16185023 0.029096937 0.17901348 -0.04300113 0.20686238 0.046988424 0.01359209 -0.06300241 0.16971919 -0.23353308 0.0148570165 0.010601586 -0.075551696 0.116190456 -0.0070007415 0.03734807 -0.027327534 -0.06303228 -0.07704612 0.0030010915 -0.070453495 -0.057242185 0.06361828 -0.10579675 -0.047556087 -0.05156106 0.07554968 -0.029322272 -0.06893718 0.10160002 -0.051429827 0.071976654 -0.009128945 -0.10720685 0.021884104 -0.037419435 0.00048007016 0.16467583 -0.08525434 0.07068545 -0.03433517 0.04653304 0.09165395 -0.0943131 -0.049509417 0.038665976 0.03993272
108 -0.09011717 -0.008528973 -0.10853881 0.09564876 0.088819 0.013526104 0.011045 0.012509793 0.047151264 0.040926326 0.1462012 -0.05561747 -0.034991387 -0.073707774 0.10381261 0.08430855 -0.080683045 0.021515006 -0.067099005 0.13830282 0.056310963 0.0381964 0.026446264 -0.098876975 -0.1597527 0.013019312 -0.13108997 0.002399386 0.10678409 -0.14550753 0.010551832 0.0697369 0.00674419 0.12798887 0.014659835 0.07722693 0.04907893 0.015739784 0.06940643 0.0073797535 0.046291683 0.11994886 -0.10319371 -0.07646285 0.0012863734 0.035456795 0.009062369 -0.049868323 -0.1526793 0.061550826 0.053487677 0.09386157 -0.034015294 -0.032348573 0.04448582 -0.027395386 0.06988494 -0.050646618 -0.08341331 -0.020079095 -0.15423462 -0.017672557 -0.031255964 0.0536396 0.14656965 0.02041926 -0.06735157 -0.010806039 -0.064011544 -0.10176726 0.06616044 -0.0759203 -0.009201127 -0.04111714 0.08554374 -0.16295625 0.12596448 -0.110870466 0.064331986 0.15188633 0.051157143 -0.21927549 -0.0065715113 0.06906797 0.04366975 0.08917714 0.036256574 -0.11459402 0.025542054 0.04899838 -0.08098499 -0.04571496 0.019325335 -0.02240356 0.053367168 0.06299071 -0.08688668 -0.03607422 -0.0859056 -0.135247 -0.16701284 0.06621769 -0.16788825 0.021159282 -0.014585511 -0.09865396 0.06863313 -0.031295065 -0.0032982284 -0.07561944 0.13717727 -0.012176552 0.052273422 0.00732058 -0.12147372 -0.06436478 0.031028366 -0.005493093 0.15366048 -0.019754427 -0.08603704 -0.105284005 -0.046246085 0.14346226 -0.10340014 -0.11392346 -0.001197479 0.009033012
109 0.05292426 -0.030695206 0.05763126 -0.08861573 0.018856902 0.023068773 0.095037684 0.013777007 -0.17743622 0.16722225 0.18865661 0.0682615 -0.0869376 -0.16200034 0.24701323 -0.11705442 -0.17030194 0.051248595 -0.1440525 0.046761587 0.20391403 -0.031954054 -0.26798826 -0.06424924 -0.21048464 0.14539388 -0.0442281 -0.107003726 -0.07562662 -0.12897284 -0.10593122 0.12968805 -0.11996003 0.061014194 -0.1107532 0.115442604 -0.0673684 0.04415272 0.038573798 0.13103262 -0.07596248 0.17903674 -0.05392042 0.20224583 0.10623852 -0.1440741 -0.11710639 0.055490885 0.0026081083 -0.06847752 -0.08005807 0.027168224 0.15946876 0.08306888 0.13974585 -0.00032700182 0.11331514 -0.027831351 -0.11024257 -0.12147762 0.019267978 -0.14957146 0.064857215 0.13443339 -0.050928667 0.020658199 0.1118733 0.023863446 0.015575991 -0.20422293 0.115552165 -0.052775614 -0.16645494 -0.0700358 -0.041161068 -0.05422829 0.03752565 -0.109924816 0.08665228 0.018588515 0.058245562 -0.09742573 0.000111432135 0.12437935 0.04988335 0.1394469 0.13132562 0.04951822 -0.16156201 -0.10700211 0.018772632 -0.106136106 0.04478067 -0.1390685 0.043457992 0.033930402 -0.076146856 0.04941817 -0.06456725 0.00073315616 0.080853686 -0.064087994 0.08881321 0.0936784 0.008246105 0.10791919 -0.046323728 0.14807676 -0.029451393 -0.15183526 0.30114806 -0.070812784 -0.039788328 -0.026788972 -0.15271343 -0.10377336 -0.10590231 0.006336618 0.020185882 -0.09526832 -0.07895003 0.07353368 -0.12646039 0.19721057 -0.06271127 -0.2876484 0.07528985 -0.038420882
111 0.038745284 -0.058047514 -0.037511997 -0.0028807842 0.024160257 0.11381127 0.027858214 0.018721543 -0.010151965 0.07065275 0.05252222 0.09299899 -0.083798654 0.023700284 0.2152233 0.13286683 -0.065334596 -0.06311988 -0.074990116 0.11837066 -0.01717884 0.069072865 -0.08787641 0.018047152 -0.20284216 0.08238476 -0.12403674 -0.078306295 -0.09086017 -0.05959561 0.05942557 0.051224742 -0.0103954375 0.03298202 -0.046179835 0.055550657 0.035847433 -0.101401776 0.112427376 -0.041764677 -0.07194267 -0.0019025616 -0.008536738 0.107376404 0.14953347 -0.11977053 0.012162517 0.036271363 -0.2210832 0.0481568 0.116418086 0.06485283 -0.02298317 0.06812608 -0.043695405 0.028906697 0.18890752 0.024100328 -0.03797496 0.08185655 -0.1309975 0.0848381 0.1507269 -0.033561103 0.0627547 -0.020080108 -0.08437867 -0.116427965 -0.06405632 -0.15915267 -0.073314406 -0.03458052 -0.12316558 -0.039270096 0.008515922 0.045033123 -0.056619257 0.07154391 0.011751508 0.09286351 -0.13740684 -0.09082409 0.049032528 0.2520612 -0.08175484 0.116882384 0.070244245 0.073745064 0.03695214 0.022024088 0.029393198 0.048398327 0.060981095 -0.021577759 0.055332273 0.08592686 -0.0628041 0.0051634344 -0.090515435 -0.046175025 -0.06908876 -0.05039751 -0.108853176 0.07520648 -0.07842044 -0.028918607 -0.029286223 0.01435694 0.036978096 0.13957925 0.05995677 0.02410462 0.028511379 -0.03729477 -0.068614095 0.09604958 0.021040432 -0.057955474 0.07542185 -0.05590551 -0.11669163 -0.052792337 0.011302566 0.014744944 -0.1321364 -0.075414225 0.05460074 0.05966501
115 -0.0349607 0.074470334 -0.08220697 0.014741615 0.13315222 -0.012517369 -0.0048301094 -0.034487713 -0.04061114 0.095789045 0.12125459 -0.099042624 -0.0277512 0.042536117 0.075163595 0.035764765 -0.046296455 -0.021985164 -0.07148761 0.043881338 -0.02885735 0.05015737 -0.08534919 -0.049818803 -0.16894317 -0.031304672 -0.14513037 0.019965546 0.092954844 -0.12570593 0.0023059237 -0.055343173 -0.02752188 -0.007518226 0.026530502 0.121805236 0.023220725 -0.08023965 -0.06493468 0.101085454 -0.07041367 -0.0159343 0.03340328 0.020171119 0.14616886 0.023457304 -0.13657525 0.10864733 -0.11834395 -0.062398694 0.023558926 0.06091544 -0.037491288 -0.015496796 -0.019011075 0.03052701 0.07601941 -0.07905134 -0.077527195 -0.08704102 -0.056889296 0.042432375 0.04802291 0.089566775 0.17905982 -0.08046778 0.05388611 -0.026142202 -0.015472691 -0.10504403 0.004540466 -0.010489473 -0.017326757 -0.0539362 0.02940164 -0.08149352 -0.08477338 -0.0012434123 0.060518656 0.02978234 -0.10336408 -0.14119159 0.015694778 0.17577256 0.019195966 0.1242961 0.013645548 0.014553191 -0.022980688 0.067639254 0.009580411 -0.04254185 0.020779384 -0.03918515 0.07809193 0.00620482 0.017187383 -0.0850586 -0.020585887 -0.1718921 -0.18942797 -0.025174959 -0.022494677 -0.031362057 -0.052131914 -0.06851722 -0.08368933 0.10594208 0.06683491 -0.022197941 0.06954925 -0.023229783 0.04689942 0.068613306 -0.05804731 -0.10363262 -0.0064192316 0.026000975 0.11717402 -0.033918045 0.050321832 -0.09094379 -0.056569993 0.13815762 -0.055669453 -0.12137157 0.06415453 -0.01981708
118 0.06331414 -0.2629017 0.11679414 -0.107134365 0.24691208 0.1731999 -0.11545731 0.07419174 -0.04199796 0.02431719 -0.038871814 -0.043773673 -0.25509566 -0.08530362 -0.007474538 0.054013565 -0.060487833 -0.114453875 -0.1295829 -0.005782194 0.2031219 0.023769135 -0.28966066 0.032122184 -0.11733643 -0.095393375 0.0115301125 -0.11753913 0.068349116 -0.10975146 -0.12448505 0.037023727 0.08445945 0.16305426 -0.0067448565 0.13824524 -0.06015557 -0.14968383 0.08365734 -0.20237261 -0.1349911 0.118303075 -0.07238171 -0.091226265 0.036498193 -0.25607908 0.20988798 0.1370064 -0.12581058 0.0005186386 -0.08106058 -0.006701262 -0.09282402 -0.08035759 0.13053486 0.056994263 -0.043120485 -0.06430541 -0.24870224 -0.026946424 -0.15580967 -0.028751204 -0.06072209 0.090304084 0.26159763 0.089420855 -0.039391648 -0.07342576 -0.05609297 -0.118065864 0.00279819 -0.11528475 -0.33686787 -0.11126659 0.04214114 -0.25002173 -0.20131665 -0.060822774 0.1350031 0.09172597 -0.085835025 -0.2144045 -0.11917014 0.06751175 -0.0635099 0.26116458 0.09155223 0.16165869 -0.17005874 0.09462787 -0.23404974 -0.027786277 0.12642093 -0.02856862 -0.01495979 0.08724469 0.037505176 0.059894495 -0.16101222 0.14213632 0.04205789 0.0691958 -0.12852208 -0.04976238 0.13199455 -0.13401401 -0.21573721 0.046113446 -0.112572506 -0.0009795207 0.27126762 -0.1548368 -0.108277254 0.06834441 -0.15949847 -0.041446786 -0.1555503 -0.022567943 0.20372377 0.03585257 -0.05551319 -0.15943007 -0.14298247 0.10706709 -0.06953761 -0.02448622 0.031372223 -0.22725691
121 -0.15199597 -0.017536025 -0.022612384 0.11365711 0.1655095 0.09941637 0.040820185 -0.08303899 0.017434202 0.10452166 0.22499923 -0.004653052 -0.031588856 -0.054881252 0.12822603 0.06473421 -0.017392237 -0.023466878 -0.12993622 0.057702772 -0.046905946 -0.026719306 0.07650721 -0.0588308 -0.12710087 0.120020665 -0.12271476 0.093290955 0.08691252 -0.044175718 0.058019508 0.06387988 -0.08822609 0.06424831 -0.063021615 0.06596048 0.026954986 0.00015960335 -0.032149628 -0.046351306 -0.08790969 -0.01394033 -0.025301972 -0.024369052 0.1412652 0.029137092 0.0014359055 0.019547084 -0.040051937 0.02658925 0.20445555 0.08384933 -0.10011394 0.043081943 0.0037554489 0.095298514 0.11627604 0.08339194 -0.084559746 -0.0049332185 -0.12967315 0.09276667 0.05059218 0.07892136 0.18490547 -0.09641342 0.013170948 -0.07656078 -0.07583877 -0.09808907 -0.03512977 0.041780587 0.042056944 -0.038292997 0.11496771 -0.16803609 -0.055819128 -0.029931156 0.009204701 0.06419119 -0.07727116 -0.10853212 -0.015110265 0.17571764 -0.068262145 0.10496062 0.048900224 -0.034693774 0.039023552 0.039164737 -0.050113514 0.060192004 0.0013597774 0.006945571 -0.023528935 0.13163535 0.003303787 -0.04981242 -0.14021423 -0.17602828 -0.07383849 -0.0616555 -0.09081183 0.08255073 0.0020828287 -0.08067471 -0.02831928 -0.0024853016 -0.02741788 0.13439585 -0.0052180653 0.0017104825 0.07365361 0.046540752 -0.084521614 0.023703247 0.027151074 -0.036272027 0.12035688 -0.027193306 0.008310439 -0.08862783 -0.084495425 0.050396834 0.014688782 -0.025607785 0.018571045 0.1040167
123 -0.04733136 0.042068318 -0.098619975 0.087958425 0.088277936 0.020236677 0.08939687 -0.06316887 -0.044392638 -0.00055901374 -0.050879817 -0.064275615 0.00079207006 -0.09596541 0.1434255 -0.034545667 -0.09309684 0.05042841 -0.10652419 0.1636867 0.056584623 0.30087382 0.013793026 -0.035419695 -0.10153668 -0.022260027 -0.13668787 0.044938672 0.015669081 -0.08366552 0.020169206 -0.09705236 -0.042517405 0.12977834 0.06320767 0.10206812 0.14038403 0.013593229 0.029884482 -0.025880434 0.048859518 0.02097486 0.07170767 -0.03825037 0.05587813 0.046838865 0.043218445 0.042669497 -0.11387117 0.009203623 0.075049184 0.03183863 0.07891637 -0.0008389967 -0.046396375 -0.022711715 0.12475033 -0.07742469 -0.08085456 -0.0006010583 -0.1425583 0.026632823 0.073215574 0.03221657 0.16904336 -0.061680336 0.16741396 -0.051419396 -0.015761502 -0.19320561 0.05421322 -0.005175071 -0.060173158 -0.0025152147 0.0026644268 0.002863402 0.012183208 -0.09220052 -0.02514187 0.1386694 -0.012733614 -0.09772181 0.022284705 0.24439928 0.09948383 0.13151409 -0.05460547 -0.17863001 -0.042215355 0.02989899 0.019067813 -0.06544562 -0.041832168 0.0128195975 0.10311924 0.10532475 -0.13173646 -0.19187428 -0.115631215 -0.118253395 -0.11876615 -0.01522441 -0.018581772 -0.06999048 -0.058868423 -0.03538029 0.033543866 0.07139845 0.07643685 0.05000034 -0.0052792723 -0.055749442 0.09105205 -0.18774992 -0.14100444 0.065932326 0.02343701 -0.08999556 0.15778708 -0.02704268 -0.1692235 -0.019905927 -0.030839533 0.2262497 -0.0494687 -0.06596666 0.028185984 -0.033798736
126 0.14783837 -0.037830643 0.008113408 0.21032576 0.10139711 0.050175022 0.06073884 -0.06685052 -0.037788153 0.15345246 -0.02035045 0.16194807 -0.082258075 -0.038676374 0.15172468 0.11274197 0.039437544 -0.050167672 -0.14060387 0.034411028 0.0447562 0.036916193 0.0036145567 -0.026554836 -0.2509571 0.15042852 -0.07504452 0.08025118 -0.12128125 -0.09375458 0.11806273 -0.01351906 0.014746208 0.03617521 -0.11528433 0.03223965 0.07829827 0.05499445 -0.014072488 0.0069785295 -0.052100103 0.046313796 -0.049233418 -0.04412147 -0.034840047 -0.034325756 -0.019099558 -0.007886939 0.0012476787 0.09838466 0.11895535 0.17316616 0.019065674 -0.049152687 -0.022664595 -0.1565895 0.25952768 -0.051663868 -0.07441903 -0.027552452 -0.105577916 0.1249878 -0.048181936 -0.15359122 0.16490774 0.13456748 0.032779336 0.0344421 -0.13683057 -0.040552925 0.09382055 -0.08486646 -0.003631301 -0.1250461 0.02001531 -0.091399364 -0.039760757 0.08742646 -0.007278728 0.022270527 -0.039419554 -0.09824865 0.006269788 0.1533054 0.06862987 -0.013569896 -0.019900227 0.024570582 0.029360646 0.027507791 -0.07968251 -0.090288855 0.092383206 -0.050755624 0.083541445 0.0771318 -0.0018275366 0.047779135 0.001861004 -0.051132273 -0.07005922 -0.054819275 -0.30767563 0.17285824 0.017319953 -0.040057506 -0.085327335 0.12369374 0.0055372943 0.12316739 0.16020873 -0.18786877 -0.027483648 -0.031916976 0.006016814 0.11748687 -0.13358797 0.0011358183 0.06271145 -0.08001238 0.052458465 -0.11794435 -0.004628019 -0.0008983488 -0.04303468 -0.029403845 0.14639169 -0.0851755
127 -0.05577296 -0.1193712 0.073848404 -0.123438865 0.12186729 0.03683593 0.05996767 -0.12965016 -0.06833131 0.06570303 0.09165864 -0.14923711 0.12839527 -0.07837138 0.058053177 0.08786194 -0.15100892 -0.1314696 0.018321631 0.04433731 0.007425522 -0.1059178 -0.07500265 -0.001817099 -0.17819826 0.25427344 -0.1751857 0.059870515 -0.06371777 -0.32912758 -0.033072412 0.021462237 0.01574394 0.1446322 -0.26841953 0.15581557 -0.025754236 -0.20858474 -0.038691748 -0.10163859 0.12144523 0.02790021 0.041290816 -0.008904407 0.10885174 0.00086896634 -0.26169455 0.030596692 -0.05445383 0.062001124 -0.12586786 0.09569027 0.07002113 0.065826274 -0.029969089 -0.031538583 0.2011402 -0.008343772 -0.07911901 -0.0697214 -0.2143819 0.011645481 -0.010745422 0.20385571 0.055791333 0.01507708 0.08162948 0.082603894 0.08161918 -0.2357419 0.21763308 -0.09302706 -0.08924616 -0.10849463 0.05214739 -0.08087677 -0.07181699 -0.1745809 -0.062577695 -0.036955293 0.00524308 -0.2625168 0.037646502 0.08764716 -0.029973896 -0.04616763 0.1532221 -0.19164397 0.05054962 -0.06856615 -0.121121936 -0.021749143 0.026348839 -0.08186192 -0.07644344 0.110064685 -0.1270642 0.06468443 0.0033908873 0.048457682 0.09473187 -0.14811225 0.08681537 -0.25194755 -0.2212583 -0.065824665 -0.0023418763 0.09202124 0.007858785 -0.24763021 -0.071963996 -0.07597466 0.07121305 -0.021445984 -0.11676297 -0.073353164 -0.03630176 -0.015417316 0.19779342 0.09912484 -0.11053153 -0.016626727 -0.03747908 0.114892535 -0.107356116 -0.25648963 0.043229997 0.057948258
129 -0.06270816 -0.029958474 0.038346425 -0.002596327 0.110464364 -0.023167597 0.03918968 0.13831887 -0.17091514 -0.008493313 0.14822492 -0.14764836 0.014861083 -0.06918349 0.04537054 0.027065258 -0.10010993 -0.14736478 -0.12994649 0.14322092 0.102342956 0.032443605 -0.09088215 0.008217626 -0.13903326 0.15012279 -0.1088875 -0.018501766 -0.013337518 -0.003114662 0.086755544 -0.022221928 -0.044161547 0.0005529755 -0.1195116 0.14453253 0.17327969 0.0082859155 -0.06334442 -0.02432565 -0.061275143 0.06179259 0.0660046 -0.056469236 0.14760832 -0.034358133 -0.15199356 0.013827318 -0.039613858 0.097515814 -0.01440763 0.1317294 0.0078791585 -0.012823068 0.03808515 0.0959568 0.17458884 0.039799467 0.05809346 -0.0010942401 -0.073520966 0.06372879 -0.00093009096 -0.008447141 0.124405876 0.033018272 -0.06343616 -0.0057843244 -0.10294157 -0.08260988 0.032184836 -0.15014061 -0.23251118 -0.12760851 0.07238318 -0.18251728 -0.010378359 -0.04873937 -0.019745056 0.17673188 -0.07943561 -0.038289323 0.024230666 0.119654246 -0.011346398 0.27166438 0.051424317 -0.03747215 -0.043514505 0.068644926 0.08865163 0.0869964 0.078098595 -0.12988138 0.1537906 -0.020936223 0.0113023985 -0.01922112 -0.050477758 -0.10841215 -0.0413977 -0.09225131 -0.088967554 -0.036101177 0.071494035 0.046428423 -0.05003824 -0.02427107 -0.059542496 -0.074086584 0.02802996 -0.08553918 0.11060622 -0.023493681 0.017342372 0.04765292 0.006487073 0.12233751 0.03902739 0.0069531696 -0.0056193536 -0.059739046 -0.0329433 0.025933716 -0.016388353 -0.12805992 -0.05286233 -0.047612805
132 -0.058349364 -0.074169785 -0.15731001 -0.041721657 0.0816411 0.011055253 0.027009252 -0.0617438 0.018891802 0.006126804 0.15360951 0.051756706 -0.06399307 0.022568174 -0.06437774 -0.0018911923 -0.03972175 -0.16517028 -0.1402327 0.13866524 0.057489622 0.03106687 0.0015953341 -0.0814237 -0.16064906 0.053353067 -0.09051614 0.045518607 0.024951998 -0.11576802 0.20913774 0.084607735 0.04432374 0.15571162 -0.00057820085 0.11899026 0.09170081 -0.034308523 0.09954353 0.0067729726 -0.11786264 0.08642597 -0.014402947 -0.16237608 0.17859122 -0.0011686418 0.050239276 -0.045765694 -0.15451175 0.1506853 -0.05107173 0.06311096 -0.013235155 -0.03987613 -0.04757886 -0.038746428 0.048965845 -0.11693428 -0.10948794 -0.01377685 -0.014274371 -0.050369795 0.19189475 0.00473748 0.070970975 0.005744261 -0.06481689 0.009639661 -0.038962267 -0.051079296 0.044404853 -0.069996305 0.054986376 -0.16237795 -0.03799877 -0.074328475 -0.01090121 0.05700737 0.004976503 0.057103463 0.029171761 -0.115374796 0.07000451 0.22628714 0.107702486 0.096411414 0.0512056 -0.09535552 -0.07508557 0.121485166 0.00892048 -0.03485168 0.046751242 -0.149532 0.2157654 0.01903517 0.0045150644 -0.043655403 0.014318508 -0.12463285 -0.13132411 -0.14563598 -0.13607337 0.077436246 0.038221445 -0.0068809567 0.065733775 0.029533615 0.07899272 0.004581986 0.052512832 0.09724661 0.06836195 0.037305724 -0.052112985 -0.11265471 0.08051924 -0.04613998 0.068882756 0.055560045 -0.043964468 -0.08392625 0.013243702 0.10227245 -0.015373785 -0.06639466 0.148761 -0.16571006
134 -0.113217495 -0.010136562 -0.104541436 0.08112932 0.12920962 0.19361266 0.034369163 -0.15628645 -0.010786066 -0.004384771 0.06693529 -0.018533632 0.026001316 0.022998335 0.19938909 0.002435186 -0.09901304 -0.051245693 -0.11202909 0.08937136 -0.006603937 -0.027368652 -0.09077863 0.012681477 -0.15524448 0.0848017 -0.12178406 0.097472206 0.08116675 -0.111301385 -0.041073598 -0.034456767 0.02865358 -0.0062153437 0.0076428475 0.045018766 -0.03654215 -0.008671154 -0.071793966 0.047242265 -0.044936385 -0.02783268 -0.0696425 -0.14637645 -0.024710933 0.086122006 -0.09417802 -0.10530692 -0.062033013 0.0015258354 -0.00023308527 0.093949944 -0.037207253 0.07666695 0.037592955 0.021139128 0.12085016 0.014821783 -0.0662507 -0.0411151 -0.0873995 0.085699365 -0.004228849 -0.008512615 0.24539489 -0.023643902 0.04740402 0.09715044 -0.050399363 -0.15283827 -0.007739497 -0.067953564 -0.06535489 -0.084215745 0.069067754 -0.08193187 0.07316172 -0.01173454 0.10965172 0.11080431 -0.06665617 -0.10077246 0.013008681 0.24606316 -0.028072324 0.064507134 -0.001426352 0.021668881 0.038378913 -0.02273544 -0.08066542 0.000415986 0.10425327 -0.12540482 0.07437243 0.11131025 0.056247357 -0.10570503 -0.026047247 -0.10913665 -0.00026320128 -0.13373446 -0.06955561 0.037011005 0.0032005073 -0.10289455 0.104253046 0.03583718 0.04463372 0.03578642 0.10568116 0.09385821 0.041347705 -0.0060559497 -0.09072286 -0.12973891 0.12976821 0.037546095 0.14470054 -0.115101546 -0.10921876 0.022496777 -0.041804947 0.056589 -0.08780047 -0.10564657 0.084562436 0.083528765
141 -0.08272395 -0.051029015 -0.043467216 0.11653133 0.090715654 0.018404465 0.016906546 0.0156915 -0.048108052 0.031798825 0.0042021363 -0.1473695 -0.046049044 0.022277419 0.07425366 -0.13294625 -0.07747069 -0.014840824 0.0993086 -0.008141524 0.092465684 0.092398144 -0.01614992 0.061296597 -0.32727498 -0.025763176 -0.05850878 -0.086116485 -0.022420427 -0.015611061 0.113216154 0.018833289 0.12305403 0.13516793 -0.045316845 -0.039034355 0.10273507 -0.08580517 -0.06534591 0.03962503 -0.109533325 -0.0173249 0.025710106 0.012274801 0.17767264 0.029315874 -0.05257562 0.0047918973 0.018419815 -0.030636983 0.11237576 0.042235464 0.021272287 -0.063220546 0.022433896 -0.12658359 0.08063555 -0.1461807 -0.010483099 -0.06581931 -0.091087684 0.038767446 0.12512401 -0.1295874 0.09107846 -0.012659663 -0.09510771 0.012064782 0.090702794 -0.15927996 0.1299199 0.049113076 -0.06089472 0.023095123 0.082754105 -0.06963367 -0.02732633 -0.15365641 0.0057576895 0.15024987 0.08955581 -0.030604564 0.13750066 0.20430309 0.0582367 0.12668061 0.061011326 0.042493813 0.043233845 0.016276322 -0.079559654 -0.005516277 -0.0052410434 -0.076636314 0.11161404 0.064058 0.004836699 -0.08733054 -0.13266084 -0.13938439 -0.0699948 -0.017937483 -0.0057942984 0.15768723 -0.029979413 -0.11387618 -0.07424898 0.16068254 -0.029647218 0.03095301 0.14907473 0.02034984 0.12247097 0.0906224 -0.18883422 -0.06404916 0.05137577 -0.038674448 0.07083779 -0.020182597 -0.13202208 0.0016519098 -0.123650044 0.07999165 -0.056096956 -0.17926621 0.042072095 0.112392284
143 0.0074089994 0.0027077289 -0.10378108 0.23360437 0.046536293 0.06516328 0.02731504 -0.10528345 -0.14100517 0.031860538 0.15815826 0.05084203 -0.12081671 -0.21611467 0.078632936 0.08531687 -0.045344688 -0.22405422 -0.12425601 0.0064040185 0.11510492 -0.07482741 -0.14591299 0.09757571 -0.060579795 -0.08178208 -0.18083762 0.024919285 -0.014712449 -0.13394178 0.03832223 0.20679182 -0.07511435 0.056527518 -0.16358262 0.09719159 0.11135958 0.16113989 -0.12810639 0.0026337595 -0.0481607 -0.18133707 0.027715243 0.015966209 -0.013171522 -0.1601498 -0.17675884 0.18425414 0.028409936 -0.04743169 0.23495221 0.09843678 0.009539922 -0.022109993 -0.0730763 -0.024787894 0.04806553 0.088485055 -0.07901917 -0.045861453 -0.37217423 0.1605911 0.10007489 -0.016859228 0.01637243 0.1547491 -0.061718106 -0.07196201 -0.043899566 -0.020365015 -0.18775792 0.13595961 -0.11582529 0.20241876 0.0061552 -0.101788476 0.09234549 -0.08003776 0.13715325 0.082866125 0.07141807 -0.17528999 -0.034973215 0.22847483 -0.04559782 0.17365807 0.021301946 0.1355099 -0.0940802 0.03255718 -0.046913274 -0.16898704 -0.057595365 -0.016476445 0.1474554 0.027001243 0.11522594 -0.024390623 0.022544885 -0.106312044 -0.045845415 -0.11444128 -0.09107091 0.07366306 -0.11808832 0.0234071 0.04979748 -0.007796568 0.06089817 -0.029009819 -0.008015401 -0.0043849265 -0.028214289 -0.04892582 -0.10339477 -0.080614455 -0.06195329 0.08564823 0.076259606 0.04660576 0.046345804 -0.0041693794 0.070056096 0.19523835 -0.04416435 -0.12894416 0.09671545 0.015501679
144 -0.0997744 -0.0148535045 0.053957477 0.032379758 0.014261235 -0.050514147 0.010297683 -0.14854951 0.01327725 0.22519274 0.101075195 0.03474947 -0.15490635 -0.03499224 0.13488416 0.050575826 -0.13875423 -0.060275856 -0.04992996 0.08394948 0.061939184 0.06738469 -0.06456977 -0.028186988 -0.23649217 0.052530125 -0.12321221 -0.003037271 -0.17180943 -0.1276914 -0.0508517 -0.08438005 -0.11454456 -0.01853977 -0.1396499 0.119737536 -0.06339534 0.08321208 -0.06638069 0.11481646 -0.07219959 0.106906354 0.07069304 0.0123526 0.15400822 -0.0009375599 -0.061081648 -0.011964774 0.0348716 0.06516597 0.02084912 0.03554581 -0.032932647 -0.048801214 -0.006572832 0.051573534 0.2290518 -0.06287988 -0.03981493 -0.14003941 -0.08278221 -0.036841653 0.05289899 0.088340044 0.114469886 -0.055907696 0.1739164 0.06458164 0.025637478 -0.14286956 0.030442517 -0.0697169 -0.12275799 0.020838004 0.1328261 -0.0022727088 -0.085691065 -0.08929096 -0.14285497 -0.02706961 0.003191696 -0.03748316 -0.09124898 -0.012226781 0.05587154 0.26119888 -0.0056348913 -0.09747093 0.07325217 0.056159046 0.037208546 0.07853608 -0.09058934 -0.042771507 0.13298589 -0.033963256 0.061462153 -0.03076577 0.035141267 -0.20676632 -0.16161776 -0.21656296 -0.0033802537 0.033960544 -0.15470612 -0.10000786 -0.09062585 0.15639172 -0.022299536 -0.07366463 -0.0191809 0.08732492 0.0082509285 -0.017852688 -0.09228884 -0.11965409 0.053388394 0.16356683 0.09229867 -0.0064425506 0.01704381 -0.12895557 -0.09783343 0.03708166 -0.1502851 0.0643185 0.0786395 -4.529121e-05
145 -0.0026898626 0.07977625 0.06298278 0.12414566 0.07150201 0.010661326 -0.039838485 -0.13587345 -0.17906092 0.11114167 0.09895387 0.023273392 -0.096448556 -0.06720545 0.2004511 0.17342187 -0.16922015 -0.19858465 -0.11309628 0.15527542 -0.14959863 0.020485634 -0.048551 -0.096520506 -0.16498266 0.008538026 -0.21647266 -0.083844885 0.0018382026 -0.070087 0.04292234 -0.021737752 0.047171388 -0.08778609 0.12136642 0.12478816 -0.1695267 -0.0477078 -0.058020417 -0.075023375 -0.04713676 -0.060755137 -0.11696719 -0.07566217 0.075123765 0.055189922 -0.044204835 0.0031534778 -0.1773679 -0.030072708 0.08153395 0.010650404 -0.04409847 0.05473973 -0.07330557 -0.12617467 0.13731751 -0.12902153 -0.06658386 -0.15159374 -0.123402156 0.11221761 -0.03924749 -0.032381386 0.07932924 0.042526066 -0.14595988 -0.08039484 0.11842231 -0.20851147 -0.11858485 0.1444434 -0.077459715 -0.051760495 0.10193622 -0.0800647 -0.0985801 0.22548872 -0.045221716 0.03545745 -0.025913991 -0.15668346 -0.059611782 0.15267825 0.06674286 -0.005405469 0.1139396 -0.012747993 0.01097721 0.12560965 -0.07358907 0.022238608 0.02045538 -0.002906816 0.13021797 0.022430895 -0.00980259 -0.14817694 -0.06535191 0.033217635 -0.09228907 0.06111735 -0.1402409 0.062278148 0.05073291 -0.057209063 -0.192929 -0.008583142 0.003091762 0.07373067 -0.05007454 -0.13798901 -0.008728728 -0.0041635805 -0.005321676 -0.11413505 -0.09308346 -0.021418853 -0.050165046 7.700038e-05 0.04316669 0.041080903 -0.07697827 0.21793306 -0.0373754 -0.012691572 0.12097123 0.041050095
147 0.038672216 -0.024366284 -0.019572716 0.18661411 -0.06664902 -0.08841448 0.053192794 0.097897716 -0.0479864 0.1418819 0.1681648 0.022685507 -0.15079258 -0.13771355 0.07974508 0.1666894 -0.019949408 -0.060612474 -0.1394467 0.020906843 0.0952492 0.0018709992 -0.0025170809 -0.1320199 -0.15407756 0.18464252 -0.1876243 0.02248059 -0.16712321 -0.07715542 0.040452912 -0.014088122 0.016797863 -0.02363125 -0.07628074 0.006568147 -0.111041196 -0.065989085 0.0699306 -0.07596852 0.020847337 -0.018083747 0.04937398 -0.010533393 0.13762929 -0.039796114 0.015536318 0.06913262 -0.122300416 -0.121670075 0.1622938 0.09713496 0.12935776 -0.023352996 0.080800705 0.0536774 0.12372744 0.026310857 -0.15035915 0.09362513 -0.1910534 0.04012595 -0.00043643222 0.026424285 0.08569653 0.17754479 -0.03193843 0.042989623 0.014648273 0.03849756 -0.06777013 -0.045404017 -0.10408169 -0.02624732 0.033983547 -0.028488742 -0.16053432 -0.0015369391 0.030393653 0.059140973 -0.07040746 -0.031697415 -0.018693745 0.14281885 -0.08789705 0.14400214 -0.0075834496 -0.19379963 -0.022167804 -0.114232205 0.016125752 0.17569084 -0.101635724 -0.06616784 0.23624562 0.034576375 -0.15655097 0.054287445 -0.073621534 -0.15266308 -0.013453376 -0.087089054 -0.16903824 0.11843534 0.008269613 0.05260644 -0.03578695 0.097288094 0.031035954 0.02996481 -0.08769567 -0.1426062 -0.010840712 -0.028716814 -0.09509637 -0.059629813 -0.035122212 0.03562235 0.13234219 -0.04039766 0.057634477 -0.069274716 -0.10938894 -0.0045108595 0.0137876775 -0.14113548 0.007556844 -0.0050471677
149 0.06227312 -0.09551784 -0.026691636 -0.009637976 0.038028184 -0.025615267 0.15747523 0.027197726 -0.098804235 0.10095979 -0.0031400372 0.048614606 0.0037948093 -0.11122017 0.062109947 0.11803316 0.08126766 -0.048881307 -0.1652847 0.11133152 0.112006254 -0.01921799 -0.05079319 -0.11318752 -0.11420756 -0.010821152 -0.19614416 0.15345508 -0.012892249 -0.097572744 0.08281363 0.033347737 0.031139977 0.14925954 -0.022797339 0.037919622 0.09400077 -0.04901062 -0.028155476 0.048112646 -0.06447163 0.04804441 0.010060843 0.07449252 -0.012474934 0.016309263 -0.10061596 0.061076615 -0.019249203 -0.048485104 0.119021915 0.16735825 -0.041394606 0.009596384 -0.092507236 -0.04556287 0.12933657 0.007814375 -0.0650228 -0.13861229 -0.06583771 0.15159209 0.15247278 -0.033225734 0.13679865 0.056846175 -0.023450416 0.032291323 -0.062311612 -0.15776438 0.040277965 -0.05206898 0.013983022 -0.0753876 0.028690316 -0.07193419 -0.12079203 -0.06315764 0.07272996 0.09471527 -0.0017486021 -0.21012242 0.06285318 0.14781597 -0.012487964 0.06782641 0.00088087143 0.08336548 0.0025328675 -0.060026087 0.022479793 0.04837739 -0.050454862 -0.0067587337 0.10650749 0.0922949 -0.03303846 -0.16754493 -0.023767754 -0.019933922 -0.13578263 -0.10936012 -0.25097087 -0.0122629935 -0.14193295 0.0717945 -0.0025788092 -0.019464431 -0.028657528 0.012019899 0.06255134 0.018845363 0.0823801 0.034581073 -0.070846416 -0.06745108 0.06541263 0.033869024 0.03418719 -0.16659293 -0.06627521 -0.043116327 -0.028910011 0.04101963 0.09200233 -0.03709555 0.07357992 -0.0081222905
150 -0.056282844 -0.11585499 -0.040155094 0.16412011 0.08603639 0.08801352 0.074168794 0.060731195 -0.046255883 0.054631755 0.13459541 -0.0074606854 -0.09927379 -0.13588093 0.12165874 0.048482824 -0.15054274 -0.11707998 -0.022182861 -0.018448759 0.012962353 0.010081079 -0.014427595 -0.10334893 -0.10265295 0.17876032 -0.11393922 -0.021179099 0.09582557 -0.07838032 0.031008232 -0.13097908 0.023988655 0.01862841 -0.13481359 -0.0116871 0.053060252 -0.022538798 -0.05625921 0.048769057 -0.011265593 -0.05535676 0.014053062 -0.059463963 0.09858102 -0.0002780402 -0.09503306 0.0283092 -0.07089872 -0.060946196 0.04915449 -0.01361165 0.14715093 -0.004828982 0.05012198 -0.030749876 0.15928307 0.10179039 -0.07927152 -0.06944936 -0.14757194 0.109346114 0.16382046 0.0866302 0.05137873 -0.070450045 -0.035110775 -0.039611015 -0.19418702 -0.16021651 -0.008051066 -0.20225796 -0.24929513 0.029394342 0.03005052 0.040526308 -0.20721021 0.06614833 -0.08137216 0.23698877 -0.075539075 0.00058405567 0.017517371 0.06790038 0.072505854 -0.072684355 0.15351804 -0.18371738 0.04083949 0.038468156 -0.051241208 0.053724058 0.0023980779 0.09499264 0.07455422 0.030308977 0.08655911 -0.18819603 -0.11258817 -0.18515784 -0.005242848 -0.02619401 -0.09643152 0.07411304 -0.084575355 0.044811852 -0.10989087 0.103250474 0.018439405 0.015929878 0.12145763 -0.010362174 -0.10065863 0.0071101473 -0.13561004 -0.24564798 0.033816837 -0.01845943 0.048322696 -0.03375758 -0.0048725535 -0.12904543 -0.025088528 -0.034720715 0.04896415 -0.0046820003 -0.06879814 -0.11216515
151 -0.1445831 -0.123515576 -0.04935336 0.139484 0.2803139 0.09117227 0.07914618 0.06937242 -0.18741935 -0.024683705 -0.020461358 -0.11118834 0.08788877 0.057422567 0.10965224 -0.1447596 -0.020347541 -0.08393709 0.012384817 -0.039117396 0.06998775 0.15813567 -0.03330787 -0.07736233 -0.16981886 0.038338516 -0.04165 -0.08011572 -0.04355416 -0.12731406 -0.0010986617 -0.16402979 0.14952312 -0.08948994 0.03742895 -0.12464993 0.04044001 -0.048049137 0.1223424 0.106222086 -0.0652953 -0.13597362 -0.08413232 0.08939383 0.12992045 0.058707725 -0.13871905 0.009114692 0.05599207 -0.017890759 0.06718552 0.1561727 0.0649121 0.020776888 -0.029378107 -0.17822036 0.16050994 -0.1059127 -0.13259545 -0.005831704 -0.10752747 0.06956969 0.110477746 -0.10342724 0.15229836 0.057907112 -0.14680485 -0.045929275 0.034194946 -0.17079882 -0.092460565 0.023876691 -0.19404934 -0.0043834345 0.1261089 -0.07630633 -0.0046231346 -0.085943684 -0.10370024 0.1481166 0.013778816 0.034307458 0.044999994 0.21834482 -0.048578728 0.08666434 0.08148667 -0.22341733 -0.08051323 -0.06443771 0.0378583 0.033660974 -0.07258466 0.021897247 0.30916798 0.034113295 -0.024083083 -0.18009438 -0.036442753 -0.07956801 -0.11740927 -0.0753982 0.030838083 0.26397094 0.05629814 -0.0987369 -0.12017826 0.075263076 0.073685646 -0.16001424 -0.02812927 -0.09316342 0.057299428 0.08830209 0.0065521407 -0.041123535 -0.07585624 -0.035391323 0.08828092 0.036948938 0.12215919 0.030296277 -0.037347823 0.12120023 0.0028307012 -0.088911146 0.17047496 0.009052198
156 0.0002821268 -0.056776665 0.20523015 -0.010087922 0.14208698 0.08817629 -0.063997336 -0.107080266 -0.078210704 -0.039165735 0.1373985 -0.118002385 -0.21296294 0.04935048 -0.118168086 0.07422903 -0.13676609 -0.065772615 -0.08757662 -0.022187723 -0.24534397 -0.0140604265 -0.042585056 -0.31972957 -0.0051636696 0.23227131 -0.20863946 -0.029341679 -0.15620275 -0.30027804 -0.16852273 0.16197293 0.23390666 0.32001093 -0.25546125 0.114661925 -0.14403664 -0.004735487 0.054163825 -0.10754495 -0.040970247 -0.15819837 0.014622406 -0.10353664 0.1865637 -0.04703056 -0.11056735 0.014678286 -0.07892719 0.28998494 -0.028356753 0.09644883 -0.048289936 -0.039259844 -0.006690857 0.0504957 0.24880251 -0.09962664 -0.056296665 0.010303177 -0.056296445 0.09573762 0.117307566 0.0139087485 0.17440718 -0.16823043 -0.11793036 0.04454669 0.05145447 -0.2589786 -0.021784132 0.118802406 -0.11311279 -0.10574822 0.039874 -0.20483026 -0.12893638 -0.08911784 0.023393912 -0.027704189 -0.032251745 -0.20447162 -0.044182364 0.062028166 -0.18256396 0.09901869 0.015888197 0.04683102 0.0050268145 0.107279286 -0.13093708 0.07065546 0.09124182 0.040233076 0.057794154 0.17999555 -0.021877164 -0.12246294 -0.0006498398 0.11387507 -0.07738299 -0.027610268 0.05339611 0.16821931 0.0693734 0.047776595 -0.032501552 -0.13379838 0.067753054 -0.13485989 0.00883196 0.038683265 0.04452267 0.012558443 -0.19060454 -0.017944798 0.033070635 0.081946656 0.061374106 -0.048126012 -0.03042895 -0.108458534 -0.03796685 -0.028923227 0.052178815 -0.039550815 0.07513313 0.17231262
159 -0.117173895 0.03213287 0.07207459 0.0018812458 0.06168036 -0.04568959 -0.013919958 -0.15216309 0.035578486 0.19766696 0.07868271 -0.1986579 0.024006467 0.09888524 0.15025033 0.09006821 -0.10967677 -0.08698645 -0.030398993 0.038962852 0.08855623 0.12883194 0.027296087 -0.067179695 -0.2760735 0.16448107 -0.14454754 0.13011947 -0.016336992 -0.09701876 -0.22734995 -0.103334144 -0.015344263 0.07537355 -0.07614841 0.06970196 -0.01357007 -0.027726157 -0.07105873 -0.04075986 -0.059051093 0.12267466 -0.0073099937 -0.026426096 0.12382686 -0.0031806726 -0.08908751 0.0006971103 -0.03616808 -0.06984131 -0.12201794 -0.097878784 -0.019045189 -0.10626554 -0.02338448 0.045171533 0.3043209 0.030026605 -0.15993088 -0.06207312 -0.09152446 -0.029988248 0.20310125 0.08729839 0.19999626 0.10679451 -0.111261554 -0.0027581095 0.04486762 -0.24492362 -0.009303938 0.004354036 -0.15430202 0.025494685 0.10337673 -0.1145375 -0.073997654 -0.06626077 -0.06729124 -0.08840762 -0.13535322 0.007939048 -0.046713892 0.047226384 -0.045301855 0.06435414 0.046634447 0.02036149 0.08935072 -0.06969702 0.09185568 0.09655128 0.17735927 -0.045818526 0.09561446 -0.060181275 0.0015572909 0.028801784 -0.038508363 -0.12757589 -0.06754307 -0.059149846 -0.14339194 0.101956785 -0.07671267 0.014366661 -0.024212036 0.10772115 0.03622352 -0.12766935 -0.07115956 0.07243462 0.047651693 0.13614485 -0.041746516 -0.1548043 -0.03221729 0.0845895 -0.0008310979 -0.06806439 0.043641344 -0.0069278013 0.018018004 0.105033524 -0.066320375 0.08735616 0.13946947 -0.08292542
163 0.074133165 -0.023243545 -0.12650907 0.066137776 0.06547134 0.030496923 0.036168065 -0.00076423376 0.04425082 0.061093967 0.054795347 -0.009706601 -0.07099638 0.030969882 0.14756486 0.050767317 -0.10078507 -9.404849e-05 -0.000112459216 0.057816736 0.13397293 -0.058014657 -0.06573839 0.038201693 -0.06423171 0.15400022 -0.17726278 0.16323134 0.08608939 -0.04047702 0.022897061 0.024755301 -0.119586855 0.08680406 -0.08510158 0.13021559 0.07890663 0.020892179 -0.10413954 0.059994716 -0.119790435 0.011654524 0.10837263 -0.058043268 0.035971265 -0.052291445 -0.042749032 0.014334058 -0.11430414 0.06371385 0.071041755 0.018816806 0.04546075 0.010322827 0.048437055 -0.030392794 0.06848488 -0.16303252 -0.09713755 -0.056267425 -0.13673094 0.11606373 0.050635505 -0.040494148 0.09938921 0.0022631695 0.0029204483 0.004817907 -0.018566689 -0.14936581 -0.0006265661 0.00065748114 -0.14144634 -0.09856026 -0.025438806 -0.08334407 -0.023917165 0.15741345 -0.06765713 0.0063678683 -0.06120212 0.022958249 0.07263935 0.18219143 0.07650881 0.056252904 -0.1251875 0.049681094 -0.06107712 0.10186769 -0.031722963 -0.02625215 0.07062656 -0.06340066 0.14144148 0.035457503 -0.07112546 -0.1677862 0.030978184 -0.11728444 -0.093934454 -0.039942935 -0.18636271 0.15522467 -0.19543983 0.035649292 0.093983226 0.078460805 -0.026070626 -0.07643267 0.10333161 -0.004081863 0.01111495 -0.0010188998 -0.08974893 0.053767577 0.074685395 -0.106024735 0.17810959 -0.069734 -0.0704235 -0.055653777 -0.04075494 0.130998 -0.04486253 -0.0006891545 -0.028983837 -0.049810555
168 0.15665779 0.10082835 0.11778876 0.089169726 0.25601304 0.11302388 0.057614844 0.034880035 -0.05742177 0.034097888 0.23953924 0.03232792 -0.09442764 -0.15675505 -0.11013002 0.02507794 -0.07204336 0.09762171 -0.09167964 0.06546917 0.092387535 -0.063729845 -0.063728735 0.07289337 -0.242382 0.19637217 -0.08015578 0.1345105 0.027327089 0.1474858 -0.069200546 0.07879409 -0.03481595 -0.08166647 -0.008744134 -0.14381485 0.08630962 -0.17246819 -0.022743285 0.103508055 0.117474444 0.14095421 -0.094592065 -0.08543288 0.25415978 0.078634724 -0.04809168 0.13950132 -0.024382511 -0.07625386 0.13118552 0.004650251 -0.028761832 0.011095348 0.031126034 -0.054130536 0.06688065 -0.0550636 -0.10728804 -0.15844956 0.03207007 -0.03869489 0.11893746 0.12687315 0.15325335 0.009712713 -0.04705114 0.030313538 -0.039607774 -0.05596277 0.010457293 -0.002500551 -0.19159703 -0.15671696 -0.15686834 -0.027227027 -0.05894919 -0.101120286 0.078153625 0.2430395 -0.07368422 -0.14642099 0.049667504 0.09609791 0.084827274 0.09004353 0.0409838 -0.1674064 0.025062032 -0.03118537 -0.08721564 -0.17557576 0.07661584 -0.17001465 0.07618277 -0.16570708 0.035447713 -0.06596091 -0.013087779 0.014989159 -0.053748064 -0.10832786 -0.13349327 0.012904946 -0.090529285 0.06172419 -0.0065352884 0.10265467 -0.031667043 0.1522472 0.17080258 -0.039171237 -0.33459398 0.09138512 -0.3300389 -0.16195598 -0.029221008 -0.038633015 0.054200865 -0.06715399 0.012521443 -0.050337095 0.037632383 0.07017718 -0.1793496 -0.06661329 -0.009768646 -0.09751843
169 -0.033921376 -0.18879174 -0.20726526 0.23920774 -0.0036110606 -0.15373306 -0.060341716 -0.025318969 -0.07179863 0.029907558 0.21458252 -0.034933362 -0.0911073 -0.13173184 0.13381429 0.088873595 -0.22883245 -0.05845272 -0.32216975 0.115189314 -0.030981192 0.051306922 -0.06305438 0.07912149 -0.21947517 0.04802883 0.010416014 0.13017696 0.19885726 -0.03935132 0.016370943 0.0275383 -0.029738085 0.15744282 -0.0029069656 0.23660837 -0.04167653 -0.107887864 0.07475507 0.16302067 -0.042581722 0.0893468 -0.086005844 -0.02828707 0.097968064 -0.055434447 -0.05256117 0.2311553 0.10999167 -0.12550429 0.032315712 0.14454141 -0.069799595 -0.016348153 -0.067248695 0.04649238 0.049166117 0.14864685 -0.15227954 -0.15991804 -0.06485042 -0.050063003 -0.02818369 -0.010453417 0.123090364 -0.011905276 -0.06779134 -0.030671665 0.03954098 -0.17980267 0.031367756 0.06534272 -0.027502611 -0.15372828 0.08585272 0.08070425 -0.06526022 0.06811043 -0.14136885 0.04688604 -0.062423393 -0.12210651 0.012663437 0.16487806 0.06698929 0.05542433 0.08081171 0.08574208 0.10137809 -0.025952343 0.014645406 -0.047194798 0.09920162 -0.002586379 0.09566047 0.016732685 -0.043641157 0.079095826 -0.12434593 0.07534399 0.0033581383 -0.015163602 0.040152784 0.11950519 -0.19478983 -0.07617112 -0.11802576 0.037112854 -0.040864266 0.0037134902 -0.036002014 0.13122746 0.28507295 0.056450248 0.0639193 -0.12043481 0.10272611 0.00202435 0.13211071 0.042588793 -0.066506684 -0.0401986 -0.10895892 0.3528745 0.14827596 -0.07065454 0.08239297 -0.0012620935
170 -0.045589227 0.014711805 -0.02872251 0.06777641 0.18722138 0.11932455 -0.16102687 -0.0057408814 -0.06822965 0.13552786 0.09824761 0.0379687 0.06412941 0.0695049 0.036704913 0.09177745 0.00012670032 0.06757575 -0.12670742 0.06771926 0.060728226 -0.028788403 -0.037005745 -0.1589897 -0.06325826 0.10122481 -0.08087281 0.08117746 -0.10787635 -0.15267284 0.0006010034 -0.12136002 -0.15517814 0.06378025 -0.20573948 0.113794066 0.04530903 -0.040579583 0.10182869 -0.09917192 -0.0040146695 -0.06624881 0.044806972 0.16633993 0.12659858 -0.058544222 -0.09242173 -0.088376604 0.004226569 -0.064898975 0.10696594 0.089581825 -0.036472775 -0.09417429 -0.037971463 0.03045007 0.23229805 -0.123767965 -0.15621261 -0.13575815 -0.119028315 -0.009974874 0.10062722 0.01652388 0.119212024 0.0018671012 -0.0332854 -0.09534551 -0.0062078894 -0.14307702 0.11777305 0.07098391 -0.108897544 -0.10062993 -0.08423028 -0.039714146 -0.0483545 -0.07584228 0.15908167 0.009425724 -0.037699465 -0.12852019 0.08786209 0.18233947 0.10616058 0.23081914 0.0018126923 0.04235504 -0.026091961 0.03717613 0.14965786 -0.08444445 -0.045751724 -0.118248574 -0.0013533985 0.024373204 0.008512794 0.04571934 0.02502025 -0.114943914 -0.15410575 -0.124555215 -0.043101985 0.06085248 0.08519705 -0.08635922 -0.026014345 0.11398503 -0.018764773 0.10113544 0.023710301 -0.13759403 0.062196918 -0.086057246 -0.12780948 0.063028395 0.03174464 -0.010404653 0.05503879 -0.10151319 0.013349183 -0.12737934 -0.16099489 0.053154305 -0.16043669 0.0028806753 0.009923201 -0.086367615
174 -0.045956783 -0.109525755 -0.031419244 0.0144706825 -0.093465485 -0.0016313064 0.35461295 -0.22222763 0.060275324 0.15016857 0.15826786 -0.04355621 0.021769702 0.12534004 0.01248009 0.09235733 -0.24099554 -0.070048295 -0.13032621 0.013065982 -0.022427794 -0.09364553 -0.17392382 0.025996914 -0.032282505 0.15555102 -0.14063442 -0.031994466 0.057884015 -0.033471953 0.09947818 0.1262843 0.29409835 0.20169371 -0.11600517 0.09136452 -0.0078451615 -0.031653695 -0.009552061 0.013301332 0.11993143 0.088363156 0.032518778 -0.110777535 0.0167229 0.07804238 -0.11071628 0.26315528 -0.12345451 0.11423728 -0.047504585 -0.12672156 -0.05879773 0.060505155 -0.077768244 0.18303107 0.15613626 0.02167301 0.011493276 -0.18268935 -0.1044786 0.19891417 -0.009103529 -0.0066869576 0.14526989 -0.08972921 -0.12216577 -0.102889925 0.04786513 -0.1898463 0.26659012 -0.11381687 -0.31267318 -0.15546402 -0.10277315 0.07985842 -0.1424558 -0.32387626 0.15130745 0.1242071 -0.050367083 -0.0790356 -0.047511198 0.08748427 0.12173694 0.18248841 -0.2050214 -0.08867109 -0.009423502 0.013560355 -0.10582122 -0.04722554 -0.07398838 -0.052080195 0.12954566 0.24027039 -0.14972544 0.15593739 -0.16202311 0.04282659 -0.18562318 0.06483363 -0.1500683 0.21244042 0.16360046 -0.13745305 -0.1697553 0.2542919 -0.10121646 0.04565615 0.19566159 -0.07403695 0.12228461 0.044218853 -0.04153934 -0.10693466 -0.14241283 0.12297384 0.101083055 -0.1700767 -0.097788066 -0.05172809 0.1085739 -0.038655523 -0.03719789 0.105327114 0.059781507 -0.08853167
175 -0.04812019 -0.06554318 -0.128249 0.13760833 0.07104648 -0.039183944 -0.089415796 -0.021197814 -0.18140164 0.123223364 0.002180728 -0.17395958 -0.09956995 0.06562326 0.1525373 0.18078631 -0.11597239 -0.10261441 -0.019477928 0.07898602 0.059478752 0.13585587 -0.032212615 -0.14329565 -0.19960806 -0.040910598 -0.048069715 -0.042483173 -0.06924729 -0.10035183 0.008423227 0.077581264 0.21333797 0.11182122 0.048421614 0.040787622 0.076115385 -0.15557745 -0.10360025 0.073184535 -0.107154235 0.044645533 0.02513862 0.08467653 -0.039418068 0.0035359892 -0.005864217 0.06373561 0.13025087 0.020755446 -0.08997851 0.15798497 0.046183024 0.0055925073 0.059464466 0.14753053 0.13847785 0.09078123 -0.058652624 -0.084723555 -0.08956447 0.025086977 -0.075593606 -0.004287215 0.23439415 0.002030997 -0.10384154 -0.0051842686 -0.109734215 -0.20421726 -0.04814693 0.026147228 0.047143694 -0.14210936 -0.012639419 -0.14673597 -0.023298454 -0.026192885 -0.06430952 0.083406106 -0.07478038 -0.02142113 0.06652032 0.24007466 -0.023541812 0.22501464 0.11020369 0.020475112 0.09446211 0.06490321 -0.08865734 -0.00060735183 0.117961176 -0.022098102 0.13905378 0.13660789 0.06769127 -0.11361746 -0.14467439 -0.018979719 -0.1259582 0.13641965 -0.05997191 0.0013730607 -0.032060847 0.04716599 -0.09875362 0.16855463 0.010803015 0.070127465 -0.020324543 0.08708512 -0.062282935 -0.17699341 -0.03083632 -0.03859888 0.0012441083 0.034723114 0.017248852 0.042981938 -0.07141762 -0.020307658 -0.054061536 -0.012703431 0.043661468 -0.13920072 -0.12947981 0.015018073
176 0.109946646 -0.104111835 0.0067351568 -0.16023692 0.21025108 0.026582181 0.10219024 -0.10751817 -0.09591605 0.13440357 -0.18176685 0.019351147 0.1119542 -0.13720135 0.10419182 0.3236338 -0.034351468 -0.1552384 -0.15963328 0.08744688 0.09422683 -0.0058433297 -0.07102932 -0.18018147 -0.22280724 0.027457949 -0.11485517 0.18264146 -0.03338725 -0.06363603 -0.016121352 -0.19468835 0.11456329 0.13358337 -0.002230277 0.124414265 -0.06971468 0.07330091 -0.2040471 0.02143588 -0.029582039 0.024723938 0.12348008 0.08768518 0.023010574 -0.15382224 -0.09015057 0.1631452 -0.031722493 -0.0031902364 0.11144875 0.17443445 0.07795341 0.19297436 -0.1935065 0.112835415 0.23961449 -0.020667067 0.022012252 -0.07621661 -0.10500415 0.24212812 0.18734095 -0.077348344 0.13243553 0.025729934 0.17269245 0.06623505 -0.16545938 -0.08996236 0.1594168 -0.04441862 0.044869255 0.11368193 -0.09625917 -0.19716114 -0.008343713 -0.2549094 -0.0009035289 0.082509294 -0.09672117 -0.20719384 -0.110436104 -0.0012102642 -0.013550487 0.19109146 0.052692294 -0.15610148 0.0029479535 -0.020328872 -0.07167293 -0.1003176 0.08722229 0.008808247 -0.108296454 -0.048044577 -0.037463855 -0.14016454 -0.021822004 -0.052495163 0.050173614 -0.0019281001 -0.20298234 0.10228647 -0.110422574 0.013012242 -0.085702874 0.06756851 0.049057323 -0.066432655 0.008996859 0.03518773 0.13955559 0.0015744779 -0.10383323 0.1266026 0.08790386 -0.030407118 -0.0018966511 -0.029450499 -0.03728422 -0.17419355 -0.07815829 0.113144524 0.1556949 -0.053186808 0.046837073 0.21732672
