404 128
0 0.11505594 -0.093370795 0.018676497 -0.0021601869 0.07894545 0.08393525 -0.023729775 0.0021741916 -0.18382733 0.06888238 0.062392943 0.07179273 -0.10356688 -0.09770955 0.18906374 0.040758744 -0.06721785 -0.013314257 -0.01586773 0.0783241 -0.064945415 0.2388808 -0.086711586 -0.16875352 -0.24861863 0.10756886 0.02440419 0.02879477 -0.06311336 -0.02915932 -0.0069064223 -0.101722494 -0.0325318 0.054716654 -0.14242803 0.06590713 0.12506005 -0.053377267 -0.046484236 -0.029600417 -0.059277732 0.07899076 -0.024147533 0.10255384 0.01267975 0.07014237 -0.05619723 0.10219861 -0.045645725 -0.013392289 0.09324817 -0.042599555 0.18940692 0.0004983263 0.097365804 -0.023595711 0.21170789 -0.08250323 -0.06513607 -0.043404177 -0.07583725 -0.053367905 0.049556773 0.046963874 0.13980232 -0.19117169 0.122357644 0.08461298 -0.01334012 -0.14858553 0.11583447 0.02179771 -0.1970173 -0.18160819 -0.024478722 -0.06175286 -0.15560867 0.05122835 -0.1432973 0.16319394 -0.030290287 -0.1355215 -0.07458 0.31427824 -0.01640648 0.095561124 0.079641946 -0.15088631 0.094457574 0.021384263 -0.08592522 0.08782274 0.0156853 -0.026507229 0.1470861 0.09172297 -0.056454502 -0.14614801 0.035144124 -0.14660487 -0.16200939 -0.023766896 0.029090835 0.017803064 -0.006928335 -0.035016567 0.11809074 0.119784534 0.094993904 -0.095262885 0.00076392514 0.016452057 -0.071083695 0.03232657 -0.08036214 -0.087790065 0.0022403358 0.06347232 0.089163244 0.014212714 -0.09405925 -0.11775474 -0.01711088 -0.015802609 -0.11811136 -0.19550389 -0.00067832106 0.05760978
1 0.033162568 -0.22217858 0.101695344 0.064226046 0.067968525 0.23770347 -0.124118306 0.095620506 -0.18976246 0.18910272 -0.13752864 -0.16888066 -0.08905864 0.030500267 0.040088926 0.12959427 -0.058038 0.14115529 -0.03376706 0.16155407 -0.14061064 0.45389834 -0.11007869 -0.2644946 -0.09959457 0.26060662 -0.087782994 0.09632817 -0.037446037 -0.16590694 -0.254959 -0.14601253 0.037797883 -0.05385251 0.07502562 0.06554329 0.054945864 -0.037909802 -0.053127214 -0.08111991 -0.1521703 -0.05117333 0.06748111 -0.19847244 0.10103077 -0.0026702173 0.10002376 0.01915238 -0.0016960123 0.066898026 0.20940167 -0.050073124 0.35582906 -0.06651214 0.21444532 -0.10641281 0.33515182 -0.09451688 -0.095241785 0.15846421 -0.19169115 -0.19696851 -0.046207435 0.23983212 -0.0037574368 -0.061229512 0.22738315 0.28672886 -0.07499762 0.06559326 0.105171114 0.19499992 -0.23111862 0.022795444 0.0062550274 -0.04387 -0.22652659 0.032079928 -0.094472796 -0.02540562 0.01945883 -0.03648207 -0.12758031 0.36058187 0.13230085 0.19895642 -0.06250448 -0.027006576 0.15805486 0.044881828 -0.014762279 0.31985644 0.11020204 0.097988844 0.14625995 0.06438148 -0.17106445 -0.04900846 0.012230462 -0.281637 -0.12328309 -0.026694307 -0.002451977 0.015998889 0.18561612 0.016584309 0.2313192 0.19833264 0.145739 -0.14463143 -0.028393691 -0.063153885 -0.056982275 0.00017254999 0.021935435 -0.15214953 -0.17065926 -0.071916394 0.2273083 0.22551553 -0.09979 -0.019507917 -0.09087544 -0.018276514 0.051855672 -0.11490888 0.09254655 0.07681471
3 0.11144959 -0.16866088 0.072655976 0.17959371 0.098454855 0.06885099 -0.047215704 0.14013375 -0.09215531 0.07531788 0.113865465 0.0744937 -0.06677988 -0.021302115 0.16955467 0.05517462 -0.11655681 -0.014279962 -0.0705343 0.13206512 0.008103175 -0.010440794 -0.055447385 -0.09381951 -0.16068436 0.032236055 -0.06641079 -0.04176258 -0.027634867 0.0074366983 -0.06291608 -0.12168041 -0.063720495 -0.0017922549 -0.03977556 0.1077798 0.12323748 -0.093778074 0.0105231805 -0.04336479 -0.14063185 0.13641115 -0.032073624 0.12854205 -0.015666226 0.027656557 -0.08186496 0.17197365 0.034752812 -0.0044832607 0.17429514 0.047430083 0.077284105 0.03949775 0.12550493 -0.056601357 0.21578456 0.019666756 -0.11856961 -0.002847606 -0.2037813 -0.071058825 0.11728699 0.03723745 0.04411119 -0.12236555 0.07464945 0.11830621 -0.03800099 -0.17906457 0.05973405 -0.023304539 -0.177656 -0.17670229 -0.01741486 -0.14520343 0.048048425 -0.082789294 0.05739475 0.1088534 0.053323623 -0.099172495 -0.00990603 0.25900903 -0.028519616 0.11513046 0.07506282 -0.11316142 0.04448695 -0.023658697 -0.003003148 0.051279966 0.04024887 -0.11295789 0.11316203 0.07669035 0.0067458195 -0.024385246 -0.14507943 -0.1430674 -0.09371489 -0.034860365 -0.050977495 0.024484795 0.12174922 -0.11088818 0.030670568 0.10959213 0.007438154 -0.13070104 0.16418426 -0.08718978 -0.06420667 -0.010636901 -0.13204019 -0.11492379 0.0014934482 -0.041738953 0.13042751 -0.03970996 -0.0073578455 -0.22836053 -0.0018215635 0.079455465 -0.077661134 0.06242097 0.024896352 0.018583134
11 0.19514486 -0.25145853 0.05395679 0.21299896 0.19162592 0.08426043 -0.20976701 -0.04256724 -0.19078912 0.059463024 0.09385224 0.048457414 -0.06581391 -0.11816494 0.15875581 0.20325898 -0.1772153 0.07531752 -0.009929326 0.08473354 0.09887697 0.27331126 -0.009996477 -0.12332857 -0.2021684 0.14069436 0.060148567 0.031096118 0.0013383633 -0.0361403 -0.07691378 -0.13558309 -0.015483412 0.017548023 -0.19436932 0.1365443 0.15027715 0.07523122 0.039976295 -0.16122127 -0.018617935 0.09543089 -0.0965197 -0.0122048715 -0.03389128 0.006474437 0.045333184 0.06594981 -0.018937558 0.035990633 0.1099822 0.046025652 0.13705787 0.09276107 0.052889656 -0.08385113 0.14146724 -0.049391013 -0.010246833 -0.0036214788 -0.08097271 -0.026003722 0.031696126 0.06801828 0.07743398 -0.027141888 0.08072388 0.02835094 -0.053382237 -0.074403495 -0.01922552 -0.008452011 -0.15454915 -0.10420549 0.0072637517 -0.056554977 -0.09067111 -0.008027883 0.040600598 0.03439318 0.10116631 -0.10282393 -0.033167142 0.2736051 0.14407481 0.095378816 0.080559924 -0.10943324 0.12633297 -0.029446682 -0.07591062 -0.049122535 0.1035069 -0.03721654 0.13299237 0.04142865 -0.050436415 -0.030429015 -0.09655916 -0.24507292 -0.19531994 0.052474342 -0.065475136 0.099303484 0.024160376 -0.0550989 0.14644201 -0.015098855 -0.010720531 -0.2268344 0.009834323 0.0096716825 -0.06195483 -0.105813295 -0.17949072 -0.06485662 0.06779465 0.029925246 0.02035083 0.0033676361 -0.07269653 -0.09214445 0.041839108 0.010025438 0.042796016 -0.016880257 -0.08963825 0.09178868
14 0.012032373 -0.2677617 0.015789123 0.04608611 -0.008898134 0.021833934 -0.05479901 0.031220812 -0.10998979 0.06942923 0.07498856 0.035520524 -0.10902828 0.020848256 0.19555482 0.04830418 -0.16477087 0.061636146 -0.07372238 -0.025895514 0.07675887 0.20659314 -0.19485156 -0.18266807 -0.12077626 0.075748615 0.006424508 0.267919 -0.013183278 -0.065057874 -0.07105635 -0.08625133 -0.044325374 0.0745868 0.074353784 -0.0366487 0.30626503 -0.023717975 -0.06486396 -0.07844273 -0.16009784 0.024273772 -0.023607587 0.02792682 -0.0038257346 -0.01267758 0.016012115 -0.0008050904 -0.16018467 0.020120464 0.08508026 0.09791739 0.18202351 -0.009025513 0.05556548 0.0030214237 0.20376512 -0.010122581 -0.12203201 0.09340565 -0.1349258 -0.035646915 0.14056906 0.13293384 0.03819976 0.079096325 0.08448471 0.17226279 -0.038803484 -0.17232473 0.07036127 -0.06840369 -0.0868793 -0.2206676 -0.06804477 -0.019982463 -0.04298825 -0.1130342 -0.03473244 0.026256781 0.069265425 -0.13387886 -0.05482379 0.27156776 0.025401035 0.12506938 0.17439376 -0.14980592 0.0818223 -0.017738378 0.0006212692 0.09202719 0.06829033 -0.007978323 0.16301917 -0.009797538 -0.013390015 -0.14670536 -0.10748629 -0.14805663 0.015277938 0.04928159 0.0066795372 0.06928075 0.106715634 -0.058315232 0.010813195 0.08930104 0.07727741 -0.104697816 0.06939098 -0.050114434 -0.006331171 0.025434848 -0.16196778 -0.10134486 -0.12982282 0.0022226844 -0.02142724 -0.046526823 -0.08420716 -0.133691 0.103519484 0.01142324 0.016001228 -0.0011546137 -0.03773527 0.026559675
17 0.12048879 -0.32076126 0.06555959 0.049338672 0.06249599 0.11362687 0.0068614455 0.081269145 -0.057038486 -0.0606309 0.11750752 0.026245853 -0.020390036 -0.11294091 0.12070529 0.07115044 -0.20548932 0.034938287 -0.009113777 0.07687176 -0.03011639 0.26654017 -0.19663095 -0.15752885 -0.24738333 0.0667057 0.07278698 0.05439999 -0.049866773 -0.09364101 -0.043926574 -0.24490294 -0.05579252 0.16701385 -0.1615414 0.04153818 0.03018962 -0.16061875 -0.099892676 -0.09983053 -0.0905258 0.04068316 -0.07573316 -0.02307897 0.027085802 0.04372151 0.061374623 0.10117198 -0.036296166 -0.043424852 0.065962575 -0.09979699 0.14370994 -0.062360633 0.22880903 -0.020054722 0.351845 -0.16178456 -0.08278723 0.044943463 -0.10121003 -0.11723263 0.076756835 0.08541787 -0.04176056 -0.05839312 0.029967545 0.051677752 0.0156222405 -0.093734175 0.054729346 0.054603152 -0.1885083 -0.030218963 -0.116289616 -0.09750972 -0.12673874 0.035827596 -0.039729293 0.068831354 -0.0035425008 -0.108614616 -0.025942085 0.459811 0.02953818 0.26648358 0.034298927 -0.1985614 0.13340071 -0.0170577 0.009583059 0.021187743 0.13038129 0.09082873 0.08102112 -0.042967156 0.0010575111 -0.13239746 -0.03949849 -0.18881099 -0.00938942 -0.012100212 0.005455928 -0.010632237 0.007947149 -0.034096185 0.031926487 0.089546084 0.062401228 -0.16906328 0.115333736 0.065625764 -0.0130087035 0.11329406 -0.0014732981 -0.11930415 -0.106610216 0.07583183 -0.0054079555 -0.045319043 -0.20871447 -0.15631124 0.065515116 0.031626616 0.0405544 -0.025219824 -0.014124741 -0.033378176
21 0.092524014 -0.13711904 0.05735714 0.1341255 0.06788922 0.09540277 -0.10716818 0.056937963 0.02933149 0.00803002 0.0973661 0.037901387 -0.049047504 -0.06530413 0.15433803 0.10173755 -0.084245525 -0.002356489 -0.036779236 0.09278209 0.01529105 0.0836752 -0.0033712152 -0.031102233 -0.10026759 0.08700699 -0.015056888 0.0007017803 0.060615286 -0.09158627 0.09809286 0.02708826 -0.0017999494 0.01158956 -0.057488028 0.01905208 0.14051948 -0.008167562 -0.0848512 0.0563984 -0.2205685 -0.007946451 0.04784552 0.05093419 -0.0045787683 -0.02851255 -0.008193738 0.024029192 -0.016147634 0.064707875 0.1327738 -0.035502832 0.050172545 0.1311323 0.049014654 0.0071298424 0.22609127 -0.037531137 -0.08241389 0.08233439 -0.13296606 -0.054698788 0.18155788 -0.063648246 0.08383271 -0.16761157 0.118243255 -0.08463815 -0.01202025 -0.036423113 0.0053071897 0.003473753 -0.16676044 -0.13984789 0.06220154 -0.12528239 0.03318364 0.0066860663 -0.055820055 0.07913128 0.0031478044 -0.12048397 0.062279746 0.3505395 -0.012107074 0.19078468 0.060481552 -0.009726262 0.13914514 0.046875134 0.084191054 -0.007069958 0.0993871 -0.069144726 0.2067044 -0.009332464 0.07337783 -0.14565253 -0.10555866 -0.083585754 -0.13236423 -0.025898175 -0.017309763 0.033112954 -0.02302288 -0.12053346 0.08824037 0.19170298 0.08660888 -0.19250989 0.10460319 -0.15149724 0.04424653 0.03066448 -0.16411375 -0.15252107 -0.06144366 -0.03303945 -0.021815307 -0.059079252 -0.02671787 -0.20155875 -0.11065087 -0.003316255 -0.14994486 0.011147924 -0.042775914 0.022781571
25 0.008230945 -0.09229796 0.07933947 0.11090403 0.051623847 0.102421604 -0.12588656 0.058827747 -0.0032550006 -0.08367555 0.08740251 0.18446541 0.0073819836 -0.08850101 0.16756873 -0.007424194 -0.14211458 0.01557643 -0.0842732 0.079711616 0.035254236 0.17378324 -0.017077709 -0.10360177 -0.12662923 0.11319444 0.0012258992 -0.079156965 -0.13923053 -0.026316019 -0.0008402405 -0.052464984 -0.0045128693 0.040855404 -0.14916244 0.08154247 0.19132249 -0.031589665 0.08601267 -0.044413388 -0.17756459 0.10798745 -0.03361429 0.1553323 -0.14470036 -0.012621783 -0.031953674 0.11303191 -0.06297481 0.049859803 0.070230134 -0.031770602 0.15225446 0.08910026 0.08986154 -0.10199607 0.14094013 -0.038708948 -0.0471391 -0.033014182 -0.10937761 -0.06001262 0.13233706 0.052600548 0.1254801 -0.068163656 0.14712772 0.024810001 0.034338422 -0.16314048 0.05832577 0.04302379 -0.15197323 -0.16786882 -0.12517454 -0.09218911 -0.1573631 -0.012662911 -0.03833563 0.108455256 -0.07054875 -0.04429573 0.025753947 0.26897952 -0.10397146 0.08476833 0.10170389 -0.15894593 0.035966624 -0.039061446 -0.03629393 0.06462472 0.09324348 -0.06645772 0.17850305 0.11723472 0.014319974 0.038812563 0.021258596 -0.1007563 -0.07298886 -0.012389478 -0.09280609 0.043864764 -0.004430634 0.02156998 0.06689626 0.13964482 0.10971874 -0.07257326 0.00837443 0.02980419 -0.156129 -0.14451717 -0.107923515 -0.11262404 -0.09510626 0.033630297 0.12981519 -0.04440594 -0.057096153 -0.21038926 0.0023424625 -0.04489678 -0.06522447 0.07415014 -0.01892054 0.10366045
30 0.062605925 -0.21680443 0.077750035 0.052276984 0.1208592 0.06370399 -0.018870845 0.06390536 -0.124363996 -0.009027675 0.07792779 -0.039113868 -0.13783374 -0.1333542 0.23429179 0.05647297 -0.036801923 0.017153464 -0.011120361 0.07353733 -0.089109324 0.35338828 -0.10692957 -0.18368952 -0.21791694 0.12707546 0.023965541 0.16828614 -0.1829565 -0.04660748 -0.11153471 -0.109935 -0.024680473 0.13937683 -0.076564774 0.026502464 0.24872375 -0.048745703 -0.030652067 -0.114451416 -0.087905206 -0.06486835 -0.037867572 0.06132559 0.052097965 0.0561957 0.020751499 0.0019151237 -0.03689198 0.041014533 0.024589786 -0.016029088 0.16785948 0.0064522875 0.14483264 -0.19623414 0.28143963 -0.19060782 -0.073669195 -0.01867901 -0.041682057 -0.12524872 0.06729102 0.07226419 0.103452 -0.092593096 0.08215579 0.044267673 0.049576506 0.02499024 0.078680314 0.09575587 -0.1840474 0.015693195 -0.100766726 -0.051293954 -0.20447323 -0.0010495592 -0.04985506 0.018549984 0.045442905 -0.15494429 -0.0584645 0.31055945 0.05455228 0.24617936 0.017535318 -0.14958991 0.093481444 0.07907922 0.016799148 0.18642558 -0.017155852 0.08195511 0.1389342 -0.03687493 -0.030621395 -0.09031811 0.00016743477 -0.1616715 -0.07810305 0.087248914 -0.045417298 0.0021360263 0.13513015 -0.10014843 0.117065765 0.07300098 0.102334276 -0.04192271 0.0068888487 0.07137562 -0.06949657 0.060913946 -0.0885172 -0.16617623 -0.076322176 0.097676925 0.09240364 0.07593527 -0.11722843 -0.07920668 -0.0046724905 -0.015643239 -0.10522004 -0.09807394 -0.009374252 0.09080941
51 0.102683835 -0.049694363 0.08563066 0.060242403 0.08679308 0.072813585 -0.11468024 -0.09518866 -0.027987879 0.13754728 0.15546331 0.010752448 0.04979538 -0.10417792 0.24750744 0.030691873 -0.13168916 0.06270776 -0.0644857 0.05914049 0.11538939 0.28900784 -0.023711165 0.01001418 -0.09461627 0.03517602 -0.14000456 -0.019267408 -0.12342794 -0.10402122 0.06399817 -0.11013306 0.12657349 -0.07195581 -0.054026507 0.11023848 0.20062426 0.054427054 0.15367657 0.08554552 -0.11599227 0.099938594 -0.08124934 0.0372082 -0.03707297 0.027768303 0.055325285 0.099662416 -0.1603017 0.019787932 0.13301787 0.072674334 0.070000246 -0.004341599 0.027082542 0.053253688 0.10120711 0.02489367 -0.08219208 0.04074175 -0.10452586 -0.08631674 0.2336793 -0.060814127 0.17615737 -0.13977934 0.23377836 -0.029157111 -0.047173806 -0.092236675 0.056905057 -0.039553944 -0.17324974 -0.16607447 0.0073435693 -0.18435708 -0.24846639 0.15962434 -0.100134924 0.16285624 -0.063232124 -0.09707809 -0.076248735 0.19008626 -0.045904428 0.12306934 0.04000247 -0.15457189 0.062646486 0.050131317 -0.018883113 0.12347988 0.09566746 -0.048733868 0.17472515 0.07167705 -0.021137416 -0.14894171 0.024631334 -0.097510315 -0.025745383 0.0587285 0.0339007 0.041349567 -0.13085823 0.084857754 -0.0679866 0.19155768 -0.05519242 -0.073082864 -0.041177396 -0.050670147 -0.06258299 -0.09992683 -0.076011546 -0.13500232 -0.16281013 0.051354583 0.137011 0.044875454 -0.03574265 -0.044805415 -0.14702617 0.027727652 -0.041897774 0.003303017 0.023093186 0.17436135
57 0.13577174 -0.19963066 0.026611626 0.16078584 0.14362757 0.12136873 -0.16289131 0.049811922 -0.037174575 0.053902272 0.11577372 0.031264167 -0.078612864 -0.060515188 0.13776404 0.03592294 0.02180148 -0.06580832 -0.15705192 -0.033449624 -0.06869293 0.16803536 -0.044142593 -0.16101438 -0.07416831 0.013400986 0.03612112 0.044333797 -0.02514554 0.07305254 -0.03710802 0.04514963 -0.07624771 0.048761606 -0.06653307 0.08207917 0.20247504 -0.004986532 0.005588913 -0.03361965 -0.071963534 0.017080167 0.06534363 0.071322076 0.06103998 -0.06333877 -0.054112293 0.06406531 -0.051478017 0.06887897 0.013899128 0.01290277 0.055935975 0.075047664 0.026409307 -0.066533655 0.19536449 0.024507197 -0.037481125 -0.05826974 -0.06281827 0.018356806 0.1618667 0.024850266 0.110386364 -0.0842282 0.04731557 0.06096026 -0.09751579 -0.16753298 -0.034548834 -0.10902116 -0.18491444 -0.18829897 -0.03462114 -0.17908753 -0.030226534 0.062098585 0.01316258 0.12336807 0.035159472 -0.16062325 0.18166482 0.22321829 -0.038282298 0.06895877 0.18654126 -0.11990262 0.13542843 0.06409989 -0.0074730506 -0.012505247 -0.05410217 -0.09998007 0.15154935 0.034680087 -0.003110235 -0.025454292 -0.09115173 -0.21600877 -0.028528752 -0.026736347 -0.09914495 0.0746446 0.054397155 -0.0043169935 0.117022656 0.21041109 0.05926476 -0.024293741 0.060444545 -0.09162016 -0.0138960155 -0.023686234 -0.12761757 -0.09512081 0.03104066 -0.00828081 0.06896731 -0.15977816 -0.016502213 -0.07473667 -0.04949758 0.06396479 -0.07898037 0.095277555 0.04408387 0.092939004
59 0.08378172 -0.06888462 -0.038611695 0.1597019 0.09907797 0.019778306 -0.046717163 0.012005525 -0.02524442 0.10030013 0.04594379 0.025542142 0.0071239485 -0.064264886 0.09655724 0.1529228 -0.061296046 -0.036461227 -0.057809956 0.11624733 0.10579023 0.23025264 -0.03154985 -0.110652365 -0.068688296 0.04013369 -0.030610366 -0.013813412 -0.025508307 -0.037270952 -0.014185597 0.030634597 -0.0553437 0.07813452 -0.063629255 0.025634194 0.22551498 0.056291193 -0.11734382 -0.036596686 -0.099628754 0.12924518 -0.055924468 0.11412102 0.1057395 -0.0342547 -0.023833329 0.11549612 -0.033828136 0.10012241 0.075126484 0.03013784 0.14640561 0.039331824 -0.02735715 0.0041632927 0.20879358 0.083275884 -0.10054464 0.06878448 -0.20364311 0.01701167 0.25522575 0.07288139 0.13487032 -0.109724425 -0.017864991 0.106448315 -0.12772265 -0.18592602 -0.022008467 -0.02775253 -0.16615951 -0.12275183 -0.09603885 -0.1176355 0.0075714546 0.07794693 -0.008283702 0.13677004 0.09425177 -0.15549748 0.020421414 0.20529948 0.038446553 0.21290556 0.057283796 -0.04141179 0.10055943 0.026416447 -0.027301256 -0.035866667 0.119478375 -0.005571998 0.18210849 0.117502205 -0.07677974 -0.131315 -0.109604634 -0.07399802 -0.07119892 -0.108939916 -0.008789379 0.07139674 0.05858211 -0.09054889 0.05801818 0.0780093 -0.09857247 -0.105364695 0.10280129 -0.15680426 0.00064900314 -0.0011435586 -0.16498989 -0.07941454 0.05164822 0.012645228 0.10665918 -0.06868831 -0.0798619 -0.14784192 -0.07457927 -0.008907611 -0.01681166 -0.0050818324 0.077424645 0.035444614
60 0.03258857 -0.12774697 0.062300127 0.13419022 0.13682483 0.09128545 0.044581726 0.09867642 -0.136001 0.18560794 0.041413695 0.077026114 -0.07428054 -0.06666722 0.22483589 0.07099447 -0.031415034 0.029757792 -0.115655184 -0.027660761 -0.031271912 0.12367329 -0.15009451 -0.16833359 -0.25191262 -0.061107364 -0.12191475 0.083813034 -0.032401085 -0.009905354 0.021848688 -0.052097775 -0.19173758 0.008391329 0.047722604 0.060122762 0.22747247 -0.046148583 0.040073182 0.034155168 -0.1252387 0.026952615 -0.0034629223 0.0760767 0.055643916 -0.11190476 -0.1720857 0.098569185 -0.15064867 0.05638755 0.11744541 0.040932093 0.029098378 0.034111843 -0.03091479 -0.07093369 0.109039046 -0.025922934 -0.032102723 -0.09382506 -0.0725248 -0.02786357 0.07503363 0.061339144 0.1144506 0.0008617419 0.037800986 0.076871715 -0.12928903 -0.21734977 0.18691042 -0.085462056 -0.24490562 -0.13274485 0.09006292 -0.21192342 -0.1425511 0.019226164 -0.05576266 0.02490293 0.058342025 0.012559812 -0.04056101 0.1986555 -0.0035897924 0.21103287 0.105889894 -0.012840129 0.13912337 -0.0014715041 0.10071301 0.15516086 -0.06511206 -0.031472776 0.026151843 0.07092198 -0.033790797 -0.23108582 -0.14991556 -0.1908143 0.07054255 0.016750263 -0.12381415 0.03697954 -0.012116915 -0.18341684 -0.0004994394 -0.029711291 0.105088204 -0.14000349 0.22300717 -0.1170746 -0.027467282 0.045166563 -0.09881265 -0.14289324 -0.097490944 0.009944346 0.03581149 -0.12870684 -0.050145786 -0.12305053 0.06443089 0.057624485 -0.086830534 0.08704642 -0.0496658 0.03664163
66 0.054890923 -0.19766493 0.06316121 0.16650097 0.17087182 0.0064446335 -0.30614042 0.02217075 -0.15543185 0.05853696 0.049012713 0.11495234 -0.021362368 -0.1116599 0.24088813 0.07992636 -0.060102053 0.041917462 -0.050728444 0.04842774 0.13191867 0.2985672 0.034441497 -0.2024583 -0.1582839 -0.003237113 -0.14351434 0.07861814 0.01990236 0.0053654 0.11618884 -0.0037848908 -0.0049653305 0.20516893 -0.06059284 0.039130446 0.20207277 -0.013770967 -0.028669538 0.018769689 0.083142884 0.064981535 -0.07214144 0.006946211 -0.14976598 0.061303046 -0.090536304 0.22458646 -0.08021117 -0.110880904 0.04014071 0.064314924 0.08125307 0.043325868 0.09882552 -0.12914881 0.106034674 0.043822486 -0.075083055 -0.12228616 -0.17161298 -0.21799764 0.25634396 -0.025840666 0.0028978698 -0.12162192 -0.016817257 0.002744601 0.016268058 -0.20322825 0.0066299974 -0.14404023 -0.10311858 -0.06527565 -0.12010019 3.0275938e-05 -0.050554607 0.05348881 -0.085962996 0.1650781 -0.041297585 -0.030312309 -0.1251508 0.351431 0.0210525 0.17749389 0.12800772 -0.036585696 0.018455362 0.020004025 0.06997024 -0.07606256 -0.05669363 0.11641974 0.12857777 -0.032018024 -0.103425235 0.057905722 -0.10200933 -0.056237042 -0.10693783 -0.097141325 -0.07135551 0.0047454815 0.04324304 -0.08508012 0.095488995 0.16355337 0.14926825 -0.15879473 0.10577418 -0.037544847 0.10786236 0.03745851 -0.061337557 0.06475836 0.096441135 0.09329823 0.06075588 -0.07701203 -0.04822814 -0.035714276 0.030952374 0.016567886 -0.20465071 0.0862149 -0.1184645 0.0857811
72 0.16452244 -0.31234393 0.091031365 0.16848725 0.1716369 0.05600846 -0.21542437 0.01744026 0.019002907 0.143398 -0.00896004 0.09232945 -0.063816555 -0.12464615 0.23821612 0.057776093 0.07271282 -0.02297871 -0.11328788 0.094817206 0.029271305 0.12044019 -0.114926286 -0.12606719 -0.15621684 0.08428779 0.0018928089 0.044531647 0.063882425 0.048759304 -0.07726133 -0.0045284536 -0.040072888 0.03985345 -0.11139176 0.07073987 0.15998676 -0.0540319 -0.02923333 -0.0845077 -0.060944397 -0.11895363 -0.07876775 0.02078136 0.06980774 -0.12983212 -0.08063423 -0.10957717 -0.11166522 -0.012285528 -0.05639146 -0.0057322527 0.09206796 0.17296676 0.14042489 -0.03449989 0.233926 -0.043686315 -0.021165442 -0.029970828 -0.2027616 0.009281094 0.13769248 0.13266045 0.011536712 -0.079690345 0.06086656 -0.042368535 -0.087278515 -0.1447008 0.04835464 -0.05726541 -0.15990195 -0.015588735 -0.05033164 -0.09607308 -0.07119668 0.044233438 0.027330518 0.052906122 0.017625747 -0.091415815 0.09649414 0.26950952 -0.060344193 0.23824771 0.096815445 -0.11827258 0.0828471 -0.027835922 -0.02766533 0.029537763 -0.07326805 -0.12792192 0.15966105 -0.052261613 0.111662894 0.0012931231 -0.044842698 -0.24836493 -0.07830954 -0.039942555 -0.13546176 0.12916125 0.11822246 0.09561816 0.05349094 0.009401627 0.05574291 -0.022157954 -0.03265059 -0.040338494 -0.04225101 0.106387965 -0.1312367 -0.14042689 -0.0034616226 0.0899764 0.054634403 -0.06834219 -0.13016716 -0.20410566 0.124317646 -0.019396111 -0.028958399 0.11233478 0.09857647 0.13891599
80 0.052318636 -0.029890304 -0.11363197 0.17688799 0.30229092 0.12629889 -0.07548212 -0.13535877 -0.050419096 -0.11908874 0.089799546 0.112765744 0.03978994 -0.25474998 0.20531763 -0.037695017 0.051064227 -0.05450529 0.08317398 -0.04859824 -0.024742588 0.22801244 0.08438325 0.08085409 -0.067334354 0.116413645 -0.01087265 -0.12819515 -0.17418079 0.07895047 0.13955653 -0.16498777 0.032968912 -0.14989795 -0.15204298 0.16955478 -0.017142229 0.06821966 0.005233409 -0.02403587 0.020711975 0.097293995 0.18311343 -0.14863762 -0.20120361 -0.13555995 -0.0037346126 0.14156955 -0.1634336 -0.01964238 -0.09264233 0.0046704873 0.228212 0.060193457 0.0028661832 -0.16262597 0.0320515 -0.16602862 -0.07471921 -0.050430734 -0.02679415 0.02553928 0.035109058 -0.029382769 0.124253474 -0.23354866 0.22390671 -0.015638892 -0.056288026 -0.23826984 0.22264124 -0.056336477 -0.255212 -0.19929494 -0.07096829 0.01935577 -0.2329123 0.28160536 -0.18424465 0.16058658 -0.01553392 -0.15251541 0.030018648 0.22836769 0.026073607 -0.005747656 0.1316698 -0.048080724 0.16742739 0.025307953 0.107725866 0.2718046 0.13847913 0.030537853 0.17437506 0.16289043 -0.24615535 -0.17358844 0.018948318 -0.015298026 -0.24884258 -0.11062564 -0.114997156 0.070736684 -0.063234136 -0.017236903 0.021786194 0.3889451 0.13054158 -0.14627098 -0.08652763 0.10285076 0.09716534 -0.0037416443 -0.24058554 -0.10905237 -0.08224907 0.08108133 0.27793342 0.007409547 -0.26232898 -0.2602576 -0.21484818 -0.12820013 -0.12879124 -0.15573345 0.09784129 0.15207331
83 0.08600701 -0.16664262 0.04606391 0.13991609 0.10563433 0.06888833 -0.120872274 -0.033561267 -0.08159829 0.12315805 0.00024185526 0.13367666 -0.08952701 -0.19379118 0.122612216 0.07831296 -0.05142272 0.031213783 0.0058818366 0.103127494 0.020023834 0.21067612 -0.10577985 -0.13705291 -0.34955928 0.022120714 -0.07420708 0.0058977967 0.02358148 -0.03999125 0.13701092 0.080761425 -0.019986488 -0.016648779 -0.018072234 0.04295598 0.110456355 0.0103863925 -0.11725145 -0.055047184 -0.11709384 -0.0305668 -0.069632724 0.06521119 0.08869684 0.0062501407 -0.058728237 -0.005259748 -0.06860116 -0.06872527 0.06577238 -0.123776175 0.07751388 0.10678642 0.12688346 0.03956964 0.11713871 0.070231825 -0.093770854 -0.07486988 -0.036659922 0.040694933 0.20123437 0.12926792 0.110439405 -0.14032963 0.023572847 -0.113602675 -0.1302488 -0.106248245 0.051013816 -0.102379024 -0.13385035 -0.2238863 0.064752735 -0.082289726 -0.095333114 -0.014610293 -0.05466503 0.021368785 0.07174321 -0.037659954 -0.049656425 0.23217295 0.17144477 0.105451986 0.045292553 -0.13315268 0.1670987 0.06262857 0.13680199 -0.013399496 0.12044965 -0.017513974 0.08742136 0.12026543 0.009714693 -0.033621803 -0.025968889 -0.08199515 -0.03737065 0.046997104 -0.122640416 -0.026871962 -0.1311499 -0.056464434 0.011896161 0.16631813 0.08019026 -0.19833885 0.048209444 -0.122187115 0.05655687 -0.04403463 -0.18717985 -0.06223508 -0.000366569 0.0947008 -0.042781625 -0.058899913 -0.09990244 -0.12344933 0.07765269 -0.07972354 -0.044537738 0.16714916 -0.013194174 0.12780878
91 0.068002656 -0.13290498 0.22441156 0.21218324 0.05032215 0.1384884 -0.11393364 0.02619298 -0.1821882 0.0036578975 0.007214536 0.1547111 -0.15002215 -0.16286393 0.42888632 0.039257977 0.10175488 0.09430051 -0.036678936 0.06667857 0.036072347 0.083461486 0.07641166 -0.104789086 -0.081581146 0.06484483 -0.049002875 0.19346467 -0.13418883 0.035229683 0.016878111 0.03398315 -0.06293195 -0.069845326 -0.04682958 0.15536848 0.2074686 -0.08817735 0.00666194 -0.005949049 -0.22448507 0.08365666 -0.17858663 0.03481416 0.022852633 -0.10362006 -0.017986163 0.13245887 -0.08164707 0.10613713 0.106030196 0.012179929 0.044766318 0.100095525 -0.12706083 -0.071497194 0.15658769 -0.0072975582 -0.021621777 0.001896155 -0.17106351 -0.024046492 0.14165683 0.00044450545 -0.06676864 0.0033088478 0.07992139 0.12585525 -0.015540839 -0.07704746 -0.04054279 -0.019278737 -0.04823679 -0.11430195 0.04728292 -0.24627301 -0.099977896 0.12336529 -0.07238296 0.120911434 -0.044677604 -0.012164463 0.1183436 0.20502068 0.09959386 0.17788713 0.0786944 -0.23354952 0.06779093 -0.0017987101 -0.035726827 0.1656546 0.038002476 -0.096132785 0.1734665 0.042354025 0.015425973 -0.062071614 -0.031816028 -0.115588024 -0.021492291 -0.056774057 -0.023708034 0.07211654 0.062893994 -0.050200768 0.0037464881 0.11230187 0.043741856 -0.12878028 -0.00043038165 -0.1684042 0.02953715 -0.013427006 -0.039086387 -0.04784471 0.07837718 0.07772124 0.10614274 -0.08710841 -0.0043131406 -0.12754598 -0.05505724 0.035883397 -0.048011154 -0.010535761 -0.057072245 0.14096138
93 -0.021471769 -0.021061037 0.06726579 0.04737412 -0.08420975 0.049757212 -0.030353373 -0.083660565 -0.10236336 0.15217273 -0.004846826 -0.008732833 -0.15416655 -0.0009292706 0.18097001 0.04666399 -0.13009576 0.021679804 -0.0045026676 -0.020263877 0.09688536 0.26107234 -0.18812212 -0.2655248 -0.036081158 0.2094111 -0.05549791 0.010472131 0.04854106 -0.060682535 -0.064656824 0.046843316 0.028761728 0.051857147 0.074799575 -0.08515487 0.33821607 -0.11294103 -0.09022897 -0.10440264 -0.22921634 0.005392509 0.009272514 0.05020716 -0.00017190732 0.019415945 -0.094317846 0.020421203 -0.082656525 0.09442992 0.1322971 0.073232 0.12787263 0.030023204 -0.023822403 0.05607652 0.18191868 -0.0053199404 -0.16416006 0.101544954 -0.21376844 -0.027502177 0.13562573 0.022283051 0.0781836 -0.06159993 -0.011256849 0.038130637 0.051098842 -0.10329388 -0.07915269 -0.011004854 -0.1088024 -0.15849824 0.045460775 0.003155273 -0.061379243 -0.047591582 -0.069220275 0.08292541 -0.059420675 -0.013418195 0.105599344 0.2689619 -0.03387459 0.010459942 0.086192235 -0.19537579 0.0922809 -0.062895045 -0.061243605 -0.0024470345 0.16477583 -0.11372482 0.25912037 0.038915284 0.056645524 -0.15283586 -0.05053623 -0.25927833 -0.14800455 -0.024574127 0.071030274 0.11708157 -0.026940878 -0.06281857 0.06674755 0.11153469 0.059088353 -0.18670967 0.09560334 -0.17346768 -0.04435393 0.22519767 -0.095591314 -0.07274414 -0.0579898 0.049570117 -0.0059431246 -0.13067669 -0.07790456 -0.13508105 0.0009354761 -0.087195255 -0.12481585 -0.07131586 -0.07245843 -0.012261592
99 -0.031809475 -0.070459366 -0.035764847 0.06894861 0.10118493 0.0943288 -0.062042132 0.021015063 -0.07310415 0.053225428 0.099328905 0.19641294 -0.08805543 -0.09681142 0.21354033 0.014830788 -0.05795371 0.08499372 0.031759292 -0.0102866795 0.036750317 0.25499925 -0.11624259 -0.15884899 -0.32197553 0.0061246874 -0.13734064 -0.026450763 -0.027489556 -0.02270819 0.0020532482 0.027099354 0.021274462 0.011185373 -0.08473332 0.12095296 0.23349868 -0.021926718 -0.089890346 -0.07573405 -0.14938591 0.07968685 -0.051754724 0.070776775 0.16371495 0.02447394 -0.1499423 0.16799147 -0.04759892 0.035002764 0.11193934 0.05575925 0.07104239 0.09772206 -0.0780358 -0.11423409 0.06771872 0.0039598676 0.0053217676 0.09615321 -0.17150903 0.03813662 0.17286608 0.007690083 0.08912789 -0.118523315 -0.083028615 0.033096667 -0.17692079 -0.18942057 -0.03470923 -0.019810341 -0.1663128 -0.09116817 -0.019730914 -0.14786448 -0.07898231 0.11252508 -0.060560547 0.07470421 -0.047272872 -0.007554509 0.021352936 0.21187077 0.07920964 0.12510705 0.08373919 -0.23466557 0.15485376 0.04641905 0.03222808 0.07649647 0.10169745 -0.005458656 0.005152011 0.17067268 -0.054089896 -0.03481774 -0.068990655 -0.01588529 -0.12707764 0.003991893 -0.07290798 0.049984988 -0.016425272 -0.10245395 0.091611005 0.03791934 0.027804177 -0.26997244 0.102024175 -0.15043563 -0.0421762 0.0113723995 -0.16950357 -0.06717603 0.10871951 0.11464351 0.08240846 -0.016734 -0.02478478 -0.019981138 -0.049074728 0.056666743 -0.03114575 -0.0072265514 -0.05327034 0.05312142
105 0.16406685 -0.034146026 0.053254444 -0.02479762 0.015749 0.06036912 -0.0020350183 -0.050986793 -0.15877393 0.025577517 0.07835814 0.08433534 -0.08491636 -0.03517153 0.15512209 -0.020375926 -0.036908288 0.017722763 -0.04945471 0.02232332 -0.06797116 0.18523856 -0.07760569 -0.06229294 -0.16975813 0.052930236 -0.03446179 -0.017683817 -0.06124689 0.058804475 -0.055228394 -0.07778863 0.048177943 -0.00094366673 -0.15464628 0.06476508 0.19098812 -0.06190435 -0.014653057 -0.082052924 -0.15463652 0.057738524 -0.102497235 0.08273359 -0.038288534 -0.05349281 -0.13759704 0.16090244 -0.025279459 -0.014220669 0.1037255 -0.058891967 0.11414337 0.066215344 0.15521279 -0.08960704 0.20622244 -0.032482542 -0.15214668 -0.15763089 -0.16989301 -0.050251577 0.06105382 -0.09398238 0.1282636 -0.19800936 0.085536376 0.013877232 -0.10729391 -0.29878524 -0.028806953 0.009972072 -0.1932379 -0.084656075 -0.13506356 -0.12585889 -0.13119234 0.088681504 -0.0077978326 0.2060089 -0.07138112 -0.112377584 0.08800982 0.29673406 -0.07167131 0.050114293 0.16121091 -0.26805043 0.114083976 0.08065818 -0.100836344 0.06675489 0.036109045 0.0032663378 0.24145393 0.051688455 -0.046079487 -0.035399225 -0.024593148 -0.097654246 -0.08847415 -0.07263148 0.020831393 0.05241316 0.020945666 0.07636164 0.13974836 0.09550804 0.041508213 -0.109254904 0.00021273125 -0.01724153 -0.08049857 0.055928595 -0.031222867 -0.028600087 0.010222137 0.13883471 0.028250977 -0.019519627 -0.03902221 -0.08296121 -0.08282597 0.033989806 -0.14086771 -0.0765517 -0.0065350723 0.11396355
106 0.076503105 -0.047311876 0.05645391 0.22188771 0.16311947 0.1413761 -0.0058067255 0.005189627 -0.17160892 0.10419501 -0.0053240084 0.00033691508 -0.07915521 -0.09533775 0.36080623 0.12543653 -0.0395173 0.04519206 0.014707567 0.123301215 0.03379935 0.06567309 -0.01978877 -0.14251621 -0.22195701 0.11199664 -0.025057511 -0.016538344 -0.12946373 0.010247669 0.013041015 0.050842572 0.016611567 0.028452523 0.04064996 0.10562288 0.18740056 -0.04876773 -0.007412875 -0.082734555 -0.13344973 0.023126867 -0.115859054 0.15980151 0.22151998 0.044358134 -0.16959167 0.085612245 -0.033988737 -0.008052529 0.09862122 0.009379317 0.051973797 0.076737024 0.004913823 -0.11438613 0.18938857 0.039350815 -0.10128058 -0.05623714 -0.14017498 -0.015059055 0.18275453 0.035730526 0.05254042 -0.10874233 -0.03833222 0.10941103 -0.05649295 -0.093449935 -0.0046106325 -0.03281208 -0.07457973 -0.056692507 0.0672614 -0.19076306 -0.14904629 0.12361397 -0.03136112 0.13646343 0.0031163062 -0.049120802 -0.025104705 0.1885783 0.09531756 0.059977155 0.07789586 -0.086141 0.15066692 -0.0014705422 0.0022959595 0.07532021 0.06733829 0.016543271 0.10059106 0.11106323 -0.091064684 -0.029568985 -0.046488777 -0.15154035 -0.056216702 -0.021772953 -0.030479494 0.086502664 -0.06590606 -0.104243204 -0.0090560075 0.12712033 0.03836334 -0.13608018 0.03456761 -0.14358124 -0.010144139 0.012316252 -0.0058704885 -0.07163921 0.0604143 0.13264634 0.035235662 -0.018728212 -0.074142516 -0.10763992 0.03918927 -0.021362172 -0.052131604 -0.041287977 0.03969544 0.13190666
108 0.09833733 -0.12137858 -0.015972186 0.18603316 0.04990977 0.12055392 -0.12483149 -0.0035328874 -0.062454123 -0.09091898 0.09573156 0.10654363 -0.04532468 -0.03090133 0.11738115 0.006177347 -0.13640064 -0.026308076 -0.15884665 0.0725564 0.027315525 0.2116907 0.010970047 -0.04908539 -0.237509 0.154151 0.02956653 0.09597379 -0.048643272 -0.083123684 0.009980175 -0.06929699 0.060977742 -0.045468293 -0.10156201 0.05578513 0.08732889 -0.070807666 -0.106598124 -0.020236202 -0.20329447 0.075819895 -0.026401943 0.0661311 0.058737885 0.045372378 -0.11121417 0.1555578 -0.059838615 0.07621574 0.073945485 0.019619502 0.06946994 0.0028204625 0.0060444935 -0.00257037 0.11833593 -0.017351316 -0.03541179 0.1330389 -0.13174574 -0.111427285 0.023647867 0.09746521 0.084247634 -0.027102439 0.11397743 0.045153525 -0.030285997 -0.065618336 0.047417726 -0.017887184 -0.061510127 -0.12030774 -0.04320036 -0.08466162 -0.038146544 0.13423157 -0.041840862 0.12540603 0.0021478808 -0.07834021 0.0022502718 0.34150726 0.013256947 0.0934314 0.14417575 -0.08656085 0.11223142 -0.043670546 -0.08516056 0.04555776 0.06684315 0.034734037 0.22296709 0.087626316 -0.028527552 0.001403405 0.04853125 -0.18960026 -0.15292834 0.012771053 -0.053295616 0.17083003 -0.07943344 -0.019877888 0.048561312 0.21106215 0.02773979 -0.15144888 0.04293275 -0.05243536 -0.0014311575 0.002662608 -0.061576936 -0.06193065 0.03506297 0.051608052 0.14531225 -0.08804649 -0.037545472 -0.18604434 -0.008810907 0.05745618 -0.06562792 0.19021389 0.065553434 0.031908147
109 0.0910506 -0.105816945 -0.042555742 -0.09467439 0.07245729 0.122315876 -0.03366847 -0.010752373 0.17450213 -0.13419437 0.009508677 0.22074215 0.07194419 -0.18390195 0.29659015 0.14470474 0.026333459 -0.08110976 0.0050452366 0.11122307 -0.05706448 0.4404045 -0.15839714 -0.13687132 -0.15582392 0.1445415 0.12139724 0.14830218 -0.12602614 -0.052866478 -0.08636891 0.080650486 -0.05155363 -0.028325642 -0.17059971 0.16285469 0.43194023 -0.15577817 0.12972994 0.12941764 -0.06085666 -0.096913375 -0.0501874 0.26181915 -0.20124677 -0.19985029 0.1594064 -0.026001638 0.09241026 0.012704494 0.13460453 -0.0572017 0.23431979 -0.05233807 0.10238993 -0.055531707 0.29984102 -0.13433467 0.0014217463 0.011638743 -0.19920425 -0.063816264 0.1507243 0.123722516 0.11964637 -0.02656324 0.17428593 0.12566434 0.188421 -0.1112279 0.18190788 0.13895458 -0.09179182 -0.18407556 -0.17985803 -0.09580212 -0.11280131 0.0042692814 -0.08461527 0.24006268 0.06401368 -0.19254392 -0.06847871 0.17978269 -0.101827085 0.18893138 -0.064631574 -0.16332744 0.23549429 -0.002525857 -0.09145738 -0.025350094 -0.10201424 -0.014985788 0.06122642 -0.050031155 -0.1015369 0.035577323 0.011880039 -0.16136906 -0.056112997 -0.04342112 -0.047668215 -0.11324496 -0.08919361 0.0103152525 -0.064896345 0.10027048 0.06157867 0.046446454 0.069568075 -0.079411484 -0.06819925 0.05100079 -0.21753396 -0.16623263 -0.036794994 0.062478315 0.11998211 0.009341632 -0.11685646 -0.15585147 -0.16678986 -0.025021946 -0.14368534 -0.07618715 0.09062732 0.17621253
111 0.12493963 -0.19595762 0.00894296 0.14325513 0.12972009 0.118431896 -0.11744148 0.038064376 -0.124588296 0.16633973 0.074565716 -0.0030054231 -0.114381455 -0.10910223 0.2154465 0.03119484 0.04330242 -0.015325303 -0.07051075 0.042046774 0.049635056 0.14153334 -0.0815681 -0.15917973 -0.21184999 0.08927926 -0.065516904 -0.0051268362 -0.055007283 -0.06331575 0.029346662 -0.10653635 -0.021546802 0.04473207 -0.055320043 0.040327862 0.28096485 -0.016762443 0.05396134 -0.042869996 -0.12278329 0.0377792 -0.04966191 0.021714095 0.08020323 0.039888702 -0.099717595 0.06691468 -0.12752569 0.13076395 0.07477399 -0.050946567 0.13429186 0.12631193 -0.026520832 -0.086142346 0.18356399 0.0031587342 -0.12017475 0.0046798475 -0.069198065 0.018045872 0.11624589 0.034957223 0.10140493 -0.04056116 0.012966223 0.093107894 -0.04919896 -0.15552974 -0.004641998 -0.11276169 -0.11213424 -0.17282835 0.052079134 -0.030746581 -0.09764097 -0.019895727 -0.044222727 0.07844378 0.033046395 -0.034381468 0.021555467 0.17963096 0.046183106 0.1773121 0.055831518 -0.096512616 0.04030581 -0.030123498 0.0582507 0.0920058 0.15904193 -0.062133532 0.1762897 0.0225414 0.045478184 -0.17765152 -0.05719597 -0.16211051 -0.03670959 0.015209231 -0.05658625 0.083848335 0.017546494 -0.08921742 0.00588094 0.060745127 0.03827312 -0.058810376 -0.054400675 -0.06684897 -0.048223652 0.09984587 -0.15479568 -0.051276993 0.017432626 0.10664879 -0.009254086 -0.073905535 -0.07612425 -0.057390228 -0.008245671 0.040131096 -0.016940042 -0.028876413 -0.013587415 0.047712334
115 0.082659975 -0.27237627 0.028888896 0.1576564 0.093513206 0.07209983 -0.14039166 0.05126932 -0.043743093 0.007524275 0.17157874 0.0816158 -0.06323913 -0.04119738 0.16268742 0.05352289 -0.06924462 -0.033189636 -0.08184017 0.029954733 0.057103287 0.15465415 -0.07752847 -0.096164376 -0.18519835 0.12212352 -0.03413741 -0.013414409 -0.03826955 -0.10377713 -0.034336288 -0.050804123 0.037953023 0.0284821 0.0062694475 0.07574956 0.20603593 -0.014490699 -0.02314799 -0.00641727 -0.14859077 0.07070013 -0.058542978 0.027621323 0.011078888 0.005416457 0.019142395 0.033202413 -0.0017342672 0.019518862 0.041692745 0.05441632 0.11698296 0.06475336 0.06854025 -0.012343931 0.1017338 -0.030409958 -0.16093057 0.049903054 -0.10014279 -0.1033206 0.2355281 0.0047349418 0.039186418 -0.08258999 0.016356552 -0.08157202 -0.019636657 -0.19266626 0.0689261 -0.048352674 -0.12335201 -0.177446 -0.018188907 -0.08148638 -0.009542258 0.025717748 0.004225202 0.12671079 0.009278259 -0.07589274 -0.02182329 0.2570844 -0.07833631 0.11594164 0.15195183 -0.117600225 0.09516827 0.005690943 0.0718964 0.03301713 0.05374301 -0.081338465 0.11572558 0.07148725 0.04892744 -0.09246456 -0.08902856 -0.15268561 -0.08146939 -0.030106124 -0.032735478 0.028996915 -0.017861774 -0.13107432 0.023911072 0.12902318 0.013313287 -0.13293149 0.10214113 -0.025698802 0.08321729 0.029936677 -0.094885364 -0.07749882 -0.08557312 -0.004792689 0.028780079 -0.06868389 -0.09841631 -0.10554246 0.06162384 0.004481441 -0.03418624 0.043844115 0.06262695 0.020722702
127 0.02078859 -0.26926047 -0.011174761 0.08412098 -0.02138369 0.082678705 0.07673221 0.040275928 -0.11998633 0.15286468 -0.008092516 0.035901397 -0.1353625 0.015984846 0.16701677 -0.014907824 -0.11162595 0.0626951 -0.07818645 -0.06687933 0.043113347 0.19810121 -0.11783469 -0.16423622 -0.15110141 0.06405098 0.015693566 0.09017234 0.057745803 -0.0073644663 -0.026688835 -0.13725655 -0.021487506 0.082462035 -0.0813532 -0.061184417 0.26726967 -0.1945459 -0.018492436 -0.14739005 -0.015933711 -0.14207707 -0.040757965 -0.03496862 0.06080479 0.02471342 -0.07994957 0.076770626 -0.06860178 -0.02571415 0.06755587 0.114384666 0.13345787 -0.086590745 -0.08715684 0.023133975 0.070926555 -0.04218692 -0.005434898 -0.13520135 -0.06671744 0.09935988 0.08824461 0.055446845 0.0964937 -0.10429879 0.061213713 0.28719714 -0.03466373 -0.24275434 0.139548 -0.091069214 -0.22266325 -0.16768697 -0.06904074 0.011494264 -0.21169542 0.05192029 -0.09109475 0.03162409 0.08822024 -0.032796152 0.0022568305 0.31401116 0.07152938 0.16050905 0.1328263 -0.1840057 0.120162904 -0.010422662 0.06704143 0.16339412 0.069295324 -0.1368706 0.12513389 0.0657771 -0.15821783 -0.27556577 -0.060372718 -0.118756175 -0.13307197 0.038308024 -0.10651107 0.07049022 -0.030646876 -0.048841912 -0.0779974 0.17693648 0.05782653 -0.12516311 0.19846973 -0.08362137 0.014336416 0.25474998 -0.14612564 -0.105351314 -0.027755251 0.09397632 0.0054180855 -0.10887423 -0.08245107 -0.062071867 0.09446598 -0.07975077 -0.11379435 0.059879463 0.02471593 0.021412171
129 0.24090484 -0.33479938 0.13916376 0.22997406 0.12942638 0.24378233 -0.27313665 0.0890877 -0.15169874 -0.010145234 0.10714813 -0.042050354 -0.20507523 -0.057579003 0.2179248 0.053128276 0.10540291 0.014612975 -0.07453827 0.060756546 0.014785851 0.08137593 -0.11526655 -0.01421821 -0.09318558 0.026853757 -0.009232091 0.04062538 -0.042546134 -0.07906621 0.05138758 -0.027712412 0.00021908681 0.13114776 -0.08305321 -0.112758175 0.20730862 -0.21775171 -0.16557719 -0.05657413 -0.2107988 -0.09055947 -0.14788075 0.014716296 -0.0030407598 0.009956242 0.06551867 0.041208666 -0.13676238 0.06389609 0.017135845 -0.029468143 0.06315887 0.08569924 0.08596364 -0.0011900377 0.21379009 -0.031840354 -0.07575484 -0.049054984 -0.009411118 -0.028402446 0.083642036 0.025997248 0.03751969 -0.17030479 -0.006299195 0.09730628 -0.19166437 -0.25557256 0.09148169 0.008152495 -0.048052218 -0.108998924 -0.084481485 -0.06303576 0.00734738 -0.039184824 -0.07036325 0.08261345 0.04337265 -0.09394402 0.15155584 0.16947609 0.008264496 0.23568301 0.068574734 -0.15355721 0.09295447 -0.030937187 -0.13620195 0.09110212 0.06438273 0.027474526 0.14277288 0.0059010168 0.0061376127 -0.070687614 -0.00819879 -0.20914863 -0.19005649 0.10642972 -0.026665282 0.047619835 0.13343962 -0.0120813735 0.067853175 0.19534667 0.13236016 -0.104460806 0.02754634 0.008387911 0.0025068128 0.13275981 -0.096213624 0.05041355 0.052503534 0.04060088 0.10401713 -0.06259981 0.022626858 -0.123081975 0.050517328 -0.007205724 -0.15776461 0.009593584 0.010586446 0.0858187
132 0.107099004 -0.123310335 -0.025851417 0.06370939 0.17659971 0.0771573 -0.04941151 -0.057855066 -0.063341595 0.02619115 0.18539356 0.09084698 -0.032751866 0.024654014 0.070565306 0.12624122 -0.030978836 0.026367337 -0.15414841 0.10225175 -0.009236242 0.2568429 -0.1145966 -0.21913108 -0.11120149 0.19297415 -0.13773516 0.111028075 0.012746423 -0.047090888 -0.027106417 -0.0061061983 0.052338757 -0.060668826 0.07375533 -0.058554668 0.11876573 -0.13318452 -0.062394198 -0.017537208 -0.31082734 -0.0496618 0.05554018 -0.077826075 0.058256198 -0.01176723 -0.101832196 0.08588298 0.061131593 -0.007428795 0.034292765 -0.030076973 0.15331642 0.06903138 0.07920005 0.00942772 0.25157464 0.059186038 -0.1495876 0.05294065 -0.05415199 -0.09732339 0.05287609 0.101712316 0.04068508 -0.0019820468 0.10232338 0.0115095135 -0.10035936 -0.100720204 0.0019494665 -0.087410256 -0.120562255 -0.09781388 0.07138123 -0.18206148 0.027556725 0.058840968 -0.023076879 0.06805581 -0.02451065 -0.049324125 0.16586897 0.2599957 -0.028267166 0.19009584 0.060763247 -0.011283861 0.11844 0.036848027 0.041741967 0.010675555 0.18195058 -0.0057375403 0.20089298 0.07362996 -0.036752086 -0.08575258 -0.06515174 -0.2363907 -0.08851064 0.0030049842 -0.13256699 0.1826888 -0.031997867 -0.10664355 0.09661685 0.19844362 0.13447918 -0.14853561 0.11837546 -0.0747493 0.044227086 0.07910867 -0.0146403 -0.05625939 -0.004458238 0.070838526 -0.0070283306 -0.04213273 -0.015307533 -0.06725879 0.015226134 -0.085847005 -0.047925036 0.045077514 0.00536663 0.03371143
134 0.032437637 -0.13145098 0.116930775 -0.013569759 0.09954405 0.01453605 -0.10905196 0.06856929 0.01687929 0.048661474 0.12291964 0.14300896 0.036158096 -0.064775474 0.12038129 -0.07231077 -0.027126802 0.10132055 -0.17231207 0.054418214 0.0049667982 0.14940278 0.012968692 -0.032166995 -0.2329896 0.051491823 -0.06974001 -0.019941108 -0.05070294 0.029317481 0.023679767 0.0066989786 -0.028451238 -0.0065216227 -0.06586188 0.00831037 0.17700644 -0.07627751 -0.004854638 -0.13892747 -0.08114093 0.11487911 -0.04967863 0.06163872 -0.023641095 -0.08963941 -0.12676376 -0.03347153 -0.031209622 -0.02109664 0.0547532 -0.003262594 0.07562754 0.18261665 0.024238916 -0.13062839 0.22894119 -0.02273199 -0.04587366 0.063348174 -0.1622003 -0.06444803 0.16236557 0.068871394 0.063720584 -0.18660648 0.028505623 0.022604821 -0.0012741883 -0.07447516 0.011958287 -0.013839678 -0.18965691 -0.10042444 -0.020750122 -0.1470724 -0.10021189 0.009527635 -0.13697237 0.11197909 -0.012743097 -0.03347203 0.0051866653 0.29449362 -0.048267636 0.16613197 0.08041869 -0.07352064 0.04889509 -0.044351723 0.07406151 0.02473566 0.00069572177 -0.06346392 0.13127884 0.02776854 -0.09649469 -0.10322483 -0.036056705 -0.14809936 -0.11659545 0.033269104 -0.07631082 0.030511959 0.027425062 -0.08041895 0.07795026 0.15219021 0.11457098 -0.2369309 0.095343195 -0.11657967 -0.035122313 0.05270777 -0.18759431 -0.11292308 -0.04803177 0.08659574 0.11808866 -0.08363803 -0.05370332 -0.18668544 0.095646195 -0.055401675 -0.093166254 0.019718593 -0.043238655 0.08906812
141 -0.030823823 0.0561275 -0.17968278 0.14948745 0.19036026 0.042485487 -0.18928163 -0.032521408 0.0253582 0.08544655 0.15399621 0.1260676 0.27904752 -0.11215416 0.16827871 0.11005074 0.097001314 -0.04315163 -0.023082878 -0.008231836 -0.07615681 0.011785941 -0.012239086 0.04940537 -0.14726028 0.0028360076 0.063176 -0.16024426 -0.14562385 -0.05607459 0.00539266 -0.13197973 0.11304375 0.04146456 -0.10985114 0.14601916 0.14975044 0.007314586 0.07349597 -0.08380884 -0.13216032 0.034369472 -0.024920527 0.06497636 0.015028514 -0.03401489 -0.13278298 0.07938774 -0.040226966 0.018517433 -0.037592266 0.011925349 0.09634676 0.12507558 0.11743145 -0.15825495 0.071684375 -0.07148859 -0.055440772 -0.020132551 -0.13764054 0.08330808 0.11074834 -0.08931947 0.16755208 -0.08570082 0.0973463 0.06924291 -0.1241848 -0.16812241 0.1443578 -0.070121266 -0.10725898 -0.071226455 -0.036232855 -0.011018765 -0.10521104 0.23305117 -0.070039846 0.28811032 -0.03967514 -0.07921135 -0.006794072 0.2515722 -0.073292516 0.15871817 0.18181676 -0.11268065 0.026830088 0.00038263662 -0.0026542887 0.12400355 0.12614132 0.10599209 0.15879226 0.08483394 -0.1602491 -0.07355257 0.06745054 -0.08668647 -0.14382878 -0.1095093 -0.0784116 0.1718622 -0.05078681 -0.10662855 0.21042153 0.23559691 0.12875703 -0.21647245 0.022617279 0.022223193 0.020143237 -0.042979114 -0.16856812 -0.23445596 -0.13920334 0.1512943 0.047666058 -0.002233368 -0.18925865 -0.20905373 0.040973037 -0.07867849 -0.09933963 -0.049855687 0.084762335 0.084458925
144 0.0896934 -0.040879365 0.07524617 0.123886324 0.1244352 0.1347688 -0.17308164 0.041626118 -0.1337288 0.008446144 0.11514692 0.029272325 -0.066008516 -0.1277007 0.12985611 0.09981648 -0.18008296 -0.02917758 -0.02365267 0.003629746 0.19068813 0.09458937 -0.13841899 -0.025289286 0.030514317 0.07876878 -0.15940903 -0.068805605 -0.056937672 0.04894195 -0.014754783 -0.027409256 -0.098636195 -0.025750685 0.06673179 0.11310255 0.15828642 0.05379523 0.03654678 -0.0018396068 -0.09709904 0.10641581 -0.09529838 0.08922877 -0.10780778 -0.048103005 0.040506095 0.080075905 -0.0193935 0.10668063 0.12488871 0.032965664 0.17125061 0.11983602 0.16171473 -0.044366613 0.21832389 0.046869107 -0.14100502 -0.0742919 -0.18242136 -0.1194131 0.15485825 -0.001795872 0.12694544 -0.120455444 0.045530263 0.027411029 0.09570543 -0.10959051 0.059357736 -0.015875254 -0.10075775 -0.09581489 -0.19271067 -0.056310415 -0.013673686 0.022212885 0.11930445 0.17501588 0.018439967 -0.05529645 0.035765458 0.26396516 -0.06283527 0.1705894 0.13642894 -0.027388752 0.093457565 -0.024433188 -0.039834943 5.9126272e-05 0.048163738 -0.059788756 0.16955541 0.06967856 -0.0023723172 -0.044544093 -0.13979092 -0.24516204 -0.20103133 0.11413034 -0.06590972 0.0504113 0.04500884 -0.04338357 -0.0684448 -0.009379364 0.11373124 -0.22562592 0.1772239 -0.14782308 -0.07367697 0.0058472645 0.0008988495 -0.1578675 -0.049117405 -0.081832536 0.13481878 0.044072036 -0.054761324 -0.28313982 -0.039946385 -0.15964478 -0.06448453 0.046924867 0.003113563 0.14319953
147 0.15927413 -0.21664883 0.06943874 0.05948281 0.2846998 0.13207538 -0.25757825 -0.0026810945 -0.059239976 0.038009804 0.2118729 0.031641163 -0.12865321 -0.034196675 0.07509936 0.048934102 -0.08218799 -0.054266438 -0.12118613 0.055690676 0.032883327 0.10503977 -0.03950039 -0.06705593 -0.11245887 -0.005445992 -0.037476443 0.036527514 0.095304295 0.016696148 0.022972524 0.04113194 0.046635695 -0.07662362 -0.035275392 0.033746425 0.21476786 0.039767213 -0.11762704 -0.070422456 -0.098118596 0.10898278 -0.07089298 0.031694356 0.10791075 0.007635777 -0.12766716 0.08561469 -0.020182496 0.066657566 0.07014188 0.12979774 0.103290424 0.16898417 0.13267392 -0.022724252 0.2813866 -0.0017796858 -0.057224046 0.13479674 -0.1204173 -0.14006126 0.20908523 0.10075013 0.107148536 -0.22094607 0.18560249 -0.0008483058 -0.16440114 -0.1287045 0.059674688 -0.007853854 -0.084057584 -0.064334765 -0.07049041 -0.043677844 -0.052520763 0.035264093 0.0018632307 0.223613 0.0119862715 -0.118019275 -0.04575138 0.18823989 -0.035461213 0.08659943 0.09365568 -0.18017635 0.13092127 0.049205393 0.007160684 -0.04565887 0.03954931 -0.07625101 0.15419918 0.110632546 -0.008246842 -0.049816906 -0.19387567 -0.10016755 -0.12847126 0.09944732 -0.09605461 0.0026029362 0.02726764 -0.04420324 0.17485093 0.1253326 -0.05198243 -0.07858131 0.058667835 0.0007002449 -0.06066603 0.008807908 -0.09068929 -0.049280282 7.5669166e-05 -0.029932495 0.03926517 0.11282885 0.035842415 -0.11347997 -0.031113883 0.025996992 -0.06847209 0.06808057 0.0052369754 0.080863275
149 0.119748786 -0.030308561 -0.026225913 0.15434824 0.06818348 0.15253262 -0.070964694 0.07090282 0.012172776 0.06879048 0.016939847 0.0862776 -0.04742416 -0.13557917 0.2892572 0.09065088 0.016553668 0.012956885 0.0025340847 0.091386765 0.033965673 0.15992585 0.012589448 -0.11368812 -0.30335554 0.1063472 0.04715554 0.039795097 -0.001281819 -0.1315762 0.09973675 0.06172251 0.1198848 0.060507663 -0.06410355 -0.0068470933 0.20484748 -0.056131113 -0.051206656 0.027609594 -0.10213656 -0.07300628 0.005740487 0.045685668 0.21968228 -0.0013438829 -0.008216158 0.009252828 -0.070831135 0.13832147 0.093339644 -0.07623358 0.09850815 0.061366204 0.14161114 0.11780198 0.1746245 0.19630356 -0.07366641 -0.052259285 -0.028442465 0.012292448 0.2671079 0.11062902 0.06525324 -0.15731758 0.045633238 0.064902574 -0.18709823 -0.17689532 0.019666485 -0.062866054 -0.14348732 -0.22148971 0.068210915 -0.14794785 0.055779733 0.04713589 -0.027150584 0.047039043 0.058184873 -0.07199404 0.077521354 0.22062363 0.12293352 0.0715513 0.11036983 -0.035730366 0.18587936 -0.004734848 0.115020044 -0.14433226 0.17160839 -0.043489907 0.08852808 0.18567123 0.021912927 -0.091543294 -0.0017910772 -0.08718478 -0.04562055 0.12503766 -0.045954935 0.021200351 -0.041628707 -0.04417549 0.019856159 0.27864343 0.043195598 -0.17221758 -0.11791893 -0.08785348 0.015585755 -0.018536953 -0.15846503 0.021784747 0.009615512 0.14818355 0.054053713 -0.15577395 -0.09696097 0.026276145 -0.033365905 0.02408986 0.042461295 0.18834631 0.0074875257 0.04182847
150 0.14151968 -0.26485577 0.13040744 0.11447819 0.22009575 0.14919488 -0.11801331 -0.00047645374 0.07984083 -0.09696864 0.112784274 -0.019789128 -0.10522101 -0.028719354 0.12920547 -0.068684675 0.059792828 0.08751168 -0.011741793 0.1510337 0.065340735 0.17860408 -0.07336203 -0.15354922 -0.088365406 0.18971622 0.020570822 -0.06893656 -0.07284496 -0.038719248 0.0442889 -0.04748964 -0.032621842 0.06510071 -0.098070584 0.082508616 0.2935564 -0.061711945 0.011316475 -0.02378759 -0.14179972 -0.06566226 -0.07347382 -0.000121605815 0.049115956 -0.088478036 -0.13898756 -0.10200725 -0.13722655 0.12035516 -0.021099677 -0.04737827 0.2675429 0.09943513 0.027029905 -0.06842127 0.2755163 0.053007923 -0.079652995 -0.11104664 -0.19552481 -0.029170949 0.22136334 0.022233134 0.050085295 -0.16522086 0.014320971 0.05683621 -0.11433078 -0.23142071 0.016435081 -0.052301828 -0.029530196 -0.072978355 -0.15686208 -0.08431234 0.055237427 0.06771921 -0.012140895 0.058278892 0.1011585 -0.08887306 0.032905277 0.21386468 -0.04363557 0.14507584 0.14224276 -0.070835896 0.026599279 -0.032694373 0.052363418 -0.11082682 0.024266485 -0.042962577 0.0650571 0.09992158 -0.05135816 0.041438475 -0.09255246 -0.2722099 -0.07810439 -0.17686234 -0.12245811 -0.003676381 0.15607214 -0.041645147 0.08790624 0.14959228 0.012819078 -0.13516355 0.01204081 -0.0414015 0.0372279 -0.020415198 -0.12523481 0.018014597 0.024820756 0.06657922 0.18826777 -0.0014655474 -0.027274076 -0.16732772 0.043122336 -0.06857107 0.013218841 0.13308124 0.1089352 0.12320945
156 0.04703243 -0.051317435 -0.19546105 0.01217579 -0.24304809 -0.0700843 -0.0785883 0.13545106 0.04370032 0.09235234 -0.05934394 -0.09190104 0.12823239 0.034736283 -0.05151646 0.013531426 -0.29903346 0.10496053 0.16234764 -0.050747767 0.07617722 0.23283063 -0.031527124 -0.086368024 -0.12460476 0.04948092 0.15872309 0.08845497 0.10448357 -0.05656648 -0.028891435 -0.10740987 0.058326133 0.22829303 -0.11119926 -0.116167784 0.19813406 -0.14590748 -0.11286038 -0.030053286 -0.16391964 -0.22534005 -0.019214993 0.01583459 -0.072912715 0.031992484 0.02076005 0.03495968 0.038897905 -0.051843975 0.21476033 0.008472228 0.14144681 -0.06911869 0.0542176 0.039817695 0.07355772 0.0033416029 -0.023312984 0.020778857 -0.06592739 0.11004744 0.11465809 -0.14619178 0.17903037 -0.06719155 0.121664405 0.20427644 0.06265344 -0.25318488 0.21926941 0.0567098 -0.34963784 -0.18949686 -0.10916736 -0.06479074 -0.12648846 0.061486714 -0.028797163 0.019321367 0.08095476 -0.213064 -0.12512966 0.42781788 0.0005037248 0.3507534 0.34809455 -0.27087057 0.17516768 -0.019031992 0.062026877 0.09453556 0.19215807 0.07016302 0.19156016 -0.051223774 -0.010661594 -0.31864107 -0.014633057 -0.20189501 -0.2084121 0.034471262 0.079015516 0.1289526 -0.10208194 -0.010620816 0.0817001 0.0818058 0.11872103 -0.066201545 0.1924196 0.03832851 -0.06774833 0.11496627 -0.16115454 -0.19401154 -0.23271574 0.028076148 -0.061825555 -0.114810765 -0.11334647 -0.11471687 0.038555287 -0.1811605 -0.24389774 -0.013650652 -0.005365131 0.016355589
159 0.10039966 -0.21229972 0.12788807 0.14420497 0.13326791 0.017496098 -0.07446545 0.12216707 -0.14795671 0.081628926 0.23481956 -0.040777527 -0.18983543 -0.06153983 0.11046591 0.013740326 -0.15981343 0.047490057 -0.12485143 -0.067951985 0.082058296 0.03215349 -0.0458072 -0.04047001 -0.16333763 0.038037322 -0.060406 0.053300276 0.035899833 -0.045177665 -0.16557813 -0.091506 -0.120507814 0.17132564 -0.06071032 0.058808092 0.15021986 -0.036772 -0.027294977 -0.094981164 -0.024981849 0.104820415 0.079924695 0.055090837 -0.00019913324 -0.039842054 -0.023762306 -0.06708044 0.0018295462 0.06739634 0.05408118 0.10593222 -0.032760885 0.056569226 -0.019614218 -0.0675507 0.17653087 0.03781009 -0.06941757 0.00527411 -0.055752724 0.07425557 -0.0105514545 0.10913606 0.17758098 -0.09303404 -0.0008356914 0.11552424 -0.04745171 -0.15122525 0.006708673 -0.014040023 -0.2689715 -0.14276627 0.014913167 -0.17691919 0.08415812 -0.15761273 0.025606645 0.05321513 0.19789708 -0.17536367 0.07540962 0.25321633 0.05138511 0.23069932 0.13385418 -0.19587786 0.07763047 0.012163442 0.007894781 0.15080233 0.08990875 -0.11204117 0.2036091 0.030196702 -0.070420645 -0.19387293 -0.13670076 -0.20259689 -0.023435807 -0.03657616 -0.19706412 0.123659804 0.25958773 -0.18334338 0.07005423 0.10712236 -0.026720816 -0.17416546 0.2353177 -0.06128293 0.0016477865 0.03589389 -0.14016986 -0.21983655 -0.083782 -0.1547907 0.1917043 -0.14319703 -0.05624657 -0.12280225 -0.05880753 0.096126564 -0.1107124 0.04139445 0.0035140915 -0.038840327
168 0.115399145 -0.09444374 0.022876408 0.042065382 0.09281192 0.008276042 -0.030782573 -0.034743655 -0.0583581 -0.005380723 0.09396813 0.04962322 -0.15137124 -0.037961844 0.20105077 0.095085144 -0.012644241 -0.10062757 -0.04258132 -0.05608368 0.008486926 0.03435912 -0.16502647 -0.18124622 -0.13030256 0.16110578 0.009669107 0.042424098 -0.017846981 0.022121793 -0.047208704 0.0431836 -0.08857117 0.0757616 -0.020576682 0.0102852285 0.17345157 0.007406841 0.020897439 -0.017769467 -0.123587385 0.13509859 0.075146616 0.16422555 0.07223555 -0.105033115 -0.0073542376 -0.023495296 -0.014336739 0.07218998 0.002315981 0.018482616 0.047116514 0.08564625 0.09226973 -0.076618545 0.22872318 0.0184088 -0.1567094 0.07860572 -0.023026241 -0.027335463 0.13580547 0.17462249 0.11996305 -0.07984968 0.10724817 0.07190453 -0.024145951 -0.29508638 0.15082546 -0.008387543 -0.13155332 -0.18532903 -0.009300125 -0.1264385 -0.026502123 -0.028154127 -0.039991077 0.07792855 0.03599087 -0.08129784 0.08144562 0.17822611 -0.11270011 0.059739478 0.16819757 -0.08537542 0.119654775 -0.058921557 -0.05754744 -0.025874376 -0.040344205 -0.028759087 0.13206448 0.06118246 0.018044932 -0.13091679 -0.060887758 -0.27576253 -0.05584853 0.1128506 -0.08992718 0.099206716 0.030495573 -0.055387553 0.06556908 0.13301554 0.13672337 -0.026065333 0.06925006 -0.007229776 -0.08246596 0.016659683 -0.24903782 -0.13144523 -0.09924423 -0.03725114 0.1723365 -0.053888883 -0.12346824 -0.22538972 0.049538013 0.013045956 -0.04017068 0.12745537 0.011554034 0.14587452
170 -0.0039705154 -0.17661273 0.16461714 0.19861019 -0.058714125 0.044747215 -0.04380858 -0.027309487 -0.021138454 0.19611782 0.13061632 0.088284984 -0.118455335 -0.13650593 0.28925934 0.17220846 -0.21657872 0.0396834 0.042843696 0.013353545 0.028091082 0.24695261 -0.10433345 -0.14713968 -0.1682414 0.12521765 -0.075292684 -0.014344207 -0.04256181 -0.132278 -0.10686588 0.033433378 0.051836908 0.12070489 0.03255393 0.06308401 0.3348633 0.028755078 -0.08770461 -0.030746074 -0.22647032 0.15638578 -0.1349676 0.058121536 -0.044091895 -0.042490173 0.020805126 0.15274507 -0.056503702 0.059003863 0.0916728 -0.022690883 0.11365199 0.20038053 0.0762032 -0.038927045 0.00023871276 -0.058295965 -0.17643124 -0.004442861 -0.0707788 0.060021147 0.21204758 0.052469388 0.083697565 -0.049343698 -0.0014932697 0.08418047 0.11676101 -0.074179575 -0.031017296 0.05300886 -0.043602765 -0.09595862 0.0064090667 0.11005024 0.043958142 -0.08197718 -0.004780718 -0.076351106 -0.11609614 -0.15857011 0.053289253 0.1581499 -0.028413534 0.14441699 0.078403346 -0.14774266 -0.012688965 -0.0661921 0.15274668 -0.07117731 0.097282104 0.005319175 0.13144971 0.06148532 -0.04019124 -0.24357265 0.09441376 -0.041853745 -0.06641276 0.01846706 0.08386435 0.05341871 -0.0034452647 -0.0044626594 0.19778551 0.093473874 0.17997938 -0.36395553 0.030561231 -0.055026304 0.057534765 0.06331167 -0.13968472 -0.21422024 -0.11368766 0.16418113 0.099197485 -0.025744073 -0.14006443 -0.13049923 -0.08937737 -0.010952831 -0.089921325 -0.01628493 -0.016951825 0.00734626
174 0.061992325 -0.12715265 0.11012806 0.058701113 0.06451248 0.22764358 -0.0022980273 -0.01815116 -0.1699143 0.06912572 -0.07101915 -0.017547728 -0.1566269 -0.010116621 0.30394644 0.174232 -0.07930748 0.0138314925 -0.014078855 0.14519899 -0.097357415 0.25002572 -0.050599914 -0.18680577 -0.19811851 0.19812512 0.105993055 0.047424763 -0.07808845 -0.07651024 -0.00939825 -0.106742285 0.017114464 0.14539073 -0.20153955 0.041435342 0.09415705 -0.10593028 -0.11976733 0.009194001 -0.05002454 0.03231251 -0.032878947 0.10040245 0.13182479 0.075352944 0.11048515 0.019801402 -0.037367765 -0.103707954 0.046413716 -0.13481303 0.060649693 -0.06792716 0.051211845 -0.08552119 0.29161528 -0.1982877 -0.053834632 -0.016539661 -0.08316827 -0.10438323 0.12726726 0.13209833 -0.014545437 -0.15320933 0.060641434 0.043759484 -0.023649726 -0.07333786 0.09414834 0.113700956 -0.24443354 0.022609862 -0.0033458446 -0.1393129 -0.2856199 0.15108964 -0.16864623 0.064779066 -0.08145929 -0.22087725 0.0033851126 0.3504387 0.04528093 0.2334687 -0.1511762 -0.14274007 0.14401044 -0.015575318 -0.13706702 0.16209437 0.076698735 0.06109138 0.19120981 0.031032879 -0.026806658 -0.07334844 0.017143019 -0.06756421 -0.034880083 0.090277016 -0.05666518 -0.05801369 -0.02512808 0.03478316 0.1252621 0.1452762 0.13622512 -0.054573234 -0.004959662 -0.031663686 -0.06350577 0.068202965 -0.04664856 -0.1818342 -0.0016999531 0.10070094 0.103137255 0.011745779 -0.12588559 -0.08215503 -0.12516876 0.1046808 -0.126635 -0.1833303 -0.060737804 0.04711768
176 0.22949384 -0.04711419 -0.12996058 0.028336462 0.0014219139 0.053687524 -0.20255268 -0.02123642 -0.031155147 0.28598237 0.068757355 0.16603652 -0.13290536 -0.16817379 0.3226428 0.24909467 -0.27903807 -0.12226943 -0.010413971 0.21381816 -0.004821539 0.2536434 -0.15075895 -0.15321323 -0.30543253 0.008121292 -0.01295208 -0.1151046 -0.05676617 -0.18670852 0.3313479 0.075834215 -0.060383935 0.11681289 -0.022229403 -0.13014098 0.17172244 0.039058432 -0.14233376 0.17004451 -0.07224396 -0.05293791 -0.10635884 0.15370652 0.08244991 0.133105 -0.029717095 0.07467233 0.043960985 0.025854997 -0.027945217 -0.20095526 0.09193812 0.14918639 0.23156132 0.13436753 0.08597834 0.14213084 -0.26168546 -0.1835081 -0.007469144 0.04422803 0.2664722 0.14879611 0.21787639 -0.19750835 -0.011460495 -0.025352752 -0.052643385 -0.19042516 0.048370685 -0.14804274 -0.000519374 -0.24158023 -0.08947488 -0.008132586 0.10445329 -0.07107026 -0.03516504 -0.0072304136 0.1579011 -0.25326294 0.05632064 0.13081662 0.08239759 0.27187288 0.091253854 0.11444773 0.04261401 0.058208037 0.14442767 -0.24790317 0.16877905 0.15732841 0.11004348 0.17165957 0.003383405 -0.16700365 0.16436614 -0.09129188 -0.113830976 0.12325444 -0.054525893 -0.04047314 -0.01706193 0.03225854 0.15487958 0.12453076 0.13623218 -0.23894525 -0.004739871 -0.12319871 0.004763722 0.0114378445 -0.14811443 -0.035302423 -0.05966584 0.03337439 -0.009793203 0.05599574 -0.0965481 -0.041435555 0.040274974 -0.12269658 -0.1138908 0.202936 -0.023630138 -0.0037961318
178 0.036827374 -0.24865155 0.043920174 0.09020849 0.095709056 0.006450134 -0.15751809 -0.0044277012 -0.24751356 0.19069861 0.048995454 0.00061444123 -0.12468075 -0.02598009 0.088253364 0.13547844 -0.17003162 0.11040358 -0.15002444 0.055273056 -0.020298053 0.2286587 -0.055804726 -0.115476094 -0.06491992 0.1960987 -0.114838295 -0.06934193 -0.037397925 -0.042145923 -0.21648988 0.061679583 0.10638379 0.22907084 0.038253605 0.05115398 -0.026179168 -0.09913693 -0.21516815 -0.1575991 -0.08043862 0.1347717 -0.08622878 -0.024260046 0.10737382 -0.0061376886 -0.087134756 0.045356657 0.009518538 -0.06668294 0.04032817 0.049900614 -0.01425649 0.09469329 -0.009615354 -0.21751213 0.103017114 0.047803387 -0.13258955 0.01716229 -0.06109311 -0.07978816 0.10882929 0.09018218 0.16791916 -0.058994647 0.03219315 0.02677284 0.03583175 -0.18048003 -0.070664674 -0.05686196 -0.18279375 -0.043596793 -0.065008804 -0.0033484178 -0.110138476 -0.0025554525 -0.16056032 -0.10572724 -0.24961153 -0.18881956 0.028483383 0.3665375 -0.049412124 0.1039404 0.1664091 -0.1849801 0.15075664 0.09549112 0.01518923 0.1303874 -0.008237843 -0.0073432485 0.12466004 -0.096351236 -0.0896051 -0.16069485 0.00072567246 -0.13941343 -0.045628574 -0.047344346 -0.06865039 0.13823344 0.07746157 0.036425907 0.18025945 0.18923411 0.22281134 -0.15076877 0.051615145 -0.08824272 0.007925274 -0.0011278945 -0.062056467 -0.09520703 -0.11246955 -0.06976902 0.143799 0.108736746 -0.14552835 -0.054807153 -0.16484515 0.01365345 -0.27332667 0.011360156 -0.010752001 0.012458555
191 0.15310088 -0.071458705 -0.004771333 0.072921135 0.08802446 0.13619652 -0.037286416 -0.07510509 -0.048350215 0.06482229 0.13985904 0.13771114 0.08657699 0.011988511 0.21429534 0.07821129 -0.018195381 0.020387894 -0.1731744 0.0041375686 0.056083098 0.16327079 0.10533721 -0.1290082 -0.15476277 0.114437364 -0.06484401 0.014438219 -0.12973924 -0.11599732 -0.061908 -0.18139374 0.143351 0.07848986 -0.10668474 0.091964334 0.24239713 -0.08648984 0.11020146 -0.0136195645 -0.30838165 0.023049656 -0.081301175 0.0998517 -0.017056825 -0.036411185 -0.117917426 0.08446753 0.005787679 0.068260014 0.09918567 -0.0004188624 0.124132425 0.09031665 0.03661616 -0.034661967 0.19700904 0.031716105 -0.19782846 -0.1648305 -0.22320779 -0.05640394 0.0347773 -0.09575741 0.13642108 -0.15442504 0.17567232 0.0021321876 -0.005877179 -0.08299549 0.06311664 -0.0047117043 -0.12734717 -0.07286978 -0.057868626 -0.040562864 -0.16500343 0.055002794 0.0057872 0.27596858 0.018778488 -0.03843566 -0.008412266 0.29754236 -0.08350716 0.17733979 0.1609457 -0.2150612 0.03643647 0.05771822 0.038751375 0.09411238 0.0772275 -0.029803405 0.27860618 0.082271345 -0.045793857 0.014814475 -0.029175384 -0.014658033 0.09608557 -0.01874895 0.045460492 0.03546049 -0.053784586 -0.018668791 -2.182305e-05 0.17328598 -0.104589 0.004592902 -0.026081383 0.014340114 -0.07580671 -0.11244373 0.029535912 -0.105785504 -0.049873136 0.16945772 -0.0772766 0.007674144 0.020244543 -0.024885584 0.014916183 0.023137607 -0.05878956 0.069928184 0.029159905 0.15071699
195 0.015049327 -0.057773232 -0.0024870308 0.08406122 0.09641541 0.087227456 -0.13313334 -0.074300274 -0.03549616 0.014966467 -0.04193809 -0.05049208 -0.1270689 -0.035347052 0.04700027 0.10387041 -0.06515523 -0.07201823 -0.007157405 -0.0100987265 0.0115718655 0.22293814 0.01934638 -0.09494955 -0.12704241 0.09534575 0.07575772 -0.03150227 -0.10522332 -0.11434391 0.009337815 -0.17739527 0.041788 -0.031282485 -0.059912115 0.12608857 0.109889254 -0.011875925 -0.009095579 -0.11772307 -0.1399754 0.044815343 -0.06592832 0.0014739832 0.007690315 0.008002234 -0.044655543 0.12846045 -0.045681927 -0.056694485 0.0047478727 -0.087447315 0.111749224 0.07685802 0.08342097 -0.021359181 0.108891144 -0.040772382 -0.20899688 0.03585686 -0.054220505 -0.008410337 0.16597292 0.06324262 0.13672292 -0.110370085 0.13812752 0.037976276 -0.042453878 -0.11718147 0.024401309 -0.0008090763 -0.13009782 -0.19154692 -0.08637192 -0.27689046 -0.19067712 0.17083657 -0.04575673 0.20744973 -0.08157942 -0.10643106 0.054045584 0.20629348 0.041096676 0.14117777 0.07772958 -0.17043853 0.059051834 0.014515049 -0.00015115857 0.22608924 0.1652797 -0.008641139 0.3363783 0.16591258 -0.05192794 -0.06848683 -0.058295004 -0.05345782 0.0038077077 0.008011165 -0.12523401 0.1204637 -0.02000117 0.0028058914 0.11905713 0.16694778 0.124025375 -0.105323985 0.01617945 0.018982563 -0.08032018 0.025278125 -0.07182668 -0.09206572 -0.011507869 0.07765021 0.021042533 0.011990828 -0.14798737 -0.06693413 -0.043391254 -0.045504484 -0.018765641 0.030201416 0.062126182 0.08743885
197 0.06733755 -0.16319515 0.04143943 0.09550074 0.0971516 0.0962761 -0.091703445 -0.1094791 -0.18100648 0.13284937 0.011794193 0.17157714 0.014792643 -0.05738651 0.2322773 0.17397776 -0.07880507 0.028566731 -0.08850539 0.04803339 0.041311152 0.23569068 -0.09943799 -0.12893814 -0.09749922 0.09746992 -0.067281365 0.028991938 -0.0786116 -0.08120705 0.093323775 -0.052714903 -0.0077608298 -0.046199676 -0.050588414 -0.02521535 0.13875456 -0.012685985 -0.19305538 -0.104549706 -0.16919115 0.1365517 -0.014638339 0.025136594 0.014295109 -0.025428904 -0.03724933 0.09857033 -0.17771061 0.048245322 0.076443836 0.049900416 0.01792794 -0.0041063866 -0.018416252 -0.1341427 0.18634075 -0.025962807 -0.13908829 -0.04086857 -0.24095118 -0.07920648 0.11707136 -0.030771798 0.10573289 -0.06466581 -0.03225351 0.012780509 -0.067239106 -0.15682662 0.08786274 -0.036952052 -0.12958574 -0.08025694 -0.03438358 -0.0533281 -0.19317164 0.0113400305 0.0062389206 0.089036435 0.00046806756 -0.021490699 0.0047061252 0.22522748 -0.08038954 0.0254239 0.17346667 -0.12141787 0.036902003 -0.06519765 -0.12829532 -0.0055512106 0.05593213 -0.04208547 0.16231444 0.08357703 0.13372283 -0.08135252 -0.025060182 -0.20776659 -0.09522958 0.070728466 -0.04748699 0.08759538 0.0009627726 -0.058402322 0.11649379 0.17402792 0.100442715 -0.0864503 0.08701559 -0.10796496 0.020003311 0.10205283 -0.037280664 0.011346888 0.030826198 0.093315415 0.054719172 -0.11181791 -0.041626953 -0.07216264 0.008377055 -0.026385 -0.19600879 0.07018008 -0.015282672 0.02981842
201 0.09538433 -0.26265344 0.025209347 0.17401454 0.16586657 0.18029545 -0.105483145 0.037089866 -0.05935292 0.030290972 0.08306167 0.034645118 -0.08123992 -0.07772582 0.22250058 0.0033736147 0.00297796 0.011771608 -0.008175779 0.04485045 0.06271901 0.09613716 -0.17365615 0.0027775401 -0.19843633 0.111655936 0.010902348 0.07216948 0.06977826 0.005918616 -0.0521743 0.054684702 0.01217448 -0.05029087 0.0016649249 0.07275201 0.2674289 -0.010108967 0.0017476085 -0.06922035 -0.14040382 0.06481899 -0.017020678 0.057784528 0.053777095 -0.031866584 -0.07199684 0.004792885 -0.04789044 0.07320156 0.02110621 0.114615716 0.14480492 0.055364817 0.012611728 -0.04676514 0.15832502 0.07966511 -0.06346844 0.045690708 -0.0676073 -0.031802773 0.09341377 0.08304726 0.089241 -0.06600802 0.02150837 0.00017539905 -0.08743804 -0.22427648 0.027221635 -0.024435658 -0.114679806 -0.19357961 -0.044243403 -0.014674023 -0.108884476 -0.06507874 -0.0023882682 0.092976674 0.07552792 -0.07135642 -0.024331376 0.3068572 0.03245532 0.11953591 0.13496493 -0.110644795 0.12099821 -0.06929832 0.04301308 -0.0006085164 0.1428902 -0.031869706 0.0977133 0.0886128 -0.033336543 -0.04296504 -0.14683256 -0.14822471 -0.07707863 0.07436646 -0.06115649 0.10515932 0.027985705 -0.0706129 -0.062402856 0.085562915 0.05243031 -0.089190006 -0.005263811 -0.07520521 -0.026820783 -0.02706038 -0.2533719 -0.07352285 -0.067778036 0.08476793 -8.758669e-05 0.0034286003 0.0025806401 -0.1273315 0.04481479 0.023043571 0.047782037 0.09448739 0.026592521 0.08397751
205 0.049720235 -0.3170194 0.013532855 0.027760975 0.26639444 0.18962404 -0.111333415 -0.030795991 -0.09254647 0.03749877 0.0045845844 -0.001096235 -0.118242435 0.031268857 0.18815161 0.17462736 0.017347572 -0.14358397 -0.11388977 0.041163236 -0.005019496 0.2400693 -0.10260827 -0.112824745 -0.20073819 0.19023882 0.04271232 0.08699643 -0.063740894 -0.08013065 -0.0308657 -0.009361603 0.12779188 -0.10044684 -0.04800058 0.09925578 0.08127467 -0.16900586 -0.1942762 -0.13681169 -0.13145737 0.024364892 -0.100742474 0.028860338 0.20537117 0.009949063 -0.006586212 -0.066502474 -0.028617226 -0.01509095 0.12368413 0.11765698 0.022962125 0.035462093 -0.06798218 -0.15130344 0.2950332 -0.046546664 -0.08599006 0.07823335 -0.20901267 -0.07954497 0.2103886 0.034590352 0.07777276 -0.09022507 0.017924374 0.011655286 -0.018855939 -0.110132225 0.04754059 0.009905794 -0.15126294 -0.091196015 -0.04600049 -0.1478572 -0.19261181 0.069581196 -0.07590488 0.040426925 -0.05383276 -0.06673613 0.02114428 0.101885244 -0.011263956 0.026509998 0.084729865 -0.16077371 0.17916851 -0.0150096025 -0.048770893 -0.029945513 -0.041963436 -0.11695407 0.1046259 0.09937433 0.0223907 -0.0065184943 -0.15719905 -0.1708953 0.015410751 0.18482724 -0.0650448 0.005202248 -0.017290583 -0.10712612 0.035048828 0.18464164 0.05742421 -0.04317751 0.13325304 -0.09834254 -0.048772167 0.059075806 -0.13411458 -0.09327825 0.057779074 0.038119197 -0.036971327 0.029530985 -0.014080191 -0.09215981 -0.08267529 0.13131109 -0.12973514 0.005746859 0.10463321 0.13031583
209 0.1451974 -0.13309278 0.013198866 0.2147979 0.17973104 0.07405027 -0.08908868 0.08907912 -0.027906397 0.09036753 0.10964199 0.10093672 -0.0015988116 -0.019593371 0.20372778 0.015723836 -0.11176345 0.08858384 -0.05238779 0.024439873 -0.008648626 0.13578239 0.014924969 -0.14017726 -0.15363592 0.06880027 -0.0011007473 0.034502905 0.0413098 -0.03919357 -0.017755998 -0.0051416242 0.022390012 0.05350526 -0.10559385 0.044498246 0.19101213 -0.045264013 -0.0024330635 -0.0028673864 -0.11644798 0.04486137 0.0024749562 0.02506376 0.11929746 0.03269607 -0.11065875 0.028251952 -0.00660525 0.018259848 0.1177147 0.02861899 0.022483569 0.099149525 0.032372456 -0.022720193 0.19287194 -0.0056390837 -0.09237715 0.087767966 -0.13490058 -0.049133025 0.1630286 0.030362476 0.033823222 -0.096570544 0.11048604 0.10708738 -0.06995609 -0.15336667 0.039586294 -0.06796268 -0.24870765 -0.2195358 0.052955456 -0.07178195 -0.11421076 0.025981508 -0.036297638 0.09324009 0.104082786 -0.034309205 0.016972657 0.15389189 -0.0057228417 0.16508906 0.09521364 -0.14669694 0.081130646 -0.011099528 0.011153834 0.04050937 0.12080599 -0.097404145 0.05836806 0.07081735 0.0006679269 -0.14831994 -0.091553286 -0.09262966 -0.08085291 0.024281764 -0.064707935 0.1167745 0.011046252 -0.049174648 0.079727486 0.1949493 0.050402723 -0.072004974 0.021820977 -0.11506099 -0.023487506 0.06716033 -0.13290213 -0.03544316 -0.04911318 0.019334313 0.081830546 0.021954669 -0.039714094 -0.0963951 0.034975603 0.060702026 -0.03681897 0.040263984 0.010014781 0.04290034
211 0.13891332 -0.083146535 -0.012978691 0.047919795 -0.08847034 0.10842062 -0.09304425 -0.03687952 -0.042566307 0.032767035 -0.008258447 -0.08821167 -0.14893155 -0.0901075 0.19510926 -0.013623077 -0.1792632 -0.03927364 0.13010429 -0.1574468 -0.103391014 0.20312063 -0.047395878 -0.15435544 -0.16122007 0.0016232671 -0.029207021 -0.12079265 0.06066878 -0.022742908 -2.643335e-05 -0.060373124 0.031981774 0.16411306 -0.069686286 -0.06367841 0.29409155 -0.050019186 -0.02982162 0.07463473 -0.15231977 -0.025917685 0.09344482 -0.015783032 -0.055061582 -0.04993503 0.03947213 -0.0534547 -0.14246637 -0.08885779 0.11000046 0.092117466 -0.040236816 -0.0027234063 0.058873124 0.022204082 0.08916486 -0.05712167 -0.1460149 0.0044519473 -0.09341343 -0.056914896 0.14419048 -0.030150589 0.06630536 -0.17121795 -0.011234113 0.07807277 -0.06536179 -0.1385762 0.07614897 0.03627032 -0.3241324 -0.069410875 0.06923154 -0.16481803 -0.20123883 -0.014533125 -0.017926054 0.00714129 0.08495733 -0.11029788 0.006126079 0.29671508 0.03168903 0.090317614 0.24287482 -0.10111296 0.1337112 0.044664934 -0.056443337 0.097713776 0.07662183 -0.03587116 0.26692373 0.02755439 0.026486747 -0.21972004 0.0006736053 -0.27332702 -0.030868666 0.13330089 0.02883654 0.036303896 0.046000835 -0.058984477 0.050600097 0.19107765 0.0783543 -0.27460268 0.22012697 -0.01964366 -0.0012289246 0.12781681 -0.08474504 -0.09193008 -0.16550024 -0.07075813 0.12748557 -0.09172124 -0.041717377 -0.10356469 0.05534017 0.02336005 -0.13390757 -0.04608621 -0.08937308 0.110775985
219 0.097860366 -0.26982543 0.099546134 0.10370856 0.07797845 -0.0028736817 -0.01853957 -0.0142329475 -0.07095253 0.17095396 0.033878013 0.045016814 -0.054090388 -0.112635426 0.167269 0.15362781 -0.1497022 0.034195866 -0.04877419 0.07964389 0.018406074 0.2650201 -0.025823101 -0.15885837 -0.12278898 -0.07323973 -0.12776908 0.104238465 0.0960474 -0.06462996 -0.059364565 -0.1283479 -0.07083349 0.19432154 -0.079170406 0.0287656 0.17885968 -0.048966426 -0.18458243 -0.12360098 -0.07320336 0.09767968 -0.07069029 -0.043824166 -0.029170677 -0.024547748 -0.07808719 0.16849038 -0.13142967 0.049483262 -0.012050189 0.080630586 0.068648666 -0.015896393 0.07624989 0.12445873 0.06302525 -0.041303877 -0.051289506 -0.06442445 -0.085985474 -0.037861947 0.12905517 0.008200953 0.015107122 -0.09301971 0.025395136 0.0354564 -0.05280407 -0.17455932 0.03985285 -0.045135707 -0.21369655 -0.026475012 -0.04755397 -0.081258126 -0.05102581 -0.029458968 -0.03360468 0.056283124 -0.033940036 -0.09880303 -0.04768757 0.2576997 -0.024303041 0.25419077 0.13825336 -0.16726604 0.16153412 0.017016495 0.0032132568 0.11330631 0.06980235 -0.11710507 0.1748409 0.049793575 -0.030380819 -0.18316038 -0.09041526 -0.16213293 -0.07859905 -0.040341035 0.019180784 0.09883194 0.06758573 0.008983016 0.046848413 0.045122042 -0.0015274882 -0.18889129 0.17487207 0.046048515 -0.013216984 0.14873143 -0.081563324 -0.13807772 -0.05253067 -0.005623908 0.1354624 -0.15721709 -0.18475415 -0.09098861 0.06071406 0.040984597 -0.07892994 -0.045165204 0.018349035 0.07598016
221 0.15031815 -0.15072599 0.062495966 0.17549247 0.09354087 0.016991127 -0.076296926 0.048447795 -0.03969747 0.051567636 0.02673418 0.0122009665 -0.0077513233 -0.016951604 0.09197546 0.014526349 -0.019880887 0.022337006 -0.14179188 0.11156502 0.07063679 0.18898983 -6.140195e-05 -0.04223745 -0.10900604 0.03674969 -0.034678403 0.022983856 -0.013276717 -0.041347098 -0.08919172 0.04507952 -0.07974155 0.06889028 -0.0809754 0.1329292 0.20964354 -0.09041672 -0.015026161 -0.054432273 -0.17986625 0.07766069 -0.080098465 0.07691908 -0.0006040953 -0.034613483 -0.047367007 0.13497968 -0.0013158057 0.10760419 0.05997071 -0.028703555 0.11839399 0.01983692 0.013039316 -0.04458805 0.19650923 0.09281451 -0.08383845 -0.025598263 -0.11837424 -0.025056265 0.08852164 -0.0055006132 0.15214607 -0.02634475 0.04831224 0.0548403 -0.031388402 -0.13922387 0.07483852 -0.0028780028 -0.16736597 -0.1366033 0.034593537 -0.19170529 0.0041840323 0.0041227536 -0.05080668 0.13144052 0.04877452 -0.118738115 0.11139512 0.24468224 0.024007717 0.2182116 0.09862577 -0.07731076 0.080509685 -0.0047758715 -0.03880863 0.093948536 0.094722115 0.0349335 0.21775715 0.009154044 -0.035371948 -0.06362345 -0.083544046 -0.20349666 -0.14486888 -0.06708403 -0.09280728 0.14596078 0.04127933 -0.10145819 -0.0045626196 0.13020146 0.1278993 -0.06972542 0.02606529 -0.12829025 0.023192018 0.066336155 -0.112914234 -0.07276708 0.07738287 0.06497643 0.0492377 -0.11374106 -0.008637592 -0.09358304 -0.022182107 -0.012725328 -0.017392687 0.024758225 0.033358634 0.09205906
226 -0.031165227 -0.35491478 -0.057312954 0.08733027 0.11053111 0.19776112 -0.015777858 0.15253189 -0.027626412 0.34817907 -0.2209189 0.10733975 -0.033014618 -0.13102596 0.25035283 0.03898767 0.13699017 -0.13678077 -0.07056202 0.046423934 -0.093000904 0.0036131474 0.07250745 -0.21421316 -0.057606284 -0.07052832 0.18563432 -0.11846101 -0.006034423 -0.060790002 0.116811536 -0.15744309 -0.17812017 0.010578256 -0.117074266 0.14875866 0.2042879 -0.15615109 0.10483092 -0.032119345 -0.033181895 -0.12000078 0.050215185 0.11422733 -0.16929914 0.11433914 -0.25397104 0.1053032 -0.04981481 0.16863684 -0.0091148615 0.12811963 0.24052028 -0.2646207 -0.12749512 0.23448598 0.056542326 0.00836831 0.03328075 -0.34792188 -0.07704085 0.13181493 0.044880006 -0.020126924 0.10475129 -0.20754936 0.29154456 0.2398301 0.19570854 0.104450464 -0.11893572 -0.12387709 -0.15343706 -0.17763472 -0.03961035 0.05727012 -0.32927525 0.030091932 -0.024684569 0.2700599 0.107877515 -0.0668804 -0.20297073 0.50579065 0.07404714 0.15279074 0.2242862 -0.10622517 0.019824538 -0.07802233 0.27078956 0.08541493 0.17822151 -0.26701212 0.2787748 0.21474545 -0.19456697 -0.37052372 -0.073856674 -0.03101999 0.11120265 -0.08537857 -0.03269283 -0.16919643 0.08604325 -0.15409614 -0.10167186 0.2986048 0.0568234 -0.08379866 0.24577032 -0.25641963 -0.03423445 0.022799272 -0.03605869 -0.168964 -0.042222444 0.044921726 -0.19094856 -0.08957502 -0.1010373 -0.12621582 0.018040286 -0.22092092 -0.18734854 0.15558949 0.14488085 0.0014156598
231 0.04635843 -0.35471606 0.12561913 0.0529011 0.1815354 0.07935295 -0.12413799 0.038142346 -0.19083509 0.08639327 0.0553265 -0.048096206 -0.18690385 0.01818537 0.27920166 0.15321805 -0.10350931 -0.019269405 -0.00910023 0.013089165 0.11160292 0.08353467 -0.080908306 -0.0377095 -0.12428517 0.046269976 0.060027305 0.11185936 -0.022451583 -0.083619446 0.03852861 -0.21288837 0.05866013 0.118754484 -0.09192842 0.024944931 -0.042999323 -0.035085015 -0.12631181 -0.20978387 -0.076116465 0.16170618 -0.14206518 -0.014310819 0.060617868 0.049683686 -0.07573155 0.15119085 -0.037821125 0.10667513 -0.014593094 0.10214285 0.012434446 -0.03321844 0.09893938 -0.13447937 0.19592208 -0.046720177 -0.13232195 0.036026902 -0.25173596 -0.109224655 0.06484401 -0.013851257 0.083063416 -0.033956956 0.019087614 -0.01873142 -0.010157369 -0.00212512 0.016862003 -0.041137025 -0.22264427 -0.22830267 -0.054777384 -0.06725727 -0.21521267 -0.06255177 -0.06002203 -0.039125085 -0.031392705 0.026254177 0.04051146 0.27774724 0.042348355 0.11618818 0.08367729 -0.14080556 -0.021946644 -0.032055553 0.0059447447 0.046839204 0.044592105 -0.0042218105 0.092760704 0.15961032 0.03503783 0.00056465226 -0.049446944 -0.13163371 -0.111409105 0.04536836 -0.12014885 0.16575062 0.20143493 -0.11440097 0.2281231 0.13614689 0.09626425 -0.13735853 0.015909443 0.1295984 -0.08390797 0.0181415 -0.1948062 -0.16630761 -0.12895063 0.07777018 0.08072939 0.039515503 -0.11822399 -0.1791289 0.033424433 0.17785428 -0.1538739 0.16985 0.03784739 0.06389086
234 0.1141796 -0.08384766 0.04468478 0.05762006 0.09893254 0.08909276 -0.007584463 0.13440014 0.0034497012 0.16108221 0.040369827 0.04137066 -0.037130535 0.046965577 0.08082652 0.07735567 -0.04202776 -0.033818047 -0.099824026 -0.014041196 0.09840439 0.08913825 0.03169966 -0.06887397 -0.18241389 0.11481929 -0.033395607 -0.01658361 -0.043005183 0.014549665 -0.19250865 -0.025048444 -0.0020967247 0.023489524 -0.082787104 0.08069941 0.23158208 -0.10537993 0.14267707 0.021464314 -0.073083535 0.106331125 0.10855881 0.11785748 -0.03523226 -0.020996777 -0.0035158875 0.12675834 0.14711452 0.018047437 0.09526226 -0.13275562 0.25759158 0.0050611566 0.03753727 -0.07918003 0.2751764 0.09318195 -0.16769011 -0.03103525 -0.17300552 -0.103693664 0.058737572 0.07187014 0.1453654 -0.18554741 0.06593651 0.04476766 0.12631352 -0.05596706 0.062353633 0.025001353 -0.17530991 -0.06278356 -0.026197013 -0.0980865 0.06769912 0.043154262 0.045102052 0.20467702 0.026318116 -0.15868022 0.113485284 0.30642506 -0.15939215 0.10102466 0.0020671897 -0.0975772 0.098624624 -0.08655126 -0.043139428 0.05918619 0.00064086117 -0.03631072 0.15532514 0.065336145 -0.09605232 -0.005067099 -0.05125218 -0.18191446 -0.11306506 0.066708885 -0.067349896 0.046570376 0.007026986 -0.04076309 0.03443622 0.15843116 0.19232313 -0.10665844 0.0894906 -0.13635613 -0.12820573 -0.014531208 -0.14696163 -0.24076678 0.008570353 0.0758336 0.11139559 -0.08403664 -0.16349687 -0.21941492 -0.027629485 0.041715246 -0.046671886 0.025437178 0.022731394 0.15071502
244 0.0048968242 -0.07140949 0.13204223 0.011759551 -0.052643094 -0.07422519 0.29588205 0.11450821 -0.13521785 0.059289712 -0.12669723 0.035727233 -0.11058083 -0.09986335 0.047686137 -0.036126837 0.11421603 -0.058797114 -0.09932439 -0.11214354 0.12061276 0.182904 -0.116531566 -0.16681762 -0.18129486 0.14718318 -0.16445284 0.1500175 -0.22777739 0.02327587 -0.13959414 0.17255704 0.0701418 0.057906747 -0.106174886 0.052853137 0.3327746 -0.115421124 0.06959582 -0.15400927 0.08034929 0.07492042 -0.12256893 0.086885996 0.05105177 -0.09672269 -0.085835226 0.05796681 0.012106217 -0.012907251 0.006345992 -0.101313606 0.14224537 0.08936013 0.056120183 -0.14368232 0.034599278 -0.06549414 -0.119483784 0.10703061 -0.08864612 0.024328496 0.26042038 0.07750332 0.1452121 -0.049936548 0.06519057 0.10323382 0.14618692 -0.3261085 -0.06483984 -0.026502803 -0.3092776 -0.25196758 -0.18511747 -0.15185346 -0.03519043 0.032987654 0.07823195 0.043136038 0.15803008 -0.07173769 -0.11776525 0.27177542 0.032451253 0.23561472 0.17774683 0.032119337 0.12129919 0.013430603 0.012241094 0.13402523 -0.10141577 -0.034345876 0.00711552 0.08568567 -0.07622432 -0.11958618 -0.07877067 -0.09158028 -0.16817346 -0.018943554 -0.013409945 0.059753913 0.013889832 0.13504426 0.012205153 0.08067933 0.30754238 -0.011383285 0.0022496614 -0.07348934 0.04502079 -0.048190903 -0.19346924 -0.2058936 0.12916754 0.16077183 0.07944341 -0.05871318 -0.2756564 -0.24969676 0.041476287 -0.12246821 -0.09424662 0.044675305 0.1417782 0.20753056
248 0.01965558 -0.15054424 0.06377661 0.11716601 0.11154132 0.06667769 -0.05162542 0.007044925 -0.10408296 0.06366875 0.11108221 0.05592343 -0.08305079 -0.02940655 0.08372061 0.076435275 -0.11547149 -0.046655387 -0.094904065 0.06859653 0.034288704 0.17448038 -0.13918065 -0.12507413 -0.21447463 0.09840197 -0.02421932 0.034222793 0.0011245215 0.023040071 -0.011097544 0.008923943 -0.044871453 0.035691064 -0.06838494 0.11641123 0.12020833 -0.054820348 -0.045110393 -0.12610205 -0.037947766 0.09381184 -0.019392163 0.08192559 0.049805596 0.11225557 -0.2169429 0.026924202 -0.022987504 0.0128349 0.114479154 0.04964972 0.05022555 0.052965477 0.08114876 -0.06334078 0.1791093 -0.018793639 -0.06322092 -0.033220463 -0.11267012 -0.10098525 0.11196053 -0.0017656338 0.08057257 -0.06647729 -0.012949871 0.013397484 0.02958557 -0.125088 -0.014503236 -0.07329444 -0.22051565 -0.0946233 0.028645083 -0.05719277 -0.092647485 -0.012905652 -0.024534442 0.11057565 0.048901614 -0.10851801 -0.022610454 0.32551947 0.023112474 0.12983936 0.12863423 -0.07118093 0.11366186 -0.039658293 0.027691206 -0.0061783087 0.075427815 -0.1099582 0.18299238 0.071431495 0.00012771763 -0.07426254 -0.08960761 -0.16905335 -0.19954664 0.035177425 -0.13472073 0.112630285 0.0032699024 -0.07292831 0.13767284 0.1908186 0.17865211 -0.18229125 0.12078635 -0.103560954 -0.015878385 0.11100726 -0.10636419 -0.009816738 0.011984067 0.035293512 -0.0077965977 -0.099108085 -0.04289092 -0.034992665 0.02368264 0.06082037 -0.11597548 -0.07605518 0.056061897 -0.022932319
249 0.019777305 -0.2034565 0.019914422 0.27225143 0.095272675 -0.011698281 -0.023191376 0.0030260768 -0.1303657 0.112012066 0.09006699 0.16995025 0.043050136 -0.017778952 0.19701129 0.05627157 -0.10205012 -0.06318205 -0.28539637 0.088850915 0.05628824 0.37353468 -0.039878227 -0.0652144 -0.32977742 0.14323434 -0.08977299 -0.048153277 0.074073784 -0.12539041 -0.07288325 -0.000718828 0.085612334 -0.13848336 -0.0750783 0.1734643 0.21656589 0.0060917777 0.009446983 -0.11847363 -0.1522584 0.077271536 -0.15282078 0.11908931 0.12468708 0.01798274 -0.12863986 0.038700778 -0.033258572 -0.0872169 0.08138618 0.13558528 0.018152108 0.09209623 0.11080071 -0.10334891 0.048297133 -0.017881695 -0.15462427 0.09638084 -0.14807954 0.06566492 0.061844416 0.08517512 0.030212149 0.021329872 0.0915617 0.027971609 -0.109486796 -0.14340007 0.071570426 -0.104756095 -0.16217697 -0.18045539 0.07006504 -0.009665321 -0.068099275 0.025414271 -0.023182742 0.03645221 0.028640496 0.03305572 0.03584975 0.19945602 0.06485676 0.03146405 0.05119789 -0.06689135 0.14342086 0.053206872 -0.007723119 0.11169819 0.2613163 -0.044139452 0.16838819 -0.03889801 -0.06384188 -0.048325963 -0.08632161 -0.11379187 -0.09468175 -0.027350482 -0.0985772 0.07604359 -0.012664879 0.10094236 -0.005032925 0.09745013 -0.035284538 -0.13006292 0.055449564 -0.13435635 0.03975383 0.020630846 -0.090024106 -0.010627185 0.03832272 0.016182357 0.05420238 0.004219263 -0.033149514 -0.08759686 0.032481767 0.00413722 -0.08943806 0.121452324 -0.051443927 -0.06496416
258 0.031019202 -0.023096038 0.0048420536 0.016664479 0.054093678 0.0093855355 -0.099761434 -0.025210077 -0.05758591 0.11257114 0.092420325 0.08911703 -0.06415262 -0.05923466 0.25356972 0.0898149 -0.070352584 -0.029578652 -0.055882916 0.049974725 -0.01286891 0.21636145 0.05069909 -0.17770073 -0.15678675 0.08571752 -0.03987137 -0.024431838 -0.17953847 -0.052431364 -0.04995868 -0.09987051 0.08058611 0.023921272 -0.093377054 0.0954735 0.24476655 -0.106692165 0.100755095 0.016057096 -0.19644961 0.062199317 -0.058288597 -0.00771091 -0.06677582 -0.05325271 -0.15307637 0.066099845 -0.056873 -0.013132895 0.055231217 -0.11026797 0.23186006 0.08975379 0.15504567 0.038363084 0.13575502 -0.0057308706 -0.16832538 -0.03177832 -0.09526255 -0.06339565 0.15010704 -0.14811422 0.075602174 -0.11607296 0.24047318 -0.0054087345 0.04337261 -0.12011476 -0.049626436 -0.030872647 -0.10431274 -0.07322923 -0.09000343 -0.22519729 -0.052658163 0.19885027 0.07504202 0.17590961 -0.07991565 -0.12212179 -0.08135267 0.23333007 -0.09459852 0.0487936 0.21835718 -0.047415454 0.039337087 0.030065155 0.011001716 0.10532708 -0.037377253 -0.08884202 0.21455203 -0.0025758687 -0.05627607 -0.11023299 -0.056105837 -0.109733604 0.024111839 -0.06408151 -0.029068444 0.009369425 0.039401356 0.06091236 0.09620054 0.111322895 0.030476492 -0.11427107 0.04333762 -0.03293036 -0.08236937 -0.08057853 -0.010449721 -0.10808812 -0.1391993 0.0088840155 0.040711395 -0.035699114 -0.06115198 -0.092422366 -0.035884883 -0.030131249 -0.03841279 -0.03191472 -0.0062588356 0.14679696
260 0.11186357 -0.15073733 -0.029265419 -0.017258242 0.18950188 0.0797757 -0.13911025 -0.035280786 -0.048996568 0.05541693 0.12354768 0.16768654 -0.061290298 -0.06954253 0.2421041 0.07126883 0.0012272251 0.036753446 -0.027396595 -0.014836413 0.004959435 0.12181375 0.079377145 -0.048952926 -0.18108262 0.08798349 0.043216005 0.00087418244 0.027884752 -0.07843304 -0.0033581168 -0.046473518 0.07042221 0.13633457 -0.15462643 0.075742394 0.2698995 -0.070834264 -0.040456645 -0.020874029 -0.18840608 0.17123245 -0.11569006 -0.016345436 0.0302518 -0.10251974 -0.037614264 0.07409146 -0.008900325 0.060467836 -0.0400471 -0.0037823727 0.11380671 0.10954565 0.0018667084 0.009688374 0.1425046 0.060283978 -0.16216092 -0.0039998097 -0.15029682 0.027936649 0.100619815 -0.029728735 0.12873906 -0.056741606 0.013309818 0.023203408 -0.107512206 -0.194315 0.06852306 -0.046059474 -0.1352884 -0.18868972 -0.047482554 -0.12742302 -0.07877098 0.018824965 -0.034614272 0.08867044 0.04672303 -0.078472614 0.016973892 0.19427817 -0.07651493 0.13907878 0.16027609 -0.07193293 0.008090408 0.022754002 -0.061830834 -0.0036329406 0.06151816 -0.039671198 0.09337297 0.09119144 -0.011074397 -0.14022942 -0.013778032 -0.07580205 -0.09338428 -0.01327433 -0.03333872 0.09073131 0.06669464 -0.10695832 0.11387377 0.119411066 0.06934582 -0.18481846 0.034872226 -0.0443033 0.03485448 0.0073329913 -0.12250075 -0.09111783 -0.065746665 0.09466974 0.12964207 0.0072735795 -0.045451436 -0.13693991 0.05692547 0.051624045 -0.11075066 -0.03614483 0.0214871 0.06806122
265 0.10419941 -0.10360768 -0.024389504 0.08057389 0.04913134 0.0865564 -0.09196138 -0.10796043 -0.08073502 0.090286486 0.028258238 0.0966714 -0.06313584 -0.1023042 0.31855327 0.14404003 -0.14132175 0.022479696 -0.08718997 -0.012543992 -0.03905969 0.26165277 -0.054519292 -0.0777356 -0.049477186 0.077088095 -0.0062222513 0.10107898 -0.012942884 -0.046167422 -0.036622606 -0.15529469 -0.090976946 0.013497198 -0.056685254 0.023273164 0.16724256 -0.003733661 0.016086597 -0.067293175 -0.13762371 0.031443205 -0.019190967 0.026702097 -0.026634652 -0.05935867 -0.06769298 0.11779572 -0.08007674 -0.014172171 0.035427585 0.019699585 0.051813442 0.015785417 0.109050974 0.061802205 0.11597556 -0.06107129 -0.0840154 -0.046469875 -0.15272592 -0.049211014 0.05133652 0.0077483514 0.026600014 -0.047533076 0.08981691 0.08493645 -0.056299478 -0.119345 0.0721423 -0.014485777 -0.14630543 -0.024139771 -0.12146342 -0.10149161 -0.11594031 0.043650813 -0.013399009 0.07729603 0.0036558388 -0.099186875 0.09344886 0.29729873 -0.044631265 0.14185861 0.12723288 -0.12386244 0.1761115 0.13750903 -0.0046004825 0.08122671 0.0735095 -0.09311007 0.29153717 0.06761773 -0.051166054 -0.053083234 -0.022309592 -0.11327325 -0.10756194 -0.029223647 -0.033063397 0.12652478 0.026767189 0.010741176 0.050965004 0.13820988 -0.013903234 -0.17007594 0.124375924 -0.06757482 -0.057938255 0.11124079 -0.07822683 -0.1029887 -0.026820958 0.02969908 0.09846827 -0.06970283 -0.07032302 -0.07585305 0.021102175 0.011630457 -0.032277852 0.024617827 -0.037204225 0.112313524
266 0.025833208 -0.19498026 -0.09922597 0.10098591 0.10995221 0.026918441 -0.08512789 0.036736973 -0.011647766 0.014705314 0.09405936 0.115029655 0.03306221 -0.0077977832 0.19323912 0.13488099 -0.04504 -0.0299669 0.059322376 -0.056055374 0.0055932356 0.051336583 0.008247549 -0.06187886 -0.01022669 0.031040628 0.09179891 0.005831072 -0.19170749 -0.026014812 -0.056395862 -0.042957496 0.04863101 -0.09204845 -0.048605353 0.15828526 0.23788778 -0.06609554 0.049273543 -0.07351829 -0.08643218 0.05881588 -0.08496493 0.1006307 0.055276457 -0.0071955677 -0.0697339 0.057658672 0.01777225 0.10804979 0.062067684 0.12918022 0.0798677 0.008447698 0.065711185 -0.0874772 0.14624876 -0.017519388 -0.06537172 0.054133777 -0.13023181 -0.11898053 0.12615879 -0.114078335 0.05022669 0.028900268 0.20438455 0.13002327 0.010534618 -0.16872546 0.043367468 -0.12708396 -0.081668384 -0.21961673 -0.058720503 -0.1337128 -0.1426086 0.15949322 0.08768782 0.053791367 0.11360271 -0.11775586 0.11557136 0.2528707 0.008420967 0.18800302 0.21801826 -0.12962797 0.18536766 -0.040871613 0.06994998 0.086758696 0.045919985 0.0068050646 0.048715483 0.0696078 -0.039316855 -0.1583877 -0.08751748 -0.17553629 -0.14435731 0.04471089 0.012629203 0.07215984 -0.011558662 -0.090374015 0.050732806 0.18951559 0.047406755 -0.09639136 -0.01845119 -0.08794817 -0.070332125 -0.09994598 -0.12855986 -0.030305156 -0.089169465 -0.021501686 0.020425506 0.0879338 -0.13632281 -0.15256368 0.016819492 -0.0098011 0.032653846 0.109631464 -0.018465003 0.18892
267 0.035708707 -0.24173756 0.05175477 0.13575083 0.06238085 0.054624703 0.06536567 0.097215325 -0.12906684 0.13862313 0.10799085 -0.026507316 -0.032495268 -0.06539745 0.08990266 -0.1373264 0.031223455 -0.038114972 -0.20391622 0.12359644 0.036630567 0.16139998 -0.030119903 -0.08265618 -0.21660829 0.16763349 -0.021542806 -0.16557302 0.012896533 -0.07142674 0.016022617 -0.034529082 0.06974195 -0.00049064 -0.1712427 0.1548381 0.18427457 -0.24255459 0.00035557497 0.03702058 -0.19073333 0.044721033 -0.10920969 -0.014604092 0.07068082 0.103915334 -0.16571762 0.08914527 -0.10378463 0.16725056 0.14900751 0.03452422 0.18169852 0.038399324 -0.09871732 -0.02528955 0.15171854 -0.025411569 -0.033723816 -0.038058218 -0.09448536 0.042382464 0.2598625 -0.056424502 0.18805915 -0.08617486 0.085010834 0.12958969 -0.03477535 -0.15552893 -0.1788035 -0.18709117 -0.25429982 -0.17465268 -0.02629208 -0.112121046 -0.019910589 0.103227906 -0.067390986 0.0875905 0.06869513 -0.04579816 0.020768555 0.3211337 0.19819683 -0.020249281 0.1336571 -0.13660859 0.09097233 0.055723242 0.05843541 -0.055716235 0.15935944 -0.16283765 0.111570574 -0.013928242 0.030908482 -0.19923128 -0.0789205 -0.20848988 -0.056887183 -0.11345954 -0.030437838 -0.022028938 0.026033008 -0.037244998 -0.038646217 0.08676353 0.0043014637 -0.15711032 0.071892455 -0.20826027 0.05730528 0.12352057 -0.022277849 0.0876757 0.096222684 -0.029850062 -0.040769696 -0.13349678 -0.03997323 -0.038474064 -0.05899805 -0.021802163 -0.1265063 -0.055437125 -0.022640683 -0.095203966
268 0.058290463 -0.10169786 -0.058087222 0.12923935 -0.009907989 0.025873136 -0.044955965 0.03033714 -0.1371667 0.049436923 0.06634626 -0.008986898 0.04497442 0.0076690037 0.09612657 0.14437743 -0.07840634 -0.01758501 -0.09148319 -0.05074432 0.080686264 0.042715114 -0.027104067 0.007958666 -0.050594263 0.07666677 0.030000625 0.015830543 -0.07462856 -0.0243204 -0.05353153 -0.019299071 0.08374719 -0.014881952 -0.032529507 0.06511147 0.19194683 -0.043386623 0.055299252 -0.005823786 -0.17584923 0.060120303 -0.08108535 0.16162679 -0.036227867 -0.086728334 0.0102613075 0.13650294 0.040287826 0.070875034 0.07922238 0.08176838 0.15191665 0.08556765 0.02992794 -0.07477175 0.15752919 0.001986455 -0.10128343 0.06883043 -0.10374747 -0.11536768 0.13364023 0.057088077 0.18218166 -0.035496566 0.2032645 0.044040635 -0.0100778295 -0.23283684 0.020839829 -0.06849506 -0.17778295 -0.18093677 -0.016926913 -0.149914 -0.11232432 0.12344631 0.00029791496 0.15499 -0.017983692 -0.05915529 0.09639792 0.35296127 -0.038552538 0.11259638 0.17521591 -0.06454722 0.110550605 -0.022227 -0.024606707 -0.02434664 0.017246302 -0.029850973 0.21235687 0.08994266 -0.022318074 -0.1334095 -0.039677385 -0.1250865 -0.14094335 0.019758243 -0.08517117 0.10546221 -0.046918586 -0.029318515 0.04730549 0.09125401 0.011728328 -0.113598935 0.06184144 -0.08701784 -0.04991094 0.070210494 -0.046509948 -0.10039998 0.011593563 -0.014983471 0.06433862 -0.0030017046 -0.118750624 -0.13710311 -0.007231417 -0.061556697 -0.04761484 0.07967977 -0.031906806 0.13199387
273 0.12896538 -0.056166835 0.1228922 0.04998225 0.0776303 0.010124443 -0.0700001 0.03945304 -0.045041617 0.052864682 0.1922736 0.11662332 -0.09946852 -0.10023759 0.17552893 0.04293426 -0.0908654 -0.0017805324 -0.05497176 -0.03850101 0.11335547 0.15527356 -0.003891423 -0.06482664 -0.167191 0.12272075 0.016287595 -0.020542929 -0.07663753 -0.03306119 -0.06777632 0.017404852 0.045164753 0.115070276 -0.13729562 0.19156656 0.3029686 -0.14964779 0.05713285 -0.04376434 -0.21330015 0.11226257 -0.06955723 0.059300803 -0.030745562 -0.030210907 -0.09699135 0.05567192 -0.04407574 0.116228096 0.027661605 -0.03217354 0.06691811 0.089187406 0.039640844 -0.0034754614 0.24490364 0.06488395 -0.09247379 -0.006846852 -0.11971507 -0.023278343 0.08310637 0.062901184 0.13167992 -0.117506385 0.030909453 -0.024927665 -0.0499128 -0.10893633 0.004230992 -0.024537943 -0.05485278 -0.16595282 0.0042024134 -0.15231526 0.056438826 -0.04287464 -0.010294294 0.07550138 -0.010300046 -0.046606433 0.04062108 0.18045022 -0.066839606 0.13281277 0.070332274 -0.15422255 0.05472178 -0.067860946 -0.021630755 -0.023050202 0.081275366 -0.098697245 0.08343157 0.058050793 0.041108694 -0.11703831 -0.08626313 -0.20894513 -0.09195117 0.042007405 -0.08648673 0.06904498 0.008626977 -0.26983574 0.03368984 0.063696034 0.0756957 -0.17495254 0.067749985 -0.10323959 0.017066065 0.061830048 -0.117261335 -0.03542391 -0.07075983 0.06672603 0.0025453113 -0.17250767 -0.03534069 -0.19240806 0.08366627 -0.018416869 -0.010781947 0.019372936 -0.028503744 0.09721116
275 0.06962078 -0.19706362 0.06286224 0.12432681 0.14723456 0.06668143 -0.17240494 -0.019580172 -0.104724474 0.10177274 0.019035468 0.024362857 -0.13924007 -0.03641267 0.24013737 0.07182775 -0.063574865 0.04143177 -0.104185544 0.055514693 0.015315877 0.24393585 0.036744058 -0.156646 -0.080983624 0.11470367 -0.01849146 0.021883674 0.0066658924 -0.06307727 -0.016588788 -0.14396341 -0.0038620362 0.025921099 -0.10766442 0.068242304 0.1004567 -0.047032274 -0.053895146 -0.10360952 -0.019571764 0.04122921 0.06253277 -0.08926588 0.04844632 -0.025435189 -0.115809254 0.048798412 -0.033159025 -0.0020068057 0.0029399428 -0.003324472 0.0847805 0.008272704 -0.028119227 -0.063341856 0.098299675 0.0076043694 -0.04813747 0.03968899 -0.10951887 -0.10367053 0.03025208 0.020353045 0.007647846 -0.16374208 0.034896176 0.030251587 -0.09648704 -0.13165134 0.018987553 -0.058105204 -0.17664242 0.028539065 -0.035990264 -0.13925527 -0.07388663 0.10267063 -0.11653864 0.0517514 -0.037916712 -0.108543254 0.054644816 0.35324124 0.044026177 0.12455405 0.09934042 -0.15792885 0.14163446 0.017911002 -0.0053163017 0.13942213 0.064710416 -0.0639147 0.24947971 0.061408278 -0.08687678 -0.027055759 -0.115445055 -0.19403365 -0.0415691 -0.07385397 -0.08018013 0.10414321 0.099356435 -0.058503143 0.20029819 0.13880606 0.0063532228 -0.17540382 0.097871244 0.022493005 -0.034471594 0.031158067 -0.13209851 -0.091148876 -0.02447258 -7.3790245e-05 0.1147601 -0.11218968 -0.16045418 -0.05045591 -0.0048849573 0.059050016 -0.035956874 0.031050805 -0.026794275 0.044571772
