407 128
0 -0.020311253 -0.0042676623 0.04895542 0.037246026 0.017556017 0.0065867067 0.026215287 -0.08938319 -0.03762112 0.0911897 0.18330584 0.09280193 -0.12740351 -0.0023491362 0.090470135 0.106178366 -0.016860884 0.012911959 -0.13636723 0.109996974 0.07559223 0.0944957 -0.06492617 -0.08038165 -0.20400837 0.06774503 -0.13170114 0.07368656 -0.004005525 -0.18115364 -0.026493944 0.061653834 0.051993698 0.14560717 0.06832914 0.13016178 0.20613985 -0.063756205 -0.04772862 0.024206327 -0.11619945 0.09400839 0.02032848 -0.026848448 0.06358423 -0.058060884 -0.061859496 0.036925595 -0.075477004 0.05322919 0.043768406 0.117250346 0.0424816 0.05331438 0.069987565 0.08003719 0.19309722 -0.09848547 -0.067668185 0.043339748 -0.018838888 -0.004509923 0.12730101 0.01758903 0.10785983 -0.0544695 0.013355747 0.12059898 -0.11452296 -0.14009401 0.046994302 -0.13186628 -0.21829732 -0.07197241 -0.04973336 -0.009691503 0.0101101855 -0.08681965 0.00055403303 0.11154963 0.04998406 -0.08848642 0.011954642 0.21855092 0.010122162 0.15753497 0.13950314 -0.05893457 0.06968382 0.033351824 0.007213253 -0.036309358 0.1500374 -0.120695904 0.25866953 0.031846516 0.0011160888 -0.10161648 -0.08712607 -0.022877648 -0.094407715 0.039464824 -0.02081179 0.05394205 0.055272862 0.045064114 0.03933529 0.018230086 0.005598648 -0.16571824 0.059777603 -0.100545935 0.015018906 0.03454117 -0.01395782 0.031471767 0.0060903 0.032333013 -0.022258762 -0.054243892 -0.056960415 -0.07565348 -0.11791481 0.024768975 -0.073873624 -0.030211406 0.03227805 -0.035555955
1 -0.052545723 -0.15533398 0.042472735 0.08491214 0.0856205 -0.026539238 0.037889693 -0.045389608 -0.083090074 0.1422479 0.15437149 -0.00859477 -0.08584206 -0.031796485 0.09710268 0.150164 -0.17117882 -0.10065095 -0.06636463 0.07020919 0.16566534 0.15361108 -0.06762432 -0.10821191 -0.17260873 0.076692015 -0.0654935 0.09439356 -0.008267654 -0.15528242 0.010463695 0.100848846 0.04481957 0.12065031 0.05505691 0.06097035 0.23317984 -0.06564926 -0.03273562 0.008161522 -0.04542167 0.06007932 -0.0696701 0.015896711 -0.026185043 0.013585922 0.07259559 0.11468962 -0.014975558 -0.0152038215 0.19866757 0.09664005 -0.020613806 0.054171387 -0.060566664 0.05744771 0.2753537 -0.10553456 -0.056083415 -0.0029082438 -0.0655348 0.08268692 0.28857926 0.016247615 0.14453389 -0.020066194 0.0016313238 0.004787404 0.048468776 -0.09705316 -0.0043371012 0.05561229 -0.24165706 -0.12045879 0.05853861 -0.08652913 -0.061022438 -0.032614976 -0.08768929 0.17271644 -0.12753706 -0.08808322 -0.07078412 0.16983192 0.022813983 0.21151567 0.16189009 -0.07694305 0.07993854 0.04906298 0.025560552 -0.12845974 0.14226362 -0.085355684 0.13595569 0.015641382 -0.033684764 -0.070665844 -0.09740943 -0.0014878284 -0.053302933 -0.018297248 -0.054096762 0.11155357 0.0046193423 -0.027606638 0.0026697319 0.09841753 0.105359666 -0.13316132 0.05285195 -0.057472467 -0.008510946 0.0682334 -0.08275045 -0.0017080301 -0.056487244 0.012135912 -0.0071328967 -0.06500599 -0.122192085 -0.038059983 -0.10376387 0.025260955 -0.17852096 0.07738025 0.066650994 -0.07638917
2 0.04265188 -0.0030672092 0.023231125 0.041324988 0.090906344 0.04122721 0.063310325 -0.21835935 -0.09045391 0.069804944 0.09841334 0.023827968 0.056332517 -0.053818386 -0.050327476 0.026578767 -0.025839737 -0.10471146 -0.24737754 0.17976587 0.045966763 0.051530294 -0.05086046 -0.11446403 -0.116635546 0.09866379 -0.120542824 0.03196197 -0.051996794 -0.023840863 -0.0023692653 0.0812008 0.065683 -0.011143997 0.09925433 0.13694353 0.18806808 -0.10334049 -0.16716582 0.024895912 -0.14327231 0.1378944 -0.007907866 -0.06453586 0.10850196 0.058326 -0.2286374 0.098822005 -0.023810027 0.06963135 -0.077653445 0.20652664 0.052280825 -0.11087421 -0.08695149 0.07743711 0.25339285 -0.18287157 -0.0543019 -0.025028544 -0.02621156 -0.0102354875 0.12517159 -0.04395946 0.17091358 -0.083528124 0.103042625 -0.05049588 0.05583259 -0.22404215 -0.064388014 -0.09539086 -0.17319395 0.0021918525 -0.045011215 -0.093207195 0.0631185 -0.02302887 -0.09644591 0.09447166 -0.094488256 -0.05050142 0.029619215 0.19442797 0.06170524 0.12608813 0.2601477 -0.10951591 0.11704074 0.04164967 0.09125978 -0.066324994 0.0926134 -0.073905826 0.18562998 0.06981858 -0.015122286 -0.19903561 -0.16669194 -0.09024026 -0.0076145045 -0.006750045 -0.16801885 0.17801218 0.07989796 0.013233686 0.041071136 0.036759164 0.1565577 -0.15444781 0.043779217 -0.105682306 0.14648318 0.0779205 -0.008613299 0.024027867 -0.078131855 0.008598535 -0.07076476 -0.022300905 -0.10639461 -0.10051615 -0.1304144 -0.08181118 -0.068108246 0.09768308 0.13170458 -0.102424055
3 -0.106702164 -0.13653475 0.05854412 0.14602946 0.048703045 -0.09123396 -0.0020909563 0.019804204 -0.024122609 0.12210746 0.22776456 0.024228208 -0.048424322 -0.023573136 0.14814842 0.14760263 -0.0085889315 -0.003496151 -0.04886605 0.13028927 0.11532254 0.11212605 -0.0050026695 -0.12028916 -0.17281835 0.03555463 -0.113552734 0.1712879 -0.03339653 -0.16350245 -0.05200247 0.020329356 0.14856742 0.15561727 0.04214704 0.041254822 0.11529234 -0.09732039 -0.020692557 0.030946499 -0.056331012 0.076855004 -0.026718542 -0.108931236 0.06824174 0.057292257 -0.032461297 0.05433635 -0.010105103 0.07318923 0.081598766 0.094329424 -0.01630926 0.05880505 -0.010992219 0.029445738 0.1394853 -0.018251522 -0.07183475 0.110877655 -0.046351627 -0.07744128 0.16176488 -0.07356563 0.11339306 -0.11207764 0.032756552 0.05888321 -0.11561473 -0.07888979 -0.026564749 -0.1554339 -0.14044859 -0.11873366 -0.031330686 -0.014785523 0.016431883 -0.08789372 -0.043283425 0.122848 -0.08174129 -0.019377919 0.007728327 0.24222301 0.07225059 0.07566474 0.10197034 -0.0950669 0.056197353 0.04284574 -0.07471096 -0.0185247 0.1957637 -0.12106618 0.112785526 0.05310179 -0.057866253 -0.055114247 -0.020993931 -0.07702896 -0.024091274 0.009722592 0.04349523 -0.010551672 -0.0064118323 -0.007857079 0.11869324 0.08531142 0.09449427 -0.14383996 0.015982607 -0.0701234 0.018340806 0.021198928 -0.137836 0.02180078 -0.023027724 0.016925221 0.034656737 -0.04154596 -0.15920983 -0.12760843 -0.04586931 -0.021201683 -0.04699088 0.027989784 0.07274202 -0.10868762
4 0.05467297 -0.24637227 0.06987699 0.2115365 0.07647222 -0.04308878 -0.11121883 0.11903266 0.021052253 0.008314058 0.027969861 0.0862322 -0.082562186 0.114225626 0.03461432 0.047014236 0.13623892 0.13770743 -0.12932768 0.05129685 0.076119006 0.08320087 -0.035927135 -0.19749825 -0.15806141 -0.0325654 -0.07462975 0.115592 -0.04190659 -0.063760765 -0.02751921 -0.014481471 -0.024193108 0.09460192 0.08243833 0.029881854 0.13521354 -0.013514394 -0.06580062 -0.038197987 -0.015457458 -0.119241305 0.020773409 -0.01229985 0.007713678 -0.00046256674 -0.0388119 0.04350042 -0.10502616 0.1532532 -0.046085343 0.1527606 0.14801663 0.12906003 0.11957887 0.03463337 0.06219151 0.03486181 -0.061063975 0.10458424 0.0044093267 0.0040689907 0.103212126 -0.009623039 0.178525 -0.06332229 -0.030995453 0.17557923 -0.16234483 0.065649845 0.008392197 -0.24655668 -0.20491426 -0.05402437 -0.016961394 0.048782606 -0.037732746 -0.07262717 -0.05050164 0.08191398 0.01967271 -0.115823165 -0.015740173 0.23190714 0.08191649 0.11203275 0.25496006 -0.07814882 -0.07101871 0.070011966 0.0759135 -0.06254959 0.16976285 -0.17719503 0.035730634 0.1254892 -0.015175508 -0.22630037 -0.06698848 -0.0958027 -0.10567303 -0.1574675 0.04888914 0.07537231 0.0440269 -0.07057186 -0.016523672 0.015839094 0.09256781 -0.19489162 0.015547969 0.023084791 0.054638665 0.019942181 -0.0037706057 0.051629514 0.03733763 -0.0012162845 0.08898071 -0.10901777 -0.11996542 -0.12692985 -0.0881446 -0.017324476 -0.18163872 0.031916875 0.13406111 -0.12662236
6 -0.026024178 -0.09507068 0.11774135 0.15254118 0.026892172 -0.0399022 0.018787747 -0.019729245 0.006574142 0.13631243 0.15313902 0.039091486 -0.17571719 0.054328464 0.10552034 0.13571785 0.018752832 -0.019560674 -0.16306809 0.073583536 0.07125885 0.09321811 0.0058708806 -0.12319169 -0.20496689 -0.0413856 -0.035484113 0.06525263 0.014663527 -0.01461457 -0.031470824 0.058248594 0.0046369084 0.079291955 0.012042099 0.020892408 0.15703657 0.011583324 -0.0003965995 -0.0016432937 0.0010596842 0.035368275 0.07554535 0.0353603 0.042387813 0.0042513167 -0.04550247 0.05904853 -0.10463246 0.015303624 0.049986273 0.0004773356 0.13774872 0.10714216 0.08216491 0.07274215 0.13162085 0.055347074 -0.08057806 0.025922148 -0.047421344 0.056838613 0.12396479 0.0059782765 0.17495888 -0.05624491 0.035608035 0.045868244 -0.036881108 -0.068697914 0.03233165 -0.17279494 -0.27617106 -0.13944763 0.01892094 -0.06191066 0.036200944 -0.09030742 -0.07076009 0.11533782 -0.021183327 -0.11895696 0.0231095 0.16879094 0.10029746 0.17917632 0.23207073 0.0060228785 0.017167242 0.08426148 0.09250041 -0.086157344 0.14559841 -0.08836917 0.20295894 0.035445914 -0.032089442 -0.09541556 -0.074034296 -0.103681624 0.015766935 -0.0063291597 0.013559769 0.014251924 0.032392245 -0.0065301363 0.05705162 0.016636496 0.042817462 -0.14997566 0.090302594 -0.16573447 0.054832842 0.015907185 -0.06037022 0.0036512942 -0.0023988863 0.00046468212 -0.014328074 0.015240375 -0.048306122 -0.19076015 -0.12888858 0.05391418 -0.101456836 0.03997577 -0.010909495 -0.02827701
7 0.08291872 -0.22423732 0.13128461 0.2701438 0.07291228 -0.04068251 -0.09707353 -0.053986598 -0.042942215 0.1591984 0.13163485 -0.0008193279 -0.12740088 0.03133185 0.1367069 0.026082173 -0.085385546 0.06697541 -0.068280816 0.08023974 0.11636715 0.033706117 0.0569908 -0.012096801 -0.09429773 -0.0017295794 -0.06968719 0.122893125 0.0067023365 -0.074704275 -0.06984059 0.059538804 0.0011540658 0.11675366 0.043846834 0.065443106 0.25226244 0.0030425251 -0.00056148664 -0.054606706 -0.04476733 0.05947754 -0.10696309 -0.069693886 0.060381774 0.066361524 -0.15664789 0.00054933125 -0.11872862 0.074870214 -0.0130154 0.15096903 0.12559944 0.08553308 0.030618599 -0.0030288852 0.14131637 -0.053090196 -0.018903697 0.0026328203 -0.098386236 -0.034157835 0.09199215 -0.011495817 0.15901472 -0.08172278 0.039082356 0.06464704 -0.11447405 0.00983128 -0.095512256 -0.14854921 -0.14121269 -0.044476792 -0.037001614 0.064299546 -0.021468775 -0.054006666 -0.017086413 0.023546122 -0.1061023 -0.025867637 0.033286892 0.21687062 0.12542813 0.07113549 0.21292756 -0.1140865 0.049043607 0.00024863082 -0.027193137 -0.051950876 0.24630316 -0.043690093 0.1288358 0.061681524 -0.02552025 -0.08576407 -0.04744294 -0.033131473 -0.103236966 0.017297223 0.04548168 -0.019827249 0.09066633 -0.05885363 0.04931661 0.061036192 0.035239737 -0.2126634 -0.032525152 -0.095772 0.009402815 -0.021942992 -0.08562737 0.016777145 -0.058208022 0.049141414 -0.013739637 0.02174109 -0.04561753 -0.17477454 -0.059321985 -0.06497337 -0.05878242 0.043984853 0.04641983 -0.06384161
8 0.02111721 -0.08960037 0.06208135 0.021945206 0.041929606 0.010658331 0.031554565 -0.076089 -0.072526835 0.15406644 0.14524886 0.079826675 -0.0948706 -0.029301533 0.10465837 0.09360678 0.036519736 -0.063018546 -0.13086979 0.056449622 0.06690482 0.09543223 -0.040917583 -0.0964809 -0.19056916 0.08793422 -0.13629334 -0.0032428377 -0.024962246 -0.0907944 -0.030299649 0.06640121 0.045752246 0.1172396 0.030291943 0.06348263 0.19979566 -0.107781336 -0.06957907 0.048096467 -0.05916736 0.01077115 -0.051153753 -0.031341802 0.040796638 -0.057566315 -0.056515932 0.0127093755 -0.06816533 0.08431721 -0.019239614 0.11426928 0.086025625 -0.004754891 -0.030940328 0.05587731 0.21113706 -0.091813505 -0.059141513 0.029124137 -0.05543807 0.09331298 0.18761031 0.032805916 0.14666873 -0.0856692 0.00054785796 0.09984187 0.021368323 -0.122320846 0.06875016 -0.104647316 -0.22832114 -0.14290339 -0.026964499 -0.12734441 -0.06493703 -0.09690104 -0.019180806 0.085123435 0.013781733 -0.08331008 -0.030267885 0.17940697 0.0068040593 0.16348454 0.14659777 -0.056121334 0.029611945 0.027305346 0.012790595 -0.0343101 0.12167846 -0.07991167 0.1428244 0.06170543 -0.0042191045 -0.1407485 -0.02667467 -0.08542832 -0.052331477 -0.016256262 -0.09992731 0.10081674 -0.009144418 -0.01633257 0.0021766645 0.062128574 0.113408394 -0.14411092 0.022870628 -0.09835024 0.04074675 0.048277605 -0.04978891 -0.037452165 -0.047346808 -0.03187001 -0.04606298 -0.057138704 -0.08545052 -0.11712223 -0.10900792 -0.00025684136 -0.11205339 0.013643099 0.06240465 -0.043044955
9 0.053147946 -0.19231737 0.09763035 0.11731343 -0.015854487 -0.0052766795 -0.097979516 -0.029558394 -0.11071228 0.11707426 0.16695666 0.08400799 -0.042914137 0.023875931 0.091298915 0.066985674 0.08812464 0.1156545 -0.07541436 -0.001558104 -0.0258176 0.1370634 0.044733506 -0.09690567 -0.09197362 -0.022824861 -0.002357475 0.03702101 -0.053776804 -0.13597782 -0.085791364 -0.00825117 0.08403128 0.102226004 -0.0012715448 0.05334681 0.15517993 -0.071739 -0.11989993 -0.030290578 0.020841453 -0.0451755 -0.052713636 -0.013705906 0.03224 -0.017065654 -0.04048563 -0.011985602 -0.054067966 0.09218996 0.015256105 0.04320533 0.08979444 -0.02202949 -0.09938225 0.094588086 0.07323013 -0.06918621 -0.006587062 0.055269007 0.008165573 0.056306124 0.08582344 -0.0048037083 0.11206104 -0.07573427 -0.010182696 0.071421444 -0.013597673 -0.015064659 0.010876635 -0.14510624 -0.16829251 -0.17911163 -0.009820983 -0.09216707 -0.0022164837 -0.09978974 0.050649773 0.05293614 0.004994464 -0.03936636 0.062148336 0.21486038 0.057343204 0.20948923 0.22420435 -0.18991084 -0.004723477 0.0027801795 0.010595734 -0.069964595 0.1390201 -0.03088328 0.23852757 0.1756226 0.058772046 -0.24780133 -0.031103328 -0.14552589 -0.08047606 -0.040418718 -0.026047131 0.065535 0.10151621 -0.004535825 0.04730531 0.05143375 0.103856824 -0.2205222 -0.0073999027 -0.072816804 0.087626725 0.079582885 0.06107822 -0.052388594 -0.03802058 -0.015543778 -0.03528413 -0.03206231 -0.085281946 -0.14447471 -0.18827963 -0.0202384 -0.12236902 0.14343162 0.07329103 -0.058007088
11 -0.02648495 -0.15787272 0.035350636 0.07119452 0.12090102 -0.11972281 0.03116788 -0.11354224 0.021534916 0.02164644 0.2324233 0.08969283 -0.04853449 0.048507076 0.021831892 0.071974635 0.010081132 0.014268227 -0.065773755 0.13687253 0.10198444 0.020595456 0.0009393079 -0.1578499 -0.13624956 0.07092453 -0.09920004 0.03982509 -0.017890176 -0.01545456 0.0337281 0.029703323 0.07948288 0.12703511 0.0700885 0.009154081 0.15265414 -0.01777389 -0.006050459 0.011152878 -0.07940229 0.08761494 0.08719312 -0.041076306 -0.018787758 -0.06079612 0.026037289 0.029347392 -0.16984501 0.14389879 -0.025388442 0.13082786 0.039302733 0.027570112 0.020558005 -0.03195948 0.11963338 -0.0747479 0.04454605 0.08224201 -0.043083914 -0.0059401784 0.040800564 -0.07033997 0.10679081 -0.12312211 0.034932207 0.06666307 -0.13460968 -0.05765835 -0.0218123 -0.14042284 -0.20406432 -0.13753161 -0.15762566 -0.016647343 0.08456629 -0.042198587 -0.067493476 0.120729566 -0.121209905 -0.047015835 -0.060464934 0.3091835 0.049276076 0.10637643 0.26110148 -0.04747732 0.11699486 0.08040266 0.012444656 0.026695313 0.20871712 -0.16066961 0.26865986 0.011192907 -0.028906235 -0.12470249 -0.08729613 -0.16280457 -0.02764852 -0.055412244 -0.07843233 -0.082716055 0.09382713 -0.00093975215 -0.011860903 0.008977397 -0.03072524 -0.1827665 0.12085641 -0.08119389 0.1501977 -0.035758536 -0.16426988 0.10719682 -0.07650672 0.04427508 0.09282321 -0.0065999078 -0.040819287 -0.13860196 -0.03936935 -0.011622505 -0.022291437 -0.009146325 0.07111272 -0.053867355
12 0.048327994 -0.18971904 0.12107333 0.22144592 0.04554083 -0.051382523 -0.024942117 -0.10026891 -0.12424477 0.13495328 0.21637471 0.08539437 -0.041380316 -0.012590721 0.007872114 0.08115345 0.023213135 0.070692815 -0.05028462 0.084932886 0.08169764 -0.00061391114 0.002339521 -0.102072455 -0.107443236 0.039689824 -0.13307191 0.08364641 -0.06300377 -0.03089213 -0.033319667 -0.021075461 0.057397775 0.12858589 0.12907831 -0.04111408 0.16089241 -0.15016873 -0.072865926 0.03573766 -0.047841325 0.094045624 -0.056180418 -0.06333912 0.03276623 0.008266726 -0.05314957 0.09289872 -0.12492385 0.07650887 0.062376603 0.08085885 0.06073182 0.027626472 0.079370596 0.024317762 0.14154524 -0.035082478 -0.11410614 0.053268135 -0.08488861 0.004681579 0.0684752 0.009071865 0.14579858 -0.18431978 0.0684638 0.112578556 -0.055438116 -0.08532121 -0.010800813 -0.15184703 -0.1429338 -0.06899961 0.025708506 -0.017586784 0.02421259 -0.06858714 -0.09366902 0.038593523 -0.015039451 -0.07656636 0.05671091 0.20685717 0.07460333 0.10514633 0.15500344 -0.11546146 -0.0052567385 -0.04170191 0.033512402 -0.033573836 0.13246915 -0.03258804 0.14074735 0.051123686 -0.06623643 -0.124489434 0.0045996467 -0.107393496 -0.09657245 -0.014192846 -0.056011762 0.022627618 0.069366105 -0.018981135 0.050743576 0.08136059 0.12859051 -0.19757828 0.009376886 -0.08182072 0.0113191595 0.028738562 -0.08623217 0.031410404 -0.008733588 0.029899208 0.0103816055 -0.021556275 -0.040925615 -0.13471493 -0.113573104 -0.020440895 -0.07066043 0.062128183 0.022421736 -0.10232603
13 0.01923772 -0.12787034 0.054737467 0.107366934 0.039575912 -0.023481485 -0.024241555 -0.031043708 -0.058799822 0.12887119 0.19743009 0.04360868 -0.1372515 -0.004049103 0.1323002 0.13422836 0.008697565 0.019819882 -0.06268502 0.063019864 0.046108402 0.0893667 -0.00558344 -0.11760214 -0.1932233 0.008752385 -0.11922617 0.0668738 -0.023128994 -0.08937169 -0.028687682 0.0662948 0.044437695 0.112519585 0.05695389 0.038818017 0.20282449 -0.069342256 -0.049935687 0.008473757 -0.05609087 0.055470623 0.01703705 -0.017123953 0.035654735 -0.03418591 -0.04376047 0.0457056 -0.09041727 0.0715392 0.07888712 0.0788994 0.038155623 0.03455832 0.042985488 0.050552037 0.16846864 -0.04971517 -0.035084825 0.0571626 -0.05446905 0.032626655 0.11182372 0.0084968675 0.102995396 -0.087904565 0.021232257 0.1017172 -0.063130505 -0.07761124 0.030959781 -0.12991767 -0.2128226 -0.13262989 -0.015557461 -0.039352827 -0.033949282 -0.05979635 -0.030002743 0.07930721 -0.015183092 -0.07792342 0.03535678 0.14407632 0.049748715 0.109713435 0.15865223 -0.03927689 0.029595232 0.058460265 -0.026163246 -0.035048682 0.15321964 -0.085349835 0.19319212 0.09781613 -0.00022041387 -0.12502657 -0.023105588 -0.06450996 -0.064954355 0.030994065 -0.0027999382 0.0061248415 0.050334796 -0.03387524 0.028746858 0.05288762 0.0646975 -0.14224184 0.053017084 -0.08437495 0.025537536 0.01832957 -0.0663757 0.009994511 0.01148455 0.03525385 -0.008964038 -0.04389626 -0.086194515 -0.13967049 -0.18328258 -0.0020581102 -0.088863954 0.009095061 0.056811873 -0.019602198
14 -0.039027024 -0.13328332 0.059447818 0.22688514 0.13762659 0.0070562917 0.043587837 -0.08360324 -0.0061690924 0.1461173 0.17019849 0.105321445 -0.11068197 0.009708944 0.08768035 0.19343546 0.15540646 -0.08427052 -0.07139119 0.13001265 -0.041173447 0.12545331 -0.035852626 -0.06296351 -0.09096834 -0.0079568485 -0.039984472 0.043425225 -0.040981777 -0.055244256 0.016734863 0.03479449 0.108804785 0.08623694 0.08117945 0.12313555 0.18004799 -0.060869485 -0.07955677 0.040054116 -0.13602938 0.064512566 -0.012161404 0.0034834363 0.03190312 -0.042627025 -0.12706476 0.11273812 -0.15873314 0.02774121 0.016103322 0.12995206 0.05791794 0.022766657 0.03741371 0.03870279 0.2261507 0.0051232 -0.09008438 -0.055558253 -0.06730541 0.1017487 0.18826808 -0.028896963 0.14634606 -0.10508253 0.012889959 0.06709484 -0.07326936 -0.03760966 0.082524315 -0.12527649 -0.2078141 -0.06789004 -0.08014555 -0.041347306 -0.033680625 -0.1400211 -0.03593477 0.12176134 -0.031423997 -0.13815266 -0.058079507 0.21226652 0.06709723 0.11612446 0.14221993 -0.07207449 -0.017099435 0.07556815 0.06224443 -0.1105076 0.09765849 -0.122481324 0.15929778 0.08879522 -0.028399073 -0.15910484 -0.055460166 -0.03200053 -0.054108 -0.06372141 -0.054526333 0.04339173 0.071339466 -0.1095453 0.00302643 0.10827074 -0.02060638 -0.080200985 0.092227496 -0.047225706 -0.019302089 0.030564578 0.004747851 -0.07216176 0.100745134 -0.04188909 -0.01720836 -0.0861933 -0.058637492 -0.13424158 -0.06019237 0.0049608722 -0.09970986 -0.02881935 0.016575726 2.757131e-06
15 0.04237227 -0.12466682 0.10357143 0.13587797 0.013476957 0.013781336 -0.007769418 -0.053131253 -0.033270776 0.14604262 0.1371518 0.052008945 -0.14153017 0.016124265 0.08522332 0.116326496 -0.028579442 0.0043102 -0.060046006 0.077210955 0.039364893 0.05467662 -0.034942415 -0.09608421 -0.18120323 0.016799344 -0.11632904 0.038840853 -0.06618494 -0.042075574 0.0018472404 0.045542028 0.03032583 0.12181936 0.102283254 0.013496125 0.1965121 -0.08062581 -0.03485917 0.009302059 -0.07447226 0.05219547 -0.0158945 -0.017281659 0.033639103 -0.04268278 -0.09158061 0.076500095 -0.0657636 0.06562823 0.04354196 0.109870225 0.08678415 -0.021590048 0.053871106 0.038229547 0.18488988 -0.04843829 -0.036390856 0.033578932 -0.05024596 0.0050729043 0.11327321 0.06410073 0.14401579 -0.0528465 0.013781829 0.088363364 -0.049411796 -0.15109706 -0.036694486 -0.09040791 -0.16678523 -0.105876386 -0.020353321 -0.031633172 0.03873507 -0.053440254 -0.030892707 0.06263673 -0.015576147 -0.08811584 0.010261895 0.16134697 0.05019909 0.11776895 0.19763455 -0.031167146 0.03903101 0.037887685 0.02576792 -0.045634855 0.11993643 -0.17057936 0.14226532 0.09202564 -0.0221172 -0.1407684 -0.024937533 -0.11763576 -0.060263615 -0.021166211 0.012875012 0.07884951 0.045498855 -0.027984181 0.01498417 0.040368207 0.072970495 -0.14455695 0.049561672 -0.066840634 -0.020275582 -9.824962e-05 -0.032891974 0.08428193 -0.043087114 0.037938014 0.02412403 -0.039244097 -0.10520337 -0.16291568 -0.13634068 -0.0010337431 -0.14375561 0.021967055 0.084952325 -0.07730065
17 0.039294228 -0.0938973 0.1521445 0.15168814 0.07898341 0.10338046 0.01512628 -0.028243748 -0.13667028 0.13166773 0.11669993 -0.007723761 -0.09591398 -0.13547085 0.14373133 0.17144488 -0.07653855 -0.0586919 0.023260672 0.031936374 0.08440778 0.09308602 0.0040111784 0.031241748 -0.24440673 0.10899207 -0.060486887 0.13826555 -0.013165456 -0.026376296 -0.03203416 0.14299294 0.04967369 0.12973936 0.06443927 0.040814657 0.19575456 -0.122790344 -0.0005880917 -0.027889987 -0.05588076 0.060888067 -0.047609847 0.048818044 0.03967088 -0.07908466 -0.101848476 0.14183582 0.056389727 -0.06436859 0.11747309 -0.06565508 -0.06575654 -0.035686776 0.10063842 -0.09565101 0.14520755 -0.051896274 -0.1361621 -0.001892879 -0.068143316 0.0065506054 0.18371266 -0.021425389 0.16615927 -0.03369191 0.010806388 0.092200145 -0.0661733 -0.15052716 0.040984508 -0.025587274 -0.29492158 -0.03280006 0.022107199 -0.001727343 -0.028513242 -0.06352468 -0.019981183 0.11378139 -0.057666536 -0.11818316 -0.10362057 0.28758642 0.046638887 0.16897605 0.19525446 -0.13317607 0.0666651 0.07148458 -0.050148133 -0.06755106 0.13570549 -0.14369224 0.064889565 0.09610778 -0.054999016 -0.11337126 -0.06298937 -0.047064282 -0.09436673 -0.009757115 -0.03397107 0.18142018 0.016866205 -0.09969986 0.0012273322 0.08756386 0.07988267 -0.17954382 0.07131053 -0.06102733 -0.07109779 0.10534284 0.03583484 0.09541378 0.021595232 0.07579742 0.029321734 -0.20557751 -0.17744426 -0.0790216 -0.061902855 0.06514635 -0.24119039 -0.011132267 0.08365019 -0.03086229
18 -0.0043357117 -0.15924194 0.062008444 0.16097122 0.029775353 -0.025282344 -0.041648917 -0.059906475 -0.05248109 0.13438715 0.17575999 0.04576876 -0.09798878 -0.014776537 0.12068606 0.11409939 0.003457177 0.008077379 -0.07872547 0.07632276 0.06655967 0.083303556 -0.007358733 -0.07622922 -0.15431888 0.025466114 -0.096905515 0.0535712 -0.018986622 -0.077644855 -0.039749008 0.04273648 0.028498212 0.09531491 0.046266906 0.043857742 0.15988918 -0.058503408 -0.047183987 0.0371902 -0.05967694 0.038471226 -0.013830167 -0.015267687 0.039887123 0.005599872 -0.08596301 0.04395589 -0.05531694 0.088226125 0.022724587 0.11287497 0.052279554 0.01042352 0.007239718 0.04865078 0.13692321 -0.04876378 -0.026931722 0.042726703 -0.040303145 0.017613558 0.14737359 -0.005347237 0.14341536 -0.07413388 0.03328391 0.045588613 -0.08755793 -0.082054496 -0.030129565 -0.12823085 -0.18208528 -0.116746396 -0.007489327 -0.046322398 -0.01271491 -0.05831709 -0.022712803 0.09593602 -0.027952448 -0.063874915 -0.0066121407 0.21533102 0.06800722 0.10824659 0.16660883 -0.062490974 0.018023223 0.040248122 0.011126249 -0.042728107 0.1540127 -0.09089126 0.16729157 0.0909998 -0.010510781 -0.13024807 -0.06550409 -0.08166569 -0.059335675 -0.013383203 -0.0028883687 0.06934877 0.054813888 -0.04998953 0.035803538 0.037703354 0.070011616 -0.13705271 0.040926166 -0.082707204 0.032170698 0.030643802 -0.050152842 0.02659611 -0.019048402 0.024803013 -0.0040939376 -0.07542562 -0.09371307 -0.11947764 -0.096784644 0.0055009443 -0.10163018 0.035493538 0.043152552 -0.060041565
19 0.023404049 -0.17639181 0.08710539 0.18760817 0.055840578 -0.0010419739 -0.017423816 -0.06928206 -0.0016328897 0.03139854 0.1889877 0.07811835 -0.13096997 -0.033065643 0.087151036 0.06760598 0.06571978 -0.04025337 -0.1769196 0.06705826 0.14908338 0.10238576 0.054166287 -0.12892528 -0.22579473 0.04916726 -0.11780554 0.063475795 -0.035418242 -0.028118335 -0.077225156 0.059074968 0.057862647 0.07744426 0.029089501 -0.05915622 0.13761707 -0.12993263 -0.12447151 0.07754787 -0.06337547 -0.083043136 -0.0015351931 -0.06144616 0.08428448 0.018374741 -0.14327915 -0.02573078 -0.049246788 0.058675382 -0.03515668 0.047641784 0.06951695 0.04508399 -0.008498264 -0.035195116 0.09197676 -0.0053112754 -0.05856934 0.10949981 -0.060531467 -0.01666029 0.0844723 0.014968427 0.120302305 -0.01808398 -0.042275738 0.04163633 -0.15653448 -0.0928452 -0.018872418 -0.18429142 -0.19027607 -0.11736379 0.06273918 -0.033286516 -0.023136485 0.0075494824 -0.012198475 0.037231807 0.016790517 -0.10840808 0.030469785 0.2912399 0.13090841 0.10907024 0.16689835 -0.0034140632 0.028738268 0.049018893 -0.0035490128 -0.028039929 0.2117504 -0.07969708 0.19542946 0.1516379 -0.05829196 -0.10787122 -0.04178407 -0.09886335 0.0049513504 0.021800704 -0.06766737 0.085821174 0.052055843 -0.08348921 0.104296796 0.06349997 0.0073229647 -0.1426625 0.020293433 -0.14791788 0.03312618 -0.031832658 -0.075756215 -0.029319711 0.089284144 0.006745579 0.08456359 -0.12750618 -0.04284669 -0.11069888 -0.09003581 0.026451718 0.018863833 -0.08930815 -0.024585648 -0.06607655
20 -0.042298324 -0.18298213 0.09444826 0.21834041 0.09769012 -0.008458865 -0.0064581484 -0.12032946 0.095892236 0.070357054 0.17724188 0.07620061 -0.06341605 0.017265715 0.0679259 0.100279294 0.059870448 -0.015719531 -0.040650237 0.051028855 -0.020728197 0.046215605 -0.086273596 -0.03520207 -0.104080364 0.05417485 -0.05764878 0.061512616 -0.090259925 -0.14612772 -0.016295668 0.01658067 0.021589167 0.13023512 0.08971304 0.0771098 0.16942693 -0.05544961 -0.019855274 0.017576654 -0.15335576 0.14780903 0.025399921 -0.039491806 0.04362827 -0.0817839 -0.12088396 0.061122946 -0.08792362 0.092032336 0.032729127 0.15824501 0.039570827 0.07072628 0.058027647 0.07147483 0.22120927 -0.06847425 -0.06678849 0.057926096 -0.022348093 -0.032471675 0.17311731 0.022560894 0.09482923 -0.07389581 -0.011440059 0.013637676 -0.0643313 -0.034451008 0.016130889 -0.12797032 -0.26814958 -0.11157513 -0.09401258 -0.09482717 0.017466092 -0.029529424 -0.051692992 0.14524366 -0.08046251 -0.11809081 0.061862387 0.1928766 -0.05137222 0.056053855 0.13656443 0.0017968295 0.07843316 0.06982274 0.059483416 -0.0068145082 0.18730894 -0.13228038 0.217166 0.032281984 -0.026058648 -0.11117599 -0.09619034 -0.028401753 -0.030567212 -0.036421675 -0.040219534 0.09875019 0.07249753 -0.06267676 -0.02226128 0.014938203 0.061458793 -0.19434442 0.116684385 -0.1080399 0.024096852 0.034792535 -0.052004408 0.011589686 0.002665363 -0.0051931613 0.014830108 -0.06734033 -0.045581628 -0.115453534 -0.017173285 0.009355434 -0.05325415 -0.015100455 0.08291868 -0.018791521
21 -0.0138609335 -0.17813629 0.11497958 0.17168638 0.060013246 -0.07592454 -0.020776754 -0.078174725 -0.06082343 0.08539202 0.25206816 0.080715984 -0.032117132 -0.03313607 0.16038735 -0.022867505 0.026723554 0.046517115 -0.0859564 0.010333318 0.052556448 0.09417409 -0.022090124 -0.10070181 -0.12493316 0.038087554 -0.08888913 0.101544514 -0.07801291 -0.091706336 -0.11511727 0.03475916 -0.02765776 0.044550765 0.06118807 0.093573496 0.24781324 -0.11331179 -0.075908415 0.006513909 -0.11296161 0.028041476 -0.014560682 0.007875533 0.041167255 -0.07060643 -0.14827049 -0.04526474 -0.047665305 0.18997706 -0.06759693 0.14151488 0.03161345 -0.01342008 -0.0749792 0.0035149124 0.1198032 -0.10671664 -0.024260903 0.08046478 -0.02323557 0.010314168 0.08460121 -0.101877965 0.10206296 -0.13124257 0.038087953 0.04940075 -0.0975415 -0.10091232 0.0072053443 -0.13153163 -0.17710513 -0.19438167 0.019712051 -0.0025358128 -0.056870572 -0.1933455 -0.010794603 0.04442597 -0.011994465 -0.026282258 0.12242601 0.17227913 0.021260926 0.10064903 0.1648975 -0.024313163 0.008366669 -0.009000481 0.028339611 0.0050963378 0.23553942 -0.057445817 0.114941165 0.10499332 0.031022042 -0.12051039 0.02419245 -0.12384494 -0.04556899 -0.037864927 -0.022506114 0.015204611 0.08717102 -0.008158568 0.0007769579 -0.020770881 0.09448387 -0.17873347 -0.0056078737 -0.08917647 0.039031785 0.06364893 -0.1325763 0.016575677 -0.060603812 -0.018756269 -0.017679268 -0.05847351 -0.037150815 -0.10750322 -0.07959836 -0.0404242 -0.04778489 0.08696303 0.104468204 -0.02276663
22 0.06232971 -0.1892708 0.056667015 0.18724504 -0.1327667 -0.16297597 -0.07217044 -0.052099604 -0.0038660178 0.04350771 0.104624175 0.02670909 -0.036673147 0.036307428 0.061986968 0.14038771 0.06722877 0.082250535 -0.046956178 0.070359476 0.011799635 0.11578964 0.10086402 -0.25737903 -0.15631723 -0.022846958 -0.20360951 0.08339363 -0.05864163 -0.066634744 -0.1447825 -0.007616542 0.0464466 0.1410979 -0.0061842483 0.0037458763 0.30042076 -0.09309075 0.06470895 0.068093024 -0.07567698 -0.033815842 -0.047639348 -0.08514333 0.048996884 -0.018348144 -0.16142236 -0.015779769 0.0055428003 0.15975724 0.028613307 0.07355551 0.0857266 -0.062018607 0.027131615 -0.04027372 0.06439632 -0.055874716 -0.0077654445 0.026174555 0.00469597 0.010693455 0.10586206 -0.028628355 0.0824689 -0.08688958 0.031362273 0.082047366 -0.037170183 -0.13886996 -0.009595386 -0.10470411 -0.13716358 -0.26721194 0.03271912 -0.08646637 0.09675548 -0.06335985 0.05636541 0.03588122 -0.041651726 -0.07426203 -0.041663382 0.17596656 0.038710486 0.14321616 0.12406303 0.0035621535 0.097123474 0.03549475 -0.03713331 0.080394976 0.1618766 -0.06504164 0.18332726 0.1116888 0.023355056 -0.22537795 0.07302955 -0.16676939 -0.072123215 -0.028957332 -0.021363644 0.034152564 0.15096286 -0.05881413 0.09961845 -0.09286569 0.12114834 -0.119075544 -0.013305754 -0.04410294 0.051035084 -0.028857848 -0.15272391 0.012955343 -0.15932389 0.0100847315 0.02449857 -0.0848844 -0.14699022 -0.16388087 -0.09439276 -0.027710408 -0.04782627 0.121296264 0.081977114 -0.077354774
23 0.028132807 -0.19022462 0.07877497 0.16203317 0.07386244 -0.04899624 -0.047219932 -0.07485395 -0.029385772 0.119127624 0.14074686 0.054155167 -0.08733156 -0.01131122 0.11322368 0.08603584 -0.0011313355 0.050236896 -0.10715686 0.11144623 0.0416414 0.0858201 -0.0043146536 -0.12225378 -0.12238089 -0.025217207 -0.089580424 0.076300316 -0.04382755 -0.07255792 -0.0061899624 0.048834346 0.07190166 0.064589694 0.073359236 0.059581738 0.18819779 -0.07166069 -0.08643494 0.009819822 -0.1032236 0.010280328 -0.009283232 -0.067946956 0.034261413 -0.032293912 -0.11888919 0.026085835 -0.054392904 0.114543244 0.00400479 0.11986147 0.13240306 0.0035954297 0.032693435 0.047277946 0.16368097 -0.04968491 -0.019974964 -0.0045121345 -0.027001027 0.011292818 0.118606225 -0.00029361583 0.13147472 -0.06539988 0.06202338 0.09396312 -0.04988173 -0.07090294 -0.016061818 -0.117678225 -0.19362308 -0.1098292 -0.025660433 -0.05340319 -0.032942332 -0.083501495 -0.03402774 0.087026685 0.008040212 -0.05437969 0.04398127 0.15871918 0.05436755 0.11375595 0.20292808 -0.06621652 0.040554598 0.05245542 0.033820737 -0.06386488 0.13124076 -0.11433539 0.12978452 0.09321616 0.009253533 -0.14132006 -0.06734866 -0.087796 -0.0426291 -0.022621922 0.0280416 0.03732501 0.08549689 -0.0124596795 0.027449453 0.032205842 0.057200868 -0.13166243 0.044626534 -0.05498305 0.056224417 0.0065301103 -0.056081716 -0.01202204 -0.035839815 0.012318706 -0.004801315 -0.014878941 -0.07875129 -0.13312955 -0.12581708 -0.030396024 -0.0996695 0.087745585 0.07499589 -0.01284087
24 -0.036064003 -0.15745287 0.03644574 0.1186104 0.047919463 -0.056312542 -0.04529456 -0.035983462 -0.019123076 0.044916987 0.1594651 -0.018879771 -0.04204716 -0.09878135 0.099551626 0.13304542 0.046345618 0.08114368 -0.06691374 0.029248789 0.031869955 0.08215096 0.033325095 -0.091746725 -0.055916328 -0.031689644 -0.06806352 0.13990797 -0.008609664 -0.09602998 -0.047314294 0.07336627 0.018875426 0.031001588 -0.021675933 0.08170487 0.11182945 -0.021672139 -0.036979087 0.028608976 -0.112358294 0.0336479 0.018121641 -0.076422 0.064223796 0.037309688 -0.17300688 0.033060413 -0.021007579 0.059279565 -0.040428605 0.031684343 0.02959909 -0.01991878 0.09140896 -0.03957633 0.13918418 -0.053860992 0.027393423 -0.003417949 0.011110496 -0.02336026 0.12233811 -0.055933885 0.17059143 -0.103765644 0.0038161979 0.12171122 -0.075091965 -0.11625639 -0.11425241 -0.21905723 -0.27379355 -0.19379096 -0.033265878 -0.061873768 0.0026212414 0.0010824703 0.02483759 0.08829436 0.0024096605 -0.036346037 0.03509253 0.24029765 0.114295274 0.11796994 0.2461274 -0.06782669 0.086712964 0.05316806 -0.03556625 -0.013204334 0.19212916 -0.0837497 0.223967 0.17996483 -0.010126365 -0.11467717 -0.11437329 -0.13493823 -0.03750441 -0.013536411 0.026387714 0.04876746 0.08295706 -0.03863819 0.051436324 -0.02525655 0.051606026 -0.16187306 0.011508487 -0.060162686 0.045222305 -0.02090864 -0.07158641 -0.08084356 0.0056843543 -0.029890433 -0.038806386 -0.08187171 -0.10794335 -0.11928777 -0.088494204 0.004552503 -0.01033375 0.08372424 0.10776668 0.013929624
25 0.164663 -0.16558267 0.021705922 0.15169081 0.04704157 0.051604 -0.028447373 -0.08579372 -0.056552198 0.082832076 0.16085042 0.016924884 -0.080000974 -0.007493287 0.057556167 0.09195504 -0.011217021 -0.008565773 -0.07974293 0.060991984 -0.0025779668 -0.022070276 0.018129403 -0.06521366 -0.11794114 0.02552786 -0.10699344 0.11326517 -0.06527951 -0.029433167 0.023018908 0.06357152 0.06322002 0.100667715 0.09439368 0.022151064 0.3166745 -0.09633498 -0.10313731 -0.031815253 -0.011733608 0.028227292 -0.049864873 -0.047443118 0.095704995 -0.05739907 -0.019747505 0.12552664 -0.10742778 0.1623354 0.081144586 0.084836066 0.13425913 0.12556295 0.026843566 0.078878894 0.15092605 -0.07849416 -0.107354224 0.055278175 -0.0878675 0.044794917 0.14053294 0.057187125 0.098085746 -0.11946548 0.018616373 0.05455078 -0.06382481 -0.040367693 0.022750236 -0.18978761 -0.10109702 -0.041157085 -0.06603845 0.038901754 0.012457274 -0.0069113807 0.0004962063 0.088740125 -0.054814335 -0.096651405 0.017463118 0.2130335 0.05197586 0.15450473 0.15317045 -0.1289708 0.07315304 0.022972006 0.04397151 -0.03991561 0.22732641 -0.08548045 0.20058313 0.08466845 0.01504085 -0.178404 -0.052029233 -0.034329005 -0.03013797 -0.040312927 -0.13310364 0.094915755 0.08269557 -0.023142274 0.04313959 0.096847676 0.0774711 -0.10850153 0.04110922 -0.072091766 0.06364379 0.032007746 -0.068730086 -0.034505054 0.009159957 0.064644024 -0.0029923583 0.013532083 -0.060955953 -0.0772949 -0.14242126 -0.0830965 -0.084685534 -0.038842898 0.056863595 -0.07823752
26 0.08463635 -0.25897303 0.09156564 0.25242075 0.1216483 -0.018442273 -0.036054038 -0.010891557 0.011681806 0.12805255 0.18075049 0.08100112 -0.1696806 0.038778506 0.18242763 0.10651351 0.076033965 0.08044164 -0.09917484 0.061135855 0.016714897 0.05732116 -0.05375143 -0.094487794 -0.03326447 -0.09250257 -0.038303647 0.048774563 -0.07070405 -0.061534878 0.0055941534 0.007859498 0.057264462 0.056345 0.108595215 0.0238897 0.20276096 -0.071550235 -0.020825103 -0.03985683 0.02547313 -0.032953087 -0.027342437 -0.048988625 0.083552174 0.002482571 -0.11803328 0.11842554 -0.1077474 0.22470535 0.012084717 0.15755288 0.10889514 0.08312966 0.084827214 0.036006056 0.19901551 0.0011779018 -0.07959788 0.031081453 -0.07296263 -0.02249941 0.15363966 0.017118521 0.108529635 -0.15675642 0.13825707 0.13454947 -0.18595137 0.019005092 -0.074681774 -0.11454082 -0.14336282 -0.0723476 -0.086072505 0.03156029 -0.099043995 -0.11578816 -0.10287854 0.07445254 0.028364597 -0.06315652 0.11529827 0.14616658 0.034449942 0.13011931 0.18929385 -0.059174363 -0.041136142 -0.017393187 -0.013807002 -0.07271609 0.12395609 -0.043405127 0.0741013 0.12158236 -0.032456975 -0.15901065 -0.066878736 -0.07579749 -0.04102765 -0.030691998 0.097956605 0.060410414 0.109045416 -0.013438179 0.09338209 0.005942897 0.08138313 -0.16078371 -0.010077118 0.05873669 -0.03962334 0.043369867 -0.092919156 -0.032357648 -0.06727339 0.07349057 0.003094177 -0.0043273475 -0.054169923 -0.1460044 -0.11264255 -0.05453763 -0.07477053 0.08698112 0.04755199 -0.028545791
27 -0.011824975 -0.29909602 0.08606018 0.2075498 0.03864535 -0.018629393 -0.090824634 -0.059857287 -0.0603965 0.12850383 0.12778498 0.0049669663 -0.08744659 -0.04075672 0.05809555 0.054884095 0.0162757 0.11336655 -0.13719344 0.14187802 0.041043457 0.10355566 0.05505415 -0.22379357 -0.077892125 -0.037767183 -0.11875294 0.18886828 -0.087400384 -0.08289762 -0.001368011 -0.00412852 0.15070514 0.018435704 0.0107766725 -0.016238274 0.21826527 -0.07237934 -0.056497622 0.0534108 0.0016952761 0.020846406 -0.10633847 -0.14927915 0.057545174 0.084356725 -0.055904865 0.088290356 -0.023676934 -0.017386574 0.053617537 -0.0037432355 0.16308291 0.030012038 0.027163513 0.0057288865 0.10241355 -0.02186672 0.036926277 -0.030522104 -0.00041647544 -0.055025946 0.03942956 0.042588517 0.12156087 -0.06297938 -0.025966063 0.04162564 -0.04657931 -0.04560211 0.03647569 -0.13349317 -0.15485574 -0.15503478 0.048086952 -0.09087109 -0.10011747 -0.041843995 0.010044639 0.014976777 -0.06385634 -0.08791584 0.035351407 0.1929026 0.101950236 0.17881279 0.13126408 -0.097758226 0.09634165 0.05029845 -0.004970576 -0.08240289 0.16183713 -0.0046815565 0.16117582 0.20745595 -0.05474101 -0.15301284 -0.035929885 -0.13432874 -0.072769165 0.031079004 -0.02566104 0.013654136 0.14117502 0.014395188 0.08567518 0.06470946 0.10875994 -0.19315161 0.03769491 -0.070495255 0.042192288 0.03892307 -0.044258077 -0.012932445 -0.06105299 0.086392425 0.032672442 0.02024226 -0.026553128 -0.13627268 -0.05883824 -0.026687494 -0.021995127 0.095062144 0.07563805 -0.042845324
29 -0.013845899 -0.06539066 -0.03113084 0.11032089 0.024455082 0.097771846 -0.017391883 -0.09880211 -0.106222294 0.064882934 0.13675207 0.057716947 -0.007355107 -0.012454331 -0.018246219 0.0921698 -0.041328967 0.0065444144 -0.14964837 0.14583781 -0.014377113 0.053052086 -0.042539254 -0.16973577 -0.102820486 0.024008248 -0.15781686 0.079791285 -0.06435988 -0.08471207 0.02193698 0.10461398 0.05325978 0.17718476 0.102745034 0.087292254 0.17092566 0.100639924 -0.067314886 0.02509301 -0.13366483 0.118845105 -0.09319617 -0.11064757 0.06706757 0.020066846 -0.036261518 0.10567222 -0.103656605 -0.050517127 0.06532399 0.009889708 0.03916504 0.046295304 0.02184142 0.09453992 0.18077844 -0.11819617 -0.036385674 -0.00962961 -0.0915904 0.007858825 0.11547408 -0.05582805 0.17161177 -0.13068736 0.032568578 0.030667635 -0.06527851 -0.19903563 0.01437642 -0.20761436 -0.16428965 -0.08830611 0.00018619334 0.053337403 0.022664826 0.044838626 -0.07925524 0.052561224 -0.13502814 -0.059157953 -0.0055662706 0.21647334 0.05806764 0.13978593 0.20232517 -0.18106751 0.09003959 0.052308854 -0.008770896 -0.04031753 0.16156259 -0.10032993 0.2025036 0.11208194 -0.10662184 -0.10571455 -0.099525906 -0.104284614 -0.14800802 -0.022507638 -0.044042464 0.15718059 0.02885613 -0.012213126 0.06575271 0.15882915 0.08767168 -0.154791 0.0076113716 -0.06868981 0.11718278 0.045068603 -0.10749479 0.009124675 0.013300214 0.053758536 -0.058209557 0.024019782 -0.11813883 -0.06491949 -0.1118652 -0.0010344154 -0.021095179 0.11336805 0.0006051378 -0.09379513
30 -0.04035415 -0.20208709 0.10604728 0.08177167 0.087857924 0.008031945 -0.016416118 -0.14864878 -0.0623585 0.066595085 0.19854814 0.040126525 -0.13766508 -0.050249953 0.10679359 0.107432246 -0.068854965 -0.02383732 -0.20912895 0.12170167 0.1221857 0.12627676 0.04177681 -0.14943299 -0.14736561 0.07139936 -0.096566714 0.005765016 -0.06246333 -0.1563374 0.0072994707 0.046835866 0.0615132 0.10443413 0.03983234 0.002674353 0.072667204 -0.07337762 -0.076534234 0.047059286 -0.053194128 0.064377025 -0.039265286 -0.019841043 0.04312062 0.06165221 -0.075772494 0.089259535 -0.12866156 0.020243458 -0.020667195 -0.0037017597 0.081655025 0.015415418 -0.07539884 0.013841744 0.17170367 -0.019063089 -0.035841078 0.03636013 -0.035029605 -0.028195867 0.13962206 0.048518036 0.11734412 -0.061450362 -0.046588298 0.030799625 -0.09859814 -0.08518411 -0.0078053866 -0.17617725 -0.14201766 -0.052583978 -0.053086977 -0.13349941 -0.087942585 -0.012782695 -0.06323274 0.0444601 -0.039210007 -0.12464126 0.057911158 0.22207025 0.07220811 0.14160107 0.2029425 -0.060343634 0.05369114 0.024649411 -0.026647342 -0.01611528 0.09524417 -0.100560926 0.17824078 0.06701266 -0.03595311 -0.05697426 -0.08820181 -0.1107429 -0.04764873 -0.011078765 -0.041595202 0.08315605 -0.0051971213 -0.064131744 0.08202336 0.10853118 0.07035682 -0.12151678 0.056191273 -0.10678754 0.008622198 -0.038879707 -0.012688788 -0.018515449 -0.0024703157 0.0778551 -0.00082665164 -0.13608752 -0.08569482 -0.15396689 -0.1676523 0.060967498 -0.13745357 0.023731869 -0.0074915085 -0.013417224
31 -0.027504869 -0.13821934 0.05630104 0.091190614 0.021174112 -0.013143349 0.02724149 -0.059874598 -0.05595453 0.067448564 0.13336176 0.030266585 -0.022469807 -0.030624323 0.06602697 0.094074965 -0.0013683726 -0.013156784 -0.103832565 0.069765516 0.061155643 0.092015386 0.015155328 -0.12664458 -0.1833773 0.04474921 -0.17360497 0.071758926 -0.0733557 -0.07086082 -0.025595173 0.03402401 0.08206006 0.15219283 0.07040228 0.020668857 0.17197107 -0.08086913 -0.05475528 0.057235174 -0.11895923 0.065527745 -0.020196615 -0.06504221 0.074683465 0.033758387 -0.07034878 0.07614864 -0.059206296 0.056635253 0.009528769 0.044021357 0.06495476 0.008376677 -0.0073978817 0.033230312 0.15857124 -0.07377091 -0.060416482 0.022553276 -0.01987953 0.006527488 0.13831632 -0.03302248 0.1710579 -0.074095644 0.03291573 0.014932551 0.0028085862 -0.15060939 0.05151676 -0.17632478 -0.15783274 -0.14044566 -0.013628207 -0.089535795 0.027863722 -0.08813544 -0.053385954 0.06750093 -0.036631472 -0.09761666 -0.011861583 0.22862077 0.058714125 0.11276231 0.16949406 -0.08490133 0.07828338 0.03341445 -0.00093031314 -0.008073247 0.17302935 -0.10462021 0.21112415 0.050441813 -0.023066984 -0.09018112 -0.07590373 -0.10474467 -0.06125994 -0.025515348 -0.07983638 0.09228163 0.011107746 -0.03769508 0.020244198 0.048852287 0.09343876 -0.08354387 0.020141859 -0.078982 0.043306552 0.042573657 -0.09217006 0.014054484 -0.024320249 0.028854035 -0.06280613 -0.076695144 -0.11478306 -0.120980605 -0.098558865 0.012281247 -0.09043603 0.07489691 0.101253994 -0.027449634
33 0.05994388 -0.11670437 0.13362336 0.091537245 0.008113263 -0.07429604 -0.031527273 -0.09213564 -0.12447003 0.1493533 0.20534368 0.07253124 -0.08764323 -0.030888991 0.14307924 0.10519465 0.008622348 0.04655458 -0.062026642 0.13208884 0.121657416 0.04140285 0.011773603 -0.16363433 -0.22483885 0.043150287 -0.15030704 0.009861552 -0.009704474 -0.053161703 -0.0807484 0.028438972 0.003923016 0.11852962 0.04422596 0.030579427 0.19565877 -0.046255346 -0.011433944 0.05844489 -0.02164097 0.08694871 0.00385919 -0.033730242 0.041595902 -0.020546388 -0.14239773 0.012768767 -0.09429518 0.08637395 0.02108035 0.098036535 0.09395703 -0.09667342 0.06457814 0.04045556 0.14024162 -0.096113265 0.04626976 0.06156031 -0.045615956 0.051156193 0.14549682 -0.010307674 0.12671609 -0.10376512 0.041881394 0.030190267 -0.03519151 -0.20544007 -0.058946665 -0.1284848 -0.12613681 -0.16683047 -0.012376415 -0.04089138 0.014896602 -0.043349326 -0.02136991 0.033644725 -0.023332683 0.008842216 0.0003672926 0.19944115 0.070457056 0.15476312 0.2685668 0.016013853 0.042187046 0.03108963 -0.025519146 -0.030973513 0.105510406 -0.0009333547 0.14818615 0.06584091 -0.039211527 -0.07034338 0.013448483 -0.15296023 -0.0109034395 0.021704776 0.011164334 -0.023253515 0.13299538 0.008179086 0.10203972 -0.107718095 0.025563259 -0.18481348 0.037321094 -0.073845774 0.09884749 -0.024053073 -0.05718387 0.047462076 -0.116888 -0.01895132 -0.022505475 -0.0018224241 -0.07409634 -0.16475362 -0.066050746 -0.006240708 -0.06381318 0.056976575 0.007174234 -0.08439219
34 0.037636224 -0.10613392 0.091711506 0.14140835 0.03825347 -0.035162874 -0.079940245 -0.08445627 0.0019183235 0.08513337 0.07108003 -0.009110501 -0.08467003 0.02248148 0.116638 0.105780266 -0.03718224 -0.037134584 -0.06976535 0.16186112 0.069711834 0.12590475 -0.0028755106 -0.11408031 -0.20391512 -0.022856256 -0.13971181 0.1289155 -0.049351532 -0.09034779 -0.066108584 0.053133316 0.048771903 0.062467456 0.09501174 0.034321185 0.1763762 -0.07046016 -0.058756217 -0.024811536 -0.13573128 0.09619712 -0.016597243 -0.03420987 0.014625039 -0.03304418 -0.12138171 0.042541157 -0.10549979 -0.004315226 -0.0065777195 0.1071558 0.16558355 -0.053799715 0.06429753 -0.012358857 0.17312863 -0.060781896 -0.035977557 0.011908918 -0.0171591 0.044496596 0.13306186 0.047893602 0.13289459 -0.09604217 -0.0037867767 0.08917003 -0.045520097 -0.10501455 -0.06142107 -0.10244161 -0.11791795 -0.025091 -0.039876405 -0.033407252 -0.006281769 -0.108658575 -0.053825654 0.0004321468 -0.100849904 -0.09905338 0.05790816 0.11092299 0.0769803 0.15657772 0.23768753 0.034385085 0.05660887 0.06511385 0.05942437 -0.0741352 0.14699794 -0.07622304 0.09658211 0.09279102 -0.00076173554 -0.11612006 -0.054637127 -0.060973503 -0.07436898 -0.07963183 0.047471035 0.0007349875 0.07997854 -0.0430032 0.08131514 0.058372673 0.14607409 -0.17545393 0.024633287 -0.065718085 0.0009291069 -0.03413324 -0.0752916 0.05526664 -0.04893359 0.032528162 -0.0069394805 0.004316511 -0.14423549 -0.2625209 -0.18602087 -0.033782307 -0.12252565 0.03695074 0.041120272 -0.0072963363
35 0.0055762064 -0.1349923 0.13256015 0.10998731 0.03685175 -0.019021114 -0.094397746 -0.0800119 -0.05275836 0.07889686 0.2030855 0.016694253 -0.0011195306 -0.016449694 0.023896277 0.07201851 0.08343575 0.14324509 -0.17424253 0.058437157 0.06592361 0.05993667 0.043232363 -0.054863114 -0.21881571 0.010156301 -0.093595535 0.044826616 -0.009472163 -0.08885171 -0.09651243 -0.03373617 0.03009031 0.07685376 0.12144821 0.15330379 0.18142301 -0.092078306 -0.13512433 0.008053391 -0.13280295 0.024897544 -0.07936035 -0.028038982 0.014406709 -0.0024576364 -0.010113823 -0.0068926034 -0.057622064 0.11035015 -0.070282295 0.13513267 0.09634436 0.059813738 -0.03648255 -0.0150736235 0.11722796 -0.121792935 -0.06377775 0.038410272 -0.035739984 0.026683696 0.17570043 -0.045584213 0.11641243 -0.061235588 0.055187922 0.16763562 -0.03382985 -0.13693488 0.072285816 -0.097692646 -0.24666072 -0.17122194 0.042837363 -0.07993753 -0.042378064 -0.100982666 -0.058614258 0.042789213 0.038994495 -0.10986127 0.014670777 0.21246135 0.09767465 0.17789286 0.11937448 -0.049041517 -0.0046829972 0.114175126 0.10332941 -0.03036227 0.16975349 -0.015207109 0.20199762 0.13082206 0.02221337 -0.18235551 -0.08339027 -0.12537925 -0.028980233 0.0007743695 0.047954746 0.04565418 0.060337327 -0.008087074 -0.083663456 0.074995056 0.026677003 -0.11897306 -0.06601884 -0.14976448 0.08535852 0.028187232 -0.02952946 0.06804447 -0.00342387 -0.018424563 -0.0047799223 -0.10681771 -0.0055632684 -0.09906654 -0.027121281 0.07969427 -0.04439771 0.08463309 0.064651296 0.051989544
37 -0.01072585 -0.27279824 0.060147766 0.1985226 0.059422906 -0.0870079 -0.028732155 -0.10841064 -0.06465736 0.12962672 0.1905464 -0.0014740981 -0.1018417 -0.10159153 0.035672065 0.13273785 -0.090645 -0.023053959 -0.12350329 0.12235229 0.066143505 0.17595327 -0.0957745 -0.18050665 -0.08396692 0.014635116 -0.116298765 0.08289429 -0.031651963 -0.1023307 0.05516075 0.1127309 0.11652721 0.034460146 0.015624158 0.07542982 0.25399297 0.002428021 -0.11859182 -0.034324285 -0.08519162 0.008811159 -0.037916765 -0.10954555 0.0008918507 0.040563855 -0.13609546 -0.036202855 -0.024914177 -0.017248906 0.00082657835 0.12497383 0.10828792 -0.03709425 -0.054077875 0.025160441 0.19905663 -0.08083524 0.07417546 -0.08571645 -0.024405912 0.05315802 0.16634822 -0.06252103 0.17430232 -0.025794853 -0.064816736 -0.018160207 0.03606444 -0.08696036 -0.069165036 -0.060016476 -0.27674392 -0.04949728 -0.033538535 -0.09149592 -0.081323 -0.052920457 -0.021403547 0.10867833 -0.0831097 -0.027309995 0.017871195 0.17022957 0.0327424 0.14866439 0.15928139 -0.09703535 0.0724435 0.085854016 0.028364656 -0.15101686 0.07725907 -0.01965327 0.05841687 0.014945861 -0.028562026 -0.096183315 -0.098908834 -0.07228894 -0.015231855 -0.02079181 -0.10242252 0.11638331 0.074836545 0.036338016 0.007709191 0.028465627 0.08898395 -0.1703002 0.06904386 -0.09107056 0.11908928 0.013178273 -0.023979459 -0.081628695 -0.05080829 -0.06430056 -0.00046234453 -0.012895349 -0.05233606 -0.086950436 -0.017208816 -0.0972421 -0.12423716 0.08569073 0.09195505 -0.06266453
38 0.0085267015 -0.14146475 0.08574226 0.12640746 0.017449781 -0.0016589657 -0.014860395 -0.065831974 -0.048321813 0.11138976 0.13622205 0.050255165 -0.07827582 -0.004518874 0.09381902 0.09385412 -0.03380285 -0.022620622 -0.06514973 0.05929643 0.05288821 0.105760664 -0.033711642 -0.08890621 -0.17056778 0.05140627 -0.073047616 0.06755309 -0.046487607 -0.089755856 -0.05223577 0.06794973 0.024831422 0.12923048 0.05020161 0.059787937 0.15434913 -0.049118415 -0.091955766 0.014144984 -0.0854786 0.02866675 -0.032572687 -0.020462656 0.04570581 -0.022987071 -0.096219495 0.047037687 -0.069324195 0.05007728 0.026068745 0.067459896 0.064656146 0.016345084 0.00758038 0.0537316 0.16243592 -0.057236567 -0.033925667 0.048380397 -0.048805922 0.039657343 0.14227068 -0.0011879525 0.14653951 -0.07689415 -0.016126584 0.044287134 -0.07826714 -0.096406735 -0.011110022 -0.13753466 -0.19693261 -0.12671965 0.0035768037 -0.037112225 -0.03172311 -0.07208491 -0.03212662 0.064484194 -0.051451303 -0.075329155 0.011604807 0.21060258 0.056783307 0.12491903 0.20113817 -0.075115755 0.047336616 0.05699663 0.022473209 -0.047863603 0.17232609 -0.10705869 0.163234 0.10116611 -0.018388214 -0.111571305 -0.041690454 -0.06703642 -0.05195164 -0.049877223 -0.03833531 0.07756445 0.051283784 -0.045482 0.009496578 0.062358018 0.06934088 -0.16174863 0.048023216 -0.0805909 0.017196363 0.019054519 -0.04024214 0.0009794966 -0.027394151 0.014708957 -0.028166115 -0.06103386 -0.068840235 -0.12389735 -0.12910837 -0.0033226912 -0.12649961 0.0385128 0.074292265 -0.06338778
40 -0.047129836 -0.1940028 -0.020270333 0.09835638 0.08157764 -0.098756455 -0.0025907557 -0.09966805 -0.07438435 0.15618655 0.14321327 0.0739624 -0.07675786 -0.031833217 0.016213847 0.01894493 -0.05666901 0.054791592 -0.088195086 0.10933939 0.15378138 0.084084995 -0.0011280038 -0.11257924 -0.22952984 0.05193897 -0.13740754 0.11952035 0.0073249657 -0.13877633 -0.029862797 0.06165394 0.20050861 0.15506712 0.1639251 0.018025108 0.14801955 -0.0044170325 -0.1200601 0.061392296 -0.1065928 0.020069279 -0.017251818 -0.08343214 0.06103432 -0.06572539 -0.07619468 0.081158616 0.0030474523 0.017935116 0.07255208 0.061469052 0.12419658 0.11735116 -0.09593406 0.08970885 0.14106748 -0.066104524 -0.042605605 0.045060392 -0.09919044 0.048625797 0.14138088 0.03062484 0.13914618 -0.06014382 0.13587992 0.069310546 -0.07691596 -0.08681369 0.04562832 -0.055267125 -0.17908359 -0.13161922 -0.011494987 0.0069066347 -0.040172197 -0.03448042 -0.04383318 0.08760975 -0.04428131 -0.0783946 0.015546857 0.16818184 0.07740269 0.061490215 0.13674945 -0.16215372 0.020887807 0.033385236 0.04477015 -0.055545118 0.116613366 -0.15171894 0.164221 0.14740114 -0.0025587229 -0.12640092 -0.06171256 -0.07600312 -0.06505332 -0.022286216 0.048176643 0.023268595 0.09233789 0.054799873 0.039616972 0.20018032 -0.027543806 -0.12069619 0.080663234 -0.09210072 0.054563727 0.0023958294 -0.10917707 0.031825025 -0.019798838 -0.0022126473 0.042370085 0.047771532 -0.004121579 -0.10302912 -0.07585173 -0.01881237 -0.06897834 0.04373201 0.10017326 -0.062257905
42 0.0862353 -0.16868162 0.15237425 0.14994979 0.015161455 0.0026925004 -0.07570693 0.056256544 0.0029742508 0.21442 0.1293149 -0.004821517 -0.1079548 0.092142254 0.10419711 0.23305216 -0.060927555 0.052936465 -0.097812936 0.03824678 0.1073433 0.062785394 -0.018289214 -0.07448663 -0.03810231 -0.113800816 -0.04279944 0.1454221 -0.025020817 -0.1192274 -0.029015923 0.05698704 -0.053845666 0.056245506 0.0350205 0.09168784 0.19118966 -0.1089479 0.041280873 0.033037946 -0.08952069 0.07872168 -0.123544015 -0.060087632 0.016432786 -0.0072583905 -0.05682624 0.13747899 -0.17911579 0.042707972 -0.035822216 0.14891084 0.08008118 -0.025971489 0.07087043 0.059030063 0.30404317 -0.029042948 -0.06517786 0.053019635 -0.031889744 -0.004431122 0.10762912 -0.018016158 0.098659754 -0.1372808 -0.002985508 0.15119506 -0.07324847 -0.016260719 -0.030566383 -0.16967428 -0.299562 -0.08883878 0.006157466 0.021324145 -0.060255583 -0.02480242 0.0099099055 0.14294738 -0.0055212495 -0.072211735 0.017903171 0.18795796 0.11482205 0.19433732 0.15035574 -0.023990482 -0.049556132 0.040043645 -0.034821417 -0.1485396 0.13772215 -0.10289908 0.14776145 0.12792775 -0.014759055 -0.18956025 -0.002588735 -0.029246962 -0.07949895 -0.008321276 0.012485521 -0.04014663 -0.0325412 -0.021287872 0.11996688 0.014787252 -0.059883956 -0.04973457 -0.08874623 -0.038676433 -0.005594939 0.04794533 0.03794147 -0.104873836 0.011126038 0.08813798 -0.06987585 -0.02009501 -0.046338547 -0.11748952 -0.25671414 -0.021481087 -0.08018626 -0.0234833 -0.010081923 -0.084383965
43 0.00801239 -0.15555136 0.069709726 0.17170966 0.07785194 -0.046436634 -0.084387116 -0.066869155 0.020376256 0.05153734 0.068175465 0.02666194 -0.10334671 0.011521603 0.13695833 0.061455283 0.051345184 0.01700237 -0.0737384 0.07625151 0.03118203 0.09300153 -0.014448684 -0.085074104 -0.14232534 0.011446043 -0.05603961 0.061681118 -0.089069605 -0.073669 -0.03269216 0.063319124 0.036596492 0.088753164 0.015697751 0.07877083 0.16072077 -0.015736409 -0.06268014 0.014142927 -0.07413037 -0.004724891 -0.04361323 -0.06210567 0.035212874 -0.008030301 -0.08763428 -0.0152086485 -0.096967265 0.05334955 -0.016109865 0.0876143 0.09820002 0.028256442 0.04616155 0.027550891 0.12193289 -0.009106484 -0.07624356 0.052646767 -0.0663891 0.040072817 0.15980276 -0.023669945 0.15933801 -0.06620505 -0.00027551092 0.024801519 -0.08469349 -0.033968568 -0.00030211304 -0.17443341 -0.20305656 -0.12679172 -0.018738916 -0.038615447 -0.06393579 -0.07537481 -0.044390198 0.08082607 -0.03540079 -0.09890528 0.020799803 0.21647951 0.07034639 0.08285587 0.19800837 -0.08701505 0.020251308 0.059813663 0.005669911 -0.056198623 0.1841051 -0.14661475 0.12989095 0.0756362 -0.049079895 -0.14874193 -0.07766128 -0.05625273 -0.059317637 -0.015577944 -0.009612347 0.052069943 0.04334285 -0.109297514 0.047803517 0.09980054 0.069928944 -0.1837551 0.011865911 -0.1475728 0.02148444 0.020126306 -0.09341146 -0.059589744 -0.005511202 0.016424393 -0.020648595 -0.05267174 -0.04223066 -0.16468714 -0.10327191 -0.022948869 -0.08597756 0.04982195 0.089125544 -0.037624072
44 -0.037851416 0.014962313 0.017665558 0.06048837 0.06765896 0.112507835 0.05293392 -0.007361701 -0.09095719 0.2898326 0.14171034 0.044192288 -0.2419598 -0.03555742 0.1875189 0.11112814 0.0987728 -0.08732772 -0.06276174 0.06458073 0.078219466 0.13599901 -0.083851896 -0.08876963 -0.2826179 0.1212562 -0.13364828 0.036004696 -0.008757741 -0.051326245 -0.00013792895 0.06821935 0.042837985 0.11889226 0.017839901 0.03339668 0.18877482 -0.14467771 -0.11153721 0.0701704 0.094733536 -0.012918574 0.024173265 -0.047806554 0.08637992 0.0036620176 -0.02328831 0.06738701 -0.0860716 0.027217034 0.12562457 0.14620613 0.035552114 0.026929537 -0.025263557 0.08524401 0.16540195 0.024117645 -0.035635382 0.03437635 -0.074177675 0.0003184545 0.10191152 -0.023724467 0.16793442 -0.038131457 -0.020232033 0.06161598 -0.075494505 -0.13396336 0.10377669 -0.14997718 -0.2076645 -0.14341244 -0.037450563 -0.09949089 -0.103877574 -0.033910602 0.009917028 0.0745443 0.034742437 -0.009203893 -0.07313563 0.17755567 0.08330156 0.14098969 0.11250559 -0.026813284 0.0067092897 0.07437664 -0.036910314 -0.1063755 0.19093738 -0.18065363 0.17403957 0.094179384 0.018023808 -0.120732486 -0.03880137 -0.12782733 0.030321077 0.026060339 0.015620704 0.10706035 0.05130203 -0.065066926 0.029542198 0.030752992 0.059855316 -0.1606701 0.08275443 -0.0696473 -0.00056216284 0.020488562 -0.010533274 -0.031570185 0.06645172 -0.001090949 0.047384746 -0.015720192 -0.07357516 -0.10011154 -0.20634143 0.07806924 -0.13427334 -0.04972971 0.015165243 -0.051752657
46 -0.01359599 -0.11640288 0.12678647 -0.00045478626 0.058313705 -0.042756826 -0.009193115 -0.03835386 -0.09555922 0.19261673 0.24573094 0.18547222 -0.13501969 -0.035233177 0.19331741 0.16705826 0.15526743 -0.0125691965 -0.124152996 0.19186552 0.039335415 0.122661136 -0.004075926 -0.2521808 -0.18390697 -0.026397133 -0.05008683 0.09556906 0.010812612 -0.10036199 0.0026729966 0.010719459 0.020943213 0.10777668 -0.02418225 0.10236401 0.16942807 -0.04133501 -0.023220222 0.07476035 -0.06470426 0.10345605 -0.03814862 -0.029323604 0.10010579 -0.029353684 -0.22994028 0.09727138 -0.09587259 0.10032354 -0.04894874 0.12481656 0.04106952 -0.0529601 0.0530348 0.06039167 0.19440708 -0.049763773 0.0586084 0.04035546 0.030524472 0.039312996 0.10982643 -0.10088243 0.054967206 -0.12638672 0.030301861 0.11926251 -0.049299415 -0.064607926 0.056834992 -0.15567613 -0.12927634 -0.12878047 -0.03740412 -0.062324572 -0.06073406 -0.034416378 0.017973159 -0.011680023 0.04818164 0.027911806 0.022554899 0.28305104 0.10824462 0.15133666 0.23853241 -0.01599902 0.01860381 0.09665713 -0.021378318 0.07746256 0.050636362 -0.13035016 0.14052361 0.12844041 0.038234282 -0.10249482 -0.014118284 -0.144342 0.013526762 0.072421856 0.06546416 -0.09224892 0.06368014 -0.02910078 0.037209515 -0.026965002 0.05767995 -0.124692865 0.080810145 -0.0019673605 0.0051691504 -0.1009509 0.043972056 -0.07964859 0.0049418113 -0.079372995 -0.08485993 -0.06552625 -0.07884657 -0.109382115 -0.14897858 -0.037070382 -0.10639669 -0.0131144 -0.0056561776 -0.017335512
47 -0.0075731813 -0.19294496 0.123509444 0.053877443 0.055414934 -0.025566997 0.021960145 -0.10347357 -0.03330536 0.17156214 0.20960388 0.02991067 -0.099740334 0.005402707 0.055969857 0.14278659 0.028200068 0.020043701 -0.19441943 0.15734264 0.14127336 0.14183179 0.014664911 -0.17579979 -0.2009501 0.025196435 -0.14203808 0.13257001 -0.00070624915 -0.10367009 0.030543244 0.009499284 0.06971867 0.11563116 0.088629924 0.034424208 0.23379646 -0.029516952 -0.019337859 0.025664084 -0.06083858 0.056314226 -0.060448606 -0.050586797 0.07057836 -0.008594082 0.036605265 0.059123397 -0.08864457 0.063930884 -0.07898112 0.10185768 0.110357985 0.018657876 0.03734686 0.045767434 0.20077792 -0.074018076 -0.007016144 -0.0008980074 -0.007987278 -0.0074927765 0.143811 0.0111995265 0.08876007 -0.044503797 0.12823954 0.056939807 -0.0040461468 -0.09748765 0.11392377 -0.10790305 -0.16592054 -0.07751136 -0.0995256 -0.057972524 -0.02047362 -0.049326196 -0.07251224 0.08849799 0.012128533 -0.099606276 -0.0220722 0.15814406 0.02847755 0.115225315 0.1266666 0.0008679977 0.037737064 0.09182504 0.016705424 0.010991657 0.0727922 -0.033027127 0.19447772 0.05827473 -0.07241081 -0.15558869 -0.13398041 -0.06386477 -0.05740801 0.08898677 -0.011061819 -0.021979427 0.052508615 -0.04006216 0.008688469 0.01803607 0.11999528 -0.11107799 0.011303811 -0.04226059 0.033006977 -0.007964252 -0.0353565 0.033558417 -0.076198004 0.022689257 -0.008861991 -0.06547662 -0.08566826 -0.14337292 -0.079120554 -0.033364967 -0.08921441 -0.009314905 0.08394688 0.009635819
48 0.020256458 -0.17899726 0.08936138 0.176543 0.05660251 0.017003374 -0.090668045 0.06509016 -0.027519926 0.09006531 0.13105187 0.06693508 -0.20419712 -0.00048544072 0.06205727 0.015538866 0.05850296 0.067923665 -0.20585573 0.06979863 0.05246548 0.17276208 0.051031474 -0.18831481 -0.18439525 0.08658724 -0.1491137 0.10241863 -0.063547306 -0.14920889 -0.027782537 0.0009642783 0.08799121 0.04611215 -0.034761664 0.038159497 0.20697215 -0.013651027 -0.028707715 0.08287699 -0.06245522 -0.08918907 -0.031306203 -0.11450593 0.07617133 0.06501921 -0.1222604 0.034362495 -0.1260653 0.10061504 -0.11210127 0.06445345 0.13027109 0.064613454 0.0073947697 -0.0012579544 0.08025889 -0.015600586 0.0047017764 -0.046092834 0.020774249 0.034548245 0.09630202 0.012440135 0.15249316 -0.039399825 0.006548523 0.10639429 -0.07784108 -0.054723993 0.13750291 -0.20052178 -0.2157637 -0.16113153 -0.006304373 -0.030647784 -0.06251469 -0.07779458 0.030581089 0.07457953 0.08704314 -0.06741238 0.019752368 0.13659438 0.059988365 0.09674632 0.14227453 -0.061161563 0.045627277 0.052996576 0.002750249 -0.06683972 0.17702013 -0.16427869 0.13540313 0.09511 0.023198176 -0.11560629 -0.05972545 -0.13688074 -0.047897436 -0.001034209 -0.058606844 0.109601654 0.08618655 -0.07152031 0.015965896 0.044440273 0.05320139 -0.1390962 0.038889788 -0.10507108 0.08076042 -0.039584223 -0.047780365 0.005407304 -0.016708722 0.004932135 0.011277846 -0.06932108 -0.033041313 -0.08522688 -0.059856173 0.0038501304 -0.024480669 0.018587606 0.011830416 -0.030146144
49 0.09163928 -0.14664146 0.094395526 0.17111541 -0.013261267 -0.12702084 -0.121496595 -0.097137794 -0.084510036 0.10610708 0.32149094 0.098027796 -0.19066878 -0.026808513 0.049532518 0.19867684 -0.0718013 0.0444014 -0.09408162 0.14585105 0.0459408 0.016356109 0.042643424 -0.1236542 -0.15986146 0.12700188 -0.0894761 0.037179954 -0.10909074 -0.08638627 -0.07539517 -0.09131233 0.10510945 0.11368467 0.061258007 0.036783952 0.12647903 -0.14114456 -0.07046671 0.052779127 -0.07658406 0.12917875 -0.13704467 -0.1086687 0.023607798 -0.019918025 0.0014140987 0.09833747 -0.10619207 0.10808912 -0.013679729 0.08963126 0.00508704 0.020593405 -0.013999848 0.028215101 0.13101283 -0.00034005588 -0.07396512 0.069811486 -0.05730815 0.018041467 0.10356945 0.11014887 0.0693798 -0.11295714 0.06761758 0.14992742 -0.024102487 -0.11270736 0.05122486 -0.14293613 -0.11169998 -0.12003894 0.019119246 0.042171367 0.028314015 -0.03859426 -0.06018747 0.049236216 0.048342302 -0.11320374 0.021579733 0.20090374 0.0072798734 0.16313028 0.08898847 -0.09687319 -0.037168395 0.01562164 -0.03220244 -0.046001136 0.1303449 -0.14984202 0.1497433 0.07992615 -0.05580812 -0.09297785 -0.0025683558 -0.18512794 0.024956394 0.06310542 0.018876728 0.08790464 0.03841023 0.038730294 0.17446892 0.13791817 0.08741517 -0.14095566 -0.031307552 -0.19187504 0.029656608 -0.041702557 -0.089190245 0.033187337 -0.03791697 0.034624007 0.0025169146 0.022094354 -0.054423634 -0.12981735 -0.063526064 -0.011394583 0.06945451 0.020003662 0.063016996 -0.029938705
50 0.03255645 -0.12773143 0.12380192 0.11560518 0.06914348 -0.0912375 -0.044435874 -0.064297795 -0.041463617 0.17827164 0.15408279 0.008475323 -0.10506867 -0.032499295 0.13496014 0.044807255 -0.07059748 -0.032500375 -0.075989425 0.10509013 0.062714905 0.04797393 0.07105359 -0.08810466 -0.07041358 -0.0021615 -0.09275107 0.13040088 -0.06229642 -0.043917857 0.005781308 0.08228598 0.021701217 0.118935935 0.014560475 0.038767714 0.3086953 -0.17801729 -0.035550926 0.00188479 -0.011629105 0.045287322 -0.025357226 -0.09762335 0.014558181 -0.043483548 -0.13368154 0.0040655658 -0.03454499 0.0829952 0.12341665 0.0754491 0.031809535 -0.031626433 0.10775751 -0.006667398 0.2094591 -0.03638837 -0.03312737 0.06593358 -0.05990843 -0.017301042 0.075879075 0.06304797 0.050400104 -0.07397663 0.025374204 0.08205259 -0.062122107 -0.07027566 -0.017942715 -0.09397258 -0.18223895 -0.118829876 -0.032520574 -0.110826656 -0.01998621 -0.09516688 0.0022322098 0.075852595 0.02307438 -0.07115364 0.030459613 0.23475783 0.035345685 0.13265173 0.1955737 -0.058157746 0.09506099 0.047142625 -0.047495507 0.012968647 0.14169203 -0.006589781 0.122926615 0.053365607 0.003112942 -0.14805278 -0.06082533 -0.104844816 0.00058601913 0.02748081 -0.023275387 2.3368757e-05 0.13294989 -0.082910135 0.0957113 0.05362338 0.086908296 -0.12867953 0.06694837 -0.05455301 0.06531322 -0.020040972 -0.055733867 0.007014461 0.0013038357 -0.0030812663 0.021775682 0.011310502 -0.090707265 -0.16742481 -0.1485951 -0.014763128 -0.14162098 0.029883638 0.004288676 -0.061464652
51 -0.028576829 -0.12114485 0.017787348 0.060310196 0.023520203 -0.10613335 -0.024049792 -0.06543061 -0.00849445 0.12867782 0.18865503 0.01582398 -0.07354101 0.035351217 0.0904022 0.12045427 -0.0043672607 -0.0028736973 -0.032489106 0.04038892 0.14245012 0.06584197 -0.03080152 -0.09320523 -0.20021978 0.076937996 -0.10913381 0.021779837 0.016946707 -0.123538986 -0.16127191 -0.040089022 0.11059803 0.15662572 0.052913036 0.028070977 0.1726016 -0.07769861 0.015650356 0.09764467 -0.043345068 0.025092702 -0.0032380046 -0.021969326 0.008399761 0.036290787 -0.02978582 -0.020132642 -0.019351779 0.08483273 0.013474059 0.1557377 0.13809259 0.035332322 -0.06798988 0.013583931 0.1295861 -0.05423559 -0.021388508 0.07497137 -0.025037186 0.000107424275 0.21360356 -0.016350895 0.18792081 -0.06180051 0.07027481 0.025036404 -0.010256595 -0.12423388 0.009499497 -0.12112631 -0.21263345 -0.11970266 -0.03326305 -0.16947459 0.0025370796 -0.06315852 -0.030806703 0.11852084 -0.10192223 -0.090771675 -0.0519175 0.24071608 0.072494216 0.15152155 0.17808549 -0.10645226 0.08161338 0.06971152 0.05996759 -0.050555777 0.11180858 -0.05492525 0.16975631 0.026326975 -0.04787832 -0.077842854 -0.10035185 -0.0976736 -0.050849758 0.013496142 0.026350465 0.0537786 0.047509957 -0.040085003 0.06927238 0.026040986 0.13523622 -0.19018081 0.080813445 -0.13000292 0.050720602 -0.026657838 -0.08716946 0.008581844 -0.057439208 0.0056722774 0.017170934 -0.053918555 -0.11690465 -0.0934201 -0.006722235 0.0058461553 -0.048783954 -0.0069566583 0.042510424 0.0010142814
52 -0.046387997 -0.12197621 0.14223506 0.20428193 0.0512031 0.05370913 -0.07832551 0.0022361013 -0.0078781815 0.06145527 0.10358871 -0.031967252 -0.020457847 -0.02428868 0.057912435 0.038765136 -0.024521422 0.03251314 -0.0032251126 0.06760108 0.027874151 0.07851057 -0.0048324256 -0.054505587 -0.26240474 0.006008201 0.07455643 0.12240177 -0.06463591 -0.059109837 -0.049835008 0.071812436 0.10511893 0.08381917 0.031018214 0.026642999 0.12824978 -0.07305287 -0.11477419 -0.0662805 -0.07546073 0.029790265 -0.046957366 -0.04182803 0.09964451 0.0021902684 -0.05705136 0.03201342 0.047758747 0.026383393 0.032945435 0.05564852 0.118973315 0.05413473 0.041459847 0.02496864 0.111370675 -0.057452954 -0.0040160874 -0.015144879 0.01728456 -0.037849255 0.13673696 -0.06572102 0.19215435 0.03112112 -0.043266583 0.052797068 -0.020136315 -0.0875567 0.0232236 -0.11009618 -0.22383508 -0.102759846 0.0018725273 0.034010105 0.019019147 -0.051010348 -0.012324483 0.08397746 -0.04191753 -0.08909568 0.04670091 0.3167727 0.09558573 0.0706411 0.1932747 -0.07379979 0.076158054 0.04579782 -0.02050378 -0.10446171 0.20148432 -0.27984083 0.14143364 0.09675711 -0.03573247 -0.109454304 -0.054949775 -0.178528 -0.05562251 0.026770066 0.035781257 0.13786907 0.058977377 0.014663821 0.007981749 0.075720906 0.11620459 -0.2208703 0.029129907 -0.108137354 0.016933532 0.04482323 0.003040806 0.023660623 -0.029198997 -0.023699034 0.042095173 -0.07496432 -0.13014051 -0.21268128 -0.06529095 -0.047304034 -0.12837714 0.010149946 0.055840228 -0.10707455
54 -0.040224593 -0.1002673 -0.014618567 0.084818326 0.046022817 0.02077699 0.09554004 -0.025085537 -0.045094166 0.13116755 0.14922589 0.02811178 -0.071622476 0.016410764 0.09099951 0.15856588 0.029352881 -0.04229104 -0.101184264 0.10579284 -0.0011294244 0.13648559 -0.067991704 -0.14009324 -0.120191485 0.020470947 -0.16787231 0.08422815 0.010957528 -0.11212386 0.03946199 0.06717928 0.0109371515 0.05195993 0.0025880446 -0.00086632086 0.06052465 -0.08910625 -0.07627393 0.019367605 -0.1158556 0.13951215 -0.09260306 -0.066993654 0.071322374 0.015652344 -0.10851692 0.022784317 -0.05565273 -0.030022664 0.069700144 0.064978056 0.08863013 -0.015888406 0.022492731 0.020123992 0.27536443 -0.03591928 -0.100836635 -0.021355767 -0.044794336 -0.03008398 0.11683233 -0.0182857 0.10738514 -0.12440122 -0.056764454 0.004154449 -0.014978777 -0.16989544 0.07115976 -0.17973208 -0.33896357 -0.17258993 -0.024365649 -0.0807256 -0.077615075 -0.09007505 -0.10940642 0.06470641 0.0050508375 -0.12811874 0.050003897 0.12656306 0.062563606 0.12123155 0.14074449 0.025588932 0.037689045 0.09405182 -0.107968025 -0.06838647 0.17251764 -0.16286793 0.17340359 0.13516267 0.047898754 -0.15648142 -0.0001823288 -0.07523125 -0.020224411 -0.10266071 -0.058488023 0.08077569 -0.02069967 0.06887907 0.033583935 0.09347212 0.17272474 -0.1978208 0.020047618 -0.031858023 -0.017978068 0.10575598 0.027639164 -0.039328717 0.051067945 -0.049266312 -0.033835635 0.06294436 -0.115386 -0.14692387 -0.1204859 0.018531075 -0.043087117 0.050950736 0.111275904 -0.039371297
55 -0.006595416 -0.12872906 0.10789692 0.14348015 0.04309207 0.033852223 -0.030109173 -0.033024687 -0.090365164 0.119932815 0.10050049 0.03432703 -0.077414565 -0.017484555 0.06132899 0.08952361 0.010028837 0.029678414 -0.15040497 0.110803396 0.059890058 0.069008194 0.02664678 -0.13795741 -0.1596407 0.025479253 -0.14074956 0.1542874 -0.05585472 -0.04842607 -0.014180516 0.0068595265 0.08834862 0.078410074 0.052598827 0.013145767 0.26286486 -0.07112436 -0.057415165 0.02876618 -0.06501231 0.05369388 -0.025072174 -0.07936997 0.06125349 0.0059191515 -0.09021413 0.0727114 -0.103686474 0.023530886 0.008309487 0.11112764 0.14879304 0.047083467 0.07087971 0.03990188 0.22980876 -0.0056633055 -0.10044698 -0.004957993 -0.044423908 0.02145262 0.12212293 0.010741297 0.13250506 -0.071154885 0.031905092 0.07929761 -0.09477329 -0.103176095 0.073887356 -0.19482626 -0.18359223 -0.09250806 -0.032618638 -0.12120357 -0.068376265 -0.10191261 -0.024339447 0.01867918 -0.016439086 -0.1389353 -0.02887184 0.19653201 0.05091925 0.13620518 0.16264491 -0.047421247 0.033754937 0.073006235 0.030943934 -0.04771266 0.14679481 -0.041391127 0.05708166 0.054053918 -0.055200137 -0.1356907 -0.033071566 -0.114175834 -0.03724457 -0.037944764 -0.051975347 0.09432775 0.030838994 -0.09119629 0.05327593 0.087267645 0.06826583 -0.09672133 0.06588424 -0.06847324 0.029329352 0.008091128 -0.010678283 -0.006275613 0.007681694 0.08104026 0.007978108 -0.05051791 -0.039118323 -0.13362163 -0.06427722 -0.013013541 -0.08076466 0.010162493 -0.010487923 -0.048776284
56 -0.060040556 -0.19615509 0.18016751 0.15554565 0.023265215 0.029488858 0.08378336 -0.14047061 -0.07790223 0.18995069 0.1425583 0.048686314 -0.050240584 -0.041765664 0.079030946 0.089544244 -0.06991969 -0.06866024 -0.15132311 0.08648375 0.11641542 0.15863374 -0.007816202 -0.11745725 -0.20894857 0.01265746 -0.091413625 0.12962152 -0.011819113 -0.008480729 0.007821812 0.00083250896 0.07398257 0.06586803 0.016420608 -0.024033803 0.19356701 -0.09216481 -0.07628338 0.048438396 -0.026169254 0.122069135 -0.04975776 -0.019057874 0.014605586 -0.054027747 -0.06631963 0.10369176 -0.08218838 0.032704767 0.047354482 0.09537502 0.15343346 -0.0133783715 -0.05706393 0.06866161 0.24735622 -0.09322057 -0.024600223 -0.030809231 0.004723126 0.084699 0.18103929 -0.09886068 0.13188127 -0.007321338 0.008020996 -0.049059525 0.076461874 0.010690813 0.06870742 -0.02684294 -0.14820193 -0.08482797 -0.054406006 -0.086881705 -0.06931595 -0.09881314 -0.052650113 0.06856037 -0.01455208 -0.06515547 -0.0026300102 0.26533255 0.078638755 0.16716652 0.19346812 0.01010251 0.030767895 0.075621285 0.06129622 -0.12858999 0.15430829 -0.09848247 0.17112157 0.0072393036 0.042005744 -0.12055289 -0.032733846 -0.0893145 -0.033239093 0.0027547125 -0.101369105 0.019195186 0.010420615 0.046161026 -0.037871987 -0.03183469 0.054482646 -0.14384474 0.12868999 -0.09009354 -0.022807539 0.065654606 0.08010385 -0.046279177 -0.06621645 0.0077866972 -0.05222798 -0.065475285 -0.06306988 -0.14928226 -0.14507313 -0.0070013274 -0.21905774 0.012115633 -0.0131424405 -0.06613094
57 -0.0107539175 -0.27598456 0.11285523 0.17270046 0.13766164 -0.114852294 -0.11786478 0.009237211 -0.021006268 0.17141138 0.17591019 0.13295507 -0.15807885 -0.023802588 0.11360325 0.037137643 0.10157415 0.021709712 -0.03941868 0.11320762 0.08662668 0.07943646 0.116933115 -0.09828869 -0.071982965 -0.041250564 -0.06257117 0.030335799 -0.008048296 -0.16598225 -0.0028476163 0.0022170187 0.15737717 0.09889766 0.049604096 0.021909038 0.10688041 -0.06616369 -0.042443857 0.02844974 -0.082506105 -0.0745159 -0.010053114 -0.12533127 0.038798735 -0.026750945 -0.13827081 0.008585285 -0.10278495 0.06257918 0.0400574 0.021967553 0.035330143 0.021147896 -0.037054915 0.032505903 0.06555676 0.0368714 0.016458482 -0.003912135 0.0476717 -0.0019110243 0.055860702 0.07452677 0.14190502 -0.13655771 0.0595494 0.1217534 -0.103926934 -0.034674536 -0.04784121 -0.19015963 -0.21138948 -0.15222053 -0.07495727 -0.10276078 -0.015668353 -0.090450205 0.05503019 0.122716695 -0.013250208 -0.039712287 0.011657359 0.20267245 0.065720655 0.104639284 0.19431816 -0.09563134 0.012233799 0.040375568 -0.033809155 -0.020836474 0.09533328 -0.15352033 0.085343935 0.09847541 0.021623658 -0.17570902 0.010087783 -0.08258302 0.07391287 -0.023380227 -0.0038681393 -0.026744632 0.057139926 -0.14023943 0.09579943 0.15955402 0.028414335 -0.11485545 0.036721077 -0.044345193 0.12386335 -0.12250685 -0.08451859 -0.0800538 0.005475671 -0.028493363 0.056624558 0.0036042735 -0.10297223 -0.22807892 -0.14761773 -0.03177237 -0.080173574 0.09538274 0.05316304 -0.08331445
58 0.10443504 -0.20436855 0.065924846 0.21213005 0.07858291 -0.08948979 -0.108269125 -0.03415921 -0.032433514 0.082371615 0.1321345 0.052347634 -0.09225711 -0.05768031 0.09341303 0.07483615 0.034601722 0.05637706 -0.09865648 0.10778704 0.070261955 0.06670967 -0.018426608 -0.16184309 -0.11858073 -0.034280118 -0.11842597 0.11993502 -0.023523407 -0.077863336 -0.05799067 0.042196702 0.110718824 0.12131328 0.073098905 0.01971598 0.12858489 0.022772314 -0.10221968 0.025929715 -0.07603455 0.00823191 -0.058721248 -0.091809615 0.0956088 0.03332386 -0.15427503 0.03069675 -0.085385665 0.07027921 0.036158185 0.0705483 0.09721619 0.026303997 0.058804605 0.071592025 0.16444522 -0.019721594 -0.07181872 0.07776764 -0.021241985 -0.0060321055 0.103041254 0.010755453 0.1203499 -0.12788811 0.07734017 0.0462037 -0.124886885 -0.0749506 -0.065174475 -0.18046983 -0.14014539 -0.12413761 -0.01771817 0.001764644 -0.081646815 0.025023805 -0.06929337 -0.006094098 -0.02676099 -0.049461745 0.061122008 0.17690732 0.03636697 0.06096899 0.17574582 -0.1328372 -0.00058233313 0.021095583 -0.017035497 -0.06660533 0.17902173 -0.046974912 0.10846095 0.108763784 -0.06497853 -0.14667045 -0.057824507 -0.0382572 0.0211762 -0.05129763 0.01841021 0.045479666 0.1086825 -0.030297471 0.09275969 0.05336355 0.12345998 -0.16100244 0.03427994 0.027243791 0.08930577 0.00514304 -0.084750295 -0.017915614 -0.044247493 0.03633661 -0.0121441735 0.07387712 -0.086123206 -0.16201594 -0.13041781 -0.022612054 -0.06802412 0.058725018 0.103399724 -0.06458211
59 -0.07030768 -0.13771863 -0.08818227 0.12423163 0.059496332 0.01145041 -0.08851249 0.032511584 -0.03040514 0.13010612 0.118395925 -0.02602036 -0.09013188 0.018401418 0.14740609 0.14208677 0.010510116 0.04088689 -0.06557362 0.103973046 0.008805163 0.044736072 0.008459751 -0.17819962 -0.1713243 0.008167805 -0.08004797 0.17386626 -0.051792488 -0.057023793 0.013194933 0.047226485 0.07253787 0.060250204 0.059469946 0.027641997 0.15535273 -0.12800269 -0.029312352 0.051321894 -0.101642594 0.0013330478 -0.032105006 -0.096579775 0.09912028 0.019837487 -0.041578423 0.10748359 -0.035238698 0.16282631 0.08290053 0.16555558 0.1291541 0.011190705 0.07502255 -0.041825395 0.17075224 -0.038267165 0.023893105 -0.041627724 -0.05966067 -0.055207957 0.17581654 0.08148516 0.24255686 -0.04192838 0.114190616 0.15415587 -0.13987502 -0.15627883 -0.03899161 -0.24128477 -0.11952756 -0.12845847 -0.035170823 -0.024113722 -0.003214318 -0.076090686 -0.05810539 0.07158961 0.04625422 -0.067923635 -0.03268825 0.15522046 0.05070494 0.04472118 0.15410289 -0.09251809 0.04213176 0.06816596 -0.010829982 -0.048475884 0.14521728 -0.18985938 0.128198 0.05886814 -0.00031814876 -0.15180117 -0.034618787 -0.23887353 -0.069903284 0.026273565 0.086706355 0.056781795 0.06999209 -0.06689774 0.042371523 0.021862464 0.052817404 -0.049823157 0.076182805 -0.08664007 -0.026776517 -0.0018410413 -0.04927699 0.09350882 -0.027792236 0.05074528 0.0643805 -0.04094437 -0.07711129 -0.15538032 -0.06015006 -0.021003148 -0.07920503 0.09621955 -0.01804958 -0.09150235
60 0.014285408 -0.18826859 0.04659835 0.15250735 0.0973768 -0.02700845 0.029483858 -0.12420679 -0.033918787 0.21413888 0.19374385 0.021499965 -0.13828893 0.029280808 0.018115839 0.14704116 -0.0715976 -0.03444886 -0.15520202 0.082474925 0.11572367 0.02063063 -0.034796264 -0.05274111 -0.11493233 0.028862685 -0.10958014 0.08794156 -0.030495016 -0.09868276 -0.030045174 0.04487993 0.09036775 0.14098679 0.049179576 0.004585099 0.1923626 -0.051673412 0.021424385 0.07752705 -0.07747874 0.12878741 -0.04182946 -0.04736109 -0.017068502 -0.036062922 -0.032133363 0.12952285 -0.08484915 0.025873518 -0.014573523 0.03944564 0.055520713 0.06323572 0.030534208 0.016549975 0.18893284 -0.07919727 -0.05423712 0.07369466 -0.07267511 0.034211922 0.12688105 0.027988384 0.10798005 -0.11092248 0.083100595 0.02239366 0.008560353 -0.06348584 0.042023886 -0.060334407 -0.16161065 -0.11542775 -0.059763532 0.029920634 0.012142465 -0.043741718 -0.09238017 0.11674692 -0.07672474 -0.117057875 0.06420564 0.15502034 0.05187802 0.09906392 0.14370114 -0.06931312 0.0012779703 0.029847464 0.023584628 -0.088888615 0.1262245 -0.08710901 0.18345353 0.07274491 -0.06620517 -0.067854956 -0.047964852 -0.052228406 -0.07142256 0.060031485 -0.087906465 -0.008502555 0.019455409 0.059411343 0.033332072 0.09855637 0.1369531 -0.21509297 0.058354136 -0.106726974 0.031372502 0.0779687 -0.13238466 0.031175807 -0.036540333 0.06108035 -0.010430635 0.027122822 -0.12802282 -0.18796918 -0.094948865 0.018952988 -0.058346506 0.03741412 0.077248685 -0.073596574
61 -0.019557841 -0.09559457 0.001600088 0.12514655 0.026425539 -0.030858884 -0.032740243 -0.039060038 -0.028910529 0.07309725 0.11843978 -0.06799531 -0.0862463 -0.01213777 0.10134631 0.08922686 -0.15706581 0.05382447 -0.15884279 0.067717455 0.10933266 0.086221546 0.045489527 -0.24772424 -0.22131072 0.011967495 -0.17731832 0.082893565 -0.088924095 -0.0929989 -0.0058756853 0.07962471 0.04021073 0.13899851 -0.01350788 -0.030498998 0.18230596 -0.048710823 -0.11168107 0.016470611 -0.1000778 0.0013486054 -0.11722792 -0.1590157 0.06582908 0.096767046 -0.08554524 0.08876448 -0.10370873 0.17149259 0.06879292 0.14084518 0.078287505 0.035069298 0.018091885 0.0069289794 0.26621586 -0.10602278 -0.03452822 0.04595264 -0.12589933 0.009580773 0.21951447 -0.042825617 0.12160748 -0.09663681 0.01913073 0.048615575 -0.06518773 -0.03554914 -0.1440347 -0.05507173 -0.17973286 -0.14292331 -0.0017435064 -0.0011165194 -0.041115038 0.03485449 -0.08542523 0.10240815 -0.016881688 0.003991904 0.059989344 0.1607377 0.044106975 0.03925853 0.16548364 -0.006587883 0.065299444 0.053446256 -0.123325266 -0.025532557 0.17296396 -0.1952119 0.14425199 0.061248075 0.04473927 -0.10818517 -0.09908328 -0.057325084 -0.026147962 -0.0042762384 0.094876915 0.08941065 0.0014324143 0.021072399 0.079296544 0.036129944 0.060920577 -0.05572655 -0.05029442 -0.06902993 -0.012058862 -0.017500296 -0.051308785 0.012475553 -0.080037564 0.076471895 -0.025667978 -0.031697173 -0.11374378 -0.059382387 -0.12184403 -0.049705766 -0.07780936 0.13464841 0.07837002 -0.044820976
62 0.06850573 -0.17576922 0.12899429 0.08396122 0.10892115 -0.13117105 -0.040708058 -0.08869285 -0.03384336 0.13853665 0.24643254 0.042119715 0.056776103 -0.025070015 0.039381497 0.032426 -0.045273736 -0.040106054 -0.07225303 0.13163926 0.07808678 0.080275975 0.039010603 -0.088363595 -0.20382293 0.079535685 -0.013092207 0.115545005 0.03674278 -0.13513754 -0.151352 0.118763514 0.11502262 0.18711022 0.14646976 0.066994786 0.15096964 -0.03906896 -0.15175371 0.015853265 -0.12736286 0.05882277 -0.07662971 0.01113002 0.053224694 -0.0810518 -0.07620221 0.0020125727 -0.06031563 0.057988405 0.045372274 0.034570727 -0.046585098 -0.006036449 -0.033416543 0.10621745 0.13132793 -0.11574771 -0.024045914 0.072833344 -0.08557093 0.07020646 0.09494897 -0.017612208 0.012346882 -0.06872686 0.113336705 0.04513761 -0.049042817 -0.03338747 0.05257024 -0.06302359 -0.16190664 -0.12890604 0.016221253 -0.0139147155 -0.06313139 -0.06358974 -0.032086458 0.027728403 -0.091507785 -0.16024451 0.044776276 0.19759132 0.016779495 0.067180395 0.14678447 -0.1388525 0.0047930665 0.112403885 0.005583636 -0.037018918 0.165247 -0.05960954 0.26900113 0.11997801 -0.04375671 -0.16892362 -0.06448009 0.024397505 0.025552062 -0.00035103873 -0.017091911 -0.08352822 0.1822065 -0.06814877 -0.019804973 0.16251764 0.06958121 -0.16786887 0.051269792 -0.0424368 0.10154854 -0.040571086 -0.046115775 -0.0383895 -0.049475502 -0.0075429506 0.010227202 0.034717843 -0.043188907 -0.20751616 -0.15144902 -0.054299857 -0.0859066 0.06842934 0.095376424 -0.015750082
63 -0.080124654 -0.18117975 0.023567453 0.10187864 0.046343427 -0.07196089 -0.09663465 -0.03345275 -0.037203535 0.10278083 0.25705382 0.07411424 -0.08235973 -0.04228296 0.16509645 0.1290281 -0.021512546 -0.017396256 -0.05028182 0.121250734 0.0076926663 0.09853765 -0.06325575 -0.14670567 -0.066200614 -0.038721718 -0.06564021 0.02545742 -0.06491346 -0.14594759 -0.041906696 0.039753992 -0.020173943 0.03226791 0.050486017 0.09825154 0.12251215 -0.05259017 -0.05659554 0.018617215 -0.07273877 0.015421955 -0.06150878 -0.027608758 -0.06135597 0.02635192 -0.04621303 0.0054821307 -0.07462307 0.08994411 -0.01658985 0.12101396 0.007627301 0.008200801 0.031474333 0.06512341 0.14615366 -0.07764173 -0.052073255 0.06847303 -0.020177457 -0.08851002 0.12288749 0.0031540839 0.15458535 -0.09910849 -0.017294537 0.14856054 -0.108234294 -0.039045494 -0.029175295 -0.19849966 -0.2481913 -0.1965226 0.052559886 -0.13131939 -0.077508576 -0.16504161 0.003229836 0.13584194 -0.05986711 -0.040386185 0.031220319 0.12538865 0.06833628 0.12591913 0.14212824 -0.035355955 0.02598005 0.09215252 -0.0070493915 0.01276414 0.101213 -0.052422047 0.19991042 0.13101315 -0.002399931 -0.20441188 -0.026832892 -0.06490997 -0.065950364 0.02407432 0.04569729 0.0027600692 -0.012354298 -0.10466098 0.043443557 0.074758895 0.13040231 -0.12664212 -0.020304617 -0.049345136 0.07458256 -0.024423717 -0.060581896 -0.07935609 -0.02000371 0.009600703 -0.0062511973 -0.025588084 -0.059936076 -0.11482285 -0.13726386 -0.008052672 -0.08805547 0.11837786 0.07407959 -0.017573187
64 0.008272438 -0.22394404 0.09571369 0.17273226 0.023839211 -0.05901185 -0.042977404 -0.0391847 -0.0380059 0.08267987 0.19091558 0.05099893 -0.14245193 -0.05628977 0.10667206 0.050453473 -0.03479498 0.07042048 -0.11292513 0.0775507 0.09771917 0.13144524 -0.03304239 -0.092884034 -0.12597327 0.027216872 -0.13855016 0.029911842 -0.09120556 -0.08718095 0.011352844 0.07014293 0.047668677 0.063019134 0.044490185 -0.0020795492 0.13028957 0.007394383 -0.052495632 0.047180686 -0.08968271 0.019379584 -0.016004654 -0.05232706 0.013643478 0.013597069 -0.06598266 0.049705733 -0.09871174 0.077947855 0.05052133 0.015027626 -0.009759315 0.0683503 0.05322383 0.03288964 0.094809555 0.008771393 -0.057929154 0.025003057 -0.05879599 0.006874764 0.10710892 0.0152614415 0.15663253 -0.03912948 -0.019921087 0.06474932 -0.03726211 -0.062897235 -0.03667737 -0.15528925 -0.23961401 -0.12158725 0.036924742 -0.10428987 -0.01760626 -0.04338681 -0.025005074 0.101522736 -0.0150583815 -0.10603466 0.0724572 0.15989296 0.080206074 0.17205107 0.24583426 -0.11328198 0.06582005 0.029101124 0.001507106 -0.044444423 0.124599166 -0.106899895 0.1720814 0.10337342 -0.061969746 -0.031715002 -0.15064837 -0.014809204 -0.0065768873 -0.03378434 -0.026895598 0.1443581 0.048998438 -0.06486509 0.05228439 0.10433223 0.07648128 -0.19436797 0.06378046 -0.10463251 0.045379847 -0.05004467 -0.1266177 -0.03679706 -0.037377782 0.01675697 -0.022074917 0.0053856396 -0.01284601 -0.066220865 -0.10891785 0.015357511 -0.053266987 0.07341789 0.10253534 0.007815175
65 -0.015683133 -0.25441217 0.014130689 0.26079744 0.02088582 -0.03295495 -0.08343458 -0.13423729 -0.04722669 0.09783319 0.22205491 0.09023159 -0.12616086 -0.06030699 0.16323422 0.17654629 0.048006143 0.035985395 -0.07900285 0.11716529 0.08655095 0.11792119 -0.046619013 -0.10969768 -0.20174961 0.0066085528 -0.13615514 0.15177368 -0.13851237 -0.10091485 0.024092026 0.10078082 0.09231016 0.11986928 0.033088468 0.08311178 0.114847586 0.014578945 -0.013651337 0.009303233 -0.08749467 0.14197667 -0.06972424 -0.04977761 0.024441874 -0.056597427 0.0062062717 0.113767006 -0.12369064 0.0143659655 -0.0016885138 -0.016678471 0.024348782 0.040715992 -0.034871485 -0.117415935 0.062131487 -0.08470302 -0.020877812 0.013649828 0.0038030704 0.00089159294 0.10657793 -0.0034588205 0.1628051 -0.05527614 -0.0031412907 0.0067811483 -0.08816156 -0.12187592 0.012210669 -0.17581525 -0.14700645 -0.18584828 -0.07572504 0.07685246 -0.03992401 -0.04942861 -0.07380766 0.039301615 -0.094764635 -0.080812104 0.008183178 0.23994012 0.010266174 0.098601036 0.17423478 -0.028828597 0.11047494 0.023105608 -0.09530818 -0.07132599 0.19393957 -0.11415759 0.16187067 0.074257724 -0.02184014 -0.067531966 -0.0075367833 -0.09373827 -0.031236975 -0.015078651 -0.0388447 0.061924484 -0.019762987 0.04090247 0.0366232 0.03263612 0.05181888 -0.09536753 0.05572801 -0.07507773 0.055051405 0.05077642 -0.13896579 0.07591146 -0.045331717 0.042752553 -0.019071573 -0.023407977 -0.0020146444 -0.11119442 -0.05240665 -0.0023869933 -0.03535255 -0.011826209 0.059253514 -0.014792454
66 -0.002092743 -0.065534346 0.045038097 -0.023668718 -0.041339073 -0.07268795 -0.10774268 -0.029988935 -0.021948034 0.080004744 0.14620736 0.009372711 -0.09942485 -0.016876183 0.059580784 0.014403222 -0.09929113 -0.037426375 -0.12596451 0.12217841 0.08761651 0.10445531 0.020056954 -0.18769595 -0.17354186 0.09921699 -0.029352294 0.03562325 -0.039704077 -0.11923271 -0.032995466 0.040342636 0.06480505 0.10663052 0.020800984 -0.01732249 0.26251304 -0.04755372 -0.05954448 0.057798855 -0.009985658 0.00189859 -0.05993612 -0.04586319 0.033151224 -0.020880416 -0.013345509 -0.0074447477 0.015829762 0.060970977 0.10869079 0.06795774 0.08182669 0.091747336 0.123821616 0.22215956 0.13385758 -0.025020797 0.021818666 0.118666224 -0.066157795 0.012821769 0.13621138 0.1284279 0.1839044 -0.0040599527 -0.042043556 0.04918282 -0.10103139 -0.067835085 0.0074666613 -0.18990067 -0.22751309 -0.12548184 0.048125084 -0.14495912 -0.11183051 -0.02419043 -0.060905863 0.077173695 0.03368114 -0.13999043 0.0159228 0.24543491 0.028758282 0.180195 0.14480944 -0.08453622 0.0070796167 0.06214665 0.009611967 -0.05559483 0.060230553 -0.09063888 0.1448037 0.09193497 -0.116711296 -0.13025361 -0.08579373 -0.081035785 0.014708062 0.12399094 0.037471067 0.08574845 0.06237991 -0.111465745 0.1742353 0.08901518 0.11462852 -0.15782405 0.05607544 -0.14915986 0.004075069 0.0076767225 -0.04099955 -0.13218729 -0.05630151 -0.007339597 -0.052508 -0.05401051 -0.058575004 -0.15393744 -0.16005018 -0.011794827 -0.12110433 -0.0040109577 0.037618607 -0.1492928
67 -0.03375003 -0.14711052 -0.02757735 0.06799359 0.008676332 -0.11497343 -0.005195072 0.028101327 -0.0066322936 0.09140388 0.11563737 -0.035899475 -0.03344841 0.09615155 0.02388812 0.080117464 -0.018598478 0.01594942 -0.118628144 0.089902624 0.055195328 0.06785565 0.011595827 -0.1596329 -0.13238105 -0.033134032 -0.07174734 0.04732838 -0.04025766 -0.06713019 -0.040590364 0.021827757 0.071430705 0.13955139 0.053515177 0.08016791 0.090200864 -0.09741787 -0.070253745 -0.016973471 -0.1185876 0.053882517 -0.06729984 -0.068455264 0.0372529 0.06122382 -0.07926206 0.018509395 -0.0981678 0.07221939 0.012512638 0.09008836 0.07062444 -0.02239755 0.05233025 -0.059182025 0.16317378 -0.037110638 -0.019423734 0.055215925 -0.05217776 -0.022953523 0.08647913 -0.02577884 0.15762019 -0.08530737 0.020241885 0.085862264 -0.07841042 0.0082171755 -0.08068823 -0.18110557 -0.2599472 -0.19759488 -0.045607284 -0.06776031 -0.034755055 -0.11799936 -0.07434592 0.08536022 -0.0576781 -0.12987942 0.016217897 0.22600487 0.10770515 0.037948232 0.23544395 -0.10075029 0.060693022 0.10967051 -0.06050726 -0.017508525 0.13375096 -0.07499335 0.15758564 0.062780455 -0.08656196 -0.1543525 -0.007716301 -0.09327231 -0.03228836 -0.01935169 -0.05553395 -0.020652274 -0.013357763 -0.0022975446 0.0700453 0.066704094 0.10615511 -0.15005913 0.012139662 -0.104941316 0.072994284 -0.004692472 -0.06901728 0.03581583 -0.12171756 0.05107015 -0.01862327 -0.023444606 -0.071394265 -0.20890197 -0.12848297 -0.042573567 -0.112056814 0.07100857 0.18312266 -0.030216346
68 -0.00868491 -0.20243925 0.07375891 0.17900498 0.097358726 -0.0015950369 -0.046194505 -0.07263881 -0.062369175 0.14215979 0.12080648 0.047221743 -0.10106279 -0.00022631754 0.1359527 0.08255899 0.04426929 0.0700042 -0.096236676 0.08563845 0.056567572 0.090972215 0.03260702 -0.1075166 -0.15773351 0.007914326 -0.089669414 0.14198959 -0.034232866 -0.09336326 -0.032280385 0.05847187 0.12679309 0.085162245 0.024431068 0.060877115 0.23271295 -0.03482589 -0.048934445 0.0164346 -0.017602785 -0.018970834 -0.04066778 -0.02588465 0.034204435 0.0010354309 -0.03694709 0.048843406 -0.103844345 0.053150907 0.056242887 0.123235844 0.11771725 0.014134787 -0.054134622 0.02494443 0.11353454 -0.05978685 -0.0039505474 -0.012565178 -0.014405081 0.030667081 0.17731509 -0.015653618 0.09435676 -0.041914955 0.027480457 0.06873965 -0.0027952038 -0.06694557 0.041010637 -0.10860287 -0.1714834 -0.10618818 -0.07138483 -0.09240932 -0.03643938 -0.02505984 0.055286326 0.07233153 -0.037279274 -0.046887327 -0.0039883642 0.17404929 0.0695905 0.13445622 0.19474192 -0.13918547 0.06584041 0.03171359 0.043929305 -0.06665168 0.13754068 -0.079506025 0.20594725 0.12164137 0.009534122 -0.1496007 -0.06226891 -0.08279049 -0.052502092 0.020763084 -0.028551973 7.18802e-05 0.08308093 -0.034850184 0.01123555 0.056878645 0.025969418 -0.12382553 0.090616025 -0.10112355 0.073024414 0.004313298 -0.027893146 0.03248839 -0.034260154 0.054085676 0.015901854 -0.011674929 -0.04147613 -0.1117123 -0.086048104 -0.011186103 -0.110211365 0.049220297 0.017804857 -0.0010731004
69 -0.119628735 -0.07151127 -0.009161908 0.07242783 0.071830824 -0.0400116 0.048517983 -0.1864324 -0.095237724 0.05329692 0.16043305 0.005707036 -0.13247462 -0.07441414 0.032261524 0.12982745 -0.18383907 -0.08439485 -0.1103158 0.15655471 0.058372904 0.16330619 -0.022901068 -0.095331796 -0.11668542 0.08915999 -0.13620213 0.018407943 -0.057182074 -0.16018453 -0.07173248 0.13340437 0.13314956 0.085542664 0.019893872 0.08104233 0.16605465 -0.008228044 -0.052194618 0.09414541 -0.15502387 0.0029574123 0.010036207 -0.11130341 -0.00022698162 -0.09116757 -0.13548407 0.014388937 0.022976182 0.03505335 0.008486066 0.093625486 0.055144653 0.021827996 0.02322932 0.066375785 0.23364107 -0.038824167 0.019689417 0.025456486 -0.03568614 0.051596094 0.20825307 -0.026496928 0.121567816 -0.027339524 0.033314373 0.12245965 -0.025205519 -0.17658544 0.051702514 -0.08277601 -0.20521389 -0.16779548 -0.013494997 -0.038198557 -0.048450675 -0.04948488 -0.035617355 0.1438656 -0.021412658 -0.10559763 -0.054961085 0.1732624 0.07708514 0.1690216 0.095143646 0.010594693 0.038683772 0.03573477 0.030562738 -0.10865809 0.091343865 -0.17146735 0.18295419 0.1830102 -0.072037406 0.0035228236 -0.10244386 -0.13404202 -0.036986884 0.020475779 0.026909016 0.10222863 0.09212403 0.0063132285 0.13138072 0.061661247 0.05550948 -0.1405514 0.0804976 -0.06777833 -0.003527774 0.013182552 -0.15615554 -0.11178339 0.0022374662 -0.052230857 -0.0075797453 -0.024023289 -0.18854338 -0.102725126 -0.10261858 0.013782295 -0.019998763 0.076564886 0.021469519 0.011638835
70 0.014167289 -0.18684262 0.09076924 0.10770154 0.06516741 -0.06777743 -0.0993379 -0.086072564 -0.07394923 0.046984762 0.14906663 0.07787573 -0.099323735 -0.0075164516 0.056601256 0.007478878 0.05099852 0.022348188 -0.112148546 0.1203989 0.09921902 0.034644056 0.02039329 -0.09351195 -0.1944152 -0.038363855 0.002038782 -0.00051273085 -0.07587399 -0.04830457 -0.015545036 0.04334185 0.09523918 0.175778 0.077419266 0.09216858 0.20593694 0.0011535098 -0.10337341 -0.03324099 -0.037222687 0.002464074 -0.057787623 -0.09307219 -0.015001187 -0.05864928 -0.060669236 -0.004565143 -0.03988252 0.030483963 0.05612764 0.027651522 0.10337693 0.1008082 0.042052675 0.07334199 0.15618746 -0.08277649 -0.054596573 0.10018229 -0.036775734 0.06248308 0.15411371 0.004988802 0.13343689 -0.09490058 0.0042559137 0.14911202 -0.028762262 -0.021458784 -0.013827805 -0.14527196 -0.20951569 -0.14462335 0.0051955273 -0.0025413637 -0.0742045 -0.05643124 -0.07484282 0.10903133 -0.04342273 -0.024064647 0.06218766 0.30981368 0.090599306 0.10824098 0.22210503 -0.17117237 -0.0053844405 0.020766076 -0.021969507 -0.08355955 0.051583905 -0.032093715 0.090720326 0.08985368 -0.09284939 -0.12123486 -0.059354827 -0.11534384 -0.045878127 0.060688924 0.02094845 -0.005178399 0.07160588 0.00896335 0.058494106 0.11663248 0.04441014 -0.18825 -0.0009605476 -0.10222309 0.08254678 -0.015384519 -0.09124799 -0.043515448 -0.0024758838 -0.066436686 0.040629756 0.020635908 -0.037333842 -0.16979825 -0.09401384 -0.022114731 -0.0780664 0.0658081 -0.017218042 -0.04907443
71 -0.064174734 -0.07833107 0.11398335 0.14996128 0.02482995 -0.045402 -0.030790467 0.036195237 -0.03215231 0.067378946 0.1843913 0.031341832 -0.08562752 -0.051509798 0.120641105 0.11307622 0.08344439 -0.024049627 0.019174995 0.12893292 -0.049454138 0.045379907 0.0021755914 -0.08428157 -0.17071378 -0.06821041 -0.100579366 0.04965769 -0.047383368 -0.083255775 -0.0009533207 0.003347871 0.17132762 0.06532184 0.062740356 0.1221762 0.18416354 -0.070969135 -0.057347 -0.01214374 -0.103659034 -0.01540074 -0.02656189 -0.13739918 0.024078168 -0.02729506 -0.11057941 -0.0039146305 -0.05002302 0.026245983 0.13641486 0.078955054 0.08326254 -0.0150730405 0.15064242 -0.014121566 0.20008603 -0.048574194 -0.05827489 -0.04602682 0.003935633 0.04654397 0.20708993 -0.01654731 0.058900576 -0.110887446 0.00045198214 0.14829557 -0.025425497 -0.14144179 0.06377153 -0.17274341 -0.2724632 -0.21309161 -0.0033816127 -0.036978878 -0.07209624 -0.14153035 0.04767725 0.13339567 0.042138524 -0.022492379 0.0830652 0.20678456 0.05202238 0.15205449 0.17358354 -0.07127269 0.06349616 0.10565886 -0.093525104 -0.041214436 0.14282505 -0.11019007 0.03906805 0.10055922 -0.08339047 -0.058142 -0.010990192 -0.10419161 -0.039079912 0.01892873 0.054058652 -0.032383747 0.08483532 -0.059208613 0.13896877 0.08155261 0.041377544 -0.12234542 0.028948395 -0.041770447 0.05535334 -0.04556761 -0.0696375 -0.08170459 0.040450975 -0.02834818 -0.0042324527 0.035742935 -0.13724245 -0.2106189 -0.16060126 -0.030019255 -0.07660741 0.048125986 -0.047478113 -0.028393643
72 0.048092898 -0.13123414 0.08740856 0.13710602 0.12119267 -0.027487848 -0.010678468 -0.054407246 0.051284067 0.14313188 0.21872202 0.05372731 -0.17172296 0.07299469 0.14839676 0.07055292 0.012052431 -0.11241209 -0.1319309 0.10932452 0.053660575 0.1041257 -0.020683916 -0.07341124 -0.14686848 0.07983621 2.3600734e-05 0.015103127 -0.0043272492 -0.10954645 -0.092411935 -0.009493229 0.17473508 0.18751319 0.009075342 0.07007142 0.22820269 -0.093395054 -0.04520806 0.00063529663 -0.15637533 -0.010971224 -0.04894304 -0.043095678 0.016380247 -0.05056451 -0.09813586 0.0047368803 -0.14998484 0.16580118 0.024982203 0.16397023 0.038733024 -0.06333143 -0.10056318 0.022722647 0.17081983 -0.044259198 0.051161364 -0.003283969 -0.022266472 0.11080896 0.13520767 -0.014303013 0.037494574 -0.1367701 0.036218196 0.0779997 -0.07298157 -0.02979378 0.019782333 -0.071302876 -0.23026086 -0.12731567 -0.06799901 -0.03783033 0.027049193 -0.076796025 -0.021212736 0.09517909 -0.025687288 -0.118350476 2.7799242e-05 0.1727671 -0.005621364 0.035986662 0.16270083 -0.14031832 0.014955838 0.11922765 -0.00092630595 -0.11233469 0.16340168 -0.16749226 0.20795804 0.0027881549 0.05770412 -0.07847602 -0.044046067 -0.055781107 -0.030471733 0.02333174 -0.061774477 -0.1103557 0.06226416 -0.008736314 -0.053375065 0.14205946 -0.058852997 -0.13283305 0.06102909 -0.11827732 -0.021150697 -0.063903704 -0.034806754 0.052307747 -0.078029975 0.05469235 0.019623367 -0.019489016 -0.06700129 -0.19282252 -0.084548965 -0.03484027 -0.04537901 0.02089915 0.019065691 -0.018646833
73 -0.09464513 -0.23497461 0.09363767 0.17691645 0.06730595 -0.011108674 -0.057539638 0.023512816 -0.07537548 0.16642939 0.2250108 0.0047415607 -0.13073733 -0.026985178 0.07950084 0.08999163 -0.06956044 0.05595692 -0.08157456 0.0014748735 0.15348598 0.07015113 0.034086566 -0.036696255 -0.18279281 0.0076788818 -0.15193117 0.034875907 -0.0082044415 -0.095229626 -0.031500023 0.054823972 0.14229591 0.1056254 0.019694056 -0.040429417 0.15826531 -0.0019033587 -0.052749407 0.055502158 -0.1166593 -0.052216526 0.032731954 -0.034656428 -0.049658485 0.015105361 0.009162057 0.027297856 -0.13417675 0.048012905 0.0035822415 0.0057926304 -0.014690128 0.07326693 0.019759176 -0.024878666 0.12797616 -0.070405625 -0.0035148303 0.068566196 -0.059469342 0.06502779 0.107856445 -0.017854286 0.14358419 0.035021868 0.0058198106 0.05035822 -0.06517352 -0.011881225 -0.0019807466 -0.123851664 -0.21718742 -0.21951632 0.057853915 -0.1373275 -0.034851078 -0.08204674 0.0025094876 0.061513536 -0.073722266 -0.15523711 -0.0007039576 0.17706308 0.12307477 0.054973215 0.23073532 -0.07450238 0.093084365 0.099013366 -0.0316312 -0.08218897 0.20568383 -0.085416414 0.17249711 0.044383634 -0.023232661 -0.057520136 -0.061276216 0.0002380121 -0.052884266 0.046786804 -0.076234065 0.003075155 -0.019898277 -0.14803351 -0.07923143 0.14897056 0.014938535 -0.13803178 0.07585948 -0.124185614 0.03986853 -0.031713627 -0.10110167 -0.047303054 -0.0060312375 0.0855146 -0.009097408 -0.12228297 -0.047668505 -0.14118753 -0.13001548 0.03581669 -0.04955294 0.10593187 0.020077795 -0.015166267
74 0.030929362 -0.12564316 0.06128223 0.14913376 0.027155176 -0.007927467 -0.026529543 0.0057202256 -0.11371489 0.04034331 0.24681446 0.052403163 -0.05901141 -0.08327446 0.023909545 0.019554175 -0.009347379 -0.025969991 -0.16512579 0.06832611 0.057377223 0.07592098 0.010357669 -0.16410458 -0.08715406 0.03557663 -0.094257474 0.032165222 -0.103864275 -0.057641137 -0.05509458 0.06447762 0.06884125 0.061050598 0.016969295 -0.010473091 0.16940199 -0.086687714 -0.09846582 -0.011757244 -0.053803947 -0.044990137 -0.04136976 -0.07790418 0.024686255 0.035364643 -0.079487525 0.057987034 -0.119312115 0.16777003 -0.04309478 -0.011249174 -0.008476304 0.13079748 -0.07474197 -0.011226462 0.098610334 -0.063543946 -0.07074738 0.04961747 -0.08917198 0.095598966 0.08326667 -0.022573268 0.096684635 -0.06848099 -0.027364539 0.1288066 -0.08450554 -0.014581682 0.039309166 -0.15672149 -0.14944142 -0.17283453 0.057362005 -0.06512281 -0.007976464 -0.1706878 -0.052967265 0.0615734 -0.016813323 -0.097552866 0.037301686 0.26896423 0.07834361 0.1641771 0.20192665 -0.087552026 0.049864076 0.0038278007 -0.02274372 -0.070143655 0.16927792 -0.07087469 0.15589842 0.11136745 0.03799939 -0.15936364 -0.06429884 -0.06896509 -0.1044176 -0.08181542 -0.037760805 0.15077429 0.080698736 -0.08651012 0.03667114 0.15784591 0.084234044 -0.16089654 -0.016933765 -0.03121387 0.04935275 0.026850855 -0.059971564 -0.072061166 0.05994956 -0.002513526 -0.053284712 -0.048678886 -0.029699747 -0.1630634 -0.12330538 -0.049722303 -0.04801204 0.06200259 0.03669832 -0.10805992
